1000 128
3499 0.26189002 0.03945423 0.12721683 -0.49667525 -0.30376264 0.008882724 0.23360316 -0.11576455 -0.5223983 0.54051274 0.32078266 0.48368734 -0.19662169 0.31304 0.168027 -0.48616874 0.09806625 -0.49787372 0.5665254 0.3593084 -0.10096982 -0.80585 -0.4417492 0.4010608 -0.47099665 -0.09292686 -0.20077705 0.24620196 0.18862712 0.34288597 -0.0810439 0.34584785 0.468484 0.13734114 0.0034474754 -0.13186136 0.3857827 -0.28027403 -0.5724987 0.96028215 -0.5433948 -0.17633483 -0.41407698 0.32933715 0.3296859 -0.27645925 0.44273993 0.4139177 0.047847178 1.0187458 -0.26282698 0.06750612 -0.34874532 -0.50602365 0.14753532 -0.0065869177 -0.017554918 -0.2891088 -0.28476897 0.6007002 -0.2987424 0.20330256 0.09270698 -0.25944886 0.10931403 0.16251847 0.35719544 -0.28206623 0.39408362 -0.75388026 0.56669205 0.48317856 0.6569814 -0.6547339 0.1682791 0.28258452 -0.012755249 -0.26309457 0.11379319 -0.6695511 -0.3887983 0.032933444 -0.36958912 -0.071914725 -0.647982 0.24868084 -0.19038694 -0.33476618 0.18499321 0.49352226 0.13944666 0.3106295 0.20288344 -0.1195519 -0.057612356 0.23519866 -0.39948145 -0.32944855 0.95216614 0.31133664 -0.31694576 0.40577763 0.28838784 -0.383626 -0.13493049 -0.14422612 -0.3397955 -0.21447071 0.2873909 0.12905204 -0.33926928 -0.22798778 0.001629628 0.33842495 0.028660446 0.11643459 -0.20795706 -0.28511798 -0.3884994 0.19784324 0.20691016 -0.67018783 -0.13472691 -0.09966581 -0.018669976 0.0032827423 -0.7802852 0.22115986
8351 -0.03310973 -0.23583487 0.19689058 0.411242 -0.23991178 -0.54067725 0.30533952 0.03810563 0.12846315 0.21336684 -0.30493823 0.75231516 0.080923304 -0.15770817 0.07685565 0.22466864 -0.32555225 0.1152163 0.5145194 0.27756643 0.17252964 -0.27635023 -0.4761789 -0.16850549 -0.007065105 -0.09153273 -0.6928889 -0.041821525 0.42422533 0.27948117 0.2540308 0.27338195 0.26627252 0.31835598 0.39290932 -0.51542765 0.49942714 -0.09699997 0.06666632 0.5770612 -0.02966267 0.30510145 -0.42205745 0.44722804 0.37219614 -0.2720542 0.56453586 0.33310392 0.090174876 0.2106475 0.66720885 -0.26966465 -0.47288352 -0.31911302 0.01892381 -0.4100721 0.3351788 0.43322194 -0.011497442 0.28683093 -0.61723953 0.09694332 -0.052362096 -0.27944866 0.049434546 0.2914246 -0.11189632 0.41250092 0.29693162 -0.7545094 0.38969013 -0.08674476 -0.21089537 -0.46895438 -0.8171787 -0.3682994 -0.07353051 -0.22494997 -0.32685038 0.040425323 -0.49058595 -0.5128372 -0.037341516 0.17877527 -0.15445316 0.16815755 -0.14170703 -0.16942643 -0.31567442 0.57654506 -0.42302933 0.35120302 -0.09293359 -0.12597926 0.013775334 -0.19408415 -0.089872025 0.32408154 0.5389591 0.2880301 -0.5743802 0.31457555 0.068234906 0.12308341 0.16298321 0.13108246 -0.20752223 -0.24414042 0.27172792 0.4415589 -0.37217095 -0.1176967 -0.50935125 0.90603244 -0.5654973 0.62038517 0.40500432 0.06592092 -0.02098936 -0.22922163 -0.4260706 -0.67143935 -0.19862103 0.17334655 0.008006107 -0.3347819 -0.41337997 0.47714227
1689 0.16569877 -0.23401071 -0.15480152 -0.23449706 -0.2662722 -0.36209705 0.43897957 -0.068717875 0.098042145 0.35855913 -0.2562022 0.46686658 -0.50626886 -0.17141338 0.124489486 0.07656392 -0.040066827 -0.5839418 0.82870597 0.8907398 -0.015291123 -0.48827896 -0.9786722 0.003352321 -0.71143657 0.0106590735 -1.0406753 0.0601674 0.37799755 -0.2187179 0.4809884 0.16244444 0.3064964 0.36611116 0.23992419 -0.17517608 0.57958835 -0.07220605 -0.46808326 0.60033935 -0.57214475 0.13776308 -0.4494786 0.42294824 0.559285 -0.6274584 0.7337672 0.55892426 0.08327427 0.7455584 -0.05336906 -0.104791164 -0.068007536 -0.18383412 0.09922759 -0.35700828 0.62906885 0.1678892 -0.100399815 0.28959778 -0.81047 -0.087687336 0.31717512 -0.6800352 0.023681419 0.29761198 -0.17201835 0.1554997 0.41908628 -0.652149 0.69790864 0.19064902 0.1293815 -0.5883813 -0.6331941 0.062170856 -0.38645643 -0.66415155 -0.078728035 -0.3093521 -0.34417552 -0.6630687 -0.1739476 0.25933498 -0.38507685 0.16514105 0.05036474 -0.22401215 -0.16010681 0.5269785 0.0036894197 -0.06463449 -0.034426432 -0.09139809 -0.11117672 0.39308417 -0.23624977 0.38676217 0.5407754 0.041357778 -0.15423961 0.11458167 0.17919496 -0.109637804 0.017525723 0.24271986 -0.30459884 -0.4081173 0.22216794 0.19201502 -0.5620436 -0.21485905 -0.10520216 0.71007913 -0.088883996 0.40135562 0.49711087 -0.38462216 0.09609481 -0.068581745 -0.22585449 -0.936073 -0.16811086 0.09472798 0.1739151 -0.028559705 -0.15156636 0.68732256
21907 -0.00652034 -0.24471329 0.19100447 0.42803106 -0.27106756 -0.5714864 0.28697726 0.020447735 0.11813938 0.19805776 -0.3122652 0.7584151 0.062282063 -0.1376438 0.08540628 0.21681087 -0.3289037 0.12928599 0.49050647 0.28170657 0.1999083 -0.26741818 -0.4718716 -0.16586842 -0.04435954 -0.09777753 -0.6590654 -0.057198916 0.41564363 0.24495578 0.28031126 0.21679917 0.2592308 0.32567188 0.3820188 -0.51994896 0.482053 -0.14491048 0.104902595 0.5874659 -0.043032095 0.3147897 -0.45677742 0.4748606 0.37370571 -0.2596073 0.55683404 0.3270106 0.10282043 0.21878675 0.6908345 -0.27928388 -0.4663194 -0.29527262 0.009124254 -0.41515562 0.33589697 0.40389708 -0.03892284 0.2841234 -0.59351367 0.057027757 -0.07152059 -0.30436137 0.03987097 0.30875695 -0.106230035 0.39592275 0.28936803 -0.8030796 0.39341378 -0.085702084 -0.23741129 -0.50610155 -0.79152066 -0.39357382 -0.07333661 -0.23947197 -0.3254898 0.034777693 -0.51540726 -0.5160075 0.0075140274 0.20086282 -0.18554632 0.17458425 -0.11776373 -0.16573495 -0.31196117 0.5614842 -0.4013167 0.33191058 -0.09579769 -0.10643889 0.040559262 -0.18365577 -0.09538694 0.30815494 0.5532783 0.2705922 -0.5808335 0.35592794 0.025802376 0.12609817 0.16473071 0.11309387 -0.18805698 -0.27865455 0.25775957 0.41241032 -0.3765043 -0.10839272 -0.5078092 0.9002256 -0.5421005 0.629422 0.4063949 0.06187734 -0.012161607 -0.25114 -0.43067667 -0.67955136 -0.20519756 0.16485071 0.03572051 -0.32508236 -0.41372266 0.4787941
7822 -0.063041255 -0.2684249 0.18801859 0.4620685 -0.25995305 -0.558322 0.26505098 -0.0025719665 0.17934218 0.16017637 -0.3576549 0.79361725 0.031573463 -0.12143349 0.044075627 0.23692279 -0.2923871 0.13089024 0.478058 0.26229987 0.20224679 -0.20698863 -0.45509052 -0.2192124 -0.01461177 -0.06163906 -0.6628687 -0.09002786 0.46288323 0.22217366 0.30047688 0.20734106 0.22852916 0.3483363 0.39803746 -0.46078348 0.45814764 -0.106731065 0.11209223 0.50134045 -0.060117815 0.37674692 -0.47964665 0.4771307 0.4132734 -0.27508608 0.51695037 0.33141905 0.07217499 0.18570517 0.6911433 -0.3253652 -0.3994321 -0.20010613 0.04720239 -0.41450292 0.30815014 0.42057204 0.008734242 0.24045803 -0.59799826 0.039869353 -0.0629967 -0.2802932 0.02714134 0.3357135 -0.12438646 0.43693817 0.26448676 -0.7702292 0.41134918 -0.1609122 -0.24632582 -0.48558667 -0.8020289 -0.35228965 -0.020892404 -0.18066004 -0.3528836 0.05961215 -0.5596183 -0.53365916 -0.022883395 0.28200623 -0.22813393 0.164571 -0.07586705 -0.1854193 -0.30814016 0.5373974 -0.3775552 0.30587488 -0.07460464 -0.13169527 0.0772233 -0.17861633 -0.045831848 0.3040156 0.55735296 0.21044298 -0.5834963 0.35427788 -0.019145472 0.1341332 0.15070201 0.17169073 -0.22007519 -0.35308787 0.22118656 0.33672103 -0.3418663 -0.14785057 -0.54667574 0.86037207 -0.57207364 0.55548626 0.4328584 0.07385931 0.019240541 -0.28676122 -0.43560475 -0.627503 -0.24083546 0.18476117 0.0049799792 -0.33072498 -0.40967125 0.47800443
18856 -0.07090397 -0.3782203 -0.14329955 -0.4159484 0.23338449 -0.3568741 0.64752734 -0.34690112 0.32605246 -0.17391713 0.06717026 0.094259165 -0.24568754 -0.4491658 0.26971617 0.00429962 0.18069795 -0.6410008 0.6015027 0.87079537 -0.09093974 -0.13148266 -0.6908974 0.15389292 -0.422611 0.33134815 -0.8747175 0.24690907 0.18416972 -0.33742017 0.22443768 0.4830731 -0.07918433 0.30549988 0.10804051 -0.26259884 0.37921417 0.2675083 -0.09703221 -0.039216988 0.03510232 0.2741194 -0.061427187 0.29342178 0.2897642 -0.5631336 0.65351194 0.5177941 0.09364025 -0.085595995 0.09310433 -0.09902881 -0.0072570676 0.18312778 0.10727935 -0.41209403 0.8056338 0.22380032 0.11173012 -0.27988875 -0.19011204 -0.49960697 0.2718188 -0.7250098 0.047507755 -0.27155212 -0.21139628 -0.035270687 0.12717235 -0.20216773 0.42363244 -0.19619368 -0.33906817 0.17765528 -0.95332664 -0.013310406 -0.4318247 -0.77960783 -0.10742498 -0.4183563 -0.26579195 -0.51243305 0.012832147 -0.28523007 0.23157078 0.37499714 0.24673453 0.06426562 -0.04817805 0.65828735 -0.4547289 0.03547577 -0.55772084 0.064552695 0.11584911 -0.015145542 -0.22225854 0.64629346 -0.05670663 -0.11255355 0.0032758298 -0.32346243 0.1582337 0.20416795 0.30261993 0.2220863 -0.49327672 -0.58680147 0.106868826 0.19924615 -0.598129 0.052900895 0.12492159 0.24097575 0.13484292 0.41196024 0.1923321 -0.28264746 -0.23910704 -0.053809736 -0.1572204 -0.46223167 -0.12736847 0.4694293 -0.39019647 -0.16189969 0.30106577 0.7223373
19753 -0.21807641 -0.47314122 -0.017623361 -0.090756305 -0.25063795 -0.47577652 0.0062460606 -0.1996525 0.391979 -0.20021598 -0.44927672 0.4115336 -0.4951398 0.043983117 -0.04361319 -0.018054869 -0.17452618 -0.5897606 0.57940316 0.6794271 0.09349605 -0.3043996 -0.6695469 -0.008260629 -0.32186064 -0.050648656 -0.6750826 0.6146825 0.5424795 -0.36322784 0.56728554 0.3845344 -0.14105242 0.2689289 0.27147987 -0.15114962 0.5136514 0.41653413 -0.45100385 -0.036189668 -0.3638476 0.32700104 0.03983826 0.17223589 0.25137934 -0.7324516 0.79681337 0.5426642 0.18126662 0.51669204 -0.05523901 -0.4721327 0.05263398 0.35012993 0.11106683 -0.1310182 0.35807207 0.09747939 0.24578224 0.19360001 -0.50926626 -0.3234687 0.25724545 -0.67089754 -0.12040874 0.56296796 -0.043476842 0.10023069 0.34916332 -0.2014213 0.5855783 -0.10073199 0.11102995 -0.28204367 -0.48697868 -0.0398997 0.01154915 -0.38180438 0.10115672 -0.11708123 -0.3901802 -0.54656744 -0.24473478 0.4416808 -0.71555036 0.37429932 0.17264472 0.17398866 -0.19013384 0.16384731 0.18420447 -0.09765668 0.0074250707 0.042196646 0.37478092 0.21303998 0.10880851 0.37654015 -0.06434153 0.2110682 -0.3170015 -0.31830373 -0.011591638 0.14548655 -0.2659413 0.31368694 -0.12425541 -0.5690723 -0.19786899 0.15617234 -0.31700635 -0.42278278 -0.12370546 0.47763112 -0.043277238 0.4242405 0.7485346 -0.14365661 -0.19057336 -0.25986543 -0.028746473 -0.13763408 -0.22639833 0.35591784 0.28325948 0.110261336 -0.35797584 0.5577072
6653 0.18309283 0.03240788 -0.07861339 -0.49932855 -0.5588401 -0.28893143 -0.12401155 0.13275073 0.27342147 0.30765226 -0.16195387 0.22724088 -0.63581085 -0.05581588 -0.3644217 -0.17334554 0.13320379 -0.4244994 1.0912874 0.6604598 0.086044736 -0.6292648 -0.29277486 -0.12569651 -0.390347 0.050183866 -0.88011026 -0.02820976 0.5332429 0.13055015 0.29254657 0.23699933 0.18233852 0.009390135 0.57052994 0.12411859 0.43774173 0.13301991 -0.99151653 0.78501534 -0.51478606 0.0062006754 -0.06307719 0.27043176 0.70675796 -0.35571098 0.7442702 0.36528695 -0.3488191 0.5987464 -0.25398147 0.25763643 0.08383143 -0.08005565 0.16032477 0.2002366 0.20807858 0.02409873 0.5202618 0.17211579 -0.80362207 0.11492185 0.42373815 -0.1187924 -0.3172776 0.29560587 0.21079387 0.15566199 0.040452298 -0.123318166 0.41066483 -0.18504484 0.13301449 -0.54914105 -0.08957492 0.77586126 0.17113173 -0.7166083 0.003336655 -0.8079323 -0.27059886 -0.5692019 -0.39473417 0.08795969 -0.11717242 -0.15561701 -0.09204035 -0.14207906 -0.09210214 -0.082376234 -0.35434777 0.09905891 0.24392073 -0.03350641 -0.53174436 0.27318406 0.085054204 0.04820515 0.6881818 -0.32658508 -0.060464516 0.03197064 0.88295335 -0.13977599 0.17394237 0.25662053 0.025532398 -0.5633502 0.16236244 0.36922085 -0.5537564 -0.33722904 -0.02173391 0.020860717 0.15436372 -0.08593185 0.4020406 -0.4984574 0.26269546 -0.16318384 0.05522042 -0.6731247 -0.51569563 -0.15878925 -0.19188933 0.26559058 0.074754454 0.17914717
16368 0.15012102 -0.22109622 -0.14252958 -0.32655472 -0.1228169 -0.33055118 0.37777197 -0.057028305 0.22893114 0.30922276 -0.23868325 0.41500932 -0.4698969 -0.1204969 -0.010613657 0.094613574 -0.0024786766 -0.5430954 0.71896464 0.74669486 -0.055560905 -0.4099743 -0.74405 -0.039954863 -0.642473 0.10562735 -0.84046763 -0.028090738 0.22402957 -0.26478267 0.4627365 0.07360886 0.30403367 0.3451218 0.21653958 -0.111588575 0.4570897 -0.14475513 -0.31024787 0.42117923 -0.44844443 0.13041371 -0.44842952 0.37077752 0.4973345 -0.5451324 0.6874634 0.44550082 -0.10881029 0.54173356 -0.057024192 -0.02317023 0.018602801 -0.09764864 -0.00821183 -0.2717817 0.6002324 0.19834043 -0.024927989 0.23973006 -0.77512234 -0.09554582 0.2616273 -0.641267 0.01488741 0.1606568 -0.078528106 0.074402735 0.33931696 -0.38868794 0.54215175 0.17251019 0.049207706 -0.39585713 -0.6195041 0.07427714 -0.31481335 -0.5612592 -0.17449419 -0.3100465 -0.2816198 -0.52939403 -0.14686666 0.24160212 -0.27276048 0.17613101 0.06628587 -0.24888997 -0.17662632 0.44518003 -0.0061397296 -0.102151714 -0.036321126 -0.17134911 -0.046202216 0.34282628 -0.1661293 0.31388825 0.40849012 0.016768293 -0.21106315 0.053613152 0.013729656 -0.15122738 0.05554532 0.1732057 -0.28482923 -0.363293 0.10282825 0.100223295 -0.51993406 -0.2250605 -0.18713035 0.5646663 -0.15560012 0.25390485 0.39565945 -0.32087037 -0.02146108 -0.01745527 -0.22172871 -0.7613885 -0.18104708 0.041576087 0.07562724 -0.0031084686 -0.00048229017 0.6611082
685 0.24796227 -0.20599419 -0.3834064 -0.22476856 -0.12010222 -0.43771675 0.28191057 0.018372498 0.5063855 0.41925302 -0.5122706 0.40500817 -0.4917975 -0.016798101 -0.046553675 0.44411922 -0.09355579 -0.54226536 0.59186345 0.7747212 0.001032497 -0.19254968 -0.62286085 -0.16611551 -0.7057428 0.27545136 -0.83910084 -0.20109163 0.26086086 -0.24194358 0.3339977 -0.059441537 0.28575063 0.6370518 0.1404112 -0.22720963 0.6895297 0.004348517 -0.15943772 -0.0007408116 -0.48339728 0.42433256 -0.3113011 0.23146492 0.4380624 -0.73835784 0.51171476 0.26938942 -0.33620387 0.0796931 0.076660044 -0.3267807 -0.007412062 0.21047655 0.05262362 0.07619844 0.82949424 0.06068041 0.15453759 -0.018388934 -0.74963087 0.06485402 0.17366804 -0.51883286 0.059249744 0.17199542 -0.038009465 0.26594585 0.2955457 -0.30472082 0.47431868 0.21234943 -0.09286646 0.05849025 -0.80107313 0.35187873 -0.4783002 -0.38413012 -0.43549255 0.023415996 -0.38555375 -0.48947474 -0.24184793 0.07940231 -0.39018682 -0.0749659 0.079028055 -0.30931747 -0.2260667 0.28538907 -0.240079 -0.21878913 -0.16462758 -0.5635086 0.20068268 0.24533936 -0.32087782 0.26380837 0.44175684 0.0015364588 -0.36061105 0.16579007 -0.3429676 -0.32813722 0.10327557 0.19375774 0.0929333 -0.036512394 -0.1713531 -0.10881371 -0.45046547 -0.25154 -0.39706767 0.6794652 -0.18862672 0.16103551 0.31570166 -0.084917516 0.23855321 -0.033173602 -0.2284408 -0.6215031 -0.32581404 0.03930712 0.12463257 -0.25523886 0.10559173 0.6250835
13272 -0.461372 -0.1037773 0.00033454853 -0.007538914 -0.42501658 0.058910377 0.3086889 -0.3305222 0.17141825 0.50104 -0.10417379 0.65565926 0.078363895 -0.64739347 0.061869066 0.059268657 0.26980823 -0.578368 0.7981279 0.33961552 -0.3037547 -0.20624833 -0.8759822 0.050680745 -0.42843136 -0.17169233 -0.7300155 0.10784716 0.3780672 -0.08840188 0.12488985 0.40397966 0.021158993 -0.17404155 0.49902874 0.18517515 0.5259191 0.18054722 -0.75040144 0.6470704 -0.6831091 0.04976684 -0.11767658 0.19434549 0.46294993 -0.36224478 0.8858031 0.20271544 0.38512415 1.0442045 0.014042705 -0.25316978 -0.3259823 -0.4765848 -0.08194375 -0.19243577 -0.06758962 0.42789608 -0.22918174 0.5061788 -0.29112837 0.57505095 0.5414871 -0.6001046 -0.25105727 0.12769423 -0.26276037 0.14955524 0.7142687 -0.7571298 0.3914419 -0.070111945 0.31780988 -0.7995266 -0.5288737 0.3557808 0.0920344 -0.20263267 -0.014535846 0.063371114 -0.061410666 -0.28121972 -0.22054636 0.35886484 -0.3749855 0.013788832 -0.30074877 -0.20135812 0.19026768 0.3928137 -0.005320796 0.10153903 -0.06619551 -0.10476134 -0.31733307 0.23134148 0.088002145 0.3206739 0.5855448 0.0051909704 0.4045454 -0.13595095 0.58849233 0.008455532 0.03494028 0.14129977 -0.032956164 -0.08746675 0.47832578 -0.07411303 -0.27130347 -0.48818645 -0.05670436 0.42607954 -0.17919298 0.117345154 -0.062403113 -0.6758465 -0.17188208 -0.072091036 0.00079750246 -0.5494696 -0.1160921 -0.23531222 0.5460178 0.05327443 -0.47313866 -0.069646895
7645 0.6364178 -0.16670945 0.029322179 -0.66307354 -0.3776607 -0.33271387 0.22027442 0.24829741 -0.2517969 0.19731462 -0.010990586 -0.022871392 -0.22072533 0.079367824 0.3009426 0.08375231 -0.24356274 -0.08958412 0.63081104 0.92985076 0.14118822 -0.391523 -0.61169595 0.04764487 -0.56226736 -0.10207509 -0.83204675 -0.01198476 0.25656074 -0.02155874 0.41174996 -0.047990356 -0.0933365 0.2517797 0.3532522 -0.36871177 0.022840587 -0.0340514 -0.40477353 0.36546698 -0.33374 -0.15811025 -0.32808954 0.40985548 0.5771143 -0.38275355 0.041916333 0.094922714 -0.13152352 0.656793 -0.21687405 0.1462102 0.15086125 -0.42885488 0.091022074 -0.092930794 0.48171985 -0.23127705 -0.01387871 0.035277434 -1.0741007 -0.2685498 -0.10164582 -0.33420837 0.15271561 -0.043571897 -0.55322784 -0.13970785 0.354505 -0.33373418 0.33741972 0.30898815 -0.10939424 -0.50375175 0.12676269 -0.0952125 -0.33749887 -0.7608147 0.11328779 -0.44913492 -0.09822154 -0.3428335 0.113126636 -0.11112651 -0.048862096 0.116193146 0.23519777 -0.0132563505 -0.05774377 0.008125948 0.16393377 -0.18836461 -0.022232205 0.08920373 -0.27331817 0.65129244 -0.08611379 0.071963795 0.4727987 -0.0651921 0.089121476 -0.049731646 0.09955103 -0.24803433 -0.035969898 0.5465564 -0.32761887 -0.14020626 -0.10593862 0.36905795 -0.3830762 0.24282917 0.3191814 0.14685361 0.25937262 0.33189833 0.22942245 -0.23334074 0.45717397 0.3174802 -0.0044235685 -0.80599004 0.09434252 0.30259243 0.12653245 0.32539114 0.22916819 0.6304369
12496 0.53247446 -0.0008864344 -0.14818294 -0.3384667 -0.2908164 -0.2408952 0.21610302 -0.06347485 -0.51672226 0.64050627 0.24401157 0.4201045 -0.20918693 0.23434119 0.27180138 -0.51648474 0.025719661 -0.44616827 0.6471968 0.45624748 -0.0064642024 -0.60250235 -0.43776906 0.56193334 -0.56963706 -0.17049685 -0.21137263 0.48204553 0.35522985 0.13017632 -0.09567515 0.53068864 0.44977948 0.31354496 -0.24744622 -0.28699574 0.30067056 -0.17342827 -0.51185906 1.0817493 -0.68647647 -0.108298965 -0.41455677 0.10520213 0.29498383 -0.47120002 0.50120705 0.47843403 0.0848713 1.1990795 -0.17958474 -0.09317142 -0.37421474 -0.31608823 0.33434713 0.08164238 0.13369948 -0.5488399 -0.39664158 0.57719654 -0.25401723 0.15018125 0.29964072 -0.24920072 0.15864502 0.11208276 0.26950228 -0.4118255 0.4417795 -0.7224167 0.5715396 0.6156847 0.42692518 -0.7793756 0.047409363 0.09898059 -0.1391966 -0.169688 0.015977247 -0.6055579 -0.5186228 -0.09682323 -0.14498527 -0.36405525 -0.5288581 0.3573119 0.026092527 -0.132958 0.23732594 0.5972891 0.267716 -0.050507586 0.04035034 0.01022749 -0.01824608 0.2218273 -0.16282071 -0.39191943 0.9031397 0.5287672 -0.2872519 0.16662847 0.028583268 -0.47705713 -0.22622909 -0.19382401 -0.21525148 -0.025103694 0.28249297 0.34142 -0.5768306 -0.32238084 0.052123092 0.40132803 0.05600748 0.15289457 -0.074517794 -0.14467445 -0.35163477 0.17549469 0.21204305 -0.8681516 -0.22327597 -0.009552919 0.14873041 -0.15660708 -0.7409656 0.25182846
17047 0.29785797 -0.059843034 -0.037972014 0.20287251 -0.21292582 -0.3434496 0.5851702 -0.17105356 -0.40810344 0.03351465 -0.1196043 0.2853539 -0.077531435 -0.45984194 0.5767106 -0.38420376 -0.031488553 -0.5708268 0.36154902 0.53226954 0.057497602 -0.27882496 -0.87942034 0.3651177 -0.2849716 0.041619617 -0.39641446 0.5530385 0.31638697 -0.21618827 0.20920508 0.35890368 -0.1963879 -0.27694184 0.087889545 -0.35640794 0.14952704 0.2405056 -0.057191435 0.77948505 -0.68614876 -0.2030567 -0.025041614 0.31074658 0.21185045 -0.66574913 0.18282156 0.5628893 0.49579722 0.8369362 -0.0082473615 -0.45848617 -0.1433247 -0.11873075 0.20333399 -0.3401494 0.44299263 -0.15370803 -0.16266805 0.22282057 -0.36541295 -0.11670678 0.11151252 -0.42106777 0.40847424 0.13620862 -0.44653124 0.19912054 0.3876703 -0.63294476 0.6502453 0.23128444 0.09022931 -0.5949023 -0.33122715 -0.39544085 0.11087829 -0.33930257 0.39207253 -0.054733384 -0.38726348 -0.6933407 0.024052763 0.0068791173 -0.510787 0.0186808 0.35596317 0.02191931 0.2395702 0.4660699 0.43369365 -0.03113511 -0.1717372 0.18518305 -0.31197488 0.32265612 -0.24836056 0.17887847 0.41787496 0.35629508 0.17835413 -0.21286853 0.2746519 0.20201865 -0.05617505 0.0803269 -0.086128116 -0.6491964 0.09436662 0.46773973 -0.1343059 0.19289379 0.33185843 0.6158574 0.20516092 0.67472965 0.23677175 -0.375506 0.34931383 -0.20464115 0.14024165 -0.73105884 0.15999888 0.19860856 0.3908879 -0.009029879 -0.12967288 0.08093368
3252 0.21724103 -0.015045126 -0.50959224 -0.59141606 -0.009181837 -0.09021527 0.08886056 -0.10141451 0.5352008 0.17282659 -0.52846545 0.108402684 -0.7131687 -0.11557301 -0.6039182 0.12306836 0.23542304 -0.99041104 0.6542999 0.39881194 -0.1444274 -0.23011197 -0.49587035 -0.64128196 -0.7505478 0.22101358 -0.49987 -0.2074015 -0.10764874 -0.60244465 0.33725715 -0.31700745 0.4651974 0.033256486 -0.0011835675 0.6848074 0.6759579 -0.2142795 -0.57910895 0.41955566 -0.66114825 -0.18261589 -0.6032719 0.22925213 0.54264605 -0.20941973 0.5461125 0.17121734 -0.3551433 0.42878246 -0.69628763 0.04869485 0.19439398 0.16081873 -0.084502004 -0.18793342 0.466109 0.27715397 0.26603925 0.199885 -0.48767588 0.2630087 0.5100925 -0.5465734 0.1527896 0.26006144 0.26071703 -0.34928873 0.4838782 0.21389453 0.72817904 0.36244664 0.23254721 -0.2629192 0.04610391 0.62514687 -0.29207578 -0.112581715 0.01805566 -0.4628635 0.013326394 -0.21009779 -0.2563696 0.43645242 -0.50238496 0.023669684 0.029325984 -0.5360265 -0.6078465 0.22269623 0.13379198 -0.3599795 0.25870594 -0.054606326 -0.06322221 0.612703 -0.29662767 0.094505414 0.08157215 -0.0799703 0.17083211 0.07317329 0.14891344 -0.533931 0.025731575 -0.021581143 -0.19219333 -0.7963083 -0.003138237 -0.1883119 -0.40511334 -0.5640265 -0.20340373 0.38990235 0.07802072 -0.46472156 0.28260952 -0.5239275 -0.09898559 -0.04042862 0.1308168 -0.36160228 -0.55654776 -0.23400415 0.35383525 0.12409353 0.1297875 0.3376675
12783 -0.04596103 -0.26568136 0.17972624 0.43979985 -0.2590286 -0.5505926 0.28922006 0.040311657 0.11917679 0.18719754 -0.3328081 0.7392275 0.06695381 -0.154022 0.08125463 0.24357095 -0.33169058 0.14601812 0.5048357 0.26489595 0.1786448 -0.24509408 -0.44501615 -0.14334185 -0.025385883 -0.12955363 -0.6702708 -0.07348129 0.39359424 0.24831064 0.2815367 0.21668622 0.2532781 0.3235428 0.37912008 -0.5075335 0.4961838 -0.12281539 0.08590362 0.55079114 -0.00477959 0.31279114 -0.4373838 0.4633867 0.34966412 -0.24230424 0.57549417 0.323154 0.10874145 0.20661642 0.69003093 -0.24283521 -0.46152985 -0.33509138 -0.014217216 -0.41191426 0.33818695 0.43614334 -0.0060606496 0.26794383 -0.61630285 0.05129659 -0.060026437 -0.28047886 0.058903314 0.2881766 -0.100100115 0.37538648 0.26874763 -0.7509822 0.38281876 -0.097600654 -0.24728836 -0.44558093 -0.84121454 -0.4040375 -0.12114876 -0.23986211 -0.33535674 0.075719245 -0.48165017 -0.5040941 -0.00025030892 0.19359462 -0.12666507 0.1560631 -0.13358258 -0.15841267 -0.29695004 0.54180354 -0.402996 0.32876915 -0.10969662 -0.10739425 0.040176198 -0.17974347 -0.092704654 0.3576376 0.5014818 0.2813107 -0.5649811 0.34220955 0.022811452 0.16874659 0.187434 0.11094142 -0.15707655 -0.2327115 0.24503556 0.44495332 -0.38049522 -0.09272186 -0.5348657 0.9351609 -0.5614383 0.645489 0.4167756 0.06617029 -0.0007914411 -0.21463679 -0.4264981 -0.67100585 -0.19922188 0.18240763 0.007996542 -0.34152693 -0.39000374 0.48666435
1668 0.617167 -0.15934934 0.0151959555 -0.6599002 -0.37129888 -0.32266748 0.2520788 0.23340409 -0.25032672 0.23182532 -0.020138208 -0.017409777 -0.22816229 0.050631892 0.33365616 0.089607 -0.2540557 -0.10602895 0.66017723 0.9352702 0.12423832 -0.4058743 -0.6346492 0.071903154 -0.59660465 -0.08977563 -0.82368314 0.018013388 0.24130534 -0.057847254 0.4196796 -0.06405556 -0.07031922 0.26163527 0.32980064 -0.3941233 0.02829935 -0.050727047 -0.4234493 0.3917049 -0.34937683 -0.15385252 -0.32238862 0.39757442 0.57963777 -0.39621013 0.07436371 0.12274466 -0.10013285 0.66725606 -0.22366205 0.1268692 0.14694923 -0.4216394 0.08976217 -0.12640987 0.48836058 -0.20754749 -0.04410709 0.046313602 -1.0536317 -0.23975006 -0.076245 -0.348019 0.16665588 -0.04848135 -0.5565458 -0.1423889 0.3689655 -0.3419821 0.33395714 0.33086416 -0.08718936 -0.5079196 0.08159027 -0.086890765 -0.35721725 -0.7586738 0.10862825 -0.43967876 -0.09579264 -0.371198 0.108707026 -0.11166185 -0.04713383 0.093305185 0.22950618 -0.026572164 -0.047202725 0.013063811 0.1783527 -0.19530706 -0.04209945 0.078523785 -0.28565368 0.6397894 -0.10911617 0.09594802 0.46822125 -0.06251211 0.11672784 -0.07047501 0.13300426 -0.22537671 -0.051172968 0.52028525 -0.31862673 -0.118593454 -0.06328413 0.35065317 -0.396857 0.24047592 0.3076565 0.18363786 0.26120245 0.36409578 0.23518613 -0.27317482 0.45899215 0.3333137 -0.016687427 -0.81531763 0.11426011 0.29045355 0.14921895 0.31222785 0.23596132 0.60382956
15976 0.3214524 -0.062932365 -0.049037505 0.28224474 -0.2201058 -0.32380134 0.5619506 -0.16580896 -0.4786379 -0.024347223 -0.09550434 0.2886483 -0.051570974 -0.40480465 0.6222692 -0.3569622 -0.069826424 -0.5571524 0.3337471 0.5689186 0.09933746 -0.25517237 -0.8866335 0.38769698 -0.3051058 0.10983968 -0.38633522 0.5420424 0.32759574 -0.23786132 0.21661164 0.34804845 -0.16939445 -0.2929997 0.028618872 -0.33507574 0.10537575 0.2482596 -0.015586748 0.75193095 -0.6705218 -0.20763488 -0.022102354 0.2785922 0.2179478 -0.6493068 0.15945464 0.62803835 0.46332026 0.820156 0.015995238 -0.5188791 -0.15067717 -0.11768572 0.20808554 -0.32321107 0.40088582 -0.2158642 -0.13076456 0.20370863 -0.29046908 -0.13160396 0.096924394 -0.35282275 0.383042 0.17256054 -0.47384548 0.19645008 0.34118935 -0.6542736 0.6784277 0.25124353 0.09474646 -0.5925287 -0.2308335 -0.38697952 0.098924786 -0.26677915 0.4725334 -0.022707384 -0.358029 -0.7357148 0.041473348 -0.09024017 -0.50787294 0.024460215 0.32209578 0.11062601 0.28693327 0.41166538 0.35305464 0.0108334925 -0.16952725 0.17821965 -0.3365793 0.31809613 -0.21971762 0.1805907 0.36240068 0.41898793 0.117457874 -0.20595302 0.23616914 0.27788135 -0.07708246 0.12447494 -0.079618655 -0.600744 0.11921142 0.5150772 -0.15948452 0.20262541 0.35587165 0.5901364 0.17076285 0.68040925 0.24432899 -0.41023582 0.4444166 -0.17472078 0.099393696 -0.74852985 0.21750483 0.2761825 0.3197354 -0.004289856 -0.11742708 0.07959664
19386 0.0726831 -0.21012765 -0.25455883 -0.10987605 -0.33282307 -0.21950938 0.19350766 0.29403886 -0.34460104 0.38890827 0.017300654 0.3182043 0.04688132 -0.30903548 0.35343578 -0.047691617 -0.106866695 0.09864809 0.75068045 0.2543054 -0.21160737 -0.62626743 -0.3077673 0.29756895 -0.37125576 -0.4835962 -0.3545946 -0.26326445 -0.3400504 4.5306806e-06 0.36368638 0.001608637 0.5171543 0.19047122 -0.11213496 -0.43934366 0.42867345 -0.5460664 -0.32339293 0.6571809 0.16881108 -0.19929029 -0.5545545 0.5017243 0.16964316 -0.030166889 0.681942 0.37393373 0.25732857 0.638374 0.22324646 0.43580145 -0.39230356 -0.85124505 -0.26623952 -0.36750105 0.4452658 0.17921494 -0.08425057 0.49818695 -0.424608 -0.06906909 0.10855197 -0.40116587 0.26688376 0.14808735 0.0670868 -0.07233444 0.37516984 -0.57318956 0.29061785 0.3773585 0.18263061 -0.24297386 -0.5642674 -0.35397506 -0.7809404 -0.6538236 -0.032248396 -0.10507855 -0.080587104 -0.3283479 0.14873652 -0.22490048 0.32003155 -0.06893015 -0.19595946 -0.065921284 -0.31169674 0.3169495 -0.30062336 0.44085652 -0.09298511 0.13785228 -0.22890298 0.17739566 -0.34101304 0.41098034 0.3957133 0.19545572 -0.09684685 0.34166098 0.38929772 0.17687418 0.30510837 -0.25178897 0.17310113 0.20437169 0.48827925 0.7506299 -0.5410587 0.42377597 -0.35965636 1.1467737 -0.16691282 0.75987464 0.035791893 -0.22873321 0.08834523 0.31480646 -0.29054138 -0.94734013 0.07995609 -0.12033165 -0.056632604 -0.15857059 0.111208856 0.4493161
407 -0.1511756 -0.22886866 -0.4441159 -0.35059926 0.28809336 -0.45896593 0.7991685 -0.3343654 0.52722865 -0.1805469 0.16176113 0.065682635 -0.16142383 -0.36417466 0.44451565 -0.118102625 0.2939953 -0.560144 0.7223249 0.97021997 -0.10527869 -0.15502225 -1.1455013 0.44752148 -0.4508546 0.44467208 -0.6669793 0.48941183 0.53659177 -0.5135354 0.37338457 0.34064865 0.19019401 0.3120056 -0.11201514 -0.12056567 0.43917882 0.18953665 0.12538615 -0.10170906 -0.020024784 0.34864914 -0.14424883 0.31286854 0.021097207 -0.5974287 0.57042277 0.6009486 0.1707946 -0.16901784 0.064237334 -0.2232922 0.09387907 0.35222432 0.19728419 -0.45584852 0.6480678 0.24491696 -0.09775894 -0.30589154 -0.30850092 -0.43585372 0.18230578 -0.89618134 -0.07347053 -0.30687043 -0.05369273 -0.17221133 0.2662792 -0.19500491 0.5562299 0.033470932 -0.33859032 0.0530014 -0.8988426 -0.018077504 -0.4627748 -0.65687865 -0.08735147 -0.54077065 -0.28771478 -0.5577594 0.122966945 -0.19423519 0.38446197 0.47070348 0.18075675 -0.14361234 -0.119429916 0.6340549 -0.44639227 -0.019225314 -0.56212246 0.3671034 0.34781468 0.104441665 -0.15590931 0.68337816 0.024891589 -0.00082027854 -0.50716704 -0.21997361 -0.018211247 0.070014015 0.12848605 0.16787998 -0.2691038 -0.46763343 0.07276021 -0.08593654 -0.40657726 0.03772265 0.039803058 0.2928376 0.10231287 0.3522704 0.37930804 -0.26354218 -0.37749088 -0.055272263 -0.2237528 -0.45375836 -0.07557011 0.39674985 -0.2195174 -0.35467884 0.14411737 0.7765075
6279 -0.00918623 -0.4582746 0.26964778 0.11873298 -0.1461439 -0.3959644 0.47279745 -0.25337657 -0.20833778 0.38186282 -0.3403217 0.46230373 -0.45667624 -0.21069103 0.049967725 -0.06439111 -0.23493856 -0.086103946 0.41123226 0.14823195 0.3502651 -0.17328373 -0.1620329 -0.1853877 -0.36059186 -0.15720955 -0.5307446 0.23020053 0.22490786 0.1652055 0.066315696 0.11004331 0.09294293 0.2520123 0.072226815 -0.34686255 0.5276208 0.2843613 -0.3710403 0.61213964 -0.7115098 0.002561404 -0.5630658 0.38404268 0.6628847 -0.22346058 0.5092834 0.13258642 0.19944052 0.76032734 -0.08495443 -0.06677633 -0.14031747 -0.33426273 -0.36389273 0.06200892 0.32042727 0.08786502 -0.092841156 0.22697327 -0.53309166 0.32485825 0.5106735 -0.5940773 -0.19858658 0.024156801 0.06587057 -0.089459494 0.49248424 -0.39650702 0.5870632 0.34498796 0.11768299 -0.29034126 -0.12142227 0.0545798 -0.49831438 -0.49246973 0.02231751 -0.028774684 -0.19048016 -0.039760817 -0.07033325 0.32033202 -0.32484967 0.04415962 -0.0628076 -0.42301148 0.36034134 0.09679745 0.088099405 -0.08882501 0.06368307 -0.19450319 -0.18312176 0.17546317 -0.045446213 0.28074846 0.43865284 -0.36838862 -0.16492718 -0.15942998 0.043873247 -0.03662318 -0.025505904 0.4198405 -0.17608099 -0.16117787 -0.15582787 0.44354752 -0.22365303 -0.29233974 -0.42814487 0.33728522 0.093311116 0.27436215 0.23978871 -0.1623436 0.037506513 0.007436901 0.0018361111 -0.43245742 -0.18976602 0.055780098 0.48735392 0.107049264 0.12771438 0.362649
2414 0.31236485 -0.13117777 -0.10622201 -0.3169769 -0.23490945 -0.45852742 0.28123406 -0.027055582 0.075401686 0.28815866 -0.23057163 0.2945172 -0.40488446 -0.05846802 -0.020780358 0.09577526 -0.071172506 -0.41137698 0.7449771 0.704884 0.07087334 -0.2980502 -0.7210356 -0.2585293 -0.5397282 0.010663297 -0.8464425 0.0005004082 0.3456162 -0.21065807 0.38845548 0.071596764 0.14255759 0.32325172 0.25609705 -0.20463648 0.44242084 -0.11644563 -0.2890592 0.55275416 -0.5244126 0.07431 -0.36281303 0.3492111 0.51347566 -0.41783607 0.44344848 0.41821936 -0.053856917 0.6337767 0.049267624 -0.16065267 -0.07643802 -0.13355172 -0.008473488 -0.27106896 0.58148766 0.11849444 -0.035807725 0.14326036 -0.7330053 -0.060462497 0.12331813 -0.623233 0.17703523 0.17772199 -0.24652655 0.11489581 0.4620961 -0.46275815 0.5648032 0.21628013 -0.07687495 -0.504868 -0.50139827 0.024351377 -0.34563777 -0.5710464 -0.08931117 -0.27187005 -0.35883296 -0.4565953 -0.07762087 0.20799765 -0.2760577 0.085275285 0.06711292 -0.27604422 -0.32423356 0.29902744 0.053257167 -0.20076154 -0.08735233 -0.043911073 -0.069822975 0.4290294 -0.14161952 0.29125044 0.40156737 0.05263094 -0.05037661 0.111927316 0.039335426 -0.13904972 0.124604166 0.121230535 -0.28928745 -0.3975722 0.17345019 0.18132171 -0.56468505 -0.25856364 -0.04466074 0.6148624 -0.069954954 0.27914348 0.45597094 -0.2792499 0.2036681 -0.09065586 -0.043904826 -0.7548076 -0.1932074 0.0811111 0.25050256 0.058708176 -0.17237592 0.7211455
1182 0.65606135 0.084623106 -0.049802028 -0.14469217 -0.2582887 -0.3456655 0.3669742 -0.15261786 -0.14182462 0.170873 -0.25473377 0.2402798 -0.47719762 -0.21682794 0.18364356 -0.12008686 0.0035331333 -0.39146683 0.5847107 0.5464163 0.080620535 -0.51716626 -0.52847475 0.046530433 -0.55385566 0.0138577055 -0.6553629 -0.14730525 0.17627528 -0.15381433 0.36065057 0.19056869 0.21404196 0.25248045 0.121641144 -0.2565246 0.10114094 -0.24646775 -0.046705183 0.6683515 -0.49233732 0.22866859 -0.6983672 0.5096004 0.5809813 -0.53914183 0.42737493 0.5702505 0.16310504 0.5928501 -0.16596645 -0.06965178 -0.06569714 0.1490872 0.10607329 -0.29059562 0.55891156 0.12610112 -0.12158124 0.06793141 -0.33964798 -0.21779226 -0.02730136 -0.64361465 0.11086887 0.3228024 -0.04176687 0.30800292 0.3821983 -0.553132 0.62722445 0.07163745 0.29502693 -0.71356523 -0.6742466 -0.21527632 -0.02886156 -0.5320995 0.03336313 -0.25794378 -0.38167134 -0.7069332 0.028835703 0.06358638 -0.47519565 0.04703314 0.19932379 -0.17767392 -0.36925766 0.60352373 -0.06137148 -0.0859832 0.010770098 -0.15703014 -0.32610473 0.28725642 -0.28687236 0.24104278 0.52517945 0.064814776 -0.020032821 0.09175446 -0.12545244 -0.013102631 -0.20072965 -0.20575373 -0.44934458 -0.3848634 0.20562233 0.29608664 -0.5366431 0.040020887 0.0709779 0.6414832 -0.18238416 0.49020928 0.4787327 -0.1728052 0.14193255 -0.3099919 -0.2699309 -0.805756 -0.113858715 0.11954946 0.12905931 0.043642826 -0.09369334 0.65773684
7919 0.4017047 -0.21445349 -0.31967568 -0.2287529 -0.18279147 -0.5446157 0.5135747 -0.063195884 0.03866108 0.16361888 -0.30484888 0.28592345 -0.5055719 -0.117374316 0.043143958 0.1607869 -0.18765324 -0.58162844 0.80931264 1.0733006 0.1164317 -0.27934703 -0.9139918 -0.066098146 -0.7692244 0.24989174 -1.0542916 -0.032325573 0.25460005 -0.32524702 0.464898 0.00087416475 0.30998188 0.36365533 0.2694761 -0.14871418 0.51621985 -0.06468442 -0.32160476 0.42178905 -0.42963514 0.23493744 -0.6331346 0.6079512 0.6226489 -0.5509331 0.5303179 0.536494 -0.0626481 0.59532106 -0.09804328 -0.033290047 -0.026927466 0.04990567 0.05933534 -0.41968277 0.73497206 0.05591548 -0.014385234 0.18647282 -1.0014757 -0.31935176 0.15920335 -0.7142394 0.11144543 0.14960206 -0.24207123 -0.061486345 0.37047395 -0.4180523 0.675883 0.1542937 -0.16552338 -0.47717935 -0.592637 0.050095536 -0.49174687 -0.7266844 -0.12794495 -0.38207462 -0.37232506 -0.6830879 -0.014471243 0.15112267 -0.19065672 0.13634579 0.23153701 -0.22888036 -0.2262563 0.36061037 -0.024003664 -0.26022145 -0.07235886 0.042701796 -0.061266154 0.3831339 -0.28142014 0.43212464 0.4052582 0.13203448 -0.27824098 0.11530286 -0.07690027 -0.08394776 0.051400486 0.2743244 -0.38135538 -0.53081036 0.015665403 0.24930014 -0.5876017 -0.14468513 -0.012593929 0.6096142 -0.06755125 0.4357925 0.6673729 -0.31727418 0.1667728 -0.105497144 -0.26247603 -0.82500845 -0.30810577 0.21950948 0.14187713 -0.07792693 0.15014957 0.8678223
18573 -0.4359432 -0.2850681 0.15258065 0.060246885 -0.25546533 0.33189705 0.04080806 -0.10870847 0.33767453 0.3631024 -0.33148012 0.5525895 -0.23410009 -0.3143121 -0.06394943 -0.19316989 0.3999956 -0.47480398 0.5628593 0.038450263 -0.39893764 -0.5309186 -0.4325319 0.0852714 -0.48024216 -0.28552565 -0.52257466 0.07428945 0.22202246 -0.08718286 0.54312885 0.33896166 0.25192598 0.27062246 -0.038113367 -0.11813558 0.332979 -0.17779677 -0.88593477 0.5187115 -0.74829257 0.16473587 -0.051536947 0.028719526 0.27106366 -0.692407 0.9048291 0.5176176 0.41277996 0.7759221 -0.24197662 -0.21884681 0.14829868 -0.09599342 -0.19491267 0.07443672 0.14606337 0.65977275 -0.17716244 0.4934563 -0.12518862 0.47383508 0.70488715 -0.2640207 -0.07671213 0.5377859 -0.06976965 0.369634 0.21273889 -0.5625944 0.5627352 -0.24978557 0.69836634 -0.53972286 -0.51767856 0.09421424 0.2146844 -0.31781358 -0.14789331 0.13401917 -0.028249204 -0.54549503 -0.5179352 0.6059913 -0.6485498 -0.091159426 -0.12578125 -0.10668068 -0.07831709 0.63306093 0.25897834 0.15884607 0.22333166 -0.29724625 -0.21705757 0.14246264 0.14927849 0.24128966 0.42676765 -0.24498889 0.32142305 -0.26105094 0.7961215 0.09572754 -0.20334102 0.053618006 -0.1362162 -0.072552934 0.34573874 0.059694313 -0.17919576 -0.38372678 -0.20687923 0.80914456 -0.32742384 0.12738603 0.22941612 -0.41277772 0.10620471 -0.18036784 -0.23651773 -0.7083166 -0.03250086 -0.27024177 0.102870926 0.0021896455 -0.37949702 -0.0019360748
7833 -0.3353174 -0.30938646 0.09588373 0.075098366 -0.20720601 0.29539758 -0.0027369405 -0.047939748 0.37809965 0.30968013 -0.3882315 0.52299803 -0.34936628 -0.26681313 -0.06413114 -0.17901361 0.34494007 -0.4577183 0.57603633 0.06401315 -0.399963 -0.55067545 -0.4233776 0.02842444 -0.5110129 -0.24726088 -0.582184 0.07801197 0.2233409 -0.113941014 0.63381 0.31552926 0.29845008 0.36318105 -0.074795246 -0.16606994 0.33423615 -0.23034595 -0.83442193 0.46380615 -0.76582 0.18881255 -0.05208494 0.013365399 0.3030116 -0.8179801 0.90239793 0.57574695 0.40113002 0.7227719 -0.23271553 -0.23558262 0.27731714 0.08340382 -0.111123696 0.07793721 0.28382638 0.71957105 -0.1585161 0.483475 -0.20593932 0.3999392 0.7302594 -0.2852022 -0.0100996755 0.55488497 -0.071649 0.45207867 0.09691157 -0.5049092 0.656338 -0.28572145 0.6537431 -0.51311857 -0.5727991 0.003722264 0.15186866 -0.42759368 -0.21782246 0.15662162 -0.0065297275 -0.71676356 -0.5302162 0.6648865 -0.6289821 -0.09264085 -0.066543356 -0.076229855 -0.15154907 0.6913583 0.28797647 0.116813 0.2314904 -0.2929732 -0.17194805 0.17576998 0.15892781 0.2652326 0.38996017 -0.30322722 0.25529617 -0.28227776 0.72984517 0.15416071 -0.2575477 0.031922452 -0.14236183 -0.056334823 0.2522744 0.045308266 -0.16730961 -0.31927153 -0.17368205 0.9620488 -0.3564513 0.18181269 0.3167216 -0.37271833 0.2187036 -0.18271269 -0.29978964 -0.7801571 0.0050099757 -0.20744064 0.082970686 -0.015764855 -0.27240694 0.13619295
1404 0.21870738 -0.01490914 -0.30716908 -0.28238788 -0.15873651 -0.13485351 0.10927184 0.23068379 0.2858458 0.04501688 -0.5389503 0.2501525 -0.31659225 -0.1840093 -0.14892074 0.20565702 0.30828533 -0.14581078 0.4125419 0.6733394 -0.12043342 0.012090921 -0.5615611 -0.31880966 -0.7305967 -0.16949505 -0.5929738 -0.33021227 0.37594587 -0.42641962 0.5921636 -0.4369956 -0.2437078 0.21109644 0.12325438 0.20031852 0.6206402 0.11843078 0.07568603 0.285947 -0.19933513 -0.045849565 -0.2496892 0.48947144 0.37006763 -0.28513286 0.34817997 0.31146362 0.06662197 0.14224884 -0.080434375 -0.37394094 0.19261308 0.19161566 -0.13593403 -0.42772084 0.7560416 0.45575464 0.19532329 -0.043589454 -0.95834386 -0.148924 -0.02993694 -0.6654704 -0.04693423 0.019586973 -0.27871788 0.21096355 0.511483 -0.40162307 0.6600197 -0.00086620986 -0.4021296 -0.35936415 -0.4371967 -0.18406962 -0.28831345 -0.6015629 -0.19966812 0.089645244 -0.07183439 -0.52590406 -0.08513008 0.41233715 -0.10661822 0.14699733 0.10647627 -0.053124726 -0.45366967 0.27931 0.059559237 -0.40117866 0.06878464 0.3386822 0.03186424 0.3718425 -0.17761555 0.615061 -0.0022614049 -0.22161618 -0.28628135 -0.083116286 -0.31631577 -0.059321016 0.25290057 0.29779854 -0.26382235 -0.58458066 -0.105556436 0.07728255 -0.56433403 -0.38923723 0.012746454 0.50820184 -0.147665 0.18521562 0.996942 0.13361065 0.27463254 -0.5729234 -0.31085616 -0.32290053 -0.26990017 0.08356636 0.21164836 -0.06257035 0.58229715 1.1041484
4453 0.07197089 -0.1489015 0.28344154 -0.42073187 -0.4473205 0.03473817 0.2793016 -0.10304396 -0.4055769 0.61848974 0.25967196 0.6332807 0.092364416 -0.06087521 0.35435647 -0.22216167 -0.02377386 -0.1892091 0.71683204 0.3474073 -0.14090168 -0.70440006 -0.5257077 0.3954697 -0.29809773 -0.23203005 -0.33141473 0.27763724 0.26238284 0.47452453 0.06068691 0.4516466 0.3287899 -0.038071547 0.22007227 -0.2770395 0.22890674 -0.2492535 -0.7178583 0.98774064 -0.4256393 -0.20819344 -0.23358367 0.36698183 0.3303524 -0.26490304 0.53173155 0.30085543 0.32656714 0.9113391 0.10951972 0.038435325 -0.31003845 -0.9154584 -0.010349778 -0.011801831 -0.029533856 -0.027100552 -0.15387565 0.5493349 -0.33120662 0.36885554 0.16258053 -0.1028164 0.04361641 0.18257007 0.07994206 -0.07122464 0.3312983 -0.796288 0.41221407 0.25709295 0.5505114 -0.71791226 0.0065144245 0.15252542 -0.025853021 -0.37854353 0.17121013 -0.38002145 -0.23663387 -0.1530489 -0.33612892 -0.0372455 -0.36022756 0.025470681 -0.28896454 -0.2741119 0.2777107 0.5153771 -0.01985114 0.4983905 0.1432887 -0.0667006 -0.35836175 0.14747313 -0.16541205 -0.03930583 0.98381966 0.17385142 -0.02029511 0.23455648 0.6596986 -0.15383536 -0.15903305 0.03821742 -0.23626758 -0.0015744017 0.4266792 0.3549619 -0.28360793 -0.0876365 -0.055861756 0.392983 0.06856336 0.25061965 -0.33226788 -0.40869457 -0.20711756 0.26292104 0.10647076 -0.74640226 -0.027191699 -0.07653331 -0.020595834 0.0074640075 -0.66541433 -0.061906036
12288 -0.3850322 -0.30720562 0.1461009 0.09015301 -0.22005047 0.31549716 0.02319816 -0.082438864 0.33559024 0.31229803 -0.38661546 0.5240602 -0.32098883 -0.2257512 -0.050549783 -0.23155732 0.3881339 -0.46550515 0.5395943 0.061915103 -0.39643672 -0.56918895 -0.42023444 0.07437202 -0.5112318 -0.28058 -0.54650307 0.07489744 0.22928825 -0.118145354 0.6125603 0.3406988 0.2647001 0.38526216 -0.1190626 -0.16664548 0.33901134 -0.2136509 -0.8927763 0.5035213 -0.7705547 0.1782383 -0.060156647 0.041623145 0.27264872 -0.7904291 0.9086895 0.59008497 0.4079369 0.7077009 -0.27926415 -0.18750747 0.22262193 0.009836782 -0.16798386 0.06636729 0.22621515 0.6682741 -0.17018987 0.46343863 -0.1331464 0.38578215 0.7165162 -0.26368353 -0.029203393 0.6166543 -0.04523521 0.42961425 0.13942926 -0.5533653 0.637757 -0.25890148 0.7167716 -0.5008447 -0.55004036 0.008319476 0.19633695 -0.38812685 -0.17599486 0.14482303 -0.04797256 -0.6631715 -0.54209507 0.6299754 -0.70077795 -0.099948935 -0.052544475 -0.081643276 -0.12979618 0.6745499 0.31061023 0.13162698 0.22895482 -0.29345968 -0.1583408 0.15919189 0.105600566 0.25411263 0.38549608 -0.27323642 0.28801024 -0.30292916 0.7579042 0.10779845 -0.22607458 0.03328698 -0.17769662 -0.08666467 0.2917016 0.10028175 -0.158425 -0.31086603 -0.19215201 0.93304116 -0.36970302 0.16841193 0.31631753 -0.34930637 0.15662892 -0.21140997 -0.2731808 -0.7462224 0.0035677582 -0.23634243 0.052823473 -0.038423706 -0.34437695 0.10465503
18054 0.14908977 0.07458876 0.14383931 -0.2936338 -0.105002806 0.011005286 0.06794573 -0.12616973 -0.44648585 0.50049585 0.19740872 0.4182607 -0.40849197 0.3786777 -0.08349669 -0.60738003 0.25074393 -0.58563405 0.4561696 0.4081187 -0.19858515 -0.9434308 -0.65840495 0.47411123 -0.39740607 -0.15354063 -0.43198305 0.36498144 0.29773027 0.12802003 -0.073823735 0.5716302 0.56462646 0.18384272 0.072936654 -0.14563833 0.32026368 -0.2372442 -0.5438873 0.76562595 -0.7306704 -0.002229575 -0.37004086 0.17665955 0.19937812 -0.4871516 0.5098234 0.39199707 0.027668396 0.9298393 -0.22388355 -0.045249164 -0.16541378 -0.2747565 0.25800815 0.028901188 -0.046630077 -0.3116544 -0.62903625 0.6347974 -0.21151088 0.05978051 0.24289146 -0.22921388 -0.14404006 0.35899082 0.19999929 0.026225675 0.48769724 -0.75353307 0.58918715 0.4440866 0.56541413 -0.6297113 0.067889765 0.13616912 -0.061414286 -0.41293675 0.091738634 -0.64183456 -0.35226917 0.027015826 -0.25164294 -0.14333244 -0.8027237 0.5223746 -0.19735287 -0.2791765 0.0769501 0.39478755 0.17591332 0.20069343 0.324472 -0.04082797 -0.040027995 0.2528103 -0.3670433 -0.30854127 0.71863806 0.31026042 -0.41243756 0.25239956 0.11439774 -0.41260314 -0.3189859 -0.051488403 -0.28139004 -0.11618794 0.24346064 -0.13347813 -0.18315676 -0.37009525 0.15199779 0.297176 0.050610147 0.04475208 0.26722592 -0.16286868 -0.39086515 0.16576645 0.21658209 -0.8450211 -0.059608992 0.023802133 0.05652443 -0.078943595 -0.84438044 0.3042281
9138 0.095304996 -0.30775255 0.23767515 -0.1426265 -0.22044581 -0.5833489 0.18621752 -0.043303855 0.13485381 -0.03318926 -0.18660426 0.55391675 -0.29280356 -0.07362824 0.12949568 -0.15874934 0.04065929 -0.24393345 0.5016266 0.45393434 -0.06666359 -0.49651212 -0.32190007 0.22525203 -0.5228033 -0.15520565 -0.37456116 0.5621494 0.26104036 0.016520241 0.43458578 0.45471835 0.12051131 0.0073632826 0.002359291 -0.086033836 0.7479193 0.029359637 -0.20568672 0.5810064 -0.4267998 0.32913473 -0.018553432 0.28718358 0.1626838 -0.6035039 0.9412856 0.37972096 0.6997855 0.79579824 -0.030346464 -0.31351915 -0.28072587 -0.017535044 -0.34589818 -0.2714274 0.1032323 0.1878407 -0.1694142 0.49623716 -0.08502192 0.1676502 0.0082519585 -0.7648407 -0.25962368 0.4877242 -0.110401236 0.0021946956 0.3326713 -0.33620656 0.49436614 -0.17768854 -0.007198704 -0.5444418 -0.66304165 -0.15033734 -0.06234649 -0.71193326 -0.016388984 0.09903805 -0.08782739 -0.5620194 0.16383852 0.1413482 -0.51511896 0.093855195 0.050548434 -0.27578256 0.19197749 0.4465086 -0.16470745 -0.090723336 -0.25500765 -0.01718562 0.025250668 0.096212946 -0.28230315 0.55248135 0.03789721 0.197377 -0.15145455 0.030096157 0.2647016 0.036061928 -0.16890316 -0.43585804 -0.07043244 0.11085513 0.18451259 0.3775377 -0.31874052 -0.3282993 0.03974819 0.7732943 0.06828721 0.58124053 0.41071832 -0.043422848 -0.13839352 -0.3608107 -0.06528175 -0.5903437 -0.2901578 -0.17700303 0.33368936 -0.18316388 -0.4773379 0.5472806
13300 0.02288015 -0.19623728 -0.059405316 0.033882678 -0.37904158 -0.2707228 0.29425964 0.22757445 -0.19259337 0.42449898 -0.0572085 0.41706532 0.04192044 -0.25408277 0.31624374 0.03474882 -0.17297584 0.14014289 0.64628553 0.2655595 -0.08165163 -0.6239347 -0.3191104 0.17695597 -0.1826102 -0.40984496 -0.46838555 -0.1891638 -0.14296956 0.14081119 0.3046436 0.08286567 0.39938658 0.2074709 0.060440492 -0.5788633 0.34082386 -0.47367358 -0.30354843 0.688429 0.14778012 -0.04335565 -0.48431078 0.5099352 0.1906379 -0.07249161 0.69552016 0.27624506 0.262949 0.48924875 0.46774217 0.24050021 -0.47534794 -0.8648798 -0.27861667 -0.33026657 0.40130773 0.27885047 -0.082148746 0.44980407 -0.45421726 -0.008835595 0.019849401 -0.3102429 0.17683351 0.10475453 0.03482688 0.08845278 0.3540306 -0.6585252 0.23704025 0.21301733 0.10252535 -0.3614172 -0.649669 -0.33916014 -0.5552631 -0.5312504 -0.1475129 -0.07478551 -0.121992715 -0.32958636 0.11583331 -0.20741029 0.2641918 -0.048418768 -0.21897705 -0.0437497 -0.20502715 0.43268916 -0.3484601 0.45990944 -0.11837373 0.0684436 -0.26507127 0.034802366 -0.23793402 0.356884 0.45338997 0.27362695 -0.11919352 0.42942607 0.3143186 0.14821966 0.3378925 -0.10712041 0.09586435 0.11984954 0.5439526 0.63438654 -0.44050235 0.32704198 -0.42705864 1.0454389 -0.24167886 0.7716081 0.085938364 -0.24401425 0.07975255 0.24148576 -0.3212315 -0.8572032 0.04180415 -0.0064636706 -0.025220836 -0.18426412 -0.14701384 0.30763477
14348 -0.095869444 -0.31135717 -0.37806627 -0.23248173 0.091682985 -0.5283942 0.6972396 -0.31780076 0.5168178 -0.055534367 0.11674745 0.14713573 -0.37479335 -0.31590688 0.46790826 -0.12988685 0.17278981 -0.52941227 0.508943 0.7894712 -0.09830347 -0.06466366 -1.295549 0.5473894 -0.6022861 0.51997566 -0.64215845 0.4671499 0.54030496 -0.41295063 0.268803 0.27539644 0.4048857 0.38388607 0.027463883 0.16861829 0.61345893 0.074348 0.15748446 0.069037236 -0.037147306 0.29842877 -0.34187582 0.42376292 -0.32790023 -0.58566135 0.28843695 0.6016865 0.014016792 -0.041388262 0.1096549 -0.33968642 0.00072708784 0.28126222 0.17489405 -0.743131 0.3715708 0.10010184 -0.26048988 0.06359039 -0.3572695 -0.4704857 0.04825195 -0.8279175 -0.28896585 -0.29939625 -0.28990236 -0.06745831 -0.12609762 -0.20603885 0.5308387 0.20146304 -0.22762582 0.039827574 -0.77183926 -0.24330628 -0.47780463 -0.7020282 -0.1128132 -0.61028636 -0.011518218 -0.74359053 0.26254258 0.01210966 0.18046822 0.39204326 0.3319314 -0.34046385 -0.012959164 0.71088654 -0.35472652 0.040771496 -0.3558354 0.46219525 0.4381446 0.20548664 -0.15796408 0.53116506 0.066278055 0.18370804 -0.53985757 -0.09534165 -0.17201939 -0.03753641 0.00027718546 0.08065458 -0.21351908 -0.21514584 0.12746295 -0.15051828 -0.37499642 -0.019845404 0.21275201 0.43017164 -0.049682576 0.540051 0.42423525 -0.026985323 -0.3612976 -0.05941125 -0.16935559 -0.5904791 -0.06811781 0.4010255 -0.00045601837 -0.25512928 0.20240203 0.85145336
7781 -0.013928499 -0.38637292 -0.24224918 -0.12105239 -0.012970097 -0.65870315 0.586476 -0.2522874 0.38533458 0.15519206 0.09300278 0.17604789 -0.5494676 -0.26069 0.41270417 -0.14869078 0.048580475 -0.62754244 0.35984525 0.6800606 -0.07570288 -0.08290936 -1.2526157 0.5733954 -0.65707695 0.54564655 -0.6085708 0.43306813 0.45958617 -0.27059317 0.099114545 0.30264658 0.5768583 0.43619773 0.15639682 0.23931512 0.73357433 0.064954184 0.108073056 0.20365658 -0.066895865 0.2746459 -0.44770995 0.5372538 -0.45055598 -0.5965952 0.11571035 0.61403376 -0.043758344 0.2023223 0.09820398 -0.36016116 -0.102983125 0.23515666 0.1472826 -0.8185173 0.22220767 -0.025000256 -0.33157665 0.43050456 -0.4128666 -0.3474816 0.04021373 -0.8101002 -0.41619366 -0.23163298 -0.48084208 0.0442093 -0.2539516 -0.17362398 0.5718205 0.2877318 -0.11276436 -0.10923631 -0.750803 -0.30105302 -0.41788438 -0.7157663 -0.13787712 -0.55146796 0.14698762 -0.83660024 0.28204802 0.1979195 -0.10370872 0.3406725 0.47063226 -0.43441373 0.052404173 0.7493586 -0.21367289 0.010425596 -0.14135483 0.37262765 0.34616637 0.19131623 -0.2278157 0.39567524 0.19026534 0.27175128 -0.5033848 0.035441604 -0.29061463 -0.05230298 -0.07204389 0.055426177 -0.19159925 -0.055507164 0.18290146 -0.11364845 -0.3704526 -0.14997125 0.23671837 0.4801758 -0.21023329 0.577221 0.49477124 0.14136717 -0.3525922 -0.0981083 -0.09228615 -0.7304445 -0.041642528 0.36389756 0.11400003 -0.1762465 0.11450714 0.87366915
15303 0.110274024 -0.23726884 -0.06839828 -0.14840919 -0.071508825 -0.2828032 0.47736475 -0.03438402 0.34299228 0.29220277 -0.24365942 0.27218783 -0.64777166 -0.10699369 0.015703868 0.1021423 0.0056497734 -0.7015887 0.6854319 0.63163877 -0.015023783 -0.049246356 -0.7687803 -0.32293913 -0.5989189 0.2020221 -0.9845242 -0.0798868 0.2628667 -0.20108925 0.60027003 0.1124197 0.357592 0.53823763 0.24561678 -0.013757038 0.4935696 0.18159975 -0.34138992 0.37453815 -0.6033095 0.32487088 -0.41890734 0.5178075 0.5535873 -0.5520568 0.6201931 0.50011295 -0.16481458 0.39147627 -0.23201397 0.028586512 0.03385701 -0.051433347 0.176981 -0.20255506 0.68335897 0.13063596 -0.023634173 0.115833804 -0.813798 -0.2522239 0.42702878 -0.70760757 0.0640981 0.037487514 -0.08873667 0.0039654747 0.22132026 -0.18018658 0.54134804 0.15740673 -0.019845737 -0.30822772 -0.6569307 0.20459983 -0.53612375 -0.59188354 -0.18154338 -0.3406259 -0.3692707 -0.48135552 -0.18031204 0.4033718 -0.13337697 0.088597536 0.094472595 -0.34448597 -0.30072376 0.31511474 0.053855486 -0.24168666 0.008063186 -0.17379491 -0.016030818 0.39862022 -0.13016245 0.4572378 0.39902607 -0.053578667 -0.16345254 0.01597163 -0.106056385 -0.08278638 -0.11655833 0.2842996 -0.41284865 -0.30052057 0.074900635 0.23790617 -0.4868956 -0.30638614 -0.16543704 0.47540998 -0.27221325 0.1491083 0.50182796 -0.21542095 0.17077634 -0.05483452 -0.30678457 -0.6057727 -0.19724126 0.1898296 -0.098156735 -0.029323522 0.04265096 0.7981349
16001 -0.03176652 -0.24942023 0.20340775 0.3591311 -0.15406965 -0.53123415 0.30435088 0.039536048 0.16555293 0.1214007 -0.3045831 0.69601613 0.05738203 -0.16924927 0.029618405 0.24519607 -0.2656547 0.1094653 0.5258286 0.30045542 0.18108091 -0.22076228 -0.5156941 -0.15778136 0.019057985 -0.053251352 -0.74169004 0.009215393 0.41865832 0.31487784 0.14998989 0.40540603 0.23225836 0.24842493 0.4742139 -0.3895933 0.49321422 -0.0060763466 0.013420086 0.542416 -0.013325273 0.37023234 -0.3343846 0.39390323 0.31679985 -0.32577983 0.531923 0.40181336 0.10738445 0.24179299 0.6023167 -0.36563137 -0.41023126 -0.20494637 0.03693183 -0.39925006 0.27670568 0.46735835 0.014633213 0.29596314 -0.6089049 0.19303548 -0.042708635 -0.21864402 0.06699511 0.33745724 -0.16229057 0.48346624 0.33199707 -0.63118684 0.43097836 -0.2007831 -0.2107979 -0.42648694 -0.86568904 -0.27605277 0.06495478 -0.16141419 -0.344111 0.0782245 -0.45035324 -0.53643954 -0.09509509 0.16643807 -0.27245545 0.1276283 -0.15071924 -0.21355137 -0.30344704 0.5581043 -0.4456196 0.31550297 -0.09496541 -0.13418406 -0.010302048 -0.216373 -0.1106316 0.28103083 0.43662155 0.2361317 -0.5493828 0.122689046 0.15432867 0.13813946 0.10279705 0.1275113 -0.2605345 -0.2323536 0.24630989 0.38054764 -0.3383854 -0.20161548 -0.42237973 0.8509373 -0.61409533 0.5184592 0.39270145 0.057655912 -0.054032244 -0.27981094 -0.34957808 -0.5963124 -0.18978532 0.17724079 0.021543803 -0.31854415 -0.39336446 0.553651
19562 0.2926166 0.2082038 0.15630272 -0.605458 -0.35729215 0.030497398 0.35100657 -0.19149424 -0.49177322 0.35555232 0.45096657 0.40288728 -0.25144652 0.2989395 0.26117393 -0.43409693 0.07539704 -0.57916135 0.6661337 0.3165537 -0.17695493 -0.8001285 -0.32333645 0.36054718 -0.50552744 -0.15368833 -0.22124937 0.2485714 0.28121185 0.22164543 0.030230872 0.20547786 0.36133862 0.35458103 -0.09903636 -0.14175159 0.27847582 -0.1021589 -0.55872536 1.060042 -0.47202805 -0.13995624 -0.3178509 0.20702542 0.29177245 -0.2348735 0.49147445 0.4761243 0.034282047 1.2025751 -0.30649823 0.1302731 -0.48219845 -0.42232633 0.050794877 -0.05370769 0.12976936 -0.3927352 -0.34996286 0.40028557 -0.3534395 0.101881854 0.10224067 -0.37984115 0.17566103 0.076415665 0.2674414 -0.4204216 0.4841667 -0.82537055 0.5652371 0.4690393 0.5483128 -0.7821986 0.067926124 0.23461404 0.022005096 -0.2383901 0.12484759 -0.6899458 -0.41879043 0.06377563 -0.31205198 -0.055067893 -0.6630835 0.17362982 -0.25764865 -0.22238806 0.13766713 0.5462297 0.27931312 0.117171384 0.10253081 -0.063701816 0.0067830957 0.23229444 -0.3337359 -0.3232308 0.8610566 0.30186024 -0.26709858 0.34059212 0.18929146 -0.46621072 -0.15032901 -0.25119483 -0.29112402 -0.21550392 0.18805848 0.1972296 -0.3910147 -0.19586794 0.08985699 0.31360504 0.013385855 0.06059604 -0.13942537 -0.35612324 -0.34327644 0.059634507 0.14851744 -0.81196445 -0.086935945 0.01763148 0.16347903 0.0358026 -0.8758387 0.29638505
11046 0.2557524 -0.026187617 -0.6365369 -0.55892396 0.15931922 -0.28477767 -0.064426556 -0.05323958 0.2888786 0.18112215 -0.58609724 -0.10078735 -0.7104488 0.090427935 -0.59156287 -0.08235669 0.012852242 -0.74837834 0.45534778 0.56127155 -0.059736207 -0.1471347 -0.6198868 -0.23277792 -0.7491763 0.17133772 -0.42433143 -0.28832984 0.29863954 -0.17850812 0.3774771 -0.23622414 0.35225344 -0.019122249 -0.16115212 0.62784195 0.3950072 -0.11140447 -0.5397724 0.17338784 -0.7131968 -0.03003951 -0.7200268 0.3465334 0.5506006 -0.5441097 0.43085626 0.20208451 -0.35356927 0.51399213 -0.79489535 0.19492249 0.12384311 0.50569165 0.12416114 -0.08021717 0.17349571 0.18350217 0.18740693 0.53777033 -0.5240567 0.26856753 0.27096966 -0.76764417 0.04658775 0.550043 0.3197565 -0.24750191 0.64063245 0.052728087 0.6073901 0.22029853 0.4147717 -0.36468676 -0.053379484 0.5326631 0.09667956 0.066186614 0.01057985 -0.35977843 -0.12495712 -0.32005048 -0.36663678 0.378425 -0.57937616 -0.16473368 -0.077927455 -0.4568738 -0.50401217 0.10590097 0.13689049 -0.09092596 0.014928759 -0.3823856 0.18204601 0.4974445 -0.34587464 0.1446623 0.4173951 0.0026040191 -0.16681078 0.2528388 -0.1020232 -0.39437222 -0.021029193 0.11991332 -0.20018703 -0.7984974 -0.10525726 -0.28664038 -0.40460166 -0.5876836 -0.11310533 0.46315712 -0.16543546 -0.44458362 0.5401094 -0.23148066 0.0830293 -0.26314217 -0.04236354 -0.2592793 -0.6177374 -0.20525426 0.18492281 0.09559577 0.0387994 0.65158266
1078 -0.030893024 -0.41820076 -0.081979886 -0.40344423 0.19406466 -0.3623316 0.5925892 -0.33020782 0.32514942 -0.1524178 -0.06789968 0.12771831 -0.29040137 -0.49750766 0.17458259 0.124400534 0.14238502 -0.6864824 0.5415261 0.8512928 -0.058751293 -0.027736574 -0.5513395 -0.056730594 -0.40722704 0.29799193 -0.9784699 0.14965878 0.07770413 -0.29817572 0.20010735 0.47171572 -0.20190713 0.313666 0.18805794 -0.27049398 0.40206143 0.33252388 -0.15573572 -0.07970568 -0.0405305 0.2516073 -0.021883063 0.25814754 0.41139203 -0.558781 0.613679 0.47636467 0.04381337 -0.035843097 0.10458009 -0.113203146 -0.008558311 0.23083559 0.0694898 -0.38869977 0.8752667 0.25828293 0.21535057 -0.29125836 -0.1915672 -0.469505 0.28471056 -0.7400928 0.1137023 -0.23055562 -0.33598742 0.0634339 0.078974396 -0.16490011 0.391589 -0.2920547 -0.37685218 0.25448352 -1.0020734 0.0068931975 -0.41948435 -0.8053923 -0.1250284 -0.29426566 -0.25250933 -0.5496756 -0.02400502 -0.21755053 0.12353336 0.28523362 0.33256927 0.11896926 -0.05727092 0.6230037 -0.40592778 -0.042194054 -0.55366945 -0.060715318 0.047337167 -0.032261815 -0.19149563 0.6434963 -0.098471425 -0.183793 0.24460794 -0.380186 0.1636555 0.24390225 0.34052485 0.2879696 -0.54547626 -0.65618694 0.059432033 0.2702741 -0.65280074 0.01679384 0.11988254 0.2826161 0.1287858 0.386986 0.1729707 -0.25962764 -0.132013 -0.13769406 -0.13994314 -0.42994204 -0.15259801 0.45274177 -0.40584958 -0.0669024 0.40629542 0.6989118
905 -0.029751861 -0.19526628 -0.09260656 -0.38891858 -0.2911277 -0.03101516 0.05679349 -0.18223976 0.25321537 0.28607264 -0.18754713 0.21249083 -0.32115808 -0.08364484 0.022243256 0.14706059 -0.05899086 -0.35259962 0.5736622 0.78681976 -0.28515732 -0.042752527 -0.78330714 0.020005677 -0.5138298 -0.131704 -0.79484427 0.047477715 0.42179227 -0.11241022 0.5055446 0.02407104 0.15030211 0.06641551 0.10732475 -0.016897362 0.34224978 0.018969271 -0.49872524 0.38594133 -0.54948103 -0.20148884 -0.6667757 0.4588416 0.49009284 -0.21858093 0.4977407 0.032845948 -0.025343418 0.67437094 -0.443557 0.43005517 0.182138 -0.4080063 -0.03570708 -0.037031773 0.32316694 0.14907977 -0.35633373 0.4183777 -0.81669116 -0.3649462 0.43487504 -0.65934837 -0.354028 0.14427955 -0.045626853 -0.21647921 0.15018839 -0.30858445 0.528737 0.11036163 -0.0815848 -0.6561527 -0.017095605 0.33836806 -0.5849071 -0.63696533 -0.1793505 -0.58934474 -0.05214556 0.06191094 -0.28962377 0.44048452 -0.1875143 0.21961638 -0.09968973 -0.23517188 -0.068783745 0.36549053 -0.0049678874 -0.31947815 0.2324055 0.015168631 0.24563794 0.5081601 0.06054132 0.5335793 0.4554632 0.013340181 -0.0720557 0.11374952 0.1655162 -0.33099023 0.16168338 0.5344508 -0.2967774 -0.43685573 0.20698217 0.048399843 -0.3348693 -0.41145423 0.06145274 0.026621373 0.013140696 -0.015569677 0.2422378 -0.28088218 -0.11955102 0.10187785 -0.15363495 -0.591524 -0.47156894 0.08038541 -0.042961784 0.079098225 -0.17985122 0.44696772
16702 0.15414628 -0.23424444 -0.13469374 -0.22335605 -0.1821688 -0.4005437 0.36898828 -0.06648996 0.18538693 0.2309514 -0.2965772 0.3287373 -0.44088095 -0.13785444 0.07018699 0.110805586 -0.06535277 -0.47903028 0.73089266 0.7301233 0.007000548 -0.32500523 -0.7722689 -0.08271912 -0.6022347 0.016676813 -0.88781005 -0.03285428 0.30130652 -0.21558443 0.4507806 0.11849047 0.25092566 0.35670173 0.18714747 -0.12010663 0.5413659 -0.060129557 -0.31603405 0.46429148 -0.44440734 0.16299666 -0.44542208 0.43836564 0.47520185 -0.4708192 0.60717446 0.50388867 0.030930072 0.57421726 -0.063147284 -0.069360346 -0.04187453 -0.031006722 0.00064217893 -0.4279269 0.51385856 0.22258182 -0.042964652 0.21557103 -0.7380225 -0.13581446 0.24026328 -0.630148 0.0124124205 0.26472446 -0.16174355 0.054967575 0.34058726 -0.43921718 0.5852389 0.115697876 0.04544694 -0.50218016 -0.53031623 0.071400836 -0.36071676 -0.6340027 -0.10291039 -0.30455127 -0.2479556 -0.5309369 -0.1392306 0.27771744 -0.27183565 0.18437552 0.0713855 -0.16632941 -0.26365066 0.4450183 -0.01322657 -0.08748746 -0.004306695 -0.0628145 -0.02858254 0.337764 -0.15256974 0.42132175 0.37911075 0.013031844 -0.11867868 0.11425865 0.10977895 -0.084687576 0.04577691 0.19675717 -0.33507335 -0.3754838 0.19648987 0.16144915 -0.5152042 -0.224762 -0.081621006 0.55940855 -0.14547428 0.33021742 0.51570386 -0.3220721 0.07119212 -0.12820132 -0.25838724 -0.7610078 -0.19430172 0.119410686 0.12785855 -0.04216314 -0.0667014 0.67466587
4475 0.09274822 -0.20308496 -0.05974662 -0.5863982 0.0910969 -0.42681462 0.40581787 -0.14272086 0.031182365 0.24709259 0.039265905 0.19869563 -0.5647763 0.15800695 -0.2587221 -0.058819707 0.02629109 -0.59435457 0.48850816 0.6475939 -0.3011017 -0.3130639 -0.8094937 -0.20126867 -0.55021375 0.110855326 -0.62622213 0.025708968 0.37811592 -0.38000774 0.2128984 0.015811956 0.71476156 0.4850617 -0.047926366 -0.16478622 0.5711078 -0.45205808 -0.48957494 0.28537887 -0.4530773 -0.2264186 -0.4207982 0.3281458 0.42202047 -0.19028968 0.4980533 0.29045245 -0.11747111 0.4584083 -0.22647274 0.03696872 0.08391573 -0.2797046 -0.062260088 -0.15857269 0.4939203 -0.087181054 -0.01690959 0.2602787 -0.49979198 -0.20742339 0.031000962 -0.69214416 0.025145816 -0.013489386 0.13576956 -0.05977742 0.28634986 -0.14947174 0.5260846 0.5752681 -0.07945127 -0.01541404 -0.31308928 -0.12256126 -0.41278675 -0.65786403 -0.35089654 -0.6558554 -0.18698046 -0.22790526 -0.17179763 0.28383586 -0.19641854 0.54994124 -0.19967861 -0.26667798 -0.21825749 0.67769307 0.24109502 -0.24373654 0.1564423 -0.014450628 0.3062008 0.33377397 -0.13506639 0.25923267 0.40212753 0.28564528 -0.33028606 0.039677612 -0.21228778 -0.4032467 0.1715613 0.26057523 -0.54630107 -0.26764026 -0.057892494 -0.09806317 -0.39961228 -0.15123491 0.05085917 0.74684167 0.044282492 -0.13807213 0.35417408 -0.17729574 -0.5212884 0.012679677 -0.02930216 -0.77442825 -0.28281087 0.11644397 -0.026506638 -0.23062074 0.033259764 0.63615197
17891 0.4470419 -0.13379288 -0.17769563 -0.6770191 0.1422214 -0.15882878 0.37512055 0.02934449 -0.18820006 0.53771484 0.0628522 0.13069974 -0.56505406 -0.13858736 -0.09067562 -0.09516388 -0.0037297355 -0.2823678 0.39867467 0.79328114 -0.10605184 -0.39103413 -0.5444516 0.31990322 -0.790271 0.085148804 -0.6120416 -0.013190157 0.01550693 -0.48318803 0.17094924 0.18144569 0.53628755 0.5506617 -0.07166842 -0.061084233 0.5228735 -0.39607358 -0.529472 0.46021166 -0.45599368 -0.1380811 -0.5637825 0.24610956 0.51636785 -0.3034517 0.17966145 0.42188504 -0.2040668 0.33945337 -0.23109673 0.062406804 0.21521772 -0.26577064 -0.03616416 -0.27108568 0.6257979 -0.11735776 -0.2756011 -0.053651206 -0.6557189 -0.44975224 0.13725103 -0.28929323 0.10880419 -0.048617568 -0.3036741 -0.20119429 0.23488553 -0.17187102 0.63014656 0.5337845 0.1678468 -0.35589632 -0.12861061 -0.01301741 -0.51614255 -0.57006353 -0.02731243 -0.5247607 -0.18132134 -0.5485223 0.112509854 0.043386556 0.03999046 0.2955102 0.07588998 -0.18754804 0.031745136 0.21239036 -0.24588509 -0.09897693 0.008644072 0.05042119 0.049653374 0.6438915 -0.096301496 0.3196988 0.78156716 0.096037745 0.06746613 0.1446793 -0.033971597 -0.3561578 -0.32031593 0.19715367 -0.4267046 -0.14338467 0.018565286 -0.115635104 -0.4924825 -0.05130963 0.3574594 0.0093974015 0.4350428 -0.16356169 0.70168054 -0.043724068 0.02223426 0.14246148 -0.091078125 -0.80864793 -0.18985954 0.22796026 0.04286708 -0.053851113 0.20713502 0.578052
11922 -0.09879798 -0.021441095 -0.2514929 -0.73893076 -0.19544901 0.020394238 0.14959121 -0.26024294 0.10535968 0.5321174 0.30595744 0.06475896 -0.46374542 0.11752402 0.07520116 0.093406804 0.20651163 -0.42388514 1.0440099 0.39097875 -0.48826036 -0.32879555 -0.67430705 -0.04899206 -0.5566221 -0.07638056 -0.6904459 0.08126189 0.33404747 0.14239052 0.022260154 -0.021375386 0.3563028 0.09510343 0.10869272 0.22953412 0.5855896 -0.2086399 -0.39696825 0.38019466 -0.3191604 0.0472179 -0.3709181 0.19009483 0.2716573 -0.38731277 0.57787466 0.17972814 -0.03358787 0.5563554 -0.15997067 0.3556968 -0.0049040955 -0.3773684 -0.034674387 -0.23979418 0.06898677 0.253137 -0.18822913 0.59451807 -0.66715676 0.2876223 0.3867296 -0.4000946 -0.31035265 -0.026005903 0.120168746 0.030215384 0.22870435 -0.24141991 0.5169438 0.09399091 0.14745885 -0.51393634 -0.08582245 0.4738637 -0.52030855 -0.4834463 -0.29941782 -0.8325693 -0.1653126 -0.33667523 -0.24991305 0.40566838 0.09600054 0.11079145 -0.25828525 -0.03598723 -0.14105724 -0.055843666 0.16089466 -0.13306972 -0.13044196 0.2674633 0.11574393 0.42242455 0.09188056 0.5077045 0.3650011 -0.39131966 -0.13529645 0.16903132 0.31732532 -0.31782812 0.07744009 -0.08763833 -0.06974782 -0.25084826 0.25842705 -0.40794563 -0.23255408 -0.061142035 -0.025012242 -0.0057882075 0.23651981 0.005744596 0.47430608 -0.3188687 -0.26869446 -0.004025337 -0.36835617 -0.4378299 -0.38046852 0.0135953 0.03093269 0.0021229878 0.053300086 0.33187744
6137 0.14768527 -0.22066137 -0.10192561 -0.26696387 -0.28051275 -0.37918648 0.3920681 -0.11305368 0.014996756 0.40483287 -0.23020722 0.4424146 -0.45702183 -0.0966944 0.082486026 0.0011105263 0.021610858 -0.6522112 0.83817565 0.84401387 -0.044336326 -0.58496857 -0.9037259 0.034644056 -0.69017893 -0.0009597454 -0.96654195 0.15271363 0.3981324 -0.2159739 0.41876766 0.24180944 0.36477423 0.32308298 0.18994392 -0.18361138 0.6002013 -0.15062189 -0.5800642 0.67340106 -0.67298216 0.15736727 -0.4246498 0.3923177 0.5385071 -0.6593096 0.7864336 0.5788243 0.0720768 0.8312365 -0.041727535 -0.054452475 -0.14152083 -0.129274 0.06577838 -0.36635223 0.5179998 0.13144007 -0.19394971 0.3967699 -0.69744337 -0.008415998 0.3483024 -0.73884654 -0.020154798 0.2783583 -0.11789979 0.10611291 0.37155387 -0.63497084 0.722423 0.2078173 0.19738795 -0.59228027 -0.62843657 0.108783156 -0.3187801 -0.6732512 -0.054189257 -0.35367137 -0.34526235 -0.613403 -0.16225117 0.21068917 -0.4564763 0.20383964 -0.0002242472 -0.22857271 -0.10167061 0.51117903 0.0065033464 0.045269724 0.014732653 -0.114945374 -0.06753145 0.36484924 -0.18645403 0.325941 0.5214111 0.08896889 -0.1060736 0.11084375 0.26808262 -0.18178593 -0.0027252573 0.10994313 -0.35083184 -0.3132023 0.28651935 0.15380152 -0.48706186 -0.23574331 -0.099561244 0.75409335 -0.17916048 0.37804672 0.43775994 -0.41498798 -0.010192008 -0.010020099 -0.1194041 -1.0057775 -0.16751985 0.0636298 0.18522784 -0.016402591 -0.26532593 0.6206811
21756 0.21310966 -0.054986753 -0.24713582 -0.58862555 -0.33186245 -0.07528649 -0.07658454 0.1202109 -0.09478323 0.39563268 -0.53637326 0.45469487 -0.1478052 -0.108464204 -0.1165861 0.457552 0.14483505 -0.17723535 0.38469583 0.6635431 -0.06925429 -0.15850198 -0.17969763 -0.47889787 -0.11749497 -0.1792768 -1.0242561 -0.66592866 0.039709885 0.3839139 0.37705958 0.04200459 -0.47450712 0.2566962 0.25758398 -0.050076865 -0.0030682797 0.046284325 -0.28785083 0.32394597 -0.5998225 0.0072658765 -0.4910436 0.3141964 0.674746 -0.1984787 0.47706 -0.0018571039 -0.4035375 0.20819588 -0.120848306 0.366826 0.09701857 -0.55125505 0.122621685 -0.120723195 0.52539754 -0.02763971 0.32665044 0.03820885 -1.09473 -0.18000905 0.12008997 -0.509078 0.25211406 -0.009332342 -0.14761639 0.051010273 0.42931804 -0.28192124 0.28914353 -0.025842125 0.15656433 -0.2987972 -0.093352295 0.2835264 -0.38367006 -0.3869995 -0.13844566 0.04688847 -0.12194225 -0.08974552 -0.28157896 0.3882124 -0.2729656 -0.08621119 -0.52220726 -0.024648193 -0.31355953 -0.14976974 0.403027 0.02365922 0.44048873 -0.32475716 -0.07617977 0.340922 -0.09790727 0.18817347 0.6298403 -0.17475829 -0.048432525 0.1933673 0.02376517 -0.42715576 0.34288502 0.24830773 -0.6065067 -0.09603785 -0.0760018 -0.018987764 -0.3101192 -0.08486172 -0.017957442 0.30754194 -0.019127829 -0.26789385 0.028603725 -0.33721912 0.3739516 -0.0070159286 -0.14730658 -0.65505034 -0.335998 0.34629843 -0.10278627 0.36076444 0.27842733 0.34206387
5923 0.2857233 -0.2585211 -0.03333571 -0.15033266 -0.18212432 -0.2811696 0.5484131 0.06472237 0.08985663 0.3789649 -0.294249 0.3535259 -0.23630413 -0.26106158 0.32622296 0.3481272 -0.21013425 -0.3270075 0.6091679 0.75941986 -0.030973854 -0.21585928 -0.7321694 -0.13820623 -0.75521576 -0.04737704 -0.7312325 -0.13091306 0.10690382 -0.37138832 0.5165138 -0.17003639 0.16096304 0.4226944 0.13788594 -0.27635452 0.39265358 -0.21007296 -0.34741566 0.2879433 -0.42388657 -0.008422827 -0.5510606 0.4355438 0.5188506 -0.55368936 0.43291846 0.41623697 0.17159733 0.56013757 0.0027481425 -0.062328972 -0.013278999 -0.26264715 -0.1411205 -0.390342 0.6300483 0.2639197 -0.094380476 0.11559552 -0.88345677 -0.085829966 0.13735376 -0.6827647 0.090717904 0.14059013 -0.26170683 0.035198 0.2822146 -0.44683498 0.39561474 0.2779262 -0.032215707 -0.29567367 -0.571936 -0.119296804 -0.63193524 -0.61088425 -0.04541766 0.056567106 -0.20132491 -0.50171906 -0.013528036 0.29210106 -0.112164915 -0.015791167 0.14439662 -0.15515292 -0.17978203 0.42632258 0.070474096 -0.113833144 -0.12807414 -0.044351354 -0.08666475 0.43718606 -0.21131627 0.6082126 0.29125494 0.1261674 0.051384896 0.09141329 0.0065550394 0.005397861 0.040972754 0.33207723 -0.3335623 -0.19119664 0.093057446 0.15857126 -0.473715 -0.010536034 -0.18639506 0.67622435 -0.13641389 0.5306063 0.36424437 -0.38255882 0.14195979 0.071686305 -0.3446472 -0.6481095 0.014357238 0.07253704 0.28994492 -0.046542253 0.15253603 0.6933211
15888 0.12963986 0.05467369 0.00019611318 -0.38655317 -0.32210562 -0.2016157 0.49166682 -0.046556327 0.14475858 0.5375562 0.10979222 0.34240317 -0.032032855 -0.21456152 0.29128796 0.28171313 -0.42203447 0.1277263 0.413424 0.64983445 0.2073637 -0.17571668 -0.75712466 -0.31033894 -0.31584856 -0.2684879 -0.5900893 -0.16520369 0.1419012 0.27768552 0.5268202 -0.21619062 -0.29657674 0.5890079 0.2760647 -0.24575302 -0.14628527 0.030916376 -0.17122214 0.336619 -0.16542421 -0.14880306 -0.4409018 0.5556807 0.39853433 -0.23906039 -0.13836719 0.15968908 -0.4492984 0.8648484 0.2026476 0.22824165 -0.24045609 0.041463446 0.11316935 -0.21023782 0.44061613 -0.37111458 0.16659242 0.21448644 -0.69157815 0.19707526 0.13616364 -0.9941335 -0.04548153 -0.15451021 -0.2933311 -0.040064998 0.64089775 -0.25628287 -0.061679006 0.23400263 -0.2575296 -0.40441918 -0.075924635 0.06759845 -0.22932214 -0.18926081 -0.25806648 -0.24376333 -0.5451557 0.00010143829 -0.09706285 0.171395 0.05583024 -0.0451398 -0.48631883 -0.48968345 -0.6763732 0.4181767 0.11827168 -0.35807392 -0.24645594 -0.2287479 -0.30126897 0.45279908 -0.3758947 0.030486625 0.508729 0.16637568 -0.019851727 0.06421756 -0.032923225 -0.3867428 0.19424503 0.59918 -0.35918868 -0.26516974 -0.16497026 0.14567475 -0.5772991 -0.19139823 0.021216752 0.5746899 -0.041391812 0.46278572 0.30844864 -0.46760803 0.25350097 0.37362105 0.017072614 -0.27807635 -0.4012062 0.32726055 0.040160853 -0.07737805 -0.18379647 0.517434
5121 0.4864892 0.1574257 -0.19499613 0.15360883 -0.23575905 -0.2149989 0.19751808 -0.116358064 0.04043673 0.2765987 -0.30930418 0.17529942 -0.26481766 -0.25616434 0.2707783 0.287484 -0.09966294 -0.46484813 0.7189184 0.72232676 0.13651502 -0.12208457 -0.6838029 -0.045613732 -0.7953495 0.39297035 -0.5827165 -0.1549744 0.30675378 0.026450954 -0.21737623 -0.07032105 0.18658653 -0.010171528 0.29939577 0.09598206 0.29496628 -0.3398118 -0.26321933 0.48557258 -0.22418705 0.009498488 -0.28746545 0.57550335 0.43988693 -0.3461863 0.39817247 0.16303277 -0.10301896 0.27984017 -0.13234273 -0.013127498 -0.036526535 -0.13343278 0.30726838 -0.213705 0.33259416 -0.014599992 0.115793526 0.27874938 -0.76710427 -0.24165308 -0.0154200755 -0.17276588 -0.0033696322 0.061591495 -0.15649919 -0.30517942 -0.015308603 -0.38438633 0.408811 0.22958712 -0.25067127 -0.28879374 -0.35837594 0.30821627 -0.16138893 -0.055964883 0.20444606 -0.08323277 -0.1212339 -0.41485533 0.019966934 0.018525776 -0.19399081 -0.0006554424 0.3121828 -0.18432029 0.076162204 0.21839626 0.029209366 -0.22522318 0.12683962 0.016073935 -0.16699187 0.22067727 -0.059463013 0.13904239 0.48767883 0.21915273 -0.44175142 0.22504969 0.12082924 -0.41546533 -0.08780676 0.20017366 0.119070634 -0.25786367 0.12272151 -0.046184503 -0.40983084 -0.19867566 -0.057595678 0.4024072 -0.25218394 0.2501194 -0.02886486 0.08636403 -0.019253293 0.117622785 -0.07150099 -0.5417305 -0.15222457 0.12278119 0.24055772 0.01948597 -0.16374594 0.17846899
9582 0.25975153 -0.1891137 -0.17209493 -0.29487506 -0.18440439 -0.42044425 0.43061146 0.015915196 0.20448029 0.22031838 -0.27867714 0.3162694 -0.43841228 -0.16957569 0.09163685 0.11180798 -0.10036887 -0.5523955 0.7859504 0.791745 0.02139744 -0.2913481 -0.67483413 -0.052265517 -0.64358246 0.06787896 -0.94759 0.0145882955 0.2615198 -0.18420549 0.38082352 0.0034349407 0.19723691 0.29291117 0.22120664 -0.13279358 0.5031877 -0.08975957 -0.3316953 0.3706156 -0.41649097 0.13412951 -0.49239781 0.424513 0.5148976 -0.5529698 0.68789554 0.37559465 -0.073752776 0.503845 -0.07047199 -0.1489216 -0.17499581 -0.16767596 0.07264319 -0.40911978 0.48536634 0.0442313 -0.020492109 0.13915487 -0.76156944 -0.12864073 0.20729285 -0.6394795 -0.086373776 0.21238597 -0.15844011 0.09657881 0.40338257 -0.5303328 0.52007836 0.17358863 0.0070433714 -0.35024825 -0.5598307 0.05029257 -0.3892929 -0.5831197 -0.112303846 -0.32931387 -0.29402766 -0.5602971 -0.010376006 0.11949007 -0.24391012 0.091924764 0.056111664 -0.16891368 -0.1557944 0.41186142 -0.15603933 -0.057115734 -0.09590595 -0.060295023 -0.04362142 0.26937824 -0.30425885 0.4071831 0.3675855 0.069396496 -0.123036064 0.13042367 -0.048580926 -0.19407074 0.03394714 0.10371109 -0.26045775 -0.34686455 0.07597028 0.23092136 -0.5633871 -0.14653105 -0.16018032 0.6134642 -0.11847752 0.28788602 0.5249378 -0.29052603 0.045928527 -0.1070741 -0.28088582 -0.7732087 -0.2592865 0.17671604 0.12903021 -0.13636018 -0.074117996 0.6820821
10222 0.07248566 -0.25791422 -0.41422787 -0.33444187 -0.22815752 -0.40537328 0.5833901 -0.029864656 0.06732432 0.008650266 -0.1498031 0.07370556 -0.35658857 -0.16916424 0.3252196 -0.21884133 0.19513325 -0.37581986 0.96860844 0.91232497 0.022338059 -0.41277897 -0.936583 0.14965943 -0.7567702 -0.20847677 -0.57717055 -0.024147546 -0.06282171 -0.2390657 0.6224495 -0.20278102 -0.014499181 0.2897271 -0.18355675 0.050188437 -0.20660128 -0.5164435 -0.34630665 0.2193897 -0.22527747 0.23990393 -0.27456754 0.17837097 -0.25787598 -0.44049847 0.6212945 0.53954285 0.060893003 1.0031911 0.03228607 -0.32315114 -0.054170664 -0.3672479 -0.07239051 -0.37607688 0.30190617 -0.18924871 0.21545605 0.11442922 -0.42746377 -0.22033231 0.37251732 -0.5734102 0.13249493 0.331344 -0.024273355 -0.33547863 0.39704892 -0.6236159 0.3446973 0.1841101 0.034435283 -0.48335782 -0.22590958 0.11921552 -0.027535768 -0.65497607 0.15034598 -0.42714807 -0.31967178 -0.24367318 -0.13114241 -0.007006529 -0.2994291 -0.14694393 0.15585892 -0.3982945 0.17705183 0.09105469 0.28622642 -0.15039316 -0.22023311 0.28863484 -0.5806255 0.54006743 -0.06290307 -0.19316106 0.38962308 -0.25903174 -0.036456537 0.027500397 0.45432204 -0.049889695 -0.21640627 -0.036640216 -0.08094352 -0.2938769 0.053554844 -0.03652234 -0.44548708 0.07033982 -0.037777714 0.5666292 -0.10406491 0.30603167 0.17929876 -0.92266077 0.4990341 0.30838326 0.049323387 -0.88355017 0.33335692 0.18681923 0.27115288 0.32738638 -0.14232965 0.61132914
4072 0.53133905 -0.024438418 -0.10731817 -0.25376526 -0.45908064 0.061524652 0.40428185 0.27495643 -0.20797901 0.45983976 -0.0928007 -0.13812907 -0.3733885 0.040665086 0.34836093 0.45532218 -0.5972443 -0.1014746 0.93441564 0.74523413 0.07746543 -0.254759 -0.7454049 0.09736958 -1.0438695 -0.1444956 -0.47211257 -0.2761922 0.0017955746 -0.115367375 0.34177774 -0.5648521 0.27456707 0.25953975 0.41610438 -0.15580142 0.10738825 -0.58062696 -0.34419262 0.7096018 -0.22090347 -0.02524505 -0.41481808 0.37845618 0.42516524 -0.33667365 0.06312641 0.54129803 -0.17945763 0.46625093 0.005277684 0.036629833 -0.20201898 -0.4703882 -0.027256235 -0.7931974 0.27542073 -0.11363057 -0.099789724 0.2926341 -1.0394284 0.054263286 0.037149217 -0.2094796 0.12712485 -0.16054057 -0.23017864 -0.029918123 0.25931695 -0.27060646 0.1343042 0.715217 0.01877358 -0.40351692 -0.2210337 -0.033651493 -0.6629765 -0.34154359 0.023399074 -0.071981415 -0.18303806 -0.60999006 0.052125115 0.21903422 0.3107866 -0.30118302 -0.038520116 -0.5346818 -0.054420967 0.036909796 0.38816085 -0.1427332 -0.2119113 -0.04026089 -0.3055276 0.49380833 -0.44911236 0.3606671 0.49397072 0.11733267 -0.011600018 0.24258347 0.017628789 -0.28448218 -0.19775535 -0.12425317 -0.01216292 0.261725 -0.011746301 -0.15621772 -0.44053882 0.12713069 0.077607326 0.5962208 0.032630786 0.36041427 0.45038006 -0.41393068 0.26803222 0.34150818 -0.3848367 -0.77164865 0.11112155 -0.026701707 0.6157702 0.12528105 0.18069133 0.5677424
19695 0.13702273 -0.12524009 -0.21138208 0.43744752 -0.23643942 -0.09500184 0.40716928 -0.036050886 -0.40097517 -0.112894945 -0.13589548 0.4959426 -0.055345792 -0.070617944 0.41056797 0.05847403 -0.30019653 -0.61015576 0.25549638 0.7418402 0.10765578 -0.3615068 -0.7863743 0.17566763 -0.50583184 0.2335752 -0.61326945 0.38346174 0.5491256 -0.33503345 0.3846809 0.43531862 0.0979023 0.09257115 -0.19959587 -0.07748298 0.19950123 0.27335462 -0.13567115 0.42448655 -0.5444434 -0.16866334 -0.062246215 0.14373332 0.37674093 -0.7990911 0.32007268 0.7512224 0.21044616 0.55156744 0.041656967 -0.9236982 -0.27132198 0.07111959 0.37599593 -0.26810372 0.35371527 -0.16178176 -0.13407849 0.10568993 -0.25582945 -0.041934837 0.22384183 -0.34535292 -0.06132008 0.49867 -0.48779175 0.27317038 0.13909951 -0.53664553 0.8919063 0.44123062 0.33317676 -0.54760206 0.04537471 -0.13173342 0.060113076 -0.2473249 0.6852305 0.02130333 -0.02717819 -0.74604464 -0.07919788 -0.41725883 -0.43720424 0.014600596 -0.09338699 0.3781103 0.17018889 0.43753093 -0.059308544 0.21275717 0.084984556 -0.22306779 -0.14879549 0.30723137 -0.076585 0.43111372 0.19668591 0.5102706 0.0406234 -0.07301273 -0.15417069 0.28745598 -0.12701513 0.3323076 -0.38712505 -0.21768278 0.38191423 0.6100762 -0.3540906 -0.17710821 0.18734358 0.5023894 -0.10897793 0.4296807 0.4331369 -0.46092454 0.5546507 -0.102982484 -0.16726953 -0.64319265 0.31069323 0.49259436 -0.021637842 0.0886592 -0.24793716 0.38543364
4061 -0.19024673 -0.58097076 -0.1640693 -0.20802656 0.015050063 -0.32201675 0.22487816 -0.087912865 0.46017534 0.37873262 -0.2986347 0.20834813 -0.62358344 0.34909967 -0.21476802 0.44841868 -0.006902607 -0.42520028 0.44770402 0.69818616 0.19820836 -0.25273356 -0.48388305 -0.40196648 -0.76392317 0.24761249 -0.8149018 -0.38519058 0.17980927 -0.2815212 0.31609717 0.06640491 0.56160426 0.7751582 0.2618179 0.01945522 0.80145097 -0.1980835 -0.39144307 -0.25324374 -0.15803115 0.534698 -0.5078581 0.22599871 0.6534774 -0.29694372 0.70075876 0.4975888 -0.12950705 0.28694284 -0.038268644 0.47312987 0.10578838 0.29464293 -0.07081488 -0.37138972 0.6706003 0.35317725 -0.11449898 0.19665284 -0.8080014 -0.32951286 0.40663478 -0.72090244 -0.27686754 0.24958351 0.18428206 -0.0722267 -0.063841425 -0.21845345 0.44917506 -0.018493261 -0.20957583 0.055502083 -0.7381339 0.31817502 -0.7399458 -0.6890388 -0.5322689 -0.24035423 -0.24827081 -0.15143052 -0.24864192 0.5352217 -0.08855883 0.49322212 0.22171052 -0.17189783 -0.24236791 0.11753976 -0.21115021 0.020612512 0.08930232 -0.121880285 0.4128635 0.16634679 -0.20331292 0.36840034 0.069893524 -0.46968937 -0.33391663 0.3198111 0.059923492 -0.084256925 0.11687315 0.22667831 -0.6144481 -0.06401979 0.061610937 -0.07875178 -0.2722961 -0.37630334 -0.44678313 0.2817633 -0.40307564 0.24433012 0.35345125 -0.10759729 -0.25107536 0.03721144 -0.5057994 -0.44103256 -0.46097523 -0.17751804 0.009730277 0.00036232985 0.17723554 0.77362776
4678 0.28738624 -0.0015076846 -0.51221627 -0.5850939 0.08054445 -0.08322962 -0.09850547 -0.062339365 0.17124003 0.2770545 -0.40834594 0.028244074 -0.6184793 0.20129703 -0.59019154 -0.1365615 0.14659472 -0.8391868 0.46327916 0.37941626 -0.09743544 -0.3175067 -0.46081132 -0.37686336 -0.7357152 0.18430784 -0.2106916 -0.19711763 -0.004557497 -0.27040726 0.2089485 -0.20403865 0.46063125 -0.037257504 -0.17095219 0.60890377 0.55126995 -0.2841989 -0.5366958 0.43094668 -0.70568645 -0.20324901 -0.6550651 0.29941317 0.5181751 -0.2897881 0.40818012 0.21490909 -0.3332265 0.5591781 -0.78480965 0.05647132 0.07169375 0.24909595 0.09916352 -0.072367884 0.17011674 0.15018496 0.1967241 0.47229013 -0.3197252 0.31165415 0.28729522 -0.5164636 0.1817784 0.39616102 0.4536949 -0.38151237 0.5047155 0.039779678 0.70837647 0.40450096 0.52783364 -0.30874264 0.18930757 0.57147336 -0.045375355 0.09410132 0.061389502 -0.45198414 -0.097144514 -0.09515319 -0.3696825 0.3345452 -0.67152274 0.005791592 -0.04081039 -0.5304938 -0.43800995 0.18897578 0.18341519 -0.088195086 0.20949478 -0.22320724 0.13597405 0.52103585 -0.42047495 -0.026118135 0.33711466 0.06915593 -0.08159695 0.3027959 0.020344388 -0.48082188 0.0077630193 -0.06924421 -0.23754239 -0.81785977 0.013341162 -0.23818484 -0.3688479 -0.5372254 -0.14599542 0.39179486 -0.09829398 -0.47305945 0.19245674 -0.31680974 -0.14911968 -0.06453404 0.16946729 -0.24523555 -0.54796624 -0.29849344 0.17167851 0.09506323 -0.11738897 0.41891432
15645 0.3187845 -0.21551447 -0.179708 -0.62622315 -0.38277292 -0.1864755 0.39104864 0.12744902 0.2371374 0.60552335 -0.031981923 0.04273921 -0.2840289 -0.12575486 0.26638326 0.3938851 -0.26999715 -0.42604285 1.0945009 0.71572745 0.027725976 -0.21842533 -0.8112773 -0.11091413 -0.70844364 0.13079478 -1.0288054 0.05842421 0.12777528 -0.30999395 0.42448843 -0.09706619 0.13409804 0.14847468 0.41415706 -0.44871292 0.28385237 -0.2250754 -0.62812823 0.43024328 -0.51997554 -0.07486703 -0.19952849 0.14558245 0.5099769 -0.562763 0.43272585 0.5280163 -0.099242344 0.63430756 -0.045060907 0.023560226 -0.1321644 -0.11136094 0.14152169 -0.39473805 0.56806576 0.096550114 -0.06726176 0.10322303 -0.7922705 0.13236701 0.2530736 -0.2879567 0.11829119 0.025870414 -0.35863638 0.021651587 0.0809854 -0.2822927 0.2285187 0.3316016 0.045170583 -0.34865582 -0.29154497 0.3629094 -0.3847456 -0.64650023 0.009871346 -0.27529162 -0.35783377 -0.6313502 -0.068514965 0.012610831 -0.067853294 -0.106749155 -0.0070937276 0.0016396733 -0.23970798 0.37525636 0.11008959 -0.09180929 -0.1405138 -0.17067088 -0.21442232 0.4659411 -0.04934449 0.24333094 0.40127954 -0.054120738 0.34404755 -0.03732093 0.2406965 -0.13748637 0.18489285 0.27870232 0.044537522 -0.07276336 0.35571057 -0.035632987 -0.5964249 0.18387194 0.009770665 0.4152864 0.14609155 0.3829925 0.11226197 -0.78375477 0.2512703 0.47652364 -0.050344322 -0.69534826 -0.051878583 0.018325672 0.16850308 0.28512627 0.15707542 0.31348962
4068 0.2574572 -0.08105951 -0.43766353 -0.30880037 -0.23169038 -0.12379399 0.3021849 0.24840212 0.2503755 0.028077407 -0.63550425 0.16827057 -0.2867634 -0.24468146 -0.065915704 0.32047713 0.20344628 -0.1674427 0.5599723 0.70159286 -0.032590624 -0.012669155 -0.5800113 -0.476498 -0.7283165 -0.1482122 -0.6440059 -0.35673362 0.3573035 -0.4339046 0.63646454 -0.50464725 -0.15371536 0.3151953 0.10144063 0.08007913 0.66997826 0.14655757 0.113569 0.337234 -0.124244735 -0.11070166 -0.18764102 0.47696602 0.30420482 -0.28796384 0.34239224 0.34092453 0.110625856 0.110836565 -0.15463081 -0.35329834 0.17603588 0.21989277 -0.15963976 -0.47766435 0.8633339 0.4236812 0.22304775 0.036116928 -0.99305046 -0.17314407 -0.08560698 -0.65546286 -0.121287495 -0.07586296 -0.24463248 0.12387829 0.5163922 -0.33309972 0.5177124 0.052315272 -0.36714387 -0.31597427 -0.5143841 -0.17535584 -0.2176807 -0.65975577 -0.14735848 0.03523882 -0.036487494 -0.5426481 -0.0027071056 0.38348588 0.030526357 0.05830121 0.025507174 -0.029389145 -0.4595657 0.1694039 -0.0153039675 -0.5021441 -0.027085418 0.36576536 -0.053169362 0.3252449 -0.29688436 0.6521654 -0.019637924 -0.19699878 -0.31925339 -0.022773445 -0.27799353 -0.09963149 0.29709572 0.23520693 -0.27549383 -0.5896784 -0.104686484 0.10184104 -0.6052171 -0.25144982 -0.04809856 0.5489406 -0.20773998 0.3605475 0.982788 0.047393773 0.31201008 -0.50409317 -0.4567468 -0.38469136 -0.18177524 0.11648068 0.16732034 0.018155701 0.55333495 1.0500319
19041 -0.50075597 -0.14302553 -0.017558537 -0.0120415855 -0.3810806 0.011827016 0.35355556 -0.39454874 0.25408092 0.45740786 -0.1841711 0.6422359 0.049177762 -0.74911046 0.042408746 0.21823865 0.24768355 -0.66963154 0.74898416 0.42078716 -0.30397344 -0.058042374 -0.96770054 -0.036215935 -0.439294 -0.11211971 -0.774943 0.095660225 0.39721322 -0.19598614 0.16528526 0.29033354 -0.022972759 -0.16106805 0.5379773 0.24812612 0.5573017 0.2503177 -0.70315844 0.5367023 -0.6797077 0.071351655 -0.15043956 0.19109297 0.5157835 -0.33353028 0.84893054 0.071530044 0.31919506 0.92809576 -0.017071808 -0.25711212 -0.27241212 -0.45572525 -0.14121632 -0.2788677 0.017257469 0.42658806 -0.24714753 0.3958795 -0.39197826 0.505869 0.53222805 -0.72386575 -0.25594193 0.07041341 -0.37324163 0.15094934 0.7654923 -0.6844348 0.38455647 -0.10357026 0.17233762 -0.7448319 -0.65234053 0.37895364 -0.04724697 -0.18022479 -0.059760455 0.145497 -0.030225525 -0.24200529 -0.16652046 0.3899799 -0.25310677 6.456976e-05 -0.32254592 -0.19004928 0.16751215 0.33104864 0.013834699 -0.027354548 -0.10540631 -0.13232037 -0.26763535 0.2796146 0.09021556 0.46334562 0.54687864 -0.04911848 0.4739773 -0.17778724 0.43887225 -0.021624759 0.11004401 0.19361809 -0.047096245 -0.14175087 0.42783105 -0.1566706 -0.2857831 -0.52038145 -0.0059930678 0.3710077 -0.14743252 0.07385448 -0.05382604 -0.67025197 -0.18299134 -0.1305359 -0.049975846 -0.5237881 -0.16951336 -0.16681509 0.6104945 0.08945374 -0.32686287 -0.004771565
16431 0.47518623 0.1782974 0.0043889987 -0.20927078 -0.19287887 -0.11604383 0.28388205 -0.12636615 -0.10905111 0.29977024 0.02592087 0.07865248 -0.39276105 -0.098439954 0.18106109 0.064365506 -0.23072533 -0.48385957 0.16411377 0.65638167 -0.1020576 -0.13290222 -0.79535764 0.078925975 -0.39253017 0.23622833 -0.7481998 0.08447423 0.4486379 -0.07444481 0.3382218 0.059321173 0.36557007 0.17723767 0.23592873 -0.18179242 0.34199953 0.20199078 -0.38305798 0.48808917 -0.6340218 -0.37355238 -0.2627587 0.53725964 0.6502968 -0.40764752 0.01989353 0.02649187 -0.41993403 0.30871966 -0.120558836 0.21402325 0.2451904 -0.4337727 -0.09234577 -0.020009551 0.6676608 -0.22561567 -0.22688605 0.33298078 -0.68862826 -0.10788597 -0.11961532 -0.78956157 -0.14109421 -0.1390943 -0.5617976 0.2568709 0.05544369 -0.07261344 0.33749428 0.3765724 0.06816136 -0.345531 -0.13063107 -0.007510987 -0.6169033 -0.53479385 -0.11342278 -0.35653612 0.006061061 -0.46154544 0.076836236 0.1513973 0.03127459 -0.05746334 -0.09785252 -0.3121317 0.094321996 0.22788037 0.022157308 -0.41553277 0.12589282 -0.20499335 0.010160688 0.4436495 0.07652356 0.55863935 0.39552847 0.3770191 0.035566036 0.16166297 -0.20770064 -0.18160555 -0.049730465 0.22195461 -0.36704963 -0.05274513 -0.022519201 0.22616485 -0.3530802 -0.18738773 0.22120373 0.13279466 0.14263812 0.15233624 0.40922922 0.12319945 0.092177235 -0.24810064 -0.071268566 -0.64935076 -0.17547305 0.1749916 0.13443023 -0.019069374 -0.07490451 0.47202584
267 0.2324304 -0.18535592 0.09604582 -0.29815897 -0.3656605 -0.0899762 0.43023506 0.08325114 0.16940282 0.32800585 0.09620614 0.05201936 -0.3136031 -0.07035575 0.23210284 -0.06380594 -0.06921478 -0.3684228 1.0700043 0.68615365 0.00027920306 -0.27683413 -0.85600317 0.20808686 -0.75128245 -0.03794286 -0.7948075 0.32135236 0.26050484 -0.25204656 0.47349486 -0.08272513 0.23809883 0.2641349 0.22110322 -0.25311202 0.5068783 -0.27237076 -0.6561963 0.48057097 -0.28342462 -0.18972196 -0.43472135 0.30154994 0.6178421 -0.59143764 0.41028452 0.44307366 -0.13910438 0.7385462 0.016429061 -0.077510655 -0.13689202 -0.33688632 -0.06665821 -0.200945 0.5299254 0.017050374 -0.18060689 0.32578024 -0.79774404 -0.014980145 0.4269732 -0.49678504 -0.21874025 -0.00097423093 -0.14380606 -0.10699587 0.106060274 -0.38745254 0.4457041 0.3746393 -0.1433298 -0.5602858 -0.3735592 0.19944388 -0.33698842 -0.7248727 -0.028504374 -0.6629269 -0.35528493 -0.44739452 -0.17641701 -0.16001134 0.04709906 0.07601366 0.2415016 -0.39559454 0.073629014 0.54857177 -0.23182027 -0.051042724 -0.24475603 0.07676012 -0.4070102 0.392401 -0.12926057 0.3020696 0.39712647 0.17617574 0.116560236 -0.104742736 0.48155892 -0.061388478 0.096366435 0.24178584 -0.007974427 -0.277825 0.07535859 0.37448892 -0.63962394 -0.14015391 0.033714216 0.31089482 0.07404453 0.35580918 0.232179 -0.37365657 0.13354327 0.09808136 -0.16755287 -0.8100391 -0.21203996 -0.10426531 0.21234208 0.13410722 -0.089463204 0.53144485
6709 0.15980764 -0.33668205 0.04364417 -0.18888614 -0.2825093 -0.5792639 0.403644 -0.06504816 0.1324849 0.16663653 -0.27500418 0.60348105 -0.450081 -0.12544249 0.14727221 -0.06028495 -0.023875855 -0.526929 0.78574777 0.82044214 -0.047283813 -0.5698301 -0.82430685 0.15771005 -0.72738945 -0.06721466 -0.83806586 0.36467496 0.40358377 -0.1486684 0.5464656 0.36467156 0.24217343 0.23497355 0.19703586 -0.1940574 0.7394436 -0.05666996 -0.40956727 0.67178774 -0.60449904 0.2899918 -0.34126583 0.48383445 0.4352505 -0.7640047 0.9779711 0.59457284 0.4585432 0.92770195 -0.02868791 -0.23636392 -0.20886223 -0.09590188 -0.15290411 -0.40915656 0.45173982 0.22160903 -0.19433211 0.4645775 -0.58753014 0.0035332926 0.22185493 -0.8747899 -0.16515626 0.4213936 -0.17060569 0.0895031 0.47246414 -0.6108259 0.7205611 0.05688169 0.07757699 -0.67694485 -0.7777122 -0.05932216 -0.29264113 -0.79814214 -0.08886342 -0.19069825 -0.29283544 -0.73109394 -0.03147592 0.20898594 -0.48486727 0.16029583 0.11544775 -0.30548647 0.010261479 0.635416 -0.06554208 -0.097292885 -0.16461448 -0.09223536 -0.065502934 0.30452058 -0.29915693 0.55739176 0.37029564 0.17180996 -0.16952492 0.056464378 0.22347173 -0.056041334 -0.08478536 -0.08453969 -0.26961207 -0.1546448 0.23825966 0.32214266 -0.5283158 -0.3292812 -0.06256229 0.8890517 -0.035404623 0.63008237 0.55714226 -0.27522874 -0.05891046 -0.1834809 -0.18470941 -0.9282094 -0.2244946 -0.034524143 0.35103425 -0.14732102 -0.3940694 0.74449545
6337 0.31408322 -0.13683012 -0.11106758 -0.32255873 -0.2708436 -0.38309312 0.25052387 0.025269818 0.014780521 0.35052407 -0.27300867 0.33479393 -0.41376594 -0.03874974 -0.062091555 0.10917647 -0.106666565 -0.3968144 0.782231 0.6972552 0.039350603 -0.3731885 -0.6872399 -0.26151243 -0.5380301 -0.04803411 -0.850406 -0.05029098 0.30534407 -0.16193411 0.41863984 0.04270723 0.209863 0.31581813 0.2372775 -0.2309011 0.4502378 -0.14721131 -0.36728385 0.61181647 -0.53211147 0.04589583 -0.40751913 0.3509754 0.59996766 -0.4085118 0.5353211 0.41793978 -0.058548387 0.6780164 0.010212972 -0.09102823 -0.08379318 -0.2306408 -0.022503117 -0.22134112 0.5827357 0.12945534 -0.0023815054 0.19695668 -0.7967349 -0.003492797 0.16142729 -0.57287073 0.17345093 0.2334842 -0.17552951 0.107828185 0.49932617 -0.51015174 0.57596 0.20783988 0.0060392525 -0.5557193 -0.4795351 0.090368524 -0.3509847 -0.5651669 -0.08550635 -0.26206523 -0.38190228 -0.42077816 -0.13939597 0.20056947 -0.2963295 0.07614852 0.0024398717 -0.24555618 -0.31437185 0.2784008 0.06389592 -0.14827006 -0.028167875 -0.06995744 -0.12813132 0.42318222 -0.14968784 0.2853496 0.48708588 0.03362594 -0.07199936 0.16712175 0.0811457 -0.16721074 0.11081902 0.14323637 -0.2957915 -0.3608286 0.18254809 0.21310022 -0.55343616 -0.25282496 -0.12788513 0.66013014 -0.072343 0.25437763 0.42592582 -0.32766232 0.20334435 -0.05788433 -0.07542923 -0.7997034 -0.19288102 0.037891667 0.24616696 0.060039088 -0.17393477 0.66313297
10264 0.28006992 -0.075328045 -0.033336256 0.21425839 -0.20841858 -0.3605774 0.5964379 -0.2069836 -0.41100714 0.024998646 -0.14278813 0.26083848 -0.08437419 -0.48445135 0.6112928 -0.402177 -0.009272612 -0.55181366 0.3967604 0.5382421 0.123012066 -0.2701105 -0.8962963 0.37604415 -0.28109673 0.074857965 -0.38650218 0.5432308 0.2932671 -0.25586867 0.2293193 0.33044398 -0.23393513 -0.29565626 0.09695911 -0.36981776 0.08483269 0.19864681 -0.016080888 0.7857604 -0.7004471 -0.20872791 -0.015374398 0.2897107 0.17501906 -0.6703077 0.15669559 0.6042961 0.48993957 0.8378825 0.0114912735 -0.4678756 -0.14869075 -0.11666798 0.2016449 -0.33829004 0.423135 -0.16439421 -0.1426361 0.21388052 -0.34235868 -0.13016663 0.14329582 -0.39405856 0.4337485 0.16001123 -0.44408467 0.17958842 0.4139917 -0.6455982 0.60188997 0.23232628 0.08185673 -0.58857995 -0.35868612 -0.4027486 0.1167759 -0.28661206 0.42121005 -0.042466328 -0.4068068 -0.6786736 0.062494688 0.021927381 -0.49984965 -0.032546207 0.39665636 -0.0009592678 0.26202017 0.43903056 0.45539075 -0.03301964 -0.21080726 0.22620763 -0.3516228 0.31852397 -0.24480361 0.17322324 0.42097175 0.31037965 0.18820061 -0.2171769 0.3102287 0.22690691 -0.100060314 0.09307976 -0.072087795 -0.65888613 0.07544315 0.45235577 -0.12638234 0.2553764 0.3311751 0.61252993 0.19199431 0.6812207 0.24282938 -0.427526 0.40108034 -0.16271344 0.13443476 -0.7372884 0.20983778 0.18861468 0.3925621 0.008670621 -0.13441148 0.048907995
7108 -0.17266086 -0.55558133 -0.1930917 -0.16675332 0.003572126 -0.3043498 0.22359262 -0.102439836 0.4401784 0.35903198 -0.3309067 0.20890051 -0.6056388 0.36484483 -0.22237009 0.44318697 0.013494488 -0.42711428 0.38514188 0.6940024 0.19623873 -0.24775761 -0.47984752 -0.39130184 -0.7645081 0.24290192 -0.76667446 -0.37460044 0.17920539 -0.29607514 0.28627092 0.04120662 0.54646176 0.73581666 0.24343973 0.054419443 0.79021865 -0.2099324 -0.3424103 -0.27851388 -0.15091896 0.5050975 -0.5123211 0.20186418 0.6451302 -0.2871458 0.6416615 0.5023252 -0.12274387 0.27490103 -0.0051743044 0.42596617 0.10369535 0.319477 -0.06548271 -0.3735902 0.67308795 0.33677357 -0.11664979 0.18003002 -0.79765147 -0.3118295 0.37723872 -0.6993909 -0.25538 0.25487623 0.16220403 -0.035505116 -0.0831747 -0.21721712 0.4752445 0.0062031043 -0.21446688 0.06946927 -0.68398625 0.32350743 -0.7303971 -0.65820843 -0.520214 -0.19952941 -0.24708341 -0.14724578 -0.2579984 0.5231677 -0.10070531 0.49723965 0.23835768 -0.16598481 -0.2276606 0.113528654 -0.20895734 0.012553987 0.122336395 -0.10206158 0.40904433 0.17828082 -0.21022186 0.35759893 0.052911032 -0.46264172 -0.3388707 0.31982568 0.0421716 -0.087115094 0.11276244 0.2214307 -0.59623367 -0.07577095 0.04225844 -0.08016666 -0.2529603 -0.38200474 -0.44008237 0.29068962 -0.39979473 0.24685612 0.36410257 -0.082348704 -0.2176559 0.018533975 -0.4870028 -0.42717922 -0.4680901 -0.19959517 0.05253622 -0.013303586 0.19835158 0.73602885
14128 0.48806736 0.22089931 -0.029602217 -0.20790397 -0.18698408 -0.11694039 0.24046318 -0.15919107 -0.16823536 0.2891265 0.044605367 0.075403534 -0.34943613 -0.09049076 0.19465886 -0.00092196127 -0.21250643 -0.51141655 0.0728633 0.6463629 -0.116700396 -0.06289837 -0.8269695 0.09950008 -0.4035803 0.25071463 -0.6935516 0.05818656 0.53106195 -0.11869186 0.2770493 0.03659807 0.35300225 0.118840575 0.23933211 -0.14740123 0.3151889 0.21775097 -0.40367135 0.52575177 -0.6781952 -0.41826323 -0.23273255 0.53149694 0.62446094 -0.3891302 0.04939842 -0.056073744 -0.44815975 0.28651157 -0.11852629 0.19866796 0.30216435 -0.45103553 -0.07547514 0.058455706 0.63568276 -0.23331244 -0.24870713 0.33777264 -0.6857024 -0.10684888 -0.15282527 -0.8242148 -0.10089495 -0.13183734 -0.5704683 0.28907588 0.020362528 -0.078096345 0.35122398 0.37915513 0.07666617 -0.44881704 -0.017882325 0.038142256 -0.58072966 -0.51685876 -0.12635241 -0.3564629 0.01931043 -0.43698257 0.0755551 0.1470567 -0.039435055 -0.05987117 -0.109531246 -0.27851862 0.15481623 0.19999789 0.019189274 -0.4284561 0.21387458 -0.21432051 0.04083746 0.47606826 0.1750649 0.5290854 0.40804726 0.46402246 -0.02275061 0.18885826 -0.26416862 -0.22693232 -0.051887956 0.24231021 -0.29884604 -0.034998722 -0.011234168 0.16978678 -0.35333353 -0.20729674 0.2288584 0.08235914 0.13699713 0.09180111 0.4285165 0.15101498 0.08994419 -0.27338496 0.002010195 -0.6270514 -0.17931421 0.16890901 0.167039 -0.0020209367 -0.066998556 0.40270892
14996 0.38840842 0.13974833 -0.08529499 -0.3750554 -0.3622327 -0.11811538 0.21880531 -0.13056745 -0.40044838 0.47494313 0.26076537 0.33261433 -0.32021675 0.24022058 0.07526426 -0.46410933 0.016508875 -0.5748645 0.62362415 0.31249315 -0.10300187 -0.64399934 -0.3567893 0.43310946 -0.45310915 -0.27018666 -0.2975476 0.4118693 0.40287897 0.045082487 0.04307577 0.3809343 0.42856604 0.3953221 -0.16524866 -0.19479558 0.099037334 -0.028594587 -0.57180905 1.0461638 -0.6425716 -0.027205508 -0.3238324 -0.058975987 0.23443447 -0.45545325 0.4888557 0.43432868 0.15901594 1.2268938 -0.14019392 0.05375227 -0.4116833 -0.31013098 0.23411746 0.03618282 0.20453116 -0.5037728 -0.5560009 0.41883454 -0.29036456 0.12938653 0.30929708 -0.28886288 0.011249717 0.22770695 0.14693029 -0.36482018 0.5705487 -0.76102495 0.53533155 0.5578219 0.3626316 -0.87931144 -0.08295983 0.0837526 -0.051794615 -0.15211844 0.10161301 -0.529103 -0.3855052 0.030671626 -0.080912575 -0.25475067 -0.63185793 0.2845867 -0.18844447 -0.068444386 -0.03104581 0.53629625 0.2650005 -0.075472884 0.065073416 0.048475973 0.008635294 0.1795504 -0.106009476 -0.33109897 0.6775899 0.3987811 -0.22728686 0.09171512 0.0693305 -0.47708395 -0.24986266 -0.23770413 -0.11111306 0.0035464219 0.19321309 0.29689595 -0.45766228 -0.3287261 0.03449183 0.31867555 0.07836737 0.04753126 0.14663938 -0.24802619 -0.3394505 0.08507682 0.17556623 -0.9707257 -0.111379065 0.022369048 0.34028655 -0.1283372 -0.80139935 0.15592578
9567 0.39139867 -0.21937774 -0.30209038 -0.23298676 -0.17217107 -0.52964586 0.49615422 -0.07049355 0.05561559 0.1449344 -0.29156238 0.3046198 -0.49961305 -0.12682423 0.030164845 0.16435714 -0.19226387 -0.5561988 0.79309225 1.0392382 0.10545311 -0.26565242 -0.8943918 -0.07483828 -0.7417797 0.23280574 -1.0388589 -0.03398959 0.26254815 -0.3124285 0.4770387 0.008070986 0.29372638 0.35212716 0.26795274 -0.15753259 0.5255414 -0.056610603 -0.3134052 0.3998174 -0.40593398 0.22479604 -0.610352 0.58566916 0.6122275 -0.54432666 0.5212964 0.5052304 -0.06665111 0.5682155 -0.0938728 -0.04469528 -0.019660747 0.06952188 0.06537947 -0.4058476 0.7307533 0.055387497 -0.0061149066 0.17523207 -0.9829174 -0.31167892 0.1469534 -0.69747776 0.10700119 0.14511208 -0.23156206 -0.055146642 0.3563343 -0.40011856 0.663741 0.14630051 -0.16547789 -0.45101377 -0.59976816 0.05028698 -0.49624166 -0.7000091 -0.12112114 -0.3666888 -0.36082843 -0.6720845 -0.014420472 0.16382344 -0.17707646 0.15543348 0.21733835 -0.21483247 -0.23988946 0.35835272 -0.023796942 -0.24744864 -0.0699903 0.033981457 -0.042819764 0.36455876 -0.26934332 0.4298945 0.38661954 0.12121539 -0.26906434 0.113980904 -0.10357395 -0.0850455 0.047982845 0.2721431 -0.3659733 -0.527932 0.0011273419 0.23575196 -0.5644463 -0.15600723 -0.020597713 0.6096914 -0.06283352 0.41435334 0.6546508 -0.2964979 0.15865071 -0.109590046 -0.2562069 -0.8076212 -0.30678427 0.21392553 0.13306423 -0.07464673 0.14444721 0.8516567
11363 0.120955475 0.022050645 0.27179825 -0.19610414 0.39428672 -0.3041274 -0.029596224 -0.23405924 -0.54131395 0.25733924 0.3424584 0.52865964 -0.5291147 0.1962477 -0.1068119 -0.31621212 0.22834909 -0.41727382 0.55389166 0.62544477 -0.37669092 -1.0818435 -0.6546178 0.32740375 -0.2034774 -0.18095341 -0.6820557 0.2770327 0.22789805 -0.043244287 -0.051353864 0.94757646 0.79782933 0.05172875 0.023485089 -0.25154865 0.5819764 -0.37231502 -0.41405436 0.5999319 -0.5395061 0.18424024 -0.31586754 0.36992797 0.15601537 -0.48892725 0.63157123 0.2855337 0.08473202 0.62016404 -0.13946974 -0.12850457 -0.059874803 -0.49495584 0.31565097 -0.109174445 -0.008165226 -0.10009869 -0.60687995 0.5445999 -0.05240483 -0.19261087 0.24342586 -0.19706224 -0.019317638 0.30517167 0.029873356 0.23283103 0.5249244 -0.63864255 0.84950876 0.29953253 0.40534213 -0.77730554 -0.13618211 -0.19852567 -0.35914588 -0.6979123 0.11207113 -0.7193252 -0.2064349 -0.040179726 -0.20226765 -0.13385592 -0.731229 0.796171 -0.106577 -0.3253849 0.21367157 0.4113307 0.009572585 0.25791502 0.3832747 0.018526264 -0.17037547 0.27842766 -0.4760581 0.077290125 0.4995358 0.31800085 -0.5021219 0.1335323 -0.06468246 -0.35691407 -0.3756131 0.024042685 -0.40961808 -0.061058097 0.31669942 -0.3507725 -0.05253689 -0.22114612 0.3145025 0.30799076 0.20674394 0.06037076 0.5880863 0.12833741 -0.3079258 0.25163522 -0.037549626 -0.993213 -0.05965017 0.25566366 0.02619332 -0.24386078 -0.84049314 0.48703963
