1000 128
3499 -0.27487716 -0.078296036 0.044549443 -0.2541085 -0.12074028 -0.17792453 0.26882717 0.4525626 -0.14803141 0.010433808 -0.027757129 0.30128053 0.21569821 0.44949526 0.09063528 -0.4578861 0.65440863 -0.31203732 -0.066487744 -0.1858085 -0.11131284 -0.4564655 -0.46285105 -0.5046228 -0.30862343 -0.06760086 -0.050883397 0.27027717 -0.22172007 -0.091261216 0.349135 0.52806306 0.12409922 0.18347916 0.3576582 0.12764782 -0.036050532 -0.12023799 -0.41380256 -0.12395081 0.19421712 -0.15115854 0.19587213 0.14109853 0.353851 -0.13575554 -0.2215032 0.16588241 0.41915902 0.33296376 0.17318115 -0.01995087 -0.4502518 -0.3069447 0.14675303 -1.0190045 0.46416792 -0.17095199 0.3873492 0.6704517 -0.55088484 0.25695106 -0.31100437 -0.12464988 -0.007027192 0.33853045 0.31863075 -0.18189059 -0.21805781 0.115313694 0.62514096 -0.1475876 -0.32079428 -0.8484878 0.6419028 0.1300738 0.28088468 0.0028534553 -0.46683162 -0.47566682 0.10581076 0.49228227 -0.07048231 -0.2574781 0.63858217 0.23428221 0.30017626 0.2396131 -0.8358403 0.84267116 0.15859984 -0.26851743 0.44534335 0.62960297 -0.16652052 -0.44768313 0.11554731 -0.2361602 -0.81804 0.17659104 -0.7343237 0.14541268 -0.06900401 -0.16111146 -0.33359575 -0.50391906 0.17776604 0.107153036 0.2824808 0.027815765 -0.39726505 0.29247585 0.3618498 0.41729456 0.22013538 0.4960709 -0.17257465 0.92539066 -0.16083531 0.1654046 0.5165487 0.4058193 -0.5668262 -0.28378075 0.25536922 0.43017042 0.24350049 -0.212451
8351 -0.20028013 0.3577076 0.2514496 -0.3440507 0.5005968 -0.33280498 -0.099466585 0.46390054 0.019140381 0.67188424 0.60481524 0.51238275 0.5953327 -0.55578214 0.17158248 -0.08548876 0.114101835 -0.26069945 0.4947798 -0.13704991 -0.57359874 -0.22592035 -0.18422168 -0.9249552 -0.71910775 0.16017137 -0.35710087 0.02647294 -0.62264395 -0.21772325 0.08714403 -0.08437089 -0.14055799 0.65076107 0.025073657 0.1883813 0.17902724 -0.32854885 -0.25245452 -0.094936565 -0.19470151 0.13342181 0.2112941 -0.5080829 -0.063265786 -0.029831883 -0.17189981 -0.24755818 0.007512125 0.14734511 0.05987239 0.2783139 -0.16984679 -0.53832585 0.46796805 -0.6908568 0.61782986 -0.41567743 0.4474095 0.19096711 -0.09157933 0.29518712 0.26694962 0.07493671 0.11743168 0.15652645 0.8000355 -0.08175429 0.18652709 -0.36564758 -0.22062688 0.02426361 -0.4833435 -0.64151573 -0.12637465 -0.23014939 0.38885733 -0.3787324 0.055952758 0.13176188 0.41211152 0.6923334 0.030458646 0.1184356 -0.10071557 0.53563976 0.93531024 0.20645003 -0.17572165 0.7573272 0.18313159 -0.49875486 0.27416337 0.49332923 -0.49612182 -0.07999272 -0.19913206 -0.72393346 -0.06280409 0.113764174 -1.0122654 0.4046389 0.3635775 -0.10731506 -0.45671925 0.057564802 0.071466446 -0.18904318 0.21142295 -0.23685738 -0.042768784 0.13832605 0.013674809 -0.05429587 -0.20354216 -0.049023613 0.2921246 0.4459467 -0.063451655 -0.1842966 -0.23667607 -0.045210015 -0.98178554 0.12354853 0.035569634 0.34846807 0.06150915 -0.08215762
21907 -0.21342884 0.36652815 0.20033778 -0.33870068 0.49415746 -0.31149495 -0.11443228 0.4068548 -0.018545302 0.68234795 0.6276372 0.4904692 0.52523595 -0.5258409 0.17709139 -0.036506154 0.1695551 -0.2893255 0.44618794 -0.10947661 -0.57245284 -0.27502468 -0.24801639 -0.8974178 -0.65453273 0.15458393 -0.34618175 0.017457908 -0.6558455 -0.20459186 0.11060215 -0.13935147 -0.08283784 0.67188805 0.01722738 0.26089588 0.20968461 -0.38946518 -0.27529666 -0.0362765 -0.17807302 0.10360691 0.29911363 -0.48862988 -0.12166664 -0.023047108 -0.18117337 -0.23079428 0.03073299 0.06365327 0.08755972 0.21855305 -0.16126464 -0.6388694 0.4311624 -0.63772964 0.6766196 -0.37596565 0.45223874 0.16909799 -0.07570873 0.27816683 0.20983256 0.050556358 0.13456431 0.10728004 0.82961386 -0.05749411 0.12932234 -0.35099503 -0.15038675 -0.030723635 -0.4785794 -0.6399338 -0.08513238 -0.27507144 0.37135568 -0.33570448 0.08417229 0.14718482 0.3909259 0.65578085 0.032869384 0.09331704 -0.0862748 0.5027935 0.82342917 0.17980021 -0.21171822 0.78087074 0.17217131 -0.48819256 0.26300162 0.4642602 -0.44227475 -0.05836192 -0.24663387 -0.71251 -0.11315289 0.1592454 -0.9799898 0.4192952 0.28547722 -0.12888889 -0.4181193 0.07282631 0.106152005 -0.19866723 0.1923718 -0.23085119 0.011453413 0.16911885 0.12686145 -0.118394144 -0.1926107 -0.060097583 0.22306381 0.4115498 -0.01118681 -0.22199659 -0.20028453 -0.034980886 -0.9942115 0.1933338 0.0433635 0.3694752 0.08143147 -0.048744064
7822 -0.19701312 0.30301273 0.36658326 -0.20920812 0.38286042 -0.30599758 -0.0019971384 0.33741808 0.11453569 0.61036736 0.6380612 0.3908666 0.519186 -0.60877967 0.26251587 -0.23627576 0.10029923 -0.2188944 0.31345972 -0.24566218 -0.37039244 -0.24965015 -0.13637461 -0.82289964 -0.5790703 0.21673363 -0.31107348 0.08073679 -0.6212107 -0.2311461 0.2551759 -0.18659356 -0.14352275 0.7228544 0.10752633 0.20962131 0.16883184 -0.47686622 -0.16029498 0.0461569 -0.26683193 0.15873842 0.19884185 -0.5191489 -0.11348269 -0.012118669 0.049754903 -0.13620766 0.12614058 0.0066450997 0.051941138 0.29232463 -0.119276986 -0.5349484 0.43805465 -0.46400604 0.5214437 -0.34105808 0.36076123 0.24759814 -0.04427738 0.21980006 0.2583151 0.07969998 0.22885355 -0.09501624 1.0073303 -0.09156946 0.1262512 -0.39128417 -0.18793255 -0.028659817 -0.47478467 -0.70130944 -0.037134893 -0.28045252 0.43010205 -0.45758238 0.20493625 0.25042477 0.4246654 0.6929302 0.119192004 0.21589224 0.02420308 0.48047745 0.8539481 0.22361071 -0.26182273 0.7004039 0.3006871 -0.44993636 0.3442684 0.38111582 -0.35274085 -0.10655354 -0.21104135 -0.6798264 -0.22814728 0.09403811 -1.0422401 0.33836374 0.4194339 -0.23191032 -0.55455285 0.02804761 0.005168577 -0.23527847 0.20106553 -0.18515775 0.07811795 0.22821993 0.19562913 -0.049025703 -0.41548535 -0.035621922 0.027883446 0.31531107 0.01913616 -0.20907968 -0.226458 -0.038249124 -0.9245439 0.16658719 0.0024000374 0.32751608 0.056026008 -0.12634613
1689 -0.5176523 -0.1768472 -0.0388621 0.21045965 -0.067332976 0.1680191 0.07560818 0.6721384 0.46639407 0.42167097 -0.025276663 0.02659948 0.3434716 -0.21047312 0.8721876 -0.823492 0.55015546 -0.12531179 -0.047840927 0.29578283 -0.39087832 -0.18321486 -0.15352784 -0.63486177 -0.50157493 0.4260206 -0.06119362 -0.16383652 -0.7514886 0.025398366 0.26842502 -0.24770421 0.029267844 -0.04143283 -0.054574087 -0.27511021 0.10770942 -0.16798925 -0.105129905 -0.14760391 -0.02700132 -0.44319803 -0.27073938 0.30693698 0.6814782 0.021337787 0.07887239 -0.059880584 0.21796004 0.34372532 0.13618235 -0.05018095 0.9382069 -0.16881481 0.16725785 -0.7767371 0.49169204 -0.8375913 0.41146997 0.90417653 -0.22787066 0.44417956 0.35696056 0.4750691 -0.19819419 0.35285112 0.22287251 -0.64409477 -0.7179304 -0.2058458 -0.031160638 -0.33201486 -0.15797378 -0.0831146 0.54599434 0.19543432 -0.15864375 0.012634781 0.08051576 -0.18344823 0.57162493 0.9117425 -0.47654432 0.15810148 0.2608782 0.46778506 0.8290882 1.0435827 0.40372416 0.12709339 0.43938005 0.33791432 0.50996834 0.17573455 -0.35180327 0.0037953968 -0.23255943 -0.14726755 0.012148065 -0.24954581 -0.9170846 0.59567904 0.031845577 -0.198139 -0.37211546 0.24073261 -0.24611437 0.08096034 -0.08633643 -0.24888192 0.3786882 -0.10395268 -0.32401 0.59232855 -0.16694638 0.1607225 -0.6700798 0.3704204 -0.3128383 0.27635244 0.22287372 0.25728586 -0.6619078 0.046707306 -0.07021729 -0.21905385 0.52707434 -0.5957397
18856 0.121786654 0.16488221 -0.00989433 -0.20098728 -0.22247699 0.27460283 -0.060654752 -0.054138023 -0.0030894778 0.20019981 -0.23408933 0.065160796 -0.06709334 0.077008024 0.9285117 -0.54627377 0.7789826 -0.8601485 -0.17009246 0.06390608 -0.41857296 0.04473479 -0.42334476 -0.81023186 -0.70982146 0.17570136 -0.3129183 -0.46169883 -0.9375718 -0.0321586 0.5172578 -0.104900815 -0.21783571 0.63103735 -0.6088824 -0.016260609 0.339421 0.13429256 -0.47162607 -0.005491966 0.040306866 -0.41459277 0.10860513 0.26405123 0.012111107 -0.19602305 -0.01846377 0.00250516 0.20586638 0.16722336 -0.11726083 -0.09387146 0.62010807 -0.4001053 -0.095928125 -0.4039987 0.41150773 -0.1231627 0.009277838 0.43486375 -0.07003549 0.049709346 -0.034379482 0.63506234 0.5012656 0.09378904 -0.071942315 -0.96157557 -0.5262285 -0.91837853 0.23879503 -0.24862483 0.039697718 -0.76612955 0.45492998 0.23245332 -0.32351866 0.28729516 -0.17240752 0.011532514 0.5067396 0.5540696 -0.5129038 0.044972036 -0.22379225 0.056961186 0.13555981 0.50682247 0.09315328 0.36572182 -0.3057489 -0.17342718 0.42478523 0.0075063636 -0.7150911 -0.25443226 -0.11200325 -0.20293361 -0.14989579 0.34606636 -0.44448024 0.10453812 -0.2570389 0.13477595 -0.7082433 -0.15636715 0.21806519 0.19997086 -0.10738769 -0.012048326 -0.17903033 0.18103543 0.22903669 0.100324474 -0.7555417 0.32889578 -1.2734578 0.3864355 0.40495583 -0.17425576 0.45278245 -0.16450736 -0.24833809 0.5036868 0.40765065 -0.25709447 0.20219475 -0.38496062
15976 -0.7986327 0.46800166 0.24594419 0.29261443 0.50751317 0.17940745 0.16175589 -0.19926138 0.00781336 0.17025232 -0.47339842 0.13146761 -0.21594194 -0.07272866 0.83950865 -0.78609276 0.4237584 -0.19637582 0.023268992 0.08343961 0.6121179 -0.1441255 0.11775977 -0.06210743 -1.180394 0.3417608 0.036128774 -0.21021634 -1.0266632 -0.67691064 0.37230113 -0.2684928 -0.13570519 0.41236842 -0.22588955 0.0064497194 0.07796191 -0.19638765 -0.08094952 -0.06174961 -0.6641612 -0.4911646 0.1233054 0.36933458 -0.0139555 0.09915454 0.22474441 0.21445043 0.3669362 -0.03458717 -0.26251966 0.19283462 -0.10457633 0.1698916 0.30879593 -0.35657042 0.17382333 -0.33958435 0.18191464 0.71173245 0.22394496 0.058063842 0.5685399 0.17669895 0.4517945 0.010395362 -0.09207546 -0.804158 -0.30280048 -0.13627133 0.23681834 -0.022302948 -0.27964753 -0.42337427 0.45084757 0.12080268 -0.017427238 -0.11369177 0.1367955 -0.062194042 0.56769294 0.42419732 -0.36634433 0.17038834 0.21966706 0.49500236 1.2125089 0.2935949 -0.3465055 0.27475846 0.3331841 -0.04483639 0.4721343 0.33388963 -0.25185308 -0.3587819 -0.22838116 0.057213157 -0.70805645 0.4998496 -1.0885782 -0.011368036 0.71296984 0.21018812 -0.9987538 -0.28241307 -0.14373693 0.3377913 0.35356218 -0.15981463 -0.56887347 -0.033013523 -0.09325577 0.28460655 -0.41038436 0.34105283 -0.10718041 1.0807287 0.075903445 -0.10210254 0.44989395 0.3179295 -0.14047995 -0.101918295 -0.45688108 -0.3394799 0.59283876 -0.0018435532
12496 -0.20286603 -0.00907526 0.29083335 -0.253259 -0.14453739 -0.37168738 0.13271523 0.61227095 -0.1987046 -0.20041251 -0.11909032 0.31458473 0.2632635 0.4382466 0.37628222 -0.68764716 0.54953986 -0.33375975 -0.28585654 0.030698908 0.026878042 -0.6387317 -0.23487717 -0.5474991 -0.49684292 -0.26804557 -0.13559322 0.0025413993 -0.044764742 -0.15297791 0.23066393 0.53392524 -0.012684694 0.035995986 0.39533094 0.22621788 -0.014695697 0.11195699 -0.4971752 0.20086823 0.2959403 -0.16218008 0.23198606 0.06713382 0.37166238 0.11694752 -0.1117342 0.21070597 0.47018418 0.55578524 0.104130015 0.019317536 -0.5198528 -0.12834366 0.14219037 -0.884938 0.3631135 0.0042469073 0.35199028 0.6428106 -0.5279387 0.16395067 -0.16248748 -0.096106604 -0.08750289 0.4985572 0.60269874 -0.1581142 -0.28780898 0.098122165 0.52423906 -0.27424365 -0.31472474 -1.1277206 0.63325614 0.21193789 -0.06386673 -0.17290094 -0.43868682 -0.35426006 0.028767973 0.39959693 0.020320699 0.056728464 0.7886302 0.113006406 0.35963228 0.3881772 -0.8006393 0.26100835 0.098720826 -0.44261065 0.53221685 0.90112907 -0.42507198 -0.3070573 0.060914833 0.07348594 -0.84512 -0.011062531 -0.7640323 0.2005035 0.23087846 -0.15698913 -0.4105861 -0.554943 0.25990662 0.16420238 0.1472715 -0.1149308 -0.40711242 0.3840457 0.23841874 0.30652308 0.1508169 0.35877615 0.13411228 0.80195194 -0.14196295 0.3706371 0.3699389 0.25019875 -0.50337636 -0.6005849 0.26646248 0.4648681 0.44323546 -0.30459467
12783 -0.22372526 0.29546693 0.25321287 -0.31870368 0.4596682 -0.24552599 -0.14567898 0.43581557 0.030232819 0.6608592 0.64721364 0.44785208 0.48659143 -0.6442191 0.19558634 -0.13124207 0.1638292 -0.23591033 0.40043527 -0.13536303 -0.57365495 -0.19346781 -0.18586317 -0.79159987 -0.6567743 0.14665195 -0.32100216 -0.051547095 -0.58855045 -0.17664078 0.21636268 -0.14841564 -0.17306787 0.6370082 -0.0039772494 0.29404852 0.19215427 -0.39067107 -0.21134713 -0.05611202 -0.23085997 0.08394657 0.24438734 -0.4772458 -0.1448947 -0.08233075 -0.07186315 -0.16827786 -0.03429917 0.01329993 0.037820823 0.30380985 -0.20095295 -0.5313482 0.4343122 -0.5626769 0.59020513 -0.33778545 0.46951744 0.26927835 -0.110548705 0.23483427 0.23447616 0.054413985 0.09791792 0.102899894 0.90914845 -0.14964448 0.16314879 -0.41911373 -0.24493769 -0.073309526 -0.47396478 -0.6404116 -0.099097885 -0.26471278 0.38388503 -0.39068934 0.17176329 0.14088401 0.43527016 0.6498302 0.13196841 0.08961986 -0.12040738 0.46439594 0.8685018 0.18611358 -0.16568507 0.7958953 0.23253945 -0.40394694 0.22156177 0.45197368 -0.47166976 -0.12576598 -0.24646665 -0.6850253 -0.09900055 0.11066891 -1.0427743 0.42833167 0.25813922 -0.10119674 -0.37906483 0.09596175 0.12337616 -0.2159613 0.13626559 -0.19420882 0.042295657 0.11397454 0.09265544 -0.068920426 -0.23085675 -0.06551301 0.14555404 0.31059197 -0.029075695 -0.20290434 -0.20552109 0.01315358 -0.92173475 0.16923726 0.027721316 0.42897713 0.025647804 -0.06823585
19753 -0.2849014 0.53151214 0.21401018 -0.37844187 0.3132497 -0.066521 0.09918145 0.2564698 -0.056866936 0.6105815 0.16842934 0.33175758 0.41940296 -0.09459545 0.6424951 -0.55585074 0.7399551 -0.6441548 0.18636054 -0.16439858 -0.6402189 -0.5587206 -0.3218525 -1.118962 -0.96801096 0.112957574 -0.14183597 -0.27975747 -0.8520298 -0.06387466 0.49853814 0.024052452 0.18868937 0.6579093 -0.15875848 0.25251392 0.06601132 -0.05252596 -0.7203795 -0.12091032 -0.45811307 -0.27331793 0.16873726 -0.14263767 0.20881832 -0.3275906 -0.052370656 -0.14049329 0.15753143 0.54474944 0.38067764 -0.149559 0.31237313 -0.88994944 0.3091276 -0.99851596 0.82962143 -0.40436533 0.28269815 0.58544624 -0.6450139 0.79245734 0.23279019 -0.2784202 0.040215936 0.2486881 0.49540892 -0.8075621 -0.514192 0.10293457 0.5269397 0.08335441 -0.3990313 -0.57672054 0.4299545 0.49988836 0.114623815 -0.01917739 -0.40671664 -0.22238739 0.703511 1.0570542 -0.42497423 -0.13595921 0.23377645 0.3999603 0.6895726 0.56493074 -0.65833116 0.83142334 0.1805686 -0.30143476 0.8812077 0.6633384 -0.38135225 -0.43270975 -0.086590596 -0.36592767 -0.7023361 -0.32768372 -1.0089345 0.19707023 0.052392244 -0.20677586 -1.006033 -0.3771522 0.22735319 0.55250245 -0.19118315 -0.04396781 0.07290774 0.05124903 0.060707953 0.33712468 -0.34149668 0.02434901 -0.5278577 0.91860735 -0.27104473 0.19415297 0.32802024 0.12785801 -1.1897787 -0.041304518 0.4669239 0.26723328 0.47195944 -0.33740443
6653 -0.14705569 0.3899003 0.15220918 -0.4819623 -0.29955977 0.17036949 0.56997365 0.38751727 -0.092921145 0.47975832 0.14026543 -0.02549459 0.1061803 -0.4561007 0.49103743 -0.6960961 0.39018714 -0.6149231 0.14465521 -0.24948524 -0.49597615 -0.37869045 -0.2528551 -0.3452151 -0.60198903 0.44258517 0.122180246 -0.5901375 -0.71159935 0.20507461 0.2873177 -0.24781737 0.025845796 0.48448864 -0.353349 0.039285228 -0.30811998 0.23224549 -0.38323274 -0.28638083 -0.81960577 0.026987446 -0.34454852 0.098570496 0.13474981 -0.19194649 0.019449772 -0.42941752 0.22079341 0.6895085 -0.09255306 0.07965223 0.5591553 -0.14526676 0.01503084 -0.10868684 0.06427249 -0.29005405 -0.24441783 0.60028607 -0.927229 0.73200744 0.15785073 0.36562762 -0.04775276 0.10519519 -0.3645631 -0.8691507 -0.40570995 0.50325674 0.12011515 0.15133773 0.27434072 0.4656905 0.018228719 0.83971417 0.33655086 -0.13086273 -0.37544045 -0.12462651 0.9177675 0.6105112 -0.13861273 -0.2655406 -0.40456745 0.41295892 0.21199495 -0.00625642 -0.45532495 0.07801581 0.26503128 -0.04256503 0.9151746 0.52433556 -0.80487555 0.13595766 -0.035826355 0.025096709 -0.19957073 -0.66740894 -0.7997406 -0.29603332 0.8056949 0.17562999 -0.56817394 -0.5508124 -0.042027965 0.8047296 -0.39495894 -0.2036919 0.49412882 -0.32250702 0.30555555 0.4090922 0.116117395 -0.2306938 -0.37860096 -0.11642563 -0.47707483 0.33530357 0.5427608 -0.17549331 -0.2955854 -0.023519842 0.3712661 0.113227636 0.74189925 -0.15749913
16368 -0.06619435 0.38619637 0.24823378 -0.24179295 0.15181446 -0.030366598 0.17045629 0.21635656 -0.01928201 0.49079618 0.17052507 0.16184275 0.39156356 -0.1254239 0.55411285 -0.636279 0.44132024 -0.47877693 0.031601172 -0.16353408 -0.38527223 -0.3592428 -0.15059891 -0.84755105 -0.68324625 0.09377458 -0.14303957 -0.31303057 -0.6224823 -0.05641321 0.386696 0.00065340725 0.13623925 0.48725465 -0.17361067 0.094932124 -0.011669402 -0.009627099 -0.4737683 -0.024886308 -0.40477717 -0.2119922 -0.08113476 -0.16914098 0.17620246 -0.23574407 -0.020683026 -0.14049776 0.20263758 0.5273146 0.19277155 0.06642369 0.289642 -0.5400707 0.24296212 -0.60815436 0.39220735 -0.32008967 0.11327468 0.48313993 -0.4058514 0.55607367 0.18172796 -0.06981295 0.09197736 0.108768016 0.33142918 -0.62327933 -0.2717069 -0.002641214 0.29878628 0.1531864 -0.1987446 -0.43550298 0.3634174 0.35889873 0.09940473 -0.0721429 -0.23923106 -0.084118 0.6492904 0.7678474 -0.36461338 0.021783493 0.25382575 0.27009326 0.4873751 0.37709463 -0.35576966 0.4204781 0.16259944 -0.13544656 0.676789 0.41359547 -0.37920558 -0.25427198 -0.078856684 -0.32497698 -0.43407345 -0.2711691 -0.82094604 0.1795279 0.1722883 -0.16661656 -0.8273235 -0.30696028 0.04009318 0.39278135 -0.11564606 -0.063815035 0.11731383 0.034095064 0.016654214 0.31003314 -0.40249273 0.030059727 -0.41387326 0.55922896 -0.20592625 0.15634638 0.19301152 0.029596556 -0.81057245 -0.14329922 0.39681765 0.1494401 0.34201598 -0.30076596
7645 0.06158304 0.11038723 0.42097655 -0.0799293 0.8131339 0.28130054 -0.24605423 -0.10733422 0.17391656 0.44401658 -0.42519063 0.2949567 -0.14335066 0.018261692 0.11864386 -0.5348856 0.31590745 -0.17233731 0.36753142 -0.25729737 -0.072036184 -0.73107135 0.4436766 -0.23652522 -0.9131101 0.18057553 0.20183513 -0.3479612 -0.8105343 -0.3740229 0.59700745 0.13155365 0.5231637 0.08590799 -0.63268626 0.17341517 0.06741166 -0.11988258 -0.03683282 -0.111151 -0.7383403 -0.28077316 0.067428246 -0.41097662 0.026527055 0.114432916 0.07891446 -0.32312086 0.33341715 0.44594252 0.103196144 -0.4222368 0.6134817 -0.17396848 -0.0292413 0.05697676 0.002105189 -0.15830936 -0.17040499 0.42652577 -0.18856859 0.6550627 0.11785608 0.07493373 0.04955857 -0.014949378 -0.066857874 -0.62258184 -0.34763503 0.32289615 0.850085 0.041783098 -0.16876248 -0.078238524 -0.13016984 0.5757831 -0.27956903 0.29745853 -0.75617844 0.04530471 0.8271457 0.42499045 -0.237037 -0.121792845 0.25907382 0.2238428 0.018587098 -0.16653398 -0.46688673 0.64588463 0.16322519 -0.042552613 0.22814806 0.235382 -0.052500024 -0.30513385 -0.012076247 -0.27841038 -0.24564478 -0.18659113 -0.7686981 0.23839203 0.17864321 -0.09493919 -0.7350719 -0.790603 -0.014962985 0.77210045 -0.27696648 0.13519557 -0.093029924 -0.11023147 0.45869148 0.1448897 -0.08347903 -0.17529638 -0.68280077 0.91393787 0.018004604 0.22449489 -0.057058744 -0.1866459 -0.3585043 -0.5909239 0.15134199 0.14090341 0.30113667 -0.081156254
685 -0.2763661 0.56931686 0.07952707 -0.18136948 0.36544988 -0.0024875286 0.19006342 0.1447885 0.043773875 0.5665742 0.04596101 0.25635365 0.49815944 -0.39734286 0.7242042 -0.5458438 0.32842928 -0.5565719 0.10858236 -0.17956416 -0.24829943 -0.1694071 0.06219567 -0.9092542 -1.0103498 0.13321164 0.0137756 -0.33178425 -0.9715578 -0.23138626 0.42547476 -0.24410969 0.04191238 0.5075171 -0.362677 0.079077855 0.045138847 -0.003070615 -0.39842853 -0.18295532 -0.59309685 -0.15802449 -0.12064823 -0.121931024 0.203113 -0.027272234 0.071794 -0.2330234 0.35375062 0.48508093 0.03832452 0.19873041 0.40888926 -0.36436817 0.3688588 -0.5558006 0.29922995 -0.45605707 0.0598367 0.6022724 -0.1565363 0.59908897 0.44537213 0.03722426 0.1734538 0.056149904 0.39581016 -0.8038697 -0.22217348 -0.15932293 0.3087174 0.2686988 -0.192718 -0.32651016 0.14912938 0.20571457 0.005329911 -0.22461036 -0.087896384 0.08791026 0.9907055 0.8313571 -0.5650992 0.2056259 0.18456426 0.48957244 0.777367 0.4306847 -0.17867748 0.27417955 0.17689666 -0.15611532 0.80629486 0.18079396 -0.4896335 -0.25744566 -0.21096176 -0.33071017 -0.24064645 -0.3324687 -0.8928118 0.16195329 0.49571726 0.050481778 -0.98605573 -0.28965938 -0.065547355 0.38078046 -0.051228162 -0.06834358 0.052681677 -0.077072635 -0.09158556 0.26366985 -0.5832771 0.060780894 -0.47687024 0.672213 -0.20541161 0.11726638 0.10140052 0.12007177 -0.7025601 -0.19124395 0.26835275 -0.10976527 0.49285558 -0.31597766
1668 0.03520775 0.14035659 0.40898734 -0.0669938 0.76348424 0.26892987 -0.22565813 -0.09775174 0.15876383 0.42488796 -0.38727713 0.28967002 -0.1393184 -0.0010598005 0.15111107 -0.5268605 0.3156433 -0.2011161 0.35160998 -0.26404458 -0.08780237 -0.7027212 0.42418325 -0.24834391 -0.8693204 0.18518375 0.22869709 -0.32544917 -0.81461215 -0.35150793 0.61180013 0.10741412 0.49291855 0.11171054 -0.6416056 0.19593355 0.101737104 -0.119832925 -0.06049168 -0.12827908 -0.6924907 -0.29820314 0.09971287 -0.36422572 0.014730503 0.088403285 0.07771928 -0.30849743 0.30769092 0.4242591 0.11801327 -0.4079255 0.5604811 -0.22000822 -0.00964787 0.022372134 0.043693963 -0.1571591 -0.16544999 0.4042443 -0.2064301 0.6230219 0.1211672 0.057426605 0.030999472 1.1529788e-05 -0.058530994 -0.63287127 -0.3396318 0.29719254 0.83481956 0.043329164 -0.17178163 -0.08813364 -0.09587295 0.5596322 -0.24200612 0.30476105 -0.68169224 0.024267107 0.81693846 0.4340412 -0.22548248 -0.13376941 0.2562046 0.22623625 0.018556338 -0.16842972 -0.4689804 0.6422109 0.145046 -0.029801026 0.2624233 0.21798623 -0.04180843 -0.30022708 -0.03189701 -0.2653192 -0.2629543 -0.18915793 -0.77599466 0.23526864 0.17261478 -0.07209147 -0.7181858 -0.78561133 -0.014905197 0.7794908 -0.27306417 0.14708579 -0.09122983 -0.09853572 0.4276828 0.15479437 -0.06968625 -0.15513203 -0.6609726 0.90207684 0.016323283 0.1709841 -0.017444724 -0.16033946 -0.37769997 -0.5566471 0.14810108 0.13589832 0.290239 -0.077986464
3252 -0.2646569 0.35358512 -0.3757811 -0.39764765 0.056876462 -0.7253537 -0.10352315 -0.017404066 -0.045937132 0.37790868 0.15424074 0.41453755 0.71651727 -0.06180235 0.3741592 -0.13013631 0.13885188 -0.5134387 0.098817274 0.004250615 0.213561 0.23216797 0.12765221 -0.21815722 -0.6430825 -0.025726985 -0.039656434 -0.40560108 -1.1305587 0.20080714 0.20352668 0.066393875 0.3565343 -0.17767562 -0.0856185 0.2012867 -0.0377336 0.04275424 -0.054141447 -0.42479333 -0.45105994 -0.19972163 -0.5877418 -0.20574234 0.4563064 0.3867707 0.21823888 -0.46876535 0.4535791 0.68796027 -0.05889963 0.40179315 -0.21023652 -0.36351153 0.27090368 -1.0025277 0.7403463 -0.3005379 -0.0061170845 0.60737634 0.33877397 0.25911605 0.3661531 -0.6162617 -0.32440734 0.06250236 0.27158037 -0.63793665 0.121904 -0.06352081 0.6640457 0.10756692 -0.24067485 -0.05498431 -0.28873694 0.0039903903 -0.0074983514 -0.24324353 -0.31949708 -0.18912067 1.0338488 0.45457393 -0.25758773 -0.06375309 0.14735028 0.63266724 0.4584799 0.14665823 -0.1559634 0.255924 -0.08324262 -0.19931185 0.8612672 0.35897803 -0.4216009 -0.6843312 -0.4929005 0.17502722 0.012069585 0.042052142 -0.19168814 0.22318657 0.017191969 0.78549033 -0.6853756 -0.103266135 -0.103308715 0.42469326 -0.23284201 -0.061251048 -0.11678323 -0.06290021 -0.39391366 0.210995 -0.6014489 0.2331254 -0.7125488 1.0590649 -0.1757924 0.547719 0.30099127 0.4364579 -0.6929356 -0.12904425 0.46243268 -0.14209221 0.22140293 -0.37944502
18573 0.10108613 0.04681439 0.42241636 -0.19122493 0.17483796 0.18163456 0.26682052 0.3207282 0.16384138 0.31968084 0.067910165 0.028745627 0.21431963 -0.061701663 0.8022495 -0.93212676 0.14691453 -0.2275509 -0.08400102 -0.43509772 0.020588871 -0.06594993 0.12024318 -0.42467517 -0.37868342 0.04398945 0.14584069 0.5039382 -0.4808434 -0.26635402 0.8880117 0.050017484 -0.38454756 0.48810163 -0.43004984 -0.17635815 -0.023373092 -0.020605214 -0.15996486 -0.3261113 -0.34552684 -0.148603 -0.47057393 -0.05874585 0.18909961 -0.0762277 0.4187175 0.061968837 0.50656086 0.49802074 -0.48364428 0.6541471 0.6599394 0.07349913 0.23380569 -0.1645847 -0.45299897 0.17549866 0.07317285 0.78200024 -0.48079932 0.21195093 0.055502407 0.48709875 0.4608085 0.19840592 0.48426858 -0.56011266 0.15836893 -0.5749986 0.23555854 0.21295887 0.108826 -0.71458334 0.4151035 0.0067703817 0.47107738 -0.2632911 0.07467722 0.22509885 0.88370615 0.60122895 -0.75531185 0.40872443 0.7424716 0.122863255 0.45411602 0.16416724 -0.24120627 -0.09107245 0.29553312 0.09457576 0.6943804 -0.14479561 -0.30657923 -0.011800466 -0.15102285 -0.60022026 -0.2887363 -0.07301919 -1.1305561 0.060110178 0.6123772 -0.052155443 -0.70080525 -0.8509305 -0.43029633 0.28429604 0.37294176 0.05283066 -0.45351136 0.10582721 0.35623822 0.5513881 -0.5654969 0.6948476 -0.5734835 0.44797996 0.0102656875 0.08764779 0.1478788 0.021518232 -0.48929077 -0.4716779 0.11292379 -0.28383943 0.38625002 -0.38625038
407 -0.17021053 0.35618395 -0.1876142 0.008537405 -0.2997705 0.17677155 -0.024687165 -0.078979984 -0.13160436 0.37806794 -0.039517045 0.254857 0.087509505 0.007784406 0.926884 -0.39483467 0.5826456 -0.73398674 -0.056527697 0.10055204 -0.46975657 0.22221039 -0.2906026 -0.8130165 -0.60367614 0.033087242 -0.1181395 -0.20560476 -0.78119165 -0.07090664 0.634386 -0.29584238 -0.24844055 0.6738008 -0.71253675 0.074916065 0.52374524 0.102170035 -0.35624984 0.048116826 -0.10371778 -0.39884377 0.3738771 0.23214191 -0.039000962 -0.10928094 -0.22175467 0.053983822 0.29231063 0.070246585 -0.08050864 -0.08937634 0.37965086 -0.45332778 -0.021380346 -0.29651582 0.30516672 -0.20439053 0.09584479 0.41633424 -0.12722868 0.2225674 -0.2272042 0.49056134 0.32616383 0.15217447 -0.05878222 -1.0036554 -0.30764455 -0.8161138 0.29166448 -0.14532262 -0.029331917 -0.64607567 0.61609024 -0.10196513 -0.23557062 0.3207243 0.17607221 0.33772174 0.51848155 0.41894934 -0.5283234 -0.057011653 -0.004441024 0.027304474 0.29027468 0.61198384 0.16298537 0.49047056 -0.29963708 -0.07566056 0.31954294 -0.0056293393 -0.5868447 -0.4276936 -0.07790598 -0.2889762 -0.020358779 0.30875197 -0.5396738 0.20438685 -0.36059758 0.2316774 -0.811415 -0.02263653 0.35182098 0.06219797 -0.26761922 0.023902016 0.077503696 -0.08164658 0.3082274 0.09696611 -0.6295637 0.13196744 -0.96963716 0.30120224 0.36665863 -0.48984733 0.45642623 0.021828823 -0.35096458 0.4012377 0.32572624 -0.31428018 0.29888603 -0.36128977
12288 0.13328543 0.14724766 0.5121199 -0.21068797 0.21921171 0.2375622 0.29664612 0.2632534 0.15058516 0.4643958 0.10757424 0.049559142 0.25338334 -0.22871245 0.95094275 -1.0325458 0.02358325 -0.33695555 -0.08877731 -0.4397993 0.031249674 0.011001003 0.22790775 -0.50163996 -0.5571142 0.08437005 0.08830608 0.24668925 -0.7327016 -0.3245732 0.8801303 -0.10834754 -0.31327197 0.51635724 -0.63609356 -0.29238695 0.08767351 -0.080688216 -0.12307724 -0.2593 -0.49972084 -0.13773957 -0.5973299 -0.17382136 0.11561025 -0.019414231 0.4237418 0.0065789777 0.60685235 0.6469297 -0.5447871 0.6640062 0.71045 0.12616725 0.3212272 -0.010631597 -0.5029505 0.090461485 -0.007330749 0.8821859 -0.3596175 0.20048963 0.19928993 0.58659536 0.5118944 0.16594207 0.48818088 -0.5982187 0.1374695 -0.6353396 0.14669609 0.24850044 0.154012 -0.670706 0.32596534 0.018042898 0.31741884 -0.35364607 0.120881334 0.4084211 1.0038015 0.6332493 -0.81728256 0.5532232 0.56232744 0.16020097 0.54573965 0.15946798 -0.12517458 -0.2532539 0.33148575 0.017445423 0.81938446 -0.15444463 -0.33438522 0.03666857 -0.18811494 -0.5532758 -0.21134426 -0.06708915 -1.2795607 0.090806946 0.758693 -0.0019709882 -0.8252289 -0.8473947 -0.4712691 0.3563804 0.33861196 -0.019374238 -0.32669514 0.031757154 0.2192854 0.5612283 -0.6679181 0.5736371 -0.6097955 0.44399112 0.051033646 0.088575915 0.036379546 -0.08996793 -0.45191127 -0.50154644 0.10706907 -0.3649545 0.4314448 -0.4248214
6279 -0.3465295 0.26143923 0.46596524 -0.037384354 0.0691948 -0.22661641 0.038344577 0.27646786 0.021882817 -0.042810217 0.05447604 0.19465318 0.1203827 0.020148529 0.6012691 -0.3983053 0.7141003 -0.36157316 0.1965664 0.25507948 -0.546819 -0.05481317 0.21697032 -0.23692341 -0.2684091 0.43808994 0.033433802 0.07181545 -0.5318505 -0.113273904 0.2349221 0.014625352 0.06265493 0.20825711 -0.50564367 -0.1878037 -0.28203177 0.41596326 -0.35149038 -0.13319021 0.24726328 -0.20557567 0.49043524 -0.17656966 0.28486416 -0.14903758 -0.28238505 0.24941713 0.26516962 0.6843921 0.023842959 -0.08605152 0.46134964 -0.19658576 0.09919448 -0.40369722 0.40164313 0.006640001 0.0676959 0.22855142 -0.50888896 0.7364493 -0.063181534 -0.23853809 0.030558668 0.06186342 0.3840628 -0.44542897 -0.063925795 0.51804054 0.070412494 0.045684777 -0.15494962 -0.58613116 0.07163794 0.549424 0.39056826 0.2777046 -0.2791439 0.113105536 0.28210378 0.55096424 -0.43217397 0.2329575 0.041437067 0.6012158 0.6158778 -0.09235541 -0.43472397 0.36226612 0.018661812 -0.39127317 0.44611087 0.039764546 -0.5758544 -0.52692354 0.25332668 -0.50548625 -0.48785552 -0.2446812 -0.71532387 -0.18347728 0.44399366 -0.19757931 -0.5865918 -0.22825654 -0.15702374 0.07385969 -0.11661905 -0.49213806 -0.020238841 -0.062602796 -0.20808282 -0.18096648 -0.61724144 -0.39275816 -0.26121345 0.105085306 0.12267029 -0.09159606 0.111809574 -0.0110379085 -0.46200562 -0.22734958 0.18485671 0.17139016 -0.16008234 0.0014904491
1182 -0.16242696 0.42287707 0.33662337 -0.25390917 0.38326946 0.013184751 0.1899444 0.20626988 0.031641383 0.50307024 0.079798214 0.17167202 0.2813566 -0.19525646 0.68582577 -0.6818659 0.38776895 -0.4345787 0.14812264 -0.26247138 -0.29661673 -0.37116638 -0.075298496 -0.78801167 -0.8651492 0.13996753 -0.025971599 -0.15449047 -0.79447377 -0.18573822 0.44980383 -0.057498593 0.12072386 0.45636252 -0.26684603 0.066930935 -0.046139784 -0.039960016 -0.47024947 -0.14559619 -0.59360045 -0.16734646 -0.17069718 -0.13993107 0.20031807 -0.15329322 0.169879 -0.11422125 0.20912811 0.61193186 0.05208287 0.13778155 0.4740611 -0.4904441 0.32261214 -0.56565666 0.4072984 -0.32418168 0.12788264 0.5844213 -0.36548862 0.6275303 0.3832829 -0.12145306 0.1376029 0.117700905 0.41853106 -0.6164768 -0.2989235 0.072718464 0.32405263 0.20313907 -0.22003734 -0.38052282 0.23363902 0.4337045 0.09461846 -0.16515733 -0.27152875 -0.07020899 0.7506695 0.82762593 -0.4616259 0.14160417 0.18600364 0.34215218 0.69769806 0.32830092 -0.43421346 0.32149115 0.27511403 -0.21319441 0.78994256 0.43286335 -0.3165244 -0.20169659 -0.17181545 -0.38333008 -0.5163499 -0.33091512 -0.9852915 0.1064333 0.40025786 -0.11304026 -0.9252577 -0.44796726 -0.011334815 0.5021561 -0.031252522 -0.0714693 -0.018716305 -0.07340346 -0.059421275 0.34569615 -0.39487526 0.06960354 -0.3868849 0.7315977 -0.22767738 0.25782225 0.13427342 0.032919213 -0.85968965 -0.18371847 0.25110626 0.037095584 0.43751886 -0.2764035
2414 0.092853814 0.825008 0.40043247 -0.42602572 0.34410954 -0.14274001 0.25446934 -0.6429382 -0.22419548 0.4462664 0.091759704 0.12851903 0.18189307 -0.19744588 0.56188124 -0.36153492 0.31173268 -0.60010827 0.2791771 -0.5198662 0.10518823 -0.03178435 0.3681866 -0.8058844 -0.8291957 -0.065053366 -0.1319749 -0.5184548 -0.63871866 -0.4401906 0.22068775 -0.010236716 0.22101204 0.90520066 -0.4665959 -0.044952333 -0.05209542 0.28360137 -0.56258816 -0.1668123 -0.6991788 0.08349082 -0.18713962 -0.23867473 -0.14046173 -0.51465696 -0.14188482 -0.14176117 0.08680348 0.821303 0.22274064 -0.008674708 0.3175365 -0.42437312 -0.034796752 -0.011827467 -0.048395514 -0.032824334 -0.46759838 0.12941419 -0.15180232 0.82769233 0.19809735 -0.49043146 0.3281837 -0.339323 0.23144174 -0.6078432 0.22690202 0.2576565 0.4669168 0.78173673 0.10105406 -0.5034796 -0.21213697 0.55336004 0.0857877 -0.09117163 -0.2413365 0.36084118 0.64030516 0.50934 -0.4996595 0.3099051 -0.019918254 -0.14697608 0.26775116 -0.22634889 -0.5720363 -0.18720575 -0.26230052 -0.53439605 0.63525033 0.11794273 -0.13645333 -0.3154596 0.083372876 -0.26391727 -0.5190179 -0.49313065 -0.07827339 -0.4513562 0.6188202 0.15639238 -1.2820404 -0.43937933 0.20895292 0.66419435 -0.1752441 0.12322011 -0.18052663 0.028899305 -0.27509004 -0.18674417 -1.0124317 -0.38677898 -0.3634745 0.7746429 0.14722441 0.28359962 -0.3354215 -0.3703967 -0.4766099 -0.3133498 0.6595967 0.012515199 0.04481307 0.17826143
1078 0.3676263 0.20887749 -0.046768073 -0.2633876 -0.10449505 0.2657979 -0.061755404 -0.010762235 -0.010572937 0.1705537 -0.103956126 0.13715945 0.10683958 0.1305536 0.8268809 -0.49590832 0.84788144 -0.79823655 -0.08929171 -0.0018053389 -0.40038675 -0.09164778 -0.44385546 -0.83539575 -0.75716066 0.46064317 -0.4621416 -0.66151947 -0.8868594 0.04379308 0.53213096 -0.005361819 -0.04900531 0.70374787 -0.5836876 0.021357514 0.29968086 0.08607118 -0.46949986 0.07907017 -0.04412414 -0.36489943 0.087156005 0.2498647 0.1624908 -0.39529476 0.063485414 0.07124404 0.14197548 0.08018858 -0.0063367756 -0.07873789 0.69160503 -0.43507662 0.063572526 -0.59156287 0.49191943 -0.17690472 0.04835173 0.28859782 -0.055717576 0.081228785 0.0043993955 0.7042428 0.600292 -0.1233363 -0.04382093 -0.80321026 -0.6877031 -0.9104026 0.22823334 -0.14911582 -0.17388691 -0.64230055 0.19208716 0.3186083 -0.26081985 0.10884782 -0.16481866 -0.2039998 0.5162008 0.42210746 -0.40604138 0.1881364 -0.44302 -0.018145455 0.23752718 0.49951118 0.21513757 0.5550765 -0.33727694 -0.16598544 0.28470764 0.14278089 -0.7808849 -0.14591184 -0.22350919 -0.18081695 -0.12884599 0.30260625 -0.35851586 0.082576826 -0.21380027 0.111357875 -0.7493833 -0.17270513 0.16196048 0.27330974 0.11012346 0.08044382 -0.124140635 0.30352432 0.13358694 0.17667483 -0.687161 0.37901214 -1.2114458 0.47643763 0.47213706 -0.1204344 0.300316 -0.34554094 -0.4044257 0.55631965 0.286122 -0.30869025 0.33318356 -0.43260694
16001 -0.06333363 0.40193075 0.09473742 -0.3294642 0.30349803 -0.35401136 0.032911018 0.3481662 -0.179262 0.65910876 0.68011105 0.37041283 0.79900473 -0.41455805 0.119858 0.014936064 0.073877625 -0.39212444 0.4012431 -0.08859946 -0.5538645 -0.2858548 -0.19919686 -1.0052003 -0.62405527 0.09895075 -0.3992431 0.035225056 -0.7327164 -0.18654823 -0.055016734 -0.10599059 -0.010277692 0.68334466 0.13014306 0.13011271 0.16894573 -0.3775676 -0.25505367 -0.043200616 -0.1085738 0.2626573 0.22613987 -0.5583964 -0.049124036 -0.04971965 -0.29945573 -0.17867753 0.19724993 0.3458128 0.1252102 0.16908678 -0.095075145 -0.6178771 0.37320647 -0.67251813 0.52682215 -0.47874463 0.23832825 0.12563209 -0.119142786 0.29823753 0.15901716 0.10832898 0.1109406 0.18996237 0.6093846 -0.06384064 0.148401 -0.2836681 -0.1255343 0.1026717 -0.33395848 -0.7084922 -0.03175415 -0.18059638 0.50708115 -0.3096408 0.017999254 0.23969436 0.3364998 0.64318395 -0.011923184 0.09369719 -0.10996374 0.4107838 0.7962482 0.2880331 -0.15418722 0.5139528 0.09405891 -0.44924515 0.35296163 0.35410234 -0.50247353 0.098010026 -0.1420347 -0.73279387 0.016684959 0.030132968 -0.914023 0.34792942 0.27348578 -0.12751359 -0.57524526 0.10930004 -0.050770454 -0.17727534 0.31815794 -0.28226817 0.07519054 0.29285634 0.06478585 -0.03439044 -0.30091578 -0.1549173 0.42761803 0.22932072 -0.021861894 -0.22174767 -0.28045136 -0.20378153 -0.89116573 0.15665084 0.15186487 0.3585919 0.13751312 -0.12708272
7833 0.29981133 0.14154279 0.5022963 -0.2144409 0.11376034 0.2518483 0.22000387 0.28849116 0.18709771 0.46547064 0.20156273 0.08960645 0.19288152 -0.27300912 0.98496693 -0.9301019 -0.052769035 -0.43927094 -0.03275523 -0.49338046 -0.050601956 0.012547536 0.24790142 -0.4786641 -0.53591144 0.16903533 0.10145917 0.044839118 -0.7746176 -0.21564269 0.8884401 -0.23630257 -0.21472602 0.41754574 -0.707361 -0.4833195 0.12287174 -0.1423411 -0.03955382 -0.20202576 -0.4049886 -0.07863771 -0.5667033 -0.23787239 0.06970095 -0.011610487 0.3407199 -0.045067586 0.62095755 0.73787415 -0.500846 0.57170516 0.65182745 0.11851548 0.3280003 0.046872552 -0.54999286 0.1077862 0.027162312 0.9945471 -0.3828605 0.17891717 0.14980432 0.59308696 0.42018092 0.11774484 0.56252205 -0.44610003 0.15265962 -0.5853987 0.13637838 0.272374 0.16044371 -0.56049156 0.24074079 -0.15138018 0.19361717 -0.40732965 0.088503845 0.5230887 0.9566508 0.7041096 -0.7820686 0.5558341 0.33332333 0.09145721 0.5859384 0.21150507 -0.027110895 -0.21726468 0.3765888 -0.11576191 0.9276493 -0.25852987 -0.222746 -0.028191183 -0.12776856 -0.52339995 -0.32500154 -0.076800056 -1.1955895 0.04259665 0.7520015 -0.023054542 -0.7355549 -0.9555665 -0.5107367 0.3588208 0.2950149 -0.08754883 -0.15770152 0.00829587 0.15765649 0.5731803 -0.68657345 0.49106884 -0.5438567 0.42513958 0.13813177 0.15798347 0.039699115 -0.13558698 -0.45691034 -0.56550324 0.1439508 -0.43050677 0.4570708 -0.53788394
7919 -0.10026237 -0.03158335 -0.019402534 -0.5250231 0.38695878 -0.09268181 -0.45859694 0.13484007 0.652667 0.09591466 0.23266946 0.36043873 0.3566913 -0.33750498 0.7185678 0.33351564 0.09885798 -0.8938672 0.8826136 -0.29333743 -0.81201875 -0.028722024 -0.0044921404 -0.86531645 -0.87723815 0.045464095 0.2104296 0.08190628 -0.5872251 0.027298527 0.67744744 -0.5040396 0.24154666 0.4044008 -0.4818962 0.17085055 -0.15079866 0.009937903 -0.8042237 -0.5352858 -0.47522584 0.41201556 -0.28557822 -0.42020524 0.41692388 -0.021349415 0.32478157 -0.51169455 0.31490952 0.6264375 -0.24013995 -0.0673297 1.0129097 -0.5411076 0.15795016 -0.5056705 0.7262299 -0.21836206 -0.22021095 0.40060067 -0.5687045 0.8179603 0.21280545 -0.32361555 0.014848847 0.5447735 0.5249487 -0.53033483 -0.37112564 -0.06127758 0.42699185 0.08049679 -0.11742701 -0.0073165637 -0.57673025 0.1493689 0.058774553 -0.072524235 -0.4527485 0.31715354 0.63194144 0.94089943 -0.5215033 0.50208145 -0.37533197 0.23290764 0.33611956 0.4389518 -0.43213016 0.20726569 0.014777675 -0.62846637 0.99032015 0.14756736 0.30205137 0.3033292 -0.34844553 -0.37995934 0.3269579 -0.7596283 -0.32393035 0.028627437 -0.22336902 0.06335497 -0.68643045 -0.16709013 -0.012648238 0.48075107 -0.40716448 -0.10968681 0.01185684 -0.21150759 -0.22656101 0.44384503 -0.5273228 -0.22166096 -0.8181863 0.39009494 -0.017964678 0.25709102 -0.2132309 -0.34949356 -0.91879284 0.3625706 0.65627456 -0.2763103 0.39551833 -0.1103004
9138 -0.48696843 1.1374948 0.14750531 -0.2470931 0.6342199 0.31554464 -0.011586773 0.15702614 -0.19623071 0.74122274 -0.21972927 0.08438095 -0.016592333 -0.11870747 0.4612356 -0.58553445 0.4540176 -0.20389384 0.09572413 0.098328516 -0.56731254 -0.61461264 -0.012246751 -0.14414424 -0.90108484 -0.06023416 -0.037789743 0.10418405 -1.3050554 -0.2609041 0.21544436 -0.14697719 0.116755046 0.18479128 -0.12006734 0.013822557 0.6046172 0.07361105 0.0776423 -0.080232665 -0.7000795 -0.13503258 0.30665988 0.3869489 -0.3304503 -0.048562128 0.48340133 0.254386 0.0453852 0.2731986 0.23260672 -0.049314115 0.5466735 -0.72152245 0.63776004 -0.4010319 0.5214914 -0.19244844 0.4661766 0.23266038 0.32142594 0.49196827 0.5151274 -0.26595137 0.56601906 -0.17046575 -0.069198035 -0.28927132 -0.3410122 -0.14813879 0.49301004 -0.11735745 -0.212832 -0.2541777 -0.3396844 0.4169135 0.052415427 -0.6735362 -0.3460256 0.23076117 0.81554705 0.47369093 -0.7494783 -0.26845166 0.06009516 0.63712543 0.47734645 -0.16942935 -0.23379706 0.004680207 0.2835488 -0.27714556 0.17512779 0.28496173 -0.678391 -0.14622664 -0.09689546 -0.23139599 -0.3951302 -0.23207192 -0.9350915 0.58575666 0.504914 0.17982613 -0.42837906 -0.28818145 0.16507272 0.44931906 0.33059767 0.090993695 -0.19263959 -0.52993274 -0.5099808 -0.14184755 0.13376871 -0.05626247 -0.3306717 1.1312832 -0.16757913 0.112648934 -0.32698417 0.28468648 -0.764541 -0.5124901 -0.5261779 0.010768015 0.28870362 0.044733617
17047 -0.57497144 0.6131399 0.32081005 0.025451075 0.44191217 0.15200263 0.27973443 -0.111286916 -0.06743413 0.2814042 -0.48138043 0.13889351 -0.17795448 0.048125956 0.9136844 -1.0417796 0.47435108 -0.18502265 0.049688306 0.09182755 0.80001307 -0.12903629 0.0726401 0.09541531 -1.2336024 0.28419313 -0.05925294 -0.074238665 -1.0017002 -0.77040666 0.34081453 -0.06946722 -0.13612983 0.4271951 -0.15024148 -0.13164414 0.09272936 -0.28664002 -0.067651585 0.030246068 -0.79502344 -0.47008473 -0.19108132 0.28819266 0.14869674 0.026464226 0.3020731 0.20056023 0.33288416 0.11168443 -0.27098465 0.10603137 -0.23269753 0.18006837 0.40270165 -0.14639212 0.060301714 -0.19241326 0.13504052 0.76311916 0.18592109 0.11646998 0.6917865 0.28978986 0.49341267 0.1654487 0.0038142554 -0.7342596 -0.1480889 -0.19820324 0.34759128 0.098242275 -0.24240012 -0.40987083 0.4510309 0.26561067 0.102181464 -0.22329083 0.20393325 -0.22016767 0.6146016 0.27056476 -0.44474372 -0.072107345 0.39979404 0.41220605 0.99132293 0.16794072 -0.4249423 0.28013724 0.33294976 -0.12554878 0.5354719 0.4315002 -0.33669233 -0.3364776 -0.3493936 -0.06363691 -0.58513814 0.4460577 -1.1576605 0.08260053 0.7773987 0.1434361 -1.1074896 -0.3125074 -0.16693898 0.2352346 0.3339922 -0.10385416 -0.57659614 -0.04249699 -0.19727518 0.20666066 -0.3467024 0.42334285 -0.044470508 1.125966 0.040510073 0.012688271 0.39450917 0.24533767 -0.29710147 -0.19480906 -0.48183277 -0.1577039 0.3997924 0.068660855
13272 0.18753561 -0.09758159 0.31956458 -0.082819 0.1619204 0.22194654 0.32053256 0.18302664 0.1054067 0.42891964 0.19117992 0.10726184 0.25039732 0.08645241 0.36282045 -0.8687554 0.5143221 0.042543247 -0.071470164 -0.22231902 -0.021017076 -0.021167668 0.20636426 -0.4843898 -0.17279479 0.2779198 -0.026089428 0.3732265 -0.24753028 -0.20483908 0.8378769 0.2525779 -0.4289425 0.7935451 -0.1941863 -0.1814574 -0.20194261 -0.41242963 -0.37888983 -0.08026145 -0.72626907 -0.33977285 -0.2594807 -0.5056234 0.18452756 -0.3633693 0.25917545 -0.18031974 0.17582582 0.18619065 -0.059498355 0.65322584 0.5116138 -0.13370125 0.058750547 -0.32522273 -0.5014227 0.24158671 0.22864576 0.2446823 -0.5517263 0.17118867 -0.05911523 0.512481 0.24441633 0.15758052 0.53009224 -0.45477858 -0.09914077 -0.3896795 0.06936473 0.2841523 -0.1395378 -0.5404228 0.7657209 -0.14208482 0.49900183 -0.22168283 -0.06848136 -0.18507087 0.9049266 0.6525848 -0.6889088 0.10998085 1.017901 -0.107752934 0.57403684 0.44110096 -0.30330133 0.7316956 0.45256257 0.33712244 0.5099719 -0.16282834 -0.3120536 -0.2812891 -0.009937971 -0.6361322 -0.30662337 -0.097723074 -0.9192559 -0.044555463 0.3994502 -0.5104485 -0.34756088 -0.7806361 -0.62929606 0.09005837 0.10453747 -0.009856996 -0.18014403 0.44473866 0.71592283 0.42730057 -0.46370688 0.69755673 -0.30210918 0.06500751 -0.3093868 -0.048892133 0.51202935 0.1070137 -0.60005337 -0.38660136 0.08453337 -0.2744747 0.24556513 -0.53837264
19562 -0.1628921 0.1085809 -0.07466127 -0.3864438 0.116667435 -0.0064916625 0.28040203 0.18808594 -0.34962055 0.3179729 0.17717142 0.30029 0.15608121 0.6763598 0.26236004 -0.5086412 0.49585384 -0.3052995 -0.046869405 -0.19966191 -0.075928666 -0.44458055 -0.66008806 -0.5932131 -0.54319 -0.1800098 -0.0950906 0.114724755 -0.21761148 -0.15378693 0.18428397 0.7866728 0.3074855 0.2638821 0.2934748 0.0033119537 0.009523674 -0.22861305 -0.5033712 0.05934072 0.16398674 -0.37282977 0.02675741 -0.1671731 0.24492304 -0.06716976 -0.29726982 -0.016216327 0.3205966 0.19916937 0.29091856 -0.020507874 -0.45038483 -0.38345566 0.20364818 -1.0610753 0.4184697 -0.11577799 0.410497 0.6704989 -0.52246034 0.2331724 0.024913823 0.062313322 -0.036957122 0.45666483 0.35159713 -0.036411345 -0.1905189 0.33826244 0.3820528 0.019991986 -0.44549927 -0.59942234 0.66295516 0.25953284 -0.046795342 0.15288676 -0.5174408 -0.5762799 -0.0065516364 0.42725924 -0.03165691 -0.35467833 0.79090214 0.19418928 0.20086497 0.36950552 -1.0810286 0.64917856 0.13590233 -0.3030248 0.38760278 0.88002014 -0.12537175 -0.6189469 0.18747674 -0.13972327 -1.069303 0.20292453 -0.78712565 0.18342446 -0.39556158 -0.3217857 -0.5268969 -0.47521794 0.49739623 0.23835345 0.33913416 -0.07993704 -0.24086909 0.29434454 0.3864436 0.23411262 0.3527594 0.28027788 -0.10650803 0.95414066 -0.13789263 0.3195599 0.58531976 0.3560185 -0.6424408 -0.30145055 0.3620828 0.42958412 0.40536207 -0.2552108
18054 -0.30474424 -0.2268947 0.25398937 -0.2816403 -0.39379472 -0.13405603 0.43081972 0.4083714 0.006118072 0.15636179 0.0052815564 0.23081638 0.18056697 0.19661169 -0.10391454 -0.45769328 0.37545642 -0.36583367 -0.013423221 -0.10778853 -0.1406363 -0.6195521 -0.38392654 -0.4565525 -0.3223456 -0.013256505 -0.2804808 0.2535854 -0.39092797 0.04232249 0.41315883 0.3664805 0.27773547 0.15957479 0.16917528 0.029913913 -0.14991641 -0.05685575 -0.11947275 -0.07516671 0.12624446 -0.15507682 0.28997102 0.04352977 0.14066477 -0.27623147 -0.11090496 0.09718738 0.5311645 0.4654701 0.37133014 -0.2974683 -0.57433605 -0.3752663 0.2560991 -0.98156923 0.4226494 -0.48776636 0.03922082 0.8988099 -0.57538784 0.33041677 -0.5369217 -0.03368601 0.07268569 0.24950339 -0.12879413 -0.38916332 -0.53322345 0.10588837 0.56031877 -0.38854954 -0.4865419 -0.622213 0.6621893 0.26094556 0.42525998 0.0080813095 -0.43764603 -0.26019102 0.2999609 0.49066254 0.1426531 -0.37231562 0.29963872 0.37268588 0.12488628 -0.046176065 -0.6542649 0.84309834 0.1506158 -0.060771704 0.47064963 0.7529898 -0.04865682 -0.5243203 0.10097617 -0.1644475 -0.7029091 0.15818875 -0.90894794 0.2756615 -0.096659005 -0.15322004 -0.6496389 -0.36571112 0.14958748 0.2705672 0.2987636 0.086928375 -0.10595322 0.32728124 0.44019517 0.6792825 0.44047442 0.34417793 -0.16768828 0.8613887 -0.15601048 0.010624253 0.45789656 0.26931986 -0.5648725 -0.064042784 0.10333744 0.6605358 0.21531093 -0.35448587
1404 -0.23753963 0.5848825 0.13372818 -0.13404506 0.40085226 0.11878765 0.08273182 0.08566144 0.063735835 0.6368884 -0.16392645 0.31414324 0.5144049 -0.81279564 0.66907215 -0.2532974 -0.19169608 -0.52207756 0.2023854 0.0006179253 -0.6213532 0.083034076 0.2735194 -0.9362969 -0.90559155 0.42690673 -0.07268134 -0.6913217 -0.9411399 -0.18121117 0.282384 -0.6145842 0.28463945 0.29555103 -0.6001393 -0.10716061 0.019434284 0.0723538 -0.23311569 -0.16285785 -0.7418291 0.085156105 -0.26013044 -0.1632516 -0.06723982 -0.030273175 -0.014197206 -0.22121353 -0.01299049 0.36468154 0.021435082 0.13889204 0.6689998 -0.46192253 0.2839685 0.04964469 0.41045463 -0.67308295 -0.12010139 0.2933021 -0.081041574 0.517148 0.6238609 0.025442481 -0.07371989 -0.113506906 0.053249426 -0.6501722 -0.3592505 -0.080208845 -0.16510361 0.3603988 0.026794652 -0.0075095003 -0.3227654 0.29297873 -0.19913544 -0.16698563 -0.22843532 0.16491793 0.8908899 0.85873795 -0.35967982 0.42372835 -0.75176424 0.5737628 0.5294602 0.32171544 0.36398056 -0.071311325 0.19965209 -0.18297654 0.49878097 0.0076430365 -0.26646686 -0.17971006 -0.15271658 -0.17437178 0.3358188 -0.5948431 -0.66701514 0.24149556 0.52584875 0.22380325 -0.9082244 0.20139953 0.13243689 0.53621113 -0.57473254 -0.1102196 0.23922554 -0.5018345 -0.72684544 -0.028045684 -0.6734567 -0.45557156 -0.4987511 0.106381275 -0.17758937 -0.14303006 -0.28881615 -0.17947565 -0.57046086 0.28699353 0.12294934 -0.077689566 0.16574371 -0.3563454
19041 0.14571202 -0.064142495 -0.0109111 -0.09562359 0.053714916 0.16471413 0.27733105 0.080033824 0.2000856 0.37673062 0.1724309 0.083262935 0.2839111 -0.15850568 0.30008134 -0.79271024 0.6347803 0.08222604 -0.0019030961 -0.30517957 0.029545253 0.07517457 0.071335934 -0.7539009 -0.44738895 0.38902783 -0.28374583 0.067385085 -0.184232 -0.13573702 0.6709599 0.08629246 -0.38713506 0.68444085 -0.14475384 0.07042045 -0.21958522 -0.4180738 -0.6279827 0.13775799 -0.7535504 -0.35473222 -0.3105067 -0.7068433 0.274365 -0.23447347 0.21703927 -0.4634567 0.12278945 0.15813258 0.22776645 0.5350177 0.41676885 -0.28924632 0.20307675 -0.57567585 -0.3336584 0.03357271 0.103713036 0.1455747 -0.2720068 0.22792391 -0.12281839 0.39822447 0.26880655 0.16514148 0.5203038 -0.6401153 -0.28731272 -0.37847164 -0.024344891 0.27113953 -0.27281016 -0.41899318 0.97368556 -0.17603804 0.21452966 -0.06848839 -0.07428215 -0.2659932 0.83091134 0.7279841 -0.64156395 0.18048103 0.8679281 0.11735623 0.6124526 0.4990348 -0.2674604 0.7626021 0.27015013 0.46435153 0.51500857 0.110112935 -0.18660998 -0.32325032 0.067016385 -0.5875597 -0.35339695 -0.17146899 -0.9129493 -0.14373676 0.34207395 -0.58800304 -0.38040456 -0.6022879 -0.61901057 0.05274683 0.056954924 -0.011821552 0.13903117 0.3737542 0.68894523 0.5273344 -0.37352988 0.58434695 -0.4403312 -0.04594697 -0.5566829 -0.062329948 0.55113685 0.26066598 -0.5820128 -0.17056394 0.19841005 -0.24619202 0.28224877 -0.793038
15645 -0.13668258 0.46845075 0.111816384 -0.23570463 -0.010019221 -0.36403817 0.7519614 0.13140388 -0.37667218 0.42616886 0.2994984 -0.08860886 0.5622827 -0.25619066 0.832387 -0.762167 0.6114296 -0.5090479 -0.36078662 -0.14780374 -0.1846008 0.03896882 -0.28963697 -0.91013 -0.38982823 0.23446502 -0.32868236 -0.23616064 -0.39162293 0.25478083 -0.23672679 0.0145304315 -0.06907189 0.64670724 0.35996172 -0.3584553 -0.014554537 -0.09787487 -0.59392965 0.12599106 -0.14122015 0.09843964 -0.33171636 0.04407642 0.17981619 -0.4668461 -0.09051597 0.21340516 0.12907799 0.5270892 0.3020221 0.3242436 0.18080558 -0.5819893 0.32015803 -0.82803494 0.35199702 -0.35097927 0.27429405 0.32545954 -0.07707233 0.4547762 0.37536 -0.22817916 0.33107167 -0.30664954 0.34208834 -0.45424253 -0.2129294 -0.06236821 -0.13979256 0.29389754 -0.1398369 -0.5481599 0.55716723 0.38761812 0.09253704 -0.55421466 -0.13819894 -0.36332503 0.25714463 0.702147 -0.39895314 0.44648302 0.22485074 0.18114519 1.0302027 0.6253164 -0.09706819 0.004720356 0.2629074 -0.1907561 0.69164556 0.5585848 -0.40119913 -0.08058959 -0.22506857 -0.22228627 -0.42790705 -0.47014108 -0.47085613 -0.20603824 0.23381937 -0.052303746 -0.607781 0.09595422 0.049457625 0.31489182 0.3492294 -0.23226961 -0.113749385 0.040581383 -0.67169315 0.31682387 -0.5483382 0.20205253 -0.41673043 0.40138 -0.4167879 0.27486095 0.14559658 0.21735704 -0.56361866 0.24159695 0.420681 0.17069986 0.32810825 -0.3747572
15303 0.19275014 0.5242318 0.42442524 0.050007433 0.026031548 0.3025866 0.929694 -0.424391 -0.41020048 0.24230027 -0.3639885 -0.29096174 0.1447576 0.015221395 0.59538275 -0.9387541 0.667096 -0.22918883 -0.68338853 -0.25518054 0.30864623 -0.09945939 0.029112883 -0.8303667 -0.19841614 -0.24096845 -0.14944682 -0.46866217 -0.4451234 -0.09302312 0.26349825 0.076424174 0.30918425 0.50656694 -0.31107482 -0.32034734 0.27737442 0.05043748 -0.6045207 0.24273589 -0.47799262 -0.66172045 -0.2906879 0.3176266 -0.09699947 -0.49471563 0.024415273 0.29750055 0.04296755 0.8659946 0.46599117 0.216496 0.532049 -0.4220579 -0.0498327 0.0010560993 0.101509415 -0.40016022 -0.27611226 0.09870684 -0.3107926 0.31007072 0.49587834 0.054932356 0.25350773 -0.044373102 0.017930025 -0.80219334 -0.30774286 0.25083855 0.20659672 0.72842085 0.18637542 -0.27521536 0.7814015 0.7603519 -0.46893096 0.14693293 0.031318314 -0.30748105 0.36778677 0.64143527 -0.79045826 0.104438044 0.5799948 0.051064134 0.43355966 0.50674516 -0.08639074 -0.18453579 0.0020257733 -0.049673814 0.6888026 0.1563808 -0.121835366 -0.24402943 0.45628184 0.071000956 -0.8767369 -0.4605351 -0.30469137 -0.40913644 0.15078919 -0.2981309 -0.70853513 -0.3485486 -0.082662895 0.6515585 -0.09694306 0.23902883 0.15224119 -0.3202166 -0.6572525 0.38947934 -0.33555028 -0.029567301 -0.5294037 0.27508855 -0.5455422 0.17598023 0.5001258 0.13037801 -0.16956404 -0.47765225 0.35402852 -0.05305685 0.12060899 -0.43495086
5121 0.046652436 0.5855429 0.21096785 0.0901826 0.30222836 0.18415074 0.017265279 -0.13762543 -0.3347428 0.5679796 -0.08754023 0.19368576 0.21515276 -0.5119695 0.28907013 -0.3958823 -0.10272906 -0.028828193 -0.17439048 -0.21274316 -0.13746423 -0.33762524 -0.21718338 -0.80664444 -0.30509496 -0.26637495 -0.09506077 -0.3396402 -0.13574694 0.025214275 0.44231617 0.07634039 0.37570992 0.14497283 0.0037557664 0.3422553 -0.053952225 -0.32427272 -0.16376309 0.33149436 -0.70665866 -0.053416397 -0.3295889 -0.09149579 0.1821615 0.05257788 0.05078939 -0.21606335 0.11871432 0.35460272 0.35429406 -0.01697721 0.39263064 -0.41825268 0.4508363 0.010270904 -0.14934133 -0.29659662 0.19400762 0.5944098 -0.15315 0.465886 0.15566729 -0.30027553 -0.48601148 0.30735734 0.28533158 -0.43488267 -0.5124305 0.4217422 0.20357414 -0.010556852 -0.2297848 -0.14714153 0.388844 -0.023591196 -0.3130234 -0.25227198 -0.22922845 -0.23351297 0.6399888 0.35822758 -0.458013 0.117686726 0.41782796 0.17695524 0.63078976 0.6010581 -0.29551798 0.42387685 0.14182012 0.105015986 0.74047107 0.16307649 -0.22665872 0.10618385 -0.30887175 -0.17934513 -0.17459337 -0.2983007 -0.77209836 0.33696762 0.090804204 -0.13355754 -0.4232228 -0.3333816 0.020451717 0.24397755 -0.038898602 -0.11759972 0.5753308 -0.13162598 0.16622883 0.3024534 -0.09005909 -0.012630305 -0.1368532 0.6954043 -0.43704683 0.22958805 -0.24285574 0.24614903 -0.70287585 -0.25635284 0.44692454 -0.05346386 0.32076278 -0.3714281
6137 -0.006521625 1.1681174 0.16456135 -0.36339703 0.6579763 0.18899389 0.010866219 -0.519138 -0.12508601 0.50360477 -0.018552208 -0.0845316 0.21464485 -0.13370751 0.7124508 -0.33216628 0.22107705 -0.7644545 -0.14191556 -0.36116126 -0.9395575 -0.24760717 -0.20270418 -0.6880319 -0.891704 -0.14761837 -0.029993203 -0.30975768 -0.88096267 -0.20654956 0.1375336 -0.36612067 0.20977879 0.7434825 -0.66764534 0.3308338 0.3855743 0.08767558 -0.16425428 -0.016112767 -0.90974146 0.02659332 -0.039153144 -0.18040922 -0.026230419 -0.32600743 0.40649506 -0.052800793 -0.022213902 0.66056484 0.046170767 -0.1380353 0.40340346 -0.5578034 0.36457017 -0.120218225 0.8799592 -0.24322578 -0.5063915 0.16408436 -0.5572037 0.3461391 0.7007023 -0.53707147 0.60074085 -0.09708399 0.28073063 -0.9147008 -0.35046098 0.006334375 0.2981172 0.3282059 0.23441388 0.008990657 -0.35501513 0.69633603 0.19539165 -0.10918437 -0.3064658 0.32302082 0.74331546 0.6515591 -0.43975055 -0.06302187 -0.7429859 0.47043413 0.38313717 -0.1366676 -0.09446944 0.102757156 0.24871425 -0.43054795 0.56190336 0.28665558 -0.28210986 -0.40730396 0.05259803 -0.34178993 -0.540876 -0.49699038 -0.59575653 0.20931482 0.19093075 -0.32506445 -0.9137523 -0.36931387 0.13049884 0.72193205 -0.056705907 -0.22824037 0.04038812 -0.31296265 -0.53836685 0.17515874 -0.53965235 -0.6926558 -0.19541615 0.27086738 0.0074307206 0.14489865 -0.20518734 -0.27087185 -0.8936936 0.36091924 0.4845729 0.08858536 0.08658253 0.20292334
9582 -0.13633956 0.17991588 0.13697973 -0.11996475 0.2233427 -0.07830181 0.26888344 0.10346294 0.20702916 0.20568906 0.13922706 0.10016698 0.41166076 -0.36649725 0.8964152 -0.63288385 0.2544417 -0.71336013 0.12005939 -0.34624422 -0.17556995 0.11481227 -0.053100802 -1.0381513 -0.8125154 0.057173237 -0.105431125 -0.4403555 -0.6326771 -0.032273788 0.5051946 -0.2867228 0.070880994 0.5255354 -0.45485258 0.0017201807 -0.060203146 -0.008794333 -0.52177876 -0.1963395 -0.30465508 -0.15831305 -0.3624524 -0.13573736 0.4040711 -0.19756803 0.041220915 -0.2811975 0.39919633 0.67879635 0.024678886 0.14981945 0.66642404 -0.2953119 0.010683337 -0.40799168 0.31030238 -0.47709054 -0.10885397 0.8041395 -0.4644483 0.73976976 0.31211585 -0.0049564503 0.07295522 0.20512167 0.46651292 -0.890385 -0.26802072 -0.044347584 0.21002369 0.1848821 -0.13469172 -0.33178875 0.30393183 0.35630497 0.04316799 0.07017024 -0.043507736 0.26635334 0.65122724 0.9541498 -0.5150513 0.43167517 0.1269775 0.26375693 0.8105266 0.5017894 -0.19921109 0.10938182 0.17284694 -0.11840409 0.90802044 0.1124876 -0.1813373 -0.06640243 -0.12405798 -0.36282206 -0.26208615 -0.52674764 -0.74046344 0.038792506 0.1498122 -0.19173034 -1.1480242 -0.14539881 -0.06946343 0.4603302 -0.21969207 -0.10326261 0.16393597 -0.056233298 -0.27737185 0.574739 -0.73987097 -0.17288405 -0.6612488 0.35177284 -0.09991498 0.35832387 0.06524937 -0.098400205 -0.71516424 -0.022639746 0.6459374 -0.13209681 0.39053154 -0.41847333
905 0.25782034 0.56249726 0.18250975 -0.4825995 -0.035819393 -0.21125741 0.20858544 0.40018857 -0.19987318 0.7820855 0.16395329 0.30717894 0.20845427 -0.09076071 0.26966658 -0.45792973 0.47918332 -0.1546709 -0.11210601 0.1803731 -0.0063468656 -0.41992658 0.24638377 -0.8979449 -0.41816437 -0.09606424 0.20586202 -0.13540652 -0.70428485 0.11285901 0.14109908 -0.13220094 -0.0016644737 0.72759396 -0.4292581 -0.0663115 -0.07977511 -0.058622092 -0.5068596 -0.15847974 -0.5027561 -0.22826675 -0.44881302 -0.17826693 0.07786309 -0.06747496 -0.10161353 -0.26726812 -0.042524297 0.6721787 0.16523321 0.03514336 0.20850074 -0.5832207 0.3177094 -0.3664989 0.5628107 -0.29794922 0.020761712 0.20016201 -0.07881825 0.4119863 0.24699731 -0.33465046 0.11458945 0.1041718 0.26180133 -0.569338 0.06576748 0.16416733 -0.05886316 0.25786176 -0.17844923 -0.2468052 0.011386138 0.2621303 0.11799095 -0.010746577 -0.0873612 -0.24431448 0.7213728 0.6174518 -0.22816345 -0.013121032 0.64461595 0.22609998 0.43606615 0.15635726 -0.65580624 0.2069304 0.17953776 -0.23588273 0.40915862 0.22939302 -0.38880852 -0.17364927 -0.13602686 -0.19062671 -0.33389133 -0.41404453 -0.53934294 0.12266529 0.26817846 -0.010305031 -0.70522314 -0.47631958 0.059403412 0.3917959 -0.27977413 -0.0925449 0.047896337 0.046883617 0.015398832 0.13313209 -0.09373437 0.06592723 -0.3867862 0.8008935 -0.36705476 -0.09384457 0.25038397 -0.08953294 -0.51794463 -0.1697526 0.26014903 0.17899019 0.28874168 -0.16711485
21756 -0.5553377 0.3365657 0.72537017 0.050244175 0.9143256 0.19476485 -0.08101904 -0.20707956 0.38109162 0.05852556 -0.026554415 0.014421295 -0.07766713 -0.355206 0.410173 -0.23804832 0.07785009 0.11194651 0.89636487 -0.5376589 -0.1830077 -0.39965564 -0.11682066 -0.22736053 -0.75720525 -0.4032664 0.2742192 0.3113304 -0.031039396 -0.8611174 0.26922092 0.06632155 0.18180956 0.1170069 0.23052308 0.24083132 -0.4684591 -0.0459206 -0.22035067 0.10026261 -0.64027745 -0.012379817 0.11431782 -0.38744333 0.083948 -0.12373074 0.24778539 -0.20011355 -0.051069584 0.38174197 0.36780667 0.1536388 0.31044757 -0.5728021 0.3096606 -0.011891528 0.049798608 -0.26409164 0.051107336 0.24904642 -0.13942903 0.7136938 0.6759509 -0.7503269 0.10202248 0.121901326 0.74826384 -0.03688623 0.042023957 0.7582722 0.39677927 0.2708684 -0.6187189 -0.17751801 0.1626758 0.48553073 0.12000972 -0.36762625 -0.22238582 -0.07072872 0.3025213 0.7915983 -0.17685743 0.09277913 0.070724 0.14171411 0.7139757 0.20244712 -0.6191628 0.5134592 0.2992914 -0.24428415 0.39534068 0.30691737 0.21195963 -0.36234334 0.32997596 -0.6091671 -0.9621667 -0.400431 -0.48159537 0.11054173 0.2768701 -0.73215634 -1.01903 -0.43446383 0.24603538 0.33854637 0.00743416 -0.025738064 -0.2829091 -0.34192747 -0.086466655 0.07449596 -0.37062865 -0.083145306 0.27492565 0.75317985 -0.46414807 0.49397033 -0.09123842 -0.025844721 -0.959287 -0.3760562 0.17522842 0.37568265 0.12279808 -0.05020112
4475 -0.27110094 0.6210474 0.32060668 -0.2314413 0.34464628 0.29937112 0.3137333 0.046910223 -0.24140851 0.7139341 -0.1571987 0.13262632 0.0603711 0.37081075 0.6830167 -0.519094 0.28418627 -0.118090734 -0.284188 -0.2753844 -0.25225422 -0.5348126 -0.15000208 -0.82320076 -0.44847405 0.022180364 0.04177114 -0.28767005 -0.50291514 -0.110328406 -0.07858841 0.21034421 0.01155289 0.723649 -0.16911106 -0.18886691 0.60104793 0.06543533 -0.19776592 0.23178084 -0.08247545 -0.24762475 0.32645923 0.4148374 -0.12890139 -0.23465365 -0.28656527 0.6687004 -0.07877615 0.63402855 0.23854707 -0.4744218 0.57409054 -0.08174061 0.10456414 -0.5209881 0.18294021 -0.07990109 0.42913336 0.41015366 -0.7352711 0.6361468 0.25681892 0.14636467 0.22751336 0.16233931 0.20826076 -0.532777 -0.44144568 0.61154187 0.31731457 0.29068527 0.087746724 -0.28807727 0.7056287 0.6686481 -0.08956367 0.10304856 -0.18383123 0.333074 0.2679043 0.55818844 -0.8044505 -0.14053892 0.13749836 -0.045044128 0.5694917 0.618459 -0.2524456 0.2694072 0.18869744 -0.2718236 0.38120517 0.16786881 -0.1940485 -0.26188424 0.14327659 -0.2718593 -0.98169106 -0.22210121 -0.7208328 0.24606152 0.1977246 -0.19669408 -0.7162496 -0.4233257 0.4818616 0.29526088 0.0008587613 -0.12809426 -0.0634578 -0.2917671 -0.18040234 0.13969584 -0.2889613 -0.42740378 -0.26032946 0.3738477 -0.013902437 -0.1823135 0.22857404 -0.14428358 -0.3243441 -0.34621966 0.21055475 0.00020208381 0.4020507 -0.20024318
10222 -0.5733064 0.5600692 -0.10079331 -0.1738836 0.57914054 -0.06286915 -0.16794583 0.16741005 0.29039547 0.1660894 0.015575949 0.51016605 0.119595155 0.017725926 0.66612476 -0.22167583 0.47317693 0.017462397 0.16141436 -0.14183806 0.110647134 -0.40743017 -0.1947432 -0.85287905 -0.8017155 0.13328737 0.31280026 -0.34001058 -0.31310228 -0.30893445 0.36894822 0.13082555 0.0670825 0.48005298 -0.16762696 0.022067016 -0.31293657 0.08162228 -0.85865784 -0.30320215 -0.28464705 -0.27682468 0.11891989 0.43431255 0.5246567 -0.14059652 0.16667764 -0.04148739 -0.25782812 0.30126047 0.033827253 -0.45026365 0.71085715 -0.16800216 0.26468682 -0.41680712 0.23856187 -0.08053578 0.7287498 0.6405962 0.03433537 0.8436575 0.6240165 -0.58621234 -0.2966817 0.024916856 1.0214219 -0.2646252 -0.36503777 0.49216276 0.20592028 0.11932677 -0.44389224 -0.17889547 0.015990445 0.17289653 -0.13987921 -0.18891187 -0.20270427 -0.23690563 0.18872376 0.7172578 -0.46730253 0.29568604 0.4572026 -0.09780242 0.59779555 0.48464432 -0.6100487 0.08864467 0.2761949 -0.44325674 0.29155013 -0.057029814 -0.43785423 -0.05515216 0.091581956 -0.07735082 -0.92377615 -0.098861486 -0.29246402 0.058660198 0.56370544 -0.19974518 -0.6794203 -0.08182229 -0.024545342 0.03341273 -0.24954657 -0.080718964 -0.03200039 0.07437026 -0.019022372 -0.04660576 -0.60442203 0.23028307 -0.42195722 0.92304444 -0.06737397 0.66346866 -0.19072427 0.18493366 -0.64452213 -0.63668895 0.30624264 -0.3946431 0.7305016 0.062160052
15888 -0.07149159 0.15414268 0.095418036 0.012051057 0.5707056 -0.021545904 0.5503569 -0.41880226 -0.17383525 0.21929203 -0.049047675 0.15888949 0.15578827 0.13124229 0.30424875 -0.32385975 -0.043098792 -0.047337588 -0.18770939 -0.5225367 -0.10011403 -0.2962426 0.09556379 -0.8727207 -0.52459216 -0.066807136 -0.21461105 0.26168752 -1.0080096 -0.09968137 -0.11848206 0.40010333 0.57720935 -0.038646035 -0.22780932 -0.16666003 -0.22513728 0.042932395 0.28127012 0.23382975 -0.46665895 -0.090249725 -0.06702077 0.010822984 0.39039966 -0.17173535 0.101991884 -0.25897986 0.34539342 0.41799328 0.27035865 0.19808586 -0.08056421 -0.48944688 0.3579451 -0.534687 0.19404419 -0.45663196 -0.50420016 0.5986395 -0.6542461 0.22874106 0.15589161 0.22770919 0.42136723 -0.11186048 -0.32672578 -0.497398 -0.4229155 0.48493773 0.4592006 0.67860705 0.18906912 -0.86216706 0.5873175 0.44859225 -0.13096479 0.02185029 -1.0215353 0.04443647 0.37271062 0.35220486 -0.34228915 0.39825848 -0.45724255 0.44756415 0.5228709 0.12743519 -0.26809353 -0.029564822 0.053917807 -0.12786168 0.31039166 0.13931338 0.3401749 -0.5268199 0.04294401 -0.8328563 -0.48200282 -0.34281442 -0.48610488 -0.2102027 -0.021332683 -0.18855184 -1.1937724 -0.34216544 0.059031468 0.48603913 -0.11845948 -0.43087286 -0.1661151 0.004373938 0.04672433 0.07435535 -0.0011684867 -0.19512953 0.44479558 0.58237904 0.022148356 0.6127218 0.34646052 0.21644236 -0.39455268 -0.08030045 0.32228288 0.15336555 0.23726544 -0.63433266
17891 -0.34381634 -0.29676715 0.47921678 0.16564655 0.12827234 -0.04358347 -0.04668582 0.025567235 0.40197596 0.11126606 0.003169857 -0.04944049 -0.12023069 0.11780932 0.34328026 -0.77027667 0.605911 -0.40958506 0.3680902 -0.47128096 -0.31862772 -0.028718967 -0.1697573 -1.0725689 -0.7750146 0.36027735 -0.26345885 -0.39650336 -0.4097195 -0.12202941 0.009886995 -0.22473383 0.30535397 0.22714606 -0.20862475 -0.09168787 -0.3437735 0.23179874 -0.40409225 -0.020177908 -0.8422436 -0.12670568 -0.027434787 -0.3979603 0.32556638 -0.5002986 -0.22395724 -0.5562716 0.18467149 0.24576695 0.6562498 -0.036105342 0.5479188 -0.46888816 0.02555828 -0.17009723 0.40352267 -0.46882397 -0.21822172 0.5114465 0.093582064 0.5425988 0.35803849 -0.40455914 -0.1577409 -0.022984084 -0.005081756 -0.34088656 -0.6171575 0.08802162 0.23694794 0.03350658 -0.21702741 -0.27861002 0.6084772 0.24738836 -0.27376306 0.44037503 -0.6717268 -0.5245272 0.20417932 0.8834516 0.05116365 0.32580718 -0.21850249 0.21268532 0.43582094 0.34882396 -0.28478235 0.21059932 0.16771631 -0.10065235 0.5428896 0.66335005 0.06742082 -0.4804098 0.14198703 -0.1970564 -0.5571033 -0.38275447 -0.75854695 -0.1954356 0.41271967 -0.20554394 -0.6971643 -0.3497546 -0.13904797 0.30100313 -0.3196702 -0.3020528 0.20241363 0.12184666 -0.07709484 0.15925883 -0.2663689 -0.07081288 -0.36584833 0.19405398 -0.42754838 0.24889356 0.15407757 0.078580014 -0.6892353 0.3151911 0.39051065 0.10462864 0.37690118 -0.5718985
11922 -0.4868079 0.5628299 -0.12157858 -0.22877148 0.36618188 -0.31934288 -0.27178252 0.3064323 0.18392222 0.42851192 0.12602635 0.21104155 -0.007024994 0.31851918 0.50630164 -0.85898554 0.7162562 -0.5234523 0.053700663 -0.16284384 0.30881068 -0.61575884 -0.17052358 -0.8294033 -0.20301959 0.22970216 0.014968122 -0.24540712 -0.47898343 -0.013872418 0.26074892 -0.21252348 0.039125998 0.031020336 0.11772042 -0.123444304 -0.1864298 -0.29207662 -0.6223726 0.10530018 -0.49054435 0.059650186 -0.044181406 -0.10322706 0.32687086 -0.2498048 -0.1753094 0.15533173 -0.31857693 0.27812392 0.4359995 -0.1640048 -0.3638708 -0.48775035 0.28017342 -0.6382085 0.4873314 -0.20996758 0.47407985 0.32484734 0.17409797 0.8460106 0.1568228 -0.23027289 0.1240845 -0.30162606 0.13837819 0.037303243 -0.24816722 0.102765925 0.574161 0.23611023 -0.21077178 -0.22155842 0.32357997 0.26700115 0.508 -0.100940876 -0.48723486 -0.5027344 0.19575362 0.5508705 -0.6120697 -0.23826984 0.16148688 0.1302928 0.24189438 0.72114223 -0.7429143 0.2718861 -0.006218754 -0.09911878 0.40513834 -0.0866064 0.008392611 -0.23027886 -0.22432193 -0.20657748 -0.416395 -0.43393856 -0.5115299 -0.17006746 0.042133972 -0.101712726 -0.35384014 -0.26211116 -0.47231433 -0.051996488 0.3778312 -0.3124104 0.14175768 0.2395448 -0.225885 -0.046773482 -0.6969012 0.076353215 -0.26528054 0.81989205 -0.104326464 -0.053861752 0.25338212 0.04725416 -0.647794 0.20878917 0.40680376 -0.14078131 0.54924595 -0.0028508515
5923 -0.0621528 0.5187459 0.2210442 -0.2544261 0.37608093 0.07944778 0.18374158 0.15653028 -0.14534499 0.51466095 -0.09744607 0.07358844 0.22761366 -0.11532848 0.513098 -0.8087299 0.6595771 -0.4804618 -0.12053908 -0.205575 -0.19289966 -0.5458682 -0.01720833 -0.7100306 -0.59168017 0.20101658 -0.039100017 -0.39007863 -0.7189134 0.034272805 0.23074082 0.0009896384 0.20001766 0.51381284 -0.21470755 0.1167245 0.07623911 0.018608121 -0.5647962 -0.1302667 -0.5479153 -0.11635372 -0.2515797 -0.03777983 0.23459192 -0.33152068 0.112282045 0.07807895 0.047308415 0.6455679 0.25376436 -0.04889027 0.46586555 -0.48990786 0.20724455 -0.50133014 0.35363814 -0.13537835 0.044859506 0.40291974 -0.55875146 0.67513824 0.29319537 -0.29031238 0.13610476 -0.00853127 0.23751223 -0.74833095 -0.37425268 0.46336088 0.22470538 0.16162775 -0.077460006 -0.23315367 0.24997847 0.66965157 -0.02927469 0.017114699 -0.36403456 -0.13718477 0.42663112 0.6904434 -0.50916266 0.10412573 0.34881815 0.20112488 0.50221944 0.24491145 -0.45162043 0.14079288 0.26121578 -0.20122899 0.76518846 0.52149934 -0.24853869 -0.09969424 -0.13297278 -0.20014668 -0.7682393 -0.4749232 -0.67927814 -0.123578675 0.3708766 -0.087656625 -0.6508691 -0.47921804 -0.013172878 0.7135959 -0.009998789 -0.040429477 0.017956775 -0.047825467 -0.24069668 0.30649656 -0.2880502 -0.08386103 -0.54964393 0.7069957 -0.3167771 0.2896908 0.08988278 -0.1201538 -0.64743084 -0.1963396 0.30711377 0.027675701 0.42749664 -0.18560636
16702 -0.18322212 0.5815203 0.32588792 -0.16713531 0.3705468 0.16457963 0.13332288 0.02237864 -0.01037372 0.6695554 0.17643353 0.1269689 0.3235156 -0.32312942 0.73620504 -0.5513749 0.4480319 -0.5176591 0.21623138 -0.19890457 -0.5692649 -0.3353933 -0.021964204 -1.0148134 -0.8532027 0.15943983 -0.052774224 -0.41921347 -0.89898866 -0.1406114 0.36429837 -0.28180087 0.1954828 0.63439924 -0.3794921 0.08778864 0.14249907 -0.14792705 -0.566075 -0.035998724 -0.6794141 -0.2996873 -0.07935854 -0.22519735 0.1258866 -0.2712615 -0.012534481 -0.14998692 0.033627056 0.62270916 0.20511292 -0.030167473 0.66469014 -0.6845091 0.2558522 -0.4395986 0.57368183 -0.40204164 0.043788083 0.38265866 -0.37432572 0.68827456 0.40666333 -0.15498479 0.14428078 0.011173054 0.37947488 -0.7689201 -0.44473556 0.13252342 0.17672701 0.21726109 -0.15489526 -0.24820083 0.14818953 0.45989072 -0.053874962 -0.09671384 -0.2058308 0.041312914 0.666102 0.95283484 -0.4504888 0.2420461 -0.18012819 0.31048876 0.7757156 0.37224054 -0.25238106 0.32236865 0.21665484 -0.2510124 0.70074904 0.41946 -0.4042137 -0.16986376 -0.10099821 -0.30041283 -0.43023598 -0.36521006 -0.83480966 0.15415236 0.24199563 -0.18472458 -0.9051631 -0.17138529 0.024706708 0.5663688 -0.17341937 -0.15977125 0.213754 -0.24439117 -0.28628817 0.19091605 -0.4426819 -0.19426769 -0.51578796 0.4554983 -0.24830806 0.1865436 0.09461615 -0.06442972 -0.86586815 -0.009718111 0.36426005 0.07225199 0.3455229 -0.1854739
11046 -0.45490715 0.08157593 -0.22586836 -0.45375404 0.13729702 -0.4533987 0.07141242 0.18474731 -0.23422451 0.188452 -0.15064682 0.4417424 0.68168414 0.2045475 0.8939769 -0.30522028 0.63836277 -0.36342305 -0.34891436 0.34947652 -0.002021335 0.00092441705 0.024363078 -0.37940103 -0.8259388 -0.2627235 -0.07789875 -0.31908935 -0.7482665 0.25193098 0.16887784 0.26588207 0.30864108 -0.2530794 0.0659406 0.13092946 -0.48202264 0.09013738 -0.027328067 -0.45329657 -0.296368 -0.056857023 -0.5082927 -0.1077306 0.4707332 0.39883322 0.27264252 0.010319661 0.55467516 0.71634954 -0.02407646 0.53176963 -0.1954258 0.047541022 0.0924012 -0.9867557 0.72095555 -0.7233393 0.21420632 0.8369999 0.35792634 0.547525 0.32082325 -0.6994373 -0.08277513 0.20166142 -0.17164253 -0.2837713 0.28094473 0.17390817 0.8195664 0.48300168 0.13719672 -0.22931413 0.36886126 0.14097266 -0.07358847 -0.10769785 -0.5836755 -0.13351774 0.99769783 0.5720737 -0.4108921 0.050904572 0.5957789 0.48413292 0.36726487 0.12448774 -0.5877286 0.3161662 -0.029614167 -0.36721075 0.5667472 0.18365026 -0.4069931 -0.5375838 -0.5840156 0.012438051 0.0910683 -0.1865319 -0.5222513 -0.00906405 0.11015699 0.24206665 -0.687607 0.15204051 -0.019847374 0.3531791 -0.09449398 0.026654357 -0.3584141 -0.28623018 -0.1659392 0.531642 -0.4795749 0.38505974 -0.16750309 0.9343053 0.22050482 0.49979696 0.43462372 0.6181368 -0.68041754 -0.008228171 0.1843085 -0.1965546 0.011407046 -0.3621897
7887 -0.9727248 0.32000393 0.21690772 0.3674897 0.5090352 0.036143146 0.31807128 -0.21541233 -0.014418716 0.14598306 -0.47800276 0.20484605 -0.16759266 -0.19438559 0.5604808 -0.46393204 0.36890525 -0.2198928 -0.016194865 0.10772081 0.4401438 -0.21322602 0.2112004 -0.25034305 -1.0889393 0.25716463 -0.06839415 -0.3389573 -1.1092708 -0.55346394 0.34528103 -0.27629375 0.039724942 0.31613225 -0.2696458 0.08395253 0.013965751 -0.16287512 -0.11518895 -0.10001271 -0.515847 -0.5103742 0.42557293 0.35433707 -0.05155999 0.22555286 0.047245473 0.18420118 0.35107633 -0.029024594 -0.23463824 0.33022663 -0.032285213 0.13427284 0.30553842 -0.5208885 0.16547191 -0.5155904 0.29874057 0.6693349 0.25201187 0.1112134 0.4645264 0.088929415 0.2712844 -0.17194407 -0.23836315 -0.9348697 -0.36625174 -0.051218025 0.20195986 -0.0035454615 -0.42029226 -0.39314243 0.4110552 -0.049302854 -0.13058957 -0.23207065 0.058498614 -0.059769735 0.5551907 0.49957013 -0.2852835 0.277804 -0.03141723 0.55448455 1.3427082 0.39292994 -0.27141583 0.2976788 0.2635512 -0.008899484 0.35640767 0.24076754 -0.3344693 -0.57970244 -0.030337729 0.17832889 -0.68582004 0.59287345 -0.9117699 -0.049549885 0.75928473 0.09037189 -0.8759445 -0.109186 -0.02467992 0.37003458 0.25352702 -0.14447898 -0.45426524 -0.013994571 0.04100173 0.2861184 -0.42524952 0.13552251 -0.24221446 1.0140471 -0.14276071 -0.069068335 0.55564433 0.38947037 -0.10262403 -0.08434486 -0.5250783 -0.40204468 0.73702395 -0.17584503
4072 0.26150134 0.4918034 0.18061578 0.20049082 0.39915952 -0.23332593 0.29465497 -0.01956528 -0.18912998 0.25740033 0.263736 0.09948165 0.62318134 0.24024904 0.6041639 -0.6573459 0.17152666 -0.09920725 -0.21317096 -0.46233416 -0.03859868 -0.15475169 0.44121078 -0.89095145 -0.2605739 0.023271902 0.23172489 0.5065974 -0.12251687 0.36586386 0.10064784 -0.049408194 0.24116054 0.15964478 -0.09968639 -0.51897484 0.08875427 0.0006384229 -0.3711594 -0.25619248 0.0023828456 0.0023451063 -0.18247187 -0.057029966 0.24231125 -0.09320278 -0.11165291 -0.11356325 0.1309549 0.7294286 0.29418698 -0.16210337 0.486628 -0.51221895 0.5043124 -0.7265391 0.28993955 -0.17008178 -0.07526673 0.38718078 -0.23954774 0.6938463 0.10708847 -0.5997692 -0.018057648 -0.0316368 0.7667221 -0.4390235 0.011073563 0.26001325 0.3963679 0.75572073 0.16087873 -0.27002248 0.03304742 0.31582877 0.19389558 -0.045692343 -0.26938993 0.09849309 0.21646588 0.74906796 -0.4657718 0.6008074 0.4002761 -0.054167822 0.71385217 0.2333682 -0.43524933 -0.21238345 0.21650372 -0.20841624 0.8342653 0.1702799 0.6017714 -0.22915469 -0.4441108 -0.35448113 -0.5094961 -1.0089484 -0.23722495 -0.1880393 0.15465021 -0.10488274 -0.9419422 -0.48736054 -0.16007946 0.54909146 0.2175133 0.04393553 -0.10666589 0.1718006 -0.66026425 0.35363308 -0.50047725 0.044200733 0.042459574 0.8702894 -0.11347263 0.6017898 -0.2889094 0.26169136 -0.6903174 -0.84644896 0.6505082 -0.13599293 0.13431846 -0.19969325
16431 -0.32317203 -0.14315683 0.198717 0.076620564 0.42451087 0.017290665 0.38002804 -0.0109791085 0.32606205 -0.010364755 -0.19715919 -0.015647046 0.0063935597 0.32153964 0.6281877 -0.5862549 0.12260922 0.11635054 0.22877088 -0.26727694 0.24509506 -0.27255407 -0.108388945 -0.27122194 -0.645187 -0.2827931 -0.26028875 0.21091466 -0.44522658 -0.44539168 0.42890987 0.04029096 0.2907652 0.0426345 -0.44494283 -0.2292808 -0.19493088 0.37083817 -0.27721685 -0.47507778 -0.1982822 -0.010075903 -0.2976994 0.3279944 0.36541745 -0.17655636 0.66964215 0.108096786 0.2229889 0.50339687 0.16667819 -0.038058303 0.5723718 -0.4265433 0.2998579 0.022607576 0.39731535 -0.17394556 -0.11862864 0.64754236 -0.28007138 0.63067275 -0.15463524 -0.40302452 0.26298514 0.17587124 0.47083014 -0.24266039 -0.41600195 0.2746373 0.59014827 -0.15051411 -0.24019319 -0.5013726 0.21331555 0.5869361 0.12482149 -0.014080941 -0.25928688 -0.18492818 0.45508185 0.85550344 -0.6564585 -0.14503063 0.35573167 0.36458468 0.3611945 0.07941249 -0.53799164 0.01972514 0.2591694 -0.16100809 0.6882796 0.03865002 0.4318151 -0.2546778 -0.23450296 -0.44751588 -0.8551097 -0.19871624 -0.67228764 0.055413473 0.4645361 -0.38083473 -0.9726751 -0.34323695 -0.39676696 0.40233314 0.12967212 0.03471088 0.019200234 0.17550026 -0.44791138 0.64199823 -0.14850245 0.14616129 -0.36094907 0.95918745 -0.06868227 0.48827428 -0.16307446 -0.029490232 -0.56750095 -0.17989214 -0.076997034 -0.108782336 0.13466161 -0.182133
14996 -0.22356164 -0.22312127 0.20362552 -0.24693398 -0.1744333 -0.14077471 0.25505328 0.5269088 -0.0775482 0.15643485 0.018228253 0.23536845 0.24287866 0.5318169 0.26615095 -0.8268237 0.35063052 -0.41884616 -0.30444825 -0.06728862 0.091886625 -0.41676813 -0.47933462 -0.60029274 -0.6745547 -0.22474058 -0.29149535 -0.14763801 -0.15685035 -0.36335197 0.023701211 0.45438066 0.16913794 0.17826423 0.39840102 0.08544128 -0.14539552 -0.26815996 -0.4428235 0.30570704 0.05139043 -0.2250124 0.06195292 -0.2757167 0.2469549 0.07649545 -0.2451599 0.106841974 0.40537608 0.39583838 0.14223126 0.0844541 -0.39594588 0.01668034 0.32421166 -1.0166007 0.1818385 -0.31933898 0.4333365 0.8028065 -0.44622028 0.22079863 0.10789525 0.37121978 -0.036083568 0.6443009 0.37162134 -0.18650955 -0.35725257 0.18847801 0.15480132 -0.14403619 -0.6425853 -0.67586154 0.7904316 0.22669712 -0.273309 -0.046944685 -0.4180287 -0.30404475 -0.08391855 0.34829813 0.10540977 -0.08917699 0.9154853 0.076400846 0.24439833 0.58206266 -0.8264872 0.31431177 0.36923254 -0.2621144 0.4686219 1.0538802 -0.22957656 -0.4413876 0.16284366 0.031912502 -0.8901225 0.18877856 -0.89333874 0.39210403 -0.10658652 -0.2675376 -0.6176532 -0.4993728 0.477184 0.26168492 0.15342274 -0.20810829 -0.12234407 0.24486719 0.2893304 0.47757784 0.15703523 0.23362802 0.015077714 0.7154485 -0.35264716 0.27607152 0.43175697 0.2369052 -0.50071526 -0.5086537 0.33936042 0.5418032 0.5435582 -0.3429241
7781 -0.66244507 0.5009739 -0.28269124 0.13586679 -0.11870641 0.029492406 0.11821963 -0.07831333 -0.19729479 0.532437 0.12608571 0.50900483 0.57428783 -0.0056649446 0.52771926 -0.14736313 0.39506653 -0.61773336 -0.121061645 0.32516816 -0.27849773 0.0840112 0.15874189 -0.97027063 -0.64457166 -0.29433787 -0.06735502 -0.22606255 -0.620472 -0.022870319 0.8273305 -0.12953755 -0.062393833 0.7556585 -0.44057393 0.10065081 0.5378311 -0.05765849 -0.3882524 -0.01004596 -0.010735443 -0.50952303 0.3380977 0.028782481 0.07677833 -0.21242456 -0.4092973 -0.06250519 0.4718977 0.06458165 0.31467813 -0.27058008 -0.2540259 -0.18870804 0.10069546 -0.62971026 0.22363469 -0.07729777 0.12583336 0.62178594 -0.5158777 0.40987727 -0.24090357 0.20816556 -0.135811 0.51354146 0.08903155 -0.97944933 -0.05964541 -0.26115718 0.5463313 0.01126214 -0.067693755 -0.7170755 0.71348983 -0.2758937 0.28527635 0.17944656 0.36015803 0.59853995 0.6163419 0.6539847 -0.63046443 -0.024083996 0.8347499 0.11024986 0.24231179 0.58924794 -0.26414317 0.41015267 -0.08137951 0.17052753 0.58388525 -0.2892941 -0.096167795 -0.81765 0.24033955 0.13606723 -0.016484113 0.046860937 -0.5943036 0.52456546 -0.282041 -0.060913663 -0.8827656 0.08015198 0.14953089 0.17662013 -0.32263154 0.15384686 0.06652158 0.039602265 0.17366454 0.34434515 -0.57043713 -0.019500434 -0.555082 0.55244666 0.15988027 -0.49006727 0.4908069 0.36764514 -0.51683724 -0.2524047 0.31452093 -0.08291827 0.25947553 -0.21330126
13300 -0.22035067 0.52058506 0.28692257 -0.35220042 0.57094604 -0.09449314 -0.3756861 0.45669588 -0.082697034 0.52305907 0.39426595 0.26357082 0.16868691 -0.45108795 0.08735225 0.05155879 0.4441032 -0.3715385 0.47937542 -0.16891292 -0.7788351 -0.65867007 -0.38368177 -0.5657272 -0.4634209 0.14571771 0.00080899603 -0.24257675 -0.5138521 -0.09193917 0.40222937 -0.19197002 -0.17868723 0.55023295 0.045382563 0.6782045 0.20132826 -0.28748983 -0.57494 -0.11390994 -0.3224343 -0.104972914 0.69673645 -0.15944822 -0.27053887 -0.24116832 -0.010500429 -0.15012534 -0.32169923 -0.34942913 0.12151831 -0.09491514 -0.079413675 -0.80331206 0.3603745 -0.5558262 0.62029284 -0.07249428 0.6575156 -0.020871984 -0.24166404 0.3210921 0.37348464 -0.31159222 -0.09479018 0.1986506 0.5843135 -0.37827277 -0.018029664 -0.19507462 0.12718669 -0.19368619 -0.63448423 -0.36265156 0.044367123 -0.117550366 0.28617495 -0.15601663 0.09533106 -0.2422088 0.32935822 0.5665228 0.14424752 -0.31679314 0.013556379 0.2916866 0.4160993 0.34122467 -0.408256 1.0014639 0.10672016 -0.24614722 0.22766489 0.49114662 -0.48568302 0.040300213 -0.06416298 -0.4196266 -0.4503963 0.25237453 -0.7995722 0.42657658 -0.04303655 -0.15992472 -0.13213558 -0.16055357 0.21593603 0.21048066 -0.023246508 0.020947175 0.06888967 0.035991155 0.4461019 -0.18985634 -0.0055272607 0.0975373 0.03216185 0.32774812 -0.25478682 -0.29264703 0.21774447 0.037744947 -1.1460772 0.27874842 0.025878882 0.38608736 0.1936768 0.21708444
4061 0.362755 0.04232862 0.14801158 -0.31767455 -0.26347148 -0.10662448 -0.026386084 0.17806564 -8.944141e-05 0.4941197 0.5380896 0.17554305 0.6777069 -0.12965998 0.30294698 -0.06439253 0.52335805 -0.6003625 0.09651016 -0.2451057 -0.863904 -0.23065117 -0.45958912 -1.3075849 -0.14379069 0.09035845 -0.10728674 -0.45558348 -0.062383972 0.26570135 0.34305146 -0.005778029 0.14135355 0.5872739 -0.09353036 0.27727246 -0.16140898 0.11367656 -0.6974212 0.027144415 0.037639387 -0.20337938 -0.14962687 -0.5115414 0.302751 -0.4150438 -0.4054739 -0.3425339 -0.1110742 0.6703995 0.39356187 -0.29223165 0.51152533 -0.80252004 -0.07267073 -0.7408951 0.69733644 -0.2874913 -0.12375059 0.11702187 -0.89777356 0.69122255 -0.09610512 -0.07423118 -0.32369637 0.21077603 0.62929314 -0.47591534 -0.22449695 0.11313403 0.26432708 0.33987257 0.07915984 -0.2400957 0.3026843 0.40714863 -0.003114977 0.40451565 -0.123311 -0.032600578 0.28977618 0.84453106 -0.10264648 0.08575612 -0.0692559 -0.04413118 0.09991791 0.61883664 -0.19719888 0.6105723 -0.096026115 -0.0740078 0.90937364 0.44536075 -0.22790127 -0.15031801 0.00081746187 -0.3196583 -0.18881072 -0.6550054 -0.19928822 -0.09864859 -0.4044271 -0.21057557 -0.6255626 -0.12805656 0.08606906 0.3180341 -0.50624824 -0.044175915 0.57364243 0.23773345 0.28922564 0.2342456 -0.51525897 -0.33604518 -0.47604746 -0.07028953 -0.05402406 0.20797253 0.15531118 -0.2974612 -0.90173054 0.12896948 1.1358548 0.3313373 0.2383567 -0.2792326
4011 -0.19464351 0.39350948 0.28557768 -0.3507508 0.4971215 -0.18909617 -0.233847 0.42993194 -0.056875758 0.5526129 0.5466457 0.30582875 0.33816412 -0.6308093 0.19147137 -0.030472117 0.28001875 -0.34417683 0.49943045 -0.2566608 -0.7185424 -0.42590562 -0.2915857 -0.660483 -0.59664166 0.13352332 -0.18253845 -0.25710362 -0.54687804 -0.15441385 0.32318997 -0.19687642 -0.14744368 0.64655375 0.019540165 0.5421157 0.15748295 -0.35940012 -0.4215418 -0.1231148 -0.3512929 0.06750246 0.58301526 -0.34507978 -0.26702714 -0.20173915 -0.028892769 -0.17107989 -0.22715814 -0.21500139 0.11379222 0.072153755 -0.15542464 -0.6870748 0.4491351 -0.5611619 0.5675845 -0.28529283 0.5511706 0.061353 -0.11890836 0.27173567 0.38341936 -0.1759218 -0.022090638 0.17085382 0.7965795 -0.37726614 0.025736965 -0.2109125 -0.09782492 -0.120779335 -0.6827737 -0.44585884 -0.059984405 -0.123733304 0.38132077 -0.4035768 0.12521537 -0.07219006 0.37957934 0.6662663 0.23402894 -0.12026136 -0.17686772 0.34827992 0.7181722 0.32520884 -0.30286586 0.9319925 0.14713535 -0.38402686 0.22453994 0.542876 -0.5160738 0.06187463 -0.09769169 -0.57646626 -0.3327862 0.17589682 -0.92814684 0.43088973 0.13924508 -0.19599414 -0.30958182 0.075262144 0.20948553 0.03046663 0.07472789 -0.062644824 0.14988188 0.13490474 0.24671741 -0.1206551 -0.13889694 -0.065356605 0.14437787 0.2254054 -0.17122705 -0.20631875 -0.01885196 0.01371516 -1.1148875 0.32525826 0.040001404 0.46035945 0.09253433 0.08482363
14348 -0.34414515 0.43501732 -0.32339427 0.05351951 -0.21480179 0.2904375 -0.026875997 -0.13041092 -0.21258971 0.42031524 0.03005963 0.3250619 0.34083858 -0.10448526 0.81728977 -0.28487927 0.53962004 -0.5884058 0.019131599 0.16460192 -0.3584985 0.18484102 -0.0032257335 -0.92695904 -0.5917461 -0.14557683 0.0025199978 -0.32696703 -0.7733598 -0.013677622 0.856645 -0.37625423 -0.13232797 0.8223996 -0.69567347 0.08775717 0.5766061 0.035440292 -0.36749592 0.0033365046 -0.037905794 -0.5482306 0.31592703 0.21169488 -0.046715766 -0.20204642 -0.2558181 0.01558778 0.38156414 -0.020909006 0.05699257 -0.18369737 0.17352039 -0.31526673 0.07512864 -0.40456745 0.27409068 -0.08865816 0.053320974 0.39813724 -0.30686262 0.32347256 -0.21838795 0.40668157 0.18529531 0.23444375 0.016946439 -0.99542886 -0.12603372 -0.6873458 0.3938478 -0.04123692 0.028205916 -0.63401496 0.5803643 -0.21393202 0.08183426 0.2584302 0.33019206 0.49762928 0.69012153 0.5400912 -0.6618165 0.084773116 0.32806906 0.02282735 0.27380592 0.5457689 0.09384837 0.39085534 -0.22197272 0.03646267 0.40485576 -0.23886937 -0.2796834 -0.608283 -0.040446185 -0.07759681 0.13564363 0.09767074 -0.5488907 0.2934086 -0.35828537 0.14762974 -0.8565362 0.03412714 0.21385121 0.16755792 -0.27909333 0.04524374 0.06261445 -0.14319976 0.16946329 0.229954 -0.70356226 0.107289396 -0.7075584 0.36806074 0.36688176 -0.54417837 0.43362376 0.13061462 -0.37715936 0.09054734 0.27293286 -0.2834447 0.31624335 -0.16450177
9567 -0.12288481 -0.017870652 0.0071639647 -0.5370587 0.38656935 -0.07299674 -0.4535382 0.13639052 0.6114106 0.101921156 0.22616406 0.35601297 0.3371217 -0.33564365 0.7170039 0.32403412 0.09119198 -0.85798806 0.87916756 -0.30135393 -0.79543835 -0.023150489 -0.019096294 -0.81902057 -0.8723374 0.05016056 0.21384105 0.0991867 -0.5979283 -0.0015401441 0.6961139 -0.48892438 0.21618907 0.39357042 -0.49774477 0.1851192 -0.11239131 0.030170586 -0.7850853 -0.53366834 -0.44606453 0.4369185 -0.25719726 -0.39860827 0.38860005 0.00061795046 0.32767764 -0.49828285 0.3181026 0.60460573 -0.26999143 -0.056591786 0.98504883 -0.510815 0.159233 -0.4645427 0.72542113 -0.21121675 -0.21009973 0.40416268 -0.5453799 0.77507997 0.21176107 -0.3032496 0.05141195 0.5431489 0.52161366 -0.547191 -0.3368256 -0.095938794 0.42639157 0.03918848 -0.11770471 -0.018640118 -0.59416515 0.14516973 0.07616262 -0.05004871 -0.42617342 0.35024062 0.6354744 0.91265535 -0.4891383 0.48195508 -0.37304237 0.23446502 0.3154006 0.40696555 -0.43349308 0.19431536 0.03201488 -0.6299229 0.97013646 0.13048035 0.29040408 0.2937022 -0.3702911 -0.37761858 0.31806666 -0.72301227 -0.3555053 0.047540594 -0.20457573 0.08184713 -0.6760554 -0.18617317 0.0030573567 0.44585645 -0.3740283 -0.09263807 0.004200504 -0.22672606 -0.18707666 0.42115718 -0.52075833 -0.19930448 -0.8026473 0.41056958 0.0016004702 0.22659574 -0.2294996 -0.34395382 -0.91499877 0.35372332 0.60767597 -0.26543224 0.38611752 -0.102737
267 -0.055449914 0.4782525 0.042120203 -0.22847347 0.12361739 0.04319247 0.16798113 -0.027614268 -0.13263063 0.12077709 -0.16723055 0.41577125 0.21936978 0.009361829 0.6876881 -0.3218595 0.45612967 -0.27822405 0.30330598 -0.20126432 -0.082238406 -0.52035475 0.23801011 -0.7329256 -0.6871908 0.057286803 0.2576223 -0.36429337 -0.98498875 -0.24056982 0.22522883 -0.30012435 0.56826293 0.40969282 -0.24728237 -0.003527062 -0.1554145 -0.14223401 -0.46716204 0.0078077326 -0.5257837 -0.6486706 0.25579083 -0.12026359 0.33381084 0.13082793 -0.18819685 -0.18133381 -0.06971163 0.83603054 0.13445882 0.04724854 0.43088043 -0.29205337 0.03985307 -0.75251526 0.73770434 -0.5127474 -0.30517364 0.5759247 -0.3121776 0.30764672 0.59928876 0.014352283 -0.18809147 0.24034558 0.35875478 -1.005576 -0.36219397 0.4760321 0.30251202 0.48217133 -0.24930398 0.13605382 -0.03607052 0.16413604 -0.53052855 0.18478446 -0.22236602 -0.5927863 0.7395044 0.4471128 -0.13254128 0.25457004 0.0055673663 0.40678865 0.87720585 0.45777807 0.016035318 0.4277323 0.13103415 -0.2389195 0.68194807 0.66074806 -0.6385453 -0.5505317 0.22942263 -0.032300226 -0.88928294 -0.16892937 -0.4408522 0.25398266 0.23770149 -0.006081321 -0.8801429 -0.5306483 0.22233972 0.6983226 -0.47679964 -0.06299744 0.27657303 -0.30831423 -0.40815932 0.027268792 -0.3003976 -0.36904982 -0.42361712 0.34815124 -0.65277696 -0.054012295 0.6301419 -0.043853685 -0.6242418 -0.45126164 0.38498998 0.16233516 0.16534461 -0.00056979986
10264 -0.695102 0.61938834 0.32135305 0.022926332 0.5410742 0.21152528 0.115217835 -0.011323822 0.044376064 0.30851507 -0.39507025 0.09292976 -0.2219147 0.07152102 0.9974323 -1.0091995 0.4071394 -0.14725754 0.028349394 0.03965735 0.7481149 -0.1325149 0.0682481 -0.03351101 -1.2502087 0.2484474 0.025997773 -0.08084558 -1.1001031 -0.8058643 0.33956844 -0.22658037 -0.13682306 0.45333785 -0.23508821 -0.048358906 0.17497408 -0.30658886 -0.07832101 -0.10385274 -0.74940246 -0.36316478 -0.16942683 0.25632954 0.16395397 0.12699121 0.32170126 0.2205253 0.3668016 0.21044058 -0.2423108 0.040340707 -0.12741673 0.26948658 0.32319307 -0.14209163 0.17404382 -0.18848886 0.052127697 0.8313348 0.20628494 0.1365351 0.7858654 0.29450044 0.46296132 0.19140068 0.07002901 -0.6332286 -0.26184884 -0.208451 0.29482162 0.080774054 -0.2881648 -0.4531072 0.41055655 0.26230907 0.12451022 -0.19693543 0.09996472 -0.14710377 0.6213061 0.2539993 -0.4071518 -0.013531433 0.43219134 0.4561584 1.0439124 0.14826229 -0.427783 0.25955796 0.260004 -0.18419096 0.49373436 0.4019381 -0.36151603 -0.22330992 -0.3294695 -0.07656662 -0.62624913 0.5057627 -1.2349288 0.06056241 0.8411934 0.3248528 -1.0392646 -0.3779479 -0.085378885 0.24268697 0.32208255 -0.15317059 -0.57834935 -0.12254657 -0.18422179 0.1858532 -0.33217835 0.44393003 -0.017919814 1.1114749 0.1975505 -0.067737915 0.2070967 0.2653211 -0.3049028 -0.27113533 -0.47455963 -0.269507 0.46714342 0.09640177
4678 -0.34694922 0.055580746 -0.35707137 -0.44435728 -0.0432253 -0.6580794 0.0411738 0.19186895 -0.12589921 0.08924708 -0.049105473 0.46052456 0.63203484 0.27367494 0.4807432 -0.18856771 0.42742413 -0.45754716 -0.08471493 0.118062936 0.16393587 0.033081625 -0.11236665 -0.22449794 -0.622012 -0.11245048 -0.007870655 -0.18788527 -0.78567886 0.26156712 0.24401444 0.33881375 0.37735075 -0.2599087 0.086391285 0.1651016 -0.28520304 0.15905769 -0.07879973 -0.49716875 -0.15873109 -0.055911303 -0.45870513 0.008168283 0.5519988 0.32638302 0.19068009 -0.16950129 0.59070617 0.6154442 -0.011076711 0.35199305 -0.37705508 -0.15438719 0.14061584 -1.109364 0.7312743 -0.4420267 0.10905653 0.8168236 0.19559261 0.35252863 0.1501641 -0.630486 -0.28007495 0.24078639 0.03668141 -0.37929055 0.12783879 0.09133375 0.877773 0.15756324 -0.1035034 -0.23082782 0.121908866 0.07828435 0.09619387 -0.11701292 -0.5662743 -0.32641602 0.8473314 0.384793 -0.22259755 -0.17845729 0.46337765 0.5442964 0.26179492 0.09645843 -0.5167437 0.43412206 -0.09254539 -0.31254673 0.6949468 0.3359864 -0.2729472 -0.6518715 -0.4490282 0.11199504 -0.12410364 0.025070017 -0.3204239 0.08354499 -0.034730345 0.5379192 -0.5939175 -0.14249504 -0.0021565962 0.34134367 -0.09613906 0.0323469 -0.3437547 -0.008329162 -0.13239886 0.42670202 -0.33669052 0.4214344 -0.45557207 1.104908 -1.0402586e-05 0.48839778 0.4774429 0.5783947 -0.61145324 -0.08661893 0.35261926 -0.07559341 0.16425554 -0.37648213
19384 -0.15373398 0.43131512 0.31010655 -0.19800322 0.38178438 0.21554516 0.051307663 0.1609383 0.022962404 0.57375515 0.14132887 0.10268043 0.36825046 -0.26725662 0.7079395 -0.69658864 0.43592277 -0.5025321 0.1048364 -0.29402632 -0.61324996 -0.26204476 -0.10788364 -1.079996 -0.7555712 0.2043459 -0.026966069 -0.16629763 -0.8240116 -0.058754258 0.49712452 -0.09680837 0.08904707 0.6316828 -0.33807036 0.15272306 0.20656209 -0.07250916 -0.4853671 -0.073926166 -0.470793 -0.30082786 -0.059177667 -0.124762945 0.13844799 -0.24397188 0.052940693 -0.06413116 0.15658198 0.6931674 0.22492091 -0.014154914 0.6870197 -0.7063098 0.24618378 -0.66892827 0.59668833 -0.35136884 0.10956166 0.48059428 -0.5678 0.6154255 0.38546962 -0.043212693 0.28182426 0.12966491 0.4462757 -0.68981564 -0.41044635 -0.08429615 0.23330972 0.14655773 -0.20095724 -0.5035267 0.29123905 0.48616496 -0.058724385 -0.0048236353 -0.17156117 0.087085694 0.6775329 1.055491 -0.5435172 0.3236775 0.055133406 0.4131875 0.8281496 0.34850565 -0.19406322 0.33597624 0.31560758 -0.2193696 0.8438156 0.49639878 -0.26458764 -0.05831789 -0.14469524 -0.44731772 -0.51015604 -0.5286069 -1.0261773 0.21230613 0.12978412 -0.18566778 -0.9475222 -0.34655133 0.002125334 0.6218009 -0.04973281 -0.022844436 0.15456772 -0.17782465 -0.18914828 0.39841804 -0.41485468 -0.07475375 -0.45532665 0.68847835 -0.1753854 0.15790692 0.07347579 0.0009876095 -0.91089576 0.027342457 0.38704428 -0.0006884186 0.3071503 -0.3158303
6625 0.3396934 0.048196107 0.16773595 -0.3394122 -0.28638747 -0.1012579 -0.016870951 0.24273604 -0.019601448 0.49694675 0.54127073 0.20422031 0.6619783 -0.13392977 0.3081131 -0.080577865 0.5469131 -0.6146975 0.10492389 -0.24227059 -0.8771136 -0.3032842 -0.48865464 -1.3109426 -0.16297625 0.07330906 -0.11477268 -0.43789515 -0.07559872 0.26661563 0.36282462 0.024998572 0.15131734 0.57012916 -0.09860176 0.2986429 -0.13881305 0.124920525 -0.69929534 0.024471775 0.06285464 -0.19904003 -0.11289243 -0.4901317 0.2605327 -0.42558154 -0.41880274 -0.3206553 -0.083215915 0.70341796 0.39856082 -0.30814448 0.4674361 -0.83840734 -0.054755464 -0.79235154 0.73495203 -0.3089208 -0.11831932 0.15018196 -0.92337507 0.70693064 -0.119711824 -0.07719131 -0.3196309 0.24266928 0.6351666 -0.44341478 -0.23985107 0.11979603 0.25978306 0.28910908 0.027900854 -0.26383415 0.28369513 0.4168985 -0.0040384205 0.4102673 -0.15542527 -0.050184824 0.29189432 0.86968994 -0.08867287 0.044792235 -0.051463947 -0.02408466 0.08726304 0.57329 -0.2503852 0.6159559 -0.082351014 -0.10780079 0.9018684 0.4684149 -0.2316995 -0.17054477 0.00068823516 -0.29897574 -0.22792605 -0.6496481 -0.23863688 -0.06624784 -0.40696856 -0.20494096 -0.63341385 -0.15122087 0.114077345 0.34676903 -0.4859074 -0.034851413 0.5915601 0.23764344 0.30133668 0.2828565 -0.4739743 -0.32496163 -0.48013294 0.005254755 -0.016234763 0.19944146 0.15347111 -0.3058301 -0.91581446 0.10195074 1.1082945 0.37266532 0.2509241 -0.28117162
4453 -0.18262428 0.028824326 0.011900744 -0.28810462 0.21872261 0.0173012 -0.05077755 0.33095214 -0.010258822 -0.052821986 0.0022334529 0.17527898 0.1050184 0.34755126 0.3083042 -0.3275279 0.75604886 -0.2880555 0.04607736 -0.28400367 -0.28454494 -0.3684838 -0.4481392 -0.28092018 -0.16384216 -0.012551978 0.14573348 0.55131423 -0.0032013895 -0.09117301 0.6741808 0.39803737 -0.29691428 0.38603047 0.3083359 0.18956275 -0.092985824 -0.008777541 -0.37019405 -0.36144266 0.11194617 -0.16896327 0.3378061 0.28321877 0.20822908 -0.31243622 0.1524509 0.22932537 0.12785089 0.036010005 0.09776691 0.14607044 -0.013009697 -0.38855037 0.03221048 -0.805252 0.26809594 0.21582869 0.6031026 0.44398728 -0.7267695 0.29633886 -0.14916863 -0.22566965 0.09880489 0.3309289 0.56927854 -0.23859881 0.0002689361 -0.129426 0.6471007 -0.014748826 -0.29931366 -0.7196601 0.5009078 -0.117068045 0.49473014 -0.07641377 -0.21035968 -0.38262045 0.23182757 0.6412464 -0.3933802 -0.31308028 0.81374645 0.18376218 0.3285126 0.33567286 -0.70750684 0.91343224 0.14752932 -0.14122778 0.49449274 0.26861334 -0.12318244 -0.26998043 0.028525138 -0.43406364 -0.9396052 0.047521915 -0.5733756 -0.020444972 -0.11093012 -0.15161534 -0.27833614 -0.72114944 -0.030472914 0.1644703 0.2989895 0.19119026 -0.5411414 0.26603195 0.5193397 0.32788926 -0.11372718 0.7025456 -0.26536778 0.78054595 -0.12344666 0.121794276 0.4481554 0.34305957 -0.88226056 -0.15278132 0.1607979 0.21936384 0.24386045 -0.113551766
4801 -0.08108564 0.13409775 0.28006077 0.31901303 0.17260082 0.4260863 0.23289663 -0.35486147 0.28504816 -0.37527415 -0.36991638 0.119722135 0.48937863 0.21665458 0.8251479 -0.54672056 -0.18163158 -0.6483922 0.015240083 -0.20470655 -0.15305778 0.16015464 -0.13074796 -0.9736914 -1.2093537 -0.22812973 -0.06889327 -0.37008414 -0.29415122 -0.4561608 0.020531366 0.050224047 0.33072147 -0.18175013 -0.094010845 -0.09421969 -0.15741454 0.46679294 -0.32270715 0.2745598 -0.27224532 -0.32209313 -0.1536022 -0.015303351 0.6320694 0.03096113 -0.04451619 0.016249288 0.54846495 0.82593423 0.044021968 0.012925141 0.80338925 -0.11383098 -0.18055679 -0.25014994 0.1599349 -0.422181 -0.10911925 0.886051 -0.5257208 0.6179821 0.49905747 0.15655723 -0.2791955 0.37224135 0.07847013 -0.6253707 -0.57075524 0.21757062 0.41734314 0.33560178 0.041808706 -0.42040795 0.21641047 0.47082734 -0.63252676 0.24698493 -0.30897346 0.52527505 0.37408453 0.60177004 -0.3611363 0.56269616 0.22676022 -0.07113014 0.35677534 0.62335145 -0.25971723 -0.5724372 0.087696075 -0.21422954 0.8356758 0.44411507 0.007123501 -0.092397474 0.23674163 0.021280775 -0.6140806 -0.61002326 -0.69507736 0.088656075 0.16495885 -0.17054036 -1.3450654 -0.26442394 0.6316019 0.46556288 -0.58604825 0.06214629 0.030614678 -0.19360667 -0.17516205 0.47379342 -0.5162152 -0.38061953 -0.066108294 0.5092058 -0.076115586 0.63361794 -0.10059926 -0.08350362 -0.48954067 -0.67643934 0.7795314 0.019138204 0.26377505 -0.45116696
6337 0.30386287 0.90525395 0.24657153 -0.5195875 0.2997402 -0.10053059 0.2659601 -0.592767 -0.4015154 0.41826692 0.17275053 0.24687809 0.13573487 -0.15829602 0.276323 -0.41567653 0.121950895 -0.5887915 0.23810829 -0.5523656 -0.0501547 -0.06257146 0.20434707 -0.7178452 -0.8331956 -0.15818705 -0.17016742 -0.31636232 -0.430667 -0.2814263 0.32872564 0.06845508 0.3638327 0.8138867 -0.4662275 0.1147528 -0.10500874 0.31166822 -0.5294245 -0.10991639 -0.793927 0.13881871 -0.20775133 -0.42867634 -0.2216341 -0.3856905 -0.08976074 -0.14191906 0.20600179 0.6794129 0.25932413 0.09439218 0.06814757 -0.44662443 0.1080592 0.10005603 -0.04632469 0.25955966 -0.39622763 -0.026228648 -0.33872014 0.6687326 0.092303984 -0.4416013 0.23739092 -0.23630424 0.28868616 -0.5627203 0.21906771 0.30839917 0.5297144 0.75175506 -0.023470148 -0.53723025 -0.2341243 0.638927 0.1936083 -0.06750961 -0.37049633 0.3394894 0.7207686 0.41478184 -0.4142747 0.142337 0.046412695 -0.16106904 0.06898331 -0.3824234 -0.74227375 0.038965728 -0.21556744 -0.6701614 0.75505507 0.27236408 -0.10810425 -0.46860886 0.065698095 -0.22772591 -0.48493913 -0.48401204 -0.24605687 -0.47404632 0.50841796 0.18911408 -1.1886276 -0.5206029 0.2746965 0.62905073 -0.19855274 0.18114805 -0.2511434 0.08657815 -0.044073846 -0.19323626 -0.8270649 -0.28490674 -0.17064933 0.6819348 0.115953945 0.21022545 -0.14277802 -0.44422624 -0.49575412 -0.44261733 0.6044843 0.06865505 0.0508684 -0.07444108
6398 -0.07072648 0.07634105 0.07809347 -0.5889177 0.38906798 -0.052104875 -0.47098303 0.060207393 0.55358124 0.19360313 0.30754063 0.46509823 0.3639535 -0.44806007 0.73851997 0.31573966 0.03379968 -0.780875 0.9469834 -0.32874846 -0.7451648 -0.017040439 -0.005665807 -0.84509414 -0.9827408 0.012616769 0.17050819 0.055055816 -0.6722284 3.8984253e-05 0.8015438 -0.46455503 0.17611225 0.39166778 -0.59935665 0.15276232 -0.073420085 0.08733295 -0.78689945 -0.55125195 -0.47180036 0.4427551 -0.24368198 -0.48083174 0.3506642 -0.020222131 0.36981526 -0.5548814 0.352319 0.65843344 -0.2725996 -0.031665824 1.0260046 -0.3763312 0.19078818 -0.29271722 0.77630186 -0.20176524 -0.20435777 0.4105814 -0.4988061 0.79810625 0.22969545 -0.28304434 0.05575076 0.48020267 0.5767507 -0.6518135 -0.32172388 -0.101649985 0.37593508 0.0014296904 -0.03502035 0.052415315 -0.6793597 0.08118911 0.10381306 -0.027011244 -0.3578833 0.45292506 0.81618035 0.81744564 -0.44770598 0.5248713 -0.33938968 0.28281313 0.27379596 0.35688648 -0.46784496 0.14183772 -0.0076473504 -0.59959733 1.0373989 0.04340694 0.1921592 0.21001978 -0.43873504 -0.37489146 0.3318473 -0.6606387 -0.43951932 0.064638704 -0.16404136 0.12886411 -0.7610965 -0.22179022 0.05019612 0.4230608 -0.5096636 -0.05600031 0.080367945 -0.27663934 -0.106241055 0.394004 -0.6087159 -0.22558413 -0.76459104 0.45320702 0.042547584 0.19779196 -0.24694571 -0.38369012 -0.9510719 0.28849396 0.60583323 -0.33197477 0.4079695 -0.19759555
891 -0.1914895 0.43011144 0.2787006 -0.25178495 0.3487399 0.008758375 0.15524961 0.20384796 0.044205353 0.50245476 0.091238156 0.20309539 0.334367 -0.17137203 0.7092609 -0.65508366 0.41761076 -0.46923766 0.12623815 -0.24406858 -0.34274885 -0.39118457 -0.078312434 -0.8269871 -0.8461122 0.12272842 -0.03654578 -0.1918945 -0.7867034 -0.18400554 0.48453456 -0.05079102 0.12753867 0.5157382 -0.27223876 0.07288045 -0.0017096079 -0.04352509 -0.4831298 -0.13334322 -0.56025463 -0.18950164 -0.10543965 -0.10769087 0.19334537 -0.17726693 0.10375942 -0.114621535 0.24210234 0.5791158 0.080615655 0.09424034 0.4567295 -0.52133346 0.32699254 -0.60697865 0.44056037 -0.30888897 0.1234339 0.6097697 -0.39613882 0.62570244 0.34146532 -0.117169745 0.15006374 0.15357363 0.4028933 -0.6583954 -0.3227028 0.04953768 0.36296836 0.18501095 -0.22979109 -0.427012 0.27621743 0.39757136 0.09960053 -0.16210246 -0.2636143 -0.05687332 0.7566544 0.8473183 -0.48056105 0.1201101 0.208096 0.343403 0.6866523 0.3770755 -0.4392959 0.37762457 0.23562713 -0.22301069 0.8242471 0.4517254 -0.32640022 -0.2670023 -0.16085263 -0.3510143 -0.52773213 -0.3135346 -0.96227646 0.10761371 0.32671335 -0.11161552 -0.938217 -0.41655228 -0.0063579525 0.5131124 -0.024013316 -0.07781283 -0.0029365094 -0.057252973 -0.03904074 0.35082054 -0.40810996 0.066951334 -0.41741097 0.73703873 -0.19234142 0.21122906 0.16481127 0.039362956 -0.88606787 -0.1722324 0.27495793 0.0656713 0.44714937 -0.3083885
