1000 128
3499 -0.2273214 -0.12597905 0.108579874 -0.20968264 -0.009466474 -0.16469485 0.26935285 0.4284548 -0.13891143 -0.0065719895 0.025763385 0.23706365 0.1561395 0.55316156 0.21878783 -0.5801829 0.6151436 -0.19169569 -0.079655 -0.28957948 -0.04023361 -0.468236 -0.45483196 -0.4408907 -0.3027014 -0.09962389 -0.022043088 0.38873672 -0.1391248 -0.06874383 0.27413285 0.5834448 0.22672834 0.07683355 0.3124879 0.09658792 -0.0704639 -0.04210854 -0.3628396 -0.16078821 0.2048025 -0.19616984 0.06724663 0.16699228 0.3903235 -0.09941166 -0.16464399 0.2717911 0.37024695 0.5121182 0.22632001 -0.11170476 -0.30629972 -0.3659355 0.10466025 -1.0269713 0.49103305 -0.11995259 0.34881586 0.7302295 -0.6328831 0.27808288 -0.1889305 -0.28582412 -0.008363444 0.36464038 0.43880436 -0.084399484 -0.27429017 0.29169914 0.59468764 -0.082976766 -0.35448816 -0.800244 0.62692666 0.26881787 0.25913584 0.014621178 -0.4827053 -0.52354366 -0.028660964 0.5125632 -0.048937622 -0.14471327 0.58333576 0.19859894 0.43832326 0.16480178 -0.8660182 0.6524876 0.2101772 -0.29485857 0.55137706 0.71273005 0.049127515 -0.35536286 0.018134652 -0.24212009 -1.0045975 0.06971122 -0.72140443 0.053871267 -0.032037962 -0.21259455 -0.42852855 -0.56574154 0.15954314 0.29758006 0.2720603 0.017453572 -0.35468358 0.26504555 0.198734 0.4803802 0.23978907 0.44425827 -0.05324147 1.0351957 -0.13849515 0.32509777 0.39883024 0.31928167 -0.6028972 -0.3446956 0.2948126 0.41732976 0.28047135 -0.22081184
8351 -0.24035446 0.29504773 0.3986582 -0.29368782 0.5182359 -0.41601261 -0.046135783 0.39399898 -0.061449736 0.7308949 0.62050515 0.5779896 0.56876695 -0.59205854 0.15857705 -0.11912185 0.16499357 -0.17052762 0.40400556 -0.09556863 -0.398775 -0.18317634 -0.12314383 -0.97156847 -0.6482767 0.2267828 -0.33937904 -0.10755996 -0.5843917 -0.20344582 0.026175527 -0.14312494 -0.091116354 0.6481366 0.042287625 0.13524826 0.1134237 -0.42236272 -0.26837996 -0.01768542 -0.25465104 0.037617322 0.12954769 -0.54757833 -0.06540601 -0.004343174 -0.2658563 -0.26109195 -0.10119963 0.14323053 0.04039106 0.2792305 -0.337399 -0.4915822 0.44950163 -0.6015648 0.6675794 -0.54008317 0.48374635 0.15227008 0.04555978 0.3050568 0.29902983 0.041650016 0.045764793 0.024085654 0.777171 -0.078868695 0.24733692 -0.2439057 -0.25781158 0.11704006 -0.471363 -0.5375271 -0.029883591 -0.20452613 0.29483724 -0.32013714 0.14597833 -0.05938175 0.31862807 0.6694411 0.14384703 0.12903321 -0.12417622 0.5375159 1.0052977 0.26603743 -0.1591565 0.8607691 0.18607306 -0.474222 0.23394366 0.5709042 -0.47664285 -0.1344761 -0.25447023 -0.61877245 -0.009746833 0.21537916 -0.94307643 0.30531523 0.3765696 -0.01812936 -0.4534348 0.13961157 0.03745828 -0.1740959 0.1359623 -0.27350947 -0.01564277 0.07080431 -0.008440021 -0.102590665 -0.16521327 -0.04150831 0.250521 0.43660352 -0.07184811 -0.21233241 -0.14816667 -0.02011929 -0.91618425 0.168222 0.06721494 0.4228842 0.099362426 -0.035089653
21907 -0.24437398 0.30309442 0.2820854 -0.2982621 0.48062107 -0.37211168 0.0070303828 0.34517226 -0.061605 0.6991198 0.6478026 0.496233 0.5480401 -0.5751436 0.16710345 -0.08212178 0.28871638 -0.19958846 0.3966986 -0.11856783 -0.4645228 -0.27293885 -0.2332616 -0.930263 -0.58494765 0.1990806 -0.36140797 -0.064492814 -0.5970572 -0.21322632 0.08470301 -0.14925511 -0.053899717 0.70094174 0.134504 0.23084044 0.09999121 -0.45477933 -0.29890263 -0.008761866 -0.27704513 0.08305377 0.250269 -0.5395013 -0.11597169 -0.07002727 -0.20602927 -0.21784906 -0.08697823 0.091389365 0.13865353 0.23190096 -0.26237825 -0.6235992 0.45192873 -0.6310167 0.6940541 -0.5488825 0.44552743 0.11053852 -0.010990695 0.299316 0.25368646 -0.02035974 0.04540193 0.0033236053 0.81258065 -0.09552261 0.13446808 -0.21512121 -0.14205024 0.09902623 -0.48957896 -0.57864213 0.017440816 -0.1788517 0.35635248 -0.35871914 0.1027114 -0.06892265 0.38059506 0.6994056 0.14887683 0.08280888 -0.1171241 0.5152848 0.9761297 0.32074302 -0.2178957 0.91082793 0.20347357 -0.44407445 0.26384646 0.537656 -0.4500714 -0.08424337 -0.24328427 -0.65457356 -0.12452174 0.14935991 -0.91212124 0.29788053 0.32794327 -0.119940236 -0.46503213 0.16642994 0.029670447 -0.15932295 0.16474546 -0.2615159 0.049305018 0.17329147 0.09571676 -0.11111316 -0.20083451 -0.08040539 0.21674329 0.3834116 -0.09186855 -0.21863799 -0.12321895 -0.033360623 -0.95886 0.25142506 0.11429236 0.46797562 0.10565745 -0.041217323
7822 -0.2643565 0.29969227 0.34057757 -0.18793552 0.47837383 -0.3134876 0.016866516 0.37112325 0.09625623 0.6433037 0.61578834 0.43005162 0.5256642 -0.6636893 0.1903679 -0.2167094 0.22555062 -0.15014423 0.25652495 -0.22117208 -0.42606872 -0.2860936 -0.15033042 -0.83442456 -0.5179691 0.250877 -0.29856628 0.04019254 -0.6050162 -0.21389571 0.22468297 -0.18344983 -0.07482059 0.63422227 0.22294359 0.20720963 0.16076277 -0.48257515 -0.16980246 0.07174726 -0.33344042 0.16737154 0.22478442 -0.4660366 -0.12211134 -0.011551023 0.055136856 -0.1370204 0.031289723 -0.033521768 0.14019066 0.31539717 -0.15913978 -0.61050314 0.43990993 -0.4680798 0.61047715 -0.45970666 0.49051908 0.17074677 0.0716915 0.30056196 0.273916 -0.037028495 0.19397658 -0.19833799 0.973245 -0.057996597 0.09001113 -0.31309724 -0.13886796 -0.03423977 -0.4937289 -0.60370654 -0.017839087 -0.24578768 0.38627484 -0.51507515 0.1527797 0.06999782 0.45834407 0.75885653 0.11265885 0.12930371 0.010683354 0.56548166 0.8673916 0.29738846 -0.23828383 0.8170416 0.32297188 -0.41916952 0.2608507 0.3884241 -0.4000237 -0.116581015 -0.19622621 -0.66328603 -0.18893261 0.027257418 -0.98195404 0.3632504 0.38383928 -0.19584353 -0.43844166 0.10466723 -0.012057107 -0.2126004 0.1808662 -0.15953305 0.12844121 0.114925034 0.12353589 -0.09784208 -0.2906624 -0.012476467 -0.053424526 0.33043876 -0.111372426 -0.18390025 -0.21935004 0.05742286 -0.95777476 0.2090798 -0.0034353272 0.43242484 0.09000523 -0.14403169
1689 -0.40686956 0.18308318 0.05640538 -0.1566639 0.0071065635 -0.08122735 0.17693771 0.4362114 0.17794791 0.46606165 -0.005015508 0.2177114 0.40882424 -0.0595119 0.73959076 -0.67241925 0.58934987 -0.42066163 -0.009152423 -0.016783379 -0.3769076 -0.3909024 -0.17860112 -0.8382568 -0.7267688 0.2292722 -0.14114134 -0.17616853 -0.74779063 -0.11891667 0.25682995 0.007965729 0.27890348 0.1780971 -0.012534998 -0.14668566 0.0065312022 0.010239602 -0.3525289 -0.15351373 -0.13167343 -0.21964534 -0.14657973 0.11082813 0.486249 -0.10783413 -0.059040662 -0.06638528 0.32219133 0.5727383 0.26293817 -0.08695013 0.4215524 -0.41060027 0.26683855 -0.91268396 0.6048997 -0.7021022 0.2368331 0.8396973 -0.4075263 0.63512254 0.20115387 0.09028375 -0.079349265 0.25902838 0.29906127 -0.6470133 -0.5161302 0.06509987 0.36387843 -0.036226783 -0.19514619 -0.41688603 0.44861588 0.43876335 -0.044981394 -0.0030026096 -0.31714216 -0.23850195 0.65324455 0.9076154 -0.39847475 0.03483803 0.27197835 0.4087773 0.58885115 0.73988086 -0.19301869 0.2808307 0.21807504 -0.10215571 0.7089556 0.46436435 -0.28234088 -0.3245789 -0.13293594 -0.20308502 -0.3646103 -0.32110935 -0.825321 0.31644905 0.12779355 -0.0607792 -0.76144934 -0.08378411 0.06943861 0.31354642 -0.056987207 -0.15111952 0.12975873 0.030875841 -0.21667893 0.41478646 -0.24204227 0.10770191 -0.5237214 0.805559 -0.22928928 0.32283345 0.18777588 0.19760236 -0.7923585 -0.1004484 0.22468065 0.105415225 0.4995147 -0.48915526
18856 0.11677557 0.1176915 0.115613766 -0.20751408 -0.25455806 0.2965294 -0.06485354 0.17196585 0.015327853 0.27974063 -0.14950301 0.05738666 -0.02349939 0.16041748 0.93606234 -0.74603677 0.65996176 -0.82139 -0.19511291 -0.05515231 -0.43780422 -0.07946249 -0.5906097 -0.7364132 -0.6995786 0.21840599 -0.33008337 -0.43091083 -0.879652 -0.18450373 0.50848705 -0.0024339706 -0.28345236 0.5716406 -0.51778406 0.09281998 0.30108958 0.047725357 -0.32756025 0.07115089 0.096680924 -0.4761489 0.11349975 0.22010311 0.027120113 -0.1800556 -0.017795607 0.11800326 0.27468053 0.17970365 -0.18196294 0.04878113 0.46919033 -0.32792193 -0.025847761 -0.45177606 0.26165146 -0.07520858 0.19223718 0.5498283 -0.1339645 0.012168054 0.0012838307 0.7417067 0.60529536 0.10348505 -0.069131084 -0.6663335 -0.4181527 -0.9864071 0.15211478 -0.37507883 -0.17933959 -0.81233525 0.5838987 0.18480706 -0.27992922 0.18290603 -0.057288345 0.01729529 0.35803697 0.40231636 -0.34553948 0.03152743 -0.16471988 0.038733598 0.11836112 0.40441808 0.16571876 0.40162158 -0.18585901 -0.08464178 0.29993284 0.1308863 -0.8370289 -0.21471278 -0.11287746 -0.3375693 -0.2256124 0.5406815 -0.6616732 0.18897435 -0.27930877 0.09251689 -0.68695885 -0.2513664 0.25478417 0.18474793 0.10875599 -0.033696916 -0.19226934 0.12614936 0.3956496 0.18160649 -0.57955647 0.40081677 -1.0131122 0.32534483 0.3844307 -0.1373188 0.4519745 -0.098053776 -0.30727878 0.39806786 0.26734298 -0.15471932 0.25741485 -0.43897262
15976 -0.72961384 0.41089314 0.11011305 0.09647025 0.45303655 -0.19329593 0.1432691 -0.213738 0.12820442 -0.017924933 -0.50820154 0.24448031 -0.083890036 -0.23832591 0.6345056 -0.43611065 0.4291468 -0.3230682 0.27182487 0.21575736 0.62355334 -0.17019404 0.18462197 -0.0009502556 -1.2900784 0.09583689 -0.12660584 -0.12161581 -1.0672023 -0.5733826 0.3917957 -0.35393068 -0.22230487 0.47144663 -0.117588274 -0.09847379 -0.12052654 -0.13235936 -0.12769783 -0.12026764 -0.6771461 -0.2736402 0.07877626 0.1491197 0.03486717 0.13796468 0.43228418 -0.02261209 0.31654304 -0.16446704 -0.3704464 0.32282797 -0.024959724 0.14612797 0.5012794 -0.5121775 0.112749375 -0.35131302 0.24781051 0.7074969 0.48218822 0.24868971 0.41531613 0.11642578 0.19950582 0.036696926 -0.029004626 -0.8404129 -0.26887015 -0.10319796 0.3479473 0.019456713 -0.24911427 -0.34755507 0.20855798 -0.07180114 0.13586879 -0.4005519 0.036324404 -0.03781656 0.74407524 0.4299032 -0.48817077 0.058659747 0.38653204 0.45958295 1.0370783 0.494883 -0.5256459 0.26463982 0.21852139 -0.084591225 0.5106162 0.23332614 -0.35428673 -0.52284974 -0.2580858 0.061897945 -0.49773547 0.53049046 -0.7523188 0.06586143 0.77786523 0.16515039 -0.9239515 -0.2633071 -0.24270898 0.06276146 0.26245284 -0.12234551 -0.71904814 0.15540005 -0.046664488 0.14942305 -0.52561754 0.48664248 -0.2458151 1.1644549 -0.103663854 -0.07165946 0.34468302 0.25098673 -0.1867532 -0.21430607 -0.34475717 -0.23422727 0.55981195 -1.8107792e-05
12496 -0.18052796 0.015917562 0.37911966 -0.20695634 -0.014873455 -0.30156735 0.18440019 0.5735308 -0.2466797 -0.22027105 -0.16525581 0.23137818 0.19329284 0.549976 0.4391443 -0.86516345 0.64169794 -0.24472208 -0.34396073 -0.10180868 0.02665275 -0.7165226 -0.2509193 -0.5458655 -0.40999514 -0.21991324 -0.044502527 0.103294596 0.013622745 -0.16745652 0.16297854 0.57018995 -0.071203865 0.03295175 0.47183275 0.17776395 -0.003492079 0.1764078 -0.503245 0.14118046 0.25203022 -0.17456833 0.21134523 0.24184754 0.37877995 0.030579412 -0.080149144 0.3357524 0.3257871 0.6241551 0.119855106 0.027783353 -0.31264254 -0.17144662 0.123988986 -0.77707785 0.3389034 0.06488932 0.41485998 0.60053295 -0.56604105 0.23526412 -0.08268054 -0.2359841 -0.007428941 0.42641422 0.6853121 -0.15676814 -0.2882802 0.26448855 0.5339854 -0.19458999 -0.27581915 -1.0438476 0.67907697 0.3809023 -0.10169314 -0.18160844 -0.38365936 -0.3845368 -0.086033866 0.46607244 -0.12436025 0.061305318 0.83523667 0.11993402 0.4727598 0.37984553 -0.8017026 0.22119421 0.20239787 -0.40574902 0.589763 0.9251482 -0.3689415 -0.18841389 0.044176735 -0.0037826675 -1.0235159 -0.11032998 -0.7052626 0.09979955 0.2933154 -0.21369016 -0.43463367 -0.65038335 0.23552848 0.24892588 0.2267629 -0.06770393 -0.48034504 0.30457032 0.0836116 0.28686622 0.091005154 0.3709645 0.11127953 0.87504745 -0.20580919 0.51660794 0.31160432 0.26672354 -0.55567944 -0.7105962 0.26844966 0.42740622 0.47103924 -0.24549417
12783 -0.21343945 0.2837239 0.30142307 -0.29103127 0.44009003 -0.30482468 -0.059927378 0.38193738 -0.026385989 0.66165704 0.65078676 0.4477532 0.53668857 -0.59142506 0.17397836 -0.089125976 0.27258798 -0.20277463 0.37649307 -0.15965056 -0.51026464 -0.30139375 -0.23913825 -0.87356895 -0.5502572 0.19654672 -0.28567773 -0.09295012 -0.5436833 -0.18590863 0.19379686 -0.15013044 -0.100724384 0.64320123 0.117317885 0.3018017 0.09194013 -0.42836556 -0.259945 -0.062192738 -0.24640335 0.078197315 0.2639568 -0.4805039 -0.11883534 -0.087236136 -0.14230551 -0.17538579 -0.103225194 0.066088945 0.11419835 0.21387129 -0.21932122 -0.61071396 0.40496933 -0.54430073 0.645434 -0.47537726 0.45360988 0.12647489 -0.08015985 0.28094366 0.25241065 -0.064670816 0.02460158 0.044034306 0.8295453 -0.16038747 0.14162554 -0.2279951 -0.14996764 0.035888918 -0.48756135 -0.56302255 0.031808004 -0.15906803 0.4046867 -0.30482796 0.15189275 -0.049171995 0.37139875 0.71296453 0.1794909 0.012107653 -0.13555135 0.4734387 0.89518815 0.31621775 -0.22008356 0.92044574 0.18475777 -0.3891621 0.26232016 0.44142133 -0.47497353 -0.05964151 -0.20142323 -0.66114545 -0.1424962 0.109096445 -0.9404534 0.28478464 0.24032873 -0.11683669 -0.4529276 0.11871765 0.013649822 -0.13832256 0.12883972 -0.18847372 0.10287004 0.15317644 0.15332094 -0.059286065 -0.2317095 -0.07224907 0.14686915 0.2854373 -0.075062506 -0.21337798 -0.118670315 -0.00675134 -0.949912 0.24762101 0.121343605 0.48278797 0.11190108 -0.067838766
19753 -0.31907263 0.5552913 0.1917237 -0.38552004 0.35121074 -0.08200727 0.057967443 0.27937555 -0.076221615 0.57708746 0.15351018 0.35534018 0.40255347 -0.10498712 0.61335534 -0.52928734 0.7272581 -0.6804024 0.20087077 -0.17695129 -0.6496977 -0.5779569 -0.33371803 -1.0955443 -0.9993105 0.12495719 -0.15289465 -0.28897798 -0.84760386 -0.060072094 0.47762287 0.06071112 0.19860037 0.6231264 -0.15681946 0.29573423 0.06576483 -0.019573826 -0.7021147 -0.1403168 -0.45852435 -0.23619121 0.25650656 -0.1433903 0.21578237 -0.3275193 -0.062345736 -0.15064487 0.18798272 0.51518756 0.3857289 -0.19407319 0.25687975 -0.90448654 0.28512844 -0.97413296 0.87777555 -0.3587614 0.30665305 0.5423342 -0.61313546 0.8202097 0.22247991 -0.2928167 0.04668901 0.2585189 0.4864544 -0.7579137 -0.51207346 0.09768316 0.5532659 0.023040596 -0.4457127 -0.61206025 0.3721259 0.46870726 0.14871481 -0.027279068 -0.427912 -0.20093362 0.7123252 1.0691909 -0.39718577 -0.17202337 0.2077053 0.4217423 0.6433937 0.5155748 -0.68266267 0.84246117 0.15716405 -0.3279559 0.8762612 0.6062289 -0.4187976 -0.44432434 -0.072220005 -0.37841973 -0.70064825 -0.31095943 -0.995445 0.21641937 0.054962795 -0.21420766 -0.93101496 -0.3456591 0.24218729 0.51147807 -0.21688738 -0.038137816 0.0740695 0.029243406 0.09310714 0.28687823 -0.32430157 -0.015048548 -0.48283088 0.9087707 -0.2617402 0.15355478 0.30902493 0.13159166 -1.1956288 -0.0436872 0.44085377 0.28861436 0.44753143 -0.28511816
6653 -0.48383746 0.39803013 0.45076087 -0.206075 0.096893944 0.016655752 0.6825545 -0.36641484 -0.22805367 -0.16774437 -0.1995782 -0.054411244 0.30792817 -0.44101104 0.20259261 -0.27586532 0.48825014 -0.8831258 0.51716393 0.08422031 -0.39976618 -0.18327312 -0.42755556 -0.79511684 -1.0247725 -0.17438255 -0.4078334 -0.7208447 -0.7890222 0.42519715 0.2255683 0.113776185 0.16045757 0.32948884 -0.021067148 0.26913548 0.28877088 0.17049468 -0.58992344 -0.0004989531 -0.21354398 0.090662576 -0.038282216 0.2003116 0.24313203 -0.13587037 -0.06060076 -0.39019084 0.44850764 0.5252014 0.49670848 -0.2198945 -0.1129428 -0.80734974 0.3298456 -0.5842605 0.5210062 -0.7664665 -0.36757937 0.34321266 -0.31517875 0.27011535 0.39883137 -0.017928904 0.024656434 0.2466031 -0.24107015 -0.7218731 -0.5955053 0.12962782 0.32453802 0.030380994 -0.12812814 -0.34833598 -0.27613506 0.773269 -0.13977176 -0.29867923 -0.12393567 0.19656424 0.44710234 0.8667899 0.0015908291 0.12824233 -0.59163827 0.4963961 0.20942238 0.057745226 -0.6601459 0.14688577 0.0238279 -0.7275496 0.584284 0.8127862 -0.51168156 -0.1917497 0.20776415 0.37863067 -0.7110138 -0.3747456 -0.5659119 -0.15952995 0.07452936 -0.18900608 -0.6045427 0.023511149 0.52843463 0.5411297 -0.14197505 0.19549045 -0.015682688 -0.05262074 -0.15011153 0.29464862 0.029757025 -0.15996681 -0.0014278435 0.74046916 -0.52229965 0.6558873 0.49365455 -0.02808584 -0.28408065 0.19379096 0.38929784 0.11937248 0.08969943 -0.062489904
16368 -0.092324145 0.43490842 0.24982156 -0.25682452 0.18295355 -0.037972968 0.14932439 0.19075125 -0.016790252 0.5222722 0.17166848 0.18528235 0.39512208 -0.16711265 0.5678805 -0.58115953 0.43533397 -0.4965967 0.07305635 -0.17148134 -0.42338565 -0.36463967 -0.15405469 -0.8761337 -0.73780334 0.10271088 -0.12815903 -0.33935633 -0.6803407 -0.08364246 0.39916933 -0.046481565 0.13631886 0.5251024 -0.21894561 0.1254311 -0.0023416993 -0.0073222904 -0.48462754 -0.044630624 -0.43087444 -0.18101701 -0.058373794 -0.16555816 0.17025155 -0.24122867 -0.00090767816 -0.15920447 0.21246761 0.4991781 0.18055758 0.07046325 0.27931258 -0.56718427 0.25640628 -0.57757306 0.43548086 -0.32107344 0.10492491 0.48048562 -0.40139383 0.56657875 0.21065046 -0.07743248 0.12040834 0.106711745 0.32465106 -0.6591589 -0.25697893 -0.03951981 0.31150347 0.14095347 -0.18566002 -0.4365075 0.31979525 0.35005268 0.12447173 -0.059688814 -0.23893164 -0.04402837 0.6915626 0.7742863 -0.36223486 0.00525535 0.20070925 0.30219707 0.46834067 0.35759616 -0.38758376 0.4385556 0.14011982 -0.16124758 0.6719506 0.37700227 -0.3975595 -0.24909912 -0.09448202 -0.33660245 -0.4283277 -0.2551186 -0.85544705 0.17527853 0.17817956 -0.14295381 -0.86221486 -0.29686284 0.06737408 0.40585428 -0.13459024 -0.062498987 0.123045005 0.014113461 0.034389254 0.29294378 -0.415001 0.021793585 -0.41962507 0.5730009 -0.18278134 0.1466205 0.18371728 0.02130986 -0.84762084 -0.090307 0.3844778 0.13101515 0.363535 -0.28945976
7645 -0.21747272 0.097833976 0.13047682 -0.20317899 0.43727282 -0.017175205 -0.090235814 -0.014346245 -0.021513196 0.23594733 -0.47331333 0.31643352 -0.014035035 -0.031118123 0.7243498 -0.13637601 0.4578721 -0.48805138 0.19461684 -0.22127374 -0.09704727 -0.44979474 0.132836 -0.21274862 -0.9584749 -0.12958854 0.23779574 -0.48426557 -0.63369447 -0.13187873 0.6704178 -0.013838093 0.43075007 0.16947071 -0.82493585 0.18837105 0.1950385 0.10706548 -0.32353422 -0.1450776 -0.25618654 -0.046695076 0.08449305 0.083961606 -0.079065695 0.175315 0.17700256 -0.1251195 0.63067836 0.49205488 -0.20463291 -0.26469857 0.070087075 -0.15932003 0.11017838 0.014604401 0.4701019 -0.620673 -0.12197198 0.59474987 0.12375457 0.69106245 0.07177698 -0.18680267 0.21801329 0.07077007 -0.11331694 -0.5419836 -0.20139569 0.16097328 0.99209344 0.003461655 0.021938944 -0.087235555 -0.054849364 0.5615201 -0.33453333 0.3313814 -0.6493561 -0.18758233 0.70446146 0.40985683 -0.27230707 0.018464977 -0.10141675 0.3451229 0.0936589 -0.038748175 -0.69224477 0.5819373 -0.20885709 -0.5277135 0.18926975 0.2550757 -0.15621153 -0.23238447 -0.3281853 -0.084583074 0.077055655 -0.05738959 -0.62673235 -0.007149584 -0.12389894 0.26968235 -0.81710154 -0.4418418 0.09641237 0.7114742 -0.045323476 0.13770767 -0.13632952 -0.4418858 0.1755782 0.46094164 0.13963896 -0.026628027 -0.7057668 0.91328055 0.32277116 0.13045494 0.1192635 0.111601934 -0.32049778 -0.03489035 0.20368111 0.0843106 0.44889212 -0.13822076
685 -0.32240158 0.5379397 0.101466 -0.15692987 0.30359688 -0.058350217 0.14766315 0.21851544 0.11065146 0.65007645 0.09932834 0.2198693 0.4323316 -0.46573412 0.7224706 -0.43164465 0.37363023 -0.6483788 0.17146802 -0.10078959 -0.36250865 -0.20022541 -0.08020304 -0.9689555 -1.0172689 0.1837647 -0.05441524 -0.4362382 -0.9696117 -0.22705299 0.44762042 -0.30954036 -0.03437717 0.5944805 -0.38135394 0.06668184 0.011798631 -0.0063690017 -0.4787658 -0.12766136 -0.5412214 -0.08845897 -0.04279379 -0.17221326 0.13785884 -0.16838087 0.049057238 -0.26555315 0.2314293 0.33676213 0.04023519 0.12117908 0.35147768 -0.49538735 0.36801082 -0.56163293 0.404383 -0.50588846 0.099197395 0.5577703 -0.13331223 0.7139445 0.37749586 0.08570756 0.10650364 0.02203534 0.3099134 -0.7455896 -0.30170354 -0.20903642 0.26740006 0.16028549 -0.22676504 -0.41876712 0.22407286 0.22742113 0.052833162 -0.18717808 -0.092887536 0.11937422 0.95013034 0.87678546 -0.4894477 0.090866335 0.08564113 0.39153823 0.6892646 0.5547371 -0.21147308 0.34818807 0.12115879 -0.19336946 0.7339156 0.16940832 -0.5559618 -0.30279887 -0.2391215 -0.37778756 -0.12703376 -0.26824528 -0.8757279 0.17942107 0.40065408 0.017847303 -0.9922217 -0.17234921 0.025814138 0.27162504 -0.101154886 -0.17872104 0.038431212 -0.0046282643 0.007682113 0.20528713 -0.6547418 0.031152457 -0.52025485 0.57007766 -0.05690041 0.06659051 0.093293235 0.036681373 -0.74371696 0.019181749 0.2984445 -0.043692302 0.5520836 -0.31095764
1668 -0.21941498 0.10864117 0.13331653 -0.19423397 0.42788157 -0.035445653 -0.070144795 0.011759478 -0.0020273323 0.24723373 -0.4297893 0.332564 -0.0001416443 -0.03653913 0.68960845 -0.15654394 0.44385016 -0.48725894 0.18007834 -0.24366803 -0.08677661 -0.46050704 0.1451965 -0.25782168 -0.9387376 -0.068703905 0.22896771 -0.4598832 -0.66356766 -0.13738118 0.6498631 -0.035909787 0.4384663 0.18989821 -0.80591947 0.18472008 0.17101729 0.08938816 -0.33743474 -0.15504467 -0.26739737 -0.06000558 0.115208246 0.073746935 -0.060238883 0.15741605 0.16273293 -0.11718742 0.58130413 0.46890357 -0.19277474 -0.23875336 0.0791439 -0.1682631 0.12221788 -0.041387074 0.4939466 -0.6125031 -0.08117124 0.5981663 0.0924984 0.68612224 0.06746143 -0.14489563 0.20954408 0.06412024 -0.069294505 -0.5568857 -0.24055344 0.1758107 0.9417724 0.0055117263 -0.0151265925 -0.091284856 -0.04384506 0.5484256 -0.29664347 0.3265431 -0.6398274 -0.21766749 0.6949502 0.43016466 -0.2615121 0.019353451 -0.1020469 0.35404766 0.14881457 -0.045153644 -0.6947112 0.569702 -0.17987283 -0.48889172 0.24491327 0.26003 -0.14976858 -0.22882858 -0.33675864 -0.11014239 0.0416222 -0.05706027 -0.64052254 0.016385248 -0.062652655 0.25725406 -0.83579105 -0.43675518 0.07935576 0.6913484 -0.046129182 0.13947399 -0.113700576 -0.36941066 0.13630517 0.4302299 0.12977332 -0.020717535 -0.70144856 0.9163989 0.30177858 0.11081873 0.13364917 0.10031293 -0.35138324 -0.040420096 0.19445531 0.08368551 0.47086862 -0.15995836
3252 -0.08076194 0.2662495 -0.18897718 -0.4524568 -0.06538673 -0.5899908 -0.35706976 -0.081011996 -0.10512279 0.56838906 0.38491368 0.37861928 0.73181355 0.054044463 0.40853897 -0.16561581 -0.036418103 -0.52945447 0.03885455 -0.046617355 -0.021619862 0.24748893 -0.047750767 -0.35175997 -0.45035607 0.1022709 -0.040304706 -0.50115794 -1.1125816 0.30229333 0.1045964 0.13112465 0.34697416 -0.12887163 -0.17812167 0.38106146 0.035267133 -0.13637699 -0.003354196 -0.3406698 -0.48113072 -0.43156096 -0.7138099 -0.40322572 0.52416813 0.3939563 0.1329349 -0.38036418 0.31814146 0.9233109 -0.084080614 0.34626085 -0.040987942 -0.35867062 0.20396356 -1.1306306 0.8721318 -0.0972274 -0.028436625 0.62373567 0.12923479 0.14509998 0.4110068 -0.615746 -0.33695745 0.12672696 0.4817517 -0.56598693 0.054746963 -0.053437073 0.53168976 0.10351749 -0.3041202 -0.047850557 -0.24241455 0.024886519 -0.22815 -0.08209712 -0.26696312 -0.13804054 0.7540141 0.39601213 -0.040273797 0.151976 -0.14991157 0.61081874 0.4899966 -0.0010933997 0.04848987 0.21133113 0.13876036 -0.110177815 0.9003451 0.62049246 -0.47424972 -0.58002037 -0.4650142 0.15439838 -0.068660654 0.14551018 -0.34870565 0.35018125 -0.18204045 0.7851927 -0.6853069 -0.10254014 -0.108305424 0.55260324 -0.28056785 -0.15979545 0.11257273 -0.06890862 -0.41896254 0.19406748 -0.6734964 0.064892024 -0.61934274 0.8443901 -0.1703011 0.6623038 0.3779319 0.36302724 -0.7733936 -0.06857173 0.51810956 -0.053802826 0.04221007 -0.27902067
18573 -0.05609809 0.11775745 0.5158233 -0.20544656 0.35580733 0.28650686 0.19673648 0.36553022 0.15038651 0.37481374 0.107678235 0.041890047 0.12781808 -0.0012064048 0.9412719 -1.0128298 0.21045154 -0.12115521 -0.02625188 -0.58109593 -0.048207164 -0.2289532 -0.004459352 -0.41141748 -0.43254283 0.13965566 0.27937797 0.5593005 -0.5019855 -0.36282074 0.8846994 0.12866752 -0.31004003 0.39437646 -0.4309094 -0.023852441 0.005422785 0.009413814 -0.16900976 -0.43665034 -0.3037852 -0.107720755 -0.42419642 0.109508604 0.21979636 -0.030355701 0.48003107 0.19085863 0.46137193 0.5705421 -0.42947334 0.5085893 0.6147995 0.02549924 0.25278458 -0.1553692 -0.2448317 0.20387629 0.09801369 0.8239887 -0.5675225 0.18607765 0.18032053 0.23167582 0.564705 0.21916255 0.630871 -0.41579226 0.12828968 -0.4664556 0.30988118 0.10650666 0.06473296 -0.74134165 0.3467983 0.13415866 0.48879227 -0.2113507 0.0128235845 0.15676275 0.7404087 0.62864673 -0.64666283 0.40231773 0.5872367 0.21335992 0.5525159 -0.030897936 -0.3654736 -0.029233601 0.3640281 -0.047684018 0.7324819 -0.030561524 -0.16908185 0.108223744 -0.25578776 -0.62902814 -0.5626408 -0.11796595 -1.305351 0.02285586 0.634365 -0.05026586 -0.74033487 -0.9168943 -0.36615762 0.45485118 0.49274534 0.038144324 -0.47975758 0.013381803 0.30438223 0.6073739 -0.44187185 0.69289786 -0.445312 0.63761646 0.09242237 0.22936016 0.09349689 0.018008364 -0.62038046 -0.41801423 0.023111366 -0.28742203 0.40346068 -0.31676364
407 -0.24957636 0.185851 -0.049269546 0.045730487 -0.38854605 0.11074267 -0.0349297 0.19317803 -0.11002481 0.39289016 -0.025118092 0.25564125 0.16320176 0.12670259 0.93526673 -0.5699313 0.43094996 -0.7262715 -0.11097438 -0.026833665 -0.39757052 0.12995633 -0.3937182 -0.71397704 -0.6129298 -0.005890459 -0.11316858 -0.12948507 -0.7347605 -0.20112835 0.6121717 -0.16830996 -0.29674166 0.54504025 -0.545737 0.17285089 0.43421373 -0.0026075116 -0.17662375 0.101905294 0.08489425 -0.5113157 0.30315265 0.20994292 0.017127067 -0.0043317643 -0.19338404 0.17319025 0.4130143 0.17212255 -0.19115715 0.13048497 0.109066434 -0.30189064 0.07776636 -0.48044217 0.16246705 -0.19372836 0.3138281 0.676316 -0.15427364 0.12212789 -0.1512998 0.5160809 0.36422724 0.22148186 0.018200628 -0.73692715 -0.15981984 -0.899057 0.31424788 -0.2840928 -0.27393353 -0.8145004 0.7617154 -0.19713394 -0.20901778 0.20603386 0.2935976 0.25799906 0.39260703 0.38820955 -0.4069227 0.035264418 0.16483407 0.08607755 0.3558015 0.5147416 0.15397072 0.4819944 -0.12167204 -0.021497276 0.27701154 0.12904784 -0.68272364 -0.46924487 -0.057522178 -0.40126765 -0.14499946 0.5490257 -0.8418937 0.32866892 -0.39653885 0.22227266 -0.86708724 -0.13381961 0.3309174 0.08440391 -0.004410607 0.001484242 -0.062085018 -0.1266672 0.37578812 0.24481745 -0.47122335 0.29814848 -0.7109646 0.3849568 0.28098142 -0.32825568 0.55095303 0.16946091 -0.444225 0.177403 0.20044209 -0.14263113 0.3091505 -0.4433466
12288 -0.04030656 0.1769259 0.5330164 -0.18587123 0.33849904 0.30347762 0.19429168 0.326282 0.14504644 0.4552971 0.13319592 0.06499584 0.12617616 -0.111603916 1.0927442 -1.0801404 0.07171545 -0.20393528 -0.028921684 -0.5834546 -0.011826328 -0.13828892 0.09176411 -0.43254533 -0.55493635 0.14883758 0.28353927 0.37612882 -0.7010969 -0.4058952 0.8632553 -0.039767962 -0.2922941 0.37383914 -0.5887103 -0.12672979 0.07705352 -0.026657948 -0.07037839 -0.39157522 -0.36454552 -0.13022642 -0.52294654 0.04960272 0.17873219 0.081985004 0.45280597 0.16834512 0.5562307 0.6722963 -0.54473466 0.5507717 0.6468822 0.14147052 0.3150391 -0.04053408 -0.32685116 0.16472818 0.03463947 0.9542519 -0.44256875 0.16561353 0.27446556 0.33119175 0.59573364 0.19007206 0.6087344 -0.44019753 0.18420613 -0.50887597 0.23844932 0.14310174 0.14155234 -0.7043655 0.29581726 0.09489995 0.35385394 -0.2761452 0.09512072 0.34046578 0.79523665 0.6206621 -0.6911627 0.5571153 0.44126925 0.22650677 0.6378335 -0.016385306 -0.25388885 -0.23556179 0.37886932 -0.09549896 0.8264236 -0.067191765 -0.21084514 0.12369536 -0.29159763 -0.59009933 -0.47344843 -0.06566204 -1.3849868 0.03426317 0.7726873 0.0427459 -0.8528103 -0.9392242 -0.39937955 0.4918125 0.48683006 -0.03597349 -0.42124465 -0.054455746 0.21310274 0.59178346 -0.56272084 0.6018637 -0.4569486 0.6250263 0.16335458 0.23139654 0.03613322 -0.04373443 -0.54536194 -0.49542877 0.012125651 -0.38909492 0.48346007 -0.33229494
6279 -0.3953314 0.5015891 0.26224142 -0.20466895 0.37236372 -0.2040223 0.38900125 -0.2462407 -0.1865444 -0.15134187 0.015365132 0.32537928 0.3887384 -0.07086001 0.67829126 -0.22247691 0.50971806 -0.858465 0.06458339 0.2106787 -0.40589997 0.17939611 -0.22276263 -0.34462562 -0.80465764 -0.010859059 -0.15329897 -0.1618156 -0.38345927 -0.19126871 0.1766684 -0.08268826 0.05721918 0.35957256 -0.24102153 -0.14225188 -0.0061282106 0.1349555 -0.5022011 -0.040255852 -0.17552257 -0.15429513 0.19894668 -0.005596284 0.32290894 0.16788962 -0.18993309 0.010143527 0.1365933 0.24314657 0.16219892 0.18756546 0.10799724 -0.23763815 0.28989744 -0.1412539 0.32369363 -0.08325165 0.12678292 0.061647348 -0.0926009 0.3066484 0.755722 -0.5020927 0.10816862 0.1991116 0.31538257 -0.8833471 0.09880116 0.27715465 0.20075566 0.28342625 -0.162961 -0.4239213 -0.25415197 0.41965127 0.26139975 -0.12936506 -0.14816914 0.379047 0.5814644 0.6327767 -0.26034853 0.07557342 0.06688654 0.68825364 0.09637466 0.23139112 -0.6584931 0.24962349 -0.15393414 -0.8036183 0.26158416 0.2965537 -0.6570724 -0.5535509 0.33655903 -0.0135974595 -0.5253134 0.1614945 -0.6717199 0.04649517 -0.014652071 0.014576864 -0.62672186 -0.04115441 0.25823522 -0.01737191 -0.4815989 -0.33650506 0.09992704 -0.0025073786 -0.10242382 -0.40210274 -0.29986927 -0.22319767 0.01897148 0.18313134 -0.30169597 0.30010268 0.36868876 0.358441 -0.47697714 -0.11885515 0.09821862 0.07123705 -0.14577152 0.07001103
1182 -0.1624898 0.43084744 0.34200075 -0.2727511 0.41315508 0.002879152 0.14075032 0.24719279 0.026194416 0.515219 0.10440415 0.19896735 0.28843257 -0.18227859 0.6516497 -0.65264547 0.40057674 -0.43897742 0.16104208 -0.27237177 -0.3690188 -0.43970922 -0.12174415 -0.79090416 -0.85140747 0.13635628 -0.009634415 -0.14404936 -0.7807979 -0.18071942 0.4562617 -0.039876197 0.12274215 0.45260626 -0.23050095 0.13380457 -0.0319696 -0.026910413 -0.48939618 -0.15190619 -0.5547852 -0.15423061 -0.10050368 -0.13128056 0.1909326 -0.17297651 0.1659587 -0.09746281 0.19817618 0.5884958 0.085397035 0.08855216 0.42625645 -0.5370383 0.3297363 -0.59987515 0.4613406 -0.30196288 0.16493966 0.58715254 -0.42958933 0.65130424 0.36527106 -0.1810726 0.12757169 0.13292404 0.4520497 -0.5981124 -0.30563605 0.07364157 0.37815344 0.1467033 -0.25600117 -0.3986562 0.24176401 0.43813896 0.12808412 -0.15318929 -0.29965505 -0.08794857 0.73883206 0.826454 -0.42237923 0.07918728 0.18266964 0.3610285 0.6841567 0.32228115 -0.47260973 0.4086519 0.28772423 -0.22043104 0.7875201 0.4827955 -0.3202506 -0.20670779 -0.18331248 -0.4046722 -0.56940603 -0.33547065 -1.0257683 0.13099982 0.35948825 -0.11104345 -0.91388464 -0.48004448 0.03245112 0.53049225 -0.02736251 -0.060789865 -0.007877368 -0.06746503 -0.00023632022 0.34443435 -0.3628417 0.06801658 -0.36037675 0.758889 -0.2361877 0.25077608 0.1431812 0.03577121 -0.92675334 -0.17499885 0.25375047 0.099429674 0.44951397 -0.24844801
2414 -0.036062617 0.8145017 0.41142863 -0.4318873 0.5563085 -0.12802356 0.19888747 -0.6605375 -0.15023063 0.42997757 0.001910268 0.2879046 0.116216056 -0.40885153 0.33710486 -0.2575158 0.16153303 -0.67862624 0.46654078 -0.35284823 0.00096797803 -0.032063328 0.50438005 -0.58596706 -1.047506 -0.25408068 -0.16590305 -0.42035624 -0.9196002 -0.3708224 0.470208 -0.141807 -0.056147456 0.9781544 -0.64063257 0.07654548 0.07594332 -0.053697243 -0.53591806 -0.04539484 -1.0885192 0.107031256 -0.026854184 -0.5273095 -0.34986073 -0.32731232 0.13844648 -0.32164118 0.17283253 0.48574287 0.026312666 0.29561564 0.2897086 -0.4299256 0.19133608 0.08702329 -0.2393925 0.16858757 -0.305647 0.049195465 0.080982454 0.6925101 0.20904155 -0.28860864 0.44363406 -0.2154526 0.041566834 -0.7198141 0.12435982 0.012604853 0.38401732 0.61048704 0.014928762 -0.4525616 -0.30523008 0.26735643 0.18661141 -0.4022291 -0.27274072 0.58716357 0.9414403 0.4439104 -0.5873492 0.20635274 0.06859406 0.040607914 0.21174482 -0.2962275 -0.71655184 0.069061 -0.09480662 -0.43190482 0.48833758 -0.055347398 -0.38155705 -0.4052109 0.12824824 -0.3005268 -0.1727889 -0.24017633 -0.41568735 -0.11514693 0.67018145 0.022707127 -1.131987 -0.5326875 0.07036769 0.54538256 -0.25999165 0.15521057 -0.31323174 -0.07244325 -0.029016698 -0.2089495 -0.876619 -0.27941108 -0.41597056 0.57653457 -0.105545595 -0.014924808 -0.15815799 -0.20291504 -0.5041729 -0.30052143 0.40522468 -0.04830622 0.00019721527 0.12914023
1078 0.26814413 0.17071386 0.08273813 -0.24805073 -0.18197443 0.22432844 -0.057716817 0.17871375 -0.051884737 0.2570927 -0.07623957 0.14620759 0.1210994 0.24669042 0.8393015 -0.68745655 0.8145295 -0.8038545 -0.16558413 -0.06799734 -0.37877297 -0.17476065 -0.5623435 -0.8119546 -0.76271814 0.42997104 -0.49137926 -0.6285635 -0.8654565 -0.060341958 0.4981521 0.11334485 -0.10473626 0.7220863 -0.46065077 0.10563406 0.31821275 0.0076019303 -0.39088055 0.175584 0.08825358 -0.4665009 0.09612029 0.2566217 0.13168341 -0.36421695 0.013467327 0.20105864 0.2179521 0.08474416 -0.073728226 0.03593032 0.5059322 -0.33998424 0.121569335 -0.66121924 0.35842624 -0.10379478 0.2429267 0.42666742 -0.066027984 0.000642576 0.016123386 0.75269514 0.6793189 -0.1233211 -0.051403023 -0.5800402 -0.5776627 -0.96830463 0.19814664 -0.31004938 -0.34139192 -0.7598413 0.3441591 0.27485782 -0.22878373 0.052182674 -0.04806381 -0.24025379 0.3051946 0.2966747 -0.2881993 0.18355836 -0.30612773 -0.05801467 0.20978358 0.4181702 0.25746882 0.56517506 -0.24220577 -0.089483306 0.15094231 0.22942618 -0.8489875 -0.17211232 -0.16661362 -0.23534659 -0.18848561 0.550806 -0.48071158 0.18904369 -0.28190723 0.09866295 -0.7066157 -0.21700357 0.20039347 0.22507258 0.29156727 0.060257696 -0.21484579 0.2787543 0.21543671 0.19149938 -0.55940056 0.4796834 -1.0568544 0.47435454 0.44554278 -0.11676924 0.37705383 -0.26755768 -0.3895541 0.4458769 0.14610098 -0.15322852 0.3245501 -0.43680382
16001 -0.14277264 0.3775252 0.22150505 -0.22679552 0.36025894 -0.35533717 0.096336186 0.26368245 -0.17230196 0.64428383 0.6002482 0.36192495 0.7104002 -0.44934067 0.12815782 -0.010525562 0.09228545 -0.27653927 0.38189405 -0.052518155 -0.36243197 -0.2974594 -0.14324419 -0.91672784 -0.6329543 0.1855648 -0.3180886 0.014851651 -0.740974 -0.2870863 -0.029382339 -0.18235426 -0.01929568 0.6789444 0.14882462 0.13493058 0.06772167 -0.44127917 -0.20786025 -0.0029624412 -0.2521336 0.23927692 0.2566782 -0.5705711 -0.10024681 -0.0031131492 -0.26375675 -0.16497007 0.13708991 0.22935905 0.080620036 0.18904383 -0.23171617 -0.5876373 0.4038621 -0.5436649 0.50745934 -0.55470204 0.25164133 0.12685487 0.034033295 0.22921562 0.2569359 0.089929394 0.11362202 0.06431201 0.63418263 -0.08588811 0.12753461 -0.24101321 -0.12054327 0.1692832 -0.37177205 -0.6772504 0.030267315 -0.21946543 0.49149314 -0.35470948 0.1012949 0.1018859 0.3619122 0.6513377 0.09718672 0.0756226 -0.14256108 0.45775935 0.8937775 0.3110492 -0.2108363 0.6156346 0.17066862 -0.4306795 0.3200039 0.36875048 -0.49058616 0.019544922 -0.17407365 -0.6935107 -0.091495566 0.13737868 -0.9900382 0.26348868 0.42626968 -0.13795738 -0.6108659 0.121459894 -0.07814658 -0.17561297 0.29461762 -0.26367304 0.044152692 0.31032485 0.16386037 -0.11819245 -0.33647084 -0.1057243 0.45134747 0.23888908 -0.02218965 -0.27503905 -0.21043837 -0.1307601 -0.8132193 0.18616717 0.06457045 0.3626456 0.17804846 -0.06945759
7833 0.109181546 0.17739151 0.5609793 -0.16118304 0.26243582 0.3210512 0.1960647 0.31534243 0.14740223 0.5190992 0.21802852 0.10779818 0.09570349 -0.1535264 1.1146736 -1.0324223 0.0042583672 -0.2833657 -0.026335755 -0.5969532 -0.03954978 -0.12000348 0.15555458 -0.41319177 -0.5470386 0.27296057 0.25787547 0.11964937 -0.8202784 -0.32280147 0.8489974 -0.15010919 -0.1892721 0.27705735 -0.6712523 -0.364421 0.09940428 -0.1290967 0.033797093 -0.33266228 -0.35358572 -0.10775132 -0.52274925 -0.019972762 0.14758731 0.07091166 0.3684747 0.109051265 0.56849104 0.742341 -0.4831802 0.48105487 0.57054734 0.1234791 0.31025586 0.057092115 -0.36401814 0.12368581 0.04800014 1.0210578 -0.43651974 0.1241491 0.28849438 0.39874884 0.48299828 0.09640545 0.6308705 -0.31166476 0.17852323 -0.47343114 0.2026625 0.20715383 0.16261356 -0.595003 0.24220078 -0.030190071 0.2289457 -0.33801863 0.07347197 0.41494974 0.8324202 0.6766205 -0.646125 0.5316997 0.25363392 0.1676909 0.6885217 0.07143358 -0.11439162 -0.17739701 0.42808536 -0.20710199 0.91189235 -0.18696697 -0.14617641 0.063635625 -0.2433225 -0.5471776 -0.53425515 -0.036787212 -1.3216785 -0.005039422 0.8040723 0.048916828 -0.75071484 -1.0026749 -0.47363427 0.48881522 0.41159642 -0.12846683 -0.244869 -0.056593888 0.14780249 0.5574179 -0.5844206 0.51491755 -0.36814994 0.5782524 0.2359097 0.26975808 0.072835445 -0.080936365 -0.55504423 -0.55120665 0.00351965 -0.47645345 0.5088572 -0.45232546
7919 -0.08532301 0.1558376 0.13232557 -0.3124928 0.5550977 0.38858145 -0.6292038 0.07003077 0.47959897 0.4511388 0.37641355 0.24124052 0.24468173 -0.24697427 0.7647612 0.095810376 0.07424399 -0.6247933 0.65972024 -0.41713226 -1.1054201 -0.105731905 -0.22674517 -1.0221407 -0.71021205 0.1887387 0.28776002 0.059139326 -0.60129404 -0.03343444 0.5884556 -0.39724648 0.18093781 0.4827341 -0.5553734 0.45154664 0.28802976 -0.09557352 -0.65623415 -0.38030916 -0.32674685 0.14495894 -0.058969196 -0.24783267 0.23864475 -0.06945408 0.16502564 -0.21574318 0.23389828 0.6536592 0.006581325 -0.28618938 1.0107496 -0.716724 0.0392615 -0.36569065 0.8551758 -0.037654314 -0.14246689 0.18324608 -0.833554 0.57894576 0.4102266 -0.21773013 0.4274548 0.53813577 0.577133 -0.38083643 -0.27897766 -0.2983772 0.1938549 -0.12600274 -0.18379042 -0.21332893 -0.384593 0.28401932 -0.072891764 0.19207352 -0.22026286 0.5888547 0.34618565 0.9145752 -0.3992123 0.55121255 -0.518942 0.27725595 0.44422105 0.16752344 -0.16891947 0.20599788 0.1451107 -0.5723729 0.7653619 0.19073611 0.27242848 0.5699336 -0.2929339 -0.5658973 0.043039132 -0.7476161 -0.74111927 0.16479254 -0.4663699 -0.024490682 -0.6207666 -0.10375053 0.18717858 0.6793233 -0.21210644 -0.072035976 0.28280076 -0.42735228 -0.18425412 0.4878214 -0.3329228 -0.4473064 -0.5489633 0.27944613 0.212365 0.17203398 -0.24355562 -0.33589214 -0.9628513 0.48920894 0.50696254 -0.3808502 0.28412092 -0.04186419
9138 -0.3356832 0.8156311 -0.12332772 -0.4538917 0.33888942 0.036421627 0.011681329 0.47473073 -0.0037441282 0.5798819 -0.02330681 0.14224242 0.28313142 -0.20805664 0.1603955 -0.38679397 0.31746858 -0.5759789 0.22128044 0.009543861 -0.98206913 -0.52114147 -0.043832976 -0.2896953 -0.7954993 -0.38509986 -0.15099859 0.17210884 -1.1088942 0.14603452 0.31144866 -0.032024883 0.14785041 -0.012081365 0.0049720933 0.0014518012 0.5570942 0.110637024 0.009686844 -0.1435085 -0.33024627 0.15359938 0.2772005 0.1212417 -0.2296331 0.009311656 0.3919039 -0.045810558 0.34369096 0.4071406 0.3075484 0.06389041 0.6696759 -0.8454551 0.5454164 -0.7394756 0.38998705 -0.27758414 0.5103648 0.3410971 0.14825982 0.74154574 0.07675204 -0.22189501 0.3131432 0.014697101 -0.061983116 -0.13337386 -0.34933746 -0.16445641 0.5707843 -0.29564402 -0.21183936 -0.2705866 -0.4573538 0.38797125 0.034736693 -0.7462726 -0.5682031 0.46106318 0.9242989 0.67652875 -0.76034975 -0.2660044 0.22165066 0.5513004 0.054203782 -0.11293768 -0.25272045 0.046691988 0.23205817 -0.32901892 0.22839384 0.19330592 -0.7404486 -0.14890155 0.06215712 -0.33782417 0.15386161 -0.6550842 -0.7136592 0.86034256 0.1330973 0.051236212 -0.24195774 -0.2596334 0.25367 0.31768292 0.19101061 0.13286228 -0.068542704 -0.48096508 -0.46180502 0.013394905 0.20945951 -0.2090754 -0.584863 0.88171583 -0.3744455 0.21080416 -0.45657578 0.31786144 -0.84000725 -0.6141043 -0.14238924 0.2205378 0.18857692 -0.21328482
17047 -0.48360452 0.550299 0.2815833 -0.15083899 0.40237346 -0.10760922 0.2425561 -0.13723238 0.04033255 0.17556785 -0.43397856 0.15655723 -0.14758797 -0.10018145 0.74734664 -0.7513439 0.53326213 -0.23574156 0.2723726 0.18753898 0.8301244 -0.22948197 0.0925454 0.089464046 -1.2923096 0.027942045 -0.1923984 -0.026003262 -1.0783554 -0.6883093 0.38127273 -0.19507141 -0.2143807 0.55686104 -0.16228773 -0.17412132 -0.050987348 -0.24491324 -0.15751167 -0.015835166 -0.8332099 -0.3372227 -0.2042981 0.07634173 0.16254084 0.005880296 0.512216 -6.7762536e-05 0.22990641 0.06511674 -0.36996448 0.15221758 -0.0491903 0.14251378 0.52122825 -0.21537596 0.061800424 -0.16543803 0.14647816 0.73698086 0.4174931 0.33357757 0.56574047 0.29396474 0.30701628 0.16987455 0.06721782 -0.76305896 -0.19245388 -0.16891177 0.43568715 0.14392947 -0.23384887 -0.310423 0.2569462 0.1308177 0.23308548 -0.43283328 0.18047464 -0.15823436 0.74519175 0.23418978 -0.5489208 -0.18155943 0.5563946 0.32072657 0.85844105 0.34171075 -0.6047601 0.26304567 0.19487186 -0.13727552 0.5777468 0.33506522 -0.46238342 -0.3883143 -0.3539424 -0.08968823 -0.44599786 0.53177917 -0.89270943 0.1026325 0.83342415 0.055249836 -1.03948 -0.27919754 -0.27579594 -0.016416334 0.2456464 -0.065226465 -0.6101009 0.10063544 -0.07567226 0.099003784 -0.43878987 0.5107702 -0.17391206 1.134713 -0.051494144 0.03606123 0.26856416 0.11871772 -0.3436652 -0.3264056 -0.37707487 -0.08422647 0.4148117 0.12684126
13272 0.08933375 0.011696996 0.4018626 -0.23166981 0.3890442 0.3476702 0.21786779 0.27031827 0.11475394 0.5473123 0.26816475 0.1245971 0.11947169 0.1443599 0.50428444 -0.90967613 0.5377915 0.119084075 -0.06727116 -0.38295484 -0.18995479 -0.28497285 0.04208079 -0.44649678 -0.25840145 0.33877495 0.10488834 0.40414786 -0.29966545 -0.3692157 0.8968927 0.3120753 -0.36232662 0.7016269 -0.3047911 -0.057327256 -0.13414489 -0.34385368 -0.3704572 -0.29829276 -0.7244372 -0.13543281 -0.1587726 -0.32977575 0.09483756 -0.2950108 0.37605393 -0.075477116 0.2205968 0.23313822 -0.043928716 0.50569576 0.57769644 -0.1255621 0.071844205 -0.13536419 -0.26910347 0.31319574 0.23866002 0.28550187 -0.62496245 0.15122277 0.06385944 0.31968835 0.42985466 0.19936456 0.6630334 -0.26287147 -0.12838529 -0.43702793 0.20151754 0.06707374 -0.1418053 -0.5237375 0.55134326 0.016524866 0.57821155 -0.19882421 -0.26396018 -0.124141 0.9027426 0.6296565 -0.58694637 -0.008253889 0.91084987 -0.011779266 0.4940775 0.22162761 -0.5208173 0.77291363 0.47015652 0.13659996 0.48811588 -0.14027087 -0.18329836 -0.030063303 -0.101971895 -0.6897075 -0.50652754 -0.17297934 -1.1969864 -0.0004318289 0.43372157 -0.45302883 -0.3163164 -0.9145332 -0.50930977 0.26367256 0.24897252 -0.019754207 -0.14729846 0.330421 0.74297935 0.46883824 -0.30435836 0.7108281 -0.2723491 0.22369485 -0.13853976 0.03140676 0.3142492 0.08737576 -0.7239162 -0.34154388 -0.06418295 -0.31144342 0.3433609 -0.48420772
19562 -0.11557915 0.11879829 0.03824879 -0.45842433 0.2620034 -0.032207582 0.29575577 0.2455814 -0.3145638 0.25573912 0.11685509 0.24309222 0.0419092 0.65121907 0.29713225 -0.60604984 0.42980716 -0.2844544 -0.005727897 -0.3315417 -0.039141018 -0.5459988 -0.6629353 -0.4496741 -0.5976169 -0.11787765 -0.030344993 0.2308606 -0.22318204 -0.2133457 0.15347856 0.72586083 0.23950474 0.21371353 0.2983056 -0.038773302 -0.07056419 -0.15097305 -0.40078923 -0.06655999 0.06496543 -0.24604023 -0.015086282 -0.044913452 0.20329784 -0.06722944 -0.18686667 0.05757847 0.24976085 0.19330612 0.17701395 -0.016561553 -0.29654527 -0.35308474 0.29674163 -0.94406825 0.30247182 -0.038362302 0.42412895 0.6948183 -0.54561275 0.28368482 0.12293393 -0.0034785233 0.028310051 0.44411632 0.37158534 -0.014016325 -0.1844461 0.39928803 0.4056921 0.070359886 -0.45075926 -0.5049468 0.5875173 0.37523714 0.0127875395 0.014856252 -0.4798284 -0.5588134 -0.027719466 0.38226035 -0.07405412 -0.40633735 0.7632253 0.2116674 0.2261258 0.3436394 -1.1233659 0.59081995 0.19879106 -0.29217184 0.4744581 0.9170536 -0.006247549 -0.4824027 0.1158943 -0.23796162 -1.1495496 0.17345658 -0.80758023 0.10853886 -0.21257852 -0.27270377 -0.54132205 -0.6610312 0.49737138 0.26890543 0.38031524 -0.066117994 -0.37158465 0.2795713 0.34116465 0.21144213 0.3314525 0.3322684 -0.05398269 1.0718428 -0.18162769 0.3687816 0.4671336 0.30514616 -0.6541888 -0.36353636 0.27947372 0.41861612 0.51181066 -0.20850945
18054 -0.22590292 -0.200574 0.36083266 -0.24000867 -0.28768024 -0.09460724 0.47272438 0.43365952 -0.0109124705 0.102458104 0.007847941 0.18050012 0.09285868 0.24035412 -0.06951502 -0.6062865 0.31045353 -0.28579456 0.02086098 -0.124581434 -0.0852314 -0.698803 -0.35624108 -0.42111966 -0.30088967 -0.010235174 -0.25305066 0.31360954 -0.30581182 0.04252581 0.38125953 0.4216445 0.2894198 0.10543941 0.21673176 -0.026074087 -0.18477999 -0.0067531127 -0.13355927 -0.0538021 0.16943716 -0.15432687 0.21461576 0.06668641 0.16557698 -0.29883838 -0.09713749 0.18712966 0.49641305 0.54418427 0.3608188 -0.32105732 -0.4958979 -0.42996502 0.27540165 -0.93972754 0.34913033 -0.4524329 0.07559358 0.89112145 -0.6592828 0.3709973 -0.53161836 -0.07071947 0.07777916 0.21112771 -0.025916172 -0.25912684 -0.5306742 0.21350431 0.5080907 -0.3180976 -0.4894784 -0.6553397 0.6216151 0.37090042 0.41214454 -0.036619533 -0.4441253 -0.32435098 0.17321907 0.47970688 0.10491488 -0.3276306 0.3355048 0.31845984 0.2249133 -0.050762687 -0.6895272 0.6939962 0.20184031 -0.11168381 0.49656442 0.8204623 0.00061311177 -0.43972325 0.034674488 -0.20224798 -0.8265287 0.08646389 -0.930241 0.21727957 0.02272172 -0.21124363 -0.64767784 -0.44763145 0.15856993 0.30049124 0.35685045 0.06871962 -0.13779551 0.37399656 0.36554605 0.6794245 0.47922894 0.32806477 -0.07959143 0.9768939 -0.14571333 0.11148748 0.34467027 0.16990623 -0.591341 -0.18745722 0.069455795 0.6628535 0.27654552 -0.31879136
1404 -0.048296828 0.27067354 -0.2000752 -0.27624622 -0.10982511 -0.06552419 0.057615716 0.46576023 -0.029970895 0.5514095 0.04997653 0.40944406 0.8147632 -0.35757488 0.397832 -0.044609264 0.06674414 -0.7007328 -0.08476599 -0.17804275 -1.1067725 -0.03687802 -0.19659215 -1.3192259 -0.37942803 0.3357397 -0.04319316 -0.5666093 -0.2616458 0.124741 0.1705677 -0.14649503 0.43670726 0.18842745 -0.20472872 0.010369798 -0.027566755 0.27863708 -0.45326853 -0.07883683 0.048962444 0.15966302 -0.011046501 -0.10155085 0.13076581 -0.27401474 -0.50504047 -0.24431577 0.12643261 0.5409174 0.47638366 -0.17409416 0.34786075 -0.8185648 -0.012653962 -0.5274722 0.74182916 -0.6728436 -0.0496866 0.29689932 -0.75346905 0.71448666 0.019263633 -0.11736103 -0.28133714 0.04761359 0.23189582 -0.37862372 -0.44016722 0.07294173 0.119278535 0.17140982 0.027869672 -0.28380382 0.08496253 0.38914266 -0.2367153 0.3000824 -0.63219243 -0.08624606 0.49075764 1.0336639 -0.15598089 0.12764847 -0.49341938 0.42050597 0.015249582 0.45363796 0.19353849 0.35402566 0.06313002 -0.2316752 0.60372406 0.17108226 -0.1452244 -0.3374939 0.0819788 -0.28003696 0.13196994 -0.9935578 -0.2884163 0.21299103 -0.18035948 0.078128785 -0.7259857 0.0906636 0.44034293 0.527879 -0.66690063 -0.083959356 0.46439657 -0.26015213 -0.41892353 0.16910473 -0.3951447 -0.51329213 -0.61716324 0.0014009441 -0.14796147 -0.06347491 -0.1605992 -0.04766188 -0.77367723 0.3717507 0.7057287 0.35484892 0.19400704 -0.5754685
19041 0.069413155 0.050309807 -0.031853333 -0.25109 0.21099341 0.29760236 0.17307538 0.20579357 0.22066972 0.4324107 0.20924549 0.07615662 0.12710702 -0.06472521 0.43820915 -0.82271534 0.75499743 0.23163778 -0.04037 -0.48463467 -0.118853666 -0.19536987 -0.11274862 -0.69322157 -0.50120264 0.5005361 -0.1557747 0.1266662 -0.13612726 -0.31177893 0.73927945 0.15731642 -0.35782355 0.57490975 -0.20326334 0.24784909 -0.15638074 -0.31168243 -0.6695614 -0.051226206 -0.6999794 -0.1152038 -0.16127925 -0.56136346 0.18863623 -0.17676236 0.3296053 -0.40407708 0.2195072 0.16904779 0.28330317 0.39647385 0.417613 -0.26024443 0.20038497 -0.41124618 -0.122000456 0.15960805 0.11086887 0.17242377 -0.30142057 0.17085281 -0.103598356 0.20734349 0.49934757 0.22649096 0.65110934 -0.43304303 -0.33141685 -0.5171145 0.1796523 -0.019789362 -0.2996628 -0.41039884 0.86896217 -0.11804376 0.3357583 -0.0067689535 -0.31376553 -0.27023086 0.8586238 0.66748613 -0.5656786 0.016967189 0.8557644 0.2517512 0.51625997 0.26361284 -0.5307496 0.85704947 0.24962997 0.35926846 0.4676656 0.108340845 -0.025092235 -0.09355378 -0.012898461 -0.63582796 -0.642936 -0.26727548 -1.2004583 -0.16639595 0.39539596 -0.563703 -0.24212785 -0.81040144 -0.52149874 0.20772718 0.25661898 -0.0033925255 0.18736047 0.3011399 0.8373514 0.6437365 -0.14446124 0.68558204 -0.44536173 0.074018605 -0.41457587 -0.06363925 0.40605062 0.34366575 -0.65553033 -0.114047036 0.016156467 -0.28559992 0.40012854 -0.8067499
15645 -0.09735383 0.73424023 0.08316713 -0.10609653 0.21247888 -0.017196834 0.44601613 0.08079008 -0.011384376 0.3843589 0.21676439 -0.083144166 0.5327778 -0.3607605 0.5888471 -0.61045194 0.14968178 -0.47493726 0.20074898 0.092912085 -0.44877052 -0.10711778 -0.0059427964 -0.8123442 -0.7507424 0.24115479 -0.12872514 0.10759089 -0.67070955 0.0792832 -0.09778246 -0.146592 -0.14364563 0.5565769 0.3523459 -0.3110432 -0.07624244 0.09751056 -0.31177378 0.034583274 -0.31122592 0.096016146 -0.2764603 -0.17112836 0.45980495 -0.4044724 0.013591436 0.06742335 0.058317836 0.38573262 0.25203648 0.07154807 0.65738314 -0.5720465 0.30146047 -0.8548043 0.014409188 -0.010837056 0.12629339 0.5021726 -0.5014015 0.5003633 0.3325368 0.009739075 0.0054453462 -0.14365755 0.35653 -0.48903313 -0.31366837 -0.09479023 -0.14630815 0.2427823 0.013844222 -0.5484849 0.06974648 0.13317694 0.32498726 -0.6039833 -0.09055303 0.22601208 0.57636297 0.71253717 -0.6475246 0.33509007 0.40241736 0.14010991 0.8400042 0.52503186 -0.026010163 -0.3536536 0.4936029 0.06472813 0.8660146 0.23757194 -0.36286706 -0.22688974 -0.084005624 -0.2767375 -0.4468467 -0.7411561 -0.6298493 0.15037057 0.6207078 -0.33438 -0.54344213 -0.17165658 0.058592595 0.1092471 0.04495186 -0.25281572 -0.1428111 0.38710666 -0.41906485 -0.009134537 -0.74664396 0.016922822 -0.06662042 0.534431 -0.44227424 0.24857165 -0.15501827 -0.07976267 -0.66685134 -0.27305478 0.17855053 -0.03405483 0.2299903 -0.14321138
15303 0.17018938 0.33194992 0.3908305 -0.19185333 -0.17977461 -0.043069094 1.1126301 -0.18162303 -0.31308904 0.2054951 -0.47459817 -0.08434239 0.23253603 -0.10756106 0.53427947 -0.8688235 0.5687334 -0.35950136 -0.5439341 -0.00481848 0.61530083 -0.14387797 0.17357571 -0.6023065 -0.42472488 -0.25105807 -0.35390386 -0.5058073 -0.7793166 -0.068454295 0.51566714 0.05824418 0.34926003 0.26980746 -0.37269056 -0.46661782 0.059801698 -0.117962815 -0.57330394 0.113985926 -0.5703028 -0.5159442 -0.5647889 0.13190413 -0.053767387 -0.29491004 0.26259074 0.14820054 0.42405614 0.7553524 0.17538038 0.52719694 0.16879623 -0.28444993 0.14480387 -0.18765314 -0.0062171556 -0.550364 -0.20788856 0.29701918 -0.008907186 0.19385315 0.39270416 0.29137212 0.078444496 0.10531988 -0.20055507 -0.6883882 -0.30235416 -0.029768724 0.3593581 0.7197274 0.16137986 -0.26277226 0.6874168 0.38876095 -0.33751285 -0.1717119 0.021043817 -0.44695973 0.74728066 0.47835925 -0.73332065 -0.06756653 0.8077348 0.2124102 0.24684039 0.555045 -0.29434362 -0.10402902 -0.099042006 -0.089302875 0.61749536 0.09614209 -0.33224174 -0.35358375 0.2971217 0.20632392 -0.48737648 -0.1402311 -0.5746735 -0.32730415 0.3788784 -0.11440531 -0.5573007 -0.3589053 -0.23562868 0.34524935 -0.030186942 0.20873347 -0.05694088 -0.14947261 -0.5073678 0.48450556 -0.15646504 0.32647887 -0.5023969 0.3956988 -0.58764595 0.11510792 0.59609187 0.312456 -0.016110169 -0.575446 0.023105163 -0.0952845 0.18486704 -0.60459423
5121 0.1327296 0.21585988 0.17200914 -0.09869723 0.14735842 -0.2271409 0.24002047 -0.07188713 -0.30756244 0.36045036 -0.031979423 0.30550274 0.24824215 -0.13970868 0.5149521 -0.42608342 0.07181387 -0.24525411 -0.20149629 -0.2590676 -0.083761774 -0.25674036 -0.14003555 -0.7671447 -0.28542784 -0.17391412 -0.30131328 -0.21002032 -0.10414183 -0.121770814 0.20821312 0.39158374 0.24994077 0.10301185 0.1435836 -0.1354097 -0.31618583 -0.17191005 -0.16053346 0.27923864 -0.6401722 0.20160641 -0.37625125 -0.113646634 0.29061246 0.041310016 -0.31616473 0.12463198 0.17274792 0.35319254 0.3286229 0.28248823 0.46099785 -0.15923978 0.35183096 -0.047936723 -0.10500202 -0.37676337 0.006908013 0.7663939 -0.11177994 0.465625 0.2924898 -0.22915003 -0.43180215 0.26791778 0.0971969 -0.061834995 -0.3434095 0.26204452 0.1338568 0.3271672 -0.385217 -0.5611905 0.37056676 0.12179241 -0.19897346 -0.20808083 -0.33227608 -0.6355824 0.40152508 0.33593 -0.48153806 0.46895674 0.28811765 0.43625742 0.78164834 0.52293986 -0.4447107 0.26909256 0.093639374 0.111751795 0.83416015 0.24535249 -0.12818827 -0.122380294 -0.041807517 -0.40402183 -0.09967078 -0.16624223 -0.6551633 0.17770435 0.2748284 0.10737965 -0.7019661 -0.3610967 -0.14459077 0.38690048 0.16402623 -0.185368 0.23033015 -0.09475772 -0.1683185 -0.06218778 -0.6871402 -0.10491344 -0.14640994 0.8358965 -0.48126146 0.097396724 0.0907284 0.1791441 -0.56763464 -0.085622236 0.583601 0.14086455 0.13112387 -0.117047615
6137 -0.06323529 1.0843396 0.13724342 -0.27716753 0.56047803 0.034373116 0.09202924 -0.46683237 -0.051759657 0.4800047 -0.10169132 0.026346313 0.50626403 -0.28190938 0.55513525 -0.16287254 0.26169842 -0.91255623 -0.17984188 -0.07924862 -0.95813847 -0.19204025 -0.18932058 -0.68792576 -0.9594575 -0.27781 -0.21749853 -0.44354683 -1.0576249 -0.13821428 0.18506755 -0.42308795 0.23497726 0.6244616 -0.55294913 0.2634901 0.43008754 -0.055404127 -0.109726764 0.08271243 -0.8847204 -0.15379992 -0.045172945 -0.30770028 0.06342713 -0.2864211 0.4385524 -0.11651306 0.061936013 0.57482994 0.10648501 -0.011903842 0.23957478 -0.762746 0.41522762 -0.30650145 1.0136226 -0.5833323 -0.33890888 0.14447585 -0.403258 0.36341852 0.8334779 -0.36137217 0.34957066 -0.01363197 0.13747512 -0.93776363 -0.42065325 -0.18589953 0.29763183 0.34241462 0.12886074 -0.008411488 -0.26983145 0.4873127 0.12994672 -0.23576574 -0.12857403 0.2816152 0.97502965 0.7981101 -0.45850885 -0.27896544 -0.52079403 0.6248151 0.32871 0.24912103 0.059224445 0.3024885 0.1816373 -0.35188687 0.53076124 0.2099753 -0.5418707 -0.5694281 0.12619951 -0.29880774 -0.27993107 -0.3339397 -0.5777132 0.44470537 0.000803025 -0.36416218 -0.72704387 -0.13808249 0.07931421 0.49967542 -0.19787176 -0.19605485 0.05951429 -0.37117964 -0.5888868 0.16061376 -0.5323697 -0.6438307 -0.24652587 0.22403996 -0.1920532 -0.008077238 -0.06137729 -0.108082846 -1.001603 0.33027086 0.43487352 0.16639216 0.031999044 0.10690886
9582 -0.34905115 0.44002488 0.027799016 -0.09479698 0.4472882 0.12315703 0.13794704 0.15117861 0.15019806 0.30736697 0.005102746 0.17365783 0.4028936 -0.41204515 0.8145292 -0.62156105 0.27943894 -0.7634538 0.17095865 -0.28485402 -0.4984401 -0.08878984 -0.12724376 -0.9993826 -0.9004524 0.058383387 -0.05160093 -0.36696562 -0.8599573 -0.034850102 0.51588714 -0.26409972 0.114292584 0.39252993 -0.39270985 0.065640576 0.25870517 0.07146971 -0.5046008 -0.21424557 -0.32442942 -0.080442704 -0.08016904 0.101002686 0.24193646 -0.16409022 0.072274074 -0.13898407 0.38044354 0.53810483 0.14625593 0.070907526 0.62478787 -0.5879938 0.13351679 -0.43610764 0.48427913 -0.42352003 0.13529778 0.70120454 -0.32866436 0.73946357 0.40871152 -0.11518942 0.18453126 0.21342516 0.39783597 -0.7676346 -0.33479375 -0.20729576 0.34150615 -0.0151380235 -0.2024508 -0.42789617 0.092611715 0.31419757 -0.022410205 -0.09724861 -0.12015797 0.37573868 0.74192935 1.0206206 -0.62516356 0.3100204 0.09076969 0.4856735 0.66617256 0.38470042 -0.14430214 0.07661987 0.24634627 -0.3033972 0.75775975 0.16679256 -0.3309906 -0.09473836 -0.051567033 -0.33404455 -0.31876144 -0.57635176 -0.95091534 0.31123367 0.082797036 -0.044957127 -0.95680934 -0.103664294 0.120125644 0.49820858 -0.14703503 0.043017685 0.14995924 -0.3266722 -0.44807282 0.40285087 -0.5307806 -0.214235 -0.64992315 0.5371883 -0.21319515 0.2778701 -0.022679452 0.064126685 -0.8527195 -0.041728057 0.4096393 -0.122886166 0.3232584 -0.34562597
905 -0.15753558 0.36108068 0.09407206 -0.21303783 0.3121353 0.031387206 -0.07617939 0.46263215 0.060016762 0.5157208 0.12954527 0.2599008 0.124329455 -0.25981015 0.2129579 -0.38851023 0.4155276 -0.3418338 -0.0740254 -0.07630147 -0.31250155 -0.4961113 0.13012192 -0.4807645 -0.45262244 0.10847467 0.26063147 -0.2877423 -0.8490885 0.022802357 0.42265671 0.02984956 0.11971265 0.36015067 -0.65215355 0.2549121 -0.026104154 0.26112235 -0.3829646 -0.10660258 -0.5973973 -0.08733287 0.11078867 0.22769862 0.22590223 -0.24647805 0.23061503 -0.1398918 -0.052253813 0.3915218 -0.076290876 0.099781744 0.27285463 -0.44240722 0.20110996 -0.2928997 0.4573634 -0.14002855 0.44881845 0.54869527 -0.18671411 0.57468754 0.3086518 -0.14020225 -0.004656671 -0.11516574 0.19454378 -0.5324138 -0.5859615 0.061775025 0.37087104 -0.11802827 -0.37281492 -0.3401198 -0.21732971 0.023128804 0.12393733 -0.28818944 -0.2031392 -0.115103796 0.8172836 0.59107584 -0.3079217 -0.10529934 0.1591827 0.119269356 0.38194752 0.16452922 -0.44762042 0.24317828 0.23338942 -0.16403192 0.39123076 -0.011514573 -0.4506005 -0.12944458 -0.010674116 -0.15576603 -0.48862356 -0.18219358 -0.5519423 0.23109156 0.31799787 -0.055688307 -0.63069093 -0.4113318 0.15365848 0.37756887 -0.41271293 -0.032083202 0.02180831 -0.08853867 0.22432521 0.07557728 -0.2928212 0.00845645 -0.618966 0.6819721 -0.16130719 0.17220564 0.22205736 -0.17186499 -0.75796276 -0.027463024 0.09302635 0.018591218 0.6069867 -0.101543985
21756 -0.7661638 0.53880554 0.39655334 0.046940926 0.75512 0.5032398 0.085964784 -0.39748117 0.37047064 0.026713278 -0.3267366 0.008382438 -0.20861329 -0.4305207 0.3715783 -0.19639976 0.2904848 -0.15351534 0.89364105 -0.31605503 -0.3818393 -0.2951734 -0.090612166 -0.27255818 -0.8272272 -0.6636162 0.2687722 0.18987955 -0.24410248 -0.62318814 0.52017117 0.07827975 0.18916188 0.3265732 0.02007789 0.08854353 -0.12346154 0.16956773 -0.33233705 0.18978049 -0.6339069 0.119169846 0.24069247 -0.18203515 -0.10504848 -0.16896477 0.20952213 -0.37333107 0.33059934 0.25329095 0.57974815 -0.02633044 0.60597867 -0.518253 0.20355266 0.24916089 -0.13366531 -0.19941197 -0.2034493 0.25984526 -0.11021027 0.8414909 0.41119495 -0.31680954 0.39825994 0.15310985 0.13461897 -0.36530396 -0.18219186 0.63339174 0.5908252 -0.009900484 -0.3177984 -0.08538346 0.1447582 0.6984759 0.009515457 -0.34857985 -0.40224555 0.38202327 0.6770962 0.8499483 -0.589195 -0.04377696 0.17341365 0.13743122 0.1727075 0.1787404 -0.64758044 0.34973338 0.16297154 -0.2409473 0.41001412 -0.16453649 -0.027425876 -0.50269145 0.66435885 -0.30459046 -0.6993242 -0.6636945 -0.25421354 0.3171118 0.11094233 -0.76845205 -1.0260023 -0.4203808 0.4129114 0.497264 -0.16212122 0.14566655 -0.22166592 -0.59924805 -0.0077542798 0.1537664 -0.41210824 -0.14562958 -0.4619213 0.78087753 -0.47648054 0.26626047 0.1125877 -0.11369788 -0.57841676 -0.26407424 0.28836426 0.085164264 0.24547887 -0.15016916
4475 -0.13861649 0.3485404 0.18498379 -0.19819207 -0.039551646 -0.105865255 0.087623134 0.25271666 -0.03484563 0.650782 -0.10158236 0.1635777 0.42967767 0.036180913 0.4518143 -0.41418055 0.25620785 -0.17578906 0.1536408 -0.5338154 0.055899404 -0.449199 0.32876995 -0.687796 -0.23003782 0.041000407 0.33607885 0.13895342 -0.3183631 -0.19479133 0.107395865 0.06720845 0.0037520505 0.2279619 0.18324223 0.12073291 0.14473811 -0.21018682 -0.21227595 -0.042060867 -0.21530502 -0.20375866 -0.29696625 -0.31964508 0.18770862 0.2952644 -0.26091966 -0.07634201 0.58476746 0.8810089 0.4030108 0.0033917802 0.19709006 0.09353854 -0.0042184973 -0.69394726 0.28967214 -0.10537979 -0.1300222 0.3018042 -0.64882064 0.52378315 -0.24425192 -0.056133877 -0.059089728 0.34832272 0.09482547 -0.67703855 0.18012255 0.4359816 0.63001126 0.076324016 0.05751501 -0.11765627 0.59668016 0.59609985 0.18912454 0.47657743 -0.3757991 -0.06497196 1.0683854 0.61079425 -0.5215357 0.22486365 0.31794706 0.3344279 0.6897565 0.4707974 -0.3450016 0.38994086 -0.25771314 0.3205363 0.9274138 0.18023837 -0.06436231 -0.34913468 -0.13376135 0.01282927 -0.15662901 -0.66212624 -0.45922312 0.113371 0.37631136 0.18154782 -0.9752141 -0.6388168 -0.043022413 0.71778125 0.15673965 -0.0071786633 0.04742273 -0.33035606 0.004892476 0.4031472 -0.22251807 -0.021191236 -0.5806686 0.3739043 -0.19835986 -0.15953523 0.26577064 -0.06174613 -0.37840724 -0.5125739 0.57413226 -0.08055011 0.3394065 -0.62171274
10222 -0.49249065 -0.07177449 0.17143953 -0.5495729 0.20291613 -0.06269481 0.38453317 -0.03214805 0.08783051 0.38966608 0.029903052 0.20705023 -0.20110007 -0.040711176 0.070011556 -0.4959585 0.18412992 -0.44151285 -0.1908058 -0.21915282 0.35386512 -0.31879362 -0.31335485 -0.77412134 -0.6042088 0.015074167 -0.40831465 -0.6548939 -0.7071489 -0.36035487 0.44159523 0.09402494 0.53120273 0.3892692 -0.67426133 -0.28440723 -0.16414121 -0.12731479 -0.78385353 -0.17679164 -0.75528646 -0.023300253 0.10301758 -0.11822661 -0.031693608 -0.3712815 0.06354572 -0.1999585 0.3723108 0.7710548 -0.04543702 -0.4507369 0.098949894 -0.19999698 -0.0071472847 -0.16406673 0.3939781 -0.42492563 0.14109243 0.9766575 0.102293216 0.71238875 0.09116327 0.11216099 0.03521195 0.3558065 0.22444166 -0.693397 -1.0766096 0.34555873 0.029139383 -0.14858577 -0.47950155 0.045396782 0.22834943 0.45050624 -0.15766135 -0.030819848 -0.7638534 0.1846985 0.50743264 0.49188074 -0.18580025 -0.31055123 0.23760584 0.035379834 -0.0950487 0.20455179 -0.5202438 0.29859367 0.19368881 -0.43298218 0.60890985 0.3100409 -0.23123506 -0.21754365 0.29568493 -0.10233137 -0.582382 0.38937205 -0.7737658 0.22341588 0.05576111 -0.1569765 -0.66242856 0.05281465 0.04158334 0.22238348 -0.29825518 -0.25391218 0.54723203 -0.020945508 0.15742879 0.45280173 -0.2566328 -0.13118762 -0.8451726 0.4859738 0.04559658 0.27188095 -0.28072882 0.11068785 -0.37221703 -0.065602064 0.49834976 -0.022422306 0.7695242 -0.15437981
15888 -0.24519369 0.36302313 0.42247275 -0.28028294 0.098018736 -0.009006101 0.46440116 0.011042818 -0.14704035 0.9706238 0.20948549 -0.21161431 -0.027977996 -0.04902316 0.43739945 -0.55096275 0.34353688 0.23933652 -0.37345374 0.4008848 -0.25472936 -0.1975651 0.1273702 -0.7991427 -0.42175153 -0.23626384 -0.48012176 -0.29908648 -1.1590626 0.10640255 -0.15462257 0.423842 0.2299306 0.582882 -0.43443415 -0.16826952 0.109459035 -0.2968039 -0.19031455 0.29487365 -0.51112014 -0.28566635 -0.4154886 -0.30406 0.32964405 0.0330796 0.3505313 -0.5136893 0.3394908 0.596788 0.32425708 -0.16644126 0.3277371 -0.36191586 0.26244736 -0.38343355 -0.009442853 -0.29109925 -0.37360695 0.44839576 -0.20917913 0.22150774 0.15085843 0.31689563 0.5831367 0.13434064 -0.11185513 -0.6349739 -0.25250992 0.19390585 -0.17243664 -0.09597452 0.13368016 -0.56850654 0.5923598 0.63830566 -0.2534527 -0.14066376 -0.60940725 0.45448804 0.44756985 0.3597353 -0.43211693 0.19199495 0.0921338 0.33266556 0.3318473 -0.005545677 -0.18672013 -0.3316382 0.3133572 -0.16096722 0.21661305 0.07890459 -0.58791506 -0.005985495 -0.049199857 -0.59955806 -0.11487567 -0.24212798 -0.86436766 0.3396329 -0.052774437 -0.58329636 -0.4853253 0.04005439 -0.33692908 0.37442645 -0.09932829 -0.617024 0.4091168 0.21855661 0.38011798 0.38394022 0.24388601 -0.03524869 0.04240477 0.51597303 -0.30817503 0.7699178 0.37046975 0.2258477 -0.493226 -0.057805263 0.042171177 -0.011463103 0.13354781 -0.5423963
17891 -0.71188766 0.33853918 0.5107008 0.13127933 -0.04401657 -0.027687881 0.23519401 0.42390567 0.23839849 0.14940506 -0.41785428 0.021935139 -0.33182892 -0.10338979 0.6658724 -0.43989813 0.73768514 -0.67150486 0.22283493 0.014326471 -0.35769123 -0.52478164 0.31428933 -0.9189463 -0.3318025 0.049367115 0.1504258 0.086176865 -0.4039024 -0.09294123 0.29396424 -0.4806002 0.284576 0.53187007 -0.1714731 -0.64281744 -0.10184825 0.15810369 -0.53016824 -0.08390362 -0.26674226 -0.011883974 0.3687127 0.19860618 -0.012933663 -0.6358575 -0.34119081 0.0545211 0.44467917 0.2572945 0.5479226 -0.4763182 0.33059046 -0.27869433 -0.025131457 -0.28198814 0.64542043 -0.51709384 -0.17776264 0.6473431 -0.2553433 0.6570544 -0.1421694 -0.41132402 0.050156597 -0.022774074 -0.15509431 -0.59738046 -0.46098688 0.19262788 0.37859312 -0.007766533 0.19287312 -0.22431658 0.40730596 0.19906749 0.23254846 0.38194886 -0.40603793 -0.51386267 0.30125076 0.8691422 -0.31027278 0.24870819 0.16791385 0.33710086 0.58814776 0.52854145 -0.29903048 -0.12727898 0.07503625 -0.0977432 0.6429888 0.045655236 -0.049572133 -0.47618282 0.28109983 0.16706863 -0.21169053 -0.6040151 -0.5403753 -0.007022468 0.682792 -0.14626205 -0.5267303 -0.22992052 -0.26266196 0.30506793 0.10119839 -0.22953837 -0.02978246 0.1266879 -0.45126686 0.15963775 0.08457526 -0.0033160017 -0.5383055 0.5986815 -0.27090174 -0.36106727 0.017353017 0.09580749 -0.53807485 0.10504743 -0.1222266 0.098360464 0.5319785 -0.15971872
11922 -0.41551232 0.39095074 0.44418094 -0.05780605 0.15289795 -0.027912105 -0.08494686 0.21641472 -0.035308402 -0.03654358 -0.33034557 -0.1614291 0.30166206 0.14537683 0.48120955 -0.3113861 0.75046945 -0.4518565 -0.07644251 0.5916882 0.013371816 -0.44082654 0.032271612 -0.6969181 -0.6587751 -0.09636639 -0.1172564 -0.41553286 -0.363132 0.102388956 0.49259079 -0.55955386 -0.12637396 -0.0005254648 -0.14640805 0.38975576 -0.24451256 -0.029683165 -0.62429464 -0.12541412 -0.5986276 -0.1236208 -0.004525946 0.036157764 0.2326632 0.10506421 0.15742734 -0.27707338 0.15618652 0.08178386 0.2973411 0.017663563 -0.10225756 -0.4090792 0.22571214 -0.70320183 0.250612 -0.46252134 0.09503268 0.3153768 0.06620285 0.29540265 0.44817567 0.024767889 -0.4814139 0.53341365 0.27476898 -0.42111492 -0.52887857 -0.2650094 0.30268845 0.19083431 -0.071977556 -0.35461894 0.027206631 0.049081277 0.051815405 -0.46412602 -0.12625249 -0.4147169 0.5168586 0.5357701 -0.34858236 0.0068457457 0.3954578 0.2537698 0.08062886 0.75553375 -0.92293674 0.215 -0.15326051 -0.045377806 0.6149372 0.26066068 -0.1669893 -0.013481031 -0.03695836 0.06080521 -0.7871309 -0.25172117 -0.8687703 -0.04339954 0.3682536 -0.5198611 0.07172643 -0.25333396 -0.19960338 -0.014196188 -0.21989241 -0.107199006 0.11309101 0.43309835 0.30157787 0.4016413 -0.3950202 0.40254128 0.2522837 0.74366283 -0.5263249 0.10250203 0.6243098 0.3685179 -0.73205537 0.078812085 -0.08007825 -0.34632778 0.10735329 0.077399425
5923 -0.1090084 0.6380343 0.14822663 -0.29533273 0.514804 0.036038954 0.13212478 0.18047136 -0.12521702 0.4830144 -0.08604908 0.15747802 0.30707043 -0.2648714 0.33514184 -0.54720753 0.52245325 -0.5485269 0.05929284 -0.23192601 -0.22557127 -0.59553325 0.108943895 -0.6994199 -0.69309807 0.17715548 0.08921541 -0.44199508 -0.6847049 0.029012207 0.27142477 -0.19554645 0.27866468 0.4676554 -0.2032509 0.19183086 0.04514726 0.04863083 -0.70927215 -0.13476238 -0.78960437 0.0424094 -0.10432374 -0.044631872 0.19355403 -0.3427255 0.19130857 -0.052310415 -0.013175357 0.46685594 0.23460291 -0.06287981 0.41498372 -0.5538036 0.31242648 -0.44656587 0.4171816 -0.20835738 0.07877933 0.3078689 -0.52842504 0.81478596 0.45685786 -0.42684183 -0.08295516 0.028322408 0.29544336 -0.8525746 -0.40610543 0.5818316 0.2545778 0.26585725 -0.15259615 0.03605831 -0.013104657 0.5264777 0.00049068395 -0.06355579 -0.3420664 -0.13853252 0.55469984 0.70258147 -0.4872404 0.07045554 0.34642795 0.2529795 0.50275826 0.3448088 -0.54454803 0.1598943 0.289522 -0.23921432 0.7665226 0.6027219 -0.14964472 -0.053343855 -0.07871167 -0.116691634 -0.7270817 -0.65458864 -0.6664131 -0.07641972 0.43769848 -0.0204784 -0.55470693 -0.49257967 0.0513314 0.7026035 -0.16790117 -0.0038402735 0.15172957 -0.15904012 -0.27822343 0.23447637 -0.14529982 -0.2106858 -0.38463143 0.6323392 -0.54571784 0.257727 0.033520684 -0.10395893 -0.78345484 -0.2854708 0.26024568 0.056705434 0.54418045 -0.07851063
16702 -0.2612035 0.5858337 0.27222928 -0.16132829 0.36471367 0.07508831 0.14684178 0.051321752 -0.025069721 0.6444567 0.14458877 0.19789743 0.3836196 -0.30332834 0.71190673 -0.48091853 0.4669081 -0.5975975 0.2074013 -0.13516203 -0.5101815 -0.34446046 -0.027855936 -1.0735688 -0.9073353 0.11950332 -0.05742055 -0.5049804 -0.9443157 -0.12191968 0.3457243 -0.2736414 0.23298752 0.6098449 -0.33908594 0.091895215 0.116392985 -0.1402857 -0.647913 -0.032047927 -0.6279378 -0.265683 -0.036952324 -0.2522222 0.15379217 -0.23768438 -0.09122712 -0.19734518 0.11217927 0.5873035 0.20043309 -0.024550937 0.52733356 -0.6802591 0.2723403 -0.5210659 0.6023023 -0.48188964 0.07974221 0.44350207 -0.31487137 0.726475 0.4063642 -0.13837887 0.067285106 0.06720073 0.35807055 -0.790928 -0.44540134 0.14766763 0.233598 0.20288712 -0.19074361 -0.2703389 0.16231897 0.40868846 -0.10246021 -0.09399909 -0.23181438 0.029018648 0.6986248 0.96014744 -0.4218015 0.22614315 -0.09371097 0.33795372 0.7524679 0.46040884 -0.3237349 0.34476477 0.18231757 -0.31039253 0.73313475 0.43243685 -0.4526888 -0.2477683 -0.09363757 -0.23062235 -0.42931443 -0.34218183 -0.8387719 0.18518421 0.21591873 -0.14078526 -0.9346263 -0.1439029 0.0847722 0.5312859 -0.21722808 -0.1923858 0.19352634 -0.21763459 -0.26049867 0.18766166 -0.4540596 -0.19936712 -0.52390116 0.5155672 -0.2688846 0.17559302 0.18426222 -0.010691146 -0.85481906 -0.024872433 0.4195278 0.07577481 0.3983724 -0.1915912
11046 -0.330915 -0.029991744 -0.11822857 -0.55251265 0.016368115 -0.51646847 -0.15779836 -0.00051917357 -0.2730685 0.25923833 0.19182236 0.38908038 0.7333513 0.3481423 0.81956947 -0.12448245 0.60691565 -0.342945 -0.26589477 0.3691988 -0.24601944 -0.037544873 -0.12487656 -0.48448718 -0.6816226 -0.32517686 -0.19306208 -0.48462242 -0.64442956 0.36671525 -0.044553306 0.25631592 0.35105848 -0.15871675 0.13916896 0.30365568 -0.4723929 -0.17913505 -0.089844406 -0.31621554 -0.3564923 -0.32471478 -0.5442116 -0.49162635 0.57430106 0.3278816 0.15565147 -0.06262082 0.2217501 0.8793224 0.09495903 0.5378103 -0.12209297 -0.15477502 0.09343552 -1.1763262 1.0342855 -0.5953171 0.236356 0.72467947 0.31341937 0.45313707 0.34851125 -0.9800571 -0.29096922 0.19015405 0.08084241 -0.16869171 0.082495116 0.35637587 0.7182311 0.4640297 -0.019559849 -0.17392385 0.38063127 0.06286395 -0.24470812 -0.06672232 -0.7011017 -0.22790872 0.6752725 0.634438 -0.16362886 0.11232963 0.28418687 0.38255253 0.38262472 0.11070115 -0.62262106 0.5259728 0.06878312 -0.39963478 0.496181 0.5041133 -0.45152354 -0.6616211 -0.54564846 0.063280046 -0.16691302 0.021442655 -0.40045825 0.10772055 -0.17280543 0.058878426 -0.6135639 0.2588378 -0.027959185 0.37427023 -0.22921988 -0.1291589 -0.15879612 -0.28072545 -0.29530412 0.36062923 -0.5647435 0.2786929 -0.11186341 0.67416984 0.09063832 0.694324 0.5755208 0.6318923 -0.8876864 0.10552059 0.35440558 0.05075297 -0.26501292 -0.23198749
7887 -0.82789296 0.256491 0.07372442 0.20941712 0.3711871 -0.3272674 0.3189959 -0.20386861 0.092140086 -0.021060996 -0.50183165 0.27383757 0.043326847 -0.34949148 0.3985657 -0.16898818 0.3726372 -0.34890294 0.19258979 0.24146737 0.447557 -0.13692 0.28343594 -0.19984718 -1.1292545 0.04050639 -0.20514782 -0.2660627 -1.071746 -0.4114921 0.34309795 -0.34549052 -0.07636821 0.4001856 -0.11460704 -0.06985581 -0.1979548 -0.11599996 -0.12991361 -0.10596125 -0.49353302 -0.34179866 0.27033234 0.10625856 0.00384778 0.2246264 0.19192229 -0.05581911 0.29671147 -0.15460429 -0.28831738 0.45819324 0.0150024295 0.0788278 0.46799147 -0.6956903 0.077259414 -0.5594166 0.28388333 0.6736406 0.4378388 0.28174317 0.2947056 0.084018804 -0.023593226 -0.15845165 -0.16736464 -0.94336987 -0.30332506 0.019987699 0.29366556 0.12308383 -0.337307 -0.3596456 0.2835333 -0.18563 0.019753983 -0.43600154 -0.008856422 -0.104116164 0.7264186 0.54039437 -0.41414905 0.17189999 0.1693992 0.4992164 1.1628239 0.6248215 -0.3863913 0.32693624 0.1498642 0.012418849 0.44196528 0.18887912 -0.4179826 -0.7631394 -0.083600275 0.15893435 -0.4384794 0.5446702 -0.54540396 0.001480793 0.78257644 0.09451487 -0.84652054 -0.13301185 -0.1583219 0.120320976 0.15856975 -0.10831163 -0.6252412 0.18239571 0.036298376 0.15816972 -0.5635278 0.31650913 -0.32020742 1.0308905 -0.30301082 -0.056052506 0.48760015 0.33379668 -0.12695324 -0.19171304 -0.3315241 -0.22664157 0.62830895 -0.20131004
4072 0.30493072 0.61182183 0.17673254 0.03130954 0.8140365 0.20957783 -0.062507086 -0.39208877 0.22006927 -0.10457654 -0.28939146 -0.03741283 0.026706211 -0.11688742 0.82570195 -0.19216321 0.36434752 -0.46812317 -0.012772485 -0.32022876 -0.11161991 -0.13004348 0.34599254 -0.7433536 -0.8534627 0.389505 0.19327305 -0.15724759 -0.28427017 -0.08940593 0.343149 -0.56129116 0.124476895 0.2870451 -0.5648197 -0.08614406 -0.25046495 0.05366672 -1.0468634 -0.38317782 -0.8220858 -0.005936034 -0.04598662 -0.1509786 0.0833837 -0.28998083 0.31942257 -0.54232174 -0.2125823 0.11703524 0.10369067 -0.2682773 0.7170695 -0.674573 0.16130838 -0.16570671 0.4432772 -0.2461361 -0.14994542 0.06498266 -0.20960233 0.5158627 0.637479 -0.47976613 -0.19007483 0.31927872 0.3555985 -1.0313232 -0.52807194 -0.14181457 0.31188837 0.62955487 0.06191304 0.121088535 0.12440612 0.28011593 -0.08879296 0.34033585 -0.4714787 -0.37432393 0.7304181 0.79897237 -0.47918376 0.13260704 0.052010816 0.08820691 0.37283143 0.6017015 -0.5872305 0.1801235 -0.06228935 -0.095542714 0.9664562 -0.01314729 0.55734926 0.033028517 -0.30371204 0.01705218 -0.54549855 -0.78824574 -0.31628495 -0.45136797 0.15850335 -0.19484575 -0.73222816 -0.49390766 -0.09365291 0.7185878 -0.50188506 0.092111096 0.0820161 0.22573072 -0.1416621 0.16490342 -0.6426557 0.16658115 -0.2920839 0.4177274 -0.32440314 0.12333147 0.10546984 0.14048612 -0.6430232 0.021735745 0.5852066 -0.48611546 0.15444496 -0.16028236
16431 -0.22464588 -0.0025681371 0.10417762 0.082246415 0.14261699 0.47969368 0.28029683 0.1476547 0.22751272 -0.11256988 -0.30701193 -0.15180068 -0.048905164 -0.016805105 0.61271155 -0.55415106 0.32330927 -0.5194167 0.14363623 -0.24476717 -0.46833265 -0.21445706 0.0133533655 -0.52830553 -0.6955493 -0.030532414 -0.043834783 -0.3584821 -0.47172457 0.0547266 0.58893347 -0.3513267 -0.05812835 0.21345882 -0.59029835 -0.017264824 0.039619263 0.40427798 -0.8029388 -0.23466033 -0.43468934 0.18774772 0.32762393 0.47995284 -0.115087464 -0.21269405 0.38942134 -0.3384201 0.13504924 0.17097765 0.30641186 -0.03145937 0.7507451 -0.49939826 0.30493876 -0.034692355 0.02801434 -0.24159753 0.0071775275 0.3580925 -0.18467131 0.5123677 -0.1659231 0.13380048 0.2990336 0.23908812 -0.035867926 -0.7759508 -0.8647074 -0.14518878 0.41308555 -0.22016115 -0.19332169 -0.4103981 -0.007562338 0.4594366 -0.38369232 -0.18081892 -0.3240709 -0.08898042 0.71776825 0.9667107 -0.5792037 0.17051485 -0.28825554 0.2605595 -0.032983877 0.12726273 -0.39068496 0.048546746 0.1910314 -0.2410449 0.55630344 0.15284444 -0.15556851 0.14086902 0.14550099 -0.030037105 -0.58676445 -0.5732847 -0.6535057 0.13934661 0.36754593 -0.22120865 -0.71078813 -0.36926964 0.058064234 0.7871999 -0.24436241 0.08873109 0.2092589 -0.064302936 -0.13889731 0.47573987 -0.033406526 0.053311843 -0.7253555 0.14638335 -0.49304783 0.35790518 0.26030457 -0.07397779 -0.299203 0.15225148 0.18034254 -0.22570527 0.17468616 -0.24780446
14996 -0.14671102 -0.13243078 0.29868248 -0.2741083 -0.0013222876 -0.11682127 0.3201328 0.5872352 -0.115312934 0.20030083 -0.020693863 0.18401603 0.16135128 0.5379365 0.3339288 -0.93583864 0.25962126 -0.33688664 -0.25384402 -0.19672672 0.117943764 -0.55957806 -0.3927406 -0.552905 -0.72837025 -0.16093543 -0.20649953 -0.06800964 -0.17758812 -0.38265157 -0.042035967 0.4209339 0.29185063 0.051778477 0.39135793 0.038521644 -0.18357655 -0.19103836 -0.3409909 0.26711535 0.026213417 -0.15410836 -0.0049365778 -0.23324904 0.18186237 0.098024875 -0.23412722 0.14193986 0.428225 0.49459445 0.13031654 0.020448474 -0.3328781 -0.036617 0.36601737 -0.9300434 0.12947004 -0.33636943 0.40769568 0.8867227 -0.4598727 0.2974492 0.19206 0.26645416 0.03973625 0.53952795 0.34844086 -0.085766934 -0.32129157 0.3262553 0.20929371 -0.060675558 -0.6458311 -0.5596462 0.7098493 0.4077117 -0.25736716 -0.07626649 -0.43678662 -0.38565078 -0.088369854 0.32531136 0.12764163 -0.020108573 0.77111804 0.15582578 0.3615633 0.44591942 -0.88648105 0.19610862 0.39880127 -0.2680072 0.47180563 1.1700567 -0.0975499 -0.35220733 0.06673059 -0.033675417 -0.99030834 0.09607438 -0.96354884 0.29941812 0.04322206 -0.25320822 -0.7219328 -0.59690034 0.52207327 0.4242152 0.2820366 -0.18733573 -0.14043139 0.16980058 0.18566363 0.48616463 0.29342332 0.17256749 0.15152803 0.8699494 -0.30939665 0.37735757 0.26616997 0.18025438 -0.489566 -0.5537715 0.27902907 0.6284183 0.65836775 -0.32498088
7781 -0.6187105 0.32524207 -0.15965755 0.1981168 -0.09241816 0.04253184 0.022383025 0.07187826 -0.11043386 0.52645594 0.17178696 0.5705682 0.5798982 0.07304669 0.57990456 -0.24806806 0.18325499 -0.55097973 -0.08851982 0.14630517 -0.25857258 0.05294078 0.06441236 -0.8281972 -0.6790876 -0.26591435 -0.037658826 -0.07816315 -0.5482736 -0.20347272 0.8925448 -0.02413686 -0.19065718 0.62131524 -0.41169626 0.22577462 0.4562463 -0.13338031 -0.16911392 -0.017327905 0.09334885 -0.5647538 0.2851412 -0.0447106 0.1365808 -0.078709505 -0.343685 0.020200819 0.5803441 0.09598565 0.13647194 -0.05988864 -0.38198692 -0.06793022 0.14587887 -0.61083716 0.051617563 0.05931781 0.28393623 0.7830812 -0.5392045 0.28877303 -0.135153 0.32018682 -0.027633162 0.63298124 0.23217334 -0.7055179 0.12256587 -0.42781305 0.536287 -0.06515716 -0.22940035 -0.903385 0.77470744 -0.4175928 0.32814482 0.07488724 0.501714 0.6700116 0.56083375 0.63515675 -0.525468 0.07744887 0.9048102 0.16175017 0.3112941 0.47505358 -0.2817961 0.44220072 0.05565215 0.19490989 0.5524652 -0.28436372 -0.21766779 -0.7613348 0.18539946 -0.11484699 -0.10418426 0.28354988 -0.9589007 0.5975559 -0.23268567 -0.05911532 -0.9269114 -0.09446904 0.120687135 0.15630563 -0.09270846 0.1604547 -0.06021881 -0.009752779 0.37113854 0.42881656 -0.5223667 0.0976389 -0.30207005 0.5677414 0.23831153 -0.4148567 0.49613655 0.4431967 -0.60937935 -0.4178142 0.18866543 -0.07536507 0.2703171 -0.26789156
13300 -0.22164544 0.4908429 0.3389819 -0.34462354 0.5203137 -0.1554398 -0.32631868 0.39221624 -0.03486515 0.46987456 0.3968382 0.265371 0.1407638 -0.46889484 0.13317277 0.07895545 0.5368151 -0.36189955 0.526888 -0.17124636 -0.7723115 -0.67412716 -0.4725229 -0.58742577 -0.40005657 0.10549235 0.008168759 -0.28273264 -0.42301437 -0.095666945 0.4937318 -0.1820622 -0.1887936 0.5635562 0.1025049 0.7024267 0.05562924 -0.24285802 -0.60170823 -0.12933011 -0.2960576 -0.13055691 0.65431756 -0.16178034 -0.24258958 -0.30364048 -0.019785758 -0.14331205 -0.40557122 -0.3268462 0.17853409 -0.13010801 -0.11077075 -0.8146783 0.37162408 -0.55702776 0.6173735 -0.15050103 0.6167603 -0.035969835 -0.2830432 0.37944356 0.31536344 -0.41134053 -0.19027664 0.12821062 0.5474032 -0.38200685 0.0074120266 -0.12974332 0.208169 -0.12911561 -0.61133045 -0.34707457 0.12321574 -0.028751884 0.27319154 -0.12818214 0.118788205 -0.35695052 0.33697742 0.5945393 0.21347278 -0.3853576 0.0109830275 0.274128 0.4152659 0.4333717 -0.49189213 1.1143819 0.10010194 -0.1991261 0.3188254 0.48850986 -0.49515477 -0.026107782 -0.06029429 -0.35526675 -0.48011297 0.23188573 -0.6807037 0.2775737 -0.04436443 -0.14562719 -0.2178992 -0.14890654 0.17266853 0.2697078 -0.10245922 0.0378725 0.06542142 0.07959527 0.5385495 -0.14572628 -0.07363871 0.12105799 -0.033093076 0.38600597 -0.24169561 -0.2733047 0.30087462 0.020425446 -1.1263709 0.33076876 0.16938788 0.43174925 0.22389418 0.24626131
4061 -0.023052504 0.050578654 0.48210585 0.033389956 -0.022160172 -0.12908877 0.19298191 -0.20041132 -0.10619624 0.38055703 0.22477293 0.15477434 0.27097598 -0.14940855 0.8318061 -0.3222242 0.5715927 -0.22294901 -0.05557293 -0.17892753 0.30262452 -0.010950191 -0.17857878 -0.969394 -0.51085067 0.35223046 0.022871574 -0.5962491 -0.32198256 -0.32482824 0.2833354 -0.26146328 -0.023092814 0.8326349 -0.3821347 0.1737342 -0.40465567 -0.109293975 -0.5499465 0.033288874 -0.34705907 -0.48185492 -0.3568885 -0.32087135 0.29755512 -0.24196522 -0.32482174 -0.11691818 -0.07691672 0.5195226 -0.070838615 -0.088079445 0.11109191 -0.09154066 0.0067934347 -0.2454593 0.54536045 -0.39994293 -0.3598715 0.35975623 -0.46032768 0.3346037 0.4796482 0.1143497 -0.079106666 0.1540302 0.5006457 -0.8012223 -0.015519286 0.14966536 0.10001795 0.6587286 0.08959672 -0.25451118 0.65862864 0.27851376 0.053237684 0.51711506 0.3259918 -0.25795606 0.2052827 0.546475 0.0071090274 0.34230563 -0.105782375 0.030866647 0.9191112 0.6468131 -0.31377736 0.48701555 -0.13001198 0.025196498 0.9793557 0.3746449 -0.002454148 -0.17829426 -0.3146077 -0.12068768 -0.5247747 0.10197246 -0.49534783 -0.59089947 0.283191 0.050610736 -1.1303082 -0.11214461 -0.22883053 0.32247126 -0.3031939 -0.26493537 0.13520837 0.25025672 0.25583723 0.3254151 -0.8345686 -0.06722474 -0.13317345 0.18652862 0.33925128 -0.010546871 0.5301579 -0.30904058 -0.48576996 0.2597983 0.6549871 -0.07016061 0.5324134 -0.07126273
4011 -0.23817302 0.37811446 0.2982964 -0.3098391 0.52860063 -0.23325846 -0.20239979 0.4542885 -0.05768676 0.5275872 0.5286666 0.32774526 0.34042257 -0.66328955 0.16812636 0.039352756 0.31430453 -0.3090659 0.5342244 -0.21785541 -0.7428671 -0.45509323 -0.3321137 -0.74160296 -0.5169132 0.12415239 -0.15408868 -0.24837524 -0.51295537 -0.15091603 0.3147455 -0.20838295 -0.1417544 0.60159034 0.14039771 0.5134944 0.101794206 -0.34056637 -0.45833787 -0.12317047 -0.30536667 0.08312016 0.5766 -0.34125876 -0.24161088 -0.2113542 -0.09938405 -0.18654644 -0.24882065 -0.2083838 0.150527 0.03901462 -0.22137347 -0.7218366 0.4438048 -0.56698924 0.62875634 -0.40948176 0.5689267 0.024768312 -0.07674026 0.3380341 0.352495 -0.23812914 -0.0965648 0.10968463 0.7200259 -0.2955514 0.089392506 -0.19168809 -0.05303538 -0.107181996 -0.6511009 -0.42472452 -0.00846368 -0.10426952 0.34076345 -0.36322832 0.123253144 -0.20025021 0.3736625 0.6944389 0.28116217 -0.122552104 -0.19455814 0.41703737 0.74234617 0.41373327 -0.32170314 0.9751753 0.17156579 -0.3583485 0.23532896 0.54015315 -0.55464226 0.0737608 -0.0987594 -0.5082436 -0.26050857 0.12010183 -0.8582827 0.36695775 0.118853636 -0.14262277 -0.28292063 0.12946084 0.16573472 0.052375626 0.05950356 -0.07904182 0.16488385 0.11157196 0.2661833 -0.13435982 -0.09080132 -0.06775152 0.16608909 0.27661705 -0.20081088 -0.23115817 0.009784462 0.027134754 -1.082566 0.3735255 0.11414618 0.5058019 0.13357373 0.1371876
14348 -0.42579764 0.23197968 -0.2610478 0.09193976 -0.3157514 0.2804405 -0.09301494 0.12989673 -0.16132592 0.36921263 0.051090498 0.32672682 0.38727212 0.0099729085 0.86170685 -0.4425696 0.424134 -0.5716219 0.0041965046 0.081612356 -0.28927085 0.10011583 -0.22163105 -0.8021479 -0.61440015 -0.2139977 0.0119320685 -0.24934809 -0.7431083 -0.20902409 0.885666 -0.23647125 -0.26554453 0.6533811 -0.5621136 0.20244515 0.45758983 -0.071362846 -0.15417431 0.006715837 0.21651305 -0.66762966 0.3277342 0.16757971 0.012913567 -0.08991074 -0.26402056 0.13002594 0.5125559 -0.0028082835 -0.056459248 -0.010274563 -0.17644873 -0.18158993 0.12808698 -0.6009654 0.14358516 0.0006949137 0.27713883 0.6549246 -0.3430773 0.20814583 -0.22436525 0.5226412 0.25355494 0.40860885 0.083317325 -0.70398784 0.041047268 -0.8423132 0.42183417 -0.23636675 -0.21421759 -0.9153364 0.81539965 -0.37697783 0.12520881 0.20000987 0.42713198 0.47749168 0.57959455 0.52400225 -0.49278474 0.08988386 0.5104643 0.09266418 0.2583126 0.46419036 0.015422146 0.45442647 -0.11606818 0.060400072 0.3920611 -0.14184031 -0.41484642 -0.7069976 -0.055127777 -0.23443495 -0.006091494 0.4296163 -0.9102984 0.38778135 -0.43797737 0.10897817 -0.92460203 -0.076036036 0.24196036 0.12220663 -0.03174203 -0.0025955925 -0.11878685 -0.13008223 0.41154137 0.36339587 -0.5990273 0.31424955 -0.3948407 0.43167368 0.38620445 -0.45172647 0.53083825 0.33051822 -0.45607814 -0.09735717 0.18907635 -0.12564361 0.330249 -0.24519864
9567 -0.09908151 0.15489148 0.16060507 -0.30679405 0.5148497 0.39014703 -0.5750378 0.056267343 0.42930025 0.45720997 0.3721675 0.22452813 0.25494236 -0.24898022 0.7417171 0.07102349 0.07559905 -0.6008844 0.64568114 -0.40412164 -1.0775566 -0.0669474 -0.21486315 -1.0149965 -0.6802944 0.1876527 0.2745965 0.06571644 -0.6075752 -0.019628335 0.5863689 -0.37845513 0.16898026 0.48768723 -0.5549988 0.4241293 0.31804577 -0.08268431 -0.665418 -0.34728014 -0.31458288 0.14647944 -0.059864867 -0.25139785 0.23401204 -0.06638188 0.14133479 -0.22966444 0.23167962 0.6605596 0.009246791 -0.26841775 0.9931403 -0.70613813 0.034516256 -0.35827148 0.84052604 -0.07518057 -0.15877841 0.1820232 -0.816194 0.5515205 0.3932949 -0.19152069 0.43527487 0.51504374 0.5621991 -0.44383425 -0.2664976 -0.29280853 0.17181015 -0.12829861 -0.17281562 -0.22072022 -0.35978478 0.29715025 -0.089456774 0.2234367 -0.19665988 0.59183544 0.34893835 0.91305006 -0.383886 0.56452465 -0.50988203 0.26773635 0.43894905 0.16978265 -0.13034235 0.18377383 0.1776505 -0.54881203 0.77315843 0.18730082 0.2573341 0.530779 -0.2850491 -0.5450857 0.06293788 -0.7491978 -0.72990066 0.17851432 -0.46263084 -0.0279896 -0.6298446 -0.10462438 0.17932457 0.64760333 -0.2174074 -0.06728565 0.29534703 -0.4257885 -0.17696294 0.4666439 -0.34131822 -0.4383271 -0.56272626 0.2777266 0.16972439 0.16170608 -0.22830413 -0.3303944 -0.9520434 0.47834587 0.51255065 -0.35167286 0.2567132 -0.06647289
267 -0.21875092 0.22275847 0.3511576 -0.17129482 0.5608426 0.04432462 0.23996216 -0.041746445 0.04538519 0.01404634 -0.16826817 0.39044765 0.27064398 -0.12606862 0.43040797 -0.5371605 0.32585979 -0.41881958 0.061182704 -0.48585597 0.051648177 -0.32423162 0.2021798 -0.7290399 -0.60736316 0.14067665 0.008711304 -0.107563965 -0.6413734 -0.2978947 0.43881097 -0.0107793715 0.47672665 0.25971666 -0.124381445 0.05651891 -0.17735359 -0.049731582 -0.444825 -0.15270874 -0.5203055 -0.22239955 -0.036737744 -0.14448416 0.24413852 -0.052314676 0.02371614 -0.042155407 0.33921885 0.7552062 0.071462445 0.20295481 0.58642566 -0.21730062 -0.017099604 -0.45341766 0.34867504 -0.28580853 -0.0074667037 0.63872427 -0.45024946 0.45110512 0.48931608 -0.1078488 0.07356929 0.1758871 0.45089993 -0.69840455 -0.44564718 0.26426554 0.48479444 0.39030007 -0.1456719 -0.116614096 0.038381368 0.237614 -0.14918938 -0.019188657 -0.40756926 -0.14511867 0.59633005 0.6952313 -0.37593478 0.36794144 0.2909265 0.4299644 0.7467418 0.26311272 -0.3551303 0.33398125 0.38741425 -0.22075595 1.0468385 0.29439184 0.02944143 -0.16281235 0.07295913 -0.06901007 -0.8048658 -0.45979035 -0.69074917 -0.08930416 0.33593702 -0.0035284194 -0.92843634 -0.62972814 -0.032630265 0.6636322 -0.31952947 0.15944436 -0.017843867 -0.19358183 -0.2471376 0.3743705 -0.44922704 -0.12508975 -0.5153672 0.7234974 -0.5485143 0.05217871 0.25429407 0.0073038912 -0.63321364 -0.42192915 0.31058216 0.010920124 0.27796587 -0.16083314
10264 -0.59162164 0.5462265 0.2569653 -0.11480566 0.46743247 -0.10053635 0.12859796 -0.1144181 0.11706326 0.1498499 -0.38573784 0.122349985 -0.17341064 -0.067497574 0.7829585 -0.6828257 0.4705125 -0.24504928 0.262771 0.16467564 0.7780786 -0.21156822 0.09481693 0.010404857 -1.3274268 -0.022106215 -0.18104067 -0.042227663 -1.1545818 -0.73453224 0.35469604 -0.34079275 -0.23353593 0.5803034 -0.18042386 -0.1070294 0.02226716 -0.2590942 -0.14297467 -0.0918853 -0.7609646 -0.2570863 -0.12884538 0.026469983 0.1477747 0.11521082 0.4855121 0.015107306 0.28284347 0.0819884 -0.34118012 0.14579949 -0.01605139 0.22486196 0.4838351 -0.2614218 0.12941386 -0.17053172 0.08477328 0.76441497 0.43288556 0.2857002 0.6135872 0.27755776 0.2855089 0.17995283 0.107891195 -0.73012996 -0.24911475 -0.1866394 0.39011884 0.1159358 -0.2854691 -0.38757345 0.22212549 0.07424297 0.23083371 -0.4290522 0.100236885 -0.07307047 0.7394801 0.22923328 -0.505813 -0.12773508 0.5672342 0.38401574 0.93988466 0.3498128 -0.6173593 0.27825317 0.11543068 -0.18714657 0.538909 0.33858952 -0.47000602 -0.39165038 -0.30893326 -0.0671116 -0.5325626 0.64369726 -0.9195357 0.07416014 0.85829026 0.19976127 -0.97660965 -0.3488556 -0.18587212 -0.0018167814 0.2694761 -0.12905411 -0.6516287 0.09477769 -0.02752114 0.0815865 -0.43390635 0.51202244 -0.1440096 1.1464504 0.029876927 -0.039379414 0.1790665 0.15365686 -0.32579508 -0.37056318 -0.3673428 -0.16500907 0.46957076 0.13541567
4678 -0.164122 0.02028457 -0.26518592 -0.49066842 -0.021870019 -0.62380165 -0.29601 -0.083390646 -0.23332052 0.22286877 0.30323753 0.46976855 0.66507435 0.41400605 0.43329442 -0.05804824 0.2528515 -0.37523335 -0.045195177 0.069899745 -0.11795665 0.060468264 -0.27424464 -0.297228 -0.43821302 -0.1411703 -0.048560366 -0.24249811 -0.7168305 0.40075904 0.036904983 0.44698027 0.48530054 -0.26456678 0.053916566 0.38346773 -0.19782734 -0.08142482 -0.030850017 -0.42329153 -0.23546892 -0.37166065 -0.57106316 -0.3138783 0.6732311 0.36269057 0.141537 -0.1760678 0.32671863 0.834015 0.1049091 0.2742804 -0.24306135 -0.34106007 0.09968248 -1.2161413 1.0598744 -0.15916249 0.08736037 0.6505582 0.086219296 0.21103872 0.2460176 -0.9616841 -0.39125645 0.25894862 0.33633903 -0.23802161 0.075743385 0.26301292 0.7564865 0.14943126 -0.22053942 -0.15884161 0.06545915 0.1004975 -0.08968585 -0.006936096 -0.6424785 -0.33333728 0.5136982 0.3569508 0.040185355 -0.06640274 0.10757435 0.48054957 0.2897893 -0.07055304 -0.38905722 0.44631076 0.02274716 -0.29361486 0.65292037 0.56703067 -0.22839162 -0.6597794 -0.42280784 0.10114742 -0.26633725 0.17230494 -0.24290967 0.22209729 -0.36817387 0.44413558 -0.527041 -0.016466554 -0.02729009 0.45907038 -0.24002527 -0.033228546 -0.06328051 -0.10103777 -0.29935914 0.2490958 -0.3951496 0.22124632 -0.33197802 0.9276062 -0.044303976 0.6894759 0.5166345 0.56263053 -0.7931014 -0.024357932 0.5027173 0.05559723 -0.14731935 -0.24635287
19384 -0.19493665 0.4165628 0.32227296 -0.16332307 0.34388894 0.25164393 -0.06611831 0.19103462 0.020832824 0.66444314 0.21111543 0.15708394 0.44711128 -0.28835312 0.6815526 -0.6096143 0.4294869 -0.50723803 0.1529392 -0.24140121 -0.7190968 -0.20307957 -0.14878114 -1.1886176 -0.7251467 0.21074347 -0.02479843 -0.2360026 -0.8708775 -0.04779135 0.46450898 -0.1154367 0.11466899 0.6512237 -0.29613808 0.269964 0.3008645 -0.15746367 -0.4872795 0.00052806217 -0.41340992 -0.36951703 0.020289134 -0.2146697 0.11038044 -0.21841562 -0.039007362 -0.070907906 0.1645541 0.6741985 0.27858633 -0.052243307 0.6014204 -0.776316 0.1872665 -0.7046415 0.73817474 -0.38142166 0.16570427 0.39591277 -0.5599107 0.54335815 0.4287177 -0.013012132 0.29819354 0.15458 0.44864392 -0.630171 -0.34992704 -0.1449659 0.13930371 0.041389108 -0.2586474 -0.52615565 0.2953277 0.4038633 -0.1260973 0.062185075 -0.051457725 0.17509277 0.6042941 1.0849556 -0.42926824 0.36472118 -0.033240203 0.44575557 0.84555435 0.3258759 -0.08228582 0.4075034 0.29680505 -0.25192827 0.7724898 0.52945733 -0.33320183 -0.023705406 -0.11404956 -0.4372074 -0.43373868 -0.462072 -1.05238 0.3265338 -0.026289882 -0.18252794 -0.8674789 -0.1852299 0.08798417 0.60039765 -0.06744714 -0.06653894 0.232207 -0.25902274 -0.18061563 0.37595624 -0.36789954 -0.18096338 -0.4212452 0.58134484 -0.13183084 0.099134654 0.10620477 0.0034858547 -0.96107566 0.14828627 0.4207114 0.000520182 0.24457137 -0.3120618
6625 -0.0306423 0.012460359 0.52132165 0.045904264 -0.0814467 -0.15903819 0.22146235 -0.199411 -0.14326183 0.371971 0.24011539 0.16848102 0.26157826 -0.13625643 0.85871017 -0.34012014 0.6257755 -0.2124367 -0.09682363 -0.17496265 0.3737968 -0.02169659 -0.20092458 -0.97555655 -0.48712057 0.37521526 0.019470375 -0.63754 -0.27704734 -0.3266715 0.27319995 -0.24328287 -0.029217947 0.8404083 -0.37271765 0.17892234 -0.44891343 -0.111601196 -0.5326937 0.07156037 -0.3160775 -0.5324257 -0.3567629 -0.3116897 0.30511355 -0.26595464 -0.37760356 -0.097022496 -0.07391821 0.55087805 -0.0778785 -0.103553146 0.052345287 -0.07530898 -0.011822098 -0.2740855 0.5644699 -0.41876894 -0.39485466 0.35526016 -0.4947558 0.30805978 0.49302107 0.13293198 -0.08370579 0.16218475 0.4890977 -0.79743135 0.010079821 0.17249188 0.08458044 0.7020209 0.09962958 -0.2558021 0.6956608 0.273478 0.04586101 0.57751215 0.35696653 -0.30879802 0.15164688 0.53913903 0.066710375 0.34717438 -0.108556755 -0.0042295232 0.9482944 0.64659685 -0.33188793 0.5131897 -0.14907466 0.032167837 0.9902618 0.38472635 0.015380547 -0.19289905 -0.32867467 -0.08709778 -0.5436663 0.13726625 -0.4542874 -0.6488574 0.26888016 0.08402204 -1.1584201 -0.11409143 -0.2575378 0.3074642 -0.30465367 -0.28545266 0.14693119 0.28058338 0.2914892 0.37055725 -0.8337681 -0.06322257 -0.10372897 0.18457673 0.41067252 -0.0347927 0.5804752 -0.325904 -0.45689127 0.26868773 0.67420065 -0.04040118 0.57808554 -0.06587329
4453 -0.18600856 0.09503135 0.06414955 -0.3175948 0.26291835 0.03928901 -0.040593177 0.27853945 -0.031881593 -0.023805983 0.033885445 0.157479 0.05378258 0.38861874 0.36095786 -0.39153114 0.75696504 -0.25275263 0.045948613 -0.31819403 -0.31397083 -0.42170015 -0.539865 -0.24616028 -0.15279007 -0.006867655 0.1712079 0.53143066 0.011222959 -0.08406309 0.62743944 0.435692 -0.27363995 0.34928504 0.29049295 0.20170057 -0.092458874 0.056551047 -0.3309142 -0.4123789 0.15219434 -0.16609406 0.31501207 0.44056335 0.21257381 -0.35712072 0.16034701 0.33932516 -0.032829016 0.06970584 0.1368565 -0.006176827 0.072034016 -0.4129939 0.053709216 -0.74809134 0.2950539 0.25974086 0.5978933 0.41260114 -0.7916367 0.30406302 -0.086710006 -0.34846514 0.046633977 0.28544044 0.6209176 -0.18157363 -0.04926324 0.01852686 0.610739 0.0017559651 -0.251509 -0.66448814 0.41184643 0.056946732 0.5001654 -0.08711227 -0.18573853 -0.3808869 0.06587319 0.58776957 -0.3603607 -0.39598173 0.73971003 0.09753561 0.29355943 0.27495122 -0.7232965 0.84762675 0.16830234 -0.17568508 0.50756395 0.28790686 -0.053910203 -0.18849239 0.015217392 -0.40442652 -1.0395615 0.002084137 -0.4747811 -0.06841757 -0.074294165 -0.1575187 -0.27785715 -0.7137129 0.027564963 0.20219724 0.27441517 0.19010617 -0.5521667 0.2799337 0.4162123 0.2667968 -0.13670471 0.6455981 -0.22201133 0.8629179 -0.07037465 0.21641217 0.33320388 0.2688485 -0.8820532 -0.19554366 0.16636424 0.20678185 0.23098671 -0.012044302
4801 -0.107406914 0.38870224 0.0871473 0.44827637 0.27001932 0.2520016 0.3490972 -0.37358865 0.18052404 -0.3022588 -0.6206207 0.14333138 0.47787404 0.041662373 0.6777386 -0.6743647 -0.16200513 -0.6894754 -0.17182395 -0.13505997 0.14646204 0.20028338 0.15131131 -0.8326529 -1.3248923 -0.1239762 -0.19866088 -0.71261317 -0.5479066 -0.44557443 -0.11906566 -0.038960535 0.36880407 -0.09153548 -0.12402902 -0.19991432 -0.13176654 0.5086417 -0.08936736 0.31730047 -0.49676833 -0.43805066 -0.1411079 -0.117424995 0.48350388 0.019171098 -0.052364543 -0.1776739 0.5605019 0.66686285 0.10832637 0.09344833 0.6500153 -0.1655962 -0.14635389 -0.091936015 0.050562177 -0.43729517 -0.096673846 0.8568184 -0.07150352 0.8179924 0.589886 0.1687605 -0.27311176 0.04327914 -0.24567156 -0.7225477 -0.49932268 0.28215402 0.3760287 0.31434324 -0.051018298 -0.30905914 0.22104591 0.5433642 -0.63335365 0.1358032 -0.36811817 0.5323174 0.71303695 0.66086227 -0.47420347 0.4153634 0.2780047 0.07770512 0.39949724 0.565654 -0.08732279 -0.5522137 0.13304456 -0.07184994 0.8320475 0.24515097 -0.28992617 -0.4288453 0.13488089 0.057966024 -0.4860179 -0.5107354 -0.53245 0.092926286 0.4086597 -0.01640752 -1.3856425 -0.1834769 0.51525694 0.53233665 -0.67311984 0.05911582 0.01528714 -0.3475152 -0.26841423 0.28177664 -0.72322696 -0.45847252 -0.17489436 0.5730522 -0.2313996 0.48757178 -0.09348955 0.03637198 -0.33830607 -0.79149014 0.67563176 -0.0027333822 0.29660854 -0.4431231
6337 0.20079142 0.87717426 0.34813327 -0.48281306 0.51646245 -0.035557315 0.20382778 -0.6510578 -0.33127135 0.42100713 0.12435984 0.3300339 0.0042321836 -0.32129806 0.15285727 -0.36681172 0.051004704 -0.5725079 0.38806885 -0.42387035 -0.060285993 -0.05681202 0.31812242 -0.48621777 -0.9827529 -0.25617743 -0.15999593 -0.27877635 -0.67406183 -0.26304263 0.5624409 -0.101683885 0.07864902 0.9285949 -0.6701142 0.28382552 -0.03422549 -0.052344874 -0.5168776 0.0018109912 -1.1965165 0.045957617 -0.07169559 -0.6847804 -0.40054524 -0.24100271 0.18024422 -0.28701797 0.21673876 0.36099818 0.04627817 0.3169462 0.10176839 -0.41430822 0.26726705 0.27662653 -0.1969103 0.48126054 -0.2823189 -0.12275064 -0.1752459 0.53295535 0.16197453 -0.26522112 0.3653497 -0.122792676 0.13267525 -0.7263863 0.1442543 0.11742972 0.44932732 0.61581236 -0.098409615 -0.42074752 -0.22408363 0.41832885 0.30703536 -0.2675215 -0.3210584 0.5246123 0.9562184 0.3233671 -0.46668866 0.020719174 0.11261475 -0.031221552 0.14858751 -0.43785244 -0.88118416 0.3540511 -0.054720547 -0.51311237 0.64795274 0.11269233 -0.29803315 -0.46342576 0.055426072 -0.27249935 -0.2812252 -0.1894016 -0.5876192 -0.25890294 0.5583153 0.054304507 -1.0532606 -0.6211669 0.07321674 0.5670317 -0.2841453 0.17982142 -0.3344664 -0.016847441 0.26632005 -0.15009035 -0.7159042 -0.18722542 -0.21924445 0.43003637 -0.060143802 -0.07734896 0.09928613 -0.32346323 -0.54704666 -0.3850304 0.3616909 -0.04136675 0.0704144 -0.07943256
6398 -0.086134575 0.30335045 0.25634336 -0.3473536 0.56263226 0.48004717 -0.61568934 -0.013170262 0.33160037 0.5781861 0.45458737 0.33848232 0.24850193 -0.4091576 0.75510913 0.022992399 -0.0029990908 -0.48241472 0.69410115 -0.43736634 -1.0223355 -0.06638103 -0.18037699 -1.0111288 -0.7728741 0.19433437 0.24385338 0.014685215 -0.70538884 -0.023256982 0.70463616 -0.34589195 0.11442555 0.47133484 -0.67493695 0.39757505 0.42965946 -0.024187915 -0.6590598 -0.36083683 -0.36888435 0.14300716 0.0077226902 -0.30035496 0.12990233 -0.08952027 0.1793354 -0.25319615 0.25131842 0.69909257 0.0068872254 -0.25232434 1.0521713 -0.53844714 0.08247817 -0.13265069 0.9220086 -0.07272829 -0.11437442 0.16542308 -0.7118857 0.5517759 0.4429198 -0.18203934 0.47677162 0.40826365 0.611476 -0.56271785 -0.2678308 -0.31566387 0.09448131 -0.2021437 -0.10421872 -0.12858021 -0.46264532 0.22717224 -0.07663785 0.2575109 -0.10362499 0.70866525 0.56918806 0.8043622 -0.34536895 0.62606794 -0.48547038 0.35756597 0.44116697 0.08116764 -0.096522205 0.12374429 0.16546905 -0.5015495 0.8339057 0.09282412 0.14085156 0.46118712 -0.37150136 -0.5213044 0.07982141 -0.6831696 -0.8713124 0.24646585 -0.38506794 0.059428018 -0.7085374 -0.13950808 0.23031384 0.6328679 -0.34323874 -0.0018074688 0.39618656 -0.5421145 -0.12681368 0.4087266 -0.4370842 -0.47194642 -0.531689 0.33353052 0.20951992 0.05460468 -0.27303246 -0.36144876 -0.9914043 0.42149448 0.43365148 -0.4373473 0.25632593 -0.16641955
891 -0.19799978 0.43837252 0.27932996 -0.26127347 0.3722187 -0.002276433 0.10558352 0.24742301 0.038974863 0.5124579 0.11901021 0.23134086 0.34491387 -0.16323368 0.68522793 -0.6287886 0.4233077 -0.47587967 0.13388014 -0.24683963 -0.41218603 -0.4465656 -0.121284716 -0.82580125 -0.82764965 0.120254986 -0.016079158 -0.17846724 -0.775761 -0.17511474 0.49050346 -0.0382352 0.118837915 0.5158347 -0.2375006 0.12898944 0.020752775 -0.026537834 -0.49863148 -0.13924588 -0.51131 -0.17441705 -0.03310029 -0.08787967 0.183809 -0.20057537 0.09804189 -0.08931353 0.22896622 0.5476396 0.10572361 0.04870179 0.4070985 -0.5516505 0.333435 -0.63496697 0.47748053 -0.2783427 0.15838245 0.61604255 -0.45689556 0.6415513 0.32405055 -0.16625628 0.13663521 0.1691831 0.43412995 -0.637391 -0.32272762 0.037301254 0.40546164 0.12396114 -0.25750038 -0.4502142 0.28640383 0.38358372 0.13795835 -0.1555442 -0.27766073 -0.06335727 0.7357647 0.8355212 -0.44508475 0.0644985 0.20882365 0.35110378 0.6734248 0.3739534 -0.46142417 0.44158643 0.25170296 -0.22107641 0.81203294 0.48419484 -0.33127826 -0.27760074 -0.16867554 -0.36879525 -0.5693682 -0.31337902 -0.9991593 0.1349607 0.29348135 -0.10524563 -0.91915816 -0.43948302 0.032997914 0.528473 -0.019035835 -0.06669264 0.0017546077 -0.04868655 0.013937548 0.34502918 -0.38649693 0.068417385 -0.39020118 0.75052816 -0.19408119 0.1964241 0.17558469 0.042210646 -0.93699956 -0.16496947 0.26799387 0.12162974 0.45563945 -0.27700192
