1028 128
18906 -0.017606732 0.08580534 0.17595693 -0.27192605 0.116663106 -0.15283656 0.19219291 0.4958948 -0.1209884 0.88053846 -0.24367881 -0.3239147 -0.3779573 0.36460155 0.35421795 -0.29559833 0.073311985 0.30300626 -0.3946101 -0.11663374 0.2096309 0.69393194 0.08534861 -0.14331028 0.036733665 0.69906026 -0.34457794 0.115889974 0.13248272 0.08314154 -0.07911283 -0.10131415 -0.3464454 -0.1174893 -0.4481658 0.17092007 0.71294224 -0.10411533 0.5199093 0.27079833 0.09464013 -0.29345706 -0.48182592 -0.5141505 -0.60914195 0.18141761 -0.45936355 0.41367823 0.01522251 -0.1794581 0.10898665 0.30971465 0.5061597 -0.112050265 0.57992196 -0.10230659 0.2937462 -0.47985792 0.52808076 -0.04052218 0.12473821 -0.031236889 -0.106809646 0.41526297 -0.0076389653 -0.7534517 -0.07059426 -0.22650094 0.25622758 -0.26141953 -0.06452166 0.7175758 0.4125263 0.10288342 0.2517618 -0.26948637 0.16145495 0.19692713 -0.2408599 -0.061632477 0.39643714 -0.4034649 -0.08876449 0.015305462 0.5733217 0.15472537 -0.32022992 0.1700278 0.6481186 0.43323475 -0.25593248 0.28636077 -0.28690693 -0.007539977 -0.15744907 0.038252253 -0.5210699 0.7017245 0.0728866 0.12558253 -0.16455147 0.3802533 0.15365753 0.18052879 0.07468726 0.28312257 -0.054968353 0.3354068 -0.24989158 0.30387682 -0.53259766 0.41867214 -0.73225415 -0.30565977 0.26900232 0.3930268 -0.3758388 0.26349258 -0.07213651 -0.20090085 0.057641238 0.023868043 -0.2974791 -0.5074373 -0.29379997 -0.6977548 0.26577464 0.11578579
19757 -0.055956546 0.16600187 0.3697238 -0.2235275 0.074059725 0.15152058 0.07817158 0.41304684 -0.054455053 0.9789512 -0.4789744 -0.13264452 -0.4710453 0.5248859 0.38222307 -0.39872772 0.08542764 0.43766037 -0.4823719 0.1621234 0.07057051 0.5913702 0.059811056 -0.19102904 -0.33533096 0.53950644 -0.2772152 -0.13907696 0.09544311 0.15863001 -0.1919588 0.15071288 -0.5325663 -0.22849436 -0.46705726 -0.009057536 0.62126786 -0.27889934 0.43485376 0.46552914 0.113134876 -0.2332375 -0.4199081 -0.14019327 -0.645588 0.32715654 -0.5657201 0.3748814 0.14626952 -0.13215557 0.30626845 0.5865584 0.64018327 -0.013559669 0.28372124 -0.088310935 0.27187145 -0.51413554 0.50634956 0.06283667 -0.043752193 -0.07178403 0.042796314 0.42944485 0.15673053 -0.8741194 -0.074495696 -0.13434334 0.23451461 -0.18802303 -0.1809565 0.9523367 0.23063271 0.07992907 0.20235558 -0.293487 -0.40824956 0.17086245 -0.2550304 0.065142564 0.22959787 -0.2719434 -0.2468205 0.14434972 0.57116956 0.19993797 -0.33402222 0.37908322 0.6479813 0.23033664 0.02873332 0.4269296 -0.20218886 -0.0770207 -0.289694 -0.07343473 -0.53549653 0.2847594 0.01860371 0.05316764 -0.069153495 0.2635475 -0.012424549 0.091445036 0.11488108 0.3904369 0.1919091 0.21948266 -0.03703575 0.32848653 -0.31716475 0.2817198 -0.5631173 -0.4173323 0.0910882 0.44992235 -0.26344824 0.19803606 0.09658248 -0.23553473 0.32017976 0.27440077 -0.31360197 -0.080469035 -0.5558355 -0.62215924 0.27490819 0.20629314
14181 0.3626662 0.05002412 0.027106578 -0.11462099 0.19583511 0.03974461 0.025855564 0.20799725 -0.15568012 0.590939 -0.52566326 -0.13381106 -0.28473514 0.7417201 0.30311945 0.12601246 -0.18810682 0.5099576 -0.3863786 0.052500837 0.52396494 0.4932446 0.15347522 0.106395155 -0.12721272 0.22758384 -0.503335 -0.56566954 0.04624859 -0.2395395 0.10013191 -0.20084842 -0.09946842 0.39520803 -0.38381335 0.3997436 0.26635063 -0.42685595 -0.10779224 0.1015507 0.12651393 -0.616853 -0.25943458 -0.37552264 -0.7420093 0.38011038 -0.29510608 0.12631471 0.08243827 -0.251648 0.15258116 0.49299297 0.5291262 -0.49925286 0.26468894 0.2948533 0.22291088 -0.44309065 0.5972063 -0.19527364 0.44344786 0.1602623 -0.15716967 0.41761175 -0.23274109 -0.39752367 0.38294744 -0.0059303767 0.12378847 -0.011465696 -0.34858766 0.49700132 0.45384488 0.26324892 0.25246543 -0.15125687 -0.37607065 0.069541164 -0.11110648 0.47886598 0.32333633 -0.34584042 -0.13666372 0.2275427 0.43394244 -0.265047 -0.3897737 0.4100998 0.5318334 -0.22640322 -0.14638972 -0.15454115 0.13800088 -0.3504568 0.23961271 0.42302686 -0.46569744 0.15236753 -0.11813183 0.34887543 0.10914265 0.56747144 0.30810985 -0.22858429 0.36126745 -0.15949117 -0.060175356 0.72638226 -0.1990232 0.41306353 -0.330074 0.44703022 -0.46647227 -0.54902 0.38895363 0.35598078 -0.4776525 0.5484185 0.28220645 -0.30290076 0.0750288 0.22683485 -0.57193244 -0.057953298 -0.4725493 -0.07064748 0.27896962 0.21318434
7362 0.2673897 -0.48810902 0.69316775 0.84667635 0.43259746 0.0027389624 -0.31393933 -0.01470414 -0.21035446 -0.03778203 -0.060342 -0.08391664 -0.30612665 0.13211401 0.03326455 0.033268277 -0.15686843 0.76705474 0.2461746 -0.6168223 0.3025613 0.59900403 0.22566925 0.30627483 -0.7027982 -0.032284763 -0.4827742 -0.70661736 -0.07311825 0.022580847 -0.021606125 0.06983334 -0.19170651 0.48109955 0.054220483 -0.11009663 0.659878 -0.38370085 0.3414575 0.5833239 0.78725016 -0.55674016 0.06869458 -0.40713418 -0.81570953 -0.1695471 0.07946157 0.41506132 -0.03646661 -0.840095 0.37773845 -0.24673158 0.10950176 -0.73556495 -0.35154063 -0.4147686 -0.11200655 -0.2550589 -0.19311492 -0.30993092 -0.009220382 0.12692344 0.47284395 0.28704357 0.53964233 -0.5639971 0.5949699 -0.48070434 0.56654054 0.59974813 -0.23087601 -0.0062055634 -0.18399732 -0.592867 -0.53678375 -0.28909594 -0.072827145 -0.46988583 0.20375493 0.17328782 0.4255236 -0.69323134 0.2528567 0.2267735 0.4322864 0.0027539418 -0.67739934 0.18855539 -0.30529925 -0.49824238 0.41821346 0.11226235 -0.0068647843 -0.13230254 0.2604491 -0.032902714 0.014261218 0.3914871 0.40084717 -0.18813995 0.02281375 0.40705866 0.169411 -0.2512772 0.18118724 0.53875536 0.103561826 0.8124712 -0.095008306 0.040708322 -0.5402012 0.40232494 0.40127748 -0.21900275 0.42603472 0.16529551 -0.67466366 0.30240545 -0.041895952 -1.2624966 0.12993248 0.47632223 -0.1646995 0.20291817 0.24303712 -0.20578934 0.48687115 0.75169617
6940 -0.14311214 -0.5243877 0.45764813 -0.20471501 0.43919837 0.48452199 0.008281916 -0.10249586 -0.79861176 0.13106601 0.24711794 0.05946495 -0.27672258 -0.0039574513 0.3753575 -0.77398735 0.018667549 0.28581554 -0.08424983 -0.1844379 0.17606482 0.5524877 0.038702533 0.3561602 0.0018691367 0.40463543 0.62238127 -0.6491731 0.113260895 -0.060189836 0.08319556 0.16209388 0.16222686 -0.072365515 -0.36930037 -0.2336744 0.4080394 -0.4187794 0.07387667 0.21022613 0.8747015 0.38481182 -0.6365119 -0.66832334 0.04873185 -0.2491455 -0.76619864 0.22375408 0.42178646 -0.54551256 0.531727 -0.40626726 0.3088084 -0.16368654 0.05930469 -0.09057343 -0.13614576 -0.7805537 0.4394309 0.10418095 0.21479374 0.66233873 0.2879403 0.6033397 -0.1985312 -0.861049 0.18008728 -0.27793393 0.5121744 -0.06299772 -0.40124524 -0.52622664 0.50950956 -0.8135988 -0.3372536 -0.19325095 0.5413807 0.01850252 0.026153985 0.06307425 -0.12960719 -0.38943738 -0.018264439 0.0089360885 0.19033037 -0.02875958 0.11317872 0.48405376 0.32650703 -0.21288928 -0.084663965 0.22104226 0.39427975 -0.10482009 0.02565259 0.49942446 -0.21846001 0.39366087 0.09095771 0.05833254 0.2283477 0.5917801 -0.2582781 0.12143147 0.93058914 0.87634814 -0.1847738 -0.17848058 -0.16745454 0.083716094 0.021516273 0.44538483 -0.18135871 -0.36266994 0.1293468 0.025408514 0.0123400735 -0.20921646 0.117562465 0.12481915 -0.17719962 -0.06492023 -0.4353954 -0.0625072 -0.0047645643 -0.5678079 0.30465916 0.21182726
9138 0.3765304 -0.5332213 0.45807785 0.1279366 0.7687242 1.031236 -0.16803515 0.117052205 -0.17784595 -0.03905944 -0.37451538 -0.32264876 -0.32847562 -0.022570876 0.06298403 -0.3555341 -0.07895043 -0.22651482 -0.6369806 -0.22833683 0.069796495 0.48438284 0.014662651 -0.17191383 -0.6500998 0.003824237 -0.22392604 -0.56739575 -0.12631507 -0.057770804 0.33391958 0.24510233 -0.010392212 0.32442594 -0.26948383 -0.1841594 0.41091734 0.008725173 0.2614422 0.60529727 0.547995 -0.24038555 -0.18829392 -0.2650931 -0.91842544 -0.31864676 0.42901286 0.022133728 -0.066690296 -0.12505051 0.34198627 -0.6363311 -0.06194781 -0.033483263 0.29772323 -0.3737371 0.05009239 -1.6029165 0.21763761 0.18551435 0.3194027 -0.19382395 0.4751799 0.5561787 0.029140078 -0.7565792 0.088042565 -0.12409626 -0.26142174 0.5409053 0.18314657 -0.07510341 0.21342804 0.15173513 0.07215564 -0.10217938 0.21201023 -0.47978672 -0.34650937 -0.13720842 0.04066443 -0.034981966 -0.23731768 -0.469904 -0.21461223 0.17406496 -0.5386368 0.23903045 0.1878199 -0.2921125 -0.39308676 0.12242076 0.38177317 -0.31923538 0.07066974 -0.052698992 -0.5663111 0.6763923 -0.56005377 0.114816435 -0.081614524 0.089267544 0.16854823 0.14087471 0.38565496 -0.30611166 0.07991982 0.049908377 0.13159372 -0.0015527834 -0.33875582 0.43127373 0.27839556 -0.18817234 -0.03466099 0.31281367 -0.19888417 0.15304072 0.5467173 -0.41999677 0.19404599 -0.006704791 -0.29356477 0.28776288 -0.4158572 -0.1160638 0.041002024 0.37280476
10783 -0.27510142 -0.4745344 0.68642753 0.38924274 0.400817 0.44887564 -0.21592143 0.054968826 0.13068196 -0.46141973 -0.36851475 0.03359914 -0.3241099 0.39849243 0.22813484 -0.13135508 0.07955738 0.48117632 0.40719914 -0.043961607 0.11045064 0.29183802 0.18868676 0.08084941 -0.34340867 0.27549914 -0.05421106 -0.39027724 0.21874239 0.33536267 0.039270166 0.3196538 -0.09008367 0.08843377 -0.05955585 -0.16061966 0.52175575 0.41031235 0.65321964 0.21518737 0.66026765 -0.1358971 -0.089920625 -0.37501383 -0.49463236 -0.37578684 0.4581115 0.22527921 0.43787584 -0.52060425 0.14447728 -0.1644075 -0.23947811 -0.29808223 -0.20931013 -0.8899518 -0.012707291 -0.3083985 0.013039264 -0.12909524 0.08235411 -0.0020323598 0.36418587 0.0051972317 0.24080397 -0.27613062 0.30989456 -0.48182377 0.2703998 0.29123935 -0.41011488 -0.106182806 -0.009271749 -0.5727649 0.119776316 -0.56416404 0.13195649 -0.22490966 0.15257578 0.14288755 0.4365519 -0.55615306 0.09000586 -0.09731423 0.38240787 -0.047131658 -0.5302548 0.22970344 -0.04620236 -0.17726167 -0.02736934 0.19523744 -0.0653044 -0.5771346 0.2197038 -0.5905055 -0.026043987 0.74124175 -0.0323913 -0.14307067 -0.33650693 0.7984908 0.085755356 -0.268651 0.5687902 1.1412017 -0.35311303 0.6873781 0.032983422 0.17500155 -0.5869355 0.41141787 0.3543877 -0.7898833 0.21451479 0.078996256 -0.4669212 0.08768737 -0.13650401 -1.0170372 0.38548708 0.55559635 0.000518002 -0.121499114 -0.017615331 -0.19706067 1.0638639 0.657067
12837 -0.04391617 -0.3401633 0.5869746 0.15162426 0.19334473 0.41522247 -0.5162927 0.50250757 -0.08537872 -0.11613 -0.5640667 0.05041145 -0.032014374 -0.2605398 -0.08239062 -0.5247286 0.01749119 0.33953145 0.00013366502 -0.042252403 0.27415988 -0.25396484 0.16337796 -0.06795415 -0.5548239 0.16560733 0.009625544 -0.47868153 0.113848776 0.14799465 -0.29202008 0.02131156 0.3527931 -0.6072631 0.15345259 -0.08617667 0.41937074 0.27451319 -0.21229239 0.68237907 1.2206838 0.44410437 -0.10328683 -0.685942 -0.21583404 -0.30996063 0.30147418 -0.16508962 0.6506721 -0.6448817 0.108245224 -0.23300879 0.10983845 -0.20819199 0.24631354 -0.029423723 -0.15018226 -0.43619716 0.072516896 -0.12396702 -0.6188832 0.47468448 0.48256603 0.30298638 -0.21674168 -0.089567214 0.59450436 -0.57971936 0.42863926 0.38940752 -0.08037234 -0.87847394 0.51888657 -0.18988998 -0.118862465 0.2666235 0.24465068 -0.025157325 0.30420598 -0.62903905 0.23910497 -0.97572374 -0.40205544 -0.2884288 0.06051551 0.2693057 -0.40176648 0.61459124 -0.3729219 -0.5677174 -0.1611524 0.5668749 0.36715874 0.36545274 -0.67167956 0.39930278 0.07854348 0.5555611 0.73390406 -0.63722885 -0.39674008 0.061342113 0.59927344 0.5441167 0.014591744 0.39468014 0.31083503 0.07157623 -0.49682546 0.3748142 -0.46442357 0.20611067 0.53625983 -0.57880217 -0.05958897 -0.34543335 0.1657154 -0.32327673 0.116772 -0.44160178 -0.10905243 0.19048485 -0.10490299 -0.78467727 0.3600614 -0.016240468 0.3507834 0.58198404
7822 -0.15517272 -0.44279042 -0.05552124 0.21502012 0.37416714 0.6461373 -0.5380124 0.26600692 -0.12288839 0.0619048 -0.6542342 0.15623485 0.8556838 0.06469447 0.07399732 -0.28485632 -0.23147336 0.27735004 -0.15820302 -0.12286748 -0.47739628 -0.015616875 -0.049966693 1.1310309 -0.4328573 0.6028224 0.29007906 -1.0477004 0.10736524 -0.026361452 0.015210142 -0.26918796 -0.35582915 -0.14503895 -0.1356614 -0.2742106 -0.14036016 -0.3565054 0.25999773 -0.09689587 0.49204114 0.25444478 -0.70668256 -0.6958324 -0.16699937 -0.14546257 0.33966574 0.29832342 -0.11067312 -0.054182786 0.47087398 -0.5409284 0.07824991 -0.80180776 0.16653654 0.14042456 0.3377053 -0.53076696 0.26845396 0.13604707 -0.047208246 0.66045207 0.16420652 0.46653807 -0.5143055 -0.15750162 -0.16222543 -0.7637317 -0.09649574 -0.033110186 -0.07503498 -0.14476293 0.6260256 0.05797163 0.19897185 0.537867 0.9257241 0.52209735 -0.18686649 -0.6507365 0.29779318 -0.48259398 -0.019427767 -0.5612214 0.023599649 0.31324765 -0.6264608 0.14961559 -0.5531546 -0.328354 -0.14398487 0.4020793 0.26830512 -0.3849633 -0.08099805 0.037047263 -0.40555307 0.21755633 0.24354404 -0.30935293 -0.33850333 0.110231645 0.4458882 0.78051853 0.214529 -0.20369305 0.0022894929 0.17511259 -0.7553319 0.3310192 -0.35054478 0.4630318 -0.2435451 -0.30856693 -0.033768352 -0.005201953 -0.23935655 -0.529426 0.2769168 0.016729852 -0.18139544 -0.25278902 -0.31391683 0.07916291 -0.22283614 -0.18940826 0.031653326 -0.21111494
8351 -0.020611674 -0.36205155 -0.121787116 0.08868616 0.31997108 0.6113909 -0.5177284 0.40570155 -0.26108053 0.17303693 -0.61235124 0.17300358 0.6850435 0.16458018 0.042912398 -0.124378406 -0.3594696 0.3396663 -0.5080974 -0.119735554 -0.31916353 0.15078825 -0.00782082 1.0586593 -0.38073504 0.5117334 0.15468763 -1.0020443 0.20672935 -0.22145769 -0.16148017 -0.28535238 -0.2853531 -0.08213578 -0.3057273 0.052121375 -0.110492595 -0.38509884 -0.016041676 -0.12316996 0.39514706 0.09894615 -0.6336869 -0.77339864 -0.32377684 0.010056176 -0.01102785 0.054842938 -0.1901506 -0.16372353 0.40564024 -0.25665113 0.35656857 -0.69744575 0.3123045 0.46713117 0.3000021 -0.36045069 0.36467677 0.014192585 -0.044018548 0.60767 0.13164043 0.5915265 -0.5821335 -0.22220701 -0.056355875 -0.58856934 -0.08024275 0.04789294 0.10086941 0.036385484 0.67566407 0.32949546 0.16106229 0.7452569 0.7017488 0.463028 -0.20142199 -0.4192038 0.2571399 -0.36414358 -0.18088298 -0.5978553 0.015555952 0.10991961 -0.72710854 0.1778342 -0.34499446 -0.40593708 -0.22102101 0.19260345 0.3621874 -0.27526602 -0.0401847 0.3600125 -0.47088423 0.10003929 0.19472505 -0.3040942 -0.26395616 0.16800892 0.48222062 0.70656645 0.10103529 -0.34822014 0.067074575 0.21884546 -0.7513361 0.38883248 -0.29915303 0.41599876 -0.31586313 -0.17955698 0.034139425 -0.07607839 -0.39826035 -0.31919837 0.5189583 0.12588975 -0.1539054 -0.21566282 -0.48353902 -0.0051550292 -0.11391193 -0.33503398 -0.23762515 -0.25479376
2323 -0.17367299 -0.5440184 0.09925644 0.6496475 0.35932744 0.52497756 0.031609584 -0.07309054 -0.13767873 0.076107495 -0.6582284 -0.20646209 -0.049303636 0.085489534 0.18529804 -0.75624007 -0.008658198 0.46274632 -0.3652424 -0.15940818 -0.4522855 -0.04944884 -0.13229267 0.11677861 -1.060741 -0.6084891 -0.34876472 -0.92941326 -0.049167193 0.15897423 0.3396753 -0.26006922 -0.5748586 0.1879396 0.019493861 -0.2912145 0.6387009 -0.22693689 0.5042868 0.05918078 0.0866488 -0.30517918 -0.09021398 -0.45541212 -0.22868846 -0.46149513 0.04440676 0.6034702 0.10096602 0.07280531 -0.102905266 -0.30717418 0.3875905 -0.18492256 -0.171056 -0.6511852 0.21383078 -0.05682045 -0.33361953 -0.13451838 -0.1140366 0.24724671 0.5480518 0.016707936 -0.21962726 -0.2749228 -0.42737067 -0.74984944 0.5133482 0.79258716 -0.34813115 0.23924197 0.11506242 0.49472046 0.1827994 -0.4486742 0.08327936 0.13393945 0.70942265 -0.21634732 0.32549316 -0.26051491 0.10167149 -0.29941773 0.3677037 0.36381087 -0.5276428 0.22602616 -0.4106826 -0.47708395 0.13855174 0.10346063 -0.22580495 -0.101851545 -0.24142088 -0.09384209 -0.1774356 0.7660964 0.18999845 -0.4640123 -0.4225999 0.17347977 0.0026678995 -0.15776187 -0.080276236 0.78769773 -0.22994286 0.60327184 -0.31013897 -0.104532674 -0.49991143 0.21385321 0.48370948 -0.6367341 0.3779242 -0.44248396 0.41875318 0.06711263 0.18521833 -1.3606439 0.079442225 0.072273046 -0.36628276 -0.1458962 -0.19912793 -0.36455488 0.16448626 0.7384853
15713 -0.22674255 -0.68938476 0.10885894 0.46098438 0.3033366 0.43266326 -0.020696843 -0.15787578 -0.14611515 -0.064964004 -0.7725589 -0.24252322 -0.05067644 0.058125835 0.17969011 -0.7432242 -0.117778145 0.32122195 -0.3614298 0.0048017977 -0.4140917 -0.12797429 -0.17468472 0.46023014 -1.2226015 -0.65884876 -0.47243252 -1.2319036 0.059413888 0.20532924 0.34969085 -0.3214356 -0.34299532 0.16763762 -0.14756706 -0.41722083 0.33944744 -0.14398667 0.4021544 0.004957015 0.11911367 -0.2198306 -0.16824654 -0.419727 -0.017507032 -0.40183705 -0.0046708053 0.376705 0.2927117 0.07119828 -0.03717283 -0.32084298 0.39121872 -0.2882727 -0.122159325 -0.42648068 0.15498844 -0.23560756 -0.10475355 -0.24873653 0.24949794 0.38320613 0.48258716 0.041713767 -0.40645206 -0.20656985 -0.44212762 -0.8323048 0.52414423 0.9802061 -0.29042777 -0.0023556633 0.21113747 0.61451995 0.1876465 -0.2777035 0.12861326 0.22655672 0.8337475 -0.03775771 0.38565698 -0.19741796 0.073803194 -0.32833025 0.3817597 0.049804755 -0.5250981 0.2660962 -0.5237265 -0.5856884 -0.07319634 -0.076047055 -0.13338812 -0.156963 0.04552175 0.027259137 -0.0962398 0.76955533 0.25895715 -0.22798106 -0.47309196 0.3776744 -0.023326868 -0.26491985 -0.1411672 0.9338559 -0.29981607 0.5340206 -0.57807237 -0.07451347 -0.32503453 0.27967554 0.40894076 -0.4936925 0.40596208 -0.5799233 0.44870785 0.100469984 0.28248936 -1.2795078 0.07525742 -0.053958543 -0.5316864 -0.26259148 -0.40640905 -0.39499515 0.20702143 0.69030404
2112 -0.081281394 -0.74376076 0.016974272 0.3636277 0.22493067 0.35510364 0.3387363 0.60291684 -0.060729664 0.16547118 -0.6437131 -0.27674523 -0.01812051 -0.37542427 0.3550849 -0.65144503 0.284566 -0.20968257 -0.47790524 -0.04496561 0.11530081 0.6526572 -0.42985168 0.8931381 -0.913747 0.35560614 0.016719405 -0.3100077 0.27079195 -0.13426866 -0.5819038 0.6489387 -0.094474375 -0.045178708 -0.68186355 -0.4520526 0.1864503 -0.42282197 0.18243214 0.27687374 -0.12456711 0.43746355 -0.4025882 -0.4512215 -0.15765555 -0.74042183 -0.45578378 0.27640182 -0.18391488 -0.21920042 0.09979199 -0.95288223 0.6501788 -0.008344867 -0.07123855 -0.41621733 -0.1670945 -0.735955 0.4462383 0.13695335 0.20330456 0.509779 0.6855365 0.2918286 -0.36244714 -0.37932596 -0.1650493 -0.45789826 -0.007914576 0.59714824 -0.043114115 0.13349058 -0.038957268 0.05630347 0.025212144 0.29199997 -0.21591377 0.18717308 -0.088403426 -0.53331405 -0.051382497 -0.6077468 -0.48854297 -0.6740428 0.4556821 0.2241041 -0.5135799 0.87650025 0.3199784 0.40450138 -0.0734023 0.21227786 -0.09084577 0.4206992 -0.61294144 -0.27620327 0.03026138 0.2566488 0.013760709 -0.02711647 0.19318472 -0.0004133168 -0.0052789063 -0.06202449 0.021163704 0.44861495 -0.24643186 -0.025406564 -0.21206658 0.13171552 0.15054311 -0.28976873 -0.06800202 -0.37516245 -0.35903603 -0.09476258 -0.32996106 -0.10989631 0.12912375 -0.26866016 -0.10447184 -0.5569556 -0.63078547 0.20857292 -0.27736518 -0.65423876 0.024486886 0.23574904
3319 0.4288885 -0.51291287 0.4890548 0.2556499 0.7679231 1.0602548 0.021276146 0.24358924 -0.23538819 0.12824415 -0.3814541 -0.2488983 -0.28675345 -0.06689165 0.12953289 -0.49381384 -0.0964543 -0.14224216 -0.5904647 -0.22970428 0.10673256 0.52319443 -0.19078834 -0.057346012 -0.5381213 -0.074323155 -0.23323475 -0.43883595 0.042660873 0.14893687 0.25396523 0.25739792 -0.12141322 0.3603287 -0.43590158 -0.14099446 0.5931553 0.1698165 0.3157346 0.7081814 0.48619547 -0.16136087 0.025330957 -0.3366626 -1.0399262 -0.35623655 0.45211923 0.06848722 -0.12898973 -0.16290072 0.32202548 -0.712349 0.10415777 -0.06498385 0.4581584 -0.3984203 0.062211547 -1.6008677 0.14908794 0.21605636 0.18211667 -0.18865329 0.43773735 0.54907787 -0.017623479 -0.7451561 0.15407106 -0.081530474 -0.42292175 0.42199397 0.22569126 -0.015138634 0.10743015 0.15768641 0.06950516 -0.04630448 0.30521432 -0.5178653 -0.29398507 -0.069557294 0.017896121 -0.017368555 -0.21805286 -0.3816126 -0.16274925 0.24739648 -0.5330947 0.2921167 0.34205252 -0.28358305 -0.32542184 0.09551552 0.4715825 -0.30774572 0.07551811 0.045670405 -0.51136804 0.41821545 -0.64908653 0.17987494 -0.111471206 0.12633239 0.23916334 0.06430788 0.26290068 -0.20901157 0.047692902 -0.14468981 -0.07710938 0.23171556 -0.28553525 0.6151679 0.29121888 -0.21450317 0.021958182 0.2642795 -0.1685232 0.05170321 0.5388498 -0.50386053 0.30251938 -0.15333717 -0.2904009 0.134306 -0.3416514 -0.15620501 -0.05151006 0.41972035
21907 -0.034178164 -0.4226537 -0.10458907 0.11642101 0.30595803 0.62169987 -0.5234274 0.34738216 -0.2804123 0.16220868 -0.6293202 0.22886893 0.6869553 0.07201721 0.032705065 -0.20848852 -0.32633206 0.30398336 -0.4891009 -0.12616327 -0.33385617 0.1649313 -0.057000995 1.0230619 -0.39353237 0.44333276 0.15356308 -1.0506114 0.18229172 -0.2792826 -0.15112296 -0.28702897 -0.21079634 -0.13846056 -0.27784872 0.021988917 -0.0006089304 -0.40390524 -0.047950618 -0.057240978 0.53068084 0.17051935 -0.61176383 -0.7758878 -0.3511476 0.09761103 -0.031274438 0.05973738 -0.13701062 -0.20161441 0.4231335 -0.2270702 0.33751407 -0.6909303 0.2779023 0.4266244 0.24217 -0.39054045 0.30246246 0.04499019 -0.08380485 0.6423238 0.15913534 0.6205578 -0.6118885 -0.17113265 -0.021775197 -0.632543 -0.060439967 0.04185702 0.11753254 -0.106276274 0.7450154 0.3321814 0.1578413 0.8042029 0.69055456 0.4472848 -0.0941733 -0.50329494 0.20567943 -0.3730454 -0.14944647 -0.5801222 -0.0058880514 0.16893843 -0.682094 0.23743215 -0.40105847 -0.47109616 -0.17512418 0.26981017 0.42588207 -0.18738316 -0.06890643 0.3994088 -0.38395822 0.08458355 0.29212758 -0.3450477 -0.2048117 0.16006567 0.54822534 0.73948616 0.0977034 -0.34060556 0.15010558 0.18450466 -0.7725351 0.38967854 -0.32009512 0.40398443 -0.2752807 -0.19298181 0.018243942 -0.1505764 -0.24484523 -0.3185383 0.49033147 0.05166505 -0.24253243 -0.23352955 -0.4787252 -0.019289859 -0.097834274 -0.25535896 -0.28834713 -0.21853255
1689 -0.30452052 -0.43654448 0.27866387 0.20695789 0.6046493 0.66433024 0.009758817 0.28013143 -0.5110943 0.4616554 -0.6321533 -0.08259881 -0.083300695 -0.09585741 0.23917896 -0.3768457 -0.13655467 0.3023646 -0.5148667 -0.16828346 0.022153232 0.47116104 -0.4082221 0.72498 -0.919681 0.4254754 -0.102526665 -0.97756135 0.22428602 -0.0962682 -0.16703352 -0.15342732 0.019334007 -0.25883073 -0.53275406 -0.025902722 0.38491347 -0.5104559 -0.1354768 0.23588422 0.7080215 0.13715166 -0.31639737 -0.907637 -0.37034577 -0.09480798 -0.24901128 0.1544775 0.14272055 -0.3755434 0.4303201 -0.33131042 0.80074173 -0.33273932 0.29115462 -0.0073674144 0.08160287 -0.84452236 0.27040997 0.12428365 -0.021831477 0.6253935 0.50364566 0.58919394 -0.36740702 -0.5555282 0.031597316 -0.3528473 0.15199162 0.41952327 0.09124909 -0.17614634 0.47267318 0.227291 -0.03045669 0.072778165 0.11813866 0.34046173 -0.13620734 -0.69807297 -0.10303852 -0.5671153 -0.78512996 -0.2580872 0.27672884 0.29766557 -0.75158745 0.5494797 0.1101487 -0.26825428 -0.09443427 0.60688955 0.32227394 -0.120770365 -0.49424264 0.16531846 -0.18930262 0.2556096 0.03794212 -0.20659757 -0.1619398 0.15647225 0.41575786 0.34568447 0.06406231 0.20221023 0.014102652 0.2692877 -0.42542243 0.33331975 -0.08549969 0.33538228 -0.14365281 -0.6981976 -0.02981286 -0.28340793 -0.23973016 -0.025580766 0.4945119 -0.4725284 -0.0864952 -0.2330473 -0.70513576 -0.3500335 -0.41967025 -0.5287651 -0.12358238 0.40589082
12783 0.0005814512 -0.40791082 -0.16657847 0.1872838 0.30552405 0.6447834 -0.50953406 0.3927762 -0.21646084 0.08300652 -0.67846954 0.13723075 0.7450083 0.19515063 0.011545533 -0.15671438 -0.3903348 0.37158373 -0.4421962 -0.163135 -0.28766978 0.045463797 -0.0349218 1.0549212 -0.27887034 0.38086614 0.14976715 -0.9735355 0.28982204 -0.28496355 -0.114779346 -0.21750398 -0.38113904 -0.044961795 -0.19081017 0.038958155 -0.16137566 -0.3517718 -0.033501863 -0.1188229 0.5722279 0.23257981 -0.67650133 -0.73309666 -0.35058233 -0.0032353103 0.080269225 0.15765788 -0.10472612 -0.19158383 0.38295949 -0.29733744 0.26858193 -0.70595497 0.3216235 0.40137467 0.2537599 -0.34055912 0.3096565 0.06328635 -0.033053793 0.668567 0.16625515 0.6257421 -0.61038893 -0.2487032 -0.09265518 -0.67284036 -0.07040981 -0.027943244 -0.039599773 -0.10600734 0.6966592 0.30187133 0.20024829 0.6862056 0.8090394 0.42699033 -0.11601424 -0.48615745 0.28762355 -0.41501698 -0.09390946 -0.67553705 -0.04116799 0.19936 -0.8216138 0.24027714 -0.37244844 -0.45295054 -0.27202806 0.21416737 0.416618 -0.2956326 -0.052425347 0.36066467 -0.3923752 0.13967368 0.108622566 -0.27827325 -0.32295373 0.18795614 0.5640452 0.6732056 0.1254476 -0.31731415 -0.017264308 0.26087698 -0.7063052 0.4268245 -0.34453958 0.38554832 -0.24433477 -0.24615651 0.0100362105 -0.035776317 -0.24495147 -0.3991833 0.46213105 0.037096553 -0.22079785 -0.2071151 -0.48225352 -0.009378397 -0.15321232 -0.13608316 -0.14513794 -0.30831867
12288 -0.2384753 -0.008650709 0.6259653 -0.12379928 0.124711744 0.46265784 0.16484734 0.5072007 -0.38495496 0.8707584 -0.20026916 -0.049494207 -0.45643583 0.40252796 0.44784942 -0.561175 0.19596292 0.40637633 -0.72555655 0.08198887 -0.08510006 0.7818088 -0.22553515 0.06973173 -0.5703017 0.42641464 0.097274296 -0.113330536 0.22871427 0.07112823 -0.44821447 0.29604945 -0.6707169 -0.53436774 -0.5259036 -0.28819954 0.3752978 -0.15014449 0.55909836 0.6226565 0.2549908 0.04563392 -0.40912467 -0.068639226 -0.4351099 0.3742906 -0.493424 0.39571562 0.15617791 0.015841564 0.47600278 0.47625983 0.5523172 0.20566161 0.12066226 -0.17184484 0.2620018 -0.42979434 0.36602303 0.44449776 -0.17307176 -0.08101687 0.40185747 0.5914856 0.51215667 -0.9818889 -0.15366365 -0.45415223 0.25595015 0.06955344 -0.064317375 0.63980013 0.21942511 -0.24124457 0.33768234 -0.53654045 -0.33535865 0.2296609 -0.36876965 -0.124313585 0.09886734 -0.16705766 -0.27140194 -0.22484754 0.5997022 0.32538027 -0.39196184 0.5885682 0.36066294 0.14096536 0.27561474 0.6133824 -0.23457491 0.14252363 -0.4274419 -0.064337015 -0.26176652 0.45728946 -0.32575205 -0.10217693 -0.1671541 0.008519279 -0.10445983 0.44581702 0.1871293 0.8204212 0.2142223 -0.15613975 -0.15514801 0.37901184 -0.12473129 0.23752598 -0.3776808 -0.47291842 -0.15818271 0.24925762 -0.27923673 -0.07830682 0.16459222 -0.19952318 0.38618442 0.19083415 -0.3198692 0.4056462 -0.4361795 -0.8068169 0.44148588 0.19556089
16001 -0.14221172 -0.3721937 0.02216179 0.1036379 0.29962605 0.6067214 -0.63030857 0.41968507 -0.2658892 0.35145688 -0.56521523 0.2764099 0.62286973 0.0060135843 0.030918395 -0.31080514 -0.24145183 0.22349936 -0.3950616 -0.075234 -0.38273808 0.2697804 -0.03701803 1.0666021 -0.6010026 0.5123708 0.18804844 -1.0437009 0.04697035 -0.12034737 -0.1190099 -0.45520145 -0.15166642 -0.21005131 -0.30479378 -0.12727806 0.063675836 -0.35694823 0.07360017 -0.003373973 0.40422496 0.08439517 -0.6612952 -0.6836536 -0.31499365 0.052571848 -0.07188511 0.118980326 -0.10992067 -0.104078084 0.4792354 -0.29373243 0.4283907 -0.77767426 0.27054548 0.4030548 0.22207789 -0.48940706 0.33838418 0.17434376 -0.15019038 0.5806802 0.117314994 0.5913118 -0.56535053 -0.13551176 -0.042627104 -0.6765223 -0.00867618 0.037104078 0.23347111 -0.13433488 0.7875489 0.2534031 0.082036585 0.674897 0.6879768 0.47756845 -0.17553478 -0.52253795 0.17930041 -0.4963944 -0.21896145 -0.43979272 0.005228726 0.31122333 -0.6179754 0.23643342 -0.5511304 -0.4302786 -0.16357271 0.38977966 0.24495271 -0.15141205 -0.13295694 0.30040303 -0.46766227 0.033268712 0.36943355 -0.441079 -0.12516524 0.07434956 0.43375197 0.90021235 -0.06577829 -0.33167133 0.1754835 0.08933037 -0.8329383 0.23051414 -0.30787387 0.42492464 -0.28686446 -0.23185928 0.026180908 -0.1662233 -0.28214425 -0.3526863 0.33337966 -0.014592054 -0.19697587 -0.29710022 -0.54178315 -0.09726202 -0.16771983 -0.3035583 -0.20011298 -0.17848791
3499 0.100848965 -0.110741116 0.19030802 0.087498 0.19035421 -0.37460718 0.5611416 0.4568463 -0.058306135 -0.19569062 -0.23338802 -0.16745576 0.032526504 -0.049073126 0.5621107 -0.10150132 -0.051786315 -0.101641126 -0.26379728 -0.044050835 0.4317855 0.5677104 -0.3303306 0.39096084 0.096833654 0.34431258 -0.007817335 -0.39178178 0.39611602 -0.098488934 0.18783018 -0.11857182 0.02527063 0.5909539 -0.46005017 0.27567944 -0.11840842 -0.10544675 0.103030734 -0.15390852 0.016106687 -0.569385 -0.33789268 -0.39100173 -0.41644612 -0.011022918 -0.06254303 0.20388694 0.3553663 0.25322554 -0.1994586 0.21448226 0.528553 -0.11800887 0.2707402 -0.14845684 0.41389695 -0.2523475 0.39548647 -0.18967922 0.54620767 0.13583755 0.16154698 0.27783892 -0.06302851 -0.61058617 0.3718309 -0.032065615 0.18000874 0.7876272 -0.40198684 0.4515754 0.20259316 0.38979387 0.18605152 -0.25990593 0.3692447 0.0019613935 -0.41958237 0.034412555 0.27488285 -0.79907376 -0.17793171 -0.12075392 0.8051659 -0.028270662 -0.65798724 0.20603247 0.7226365 0.2218381 -0.3782817 -0.29181555 -0.08550104 -0.66196305 -0.4668367 0.13304119 -0.57349086 1.1280375 -0.34355047 0.57031256 -0.046901073 0.06258455 0.18567789 -0.03024933 0.302564 0.1779565 -0.6895589 0.69476575 -0.06491527 0.16213746 -0.13225566 0.5882482 -0.58428544 -0.8824903 0.112158306 -0.22804688 -0.8066571 -0.105215475 0.031965252 -0.47317594 -0.3408165 0.121446654 -0.41573417 -0.44739038 -0.13481371 -0.7298832 0.46096176 0.11984017
15976 0.21602029 -0.60353845 0.07106257 0.6195461 0.4568815 0.5212112 0.13588901 -0.028198924 -0.52781683 0.14666747 -0.97126585 0.14710316 -0.23088606 0.28745365 0.055039216 -0.17441231 0.017468473 0.31381464 0.1916704 0.18363464 0.19645844 0.3977219 0.07368824 0.156415 -0.40534106 0.15383519 -0.3724173 -0.01743388 -0.16803505 0.14241071 -0.027831154 -0.20898873 0.02346775 -0.2225754 -0.22566271 -0.9928894 0.07555023 0.49408028 0.07366427 0.432583 0.090165004 -0.01071765 -0.36943695 -0.64159936 -0.38826695 -0.29447666 0.35146412 -0.08535812 -0.12656544 -0.021235647 0.0858785 0.28618106 0.7800714 -0.59336454 -0.17226213 -0.45494148 0.55402267 -0.81051767 0.09310865 -0.35996878 0.56718755 0.07878582 0.507251 0.55241483 -0.6409679 -0.43840685 0.12853673 -0.41056672 0.42317536 0.2961275 -0.100391075 0.24495426 0.25706333 0.55437684 -0.33407307 0.19430046 0.035064343 0.38638717 0.112969145 -0.034263983 0.84559494 -0.44307393 -0.74034286 -0.03603007 0.0913977 -0.19146124 -0.3436969 0.085203946 0.21676648 -0.2898699 -0.025971374 0.23583987 -0.3032946 -0.20437066 -0.3145075 -0.16121788 0.029663948 0.02197825 -0.37335244 -0.74824935 0.079925545 0.6602543 0.019592607 0.19519083 -0.07364709 0.26874578 0.04694262 -0.10672644 -0.123321585 0.5153284 -0.45362327 -0.2661688 -0.29688525 -0.6898375 0.44719377 -0.32418722 -0.11164046 -0.07861253 0.27042577 -0.73519367 0.097074695 0.09996313 -0.04634515 -0.37771833 -0.10385649 -0.16789979 0.23068784 0.48674917
897 0.42780632 -0.03233182 0.58820415 -0.008543545 0.35361865 -0.00057179475 -0.21830276 -0.13055733 -0.43797746 0.45704243 -0.175289 -0.10201111 -0.39036152 0.55254865 0.024056556 0.20761618 0.1013829 0.6802995 0.057326093 -0.42353907 0.70179105 0.51787144 0.21704668 -0.118667245 -0.37077644 0.30805275 -0.5246862 -0.76410896 0.19208822 -0.09966214 0.066572584 -0.10890257 -0.104820184 0.56637704 -0.3277508 0.40958303 0.477623 -0.34322718 -0.16712657 0.25463313 0.384296 -0.5729436 0.14432353 -0.8559124 -0.82027525 0.36900565 -0.40986595 -0.0056729564 -0.00034642112 -0.3434928 0.4863916 0.25633103 0.28640074 -0.8277389 -0.08944822 0.20386983 -0.022023821 -0.29123902 0.124014065 -0.3429955 0.38534984 0.32126373 0.035653707 0.16799943 0.25749117 -0.46019572 0.5825367 -0.13012373 0.47751144 0.20686187 -0.19737728 0.2602115 0.20463361 -0.17209435 0.08081231 -0.20571257 -0.25254977 0.018547604 -0.23643538 0.23910345 0.2969786 -0.33116528 -0.11543523 0.26722682 0.6444382 -0.505765 -0.48659873 0.1257931 -0.019507425 -0.47829586 0.029795436 -0.24119899 -0.013950085 -0.36906695 0.43271998 0.5602747 -0.062230766 0.19786586 -0.10859906 0.18789276 0.2070185 0.76719 0.42123112 -0.23798773 0.5462182 -0.12665232 0.1572849 0.76093054 -0.18910618 0.40549928 -0.50216764 0.44553268 -0.26427642 -0.60360295 0.14539707 0.3307212 -0.83083326 0.5745476 0.2992307 -0.7527099 0.22754478 0.24821031 -0.4705651 -0.09049862 0.050655887 0.054737292 0.026417386 0.58753765
9677 0.0535707 -0.24248573 0.5046979 0.005701394 0.27939963 -0.06266407 0.2582562 0.71105266 0.029046355 -0.10455847 -0.7250651 -0.085263275 -0.15762071 0.20549567 0.61805815 -0.07273304 0.37847504 -0.016612409 -0.31660563 -0.08944844 0.19690835 0.7339593 -0.49853367 0.09843374 -0.52754456 0.59684443 -0.080137126 -0.56856114 0.29353607 0.025107931 -0.4628737 0.10750151 0.06936931 0.62631345 -0.47320476 -0.032912403 -0.15630715 -0.1021612 -0.032653015 -0.14621554 0.024890097 -0.1170025 -0.41913733 -0.35244423 0.032694016 -0.48316213 0.23043177 -0.032471742 0.019894995 -0.30075288 0.060975835 -0.6886746 0.5640358 -0.11717523 0.39292777 -0.21491869 0.4172958 -0.4820841 0.25958672 -0.19857979 0.31604555 0.13408047 0.27422366 -0.17405896 -0.49651656 -0.5237545 0.04061842 0.00024228776 0.015231025 0.37603313 -0.2848545 0.210405 -0.11949645 0.2798924 -0.052174322 0.3037778 -0.16085048 0.11105309 -0.47638655 -0.31834143 -0.10130477 -1.2559032 -0.095558055 0.23236328 0.6201833 -0.19178858 -0.42524925 0.3690378 0.59921014 0.26275074 -0.43806624 0.07428298 -0.13074967 -0.16724344 -0.6237448 -0.10877288 -0.24501802 0.8203534 0.01831805 0.07984877 0.052877244 -0.27503702 -0.069955714 -0.22910269 0.3384846 0.21547951 -0.5059065 0.534211 0.077191345 0.31812936 0.15405023 0.47850895 -0.19596827 -0.5108436 -0.069970384 0.018843703 -0.64104277 -0.11666514 0.33060786 -0.015696619 -0.05939524 0.17158915 -0.28151026 -0.22906001 -0.23825793 -0.8847725 0.48136225 0.4507144
3252 -0.13581577 -0.22978806 0.09528862 0.74185646 0.59688884 0.18586048 0.4434674 -0.10374342 -0.7301961 0.20040646 0.08833331 -0.35871193 -0.2893041 -0.27363443 0.58010626 -0.37398586 -0.25385797 0.35888797 0.44631663 -0.06242194 0.21716373 0.5061708 -0.25393373 0.30903882 -0.10385185 0.7032112 0.18579188 -0.16763736 -0.07874128 -0.042599775 0.29370955 -0.004493167 0.012188859 0.22504486 -0.67689466 0.23762119 0.510181 -0.34511602 -0.71558994 0.38267845 0.549757 0.20951793 -0.26737145 -0.60875666 -0.2031215 -0.11244527 -0.524219 0.31357002 0.33801988 -0.25309452 0.38011056 0.04696929 0.48503748 -0.39589208 -0.10036436 -0.5633579 -0.1737703 -0.6088085 0.14630227 0.13369325 -0.19152458 0.45428917 0.9251171 0.501396 0.16775873 -0.5549462 0.77202195 -0.16319802 0.31914815 -0.34945965 -0.014803608 -0.64587873 0.55150616 -0.5839825 -0.4564218 -0.09918668 0.3886194 -0.32326135 0.2347693 -0.47364613 -0.1881951 -0.22581504 -0.63530916 0.24908368 0.14333482 -0.103094146 0.09295704 0.16233827 0.74799156 -0.2381804 -0.15670209 0.2517189 0.46533826 -0.037375506 -0.56905544 0.3516883 -0.286271 0.18677923 0.42619866 0.033773176 -0.047588736 0.009132848 -0.03245757 0.3724503 0.5986885 0.8505379 -0.20750853 0.30644512 0.07491077 0.21759076 -0.24664618 0.096782655 -0.6116464 -0.5263077 -0.032203704 0.1011874 -0.52022874 -0.24153847 0.12955426 -0.31028783 -0.27392653 -0.08799984 -0.4968168 -0.0034746537 0.15936103 -0.5964345 0.24027056 0.2308284
9523 0.123777226 -0.40370062 0.13360481 0.06136165 0.3877533 0.35340905 -0.13934822 -0.10348928 0.018061731 -0.16542025 -0.85028887 -0.08136486 -0.002843962 0.22092806 0.35127926 -0.08058599 0.12995058 0.16056855 0.3513488 -0.10562074 0.20145294 -0.01727508 0.012755388 0.84317493 0.1258408 0.7044812 0.18115264 -0.652594 0.009774002 0.21271807 0.4772293 0.16062075 0.1396456 -0.08285721 0.04703573 -0.3486195 0.09759899 -0.3443214 0.18142568 -0.28451857 0.9952584 0.16483134 -0.02569637 -0.46049112 -0.4854897 0.04044303 0.59573966 0.48501694 0.26308805 -0.21094833 0.420039 -0.46783233 -0.048334047 -0.63134503 -0.20755818 -0.17995478 -0.1452661 -0.7907686 0.4861955 -0.1584812 0.2016027 0.3217521 0.0017910843 0.21226037 -0.39047173 0.18001606 0.05420925 -0.67967343 0.03125396 -0.43870902 -0.6719612 -0.3613328 0.60012436 -0.21680619 -0.014372824 -0.22891815 0.425945 0.061296187 -0.0054974654 -0.39117387 0.49417093 -0.46355188 -0.018305259 -0.22603846 0.18502292 0.18808106 -0.39230332 0.44756252 -0.16499199 0.025423676 0.020100364 0.30834997 0.22715549 -0.5770683 0.07837201 0.016890874 0.21424356 0.23761085 0.26071036 0.17103004 -0.17666869 0.58386534 0.8055609 0.06710625 0.2835297 0.041438006 -0.16497454 0.77875483 -0.6400893 0.1416501 -0.16250907 0.30864128 -0.0092492215 -0.8824034 0.18107562 0.3959301 0.12608005 -0.10768204 -0.16494876 -0.5251471 -0.094281465 -0.142075 -0.3379688 -0.3781194 -0.90916544 0.4694012 0.85734767 0.1843954
4111 -0.03244845 -0.37214962 0.13155447 -0.1798514 0.88409436 0.33718327 -0.07804958 0.48002243 -0.17297807 0.7246271 0.21124037 0.39587173 -0.7422023 -0.04739026 0.03028539 0.4171768 -0.386483 0.14061044 0.03142148 -0.22630015 -0.16344376 -0.031308874 -0.2885232 0.21842906 -0.6485251 -0.124525174 0.038409363 -0.58315176 0.23887 -0.4177158 -0.09298066 -0.4618871 -0.05169916 -0.25375128 -0.3706285 -0.45949095 0.041114565 -0.13104293 -0.09433595 0.6326042 0.6654435 0.43190208 -0.32668272 -0.34015587 0.06951087 0.17111383 0.21360025 0.28256598 -0.034193784 0.67607284 -0.22802715 -0.053081237 0.5799919 -0.12867358 0.295765 -0.095321484 0.2502999 -0.88755846 -0.1300561 0.36100698 0.292026 0.25284538 0.15913509 0.46065143 -0.61431587 -0.19587609 0.4004919 -0.3691429 -0.107823096 0.45102096 -0.13970356 0.0015216985 0.19222097 -0.02077816 0.07257079 -0.059764735 -0.8344844 8.3282896e-05 0.1882673 -0.22367735 0.38575485 -0.2829927 -0.7013063 -0.26363653 0.16327275 0.43117958 -0.4361397 0.2951505 -0.19990826 0.014524553 -0.083527066 0.36623493 -0.03453924 -0.31133506 0.034219004 0.45669952 0.5953788 0.68234617 -0.0029022128 -0.2353893 -0.41083038 0.842109 0.694767 -0.23126343 0.010603423 -0.025503105 -0.0665618 0.07691316 -0.43433502 -0.23089926 -0.25340614 0.18638693 -0.22776966 -0.729991 0.29644832 -0.52398866 -0.44466045 0.1396507 0.5179051 -0.45405024 -0.11640878 0.30932358 -0.083322555 -0.28195247 -0.17529401 -0.31544864 0.31241032 0.094773665
8216 0.006988245 0.030871611 0.55630463 -0.35113224 0.2752064 -0.39978707 0.2798436 0.6739986 -0.20646162 0.6346973 -0.70323044 -0.23811947 -0.3574008 0.41231447 0.49639788 0.09425704 0.47718075 0.17785537 -0.45483187 -0.03495216 0.08079799 0.6414739 -0.1806654 0.16844203 -0.5870188 0.53712666 -0.52906895 -0.43129852 -0.17299016 -0.09942964 -0.40184104 -0.25999266 -0.23223363 0.19678591 -0.39004987 0.022061655 0.056997634 -0.36428034 0.07702766 -0.052163873 0.17012942 -0.3409592 -0.32730997 -0.53889763 -0.29880443 -0.22632849 0.14476565 0.20205499 -0.21389978 -0.23331484 -0.004062828 -0.4162237 0.56031024 -0.3526675 0.8977143 -0.21458592 0.5535138 -0.43503076 0.5299158 -0.22424272 0.378914 0.11262238 -0.045869153 0.12346923 -0.27165088 -0.69931567 -0.2000824 0.2014436 0.010506675 -0.13601305 0.10543117 0.493556 0.19765921 0.22038297 0.03164078 0.013054151 -0.32113805 0.25093898 -0.5829654 -0.1669872 -0.064143926 -0.9398827 -0.07926799 0.31223595 0.35902068 0.09150101 -0.2655644 0.24202414 0.662528 0.41721824 -0.6006909 0.35376582 0.001137799 -0.25879276 -0.3792221 0.12992918 -0.39286825 0.44560528 0.0038708865 -0.06379622 0.06864245 -0.20180796 -0.31684026 -0.27227005 0.20296676 -0.09721146 -0.47029927 0.67320186 -0.05844953 0.52520835 -0.033169676 0.53831095 -0.5414256 -0.28362337 0.07561843 0.17607813 -0.44862247 0.27124572 0.46118537 -0.07922311 -0.072691955 -0.08342089 -0.37794912 -0.3957753 -0.59984094 -0.6612487 0.4266273 0.3003571
16368 0.59026533 -0.5880936 0.5998418 -0.19229531 0.62322587 1.132625 0.031076038 0.43353072 -0.35436594 0.5521778 -0.7033474 0.07814676 -0.690692 0.51433796 0.41870606 -0.3911623 0.05747297 0.22833593 -0.14502485 0.18865414 0.29218996 0.3141062 -0.7880976 0.38694805 -0.30934408 0.18542239 -0.29903793 -0.32379687 0.70774186 -0.16770065 0.062020086 0.025077967 -0.19498746 0.36727646 -0.6044348 0.062244058 0.5523289 0.34879258 0.08193764 0.7273775 0.13687211 -0.25896636 -0.18650548 -0.39642292 -0.57696164 -0.3135122 0.62311214 -0.039665144 -0.28399464 -0.41781196 0.44851157 -0.55281204 0.080833055 -0.22011977 0.3856798 0.37233964 0.13162273 -0.9747261 0.2876494 0.38800502 -0.0716315 -0.07347668 0.31473017 0.59681714 0.016368905 -0.59670174 0.32147402 -0.40402606 -0.30405375 0.37921512 0.253791 0.0099230455 -0.10033054 -0.040914662 0.46181667 -0.021377448 0.2502915 -0.32546523 0.060778562 -0.028979598 0.16130342 -0.13079771 -0.23036534 -0.51365536 -0.035854504 0.041012485 -0.569927 0.4804151 0.30479145 -0.01372923 -0.30153495 0.054727294 0.85586584 -0.28502426 0.3521249 0.33623326 -0.7538727 -0.2353634 -0.45959872 0.5448726 -0.09910346 0.8400154 -0.30190796 -0.37905636 0.30530363 0.29496342 -0.26866663 -0.35551783 -0.3230511 0.67907244 -0.40783623 0.5724469 0.02135885 -0.7557386 0.02988297 0.20556544 0.006180511 0.08518935 0.316713 -0.35815337 0.4964829 -0.3440257 -0.55399674 0.378272 -0.53500354 -0.19398849 -0.012079989 0.5446366
19041 -0.17244929 -0.12613256 0.18075827 -0.48085284 0.7446859 0.41212097 -0.19179411 0.22395511 -0.50785315 0.8617096 -0.04505525 0.19215761 -0.36835968 -0.12959188 -0.16076629 -0.8818905 -0.052402172 0.65310985 -0.43888962 -0.5361746 0.0656472 0.42201993 0.07633931 0.21197693 0.17689 0.3400445 -0.56284523 -0.46626088 0.30879185 -0.16243616 -0.08096078 0.15799055 -0.62138087 -1.2464952 0.23330966 -0.11337549 0.34062937 -0.49009198 0.17477825 0.24510483 0.37631175 0.14950956 -0.28592035 -1.026223 -0.43247232 -0.12657696 -0.40411302 -0.09663775 -0.21449864 -0.026979996 0.38669652 0.24808165 0.29233897 -0.28042302 0.5977773 0.4015789 -0.30743372 -0.27305424 0.4725745 0.46770975 -0.11501301 0.14925231 0.07293398 0.6717725 0.122833356 -0.44383013 -0.060417842 -0.6861898 0.17461744 0.20355265 0.24788894 -0.09898724 0.85827094 0.039027456 0.145924 -0.9135826 -0.12782636 0.35047257 0.008205187 0.14743628 0.24164218 0.06326375 -0.12643093 -0.36135244 0.24990898 0.13925953 0.10475661 0.22066694 -0.28227141 -0.015669893 -0.10910834 0.39404836 0.25550613 0.10913934 0.03868195 -0.38025567 -0.06265628 0.5693822 -0.77476984 -0.023547407 -0.29254708 0.27300373 0.614609 0.13308917 -0.07714011 0.21595635 -0.4089627 0.28841293 -0.8751144 0.67088056 0.10092313 0.2846023 -0.13355657 -0.71735245 -0.016091498 0.0026040978 0.2736863 0.527224 0.52573484 -0.5098388 -0.093911484 -0.26531345 -0.6324563 -0.51011235 -0.35030836 -0.760054 -0.053768463 0.2184141
18974 0.11069999 -0.5426971 0.616176 0.66034234 0.49797592 0.34676042 -0.14159197 0.11570675 -0.090553485 -0.12083975 -0.30944413 -0.1757805 -0.42376617 0.30301216 0.3403101 -0.33639225 -0.03439192 0.6011305 0.26330632 -0.33342996 0.050887264 0.3928951 0.16135874 0.029466042 -0.4888397 -0.06101387 -0.107708104 -0.6330223 -0.06462994 0.14451864 0.12194318 0.0155016435 -0.32273608 0.3101844 -0.033571783 -0.114592694 0.64971226 -0.031358667 0.5714778 0.35613137 0.44683018 -0.48230094 -0.20819528 -0.3908092 -0.6384512 -0.44056597 0.17453909 0.43125334 0.18221201 -0.5472537 0.08350075 -0.16698879 0.021137513 -0.4016507 -0.3809225 -0.7009711 -0.08123426 -0.3046883 -0.1272962 -0.31988046 0.05446276 0.012977022 0.53990525 0.2316349 0.29763645 -0.5932042 0.24822481 -0.6791023 0.47390997 0.46638852 -0.51808923 0.040361807 0.023447512 -0.2938324 -0.19423826 -0.6478735 0.010971761 -0.34088477 0.3497231 0.19026847 0.4822926 -0.6244881 0.30214456 -0.05876541 0.5137726 0.071194395 -0.49450472 0.1986163 -0.1560753 -0.4279312 0.1171463 -0.011071206 -0.1763385 -0.20415111 0.02178476 -0.16265221 -0.17767021 0.7264166 0.16799131 -0.12845369 -0.22163546 0.57973325 -0.089883775 -0.24794917 0.40035367 1.0022712 -0.28298602 0.706915 0.06894264 -0.08089712 -0.68419755 0.4345688 0.4868171 -0.6149658 0.5253983 0.06179293 -0.35274896 0.12385474 -0.14425474 -1.2029929 0.30557096 0.5171676 -0.17079262 0.048867375 0.07884976 -0.28448036 0.9524506 0.77194965
5149 0.49890435 -0.5205378 0.51313114 0.12867399 0.7226707 1.1179198 -0.041457914 0.26019666 -0.20743996 0.13847286 -0.46021375 -0.1492222 -0.3816387 0.12815964 0.1808065 -0.40876102 -0.07264352 -0.123307146 -0.5282861 -0.13550755 0.17907648 0.47124982 -0.3015693 -0.050196346 -0.48125494 5.9550657e-05 -0.20334288 -0.46061784 0.13007751 0.0071125715 0.19898295 0.22552998 -0.12366797 0.34753358 -0.41601357 -0.06332667 0.4822595 0.23162489 0.28609532 0.6898619 0.39853075 -0.20267452 -0.044714306 -0.3396775 -0.94687647 -0.3588533 0.5466391 0.031209825 -0.15103133 -0.17930008 0.3476747 -0.65622467 0.035225082 -0.08943125 0.38033646 -0.21956645 0.07687504 -1.5261626 0.16495946 0.297187 0.1866449 -0.13764168 0.4332473 0.5226575 0.0029429903 -0.75476706 0.16002952 -0.10682426 -0.41697147 0.43318003 0.20949149 -0.02148528 0.06636713 0.14720197 0.19083479 -0.05082422 0.26749232 -0.455382 -0.26255095 -0.04563101 0.05192814 -0.027062137 -0.1875771 -0.41749087 -0.15805927 0.17175153 -0.56258714 0.25975147 0.31076804 -0.28661266 -0.3371051 0.07614056 0.5227669 -0.32139668 0.12147509 0.06024253 -0.6259541 0.3546868 -0.6795388 0.22915488 -0.12377422 0.25673813 0.1267437 0.021262439 0.33531833 -0.15575345 0.030204123 -0.14037386 -0.05794113 0.25715148 -0.33439663 0.5335178 0.26430276 -0.3608602 0.021992419 0.29808962 -0.1460441 0.01940503 0.50592417 -0.4660553 0.32404795 -0.15670498 -0.32991105 0.26200107 -0.41562358 -0.12488008 -0.027872466 0.39839935
18573 -0.19254255 0.14271072 0.5482311 -0.27064046 0.17857723 0.35588953 0.10125096 0.5937646 -0.4043908 0.8918479 -0.17325614 -0.1066392 -0.35160896 0.37414038 0.46491936 -0.37041056 0.18873477 0.40126702 -0.7912622 0.053315565 -0.019022817 0.7387126 -0.24636243 0.19834825 -0.49997443 0.07290422 -0.005654295 -0.28305742 0.2871347 0.0018740853 -0.4460432 0.13205622 -0.6062124 -0.32008734 -0.5175292 -0.03591907 0.011500551 -0.26617107 0.47327864 0.4247662 0.10883643 -0.09461217 -0.5208118 -0.060540516 -0.4955662 0.40834868 -0.32190767 0.31432748 0.0035264036 0.2776326 0.6052612 0.72830635 0.45672128 0.05236765 0.14159337 -0.022784768 0.31822395 -0.32737562 0.4000041 0.31430617 0.08873259 -0.02330657 0.27502078 0.582965 0.47091022 -0.99102545 0.04760827 -0.43728673 0.06745231 0.26733747 -0.17176625 0.6884139 0.21841662 0.047786094 0.45260662 -0.6954148 -0.43018228 0.13569236 -0.42440754 0.08723466 0.019522691 -0.21794915 -0.19426705 -0.2516444 0.60267687 0.15252812 -0.40353456 0.5525474 0.4438809 0.0459868 0.009212774 0.32943228 -0.10114887 -0.1545141 -0.41659665 -0.00078724604 -0.37818056 0.5666204 -0.5731059 0.15451932 -0.18015812 0.004537394 0.02036015 0.34835324 0.2931052 0.5593015 -0.12349086 0.015062941 -0.1471285 0.42369327 -0.10954604 0.22697163 -0.6025181 -0.65822864 -0.091790825 0.2375062 -0.4110397 -0.032561835 0.39968827 -0.17319791 0.2269144 0.157184 -0.46283212 0.4356214 -0.44418055 -0.8056285 0.53897107 0.1717282
16968 0.28501633 -0.27617764 -0.32386732 -0.19021022 0.08621642 0.45332906 -0.02075999 0.4030806 -0.2262769 0.48377016 -0.32527465 -0.01844133 0.057436615 0.59867465 0.031148268 0.016971098 -0.28927532 0.61305195 -0.59764564 -0.27059323 0.40237835 0.39433807 0.20999697 0.42698207 -0.02520982 -0.23885302 -0.49700457 -0.44229674 0.42843297 -0.5730304 0.025168888 -0.31551358 -0.39013255 0.05513081 -0.22213987 0.4678889 -0.0517407 -0.44031563 0.038313568 0.04157837 0.41563722 -0.39316574 -0.55724806 -0.41372293 -0.88112867 0.28683904 -0.17520289 0.12121981 0.081026755 -0.28233382 0.23359233 0.61646074 0.40097508 -0.6150463 0.39581338 0.19190912 0.0794609 -0.2615519 0.6556199 -0.12599887 0.43324512 0.13108186 -0.13683806 0.77200145 -0.21499176 -0.5403941 0.21532427 -0.34684974 -0.0874903 -0.107143 -0.39261463 0.028112737 0.5438079 0.41573256 0.49702534 -0.47602463 0.28331786 0.017136807 0.17837897 0.5432558 0.41531557 -0.07962717 -0.13260213 -0.43980423 0.29702687 0.06933223 -0.88979 0.40109965 0.2064297 -0.36205056 -0.4769062 -0.10032272 0.30428863 -0.37659696 0.2049048 0.49704185 -0.33852074 0.4984014 -0.37822407 0.48423734 -0.19885503 0.7657607 0.5701797 -0.098300315 0.24128735 -0.041013483 -0.41960052 0.5159869 -0.45852867 0.7042564 -0.5501026 0.26319027 -0.3413528 -0.49915618 0.53992957 0.33792552 -0.42246306 0.27687263 0.14201564 -0.4269022 0.076160446 -0.03225223 -0.77928066 0.00429347 -0.34215084 0.039649557 0.56199783 -0.027610183
20577 -0.105878755 -0.6482591 -0.030819643 0.069672816 0.04076895 0.23920512 0.46240315 -0.4939005 -0.20099935 0.019755369 -0.5096892 -0.01645727 -0.29486728 -0.4680275 0.20050928 -0.31111568 -0.084247775 -0.14770263 -0.16893002 0.21789064 -0.043206148 0.028093029 -0.16963708 1.178459 -0.71450067 -0.23469314 -0.41870704 -1.0044941 0.11559566 -0.09448257 0.18389371 0.17261943 0.46385777 0.05507451 -0.5470928 -0.11917685 0.5594246 -0.60737675 -0.35827997 0.28511333 0.81182957 0.032466695 -0.25329745 -0.6713643 -0.83377737 0.08625543 -0.2531598 0.16373424 0.29738814 -0.25831679 0.31068927 -0.6770119 0.78309405 -0.110396884 0.37604794 0.033883914 -0.47303084 -0.9355397 0.13615537 -0.18033567 0.59855556 0.36017454 0.13029227 0.63912356 -0.50188595 -0.2685744 -0.7586584 -0.394756 0.09697713 0.6856089 0.2492658 -0.50575894 0.6090698 0.34184027 0.099323735 0.22136469 0.022911403 -0.29063606 0.092507176 -0.32070008 0.09390234 -0.10785428 -0.45720285 -0.3786109 0.16112581 -0.53171706 -0.7571062 0.2732232 0.06425611 -0.0887983 -0.32073015 0.0025587818 0.20751393 -0.1381369 0.68403906 -0.13832001 0.30455714 0.031401265 0.027255023 0.015782878 -0.34064934 0.20935087 0.5172591 -0.45127442 -0.31094941 0.39471236 -0.00516861 0.24350566 -0.13473296 -0.3914275 0.24628371 0.15816449 0.15121159 -0.17221831 -0.12854925 -0.40482995 0.11145924 -0.19615486 0.2510649 -1.0367057 0.07676746 -0.5727711 -0.61146665 0.013860549 -1.0130153 0.008454066 -0.42242238 0.3468951
3783 0.3849855 -0.5053423 0.52239144 0.26024848 0.76024723 0.9879693 -0.025217408 0.20407517 -0.21969208 0.062629044 -0.35928005 -0.23748721 -0.28995746 -0.10498297 0.08847281 -0.41840658 -0.09563739 -0.20677485 -0.57896984 -0.2663812 0.112922914 0.53577894 -0.122524135 -0.086490065 -0.55661774 -0.09937996 -0.24741723 -0.51742935 -0.042346228 0.12826109 0.2651478 0.23298039 -0.061572623 0.35935798 -0.390583 -0.1333856 0.5012765 0.11494426 0.28972343 0.6801364 0.47422537 -0.12562716 0.03467749 -0.38616437 -1.0374951 -0.35914606 0.45088962 0.067436054 -0.087882236 -0.10899936 0.33521488 -0.65012354 0.09527433 -0.05267717 0.4110686 -0.3744199 0.020521183 -1.6131085 0.16717221 0.20096917 0.2807067 -0.17032766 0.44626692 0.5172596 -0.029034005 -0.74588794 0.16242334 -0.058368735 -0.42472818 0.49855578 0.18723848 -0.071435854 0.18376176 0.24763082 0.027864255 -0.06136441 0.24710779 -0.5064829 -0.39330348 -0.08130277 -0.026237348 -0.038323745 -0.25125968 -0.36445746 -0.1605546 0.18653473 -0.5456558 0.21576859 0.26587963 -0.36115816 -0.38085583 0.05965818 0.41906562 -0.34724128 0.03342684 -0.0088058 -0.4483218 0.50907856 -0.64691615 0.15423085 -0.16376269 0.04510616 0.28731757 0.10216655 0.24243248 -0.25332385 0.07562302 -0.043198608 -0.012716036 0.14633128 -0.24213566 0.54332995 0.30437556 -0.2305214 0.010269735 0.21931884 -0.18032962 0.03702749 0.5845177 -0.5026504 0.24559633 -0.09871662 -0.27085546 0.0881201 -0.3457184 -0.13805585 -0.04211995 0.38267764
1668 0.14855817 -0.46282476 0.12695484 0.41098502 0.5883944 0.3666988 0.032302327 -0.07147692 -0.55453044 0.25789547 -0.58269376 0.02521183 -0.056157354 -0.22419329 0.38146544 -0.45910123 0.12361525 0.32873985 -0.6071348 -0.07855739 0.026030289 0.30209547 -0.5579901 -0.32776913 -0.95477563 0.11721842 -0.13306072 -0.48055154 0.17343737 0.04583934 0.09114277 -0.34660792 -0.25637034 -0.086927466 -0.20688227 0.13992572 0.7232141 -0.29668087 0.034800835 0.5376682 0.5002903 0.010812763 0.023681631 -0.5899168 -0.246203 0.09253815 -0.31756008 0.59368813 -0.23937301 -0.2769165 -0.21465352 -0.44600132 0.9402876 -0.10984195 0.27512664 -0.38063905 0.2020495 -0.2938307 -0.31053358 0.43716422 -0.56983554 0.42692983 0.24418874 0.25443563 -0.08790489 -0.39919457 0.09909652 -0.33304757 0.18590553 0.086420864 0.06307587 -0.06559328 0.3838125 0.20139243 0.35681942 -0.09957452 -0.00781616 0.63360065 -0.2183642 -1.3675827 -0.28323594 -0.6063495 -0.36630562 -0.05834694 0.103250414 0.8900454 -0.2657367 0.62509507 0.018476732 -0.1773367 0.26956657 1.0468403 0.18593621 0.09658209 -1.0939515 -0.16261573 0.078053065 0.240185 0.010311275 -0.4826916 -0.30162835 -0.2015629 0.15551682 0.21880083 0.15177959 -0.15251921 0.3250686 0.4509653 -0.31785402 0.43595797 -0.053142842 0.42641798 -0.004673086 -0.4325913 -0.0652324 -0.116748646 0.29482275 -0.08370495 0.27422118 -0.5448826 -0.721822 -0.17048937 -0.15550502 -0.23271735 -0.22570032 -0.15360299 -0.40239987 0.5044275
1078 0.08131365 -0.5056852 0.5211334 0.5277627 0.53672755 0.47190443 -0.13300353 0.1792787 -0.009060311 -0.1691864 -0.4968369 -0.113304056 -0.46557665 0.4223107 0.40027142 -0.35589305 0.10076919 0.46624336 0.29729715 -0.15565471 -0.011369877 0.31717137 0.21749781 -0.19967024 -0.33101144 0.034131497 -0.023062188 -0.43949515 -0.019174928 0.23671551 0.19138914 -0.021196619 -0.37776306 0.27136242 -0.08361242 -0.19016345 0.53517735 0.2956307 0.6297982 0.26512483 0.22381775 -0.40729883 -0.26013663 -0.43821743 -0.5482771 -0.51968044 0.345522 0.34456196 0.12109328 -0.32856634 -0.015874268 -0.04188636 0.034917314 -0.36630842 -0.4716597 -0.812083 0.10389791 -0.31134102 -0.07308273 -0.42464504 0.17877564 -0.020317521 0.42780417 0.1159684 0.13040748 -0.50103384 0.07165035 -0.6940862 0.40387523 0.28910112 -0.55123454 0.108170405 0.036196887 -0.09639068 -0.043300122 -0.7399978 -0.033575 -0.1868831 0.27867514 0.16932595 0.57768786 -0.63399786 0.11847623 -0.14767109 0.43216002 -0.0072897174 -0.3661676 0.15582925 -0.044589084 -0.32229167 0.009481214 -0.073700055 -0.305455 -0.32764208 -0.041916586 -0.3200346 -0.123844765 0.6559599 -0.0074057654 -0.2937016 -0.19874446 0.6767001 -0.21016249 -0.20360821 0.43036178 0.95440257 -0.4297523 0.533832 0.13700044 -0.05276035 -0.7542427 0.28427958 0.4670427 -0.8685709 0.53760904 -0.02445955 -0.28682408 0.09263473 0.0015676926 -1.217031 0.40462378 0.46578732 -0.08542673 -0.009374878 0.050636064 -0.19337617 0.9900619 0.7778698
3221 -0.02075109 -0.08418456 0.14173996 -0.22133991 0.1108282 0.37373978 -0.18692945 0.62182003 -0.53507423 0.1793007 -0.8033766 -0.34879673 -0.28186044 -0.062546596 -0.13393782 -0.7077754 -0.2533552 0.50970227 -0.25938606 -0.20922041 0.55837303 0.44742244 -0.54476327 0.47804344 -0.38521194 0.25416225 -0.061555836 -0.6779484 0.6259955 0.5703022 -0.21276999 -0.070110776 -0.0677707 -0.4193058 -0.407569 0.08538737 0.03911039 -0.062584825 0.12705284 -0.106238104 0.6581371 -0.3649471 -0.1476478 0.045906182 -0.19723192 0.034869857 -0.22229102 0.29667103 -0.23591796 -0.31182593 0.5484427 0.27487877 0.55396473 0.079907335 -0.15151218 0.19522206 -0.17410098 -0.09024508 0.61205524 0.24806964 0.14428812 0.11949146 0.303195 0.5069148 -0.054595787 0.2812042 0.13705233 -0.45411244 0.21442789 0.09398556 -0.64204156 0.032184318 -0.08173347 0.11514003 0.0065640723 0.1083491 0.46871853 0.49931794 -0.07716367 0.036393788 0.16368078 -0.6495439 -0.5091046 -0.6961694 0.5391019 -0.054282438 -0.60049045 0.31023014 -0.27619097 -0.18280408 0.18432991 0.44153103 -0.44082355 -0.14987418 -0.1199872 0.26344812 0.33835164 0.13607472 0.041102197 -0.116283186 -0.08477611 0.5401063 -0.040592186 0.22470437 -0.028499367 0.4910063 -0.38723817 0.23780732 -0.42563075 0.76012784 0.09590883 0.41520718 -0.15315439 -0.1820967 -0.119177416 -0.40282413 -0.6407643 -0.12244087 0.79920655 -0.3331715 0.07302651 0.2677323 -0.7253024 -0.5037233 0.021671904 -0.38626996 0.50339514 0.60384893
18856 0.059590228 -0.46817636 0.5753313 0.52218914 0.40196356 0.4764907 -0.24980493 0.05648966 -0.016560707 -0.17477101 -0.31503177 -0.037028793 -0.58482164 0.4903144 0.28180936 0.027855884 0.029503169 0.826545 0.37333775 -0.21956879 0.08624576 0.3552291 0.13151777 -0.3832344 -0.19007377 0.14103596 -0.22983183 -0.32012272 0.29925567 0.19620231 0.18466996 0.21148743 -0.2627899 0.30427277 -0.13076632 0.076586284 0.70734006 0.18480939 0.3795835 0.31999257 0.62596935 -0.4147399 -0.048269283 -0.4404613 -0.59685624 -0.19553599 0.16159342 0.34560168 0.009856895 -0.52620375 0.25011006 -0.0814429 0.022832867 -0.45912793 -0.39303842 -0.74985355 -0.005030819 -0.14371109 -0.09731801 -0.26355112 0.10962915 0.070536256 0.29307938 -0.11062394 0.33874562 -0.5199546 0.19338575 -0.5155139 0.3052556 0.21552037 -0.43008938 0.022673355 -0.010553442 -0.331607 -0.0075727017 -0.495551 -0.06433412 -0.22200744 0.2799882 0.08126611 0.35158503 -0.4934244 0.11430383 -0.010904095 0.6171504 -0.16506954 -0.4341775 0.22312431 -0.07044281 -0.3500605 0.11057147 -0.01532873 -0.183123 -0.41432407 0.111515395 -0.16570516 0.038473874 0.67840403 0.19354175 -0.2564015 -0.1425952 0.6411497 0.17236651 -0.20488496 0.33532608 0.8622977 -0.13246924 0.7019318 0.23861013 0.101980425 -0.63523644 0.40185824 0.40831766 -0.6693771 0.07391031 0.20962031 -0.585406 0.25772506 0.071184605 -1.0845299 0.36875263 0.4613483 0.020908646 0.045081243 0.14036782 -0.09658022 0.6349448 0.68407017
3731 -0.57805157 -0.63961226 0.4330833 0.28936702 0.11564901 0.6082474 -0.06862733 0.14911059 0.1848767 -0.4463006 -0.485988 0.34200528 -0.50406533 0.2814066 0.3036206 0.1822403 -0.39814278 0.44528013 -0.05033706 0.2600005 -0.041219868 0.515807 -0.014159647 -0.02104779 -0.036092304 0.12229232 -0.6259952 -0.03850307 0.64163554 0.028306665 -0.011504967 0.32214907 0.16301073 -0.27613038 -0.41149005 -0.5321974 0.370987 0.31504238 0.3019456 0.3330083 0.902549 -0.12486002 -0.19889675 -0.19783689 -0.4298379 -0.054351848 0.18285736 0.13475801 0.63835883 -0.33741397 0.017091127 0.08301647 0.049491685 0.037241295 -0.047441334 -0.6286461 0.16947003 -0.80623174 0.096342556 0.28514847 0.29248652 0.07674041 0.3118235 0.171449 -0.19407606 -0.530489 0.16034743 -0.45597625 -0.0017524931 0.09467998 -0.35609305 -0.026944974 0.11132019 -0.18137033 0.3690683 -0.13030493 -0.06157999 -0.057555754 0.23201387 0.3043304 0.4791431 -0.14285341 -0.09435447 -0.2683298 0.5170388 -0.20851271 -0.82382685 0.49948215 0.5162142 0.046114128 -0.37128082 0.29063883 0.062463414 -0.5880404 0.09759537 -0.55446595 0.040892594 0.9992059 -0.30552942 0.10565766 -0.25622162 0.5154555 0.11546573 -0.1908336 0.22353616 0.9415046 -0.21785599 0.47175413 0.37529507 0.7237605 -0.1772875 0.23525672 0.034752518 -0.56183404 -0.5545749 -0.011235662 -0.75495356 -0.23918375 0.054673478 -0.56754416 0.25011694 0.4343166 0.14645736 -0.09766295 -0.4423681 -0.56994575 0.4020216 0.17696626
9582 -0.1349953 -0.5383296 0.38334498 0.17801075 0.5303686 0.5243656 -0.050135877 0.31241882 -0.30309448 0.28130925 -0.62342256 -0.071240045 -0.18385878 0.124196954 0.3312568 -0.35061818 -0.115902185 0.4917994 -0.31344238 -0.103865676 0.1593794 0.4746847 -0.13779266 0.4872566 -0.5359261 0.32965738 -0.19646128 -0.7591037 0.26604828 0.0011858646 0.034049276 0.037149597 -0.102256216 -0.07358851 -0.42254624 -0.045551673 0.49116844 -0.27717432 0.13826956 0.3199175 0.7368559 -0.10487647 -0.37428397 -0.67211884 -0.656226 -0.049481574 -0.083021276 0.2883024 0.26409122 -0.40540743 0.30661997 -0.09986824 0.5242559 -0.36521205 0.2534587 -0.2287865 0.033452373 -0.6863035 0.40249625 0.06731245 0.048025854 0.36076194 0.35631683 0.5402111 -0.2088898 -0.5863165 0.18049292 -0.42507413 0.20075084 0.38826513 -0.14898169 -0.019313192 0.463066 -0.0040764944 0.06786643 -0.23331122 0.14765912 0.101606354 -0.073243596 -0.2758001 0.21130276 -0.56067556 -0.4579634 -0.18582298 0.38144448 0.14014198 -0.72198653 0.53272074 0.16202605 -0.21270694 -0.17573433 0.41184995 0.23487322 -0.33191773 -0.24252616 0.015342588 -0.22521576 0.5682515 -0.015055304 -0.0784663 -0.18856524 0.4705828 0.35348985 0.118761815 0.30115232 0.5153169 -0.16259095 0.567344 -0.2775019 0.41967067 -0.3676905 0.4431891 -0.12627035 -0.76769465 0.13242759 -0.02107762 -0.41465184 0.056858975 0.3479085 -0.72618127 0.006410187 0.040670346 -0.4919458 -0.27800134 -0.34628376 -0.42560804 0.32505167 0.46159253
12496 -0.076066 -0.47543502 0.46077213 -0.047463663 0.10267084 -0.21627793 0.219272 0.35693482 0.007814385 -0.28276807 -0.6868217 0.012178543 0.099310994 0.014233274 0.34606448 -0.31377244 0.15042605 0.07583587 -0.4203298 0.17131087 0.3004385 0.43645766 -0.35640347 0.21706139 -0.07600924 0.31507427 -0.12654383 -0.7157984 0.65916777 -0.23821212 -0.06617029 0.20344943 -0.031935733 0.591983 -0.33027732 0.025018984 -0.15136139 -0.39500988 -0.46252126 -0.20004432 0.16619888 -0.31912115 -0.42769784 -0.45099133 -0.28853354 -0.10825872 0.05960073 0.043216538 0.22963116 0.025545865 -0.02012473 -0.3155828 0.68169254 -0.24559486 0.20311263 0.005275593 0.314574 -0.4455784 0.50379235 -0.33886468 0.33598065 0.007999804 0.11076704 -0.0025563522 -0.3915333 -0.50270814 0.17010838 0.16872905 -0.097802706 0.6947607 -0.50815237 0.29949912 -0.07552506 0.51027393 -0.022854725 0.19511469 0.16329747 -0.0005915408 -0.52118963 -0.3707869 -0.046455536 -1.0060351 -0.13718733 -0.015037441 0.7152795 0.03115971 -0.742424 0.18751259 0.47602102 0.099647924 -0.32291564 -0.036290947 0.046577964 -0.5337534 -0.58123004 0.049684867 -0.38480347 0.8472567 -0.28649092 0.48924455 -0.07448887 -0.018069644 -0.10079743 -0.4072979 0.45934796 0.18142924 -0.6122812 0.75212777 0.15721916 0.08550064 0.24655665 0.5932169 -0.21373674 -0.68653595 -0.14899506 -0.19646437 -0.54628175 -0.24821825 0.12406169 -0.42679083 -0.18637127 0.26646236 -0.18751419 -0.39358798 -0.22587469 -0.49266428 0.19792834 0.24073526
19384 0.11702198 -0.35295752 0.40420824 -0.130884 0.70788056 0.31256044 0.017212385 0.77574027 -0.5297348 0.41731802 -0.54077584 -0.26001105 0.22829615 -0.27277568 0.24109757 -0.25279593 0.40780386 0.7433456 -0.20155342 -0.06201766 -0.2103253 0.5104286 0.32746255 0.49045926 -0.7428204 -0.28073996 0.35588315 -0.15445244 -0.5231215 0.2546303 0.18996684 -0.014281438 0.11287685 0.10671242 -0.3592269 0.4449306 0.2811409 -0.7913788 -0.038041744 -0.028980408 0.30615768 -0.08386383 -0.63358164 -0.4273153 -0.33637923 -0.09841653 -0.12837778 0.029871555 0.07234244 -0.5506038 0.34280905 -0.23040472 0.41217342 -0.41073954 0.10875724 -0.23848481 0.26363954 -0.052245285 0.5613453 0.15635844 -0.44588906 0.17674544 0.19753978 0.3875493 0.05152208 0.020945933 -0.051456567 -0.6551187 0.46114087 0.10529712 0.096484534 -0.13393947 0.7265425 -0.6052411 0.23988895 -0.8006636 -0.033180345 0.20977129 -0.54827493 -0.10054704 0.014632739 -0.6831787 -0.34651795 0.16457929 0.21718685 0.3144764 -0.7765409 0.37758762 0.13240017 0.08003388 -0.3124169 0.666645 -0.143667 -0.20498574 -0.016406901 0.5810859 0.17213154 -0.08167739 0.57616436 -0.29823688 0.21883611 0.075582676 -0.10533993 -0.017800795 -0.131798 0.15363549 -0.36684656 0.42209744 -0.9745732 0.32910052 -0.4400917 0.47417974 -0.077254675 -0.43614382 0.36897752 -0.016034631 -0.18803619 0.43147647 0.27078846 -0.19927442 -0.032552645 -0.16419771 -0.91173434 0.00076195056 -0.4210506 -0.16362843 0.45695052 0.57414496
10594 -0.079495065 -0.48376846 0.3398927 0.3039875 -0.1267559 0.79626316 0.2527134 -0.011788695 -0.25943875 0.27689105 -0.021031935 0.023323616 -0.69847053 0.49416882 0.21975678 0.20983148 -0.13955031 -0.34819096 0.22032918 -0.44356695 -0.26048565 0.40844858 -0.34508944 0.1912387 -0.7938091 0.4781744 -0.21449599 -0.3844522 0.17626102 -0.22286825 -0.01423924 -0.56266576 -0.20177805 0.16057263 -0.33024943 -0.051732507 0.32390112 -0.10561167 0.228395 0.33423567 -0.17364635 -0.069521986 -0.30090484 -0.8655042 0.06586952 -0.10644419 -0.3419384 0.008651932 0.47061092 -0.26519072 0.5963905 -0.14089176 0.4344809 -0.031552624 0.24335672 0.5749856 0.12650877 -0.60340303 0.0696291 0.3390146 -0.093435735 0.77932537 -0.07646329 -0.07962609 -0.1316637 -0.3109866 0.076210774 -0.50044763 0.23421766 0.14700751 0.0695377 -0.14865933 0.3198322 0.59440446 0.09035867 -0.81400913 -0.02148165 0.4229242 -0.12579392 -0.4920763 -0.2890517 -0.34010783 -0.5144457 -0.18198977 0.41753697 -0.02757181 -0.6920324 0.6308503 -0.43776324 -0.99017996 0.05122789 0.02137896 0.1365084 -0.44773382 0.12924667 0.17942536 0.1927888 0.03472977 -0.29002744 -0.17227684 -0.49117425 0.1493924 0.6796643 0.39216605 0.48415327 0.046097875 -0.22454278 0.07419539 -0.259633 0.007813882 0.50561315 0.5921282 -0.38984913 -0.4785038 0.4106777 0.041678723 0.18122372 0.09285011 0.08101697 -0.5374622 -0.36021468 0.07434061 -0.64505714 -0.13162108 -0.30365586 -0.20565543 0.6948447 -0.04596459
14996 -0.00094651873 -0.31555495 0.5093997 -0.3503924 0.016630277 -0.5103248 0.08577936 0.37569383 -0.039982338 0.26302186 -0.79708284 -0.09356932 0.096131 0.23468435 0.16652256 -0.13990848 0.30093995 0.30069458 -0.5418847 0.18199112 0.19631809 0.25203818 0.0072158575 0.09152967 -0.13144714 0.32502243 -0.5329678 -0.5356557 0.3554892 -0.23423289 -0.028601438 -0.110502474 -0.26607287 0.2842494 -0.19110037 0.028493496 0.17234665 -0.49442464 -0.34895998 -0.07867172 0.38037595 -0.6779681 -0.41758958 -0.44649252 -0.6564636 0.022396995 -0.15782729 0.37532762 0.098915644 0.035042528 -0.14601555 -0.09520411 0.65506625 -0.31026888 0.45902726 -0.115898445 0.42923266 -0.30865914 0.6276569 -0.45149493 0.15905567 -0.12942046 -0.084606655 0.20713188 -0.20196907 -0.65534854 -0.13377345 0.32583907 -0.06266272 0.25508755 -0.24568869 0.5691157 0.20980844 0.40400916 0.16265531 0.15232165 0.11154372 0.053207368 -0.61670536 -0.35753682 -0.005535171 -0.9369918 -0.08350476 0.19233555 0.47963408 0.28363007 -0.92565954 0.07340474 0.4419465 0.15760483 -0.527898 0.32598883 0.028858839 -0.7961211 -0.3361739 0.28520313 -0.48733842 0.44425505 -0.21191636 0.2269804 -0.1908521 0.04272005 -0.3405242 -0.4300318 0.25936297 -0.10824202 -0.4938801 0.84973323 0.029670227 0.36808404 -0.12265856 0.72862965 -0.4956498 -0.5583984 -0.17834528 0.027180271 -0.37019208 0.088960156 0.16635674 -0.60798734 -0.10289479 0.12004401 -0.19495492 -0.4962825 -0.6287128 -0.20607305 0.12813257 0.12758824
15717 -0.68740535 -0.18642658 -0.22647567 0.0122778565 0.107980944 -0.15656313 -0.057267144 -0.26203617 -0.14465909 0.38756403 -0.43560326 -0.1622565 0.10608451 -0.5529737 0.032563925 -0.014228849 -0.5974565 0.52898246 0.04966139 0.10179063 0.5876016 0.047836877 -0.16623701 0.8719149 -0.005461913 0.6552415 -0.16559637 -0.77932304 -0.10860346 -0.1968062 0.15176284 -0.46739772 0.2108161 -0.59237766 -0.4579527 0.3423708 0.4751951 -0.56047463 -0.020457838 -0.1599227 0.6082207 0.088152185 -0.27344418 -1.1170176 -0.37479213 0.50517946 -0.4849329 0.27179012 0.37971944 -0.610878 -0.040889837 0.47180784 0.6771264 -0.22645299 0.25684118 -0.06900725 -0.60541064 0.023154128 0.07559555 -0.13326727 0.17515704 0.20948465 0.1258239 0.29068518 -0.58588165 -0.24021305 0.39292914 -0.14954416 0.24002431 0.35590935 -0.36277446 -0.21606648 0.5024346 0.35488856 -0.45995346 -0.20507228 0.056326516 0.33721328 0.6840874 -0.19844514 0.2460211 -0.107690744 -0.70123667 0.023999207 0.37543213 -0.061740138 -0.18632394 0.26473144 0.2534879 -0.34324595 0.23860934 0.16256812 0.11473964 0.18202835 -0.43137923 0.21803406 0.30886015 0.20508306 0.29333457 0.27840906 -0.53537893 0.9434884 0.79845005 -0.015283768 0.17899592 0.60596454 -0.17533824 0.713699 -0.023136651 -0.028568238 -0.22564164 -0.02810461 -0.06456038 -1.0383862 0.4102151 -0.6919072 -0.65387475 0.13411142 0.06699754 -0.8741364 -0.143847 -0.20951603 -0.29277468 -1.0910436 -0.15418895 -0.21710485 0.048046224 0.36250094
10007 0.077202804 -0.5064074 0.58272624 0.6251847 0.48342878 0.3483214 -0.14277598 0.10923871 -0.08081162 -0.13542163 -0.31538492 -0.15732187 -0.3925316 0.30382976 0.3353854 -0.34872815 -0.0059564905 0.59595287 0.25676525 -0.2953018 -0.0040345066 0.34045324 0.16524002 0.019389434 -0.5194847 -0.113531046 -0.13503774 -0.61873084 -0.03765285 0.16977432 0.12974758 0.015216073 -0.30210167 0.32791597 -0.037438497 -0.10870809 0.62318915 -0.028809281 0.5651503 0.31415328 0.4184349 -0.4685193 -0.19968182 -0.3622585 -0.57094127 -0.42627856 0.18020612 0.44033217 0.18479401 -0.48136884 0.067961045 -0.13782163 0.015385082 -0.38893577 -0.35437372 -0.6887668 -0.061936066 -0.2317076 -0.1317047 -0.33413094 0.03866737 0.046367723 0.4856011 0.17644776 0.2656079 -0.55095965 0.21467581 -0.70306355 0.4664917 0.5084876 -0.49518025 0.053645354 0.027112251 -0.25922063 -0.12613444 -0.6183263 -0.011709484 -0.2882868 0.357096 0.19200753 0.46482292 -0.6057538 0.2672122 -0.082841575 0.5058501 -0.010514093 -0.48818848 0.19573808 -0.17920887 -0.41994324 0.091424435 -0.032408707 -0.1781067 -0.23914713 0.06887879 -0.15524285 -0.13427818 0.715775 0.18162589 -0.1454895 -0.19318004 0.54687023 -0.0826129 -0.2604907 0.3636578 0.9914551 -0.30557075 0.70397043 0.033983905 -0.065129526 -0.6841508 0.40282482 0.4997609 -0.61251545 0.48893845 0.023508338 -0.32073513 0.12513126 -0.09032255 -1.1915636 0.29836655 0.47082213 -0.17526308 0.060794882 0.08333671 -0.27080554 0.92497605 0.7460584
7833 -0.32917026 0.052858684 0.7003833 -0.1401311 0.28423342 0.66744846 0.0043900083 0.5591754 -0.51876247 0.7816879 -0.14782399 0.078185305 -0.36525214 0.2762181 0.44682264 -0.5882666 0.22635673 0.41054037 -0.8041392 0.06014452 -0.23430268 0.61816615 -0.3138663 0.28942972 -0.762945 0.025931945 0.18091604 -0.40568948 0.33764762 0.054599423 -0.56030595 0.3548826 -0.59457904 -0.47446632 -0.43882605 -0.20804411 0.09330683 -0.2801175 0.42349294 0.6150576 0.29334807 0.15898484 -0.42585623 -0.041334264 -0.36788633 0.33374622 -0.3169012 0.29937434 0.08107728 0.2501665 0.7210082 0.5518647 0.4460029 0.15104485 -0.024182493 -0.13312891 0.2376021 -0.40917772 0.25663328 0.4738372 -0.18545587 0.10685649 0.48441783 0.49460804 0.57905906 -0.9309596 -0.09516633 -0.5201715 0.16417396 0.368918 -0.08184838 0.51493454 0.1713863 -0.21913207 0.356442 -0.6205172 -0.55027133 0.13576864 -0.36218956 -0.10882806 -0.13110603 -0.14737508 -0.30120185 -0.24752489 0.51436675 0.25349206 -0.37179917 0.6290577 0.19536448 -0.05033484 0.2971969 0.50558275 0.018605044 -0.023779817 -0.5069584 -0.07616251 -0.1934098 0.3897127 -0.4852576 -0.0835549 -0.22889651 -0.14128718 -0.04885469 0.37665805 0.33436668 0.76912785 0.06488398 -0.118772216 -0.13054568 0.32423547 0.003090466 0.10250422 -0.29562357 -0.6303207 -0.20384692 0.14629854 -0.22785014 -0.13053893 0.4466521 -0.19778177 0.38169223 0.14473602 -0.39468274 0.6365864 -0.47622257 -0.75765485 0.44798726 0.2539997
7108 0.00027782988 -0.36939648 0.32792228 -0.012859017 0.3129344 0.61258334 -0.07588724 -0.11582232 -0.30955994 -0.071264826 -0.33898538 0.12972479 -0.85079604 0.46378592 0.4806866 0.41949335 -0.20967367 0.69266343 -0.027501976 -0.11771465 0.023550268 0.54040194 -0.3864269 -0.09930481 -0.44762045 0.22010063 -0.15181467 0.19030412 0.27186847 -0.016243866 -0.23359595 -0.0154056605 0.20275596 0.03715245 -0.5234117 0.47176546 0.73393285 -0.38197553 -0.2516193 0.07366349 0.7594158 -0.6764942 -0.011498479 -0.39685282 -0.5128204 0.68147135 -0.07835457 0.11923287 -0.2938135 -0.80815613 -0.0285946 0.286432 0.89559907 -0.5357671 0.019971786 -0.2487087 0.017818684 -0.20530884 0.016680147 -0.44383734 -0.061309148 0.05787236 0.580258 0.4803201 0.08707201 -0.6247987 0.5704888 -0.0645603 -0.1865823 0.16496721 -0.17542309 -0.21935737 0.351968 0.07874541 -0.009790877 -0.084197365 -0.09662937 0.20665152 -0.12332708 -0.44410244 -0.3015072 -0.36651072 -0.3004214 0.1608321 0.43059838 0.22918497 -0.102710605 0.6264561 0.20390116 -0.23331575 0.2567159 -0.379087 -0.017677061 0.031760816 -0.13720445 0.5756071 0.1544547 0.19020824 0.17955616 -0.18833683 -0.06508071 0.63424367 0.26828277 -0.30271956 0.17763136 0.39192998 0.36140168 0.45966476 -0.38807204 0.16903277 -0.1478536 0.29532036 -0.23181462 -0.38641694 0.058695916 0.21176095 -0.7879607 0.32445812 0.17643638 -0.5429848 0.18942444 0.03582212 -0.31038502 -0.004642465 0.041825164 -0.15387043 0.19205534 0.57295907
16032 0.092029 -0.13587824 0.042065773 -0.42268112 0.14217529 0.039302588 0.0831395 0.3481341 -0.31405386 0.7366392 -0.15700173 -0.317367 -0.10769133 0.48199776 0.19164948 0.051704947 -0.24697682 0.53138655 -0.6266348 -0.18967758 0.3943807 0.60214865 0.13647665 0.08073568 0.10030603 -0.019496096 -0.4135439 -0.17962852 0.34152362 -0.31565136 -0.012858636 -0.33801833 -0.43612915 0.13519871 -0.3030292 0.39339703 0.09413348 -0.39356676 0.31960297 0.07348699 0.064668916 -0.43978205 -0.43312606 -0.57175237 -0.8017162 0.3743163 -0.21210803 0.32628763 -0.23410715 0.104667485 0.20578769 0.69319683 0.23575853 -0.4051561 0.54862875 0.12667789 0.075586885 -0.36366606 0.65121955 -0.018759403 0.45216057 -0.07496857 -0.21794976 0.49303234 -0.04470923 -0.5745939 0.2981768 -0.24658912 0.050010927 -0.08217625 -0.21785274 0.44962442 0.53576404 0.51280886 0.55747664 -0.5912831 0.1039026 0.055291172 -0.052359875 0.2755326 0.22385295 -0.17103505 -0.0840131 -0.32719308 0.3338238 -0.06224209 -0.41642678 0.34497213 0.4095448 -0.15338656 -0.46589264 0.110998064 0.03298183 -0.22619732 0.17692398 0.26364338 -0.44171032 0.789175 -0.4316779 0.3650424 -0.16370381 0.5832209 0.49432307 -0.01662001 0.2694103 -0.060911886 -0.488519 0.6215745 -0.22333278 0.5958883 -0.43962884 0.42806444 -0.6813618 -0.69014555 0.2939224 0.224458 -0.536611 0.41109356 0.23574348 -0.2998105 -0.020575857 0.03760217 -0.57454216 -0.07002819 -0.32477495 -0.21832065 0.36399916 0.06598294
6653 -1.0395052 -0.5344523 0.17380564 0.9494671 0.80757433 0.46563977 -0.0642141 0.17293407 -0.08048481 -0.45719144 -0.57202715 0.047379334 0.17523797 0.24704091 0.4445934 0.116844036 -0.15057962 0.75454026 0.04947025 -0.025547551 0.1341569 0.2074117 -0.3566221 0.42906404 -0.6642653 0.09415824 -0.08217162 -0.8720507 0.46176702 0.08785631 -0.35952958 0.09917611 0.19741489 -0.5223395 -0.31114355 0.13078678 0.033146568 0.5350303 0.22921251 0.0022632773 0.60384893 -0.06540966 0.13102785 -0.24962953 -0.34521553 -0.18801595 0.61155343 -0.030261222 0.14902689 -0.44217673 0.16097575 -0.42163625 0.5840037 -0.6199316 0.39117625 -0.59624624 0.43390635 -0.14773723 0.22807053 0.13897496 0.15069136 0.28264445 0.11531314 0.09060924 0.18365052 0.3091389 0.053574417 0.027195273 -0.22492997 0.9058248 0.009837427 -0.47372743 -0.3580099 -0.42714998 0.21067558 -0.9221746 -0.5043216 0.10761714 0.1597297 -0.7103992 0.05266943 -0.0740442 -0.63945097 0.031005206 -0.050654817 0.75019324 -0.671435 0.2334224 0.13942263 -0.1635805 0.3550694 0.37433475 0.48034635 -0.8216088 -0.36996087 -0.7298278 -0.17859623 0.35840425 -0.15978995 -0.30031478 -0.7730085 0.51617634 0.6134338 0.05350188 0.06359411 1.0853994 -0.56066823 0.4412656 -0.19681865 -0.2682861 0.034766298 0.3242257 0.2070434 -0.6348925 0.15248315 -0.2712715 -0.40421474 0.106585 0.12370384 -0.7833526 0.28807876 0.32158852 0.15239385 -0.052041583 -0.25860342 0.27801505 0.45644376 0.9124718
14493 0.3701437 -0.4381322 0.4195986 0.17762202 0.73487014 0.99882364 -0.07934065 0.21751948 -0.18321349 0.004080298 -0.3985756 -0.19870849 -0.32100916 -0.0048558027 0.10815362 -0.35820836 -0.1766488 -0.26423916 -0.5940763 -0.22882327 0.22322822 0.48195022 -0.1160762 -0.16714649 -0.45853475 -0.03975308 -0.17620966 -0.53339887 -0.066033825 -0.05323322 0.213674 0.22289473 -0.03228991 0.220202 -0.28917733 -0.032700956 0.36584163 0.08272522 0.30707785 0.62269014 0.5117101 -0.20712273 -0.008424402 -0.35672167 -0.9539325 -0.26230818 0.43061072 0.051200967 -0.06656604 -0.19268923 0.32952344 -0.5452623 0.029513257 -0.074354686 0.352329 -0.3029635 0.0033481696 -1.5576 0.17026813 0.2401591 0.3109534 -0.06365287 0.49457625 0.5190572 0.0074026515 -0.78746974 0.12180264 0.033271935 -0.3519477 0.43248105 0.12647557 -0.078375354 0.17043741 0.189818 0.06890501 -0.10861062 0.20669118 -0.39653116 -0.32225636 -0.036141824 0.0042656525 0.0009611232 -0.18548526 -0.39881957 -0.15519303 0.16950281 -0.5441182 0.22828169 0.29459858 -0.39828455 -0.292623 0.06140508 0.36333674 -0.28280395 0.034024253 -0.045415673 -0.5824003 0.49755582 -0.6610683 0.1406968 -0.13077946 0.15622936 0.25957048 0.18492635 0.3222973 -0.2704018 0.12759201 0.025827358 9.904084e-05 0.07995214 -0.29181078 0.37785384 0.28750587 -0.3121802 0.030583814 0.33165914 -0.15990216 0.05461563 0.4959988 -0.46174005 0.2946366 -0.070156775 -0.26105767 0.21573478 -0.41709468 -0.08703014 0.036946125 0.34133482
2414 -0.47565502 -0.6534374 0.49988335 0.35832652 0.16809875 0.6181915 -0.10184319 0.13760898 0.15491559 -0.45240238 -0.437792 0.26209232 -0.5582434 0.42935127 0.2935176 0.16058916 -0.27406743 0.5503957 0.0679038 0.20104541 -0.049493875 0.51935345 0.042259134 -0.18528925 -0.08531977 0.12473261 -0.58380276 -0.0386727 0.5949491 0.100896515 0.065980606 0.35390538 0.10980116 -0.13753876 -0.41284537 -0.4517435 0.5144246 0.34965795 0.3256036 0.34929812 0.9048397 -0.19040994 -0.18780501 -0.21839908 -0.46700987 -0.10263367 0.17892165 0.19012116 0.53309524 -0.39905447 0.0877876 0.03995817 0.04758971 -0.02505957 -0.13947469 -0.73378736 0.1261329 -0.7310094 0.05858998 0.18514907 0.29323155 0.069536075 0.30104953 0.09405279 -0.10626503 -0.6034473 0.14310776 -0.53959095 0.055104796 0.15742344 -0.38848996 -0.0356579 0.082592025 -0.22291084 0.36146158 -0.22219785 -0.0683995 -0.085204124 0.27925688 0.34860924 0.4688738 -0.24165364 -0.043406077 -0.25756115 0.60677034 -0.30337352 -0.81718665 0.45114788 0.4187557 -0.04361013 -0.33291626 0.24153829 0.015886018 -0.587169 0.18939804 -0.49663374 0.0690824 1.0064981 -0.22505125 0.03904711 -0.24639791 0.5916224 0.09184702 -0.24334432 0.19352546 1.0113986 -0.1784614 0.52868724 0.39133948 0.6418963 -0.32471097 0.2757785 0.15060842 -0.59159553 -0.5095774 0.033845082 -0.7598557 -0.101302095 0.066183664 -0.7786546 0.31040925 0.4782742 0.14291011 -0.017389337 -0.34539613 -0.5450814 0.47603 0.27716348
22164 -0.37743053 -0.1612999 -0.006797721 -0.22266027 0.3736298 0.36884174 -0.14938062 0.44282666 -0.42401606 1.0909207 -0.35459015 -0.41468963 -0.2655664 -0.08565515 0.16396034 -0.36397442 -0.07558321 0.3239961 -0.5362521 -0.15158837 0.07274216 0.49069107 0.06611765 0.15236999 -0.30287537 0.82502604 -0.56793153 -0.041062307 0.030935884 -0.038684145 -0.17891027 -0.18255323 -0.20897777 -0.8560621 -0.42406267 -0.024895316 1.0244217 0.21235776 0.27039638 0.28258422 0.17190808 -0.14699537 -0.24540332 -0.90888846 -0.6408924 0.20725653 -0.22035943 0.04491217 -0.28849554 -0.55599946 0.13100919 -0.26028356 0.73666334 -0.14915301 0.576918 0.031079471 0.080204695 -0.8018527 0.54275626 0.120764285 -0.04278068 0.15361254 0.21999311 0.784083 -0.5355908 -0.33024678 -0.15439232 -0.65368515 0.23501806 -0.56413484 0.2969288 0.11057752 0.4389538 -0.054564998 0.06900756 -0.11103162 0.2699409 0.60957146 -0.061277457 -0.5029956 0.5072993 0.096907325 -0.13747922 -0.036645167 0.3253512 0.31942478 -0.22890632 0.24973343 0.30049202 0.29517636 -0.13689888 0.6133522 -0.37265617 0.55061746 0.18205397 -0.247355 -0.068383634 0.23299272 0.0975202 -0.2734198 -0.46343526 0.57748556 0.33930385 0.24603407 -0.22513384 0.58745193 0.05534852 0.072149284 -0.76507276 0.0766183 -0.23725903 -0.01287263 -0.7262394 -0.14691927 0.35609218 0.22230332 0.0132914595 0.4741277 0.0005563747 -0.1875179 -0.06319519 -0.55526567 -0.30422348 -0.77987427 -0.28675306 -0.7410772 -0.2093698 0.07831298
1617 0.18399717 -0.17885274 -0.18587859 -0.016400509 0.24818434 0.077636205 0.20925952 0.10369068 -0.038810257 0.38107786 -0.45771116 -0.1385354 -0.18882808 0.4696237 0.1942832 0.0483411 -0.5762272 0.27148363 -0.55619764 0.04010466 0.5712819 0.3366603 0.11262214 0.46070415 -0.20091021 0.00852805 -0.52271235 -0.6384198 0.07026041 -0.2563453 0.36788005 -0.37303072 0.13066228 0.3343079 -0.33903617 0.3832059 0.07457356 -0.401286 -0.06368175 -0.030033227 0.06192047 -0.7381922 -0.21793814 -0.35993737 -0.6869119 0.41527265 -0.32369548 0.17402118 0.26976585 -0.09667922 -0.18886544 0.7031182 0.5879757 -0.3722858 0.29881766 0.21728963 0.13611397 -0.58170336 0.6781214 0.00036648914 0.6744771 0.21533571 -0.04919756 0.605254 -0.2967575 -0.24169318 0.709597 -0.05860793 0.07298381 0.523685 -0.3875035 0.27532294 0.46001506 0.5262082 0.42635453 -0.44450605 -0.1432557 0.053926107 0.14139576 0.45216262 0.23064473 -0.25775516 -0.33212927 -0.12564045 0.38135368 -0.23535123 -0.50520337 0.50429326 0.5126606 -0.34282154 -0.24210247 -0.27201015 0.34442142 -0.511244 0.2806568 0.4245556 -0.5098124 0.42683396 -0.24459803 0.6204757 -0.004319651 0.71223664 0.58932346 -0.17364006 0.22520852 -0.15461506 -0.35218287 0.764284 -0.24601747 0.4228103 -0.2504508 0.36441192 -0.38073483 -0.81127584 0.52066654 0.021473795 -0.5961445 0.64218414 0.2107549 -0.59573036 -0.06789103 0.027459184 -0.61335725 -0.16414526 -0.44339594 -0.15989563 0.52025294 0.19042069
17194 -0.004711439 -0.58054835 0.38774994 -0.14484408 0.43392867 0.51423013 -0.034015406 -0.042363245 -0.75135463 0.02755185 -0.001723093 0.21834694 -0.4833832 -0.038771916 0.4199652 -0.9009708 0.07149293 0.50151616 -0.254727 -0.18187697 0.09297667 0.62556255 0.05324284 0.3505751 -0.09604305 0.17417988 0.48393095 -0.82354176 0.2353012 -0.14689253 0.115375966 0.1641189 0.034200903 -0.04636917 -0.2917344 -0.1595682 0.48730096 -0.43721125 -0.058251027 0.07878974 0.9886146 0.332229 -0.51772165 -0.7252585 -0.045961726 -0.31917125 -0.6221765 0.41689807 0.5132131 -0.57832414 0.56986624 -0.4109562 0.4287399 0.00021875923 0.16018686 0.008983702 0.06538149 -0.88499653 0.48350382 0.02100915 0.28717914 0.6554401 0.3211725 0.5518177 -0.21698904 -0.7174612 0.11617137 -0.33125788 0.6782096 0.0047664046 -0.2981075 -0.49286327 0.4387152 -0.5555615 -0.23001142 0.23238748 0.47755212 0.07771705 0.02315825 0.108567044 -0.050960124 -0.50308466 0.119236805 -0.030822659 0.11307678 -0.061228126 -0.11778395 0.6072508 0.26502115 -0.07909646 0.14608091 -0.025268454 0.426149 -0.09688647 0.003446714 0.53630984 -0.15445036 0.27921304 0.26316717 -0.08213768 0.21630774 0.75063574 -0.14767864 0.10747933 0.75730485 0.78939605 -0.013273686 -0.26864156 -0.23329934 -0.08334689 0.10212661 0.3994037 -0.14888881 -0.081351876 0.06996604 -0.052406803 0.18894096 -0.13607779 0.28193095 0.19610669 -0.147268 -0.027299056 -0.45878097 0.01670642 -0.1611991 -0.4723271 0.12975168 0.13075186
19753 -0.060597822 -0.34897643 -0.13578376 -0.16072193 -0.08028092 0.4000816 0.11147969 0.5068473 -0.17979832 -0.13814923 -0.42847085 -0.22028852 0.12453025 0.2765063 0.8330848 -0.2710196 0.06902483 0.65538126 0.039616592 0.071918294 0.26076224 0.51257104 0.2137687 0.22099517 -0.22221154 -0.08994622 0.16919999 -0.5067444 0.12026212 0.2206917 0.23682316 0.12330664 -0.017101545 -0.29997057 0.09922616 0.07335293 0.5684355 -0.11921072 0.26480684 0.07104323 1.2042373 -0.46023563 -0.34699062 0.21896084 -0.95397145 -0.11571616 -0.015704136 0.23945718 0.51007843 -0.5164946 0.23102048 0.27388576 0.61101526 -0.053986534 0.040826574 -0.6287392 0.24175389 -0.19122525 0.4850688 -0.16824289 -0.5101041 0.3244695 0.024204629 0.93202305 0.130697 -0.67545086 0.27670193 -0.6474431 0.3150412 0.07718612 -0.15636683 0.14013556 0.3140397 -0.47116148 0.42254543 -0.54626036 0.14560045 -0.1533542 -0.3989971 0.14640856 0.34801352 -0.5923866 -0.42508328 0.061211765 0.27886322 -0.12044252 -0.87937737 0.604068 0.26768488 -0.32863793 -0.38204828 0.23637706 0.33387008 -0.18379836 0.27618176 -0.113983296 -0.3513515 0.9553728 0.56878823 -0.27483463 0.2995492 -0.0023432062 -0.24517709 0.3680033 -0.042513456 0.46477568 -0.0370747 0.338436 -0.64772195 0.48157656 -0.68086857 0.15861392 0.061235774 -0.19893579 -0.10159717 0.46093702 -0.2919298 0.20226948 0.28875735 -0.6074406 0.033759136 0.29154414 -0.1843595 0.21713828 -0.123487264 -0.37982252 0.79789865 0.5870337
18006 -0.015689772 -0.79019827 0.647382 -0.4762895 0.41473123 0.47056758 0.023145806 -0.08239361 -0.70793283 -0.116434634 0.1786758 0.110593736 -0.24016099 -0.085526675 0.35880977 -0.6011178 0.27335703 0.08451703 -0.005750565 0.18776584 0.15528503 0.40516907 -0.07471799 0.8123113 -0.42790928 0.11969839 0.60236853 -0.6592665 0.44376042 0.26304677 0.09523788 -0.18721624 0.24716997 -0.15573514 -0.36539674 -0.42749146 0.4731331 -0.3429311 -0.037915766 0.5386577 0.70669997 0.638166 -0.65383303 -0.7760426 0.042070705 -0.06254392 -0.5965693 0.14239697 -0.006482852 -0.34905583 0.17635144 -0.41879326 0.39607292 -0.04889702 0.19620481 -0.110933244 0.021711899 -0.7574225 0.14848438 -0.10667677 0.42622074 0.50927746 0.3094807 0.39300197 -0.118209995 -0.5519643 -0.3023765 -0.3715572 0.6444086 0.26951426 -0.043429594 -0.3743726 0.5391163 -0.24408701 -0.35462275 -0.28727442 0.5526 0.33980542 -0.37267736 -0.10099535 0.12606536 -0.2926012 -0.15323131 -0.41382724 0.61577594 -0.39409742 -0.31834623 0.74459076 -0.17027308 0.012027065 -0.19056104 -0.014498461 0.42365402 -0.05758589 0.340214 0.22644536 -0.42530823 0.5094106 0.26206562 -0.024950363 0.43957275 0.24078073 -0.29477236 0.1172459 0.65286595 0.5953265 -0.166123 -0.2212479 -0.11741475 -0.18321398 -0.2189873 0.44289562 -0.029879175 -0.2428204 0.3279639 0.12898931 -0.188872 -0.24364917 0.0735015 -0.31790566 -0.42851645 -0.2304534 -0.38278878 -0.008081299 -0.092321254 -0.6149067 0.035826646 0.49073818
7887 0.15234433 -0.49995282 0.058032718 0.6327252 0.50164145 0.37596756 -0.03900127 0.052741244 -0.514228 -0.07486377 -0.8394122 0.32010204 -0.21424016 0.45968786 0.16832139 -0.20313855 0.011809065 0.25907353 0.053939745 0.11088945 0.2654046 0.4936452 0.13326438 0.04301598 -0.2789252 0.04293694 -0.4210493 -0.34714025 -0.17404321 -0.006262477 0.044898156 -0.19846173 -0.11169847 -0.1330227 -0.1755552 -0.8223545 -0.17112097 0.51247054 0.1964108 0.44532302 -0.09280048 -0.032655727 -0.26254028 -0.5666836 -0.25814006 -0.35968232 0.2785961 -0.20068996 -0.11099221 -0.052380275 0.16164899 0.44901744 0.48338982 -0.66994196 -0.3079195 -0.39949527 0.5298326 -0.6129235 0.10923699 -0.2724124 0.6471876 0.06819946 0.22378069 0.45209384 -0.5850009 -0.46726257 0.1064869 -0.55588335 0.21603099 0.34643683 -0.15400794 0.1407872 0.111005366 0.45363784 -0.22729692 -0.11407356 0.06297345 0.25722644 0.14107698 -0.070519954 0.759672 -0.5581079 -0.49961326 0.021383999 0.12742744 -0.12626684 -0.30973983 0.23986515 0.19905199 -0.35407075 -0.026812969 0.026909553 -0.24001823 -0.28355724 -0.28337806 -0.17396846 -0.03005051 0.16010687 -0.41095045 -0.56294245 0.06642973 0.5846127 -0.26274693 0.18339512 0.15114774 0.36155236 -0.14462554 0.016064428 -0.06779921 0.3763312 -0.39213622 -0.04278123 -0.044654958 -0.84094644 0.54164714 -0.21527424 -0.1840854 -0.15945183 0.27797723 -0.9474455 0.01196056 0.119625404 -0.09330722 -0.28258726 0.041911114 -0.25395507 0.5075382 0.5030154
21251 -0.08052951 -0.26545078 0.14828496 0.60551995 0.24781854 0.51256067 -0.018147908 0.13604368 -0.08374908 0.30478093 -0.6106704 -0.06629494 -0.060961936 0.30183333 0.040609002 -0.13997735 0.1362353 0.826068 -0.4051982 -0.31258756 -0.037521776 0.12658821 -0.2453677 -0.52509695 -0.4989496 -0.12102963 -0.35205117 -0.19175185 0.1804733 0.026988905 0.14365527 -0.0109678535 -0.49296653 0.17870153 -0.0571385 0.16832648 0.9602335 -0.29423583 0.015823908 0.10976709 0.32455254 -0.32414487 0.10762638 -0.6119225 -0.6203551 -0.06663967 -0.076991506 0.5830096 -0.3775011 -0.09578189 0.0066652936 -0.16567707 0.6114854 -0.34455 -0.04519895 -0.4898993 0.40391588 0.13330816 -0.28068122 0.1521737 -0.4610645 0.1502124 0.42014962 -0.078531146 -0.07599407 -0.19277121 -0.16465203 -0.17370209 0.18033104 0.2302707 -0.17323963 0.47723883 0.039290287 0.36185932 0.30424735 -0.26439968 -0.11937454 0.22826284 0.21016875 -0.77223295 -0.119418286 -0.3550867 -0.16038027 -0.024272026 0.42494985 0.6505122 -0.57710135 0.36209667 0.013149021 -0.13393351 0.35959145 0.43622693 -0.1938642 -0.093624026 -0.7738364 -0.014797945 -0.15491366 0.53377783 0.12001417 -0.66582596 -0.21481165 -0.12091427 0.4819604 0.14425984 -0.021226035 0.04268818 0.23678283 0.5998814 -0.08076393 0.36013794 -0.5109698 0.1222625 0.04361845 -0.76706034 -0.16034071 0.08309675 -0.09842344 0.1379656 0.36390883 -1.0591923 -0.1158947 0.050060928 -0.07697908 -0.13746129 -0.02314855 -0.1318907 -0.42404288 0.63732487
11244 -0.11370408 -0.4681716 0.33734408 0.03431585 0.19774382 -0.009829358 0.15129507 0.39326236 0.11233683 -0.22928002 -0.67167795 -0.13255925 0.012346346 0.22387867 0.50184906 -0.36733323 0.16619024 0.16013736 -0.4505692 0.13568829 0.27114192 0.62106663 -0.46681318 0.1963385 -0.09655912 0.3556221 0.07991008 -0.60371226 0.67675644 -0.14501373 0.08847719 0.19725813 0.021192731 0.6432219 -0.36830917 0.22003795 -0.12965384 -0.08127351 -0.34013614 -0.35787454 -0.028219657 -0.31680247 -0.39243087 -0.32686037 -0.21548009 -0.14063431 0.14188495 0.011268563 0.15972729 -0.04437256 0.056675438 -0.25262558 0.6224243 -0.10414986 0.06841904 0.06800495 0.35511577 -0.48426923 0.47028372 -0.26591754 0.26795736 -0.10944525 0.28582656 -0.11161448 -0.5020249 -0.51056796 0.23907708 -0.17950922 -0.061916452 0.64458376 -0.485636 0.3429825 -0.019973012 0.5674229 -0.0022722578 0.035803042 0.10259053 0.030312706 -0.5046815 -0.31549492 0.028422143 -0.9953138 -0.16330631 0.08857984 0.7345314 -0.027555173 -0.6134401 0.13944231 0.49334955 0.15671958 -0.22909391 -0.0781353 0.046759643 -0.4464039 -0.5221351 -0.047288567 -0.41311413 1.0926005 -0.25820386 0.3527848 -0.024555638 -0.087622434 0.12874031 -0.21664189 0.3709388 0.24943541 -0.6410066 0.7385838 0.20342617 0.18423913 0.18328236 0.45041665 -0.2242572 -0.71793747 -0.03052216 -0.1305527 -0.591823 -0.22685659 0.20770705 -0.27907392 -0.09774127 0.51452994 -0.17030044 -0.52905476 -0.048559524 -0.81730556 0.39465538 0.33432308
22316 0.39350092 -0.1589348 0.17756616 0.26155177 0.26969692 0.22844762 0.005503622 0.016359199 -0.22826435 0.43477422 -0.3003228 -0.25992435 -0.6956452 0.57600015 0.3734295 0.27551728 -0.14638714 0.76838905 -0.016279206 -0.15706092 0.3395297 0.6390354 0.1409366 -0.3188642 -0.107102305 0.29380262 -0.32507527 -0.14825514 0.11967403 -0.056702927 0.21220565 -0.07771476 -0.062094517 0.38699305 -0.39832416 0.40443897 0.8015759 -0.23509239 -0.08550584 0.2615802 0.43069273 -0.7329828 -0.046029083 -0.49385563 -0.7589243 0.38939828 -0.360219 0.22359857 -0.2645393 -0.4202792 0.21775986 0.3224255 0.6246719 -0.535487 -0.07296937 -0.029704928 0.05811329 -0.32172945 0.26643932 -0.3437003 0.1223425 0.09498763 0.20327678 0.30054757 0.18287642 -0.49332315 0.44645852 -0.1958043 0.18237044 -0.145148 -0.19395351 0.26543188 0.29428092 0.015575358 -0.04231021 -0.09315352 -0.365622 -0.15229766 0.10058894 0.14696164 0.15525152 -0.19630234 -0.049097124 0.37046456 0.5823234 -0.11004762 -0.12972547 0.3549265 0.47079057 -0.17406882 0.14760564 -0.25201604 -0.11734232 -0.038880784 0.024660498 0.45832607 -0.2016533 0.2882518 0.26889783 -0.02554907 0.11596398 0.63759065 0.17055081 -0.14721444 0.37459475 0.22111832 0.18367346 0.6337998 -0.14040333 0.19206972 -0.41163272 0.2595191 -0.46599624 -0.3620435 0.23941107 0.44763094 -0.765158 0.4392304 0.07768972 -0.588775 0.14176108 0.26961046 -0.24063414 0.036611397 -0.03204824 -0.066770725 0.27211106 0.4329638
4372 -0.7500026 -0.37978598 -0.05497444 0.28703037 0.41714776 0.39043415 0.41005573 -0.72256255 -0.24850602 -0.12627654 -0.3834356 -0.16841835 -0.5078543 -0.28425047 0.18893132 -0.22023402 -0.348019 0.015785523 -0.58563316 0.0635659 -0.101671934 0.09480511 -0.37855148 0.7962198 -0.8424963 0.40557432 -0.65681314 -0.8343919 0.08953905 0.22896188 0.059368283 -0.44084135 0.12663144 -0.5145958 -0.24208947 -0.28000402 0.118563004 -0.3780391 -0.30123454 0.10422946 0.8712972 -0.37685892 0.03523219 -0.14665094 -0.26194796 -0.2820831 -0.18536088 0.22871159 1.0354601 -0.3163052 0.2282563 -0.07637925 0.9298198 -0.17746696 0.02476513 -0.50291735 0.38821802 -0.76724875 0.3781835 0.31981865 -0.5273713 0.13728502 0.39276168 0.7876848 -0.42426044 -0.3694216 0.037092958 -0.25436005 0.28560075 0.3107178 0.22754455 0.098293535 0.207114 0.05363647 0.012919259 -0.026635574 0.11422671 0.02232873 -0.27319738 -0.6927562 -0.3292859 0.13447389 -0.9374744 0.14070202 -0.4175676 0.23907372 -0.502157 0.019183889 0.3474437 0.09577974 -0.11542184 0.65090317 0.47521132 -0.4430506 -0.38917655 -0.02689338 -0.18356644 0.5221325 0.23130804 -0.7313736 -0.012970211 -0.10954964 -0.021829346 0.40607345 -0.3484943 0.3472092 -0.11695051 -0.05322484 -0.07118741 0.3405546 0.226284 0.30604744 0.1625342 -0.2434444 0.018584378 -0.64771545 0.25719377 0.033118725 0.4719021 -0.47040763 -0.2699847 -0.03258623 -0.30986696 -0.39835426 -0.46165532 -0.65639657 0.04101463 0.36207178
8327 -0.22587389 -0.64261836 0.10611203 0.586911 0.3862996 0.48521668 -0.016462287 -0.1290088 -0.1510191 -0.080754206 -0.6851406 -0.20954518 -0.016237874 -0.01686843 0.1763757 -0.74085057 -0.083094485 0.29527825 -0.32198742 -0.06761366 -0.4335923 -0.088463575 -0.10635792 0.43699113 -1.1652409 -0.600498 -0.3367393 -1.1517522 -0.0526493 0.20992066 0.34570023 -0.2729088 -0.4026287 0.12813652 -0.035398886 -0.388569 0.35088363 -0.19664635 0.45779908 0.04337731 0.16544515 -0.21633853 -0.11315477 -0.41698775 -0.073713705 -0.45949844 0.10432473 0.4608878 0.25497428 0.031338207 0.00845453 -0.38612494 0.29295444 -0.24521971 -0.12315082 -0.5269629 0.119406395 -0.16828945 -0.228428 -0.15276615 0.0052016256 0.36422074 0.5070381 0.04744606 -0.26874697 -0.2100541 -0.4018373 -0.7878619 0.47155523 1.0042535 -0.2355 0.029532166 0.18687896 0.43876764 0.09006889 -0.33431798 0.12859227 0.109272234 0.6934379 -0.10071111 0.3659888 -0.23033379 0.03791882 -0.31059805 0.30834568 0.20195122 -0.5311303 0.2481889 -0.5160866 -0.55299324 -0.0068610334 0.07018578 -0.098997645 -0.12925124 -0.08074452 -0.06701209 -0.11373524 0.7171495 0.2289867 -0.35454693 -0.47774246 0.2665913 -0.032665834 -0.1686705 -0.11120774 0.8665906 -0.3261643 0.589077 -0.4527228 -0.12438754 -0.39437366 0.23536779 0.50680393 -0.5387767 0.4249418 -0.5555198 0.42112464 0.033797693 0.21614781 -1.2887764 0.10317671 0.044695705 -0.46580622 -0.21917275 -0.29637077 -0.36486334 0.28756803 0.688492
20617 -0.12773663 -0.43903282 0.35411552 0.21960539 0.48571965 0.47738376 -0.008344746 0.2756474 -0.25417778 0.2229114 -0.503442 -0.040116046 -0.12903051 0.16160205 0.3025801 -0.31492755 -0.12581106 0.38708296 -0.3483885 -0.06740508 0.14067449 0.46533233 -0.12875427 0.4016793 -0.5432965 0.3355097 -0.12965474 -0.61505055 0.23966236 -0.042761736 -0.03178628 0.06312677 -0.06928384 -0.15805179 -0.37153193 -0.05137236 0.42625087 -0.20306408 0.09087456 0.30806047 0.64903665 -0.118978426 -0.3408985 -0.55772495 -0.48691598 -0.055299126 -0.09108197 0.22910823 0.2342426 -0.3659244 0.26972082 -0.0672789 0.50638354 -0.2826518 0.19004284 -0.18762645 0.09039824 -0.6813432 0.33345264 0.09310158 0.050123457 0.341599 0.33841452 0.46663666 -0.20627828 -0.6018822 0.11076386 -0.38275176 0.16481046 0.3771851 -0.111050054 0.008303071 0.367182 -0.010523271 0.08803977 -0.18714929 0.13504098 0.12643223 -0.014686806 -0.20669366 0.1674277 -0.5109708 -0.39526916 -0.19172996 0.3742306 0.11954655 -0.65202105 0.47190347 0.20899999 -0.21259102 -0.14058354 0.39510986 0.19416387 -0.32228717 -0.1848913 0.042785183 -0.1884491 0.5335298 -0.0054829875 -0.038112797 -0.2397207 0.38315913 0.24847513 0.112287596 0.22535573 0.48982453 -0.13508867 0.45517072 -0.29037392 0.38500142 -0.28598586 0.35747617 -0.076214686 -0.67971045 0.104763225 -0.013745669 -0.32776463 0.06139015 0.25546673 -0.67667407 0.015515467 0.07653855 -0.4568692 -0.26877052 -0.31799513 -0.41951326 0.31000972 0.4068179
2644 -0.045495626 -0.3904069 0.48012054 0.81292284 0.38752294 0.07706636 -0.103268705 0.0483567 -0.29946613 -0.14033286 0.109501846 0.22268128 -0.26011816 0.15238264 -0.047587935 -0.077312015 -0.22347337 0.67805904 0.17206219 -0.6137978 0.41142607 0.58492905 0.02820451 0.5527985 -0.8240127 -0.112749964 -0.64033926 -0.7511465 0.3141871 -0.06570959 -0.14100823 0.33853763 -0.095328934 0.16394193 0.0872153 -0.18244475 0.44581762 -0.16837852 0.25714475 0.665776 1.0726141 -0.14187509 0.13354845 -0.33030403 -0.5602408 -0.12502529 -0.013762976 0.4975936 0.10907335 -0.80277675 0.43268904 -0.056226976 -0.11765525 -0.664063 0.13138562 -0.4878582 0.005343245 -0.08790585 -0.15162745 0.005345355 -0.24146526 0.26257426 0.4140271 0.21378039 0.5583102 -0.4754313 0.6453532 -0.45653734 0.45295894 0.76205003 0.087487966 0.102112435 -0.22310096 -0.877003 -0.576872 -0.088299885 0.090815336 -0.37315512 0.120712176 -0.109873526 0.33040565 -0.6366009 0.018141422 0.121072344 0.37926066 0.054058045 -0.8146896 0.36975557 -0.32581005 -0.34633073 0.448841 0.4951721 0.31220183 -0.38828585 0.1483783 -0.37446633 0.10428051 0.52374005 0.22629482 -0.29092428 0.0017174456 0.2567164 0.45128462 0.018360348 0.19304758 0.6133036 -0.05948356 0.7630569 -0.19703364 0.28531185 -0.4195465 0.57718337 0.2694248 -0.25516006 0.23316583 0.042521283 -0.44744638 -0.00016827276 -0.029177846 -0.9459441 -0.025857743 0.38407406 -0.18716455 0.14026265 0.40177906 -0.342745 0.5231496 0.59416837
13272 -0.10720134 0.008888491 0.17544514 -0.5705681 0.53143597 0.19775651 -0.027770218 0.43930814 -0.5200461 1.1127238 -0.033709235 -0.014643448 -0.3496096 0.0011042376 0.0094593745 -0.6169788 0.03234172 0.4782816 -0.5201108 -0.40583625 0.07709403 0.5201605 0.018063385 0.106006965 0.16134503 0.43040746 -0.45241672 -0.1465886 0.21795352 -0.14860453 -0.123516254 -0.046016447 -0.6686851 -0.972215 -0.06440761 0.007004948 0.3936643 -0.3957744 0.29554513 0.17797744 0.15726897 0.0017142834 -0.48847723 -0.8092708 -0.49737546 0.054341942 -0.450724 0.042520247 -0.32973558 0.043821216 0.324109 0.3242887 0.41775376 -0.21241657 0.6967135 0.26674712 0.020222703 -0.37415603 0.5333476 0.3610251 -0.047837153 0.08985879 -0.016745849 0.6777347 0.0074775512 -0.6629693 -0.1197655 -0.56467074 0.2194314 -0.08939755 0.13137673 0.28480783 0.7784228 0.1144974 0.21586287 -0.7689766 -0.062335245 0.42068866 -0.16743086 0.12281375 0.25167474 0.0006522008 -0.079570726 -0.2794964 0.3608235 0.22250526 -0.07494624 0.19866861 0.113684855 0.12488536 -0.24838343 0.3732118 -0.027917491 0.052437615 -0.07466679 -0.13929056 -0.23021798 0.57633984 -0.64117 0.076361544 -0.27034128 0.26258257 0.349253 0.1820606 -0.031958036 0.1449556 -0.33612528 0.21086517 -0.7635822 0.58875173 -0.10477614 0.29638445 -0.5757374 -0.60155624 0.08805982 0.15856479 0.0904409 0.5290517 0.3259388 -0.21848178 -0.09580533 -0.27875632 -0.63084453 -0.4842211 -0.37983164 -0.8139824 -0.009414938 0.03667537
22015 -0.7142887 -0.3030008 0.23178133 0.37312612 0.8430716 0.5664799 0.09567543 0.17630024 -0.030592408 -0.26466382 -0.11197862 0.053428486 0.060660645 -0.26459858 0.5489268 -0.27341717 -0.17608054 0.38413835 -0.1727519 -0.24076153 0.038605776 0.20733723 -0.0051232334 0.4492566 -0.6958816 0.21694885 0.32043537 -0.84680307 0.32748568 -0.107824005 -0.2042756 -0.014260179 0.16470887 -0.1675897 -0.05978912 0.12027742 0.26740962 0.29729882 0.3208673 0.19297317 0.38660845 0.11460603 0.06058546 -0.19239949 -0.16602677 -0.17084031 -0.099639475 0.020258542 0.029798152 -0.48877615 -0.002052107 -0.24724361 0.20108117 -0.14827985 0.49915752 -0.26808128 0.15809746 -0.07388273 0.2614419 0.018840028 0.102417134 0.23463057 0.24244802 0.31182683 0.4400863 -0.06378087 0.064149976 0.0041966266 -0.05352847 0.54136205 0.46742687 -0.2583584 -0.048852183 -0.4002556 -0.076433256 -0.548555 -0.06647342 -0.19680914 0.1547614 -0.5915919 0.06535664 -0.17368405 -0.45546088 0.005665839 0.053761683 0.53405905 -0.29868776 0.43422142 0.15109688 0.069476224 0.19432828 0.39509392 0.5812136 -0.34895214 -0.1095656 -0.8430015 -0.38192642 0.46015084 -0.101563975 -0.18658112 -0.4198751 0.4271895 0.13194236 -0.2994089 0.3075839 1.2742614 -0.5543955 0.19630648 -0.48155132 -0.28516 0.089168 0.43535912 0.15582708 -0.39400437 0.6569044 -0.20280361 -0.05098961 -0.07404351 -0.05995152 -0.6362319 0.20397373 -0.00025051218 -0.025732279 -0.07517611 -0.29052356 -0.1623271 0.5824114 0.5905616
