1028 128
18906 -0.087014385 -0.02347812 0.25503483 -0.23625714 0.2781714 -0.17689843 0.16051835 0.48423463 -0.21960992 0.94360626 -0.20404351 -0.26768497 -0.37122032 0.24965245 0.32508183 -0.38312924 0.1084746 0.28249687 -0.43530944 -0.09505883 0.19857645 0.73466927 0.32834312 -0.076891854 0.04563149 0.56901044 -0.28725934 0.1075336 0.19360292 0.042069487 -0.018199924 -0.12568654 -0.42461577 -0.23312974 -0.6036919 0.037805613 0.7972718 0.060415726 0.5533029 0.2883267 0.07069356 -0.14763804 -0.51641065 -0.6434705 -0.46348497 0.14652005 -0.4669669 0.34686327 -0.029733228 -0.17519838 0.16882578 0.1719309 0.5281015 0.021893367 0.6352504 -0.079271995 0.28539413 -0.6376984 0.5843495 0.13589115 0.3292017 0.1510057 -0.014207139 0.3767578 0.04106485 -0.80567193 -0.10468594 -0.32064906 0.21428268 -0.17503238 0.020406205 0.5032886 0.5377314 -0.083013706 0.1587043 -0.24517626 0.19521843 0.20421755 -0.2272257 -0.0046365275 0.49077898 -0.39277446 -0.10112559 0.027302068 0.57745504 0.036329202 -0.34987262 0.13871154 0.6528591 0.3348615 -0.369872 0.16589147 -0.18410799 0.025836129 -0.091447346 0.04170835 -0.48202425 0.45015356 -0.11967895 0.22433992 -0.1784625 0.40190658 0.06241348 0.15641835 0.19179235 0.28808048 -0.11271183 0.14924888 -0.34652203 0.28004333 -0.42122275 0.2982331 -0.675182 -0.33305934 0.29006228 0.35061404 -0.24494267 0.18017241 -0.04827141 -0.1142945 0.02824895 -0.24476357 -0.2555986 -0.49135524 -0.35468337 -0.70275795 0.039730933 0.09827139
19757 -0.14606597 -0.03658157 0.4020361 -0.1831788 0.23968536 0.121401906 0.026955595 0.3860924 -0.14982486 1.1267956 -0.53770036 -0.14873077 -0.5758379 0.36970183 0.371089 -0.48654795 0.15459807 0.39526844 -0.54439706 0.20696382 0.050232038 0.7072749 0.2595933 -0.12886648 -0.21677066 0.39972034 -0.19638199 -0.17640164 0.110808216 0.14847672 -0.09560468 0.08742479 -0.6224082 -0.29092374 -0.6568919 -0.12630256 0.7322515 -0.19613144 0.52907556 0.4139689 0.023005713 -0.09076506 -0.4558711 -0.30176315 -0.61973804 0.25688246 -0.573276 0.34149396 0.06308783 -0.14128119 0.3055423 0.38008118 0.6077075 0.08004094 0.37521487 -0.114939526 0.17603277 -0.6519261 0.61690956 0.26385924 0.2276539 0.118804514 0.14304522 0.4419202 0.18354785 -0.83821756 -0.10053507 -0.22642225 0.17488189 -0.09782999 -0.115903 0.7916078 0.35603094 -0.114233576 0.10729572 -0.2583499 -0.36639693 0.17848678 -0.21122195 0.10389792 0.35041368 -0.23214196 -0.19726913 0.21285619 0.5964451 0.10131885 -0.26116616 0.35263473 0.6284875 0.16164503 -0.05881098 0.23277213 -0.083837904 0.017042818 -0.25913906 -0.11502984 -0.49289402 0.07100275 -0.20515707 0.10714492 0.0077294996 0.32834312 -0.036965564 -0.0025282868 0.2720697 0.38973883 0.08682355 0.08075554 -0.06453921 0.2979027 -0.23659806 0.19442414 -0.5444677 -0.4253797 0.08699031 0.39753374 -0.18867688 0.15881082 0.11954227 -0.14221512 0.27333513 -0.0034227197 -0.26439917 -0.110095106 -0.6266156 -0.68718463 0.008524549 0.1645192
14181 0.3192153 -0.07679651 0.012856876 -0.10262224 0.2206803 0.057729993 0.025827194 0.28520626 -0.2257126 0.6663211 -0.53470457 -0.1238444 -0.24084294 0.60061383 0.3361901 -0.008195699 -0.14158331 0.48532227 -0.4578051 -0.0040852795 0.54788357 0.539495 0.18338947 0.29056656 -0.13495742 0.12654273 -0.5053106 -0.7156514 0.15301369 -0.2750035 0.14755681 -0.26688573 -0.22199039 0.28164774 -0.4365383 0.2876346 0.25127843 -0.32980603 -0.011155254 0.090583995 0.15567516 -0.48314926 -0.25558493 -0.4944011 -0.7115389 0.30742252 -0.31651565 0.08251644 0.11520844 -0.21138151 0.2496154 0.40520188 0.534257 -0.45221213 0.32958624 0.29420963 0.20688292 -0.58263046 0.69210255 -0.0643227 0.5712739 0.26265067 -0.14013122 0.55182344 -0.19773096 -0.43555933 0.325181 -0.05871192 0.05280587 0.041620232 -0.30621654 0.442963 0.4767809 0.20375009 0.19987327 -0.11098712 -0.2535662 0.07988765 -0.11998007 0.5068691 0.44800228 -0.2731415 -0.22967274 0.11758509 0.36719546 -0.3156741 -0.4879731 0.38778055 0.47088486 -0.2412831 -0.22863959 -0.1541993 0.22712038 -0.3441235 0.23237133 0.34442145 -0.51702505 0.01161644 -0.28880873 0.45416126 0.120028615 0.5522016 0.1970587 -0.13251889 0.38990742 -0.20959459 -0.10799685 0.6181896 -0.26918066 0.45772558 -0.26661 0.3565054 -0.45580482 -0.53137946 0.37893578 0.29364926 -0.35047802 0.45396674 0.34848478 -0.264195 0.0670436 0.065707676 -0.57007545 -0.027397254 -0.5115428 -0.048398323 0.15751138 0.120171785
7362 0.31141227 -0.40731916 0.7582951 0.76899666 0.58585113 -0.05756518 -0.44390243 -0.068065256 -0.24727641 0.23644337 -0.022741098 -0.08289375 -0.4515648 0.015185906 -0.19242784 -0.020517128 -0.08482823 0.72726685 0.24580903 -0.5933586 0.30943945 0.65171087 0.34909675 0.15084407 -0.48419112 0.085270554 -0.63175076 -0.8070587 -0.038684193 -0.075020924 0.07484616 0.15055342 -0.22382262 0.68333244 -0.08798869 -0.015959244 0.6504851 -0.350001 0.38496882 0.7304564 0.4499487 -0.5387869 -0.066666074 -0.56842643 -0.85240775 -0.29890501 0.06439816 0.31906125 -0.25806987 -0.66292185 0.4665836 -0.3273688 -0.20163076 -0.7624189 -0.27365443 -0.11881345 -0.22210515 -0.26203606 -0.13789697 -0.133751 0.17900251 0.0038611018 0.34441057 0.023038534 0.51329833 -0.45588818 0.52176535 -0.52852416 0.5203255 0.44127062 -0.16526984 0.028220577 -0.06550529 -0.56442297 -0.59418035 -0.27548343 -0.19102806 -0.60959035 0.248967 0.29959542 0.49502227 -0.59086543 0.29056004 0.3162618 0.44714025 -0.003051652 -0.6661541 0.031030267 -0.29777256 -0.35211533 0.2198568 0.03125172 -0.15759161 -0.1708662 0.13946655 0.007628411 -0.11839238 0.1970224 0.12140718 0.0039374437 0.025946014 0.6142209 0.21909565 -0.40539563 0.29393482 0.53400666 0.018028999 0.8568766 0.18781339 0.07849268 -0.5518664 0.44063637 0.23119713 -0.39923483 0.50700015 0.17073797 -0.8148697 0.21827789 0.02154041 -1.0631891 0.17503116 0.3717055 -0.24810705 0.18471761 0.20932043 -0.13779716 0.33429566 0.65248615
6940 -0.028564222 -0.5185405 0.5487991 -0.15652707 0.39996663 0.46534207 0.10683294 -0.057686772 -0.7092793 0.02047688 0.21858361 0.06485568 -0.24007009 0.026994506 0.43314475 -0.8328952 0.07997182 0.39668098 -0.098789915 -0.22371385 0.13222581 0.4102238 0.10965499 0.42212853 0.007624435 0.26877207 0.812644 -0.6162366 0.07960112 0.10642848 0.14966479 0.32363755 0.12750174 0.045466557 -0.2992097 -0.08770068 0.42445943 -0.47635987 -0.009860633 0.18438038 0.87168515 0.48371205 -0.48574823 -0.5375587 0.029720042 -0.23389465 -0.7655424 0.44544652 0.52695054 -0.4279133 0.27199832 -0.39205122 0.18664072 -0.10979686 0.1478868 -0.21628253 -0.0992531 -0.63005894 0.43619663 0.1423751 -0.004077785 0.69961506 0.3212602 0.52353 -0.13851553 -0.59879565 0.20694721 -0.27181897 0.7126758 -0.0018365899 -0.58729255 -0.42244968 0.41814673 -0.83252156 -0.24991098 -0.28643125 0.409342 -0.06378157 0.10251393 0.15976991 -0.17193583 -0.5259356 0.13465178 -0.070827946 0.2786217 -0.09647698 0.08477314 0.6415429 0.32484645 -0.23521297 0.11093262 0.21175444 0.5240408 -0.1427394 0.0525285 0.585346 -0.21484296 0.45926756 0.28315067 -0.09626164 0.3286479 0.53611445 -0.07400774 0.14916998 1.0432347 0.8619902 -0.32825747 -0.060749166 -0.19189353 0.15890414 0.05177803 0.48552352 -0.039633963 -0.29317072 0.17780262 0.14870054 0.0444182 -0.1094899 0.045242526 0.12574747 -0.18609299 0.04698367 -0.44396046 0.057497084 0.04975473 -0.3951529 0.40210548 0.2716461
9138 0.23536423 -0.4394214 0.47569844 -0.08949754 0.48111877 0.85804653 -0.38345462 0.0051522795 -0.14085351 -0.27281582 -0.35810608 -0.36567262 -0.09440349 0.0629186 0.03711535 -0.3639063 -0.073104285 -0.41894174 -0.6602915 -0.09442023 0.03735021 0.35440606 0.15411654 -0.16880143 -0.75461864 0.20313805 0.048842665 -0.7217112 -0.2789651 -0.00053853035 0.06406211 0.2844956 0.10247093 -0.006748968 -0.08048797 -0.38549483 0.16689819 -0.07046654 0.20385112 0.43578035 1.0373659 -0.17862211 -0.4164566 -0.061017815 -0.7970825 -0.24347909 0.24060391 0.10191776 0.28148824 -0.07522903 0.36812878 -0.4806636 -0.05024587 0.025130272 0.15945435 -0.52738315 0.100190446 -1.5109682 0.33265904 0.10640076 0.15418433 -0.24623026 0.5452089 0.555397 -0.042165287 -0.7431682 -0.043816473 -0.050404813 0.002921128 0.4390682 -0.00863809 -0.23898397 0.38247994 0.025711035 0.20323183 -0.002469671 0.26606423 -0.3258247 -0.36699027 -0.13853973 0.016905041 -0.26463073 -0.24728718 -0.6361356 -0.03574414 0.1718727 -0.39506114 0.2643002 -0.034649298 -0.348697 -0.26738805 0.47804955 0.045342922 -0.19327867 0.05478871 -0.1182195 -0.37812367 0.9303735 -0.40717512 -0.0756691 0.096278965 0.021840721 0.22056748 0.2006507 0.5227172 -0.07275169 0.18728377 0.26520985 0.26277176 0.07448919 -0.4375984 0.43998802 0.27751186 -0.12655422 -0.080702744 0.46467572 -0.490989 0.22838244 0.530333 -0.23473124 0.047562998 0.3293045 -0.14183095 0.20650402 -0.17495923 -0.17056195 0.27523294 0.33885935
10783 -0.26076132 -0.405906 0.6377679 0.24183998 0.44162598 0.30115488 -0.29198226 -0.32264397 0.19331832 -0.3945246 -0.31064278 0.16792598 -0.42115417 0.45607856 0.035718713 0.05865664 -0.051572762 0.49573147 0.49155548 -0.020695794 0.22444366 0.25852522 0.34262386 0.10934801 -0.25866836 0.27778465 -0.3305534 -0.33757842 0.17892954 0.19516754 0.13107751 0.25556174 0.08611262 0.37109113 -0.099360354 0.0156236 0.49187976 0.23361526 0.5577853 0.19176942 0.4218905 -0.2528888 -0.10382743 -0.6066276 -0.47976717 -0.2582214 0.5054909 0.20138213 0.26021376 -0.5227667 0.032816615 -0.13201798 -0.4084285 -0.51806563 -0.04752208 -0.63530505 -0.030068405 -0.15543912 0.02658057 -0.11970431 0.2952 0.0016740654 0.26119667 -0.17652372 0.14347392 -0.08677638 0.44642195 -0.39008608 0.19248976 0.17511128 -0.45963252 -0.1818577 0.17643401 -0.44176063 0.11150132 -0.5815451 0.011063574 -0.15760653 0.21179064 0.23530617 0.33933613 -0.56393695 0.06975955 0.057528555 0.32850024 -0.07503661 -0.48679045 0.10899454 -0.03553847 -0.083062254 -0.15665396 -0.10777094 -0.08003853 -0.69152707 0.25205728 -0.41102153 -0.12208907 0.5507893 -0.23950107 0.024899267 -0.22826348 1.2012721 0.44285914 -0.6026357 0.6118779 0.8676864 -0.45347026 0.8437315 0.15084614 0.31906694 -0.53010875 0.54186445 0.16851354 -1.0120714 0.37544197 0.015873179 -0.657235 0.16362262 -0.24026765 -0.8480255 0.3233834 0.28456017 -0.14703281 -0.1981573 -0.07177551 0.0072512855 0.9111712 0.66431135
12837 -0.0006508353 -0.3594823 0.8031751 0.27645054 0.07023645 0.19097315 -0.44262382 0.6326197 0.1719984 -0.40393248 -0.5633716 0.036577124 0.056617305 -0.09672642 0.015037874 -0.43499827 0.12975648 0.43235332 0.1955887 0.012191378 0.23598817 -0.2653772 -0.035359368 -0.25460565 -0.68285334 0.42849216 0.056463167 -0.22954732 0.1266768 0.26543775 -0.17261419 0.20343494 0.35024664 -0.2901977 0.21778394 -0.10458194 0.39157364 0.2732793 -0.09558294 0.69416183 1.0052248 0.20583856 -0.08718393 -0.2903785 -0.07528714 -0.20128007 0.43889552 0.06268196 0.6302939 -0.53187376 0.011767899 -0.25239885 0.0035436356 -0.124031276 0.16298816 -0.24537684 -0.04439142 -0.16456382 -0.007100933 -0.34281528 -0.71646166 0.20943151 0.39843896 0.20766671 -0.20198007 0.05626976 0.59180003 -0.45072863 0.43440977 0.6147126 -0.17680158 -0.4903528 0.35159045 -0.17623258 -0.061888076 0.079403356 0.22262281 -0.020154309 0.26409453 -0.78955317 0.10662086 -1.1711392 -0.27443445 -0.24276179 0.15976481 0.29790035 -0.40302 0.6790318 -0.28877443 -0.23432736 -0.09666831 0.8789253 0.15607184 0.10522915 -0.6780743 0.23000488 0.13812669 0.8805449 1.008772 -0.7245529 -0.6170282 -0.13820095 0.45959127 0.49800903 0.088617034 0.53864586 0.17695494 0.41059545 -0.18480076 0.40724257 -0.45031488 0.5344347 0.3559881 -0.67225593 -0.20339689 -0.25093934 0.061685167 -0.3713432 0.15751877 -0.7674458 -0.09865905 0.48985356 0.075625 -0.6544866 0.2149659 -0.12286662 0.6505371 0.73566395
7822 -0.22860907 -0.26298454 -0.20604366 0.3858657 0.16644 0.8375579 -0.42857486 0.17823595 0.17822033 -0.08178793 -0.46999773 0.099662684 0.702279 0.3372133 0.4144887 -0.04456331 -0.32107547 0.37289652 0.23202448 -0.2818253 -0.49849045 -0.12146847 -0.17574158 0.9866683 -0.47452262 0.50511545 0.121978864 -0.93790495 0.06443273 -0.066079624 -0.18799017 -0.1947326 -0.48905268 -0.18630432 0.25498718 -0.16432391 0.09513048 -0.2764073 0.65141624 -0.050805602 0.6707986 0.08713896 -0.40581417 -0.52814156 -0.45870477 -0.044755563 0.5887313 0.31858 -0.006478332 -0.26701108 0.51214844 -0.28328064 0.24344456 -0.9466616 0.06257696 -0.2855429 0.35079256 -0.35801318 -0.06681246 -0.1506445 -0.293348 0.52724093 0.1424899 0.6091543 -0.24801342 -0.47727484 -0.020784808 -0.7854216 -0.17143683 0.012527701 -0.15395592 0.008407405 0.4990684 -0.06147462 0.1799642 0.3067066 0.65741694 0.3448056 -0.13502826 -0.7001705 0.34009036 -0.25775716 -0.045989033 -0.41248626 -0.0668513 0.36843452 -0.624368 0.08643632 -0.48991203 -0.3492224 -0.0119102495 0.28374186 0.1364429 -0.34852368 0.071860895 -0.34555602 -0.5185043 0.34781313 0.20883442 -0.4886034 -0.5383685 0.12510927 0.43101832 0.798458 0.08300008 -0.11630048 0.27031764 0.27057642 -0.91107917 0.09306463 -0.64175045 0.43205133 -0.032631326 -0.34742507 0.07878856 0.15524165 -0.09145651 -0.4026623 0.016456868 -0.4673591 0.03720986 -0.1294101 -0.022520194 0.1572772 -0.2361203 -0.1801486 0.2769882 -0.06800023
8351 -0.13212705 -0.23733488 -0.27550218 0.43068212 0.177698 0.8942777 -0.45068204 0.43694785 0.04461287 -0.083383895 -0.53314805 0.161274 0.6903089 0.38147604 0.3180838 0.102217205 -0.45382625 0.43177053 -0.1647667 -0.26167187 -0.41964203 0.03884694 -0.121410154 0.9501252 -0.4397595 0.42849424 0.030456614 -0.8542178 0.13184065 -0.24756114 -0.3529238 -0.17001808 -0.41038004 -0.18581729 0.05771057 0.119091906 0.07821558 -0.2546057 0.38813615 -0.05111149 0.5766309 -0.04234566 -0.3969707 -0.54519683 -0.61270124 0.0010625743 0.29253837 0.05658049 -8.353815e-05 -0.44021645 0.39378464 -0.097357035 0.46168083 -0.8305255 0.21056795 -0.059449874 0.33829328 -0.12759218 0.022344656 -0.1821212 -0.43600535 0.47204375 0.1201177 0.75556654 -0.3486519 -0.48268405 0.033927623 -0.6608773 -0.15009876 0.13729712 0.1417258 0.19742459 0.50829065 0.14753884 0.2103031 0.543485 0.54836917 0.25479937 -0.12314026 -0.5840132 0.34491187 -0.20598851 -0.26909432 -0.5163058 -0.16554628 0.2847012 -0.81007004 0.15490602 -0.34687868 -0.46108449 -0.105223246 0.23510204 0.29819715 -0.30067307 0.04547424 -0.08293039 -0.54089284 0.25708842 0.21881533 -0.57996106 -0.5016116 0.061431702 0.4592822 0.7535548 -0.07928025 -0.19251521 0.32829726 0.34289685 -0.839924 0.2147865 -0.6360912 0.40521166 -0.030725423 -0.17908876 0.08748521 0.05905771 -0.23719059 -0.2507247 0.2731696 -0.32785958 0.05524461 -0.0061046463 -0.15581025 0.10386598 -0.068636306 -0.31915095 0.018084953 -0.13659334
2323 -0.16759948 -0.46083707 0.1561868 0.4776164 0.3056543 0.5173854 0.11222657 -0.12660621 -0.26314783 -0.025711617 -0.4805162 -0.12149127 -0.15951766 0.1273037 0.20596431 -0.7195519 -0.0889514 0.5358421 -0.179492 -0.14543252 -0.40918243 -0.038565017 -0.13477051 0.002625736 -0.8344942 -0.6097203 -0.3553295 -0.73967165 -0.13041654 0.2767164 0.409744 -0.14942735 -0.43078277 0.2631303 -0.026873713 -0.14437431 0.6816437 -0.24250247 0.52602434 0.08027477 -0.05712707 -0.44602314 -0.13571855 -0.40820298 -0.26399556 -0.5110671 -0.014071725 0.68428993 0.078516126 0.026796453 -0.22771437 -0.14140503 0.24220228 -0.21615677 -0.13636859 -0.5493864 0.16285196 0.059631318 -0.44906664 -0.24099068 -0.14360449 0.14705253 0.5620134 -0.09064382 -0.12939695 -0.31020334 -0.36626714 -0.6865893 0.5960904 0.6090432 -0.4163637 0.29781765 0.08549593 0.4341557 0.15009439 -0.70636714 0.06748845 0.11295161 0.74506956 -0.025792401 0.24799179 -0.22223146 0.2147214 -0.21772909 0.45297334 0.23849402 -0.44749263 0.18085876 -0.185752 -0.39784607 0.16895151 0.043963686 -0.24342619 -0.19629548 -0.1548396 0.008909016 -0.29099944 0.86512583 0.23372857 -0.38423553 -0.3763913 0.35976252 -0.06604052 -0.25540304 -0.024978805 0.9543462 -0.31818843 0.61495686 -0.25565374 -0.09925938 -0.56029326 0.29886594 0.4115042 -0.75529504 0.47025186 -0.37884492 0.25700945 0.082068756 0.076228745 -1.3411523 0.107906565 0.18649232 -0.43810165 -0.10349215 -0.078663684 -0.45012677 0.27863443 0.8287585
15713 -0.2524217 -0.50998205 0.080585666 0.35236627 0.11622706 0.3947858 0.12227093 -0.1650247 -0.22728498 -0.22750758 -0.58951634 -0.25886658 -0.17721847 0.13900827 0.2885785 -0.772238 -0.2187743 0.4760107 -0.09043758 -0.09082573 -0.3116461 -0.052474763 -0.34640616 0.4804115 -1.0259153 -0.58695173 -0.4640612 -1.0620205 -0.07978305 0.41166747 0.30361012 -0.18747228 -0.29646295 0.112394035 -0.07479281 -0.22414891 0.31305888 -0.14729875 0.48734823 -0.11093278 0.05317985 -0.46171483 -0.07037723 -0.29630095 -0.051067088 -0.49467826 -0.041154955 0.49777648 0.32769382 -0.035398643 -0.097697824 -0.020021625 0.2923063 -0.30604786 -0.16786715 -0.48397508 0.11597783 0.07435856 -0.24688046 -0.40336686 0.08240186 0.16175199 0.58500266 0.03654816 -0.19808583 -0.27872047 -0.31984153 -0.7301623 0.62840056 0.815744 -0.36238408 0.24080047 0.053086616 0.59247756 0.040193424 -0.55325675 0.23158176 0.1696085 0.82282686 0.097793505 0.24015597 -0.21063228 0.14024727 -0.27159896 0.4309535 0.01768232 -0.43305117 0.21435043 -0.33942908 -0.4389451 0.09351284 -0.058255173 -0.1994789 -0.2271237 0.031026306 0.06592961 -0.27001348 0.98568517 0.39679113 -0.22708888 -0.38993263 0.50566196 -0.22374205 -0.22899537 -0.15532243 1.1677694 -0.36950415 0.527639 -0.5612503 -0.08405688 -0.39360464 0.35247943 0.32992133 -0.5009347 0.47487074 -0.55008054 0.2866796 0.098547034 0.1550413 -1.2902762 0.1108731 0.22482349 -0.68786794 -0.26318777 -0.12230536 -0.5363497 0.5004741 0.8520588
2112 -0.22188981 -0.7922774 -0.06562442 0.3669983 -0.03307175 0.350659 0.33386272 0.49841827 -0.043354947 -0.04245286 -0.7658564 -0.38961932 0.009452792 -0.14979774 0.36696175 -0.5902273 0.41983175 0.049868118 -0.2911538 -0.05006271 -0.051120523 0.7491536 -0.3480983 0.80140954 -0.8611035 0.16840093 -0.086375065 -0.1270111 0.27123907 0.27819306 -0.5878951 0.6667223 -0.16977598 -0.08342494 -0.52176255 -0.49243614 0.332396 -0.25839186 0.3021291 0.19398005 0.19626182 0.175661 -0.40842313 -0.1424535 -0.23623654 -0.82093275 -0.2309353 0.4316269 -0.055950586 -0.4156636 0.039112035 -0.7761797 0.6768092 -0.16912948 -0.13536222 -0.8697133 0.027970882 -0.49893853 0.38836804 0.08467697 -0.032060254 0.28322768 0.79318655 0.40301427 -0.18617812 -0.36592814 -0.22049159 -0.66888857 0.18009314 0.44178048 -0.1598479 0.31153107 -0.14699706 -0.08426391 0.18970174 0.32011488 0.060225464 0.25258094 -0.12105119 -0.48545685 -0.064945474 -0.86226875 -0.26270244 -0.55570287 0.47026676 0.36649904 -0.7155276 0.79906386 0.25774255 0.4091755 0.06662052 0.37356764 -0.28996125 0.32313266 -0.6495482 -0.43124247 -0.057893913 0.5663389 0.35879022 -0.42294142 0.39702132 -0.21324705 -0.28271854 -0.0014131346 -0.1611362 0.60422504 -0.28857833 0.030238824 -0.29432082 0.41425624 -0.12117067 -0.19591478 0.11969577 0.027871806 -0.4453465 -0.16111448 -0.24711655 -0.12503536 -0.068124615 -0.24938558 -0.16053082 -0.3309884 -0.6866673 0.25252157 0.0153834345 -0.6970848 0.3366932 0.35656178
3319 0.32841793 -0.48472327 0.49317536 0.046041436 0.52230734 0.9875548 -0.2300643 0.08944012 -0.22399426 -0.106669925 -0.34417298 -0.33899778 -0.10157189 0.05298943 0.12582017 -0.5061465 -0.088932164 -0.40247175 -0.57529217 -0.09725879 0.018048551 0.4820207 -0.019821746 -0.09692734 -0.6128295 0.08151104 0.03603905 -0.618519 -0.13629982 0.1869157 0.031333774 0.37475428 -0.02889867 0.082286276 -0.21595249 -0.38958055 0.41252223 0.14901356 0.31305477 0.5990838 0.98978466 -0.1390242 -0.23779207 -0.08764996 -0.99930745 -0.39815006 0.33334222 0.15523149 0.19017431 -0.07619832 0.41333005 -0.6425533 0.024116443 -0.014978806 0.34564006 -0.64252466 0.09580895 -1.6338489 0.28232822 0.15416703 0.039981846 -0.29039648 0.5484842 0.58393365 -0.04536321 -0.7791191 -0.025983356 -0.090739496 -0.16661055 0.30768025 0.061870065 -0.20736681 0.30757624 0.017467681 0.20798364 0.05390081 0.40875506 -0.45099166 -0.2635409 -0.056313008 0.022150354 -0.20690244 -0.20827658 -0.5798068 -0.062449526 0.22216801 -0.37623224 0.2834527 0.10991124 -0.35794225 -0.24655314 0.4345195 0.16949725 -0.18573573 0.14938109 -0.09953767 -0.3934937 0.75266206 -0.4921502 -0.03442131 0.09962289 0.07340672 0.2553092 0.11764629 0.45899805 0.049991876 0.121510714 0.046289522 0.124098346 0.29960713 -0.41062436 0.6092256 0.30771768 -0.11468881 -0.00763756 0.46656793 -0.42037773 0.09647749 0.5478429 -0.3223834 0.1421899 0.16584057 -0.09644159 0.13840972 -0.107853524 -0.15888017 0.22301275 0.41225722
21907 -0.15861386 -0.28486285 -0.24181418 0.5010845 0.19671063 0.94922626 -0.45166093 0.41078833 0.016181469 -0.072061494 -0.5202137 0.18610598 0.69116676 0.3030216 0.31389594 0.026765201 -0.43955708 0.42882967 -0.0948948 -0.28893292 -0.43612823 0.06614646 -0.1755773 0.94570917 -0.41543883 0.39103672 0.04528988 -0.8942678 0.09859401 -0.27083007 -0.3267819 -0.16604732 -0.35821003 -0.22595389 0.117976196 0.058068223 0.17553878 -0.27034155 0.42705902 0.031055633 0.66998404 0.053310752 -0.36820826 -0.5157009 -0.63211596 0.07231597 0.2772552 0.101032354 0.041815456 -0.4671836 0.4563452 -0.026035096 0.36315697 -0.8276489 0.14351727 -0.11773356 0.27044386 -0.116738096 -0.055512633 -0.12665078 -0.5359199 0.48313943 0.13350491 0.7746711 -0.35624057 -0.42715064 0.09502956 -0.7206254 -0.116551906 0.11870999 0.15974371 0.11143742 0.53500783 0.108659685 0.15229237 0.5330428 0.5129853 0.24302073 0.0102804 -0.63384634 0.31824934 -0.18384726 -0.23976134 -0.47269884 -0.21197149 0.35880455 -0.75098455 0.22122104 -0.4386329 -0.5098324 -0.034669265 0.32406884 0.34549165 -0.22294784 0.022481496 -0.043576587 -0.46491036 0.23372158 0.3136007 -0.62750196 -0.44008744 0.062480025 0.51466143 0.81848997 -0.07226925 -0.1645315 0.38460958 0.32820186 -0.8710175 0.21119829 -0.6927236 0.39676476 -0.002719015 -0.22318314 0.11364338 0.008547381 -0.07192556 -0.20881507 0.23429976 -0.3950289 0.0034883071 0.03132827 -0.14479023 0.10511701 -0.036024485 -0.23775163 0.04254686 -0.12400427
1689 -0.30910087 -0.5114367 0.26057386 0.40716627 0.37784162 0.73345506 0.06986454 0.06142137 -0.47924286 0.062897146 -0.52610624 -0.16026929 -0.21692333 0.21594183 0.42979375 -0.39041045 -0.108536676 0.5463602 -0.08622112 -0.13340746 -0.07739206 0.6212193 -0.22977147 0.6258621 -0.80294806 0.19430935 -0.22089154 -0.77956676 0.27781644 0.20947447 -0.04168492 0.0146627715 -0.087993294 -0.13687582 -0.29962343 -0.23830624 0.5897834 -0.25896636 0.2598837 0.3099252 0.92767245 -0.095827036 -0.27677006 -0.576857 -0.56150985 -0.22025055 -0.11245599 0.38703594 0.24853812 -0.53098124 0.4484976 -0.17740038 0.6005247 -0.43731335 -0.014122279 -0.61309147 0.15521327 -0.6749202 0.07510444 -0.025495494 -0.09239877 0.41714162 0.5493138 0.58729726 -0.038718145 -0.65451425 0.015987445 -0.60928357 0.37417695 0.2344205 -0.09249126 0.023938235 0.33559966 -0.18029973 0.047428474 -0.11198362 0.14471285 0.1727533 0.063175745 -0.33462512 0.1290712 -0.46457857 -0.36462533 -0.22148867 0.37432927 0.07671584 -0.81071836 0.48960996 0.11475734 -0.2275068 0.09502439 0.54599446 0.12919793 -0.26728678 -0.0974723 -0.23306176 -0.17168415 0.6358242 0.20712791 -0.3847362 0.0021363688 0.30224547 0.10093835 0.24032909 0.10658678 0.7085264 -0.045622453 0.40035158 -0.33502507 0.3126019 -0.39244178 0.3727854 -0.0026617444 -0.42199093 -0.033000104 -0.11026648 -0.2620426 0.041725773 0.16966392 -0.78315383 0.059300646 0.14618161 -0.55272704 -0.007877083 -0.19651482 -0.54767793 0.24984704 0.5754241
12783 -0.12094692 -0.2964367 -0.35526177 0.4876401 0.1445861 0.9008122 -0.40372366 0.36550918 0.063470945 -0.14307368 -0.5778609 0.11228976 0.7097271 0.44376254 0.3176097 0.04255207 -0.50398904 0.46190542 -0.07855071 -0.3095507 -0.3473093 -0.052329615 -0.20389856 1.000633 -0.37862754 0.29811007 -0.031271778 -0.8324872 0.23042667 -0.29340857 -0.28997156 -0.1646245 -0.5214448 -0.13385908 0.17488739 0.06940875 0.023667421 -0.23221403 0.3967425 -0.062838316 0.6695587 0.041208535 -0.43430704 -0.5055755 -0.6269535 -0.006072681 0.36891398 0.17494845 0.029939704 -0.4276505 0.37947157 -0.0940578 0.4045199 -0.8921368 0.18967974 -0.12203321 0.31190178 -0.13433601 -0.02808739 -0.16349028 -0.3483539 0.5180929 0.1465944 0.7770621 -0.375352 -0.52825886 0.013626888 -0.75735795 -0.15867667 0.028973626 -0.027089834 0.0970304 0.49575853 0.1698011 0.21362837 0.46769974 0.6608231 0.2836562 -0.04103628 -0.61982745 0.37619406 -0.23092385 -0.17133789 -0.56413525 -0.196998 0.34231532 -0.86601245 0.1899799 -0.37321803 -0.50020874 -0.13751052 0.1828009 0.3245511 -0.3302536 0.060951263 -0.061843924 -0.4996477 0.2981403 0.08744741 -0.5145986 -0.49891046 0.14940558 0.5161291 0.7361373 -0.07954769 -0.16763173 0.23111318 0.34353888 -0.84012425 0.22735845 -0.6493339 0.37118185 -0.014706951 -0.25312516 0.10542986 0.091337286 -0.10279955 -0.30245757 0.2116006 -0.42812303 -0.030618709 -0.033879317 -0.1975282 0.11157237 -0.112937175 -0.15746751 0.10852241 -0.16600834
12288 -0.34260586 -0.1436156 0.55754864 0.062147517 0.24038516 0.37596312 0.048022594 0.4127071 -0.3974769 0.991396 -0.3450933 -0.08059696 -0.60968876 0.3772716 0.37679246 -0.52649957 0.23737162 0.43442565 -0.72146547 0.16678762 -0.08181809 0.89109176 -0.023693109 0.0940211 -0.41225967 0.22037226 0.030414313 -0.08329429 0.22817855 0.050253816 -0.42134702 0.21809846 -0.83179563 -0.5948162 -0.63486946 -0.3284036 0.43150553 -0.0666994 0.66147333 0.4824437 0.19343457 0.12746139 -0.34500548 -0.18889095 -0.539458 0.2998227 -0.4243909 0.30700347 0.12725775 -0.07199833 0.4546186 0.44178203 0.35917592 0.13243969 0.15003586 -0.3385391 0.103318565 -0.31966913 0.4268755 0.58904755 0.06193697 0.07541029 0.5243577 0.5992452 0.6351256 -0.86290354 -0.12604848 -0.5295859 0.10302304 0.116347864 -0.11062378 0.5756525 0.21188226 -0.3895873 0.23755322 -0.5243601 -0.39502817 0.14044565 -0.18785691 0.004736254 0.26807606 -0.10892973 -0.18236765 -0.03245204 0.67682546 0.28057307 -0.2533697 0.57046205 0.27740097 0.048637386 0.31625333 0.2345904 -0.14373288 0.24770473 -0.46931964 -0.20395271 -0.16644181 0.2534893 -0.60543585 -0.06951504 -0.045878842 0.1706248 -0.044846356 0.18139534 0.3242457 0.8215468 0.11172207 -0.13621372 -0.06252846 0.3646938 -0.051499367 0.079803675 -0.31166065 -0.422634 -0.1709653 0.27183315 -0.30867058 -0.018381897 0.06667444 -0.15303236 0.38642016 0.033386696 -0.22371659 0.3641277 -0.33515933 -0.74127716 0.28953582 0.13651267
16001 -0.23914553 -0.22045664 -0.13674684 0.4865208 0.1852994 0.92562175 -0.56064403 0.44262314 0.0564271 0.15141934 -0.47050044 0.21171266 0.5822118 0.26134205 0.34749764 -0.011284255 -0.3426516 0.37337366 0.014442334 -0.21953887 -0.49244955 0.19009756 -0.14436981 0.8979013 -0.61172193 0.45442307 0.039666742 -0.85306174 -0.036633097 -0.14993131 -0.28966406 -0.3283032 -0.33886942 -0.26451507 0.061473396 -0.043676127 0.32492185 -0.24200061 0.6006989 0.10934086 0.5139352 -0.07526524 -0.38497734 -0.48018226 -0.6580127 0.03912255 0.22594039 0.13883448 0.028795555 -0.3766445 0.5015101 -0.13526765 0.49815026 -0.9296053 0.13172285 -0.16436662 0.20548181 -0.2024768 -0.04307953 0.0038039074 -0.57080466 0.45025325 0.06694121 0.7221658 -0.30796984 -0.43414655 0.03930762 -0.797659 -0.09457094 0.071907535 0.27415 0.11322774 0.6038587 0.04173316 0.117475234 0.41427657 0.45182392 0.25795886 -0.04440355 -0.6508038 0.3229964 -0.26968607 -0.29108474 -0.30154783 -0.16184604 0.49071845 -0.67251813 0.22926205 -0.5493627 -0.48423088 -0.057389345 0.41106924 0.13526149 -0.11822246 -0.027443988 -0.18123801 -0.5414545 0.1773982 0.37744406 -0.706601 -0.385044 0.00279288 0.42754784 0.90747863 -0.24934001 -0.17906022 0.4461319 0.2544134 -0.89956677 0.044270758 -0.72984695 0.40503764 0.0047609396 -0.28287512 0.08453674 0.012676927 -0.12763393 -0.21183614 0.050710753 -0.5145311 0.049971435 -0.08071472 -0.1813311 0.034723233 -0.15631624 -0.2850361 0.063093334 -0.09016891
3499 0.08908678 -0.12399907 0.31925339 0.059751455 0.26839918 -0.4042865 0.5701837 0.4908042 -0.07351248 -0.1285309 -0.22072016 -0.09361531 0.12554272 -0.040886685 0.5024135 -0.12489062 0.009569888 -0.04238522 -0.32479936 -0.07134204 0.4367218 0.6718941 -0.15945235 0.3785058 -0.0077858274 0.2890351 0.030457921 -0.1586592 0.48434934 -0.13052364 0.20000786 -0.088057436 0.010836661 0.5193946 -0.5669402 0.2777509 -0.01967605 0.0036858502 0.03298504 -0.15612265 0.0053876825 -0.53657746 -0.42737767 -0.43355286 -0.2935788 0.05116786 -0.056040086 0.065306045 0.35584113 0.09992401 -0.16176839 0.167448 0.59862524 -0.12616986 0.33003503 -0.07135394 0.5041863 -0.33692542 0.43216467 -0.11809982 0.5956236 0.22323225 0.23969184 0.20900156 -0.024791714 -0.6719087 0.27089462 -0.18851827 0.21542713 0.87860936 -0.35585335 0.3356551 0.3055549 0.3034539 0.21667919 -0.34925723 0.37318602 0.0663567 -0.48001873 0.101431884 0.29186413 -0.8565048 -0.14367156 -0.15174338 0.9123954 -0.028662639 -0.7149563 0.24262284 0.722526 0.1770893 -0.44266394 -0.34919432 -0.05061983 -0.6785284 -0.37480843 0.23064286 -0.48671558 1.0408763 -0.37612742 0.5718023 -0.10869445 0.041655395 0.19734529 -0.0007631483 0.28638864 0.17135994 -0.6543819 0.5616338 -0.22548953 0.18306643 -0.020637553 0.5111105 -0.51196665 -0.89653397 0.11562477 -0.2570073 -0.6914074 -0.083525605 -0.02380102 -0.39772516 -0.3408578 -0.03517856 -0.46784782 -0.4371026 -0.17502034 -0.7949313 0.34014875 0.18264784
15976 0.07882919 -0.4892917 0.15061711 0.58029413 0.48694462 0.59085214 0.059163027 -0.03307575 -0.4204142 0.08636238 -0.9630126 0.25894308 -0.14871286 0.21985331 -0.06545393 -0.13325752 0.07946495 0.44536066 0.19650838 0.12147804 0.2643497 0.2757642 0.26428217 0.15983923 -0.5057634 0.22208187 -0.26063585 -0.022128612 -0.39158863 0.256048 0.0078931255 -0.0948856 0.111640334 -0.36962336 -0.19717166 -0.8094793 0.106345005 0.44042712 -0.007439682 0.523302 0.12343908 0.011801742 -0.25142774 -0.696496 -0.3104285 -0.37325495 0.4663928 -0.04735399 -0.055895843 0.031010866 -0.052874006 0.282648 0.67929476 -0.52859974 -0.09742638 -0.48071578 0.5830953 -0.6236845 0.16454056 -0.17320783 0.24774186 0.09054408 0.5091185 0.43887118 -0.6536141 -0.1780426 0.21424752 -0.40688315 0.5057836 0.3382678 0.025745431 0.13621302 0.3384873 0.5354452 -0.3768989 0.045631267 0.0011504964 0.42715302 0.22190161 -0.008801041 0.8226336 -0.7074862 -0.9062435 0.0061771525 0.10038455 -0.101814605 -0.394857 0.0879094 0.1451319 -0.22757997 -0.019377023 0.40269473 -0.29153943 -0.111322045 -0.46783572 -0.10243384 0.11543382 -0.104540296 -0.1943326 -0.8278484 0.006748525 0.615889 0.26538667 0.13208939 -0.1514622 0.30304787 0.030538121 -0.0877841 -0.18257184 0.6230922 -0.37735245 -0.14306559 -0.17352435 -0.789565 0.4955187 -0.33872864 -0.238646 -0.027265355 0.27370015 -0.6407285 0.092031114 0.11186745 -0.10121556 -0.48298752 -0.024153128 -0.22531657 0.30976847 0.52380186
897 0.44156495 -0.071584634 0.5082121 0.009454621 0.27412528 0.0497729 -0.28172716 -0.028894285 -0.4398737 0.56291705 -0.28135225 -0.13863069 -0.24124174 0.46947002 0.03246285 0.07207699 0.18084195 0.607978 -0.13044031 -0.4629872 0.75217813 0.6122867 0.27275264 0.032216758 -0.30517828 0.33477503 -0.51853555 -0.9907835 0.33908424 -0.18406722 0.13442573 -0.122567855 -0.18631665 0.4138464 -0.27935332 0.28238574 0.33798495 -0.22432137 -0.091437444 0.2868574 0.48471323 -0.43836933 0.16071889 -0.91343534 -0.8784149 0.26646218 -0.46755376 -0.1466837 0.09622871 -0.20978875 0.6885304 0.20518133 0.18309496 -0.74946713 -0.049314927 0.28075305 -0.0014518017 -0.41763857 0.31270877 -0.10929531 0.4363955 0.40092763 -0.073287934 0.28348282 0.22180343 -0.43252406 0.4942361 -0.20548284 0.3592597 0.18713188 -0.20065683 0.31657088 0.26276007 -0.16852205 0.14096951 -0.09034799 -0.21445319 -0.0077940454 -0.2881252 0.2841935 0.39130613 -0.2225064 -0.3213443 0.17539215 0.5665744 -0.5166017 -0.6491157 0.122541115 -0.14403893 -0.47214398 -0.11731983 -0.20317218 0.07111455 -0.37390164 0.35274857 0.4598748 -0.13312095 0.11880678 -0.33424026 0.2794497 0.29416707 0.71285534 0.36307302 -0.022879208 0.5614306 -0.29452503 0.14715552 0.67964864 -0.14429311 0.5600611 -0.40332726 0.27337804 -0.3069879 -0.61874187 -0.006671558 0.33188906 -0.7361234 0.44597206 0.457576 -0.6192381 0.25426152 0.19391814 -0.47340417 -0.048773896 0.009857569 0.18749358 -0.050727304 0.44846502
9677 0.012995039 -0.35507274 0.53340745 0.025505302 0.21952425 -0.14553629 0.27236146 0.7355068 0.04860101 -0.24693587 -0.7252835 -0.09620702 -0.13757038 0.29184604 0.676167 -0.07342388 0.50455326 0.17260493 -0.26655394 -0.072621055 0.23209225 0.9352206 -0.29599392 0.117574275 -0.47507748 0.42273584 -0.0711451 -0.38367516 0.21760562 0.23538773 -0.37000346 0.1434311 -0.05301058 0.5594386 -0.4522291 0.0010125672 -0.050539136 -0.026480611 0.063334845 -0.19508944 0.03616548 -0.2672361 -0.3623681 -0.22442429 -0.03559589 -0.47228202 0.24946323 0.056864183 0.09706841 -0.376072 -0.08732984 -0.6318455 0.5211825 -0.10923258 0.40272054 -0.48264003 0.45092744 -0.22638763 0.32223123 -0.17692707 0.20208065 0.13795336 0.31277388 -0.047394283 -0.29610988 -0.5119731 -0.05817306 -0.10540589 0.03167864 0.33324724 -0.33260274 0.3288245 -0.09760691 0.077114224 -0.03311337 0.1514416 -0.025208406 0.096758455 -0.42504054 -0.13697787 0.031411186 -1.3545046 0.037544988 0.23371702 0.6749074 -0.27794948 -0.5405353 0.356962 0.62334627 0.32530114 -0.35637528 0.12298546 -0.1427731 -0.15288763 -0.5035999 -0.2190689 -0.22342706 0.91685975 0.1321361 -0.023181958 0.1545 -0.24726754 -0.22264926 -0.26298985 0.35977447 0.31947687 -0.67907625 0.56024945 -0.03637861 0.5205219 0.045298636 0.52505845 -0.159267 -0.3766021 -0.09097639 0.107051454 -0.663041 -0.10753928 0.22984914 -0.1382468 -0.04066113 0.20744719 -0.33555567 -0.11412204 -0.20214993 -0.832484 0.55616426 0.5477464
3252 0.13107269 -0.2916324 0.3059172 0.81016254 0.67803276 0.19408324 0.47171053 0.17030367 -0.5921786 0.4191159 -0.024316158 -0.42475826 -0.27125886 -0.29869437 0.5595622 -0.49780717 -0.15323697 0.2969007 0.37350222 -0.14052375 0.22022788 0.39880127 -0.22998267 0.23018546 0.0032785225 0.70373774 0.4216007 -0.29962817 0.088214174 -0.123428315 0.3791424 0.03882586 0.0006070896 0.4249672 -0.6563117 0.14229256 0.45533535 -0.24589978 -0.6521071 0.5591504 0.51858985 0.38693106 -0.32717952 -0.58189243 -0.30327117 -0.19311532 -0.5009452 0.31878126 0.22115873 -0.105828 0.46986786 -0.08749196 0.39647183 -0.25029767 -0.111185305 -0.31034932 -0.1380976 -0.8022644 0.30626875 0.22127604 -0.14353396 0.47162336 0.73995423 0.32058454 0.07010996 -0.42064765 0.79243094 -0.32732105 0.41752896 -0.2108431 -0.08492043 -0.67418057 0.54633796 -0.65722394 -0.5607875 -0.031220604 0.20050943 -0.50655365 0.2168322 -0.41476074 -0.053750366 -0.19560623 -0.4564883 0.24116053 0.22849058 -0.035239976 0.1257338 0.27932957 0.6140752 -0.2669921 -0.19838846 0.1795692 0.50157595 -0.08799202 -0.58740026 0.5015982 -0.1965648 0.09614729 0.41568318 0.052853033 -0.15687607 -0.018819937 0.12495937 0.5126278 0.7268853 0.775029 -0.2581145 0.24993512 0.019490989 0.0387767 -0.20876427 0.17907168 -0.58206445 -0.58287066 -0.015429317 0.10326683 -0.34454793 -0.33828783 0.2405845 -0.28584677 -0.23061182 -0.004158334 -0.33556914 -0.0048548025 -0.020552121 -0.5017876 0.34962362 0.17999996
9523 0.11734012 -0.22938101 0.08538089 -0.18486787 0.15121986 0.41176492 0.06101269 0.024263928 -0.087276205 -0.13581723 -0.68255234 -0.26447147 -0.09822073 0.3115002 0.51493317 -0.20767587 0.18264668 0.3482407 0.44399795 -0.25432968 0.29527768 0.07385438 -0.14007473 1.0204617 0.04643521 0.4826368 0.10190338 -0.59985274 0.21105853 0.35732457 0.29552227 0.068984024 0.06941924 -0.13717642 0.1549105 -0.38391256 -0.046323467 -0.36016038 0.35766846 -0.42743137 1.1015918 0.10010661 0.12594113 -0.24457918 -0.3811428 0.28318292 0.57001173 0.54740435 0.15955065 -0.23725985 0.6565917 -0.10828394 0.17802098 -0.5030498 -0.30790675 -0.20690204 -0.030769162 -0.66587824 0.4763399 -0.33091086 0.2784726 0.1746995 0.012451089 0.46206957 -0.118780404 0.013160058 0.2264451 -0.68603975 0.101473734 -0.40712696 -0.7593037 -0.22919911 0.43211758 -0.22098741 -0.07256808 -0.35721406 0.41274077 0.15876149 -0.14556018 -0.1991063 0.37580806 -0.41482466 -0.013107158 -0.30355558 0.22543445 0.044301715 -0.44606134 0.4367235 -0.11149932 0.1252493 0.09771113 0.15899001 0.065097116 -0.5678139 0.24142325 0.13100432 0.18228565 0.29081154 0.19662686 0.2797556 -0.11317489 0.4880486 0.5352199 0.1862162 0.12393326 -0.052709606 -0.1966077 0.57706904 -0.99422306 0.14572144 -0.13664325 0.30566397 -0.1162949 -0.70693314 0.16639338 0.32592282 0.26079792 -0.038811833 -0.15575735 -0.54077464 0.03874729 -0.11292092 -0.4955996 -0.3329906 -0.901797 0.2968811 1.073289 0.2334213
4111 -0.032627393 -0.436584 0.007677436 -0.28671688 0.6174629 0.32336175 0.07847332 0.5728104 -0.15257645 0.5478831 0.09054274 0.08065464 -0.7611584 -0.029863706 0.25902325 0.28255934 -0.3020119 0.09168932 0.04742796 -0.18178548 -0.13336839 0.06753819 -0.5047356 0.37257898 -0.8416421 -0.2473036 -0.12974179 -0.6087027 0.17723653 -0.044343933 0.06573369 -0.44838807 -0.06798647 -0.37488195 -0.22219701 -0.34547836 0.21614699 -0.07169727 -0.024684666 0.723432 0.82080543 0.24437681 -0.101318106 -0.090608686 -0.10295486 0.12809598 0.33634293 0.3619867 0.23093936 0.70159703 -0.1550434 0.024667175 0.46738502 0.017057622 0.3060039 -0.29463997 0.25806937 -0.86883765 -0.04101965 0.34346744 -0.0005758801 0.14420252 0.16783416 0.6553966 -0.5585773 -0.2170323 0.3843171 -0.44264558 -0.20998392 0.51719195 0.038856775 0.2497508 -0.062763 0.09253565 0.19681488 -0.120011926 -0.7314741 -0.100800686 0.21197565 -0.13267858 0.44675118 -0.42001617 -0.78442854 -0.2809849 -0.066023394 0.28160137 -0.5903649 0.40445116 -0.20038396 0.014273095 0.0075600813 0.5160364 0.058685247 -0.1965662 0.19051492 0.29093114 0.46745512 1.0116146 0.36598343 -0.33953008 -0.3023671 0.4780486 0.43592438 -0.0075996933 -0.31968832 0.06432021 -0.061090153 0.07035734 -0.5542207 -0.09664374 -0.29541364 0.14688028 -0.111056946 -0.33027986 0.06682758 -0.58915335 -0.4095801 0.339631 0.5057079 -0.6402344 -0.2116754 0.5966313 -0.25639015 -0.15937592 0.0167855 -0.38043052 0.5314859 0.17098586
8216 -0.02838877 -0.074951194 0.58171165 -0.3824639 0.2933672 -0.38455716 0.26484287 0.79499006 -0.2761425 0.52462685 -0.69819003 -0.27119312 -0.3140514 0.36217555 0.59630996 -0.015819531 0.5403954 0.23728986 -0.4761247 -0.02310603 0.13919103 0.74148023 -0.055733863 0.20584688 -0.5369179 0.41388273 -0.4386624 -0.46339306 -0.2054528 0.044487976 -0.37203664 -0.28942955 -0.325657 0.028783081 -0.41683212 -0.0041325637 0.10907109 -0.27130067 0.100740336 -0.09487346 0.2277778 -0.34737414 -0.24223378 -0.49685106 -0.3196756 -0.20912619 0.13259397 0.23124906 -0.19660752 -0.24352053 -0.05244482 -0.4170566 0.6371274 -0.20691933 0.86036354 -0.3441946 0.504282 -0.42281717 0.6115302 -0.19463672 0.36601558 0.23810793 0.023434458 0.2891544 -0.13705125 -0.74929446 -0.20509163 0.14485247 -0.0034564664 -0.15944128 0.11132747 0.40933576 0.2454278 0.0701997 -0.00013603682 0.02461561 -0.17565529 0.21501231 -0.5488234 -0.086745925 0.04857315 -0.9637013 -0.007274971 0.20064324 0.34769624 -0.06140715 -0.27781937 0.28030077 0.6974955 0.31866395 -0.58087146 0.3991805 0.13176565 -0.11425341 -0.24054617 0.064986534 -0.36423278 0.43807998 0.08271178 -0.04659291 0.07551276 -0.23751494 -0.45945445 -0.2015717 0.27893844 -0.05531751 -0.5753219 0.55312914 -0.28071555 0.5849088 -0.08826966 0.5010266 -0.48543552 -0.20696591 0.01754646 0.20650762 -0.4215373 0.20084447 0.55364364 -0.14661549 -0.07734932 -0.12998198 -0.4025588 -0.31475633 -0.65521103 -0.67230415 0.42167625 0.32984856
16368 0.60169095 -0.6742933 0.6854701 -0.44091475 0.42293423 1.1867847 -0.26465416 0.38467613 -0.15704648 0.36428034 -0.7122858 -0.08132789 -0.5455467 0.597342 0.28529027 -0.33181658 0.16687979 -0.016510107 -0.13418451 0.47115663 0.1436845 0.27190968 -0.57228005 0.2828582 -0.42696118 0.26474032 -0.07441538 -0.389849 0.34151912 -0.17765567 -0.036011506 0.4736386 -0.12550338 0.13129584 -0.29499063 -0.14279673 0.49266985 0.36927733 0.048566364 0.5569919 0.561153 -0.22211418 -0.4008396 -0.022586728 -0.671701 -0.5969526 0.7923435 0.01959254 0.1704682 -0.26450977 0.50337744 -0.7532548 -0.06577636 -0.13170983 0.37191808 -0.08904149 -0.010648722 -1.0496798 0.35212266 0.29821038 -0.3637243 -0.17914866 0.49248916 0.7042878 0.09453391 -0.4600685 0.06448924 -0.3515305 -0.1544926 0.38525257 0.21026532 -0.097983055 0.19892481 -0.17289448 0.6809469 0.20843643 0.42241704 -0.30680037 0.16878222 -0.13742721 0.15122132 -0.37122938 -0.34260905 -0.6486513 -0.22856306 0.122094564 -0.5782052 0.24401487 0.05687396 -0.023513151 -0.32880232 0.43044892 0.6080365 -0.14285369 0.23537457 0.15050286 -0.75509983 0.10357576 -0.14658044 0.27033353 0.13553363 0.6665346 -0.24192469 -0.41541648 0.4341512 0.43334967 -0.21876192 -0.18342659 0.11191217 0.79731536 -0.48971397 0.49448046 0.11215791 -0.57990384 -0.017526222 0.24831338 -0.028446142 -0.051074233 0.32356685 -0.27029902 0.21113607 -0.13593088 -0.34877613 0.36101958 -0.35281986 0.07856476 0.14491302 0.75716466
19041 -0.12683512 -0.30408472 0.03726948 -0.4193463 0.5520164 0.49846035 -0.05622943 0.20438188 -0.5122471 0.42775935 0.06940575 0.09971913 -0.3462306 0.040347528 -0.017176019 -0.8101948 -0.19355224 0.6555273 -0.26575983 -0.6122972 0.16980822 0.53189546 0.058350433 0.41842496 0.13855812 0.23503296 -0.50512326 -0.2800337 0.3458877 -0.035643876 -0.05170761 0.10896089 -0.573012 -1.38186 0.392836 -0.27497083 0.30241245 -0.38683727 0.3439782 0.18982694 0.6671833 0.073403865 -0.19263792 -0.81362504 -0.32206458 -0.2209349 -0.35353088 -0.040041275 -0.024526581 -0.21159415 0.39881426 0.33882856 0.18158507 -0.20450594 0.5613587 0.0117810415 -0.26488134 -0.17586312 0.43107322 0.5743624 -0.24905403 0.16834924 0.15386559 0.99274164 0.14842823 -0.4786974 0.0839968 -0.70208865 0.14012675 0.2903453 0.22861983 -0.049852483 0.7570994 -0.147456 0.17038399 -0.9940571 0.13577035 0.35963178 0.1314481 0.2401907 0.16663995 0.005735663 -0.17408626 -0.49579537 0.071532145 0.056884788 -0.008158681 0.38041314 -0.3960578 -0.024602039 -0.09833256 0.42039588 0.34065527 0.021596028 0.3098644 -0.42188057 -0.05504824 0.7767334 -0.663932 -0.14299025 -0.1300891 0.31134433 0.3790511 0.17340067 -0.061176736 0.18920137 -0.47654566 0.2436604 -0.9599727 0.8619509 0.14448665 0.26861358 -0.09487798 -0.38878408 -0.102376044 0.05900993 0.30751184 0.64317155 0.49420562 -0.49504343 -0.2444665 -0.10188942 -0.6597743 -0.43169153 0.018319778 -0.7153016 0.19280545 0.32796657
18974 0.14610529 -0.49343458 0.71562773 0.5483043 0.66580206 0.27973488 -0.29062274 -0.07658312 -0.029734988 0.0061160745 -0.24458559 -0.034841884 -0.54207623 0.25131598 0.12012814 -0.22806576 -0.08480413 0.57536083 0.30643582 -0.28037694 0.084525585 0.33804694 0.29725006 -0.07846451 -0.3382464 0.043276466 -0.23376723 -0.5869501 -0.113643505 0.023840468 0.24242629 0.09232041 -0.19245651 0.5311245 -0.17852926 0.050272908 0.65067667 -0.08720546 0.50672585 0.42562684 0.14235687 -0.5046897 -0.28558627 -0.5924525 -0.58981746 -0.4306152 0.26046973 0.3562747 0.006665331 -0.43761924 -0.011837623 -0.26289016 -0.2571838 -0.4810513 -0.24361607 -0.36747625 -0.16762586 -0.235066 -0.099179335 -0.19562604 0.22751658 -0.01409595 0.4207707 -0.057841152 0.17548534 -0.39058882 0.2948291 -0.6429433 0.37596723 0.38155666 -0.52822 -0.06274771 0.15876502 -0.21518375 -0.21637256 -0.69469744 -0.12189814 -0.36018527 0.41092283 0.28310364 0.44244894 -0.6255441 0.26499897 0.028140182 0.5018144 0.03945497 -0.4443747 0.09314753 -0.13813478 -0.3362513 -0.04566474 -0.17017716 -0.20560272 -0.3141764 -0.021124016 -0.0028205665 -0.19200434 0.49655396 -0.03780673 0.071073346 -0.24100156 0.91330767 0.19208929 -0.52824247 0.5163178 0.87744904 -0.39645517 0.81448907 0.3134351 0.034976274 -0.5830505 0.5873566 0.3854886 -0.8930873 0.652113 0.0533176 -0.5646828 0.12893666 -0.11027142 -1.0237018 0.2792446 0.31299984 -0.2166488 -0.010411181 0.010620054 -0.12120265 0.805995 0.7517431
5149 0.39694548 -0.5242143 0.5503259 -0.0867868 0.481387 1.0428377 -0.30291212 0.12650836 -0.16034493 -0.08631599 -0.460335 -0.24911316 -0.18827426 0.2132669 0.13480778 -0.41054803 -0.015752446 -0.37001958 -0.49874246 0.030978166 0.090641245 0.40673542 -0.09364624 -0.120169364 -0.5485338 0.1583911 0.10422544 -0.6178323 -0.089595854 0.03199873 0.000696023 0.3963523 -0.03983376 0.058353834 -0.18817063 -0.3093624 0.32733646 0.19134858 0.2692006 0.5658435 0.9257231 -0.1256159 -0.32160962 -0.076388344 -0.9329166 -0.43038198 0.45497957 0.124646194 0.22824486 -0.10457272 0.41521496 -0.6447082 -0.05117626 -0.03634431 0.27453023 -0.53843886 0.073056005 -1.5519006 0.28320605 0.24074 0.009145091 -0.20970488 0.5718762 0.5532206 -0.02252716 -0.7554722 -0.05554088 -0.09068116 -0.16400878 0.32271892 0.016717652 -0.22761263 0.30129394 -0.04691715 0.3155358 0.073327295 0.36588427 -0.37400165 -0.21368401 -0.051153254 0.07268889 -0.24429785 -0.20907883 -0.55591506 -0.06694985 0.18305981 -0.4308445 0.20462461 0.06415116 -0.3445014 -0.26267844 0.41392073 0.18270157 -0.17838599 0.10384525 -0.085690655 -0.49390072 0.6706673 -0.51262593 -0.027783465 0.10094787 0.19165696 0.17410043 0.050201617 0.53906715 0.10955458 0.11673825 0.07640519 0.20493703 0.32220796 -0.46312112 0.4906863 0.29846713 -0.26694018 -0.023610111 0.48294625 -0.38425988 0.025418984 0.49468637 -0.30724472 0.14979516 0.14766702 -0.106134556 0.25602284 -0.18901241 -0.079713255 0.21233341 0.41700855
18573 -0.28441963 -0.028728824 0.51327723 -0.1171143 0.30268198 0.30077788 0.008194209 0.52641636 -0.41187808 0.9774099 -0.32931724 -0.14048864 -0.4647082 0.31285238 0.41274756 -0.40817136 0.23415329 0.37644035 -0.8574135 0.12844653 0.016548036 0.8765365 -0.06164621 0.24379922 -0.46608973 -0.08340288 -0.060231257 -0.18000266 0.2732636 -0.002844926 -0.44149294 0.062186155 -0.7668377 -0.45065612 -0.6422662 -0.10993267 0.09584497 -0.14090008 0.5545311 0.30387458 0.08975469 -0.00425908 -0.48238215 -0.18194306 -0.55018973 0.34393108 -0.25153798 0.22007409 0.025248447 0.12351472 0.57877195 0.6209969 0.34072682 0.026661884 0.23896234 -0.2214962 0.19433196 -0.33675703 0.45235065 0.45922387 0.31421244 0.1475823 0.45652485 0.6591328 0.5705222 -0.95564944 0.009568894 -0.4868523 -0.0946199 0.35172606 -0.18658115 0.60128975 0.21225668 -0.07488948 0.38625032 -0.67152363 -0.35356516 0.11983513 -0.27766684 0.14328621 0.16331339 -0.20242287 -0.13438724 -0.16068856 0.6550287 0.11375065 -0.30764595 0.54037845 0.37423393 -0.055218346 0.026410742 0.03677272 0.011160429 -0.062659994 -0.43172866 -0.14915125 -0.28367418 0.40556183 -0.835141 0.18094277 -0.11141779 0.1310648 0.03818753 0.14779426 0.4111961 0.5487012 -0.21124838 -0.013201783 -0.12096591 0.4396982 -0.007292874 0.05580961 -0.5197866 -0.5880973 -0.13121615 0.26220846 -0.3943649 0.011805318 0.31337678 -0.17185856 0.20570257 -0.02859006 -0.38748464 0.36385205 -0.36287835 -0.78023905 0.35216352 0.16076253
16968 0.15318032 -0.3507356 -0.35331067 -0.2173501 0.074752025 0.45469785 0.02170587 0.36342955 -0.18512931 0.49361554 -0.32161808 0.019852245 0.06993451 0.55068165 0.038115606 -0.008287898 -0.32279074 0.60173684 -0.60774875 -0.30489203 0.33914837 0.36266246 0.17969112 0.52637714 -0.18045403 -0.32105252 -0.5436494 -0.33128083 0.4593707 -0.5757177 -0.011066732 -0.33641213 -0.46731317 -0.040704057 -0.2871816 0.3900583 0.03632158 -0.38331413 0.064300425 0.019330906 0.45910332 -0.36202648 -0.58530736 -0.3961676 -0.7924674 0.264652 -0.18097845 0.11204198 0.11797267 -0.3991299 0.20893489 0.61997706 0.4968771 -0.58572406 0.46634284 0.060347516 0.09494526 -0.28008235 0.63221 -0.059193503 0.45446774 0.16953894 -0.018864585 0.8565886 -0.1732858 -0.6085835 0.16781059 -0.33209258 -0.13382296 -0.09369624 -0.3764059 -0.055369757 0.51898074 0.38852498 0.50194705 -0.45978713 0.39095956 0.07199844 0.17284852 0.48283365 0.3744168 -0.13712831 -0.19038211 -0.49617755 0.26934898 0.06521285 -0.93470186 0.4345472 0.18952915 -0.38493642 -0.5193634 -0.12505096 0.35101396 -0.38694823 0.21124452 0.47158724 -0.30297878 0.3948839 -0.39739093 0.5072854 -0.20903435 0.7600851 0.55221134 -0.08724265 0.13565534 0.014286578 -0.40019268 0.41505185 -0.518996 0.7454164 -0.47390026 0.21905465 -0.31780392 -0.3963247 0.5185542 0.2750955 -0.33908835 0.24553974 0.15062024 -0.36783752 0.040892284 -0.21315138 -0.78523946 0.025929142 -0.30910408 -0.024642376 0.49099594 -0.03823087
20577 -0.23775454 -0.4407564 -0.09875249 0.19913845 -0.36890754 0.20702246 0.51182175 -0.5209682 -0.5433251 -0.13368948 -0.39393836 -0.3584825 -0.34795052 -0.2892268 0.3126374 -0.6774919 -0.01735392 0.1568035 0.21960145 0.11731099 -0.028037898 0.36513436 -0.48603964 1.2710922 -0.68161756 -0.3133723 -0.6442199 -1.0819032 0.24142215 0.5301705 0.010561543 0.26909328 0.38821188 -0.1342113 -0.270145 -0.51068944 0.47119176 -0.2759755 -0.10826833 0.35506234 1.2409065 -0.1850973 0.07059937 -0.16758241 -0.77749574 0.20203821 -0.4959104 0.32487345 0.41263026 -0.31690302 0.62865764 0.06665026 0.7396645 0.011460339 -0.2080124 -0.41977087 -0.31967393 -0.5488959 0.029968306 -0.27759436 0.2048696 0.02768473 0.34060475 0.8323486 -0.14986564 -0.4192207 -0.46149004 -0.47387314 0.5039928 0.59713954 0.28818795 -0.13977122 0.27585903 0.123444155 -0.08552861 0.047520813 -0.002074767 -0.25409403 -0.1716496 -0.21346356 -0.011626543 -0.01952933 -0.6462644 -0.41247028 0.10948044 -0.6374852 -0.6202714 0.32434577 -0.1553551 0.033566426 0.2926888 0.2642974 -0.23359326 -0.0061078933 0.61734533 -0.5399739 0.41209242 0.6250146 0.22746158 -0.38261887 0.20888786 0.070244715 -0.0061072106 -0.023662394 -0.43190122 0.8571027 0.15870199 0.23797761 -0.06237638 -0.12648875 -0.10206935 -0.05757244 -0.060875867 0.2537908 -0.25785473 -0.49048582 -0.17833212 -0.13930203 0.4674779 -1.0653123 0.095174715 0.026126852 -0.74709743 0.123678684 -0.007874413 -0.13304561 0.15276264 0.73855203
3783 0.278857 -0.4638079 0.50218755 0.062307823 0.4645856 0.8912748 -0.24168964 0.060964264 -0.20485233 -0.20632789 -0.3189456 -0.33363602 -0.058200747 0.020866577 0.11704997 -0.4345722 -0.102077186 -0.41226554 -0.5739909 -0.15429936 0.07640155 0.50615907 0.009813252 -0.079663396 -0.62769586 0.07053017 0.057279292 -0.68198514 -0.19012547 0.18460508 0.043756563 0.31244025 0.03213699 0.04801761 -0.17879787 -0.36349168 0.25974852 0.08400674 0.26813218 0.5363052 0.9877199 -0.09426347 -0.21542874 -0.10479412 -0.96384704 -0.34238157 0.29887173 0.14484406 0.2448908 -0.029640581 0.4020089 -0.50649756 0.014221407 0.0062500155 0.26396915 -0.60758626 0.082924396 -1.5866107 0.32221374 0.14720243 0.121631004 -0.29617935 0.55428064 0.5865422 -0.07989585 -0.77104986 0.03147556 -0.065041065 -0.18690842 0.36799008 0.006814359 -0.23602271 0.34140804 0.10514931 0.15621835 0.03307243 0.3785886 -0.43061733 -0.37779486 -0.049131263 -0.03901509 -0.23419404 -0.26958862 -0.5668411 -0.05298549 0.15731451 -0.37186235 0.25336763 0.038381234 -0.4189853 -0.29641587 0.4212447 0.13288769 -0.24075411 0.10657212 -0.10440406 -0.2952355 0.8463844 -0.5034679 -0.047893725 0.042794574 -0.013314818 0.29639837 0.19254246 0.4273323 -0.001193581 0.14869128 0.13844797 0.15098755 0.2630605 -0.3416009 0.5376616 0.29550064 -0.10891494 -0.05794405 0.41071233 -0.47748166 0.088103734 0.6134847 -0.28678682 0.081478596 0.26934546 -0.11362301 0.08497123 -0.07170299 -0.17303701 0.26559764 0.345857
1668 0.20925981 -0.59495115 0.0824423 0.47124073 0.41169956 0.4729012 0.078045264 -0.1346366 -0.661256 -0.11874987 -0.479387 0.09184662 -0.1458727 0.061990272 0.66419697 -0.37306347 0.07289582 0.43421593 -0.45821878 0.1349909 -0.038500637 0.45437464 -0.36500803 -0.6013112 -0.7855292 -0.22195318 -0.35444525 -0.29120386 0.45638126 0.11447919 0.24992368 -0.32822096 -0.22663198 0.014263658 -0.15227723 0.05360888 0.8471671 -0.13356528 0.2381884 0.72720665 0.62702 -0.118054226 -0.100276366 -0.3288995 -0.39773798 0.13157673 -0.39590418 0.72087157 -0.080046274 -0.42811474 -0.34515813 -0.28684127 0.88652045 -0.118921146 0.13197884 -0.57883227 0.21470402 -0.3806147 -0.4075293 0.2838381 -0.4821303 0.5018296 0.042647287 0.32894132 -0.090066835 -0.5911892 0.12943114 -0.6333049 0.2757351 -0.011244578 -0.060024798 -0.065567985 0.45931384 -0.028826224 0.72602415 -0.0763179 -0.15314125 0.67609596 -0.02595578 -0.9532678 0.015156797 -0.43391377 0.020712206 -0.15934882 0.24225034 0.378461 -0.4162629 0.7611904 0.26615128 -0.23995309 0.11287169 0.8506029 0.28621957 0.115611084 -0.49632952 -0.30087158 0.13141434 0.5077129 0.12075789 -0.43046126 -0.2690386 -0.14691138 -0.095917135 0.06565546 0.13641843 0.1544497 0.29624322 0.42549336 -0.32963502 0.4986268 -0.24063429 0.44653177 0.14953376 -0.23717152 -0.20757228 0.04449909 0.3415013 -0.012454664 0.112925105 -0.76031834 -0.63845336 -0.04235992 0.038449854 0.1105464 -0.30497268 -0.23286586 -0.3669565 0.46098515
1078 0.042120684 -0.47457597 0.63488203 0.41747144 0.671397 0.42176685 -0.26418644 -0.08530365 0.07398947 -0.09599223 -0.46052706 0.10062057 -0.53715175 0.3497877 0.1489434 -0.17513521 0.04807878 0.4675816 0.30675772 -0.09755149 0.05956908 0.2321543 0.3922027 -0.25692913 -0.2709863 0.14185546 -0.15523916 -0.3272041 -0.0980718 0.12318816 0.30028865 0.031057104 -0.20231062 0.43389395 -0.23800285 -0.03727226 0.55471873 0.22001764 0.499007 0.3506312 -0.052693468 -0.39508379 -0.2830646 -0.70903724 -0.46771407 -0.47203687 0.4589192 0.25807592 -0.01012901 -0.25117123 -0.18587174 -0.15882702 -0.20209022 -0.4403068 -0.2987762 -0.49409965 0.053774934 -0.20787846 -0.06659584 -0.26891053 0.30806354 0.010690392 0.3316342 -0.1560297 -0.032676198 -0.23281415 0.16141142 -0.64132464 0.31304047 0.24894352 -0.54212594 -0.050373744 0.19798595 0.02315334 -0.036671568 -0.7806961 -0.16509137 -0.09193553 0.36696196 0.22031413 0.5264634 -0.6970024 -0.012412442 -0.064971015 0.42174345 -0.041733157 -0.3703337 0.05870429 -0.06126308 -0.25864047 -0.14407592 -0.22922355 -0.31510952 -0.3971169 -0.08804251 -0.15497398 -0.06484898 0.39361358 -0.2041433 -0.15334606 -0.24810869 1.0187572 0.1870375 -0.50106764 0.4799221 0.78827894 -0.51193446 0.63528764 0.32861334 0.11383234 -0.5841615 0.43634072 0.3873819 -1.1756876 0.6305235 -0.11009232 -0.5308807 0.12241094 0.028183604 -1.048573 0.38117963 0.21993653 -0.13192146 -0.116346665 -0.025807193 -0.046960566 0.77635425 0.7764225
3221 -0.12512894 0.03854606 0.06919123 -0.0058266656 0.1650602 0.3983211 -0.3191261 0.68511087 -0.08693329 0.2950288 -1.0847863 -0.44259804 -0.2314002 0.16795601 -0.21038876 -0.19124323 -0.24268222 0.46794096 -0.18235639 -0.2666974 0.47771797 0.36394873 -0.55380577 0.12572038 -0.5091792 0.3253002 -0.63872457 -0.3596481 0.43773797 0.48427466 -0.22675994 -0.016751286 -0.18122494 -0.5842089 -0.3520791 0.0926549 0.13496391 0.17337464 0.4886545 -0.013312626 0.55581325 -0.7594664 -0.051551413 0.16258867 -0.5682708 0.054534134 0.30085635 0.10992303 -0.23539299 -0.40478995 0.41928735 0.32008502 0.36756244 -0.16224693 -0.20038414 -0.01992558 -0.025108643 0.0037222793 0.45366624 0.2700808 0.030369185 -0.21479334 0.27538797 0.38925412 0.107295826 0.0992341 0.113025814 -0.45817366 -0.2218962 0.15058172 -0.37922278 0.38560128 -0.23922458 0.22808196 0.29963046 -0.11992976 0.26717788 0.43691796 -0.05670693 -0.113298275 0.4111027 -0.61921644 -0.6098547 -0.48480392 0.44645324 0.317481 -0.8436264 0.037424117 -0.25339136 -0.14470926 0.013408688 0.6061243 -0.6662002 -0.25376534 -0.28742248 -0.16037622 0.18679947 0.18934666 -0.17959382 -0.12672171 -0.40073052 0.41890693 0.06494519 0.05525802 -0.53772134 0.37317634 -0.20248623 0.53387564 -0.31825715 0.8656353 -0.2873182 0.33898747 -0.073762216 -0.40024072 -0.08158305 -0.33827245 -0.77487516 0.061587602 0.57429874 -0.6903479 0.3761226 0.43763873 -0.55317146 -0.5469526 -0.03482619 -0.35406423 0.61683667 0.6270866
18856 0.07725629 -0.48160872 0.58438015 0.441583 0.48554567 0.40257385 -0.35186252 -0.16778374 -0.05875573 -0.04251246 -0.26572073 0.059551593 -0.56312346 0.40232617 0.04265293 0.0835182 -0.017113872 0.80353445 0.35389304 -0.17928955 0.15129605 0.35099915 0.309137 -0.4056977 -0.016709333 0.17752394 -0.34784967 -0.39924172 0.34554318 0.07042384 0.37323508 0.23403676 -0.1532874 0.54749024 -0.21283755 0.12484102 0.70531046 0.11851285 0.3308043 0.43140763 0.3954264 -0.35597843 -0.094799 -0.6626358 -0.5634596 -0.23036376 0.09263147 0.29596806 -0.15051198 -0.39370286 0.22237709 -0.25482038 -0.2295179 -0.5257489 -0.26134583 -0.40859982 -0.07646551 -0.08867537 -0.04596964 -0.08664854 0.27908576 0.1332468 0.13067222 -0.3388022 0.20426323 -0.32197556 0.13333493 -0.48900896 0.26721427 0.09215831 -0.4457603 -0.065271586 0.13995947 -0.25906408 -0.018348241 -0.4812542 -0.17507023 -0.19545542 0.35873348 0.19092728 0.3459849 -0.38112184 0.028977014 0.058123123 0.59581506 -0.21215504 -0.47337636 0.07689729 -0.08916881 -0.27409253 -0.050381914 -0.13739759 -0.19796629 -0.48058143 0.090675496 -0.099930294 -0.027562236 0.50220746 -0.048050765 -0.12462175 -0.04969095 0.9431879 0.3958765 -0.3791559 0.4314621 0.6982717 -0.24780957 0.78389776 0.44531995 0.26389176 -0.5529777 0.45954338 0.29715058 -0.9022123 0.12995815 0.12235093 -0.71976274 0.18432003 0.111135855 -0.92862314 0.36742058 0.23839068 -0.063705824 0.0066100815 0.07186117 0.14324239 0.36610416 0.6564396
3731 -0.5153011 -0.7388781 0.26691845 0.30320773 -0.0632162 0.3883908 -0.098948345 -0.26782897 0.2487589 -0.6396383 -0.40912563 0.33344036 -0.4728374 0.3843329 0.17601034 0.33722293 -0.48299444 0.51773155 0.19779554 0.22078079 0.16651818 0.56226885 0.104104206 0.118154 0.07164565 0.15264325 -0.7203194 0.04501716 0.49661613 0.030225068 0.16032012 0.33464643 0.38806134 -0.118039854 -0.24103159 -0.39205286 0.394137 0.14146489 0.1302033 0.26720503 0.98991215 -0.27441642 -0.11279977 -0.24079122 -0.32958093 -0.022341495 0.14485271 0.17009221 0.70908165 -0.5658855 -0.11766187 0.03418443 -0.20567088 -0.22258264 -0.048851013 -0.6101182 0.10991651 -0.4753316 0.13198368 0.21332388 0.15139589 0.086169094 0.3998106 0.15364163 -0.26439297 -0.32578397 0.31568232 -0.38549745 0.07413949 0.035281222 -0.3868124 -0.14051181 0.24192862 -0.22738212 0.24122243 -0.049890332 0.106924124 -0.012551188 0.33327106 0.33676955 0.34591308 -0.26433906 -0.1183655 -0.17958973 0.4047969 -0.1862897 -0.81076264 0.4420631 0.36813822 0.12795693 -0.34370086 0.21111478 0.1111512 -0.60706335 0.08456627 -0.38645336 0.023683148 1.0268085 -0.13899009 -0.040132176 0.018927071 0.78588897 0.2862951 -0.2976469 0.24675065 0.80829185 -0.19067682 0.6505287 0.48911458 0.9845816 -0.15474404 0.2602579 0.040925484 -0.45604974 -0.49610257 -0.079202496 -0.9178221 -0.2930563 -0.15449546 -0.4638484 -0.021227285 0.4519157 -0.060562875 -0.13625473 -0.11294917 -0.2862464 0.36249727 0.31730556
9582 -0.111826256 -0.528654 0.3592312 0.16954003 0.39267954 0.47079805 -0.02723363 0.30453497 -0.25995466 0.1987814 -0.56950027 -0.09878011 -0.17922182 0.20873138 0.37403473 -0.3575275 -0.07370145 0.52351373 -0.20545077 -0.11096099 0.17189188 0.4830789 -0.09831068 0.45512488 -0.43149912 0.2574336 -0.17629336 -0.6437671 0.2986999 0.06852706 0.054589596 0.094270624 -0.12730238 -0.086991034 -0.3292642 -0.08952561 0.50690323 -0.19984661 0.20743458 0.32033324 0.79061675 -0.15058662 -0.3395202 -0.496179 -0.68574125 -0.04710306 -0.072461314 0.32245636 0.31358838 -0.4315575 0.29158536 -0.0050007687 0.46699548 -0.35401604 0.1820269 -0.35821068 0.040425453 -0.5661563 0.401235 0.032874662 -0.014847684 0.31648353 0.35731256 0.574087 -0.11011666 -0.5816431 0.1914953 -0.4688716 0.23219554 0.33849594 -0.21626182 0.03968036 0.42490244 -0.12967277 0.06053462 -0.24752523 0.1661849 0.048417557 -0.045170948 -0.19060141 0.24752381 -0.5520407 -0.36476895 -0.1650677 0.3788124 0.08126507 -0.6961191 0.53049994 0.13388948 -0.18850203 -0.13297974 0.3670099 0.21702395 -0.3095192 -0.1686018 -0.01822479 -0.21353254 0.6195853 0.044185296 -0.14630875 -0.10849552 0.43540254 0.25612456 0.15412876 0.30187324 0.56636584 -0.14584772 0.5344485 -0.26083463 0.4556297 -0.40962917 0.4208183 -0.10447649 -0.6251857 0.09976007 0.03544164 -0.35740277 0.043677002 0.28847072 -0.7115451 0.0132110575 0.11158168 -0.42520982 -0.19023462 -0.23908536 -0.40629235 0.38732314 0.47563723
12496 -0.12823819 -0.544806 0.45017427 -0.028088998 0.017367449 -0.2558683 0.31775603 0.3954802 0.1276825 -0.31878778 -0.73226583 -0.088643506 0.20571475 0.10215655 0.46889305 -0.3463401 0.20245586 0.21877502 -0.3828115 0.16573294 0.33049256 0.66219914 -0.20851128 0.28337556 -0.13811184 0.23279192 -0.102609135 -0.49365398 0.6000042 -0.13264774 0.023545943 0.24771136 -0.053595398 0.4826841 -0.28884032 0.04314268 -0.11076031 -0.3775027 -0.42934927 -0.31189388 0.16664658 -0.50287646 -0.4705282 -0.24986975 -0.25345775 -0.056032576 0.11188458 0.0037793287 0.33817774 -0.15498605 -0.097375154 -0.24845624 0.6661134 -0.24488911 0.10312595 -0.14685012 0.43506214 -0.30165514 0.6427237 -0.2533915 0.15963902 -0.081014514 0.24388126 0.08470159 -0.258897 -0.4724948 0.19844073 -0.017151631 -0.0063468255 0.7761282 -0.43577418 0.37775096 0.0005238434 0.3226448 0.015386904 0.010340188 0.20118925 -0.0026390697 -0.6123612 -0.2902698 -0.029772257 -1.0968442 -0.111956194 0.0074839913 0.7207249 0.08175803 -0.8488067 0.27318868 0.4774006 0.1398183 -0.3199567 0.066012 0.082370676 -0.5197957 -0.419481 0.06024177 -0.3104556 0.89439666 -0.15315275 0.37753773 0.022283342 -0.11272006 -0.17785329 -0.29017922 0.35143816 0.20122807 -0.6362893 0.7102261 -0.029182827 0.23603426 0.24674328 0.5703961 -0.1706677 -0.551359 -0.1788135 -0.1733218 -0.4959261 -0.16927347 0.014680439 -0.39867103 -0.21935102 0.33997107 -0.2972008 -0.27864218 -0.20400211 -0.6065641 0.3870838 0.3308159
19384 0.033382326 -0.2604878 0.5162994 0.11015785 0.8526814 0.4498187 -0.006356341 0.5725749 -0.6380156 0.19133145 -0.36903483 -0.08247348 0.033006974 -0.07814389 0.18838222 -0.1119664 0.22674537 0.8517017 -0.15937419 0.0066843694 -0.32939956 0.66955876 0.26517126 0.18989451 -0.9079701 -0.222184 0.15562958 -0.0043765204 -0.5526759 0.20055012 0.03068973 -0.050002195 0.21089308 0.15376896 -0.48290634 0.48928916 0.2846716 -0.6172562 -0.19107783 -0.027055664 0.28784174 -0.14986834 -0.5769489 -0.65033233 -0.038311303 -0.036819037 -0.11015055 -0.090916686 0.01357894 -0.6333375 0.36185732 -0.20083794 0.34798327 -0.43810034 -0.061742064 -0.23470387 0.29893765 -0.13321184 0.2164544 0.035391785 -0.3447825 0.11965863 0.3139608 0.18236397 0.10262239 -0.047169745 0.09696352 -0.62679744 0.44176665 0.038495567 0.25671324 -0.19570582 0.62088805 -0.42342672 0.3887055 -0.8480143 -0.060902137 0.21797022 -0.41655913 -0.08500816 -0.08960099 -0.53942984 -0.16751413 0.0032089371 0.22548947 0.21489693 -0.7389747 0.5094509 0.31570867 0.009756 -0.14403626 0.7601376 -0.08156239 -0.25988176 0.14296553 0.55610985 0.20873022 0.035403676 0.7088812 -0.18659002 0.12671125 0.13621336 -0.13551278 -0.2261138 -0.10614395 0.3439826 -0.3096204 0.33027044 -0.82840466 0.28602353 -0.47206104 0.48660302 -0.068958275 -0.53644305 0.30889523 -0.03906722 -0.31179127 0.498617 0.05986956 -0.21976113 0.09716737 -0.0117581 -0.9799765 0.09861176 -0.34102446 -0.18648118 0.556768 0.6336244
10594 0.045436036 -0.5986461 0.31132066 0.13798726 -0.36318696 0.52188873 0.27348423 0.015485022 -0.3487548 0.19119802 -0.19183794 -0.24163148 -0.68308455 0.55453444 0.32036355 0.15513356 -8.151402e-05 -0.27761665 0.20743148 -0.33586714 -0.34455445 0.48731247 -0.39720362 0.2595578 -1.0422287 0.29307342 -0.4875386 -0.3036746 0.23552106 0.13431211 0.10425052 -0.6370731 -0.2588087 0.23450845 -0.2640484 -0.13391462 0.48426935 0.012467412 0.22568886 0.42446953 0.010446061 -0.28736445 -0.24970822 -0.601335 -0.017312206 -0.12450823 -0.3788227 0.22170916 0.5155204 -0.26089597 0.6177441 -0.11396393 0.5502547 -0.07198116 0.25612378 0.37367547 0.32878622 -0.6676535 0.19484341 0.1353866 -0.08067613 0.70735043 -0.060055494 0.17117672 -0.052759536 -0.27181134 -0.08021074 -0.5688426 0.26892683 0.05758017 0.11032678 0.039847497 0.16845925 0.58022237 0.29936796 -0.65344274 0.037759434 0.49961436 -0.13706625 -0.43735605 -0.19873601 -0.54197484 -0.38299063 -0.2747372 0.33445656 -0.20446168 -0.87868077 0.5585713 -0.38318378 -0.94434226 0.17615269 0.11398529 0.009044553 -0.39718574 0.36268726 0.03660892 0.18851098 0.3554452 0.12057794 -0.35850704 -0.23996715 -0.13891065 0.3259271 0.61726964 0.1475928 0.08321307 -0.28846794 0.15848815 -0.4117367 0.1439662 0.4123473 0.5254746 -0.41231975 0.0065190885 0.25578454 -0.009144247 0.16260679 0.31241015 0.07338538 -0.7825378 -0.45252985 0.3061072 -0.72366714 0.14046623 -0.19771408 -0.22787397 0.70558435 0.059311073
14996 -0.10193879 -0.39871556 0.5571791 -0.36671516 0.102205805 -0.4237194 0.1752765 0.53161526 -0.012927793 0.365643 -0.7824134 -0.15014915 0.21606615 0.19058646 0.32928565 -0.25903967 0.3427709 0.35333535 -0.6050066 0.16008468 0.24505624 0.39273438 0.059111953 0.10419207 -0.1871897 0.33832502 -0.36846954 -0.46085057 0.38447297 -0.25234646 0.036219686 -0.1049704 -0.28296864 0.109839186 -0.28941122 0.0759986 0.21245699 -0.4964116 -0.41449213 -0.2048408 0.31827408 -0.6500742 -0.46735787 -0.39247176 -0.51865953 0.12522101 -0.1927904 0.23396017 0.1006726 -0.10069788 -0.11156204 -0.115639135 0.7705505 -0.20313665 0.30444503 -0.07710144 0.46814093 -0.39793283 0.7659064 -0.3409945 0.09234318 -0.045591135 0.06208573 0.24400052 -0.12928823 -0.6963166 -0.039417002 0.19414227 -0.062154315 0.3597242 -0.11184045 0.42346612 0.31522018 0.20922035 0.14323825 -0.0101657165 0.12503137 0.04863576 -0.7240118 -0.41473946 -0.032641605 -0.91550976 -0.16315389 0.21172087 0.49109173 0.2999336 -0.94403327 0.20816082 0.5096108 0.06974206 -0.6021363 0.41203895 0.2058299 -0.6757137 -0.22686134 0.37870553 -0.39917305 0.27926552 -0.17512389 0.2838671 -0.26032427 -0.1093995 -0.37062213 -0.2657475 0.2648224 -0.11711544 -0.44557592 0.66959417 -0.22043648 0.40314132 -0.037496112 0.6216447 -0.4530626 -0.60045725 -0.22369055 0.06979571 -0.26772636 0.09995684 0.19824006 -0.5418385 -0.1344753 0.028170412 -0.24703103 -0.4237656 -0.7494086 -0.41891524 0.16438444 0.15520072
15717 -0.47963837 -0.12967998 -0.12699234 0.18979278 0.031199802 -0.1397249 0.14921857 0.10640386 -0.06933375 0.34771287 -0.3061197 -0.3160378 -0.06266658 -0.42842537 0.37459666 -0.19472137 -0.54049826 0.64419127 0.2052317 -0.099840105 0.74333894 0.29186824 -0.54483235 1.0302526 -0.0043018917 0.8026532 -0.15178744 -0.7960858 0.012487692 -0.12197418 0.14772293 -0.49528465 0.1983191 -0.7589737 -0.3852587 0.2669502 0.24552049 -0.2528132 0.071051605 0.009380889 0.6404365 -0.061139118 -0.061220694 -0.97530335 -0.14696823 0.51237327 -0.40656638 0.09246022 0.43381917 -0.69694316 0.22772685 0.75959295 0.63687104 0.011561125 0.07318593 0.15275763 -0.46607396 0.04194107 0.19122244 -0.09849265 0.010621599 0.003448157 0.09421879 0.53411794 -0.5235639 -0.40937763 0.8856782 -0.3363059 0.069545455 0.583105 -0.07584063 0.06880411 0.26812723 0.36819425 -0.65691197 -0.29810327 0.15817986 0.13825543 0.38424447 -0.23516458 0.114603356 -0.20374693 -0.91642857 -0.091404386 0.04017456 -0.087271854 -0.30013558 0.5856565 0.21022308 -0.19529153 0.15940477 0.25840658 0.3303541 -0.055778496 -0.40067428 0.39930272 0.23204605 0.3515354 0.46637392 0.31313926 -0.64916277 0.63687396 0.29277265 0.49045038 0.033144284 0.5008325 -0.11244929 0.37261844 -0.21843353 0.0633125 -0.121129006 0.07377219 -0.22523491 -0.7845818 0.31117752 -0.74490863 -0.45381638 0.027288029 0.29728428 -0.7720633 -0.18409823 0.21498312 -0.41986352 -1.0594277 0.06630495 -0.39062122 0.6814842 0.40171462
10007 0.11591956 -0.4529583 0.6640975 0.5296027 0.63100904 0.3004932 -0.27088 -0.110562526 -0.024025131 -0.03870469 -0.25042105 -0.0017688358 -0.51423854 0.2569548 0.11932531 -0.22924295 -0.07091683 0.57628554 0.30628058 -0.26138484 0.05161585 0.2802849 0.28633425 -0.08373417 -0.38991544 -0.0055859545 -0.2726792 -0.57089114 -0.08265749 0.032430667 0.23295902 0.06496924 -0.17535709 0.56016976 -0.16194947 0.06425689 0.6286335 -0.09132462 0.49215654 0.3839579 0.12627831 -0.48913276 -0.24850401 -0.5992354 -0.52186483 -0.40487328 0.26833132 0.36437047 0.014234361 -0.40395114 -0.028755244 -0.2210398 -0.23961306 -0.48570153 -0.21749783 -0.35953346 -0.13983887 -0.1685151 -0.14218307 -0.23488903 0.210247 0.028789122 0.37175035 -0.09611882 0.14124833 -0.36172077 0.30617028 -0.650063 0.37365234 0.41734484 -0.50584257 -0.04656819 0.15743044 -0.15816952 -0.155864 -0.6494119 -0.121626735 -0.28800318 0.42422783 0.25861207 0.41597238 -0.5960451 0.2283704 0.0065921163 0.48525104 -0.029783387 -0.43933746 0.089147374 -0.16031109 -0.33937222 -0.05475463 -0.19598398 -0.20314659 -0.34955466 0.019325798 -0.00021129238 -0.15590611 0.5037576 -0.034493893 0.042668875 -0.22852542 0.89299464 0.20688443 -0.5415212 0.4901467 0.84351444 -0.39412293 0.8239569 0.24873477 0.045381468 -0.5889118 0.556023 0.3928571 -0.9078389 0.62732714 0.003534368 -0.5140545 0.12913822 -0.08542945 -1.0539753 0.26005927 0.2888075 -0.22290549 -0.028745763 0.018840238 -0.111345775 0.7728132 0.73315716
7833 -0.4319935 -0.09743609 0.5957814 0.036246512 0.28603414 0.55693334 -0.066769846 0.50140214 -0.46437263 0.8395939 -0.36176398 -0.01775648 -0.48130327 0.29257056 0.420788 -0.598942 0.26906225 0.40081334 -0.8516886 0.15902478 -0.16771942 0.7662907 -0.19413058 0.37694424 -0.69025075 -0.15229638 0.070593536 -0.33257088 0.30203956 0.06650215 -0.5712934 0.28140992 -0.7854752 -0.597456 -0.47760087 -0.25549752 0.08548801 -0.22821462 0.5570793 0.43792397 0.25961885 0.18767075 -0.3697931 -0.055320002 -0.51860017 0.2544595 -0.25005496 0.25453174 0.17864935 0.10543125 0.6583553 0.5789 0.23634778 0.0733559 0.032552443 -0.42371315 0.10550685 -0.28177485 0.35051525 0.58161306 0.0056546833 0.20145606 0.64441967 0.6288672 0.70851904 -0.8280884 -0.075661615 -0.5683205 0.0023469047 0.4549476 -0.1934386 0.5742133 0.105625845 -0.3219311 0.33632728 -0.63319165 -0.52630216 0.09097446 -0.18171604 0.008578661 0.0318413 -0.14463253 -0.22259696 -0.14177676 0.58083653 0.22715601 -0.2753006 0.6483042 0.10482334 -0.112704635 0.36237895 0.20494807 0.10478268 0.04459196 -0.5345923 -0.27681574 -0.13210443 0.33187583 -0.7462102 -0.08540941 -0.09513644 -0.0033278728 -0.017177902 0.14180078 0.42963195 0.77911747 -0.06306093 -0.043325525 -0.022038575 0.3803726 0.075259164 -0.035924114 -0.24064863 -0.5180593 -0.26419768 0.18046258 -0.28476086 -0.025610002 0.3234188 -0.20666544 0.35705155 0.10666228 -0.33465248 0.6053883 -0.34019405 -0.7405604 0.39971936 0.22459866
7108 0.16906863 -0.43096185 0.19171618 0.12401642 0.29254812 0.5909918 -0.122413844 -0.04131431 -0.17451164 0.08219036 -0.43284824 0.026853187 -0.8625368 0.44130307 0.4459849 0.3790689 -0.0871204 0.67598224 0.09300539 -0.22771369 0.12718366 0.584176 -0.26450127 -0.29407433 0.008630027 0.38324437 -0.13159184 -0.007872118 0.34817365 -0.18786016 0.013700846 -0.012338042 0.16969547 0.19316907 -0.41503504 0.44088143 0.87679005 -0.35517138 -0.22588556 0.2659126 0.8118044 -0.6929933 0.060994454 -0.54010934 -0.84162235 0.5450386 -0.19267918 0.048903942 -0.328076 -0.8312063 0.0905202 0.08536519 0.85797924 -0.51826185 0.035858646 -0.025118245 -0.14091562 -0.32098567 0.2107836 -0.4127899 -0.019483324 0.15393622 0.34803358 0.3860223 -0.08754924 -0.64912647 0.59555405 -0.09444067 -0.1649632 0.0022258419 -0.17443754 -0.12534401 0.43159577 0.09451024 -0.20149922 0.24399237 -0.0011729791 -0.014700373 0.013694225 -0.4278279 -0.114345536 -0.17937776 -0.34001967 0.32263562 0.4600744 0.14355905 -0.04195943 0.54285157 0.12495922 -0.18646996 0.15708871 -0.3704452 0.03356137 0.093647406 -0.167691 0.5674467 0.05175921 0.24043871 0.19625203 -0.123891175 -0.042530958 0.7036324 0.3390722 -0.29185292 0.28606123 0.27994028 0.4260996 0.51188576 -0.28182557 0.11271829 -0.29875222 0.3557351 -0.28425345 -0.41814184 0.01762208 0.3101869 -0.67247635 0.21680367 0.23106243 -0.55431694 0.207852 0.14855497 -0.1689119 -0.22304407 -0.061922852 0.0357062 0.071553744 0.41199058
16032 0.009610172 -0.16282853 0.033437926 -0.34761846 0.2300293 0.036859356 0.11596647 0.35570243 -0.35879183 0.7659349 -0.15130329 -0.29427725 -0.024755465 0.42593434 0.19890969 -0.046829853 -0.29723144 0.50811887 -0.7311245 -0.17359693 0.37436134 0.69303656 0.24714874 0.166099 -0.032101575 -0.0518611 -0.43936157 -0.117784314 0.3800291 -0.34489542 -0.04071017 -0.4036517 -0.47619888 -0.036878966 -0.4199206 0.32787356 0.11609847 -0.25026393 0.289093 0.033297405 0.08956093 -0.3577566 -0.49711144 -0.6680271 -0.6083224 0.34673622 -0.2368404 0.23771636 -0.1972205 -0.0013477057 0.28789166 0.614717 0.31741774 -0.3440241 0.59223074 0.12825756 0.13632233 -0.46012083 0.66769177 0.09533972 0.5100508 0.058973577 -0.15277316 0.5128461 -0.04613265 -0.6683398 0.24334127 -0.3108531 -0.004176643 -0.044777893 -0.13142648 0.30330965 0.5531269 0.4575549 0.56403357 -0.5841846 0.1891472 0.109451614 -0.059472095 0.26291195 0.2603976 -0.18507658 -0.15091461 -0.3863834 0.32751653 -0.08634879 -0.5244304 0.3967117 0.4677249 -0.2310181 -0.5407471 0.09709215 0.15622725 -0.21842341 0.23053627 0.2414365 -0.3927033 0.6612399 -0.46645963 0.46869338 -0.19562207 0.5478798 0.41714424 0.04311596 0.19465183 -0.053430345 -0.5155421 0.47559804 -0.4003061 0.6356872 -0.33275008 0.26535136 -0.6557967 -0.6820754 0.2707669 0.1969209 -0.4081266 0.3591164 0.19938226 -0.25895834 -0.061874248 -0.15270278 -0.6286897 -0.08310368 -0.32137626 -0.21855478 0.3162129 0.04393717
6653 -1.0520165 -0.44109535 -0.115021385 0.85488224 0.6032751 0.3836579 0.14768276 -0.13553192 -0.18467169 -0.32274958 -0.4019149 -0.08471527 -0.07083834 0.5977098 0.5104054 0.31974483 -0.23525503 0.8211457 0.1507232 -0.091254614 0.26045617 0.636526 -0.39210033 0.6547154 -0.54638267 0.16386443 -0.41043243 -0.6579037 0.41561466 0.13934992 -0.390547 0.14152656 0.25249717 -0.49809882 -0.29913026 0.21144804 0.10667441 0.3310064 0.4013255 -0.095807865 0.49060613 -0.4722278 0.07909772 -0.191821 -0.5497769 -0.28914633 0.39644265 0.060127225 -0.00077320484 -0.564645 0.20316376 -0.17614828 0.51446164 -0.92834294 0.3874035 -0.82602674 0.55865955 0.010313065 0.28515777 0.1626035 0.13262546 0.05117341 0.23166977 0.23068248 0.32848528 0.15548305 -0.040500116 -0.014412137 -0.22426936 0.59537596 0.035346247 -0.044252463 -0.3390118 -0.45356575 0.15986283 -1.0126303 -0.48087615 0.11386255 0.15365288 -0.4784141 -0.076824985 -0.015197804 -0.5868764 0.19893436 0.04158565 0.76794213 -0.6975798 0.24209262 0.33678204 0.21255796 0.39350712 0.26203188 0.41055968 -0.85438675 -0.25828737 -0.7300361 -0.45967612 0.39382532 -0.29220706 -0.2677947 -0.30839193 0.9257789 0.58873296 -0.09728531 -0.00046387117 1.1071374 -0.5762577 0.34931126 -0.12055973 -0.12665717 0.039150655 0.39521644 -0.19845453 -0.3294833 0.1946602 -0.12330725 -0.6874343 0.29859585 -0.12618434 -0.43574423 0.19084807 0.23401228 -0.249842 0.15460598 -0.015339292 0.12956665 0.5411985 0.9558152
14493 0.22387232 -0.40891412 0.44960397 0.008251318 0.466812 0.8546915 -0.297999 0.09539998 -0.15055731 -0.2400215 -0.40824574 -0.2789175 -0.120346636 0.044894256 0.09160525 -0.39971152 -0.106585324 -0.45809942 -0.53715247 -0.10697516 0.15449134 0.37963828 0.024393024 -0.17377338 -0.525542 0.12874636 0.08649254 -0.6863853 -0.20059912 0.017734021 -0.0038608543 0.3066497 0.059834484 -0.07646943 -0.06286133 -0.27862665 0.18822107 0.050450403 0.28926232 0.5034265 1.0216228 -0.14790379 -0.23581152 -0.112938054 -0.8862218 -0.26834166 0.32192597 0.15398325 0.28326797 -0.14557052 0.39033413 -0.48975688 -0.032516774 -0.019828498 0.19580738 -0.5808439 0.051360674 -1.4907794 0.26892224 0.15448742 0.1284287 -0.15410906 0.6041553 0.5345607 -0.04200644 -0.78771144 -0.06369896 0.041559175 -0.08151254 0.34784508 -0.064161435 -0.25536788 0.33369875 -0.0056089633 0.15126121 0.025279652 0.30899262 -0.30945963 -0.30254892 -0.05961928 0.0028065047 -0.22898962 -0.17398252 -0.53352934 -0.024485314 0.15958297 -0.41644362 0.2068487 0.027518455 -0.42334718 -0.18115258 0.39914587 0.017989146 -0.17833544 0.014403293 -0.17183933 -0.3946945 0.77794665 -0.48266688 -0.114986666 0.04359082 0.07960379 0.24355572 0.23370574 0.45863461 0.0285595 0.21616538 0.23125781 0.19941068 0.12502444 -0.39809754 0.36665142 0.30865148 -0.19285047 -0.0475933 0.46437123 -0.3966688 0.07801498 0.5208074 -0.31836227 0.15578552 0.25949925 -0.039885 0.17855987 -0.1650439 -0.12110046 0.2605819 0.3354108
2414 -0.39205837 -0.7515994 0.36287037 0.35671067 0.042131774 0.4103206 -0.18592015 -0.2904053 0.2058766 -0.61334366 -0.3683267 0.29278696 -0.54068804 0.46737087 0.11578581 0.3112049 -0.3736978 0.5835989 0.28593186 0.1640413 0.1456136 0.5359541 0.18457152 -0.07274461 0.05213125 0.16762272 -0.701164 -0.017191933 0.471594 0.05522443 0.25651848 0.36342624 0.3372567 0.064393364 -0.26766026 -0.33216625 0.51307285 0.18904246 0.14704543 0.3346864 0.93646747 -0.30357888 -0.114388496 -0.3275537 -0.3686902 -0.0985317 0.16129325 0.2071602 0.55423105 -0.5606901 -0.030604376 -0.069272354 -0.25319466 -0.27937067 -0.10755335 -0.6247038 0.04524736 -0.46079552 0.09285525 0.14898777 0.2202475 0.09240487 0.33931544 0.010816256 -0.2244491 -0.38030607 0.27478614 -0.46404618 0.10067117 0.09066568 -0.422721 -0.17781465 0.23593153 -0.22364348 0.21088447 -0.11298525 0.07548781 -0.06255396 0.38932052 0.3784718 0.35634547 -0.33562076 -0.08262833 -0.16920313 0.47677436 -0.2888705 -0.794967 0.35592833 0.2615213 0.027846277 -0.3443841 0.13422033 0.055450067 -0.61519665 0.14571102 -0.33255947 0.04566921 0.99541265 -0.14640756 -0.057785146 0.0019552617 0.89415646 0.302798 -0.37977928 0.25988942 0.8337557 -0.17954542 0.71897155 0.5620233 0.88635546 -0.2795884 0.3128668 0.14915799 -0.5634968 -0.43030348 -0.047982726 -0.9302089 -0.1915211 -0.09218384 -0.6596989 0.050327774 0.4483468 -0.035030123 -0.08703182 -0.061139017 -0.2156492 0.36825877 0.386016
22164 -0.45119306 -0.21180734 -0.0628213 -0.108542904 0.3502563 0.36942732 -0.13998899 0.41072854 -0.48925138 0.6850434 -0.18470283 -0.47303244 -0.28951123 -0.011619125 0.27061626 -0.49701115 -0.16764943 0.40326115 -0.33392075 -0.2078736 0.18963487 0.5540669 0.1502802 0.21397172 -0.14365843 0.71174914 -0.6771901 -0.074486956 0.07291346 0.10515262 -0.13354531 -0.15515219 -0.26135582 -1.0392252 -0.24889477 -0.21089686 1.062841 0.51110667 0.47311753 0.2825671 0.431326 -0.19661136 -0.02247128 -0.8482902 -0.5905415 0.08889808 -0.1423649 0.07847109 -0.1994794 -0.5939396 0.14582701 -0.20009953 0.6439946 0.046023928 0.39961815 -0.24981578 0.011659909 -0.72998106 0.46274474 0.110885225 -0.070784725 0.16163129 0.32254332 0.9108811 -0.39189976 -0.44605812 0.040683173 -0.68461674 0.24397852 -0.5822868 0.2615901 0.039058935 0.28921866 -0.23457892 -0.048076622 -0.104275666 0.4999258 0.49259225 0.06594916 -0.36426607 0.64301085 0.08847781 -0.12763004 -0.16899416 0.22369806 0.15226372 -0.24230261 0.24335696 0.24261208 0.20076701 -0.052428402 0.6087502 -0.33385366 0.5752182 0.37394905 -0.47400123 -0.068264894 0.4904335 0.11696 -0.23760004 -0.3937201 0.61044663 0.07099925 0.2803236 -0.16076677 0.774543 -0.10689075 0.035748173 -0.82587665 0.16078229 -0.30454955 -0.04674255 -0.64515525 0.024506785 0.34975338 0.23659818 0.05561847 0.4588024 0.029202875 -0.31799057 -0.09874261 -0.36414707 -0.25869018 -0.8371635 0.048439916 -0.7136828 0.005333101 0.26892513
1617 0.1464111 -0.19858037 -0.18639873 -0.021831796 0.22503623 0.11984197 0.26350945 0.093789935 -0.09311354 0.40035054 -0.42337462 -0.1215179 -0.16139692 0.40909854 0.22732364 -0.0333624 -0.5942311 0.3109102 -0.5845524 -0.024954172 0.5568477 0.36592948 0.103625774 0.5398697 -0.31432158 -0.008131432 -0.54125106 -0.64524674 0.13518369 -0.24838701 0.3762276 -0.38287535 0.10223598 0.27763155 -0.34973392 0.33231595 0.11766825 -0.3778987 -0.06666781 -0.0014224944 0.13681215 -0.6965085 -0.25510848 -0.39803573 -0.61599827 0.44179735 -0.4074904 0.18222965 0.30235475 -0.14582972 -0.10279754 0.7020536 0.68169016 -0.34483817 0.28921184 0.23066741 0.17236964 -0.66211575 0.6838012 0.014123122 0.68618 0.25568068 -0.01949107 0.6825589 -0.26381347 -0.33130458 0.6644622 -0.11682343 0.1385923 0.5248028 -0.3407408 0.25763163 0.46867543 0.5024909 0.44663793 -0.4468146 -0.08646533 0.108922124 0.13130574 0.42972195 0.2079413 -0.22514385 -0.36973718 -0.22945178 0.39064264 -0.27965793 -0.5614202 0.54800606 0.52275133 -0.35274976 -0.25586495 -0.19858006 0.37338224 -0.5393364 0.32204044 0.42685628 -0.50410527 0.43355933 -0.19807698 0.6404667 -0.027990198 0.6773476 0.5352814 -0.07335286 0.1709088 -0.10031267 -0.31098887 0.6785925 -0.33918956 0.4265767 -0.2231009 0.31724316 -0.39944637 -0.7750538 0.49580368 -0.039010946 -0.51476794 0.6190224 0.23433177 -0.5966667 -0.08502966 -0.02659714 -0.6661743 -0.115452416 -0.45206147 -0.21494961 0.47992533 0.18375802
17194 -0.012058188 -0.6129651 0.37943366 0.013202652 0.3606739 0.5234138 0.046014663 -0.051956426 -0.6898069 -0.15047579 0.04062958 0.24650769 -0.4073401 0.018405184 0.5005217 -0.8585636 0.09025666 0.6371383 -0.1842945 -0.27004898 -0.040176496 0.55970263 0.11480358 0.47411215 -0.07728437 0.017329441 0.6037294 -0.8329339 0.199764 -0.03647767 0.1452271 0.31589556 -0.016949695 0.06836684 -0.17530893 -0.033910464 0.49728274 -0.48712134 -0.1024662 -0.014748544 1.0253654 0.37494606 -0.35833335 -0.61777735 -0.082207605 -0.32821968 -0.6156246 0.59462434 0.62742585 -0.51065046 0.3923456 -0.3892695 0.27374673 -0.06419258 0.19568603 -0.21859981 0.06682032 -0.6971511 0.3949586 0.018935312 0.05407878 0.6903742 0.39556512 0.49507177 -0.1276677 -0.5445313 0.1443436 -0.37166262 0.83899605 0.028132644 -0.43347025 -0.4089975 0.37459707 -0.61691344 -0.147008 0.16329332 0.39012104 -0.02913542 0.1208211 0.20238085 -0.12597248 -0.53292066 0.27450895 -0.11088117 0.16528617 -0.14559022 -0.17158008 0.7149225 0.22802043 -0.12482264 0.34169745 -0.015770629 0.5516813 -0.17209305 0.060747396 0.49686164 -0.14677954 0.39641926 0.40330663 -0.22311093 0.32736996 0.70438045 -0.0066327336 0.12117012 0.8549391 0.85109067 -0.12441687 -0.09945265 -0.24144083 -0.012016363 0.081342265 0.40863383 -0.007270446 0.023244739 0.06823084 0.0464358 0.16760062 -0.05296156 0.18418759 0.20894414 -0.120804355 0.09491176 -0.47644725 0.22319911 -0.047128014 -0.2849484 0.23726998 0.14632724
19753 -0.1782369 -0.1880737 -0.21274064 -0.027933227 0.20854568 0.35468537 0.038498368 0.5345926 -0.18595599 0.05266776 -0.3728475 -0.17170246 0.085126825 0.09849494 0.7025499 -0.14032248 -0.094833545 0.63437355 0.1544801 0.2894754 0.13229202 0.42645568 0.26194966 -0.13081937 -0.15914167 -0.1926957 0.08255684 -0.47659743 0.17177165 0.25302365 0.24151954 0.013765115 0.0027958946 -0.090563014 -0.13207126 0.086595446 0.61634415 -0.16996843 0.37877083 -0.15598947 0.8111332 -0.47796255 -0.4606797 0.3446656 -0.87005204 -0.114719614 -0.075929664 0.107795306 0.15554729 -0.49359646 0.19951975 0.38342482 0.676973 0.14587513 -0.08747809 -0.5075436 0.21359895 -0.05033852 0.23000832 -0.23195703 -0.1947551 0.25033385 -0.283956 0.6586842 0.22854659 -0.61979514 0.25156894 -0.5180761 0.2435383 0.025578972 -0.14707358 0.0020660723 0.0582541 -0.47845992 0.49256077 -0.83938295 -0.21348937 -0.2570847 -0.63884026 0.24098359 0.3637193 -0.32136488 -0.40293366 0.31317946 0.42928132 -0.14754534 -0.7611714 0.47574568 0.39596578 -0.37606713 -0.60545105 -0.18293677 0.14684781 -0.26395348 0.4323978 -0.31614873 -0.34268197 0.6990791 0.37826824 0.00092020957 0.25290787 0.047549352 -0.4077191 0.1372721 -0.17556714 0.50937873 -0.020389589 0.307624 -0.49381974 0.08438482 -0.71853894 -0.019983731 0.09058682 -0.34250158 0.012037505 0.5579516 -0.4681916 0.24941735 0.3415475 -0.5660335 0.2599538 -0.025695583 0.029857984 0.31132257 -0.27665862 -0.43537772 0.6540337 0.42981604
18006 0.076383084 -0.81275314 0.5611913 -0.2161639 0.29217994 0.5551905 0.050225567 -0.15734911 -0.6472475 -0.5347304 0.20200081 0.14091195 -0.14130268 -0.030503644 0.4531236 -0.5310538 0.2936133 0.2949927 0.22350878 0.020943584 0.12180772 0.31933954 -0.10634217 0.91647613 -0.38515455 -0.082882136 0.6829439 -0.6526667 0.4617285 0.3197748 0.04794035 -0.02561961 0.25837192 0.03769499 -0.107719816 -0.26694024 0.40670785 -0.36693084 -0.15156189 0.44594708 0.9952529 0.6538567 -0.44931105 -0.6435453 0.0048158653 -0.12403374 -0.48407522 0.24435899 0.12803459 -0.54848665 0.074637584 -0.47116783 0.29968223 -0.2724305 0.10003439 -0.3993322 0.019067615 -0.38841024 -0.0049684397 -0.29388416 0.14427818 0.55259067 0.3845171 0.4046438 -0.050413493 -0.3973444 -0.16582355 -0.43100274 0.72809255 0.28274772 -0.30080003 -0.47683963 0.3964294 -0.41486248 -0.35654318 -0.20095122 0.607342 0.19424455 -0.2633421 -0.094100505 0.051761884 -0.3925902 -0.045710377 -0.4414779 0.529981 -0.407795 -0.4522938 0.7839378 -0.29839996 -0.14922425 -0.028665857 -0.0938346 0.54866034 -0.13432914 0.3476702 0.2985482 -0.32097802 0.63932127 0.46598673 -0.2661702 0.4979995 0.16052006 -0.27698952 0.11636096 0.7478761 0.63317466 -0.24232098 -0.041229263 -0.18011077 -0.07659097 -0.29726008 0.48831 0.25485417 -0.045730617 0.31333384 0.16047199 -0.152604 -0.23002529 -0.068490356 -0.4487923 -0.4667833 -0.019854577 -0.36090955 0.12041644 0.1806135 -0.3428388 0.20637354 0.59160763
7887 0.039394055 -0.411554 0.15385443 0.5529774 0.5635803 0.4749511 -0.08646044 0.0047883163 -0.37907735 -0.064155504 -0.8813354 0.45070916 -0.13816729 0.3706984 0.009606576 -0.11753588 0.14027844 0.39268357 -0.03618237 0.05334519 0.33847398 0.36235946 0.37250867 0.09534467 -0.40175247 0.081987105 -0.3313787 -0.28129628 -0.41053918 0.10571178 0.12590016 -0.061094243 -0.020791613 -0.19357839 -0.23443057 -0.57169336 -0.12242049 0.3592172 0.035786897 0.50628865 -0.1622881 -0.052794956 -0.16601057 -0.65368277 -0.20977473 -0.42172822 0.40405196 -0.17054638 -0.055607323 0.027335314 -0.07885139 0.3952315 0.39362353 -0.6387373 -0.16372591 -0.39117995 0.59415287 -0.40103382 0.22121559 -0.04163269 0.35612112 0.08082454 0.25108546 0.36597914 -0.6235432 -0.12797982 0.15750654 -0.5238951 0.2953438 0.4289256 -0.027378429 0.023600604 0.23110656 0.5226379 -0.26022965 -0.2998279 0.01276671 0.33107802 0.2436526 -0.010782678 0.7130238 -0.84359336 -0.69356644 0.058422256 0.16117555 -0.03413821 -0.42162216 0.24668989 0.1437938 -0.26445886 -0.06617467 0.095024556 -0.17528754 -0.21247159 -0.43162555 -0.028985968 0.057684485 -0.096009195 -0.301201 -0.62306696 0.00076683884 0.58335406 0.09829681 0.032395955 0.03515433 0.29380375 -0.21525268 0.016523667 -0.1097414 0.54320496 -0.22291358 0.10562486 0.048540585 -0.9177867 0.5987332 -0.23535137 -0.36001334 -0.057301696 0.3102187 -0.7985451 0.0192648 -0.0026831124 -0.20818658 -0.35360098 0.039102864 -0.29243556 0.45863232 0.51849264
21251 -0.050423175 -0.4265131 0.18817303 0.47086477 0.1456366 0.54862624 0.08614327 0.08339552 -0.37308553 0.24431601 -0.41732252 -0.0021921382 -0.008565107 0.26863167 0.07868435 -0.22367345 0.15559296 0.85710835 -0.4194458 -0.20294647 -0.06701833 0.22014992 -0.03951408 -0.6179654 -0.20889527 -0.38321 -0.29865235 -0.17038038 0.37894663 0.07469451 0.4464833 0.023141343 -0.34898642 0.35130626 -0.10389603 0.023619087 1.0991324 -0.3300499 0.013007772 0.33006063 0.36932772 -0.19395016 -0.10693015 -0.5346934 -0.68799657 -0.108442456 -0.4203553 0.68040365 -0.31099194 -0.07943522 -0.019391285 -0.20462713 0.5147816 -0.28043947 0.0008711246 -0.3415817 0.34328806 -0.029908013 -0.28291583 0.1308493 -0.3586096 0.34448418 0.29445493 -0.05262361 -0.12891671 -0.2949203 -0.32671326 -0.29063693 0.38818693 0.09125947 -0.3181348 0.41576546 0.16733539 0.13717538 0.4165389 -0.34201717 -0.16214718 0.23901403 0.34923956 -0.43529916 -0.027674338 -0.11903684 0.021928223 -0.023468073 0.5857261 0.29116526 -0.6544337 0.40227172 0.20998234 -0.16281253 0.23264748 0.38614285 -0.07626382 -0.1385437 -0.43914503 0.02887388 -0.22257288 0.6903133 0.14643937 -0.63889205 -0.045871925 -0.117114775 0.29992843 0.117483504 0.096447945 0.20975645 0.13444667 0.56490195 -0.04454854 0.40719628 -0.59246564 0.081410095 0.010918962 -0.7436894 -0.23815298 0.10684126 -0.026611686 0.045969788 0.33905715 -1.0995414 -0.09046123 0.04669892 -0.07121663 0.069500595 -0.0883311 -0.18325618 -0.6084885 0.5846286
11244 -0.091270596 -0.54216474 0.39445704 0.048735686 0.17254318 -0.09906582 0.19342604 0.43932992 0.11318211 -0.2951466 -0.6482734 -0.16411766 0.0952523 0.28266305 0.5354224 -0.3360468 0.25969335 0.3387172 -0.451206 0.14251001 0.332546 0.8651971 -0.21264873 0.23852937 -0.10507687 0.23491433 0.12503017 -0.3225906 0.56625223 -0.014179279 0.18981159 0.2817971 -0.038664624 0.59487057 -0.38657144 0.2710714 -0.049876936 -0.038232997 -0.30784422 -0.40670285 -0.025296336 -0.4557886 -0.417249 -0.21322645 -0.1758335 -0.08958299 0.13181068 -0.0021595135 0.26798508 -0.1598117 -0.025755882 -0.21149576 0.5744509 -0.13300659 0.059317686 -0.0862755 0.43953454 -0.31930494 0.5659378 -0.20155886 0.15169837 -0.10963798 0.3559217 -0.023104789 -0.3436179 -0.50480205 0.1434152 -0.30901277 -0.016078267 0.6457384 -0.4581944 0.44007063 0.06119013 0.38955668 0.04778572 -0.16723855 0.19230625 0.03267614 -0.5322153 -0.12881689 0.10465118 -1.0938522 -0.10663586 0.07360141 0.7886345 -0.07317379 -0.7286151 0.18878506 0.5468513 0.23440301 -0.19438414 0.012771593 0.0375272 -0.4424989 -0.39086205 -0.03363094 -0.37331006 1.1496458 -0.11853474 0.28454408 0.1237185 -0.09699701 -0.010641737 -0.19378656 0.35112718 0.29137212 -0.7347557 0.7478124 0.05737316 0.4007264 0.15630645 0.41012177 -0.20394798 -0.5971127 -0.023520881 -0.034499004 -0.620075 -0.14640917 0.08835444 -0.2927999 -0.099181235 0.5242975 -0.28941113 -0.39998585 0.027499136 -0.77863544 0.4615008 0.44737363
22316 0.47122356 -0.25565314 0.23039934 0.20850517 0.36010337 0.27870122 -0.10967275 0.09747414 -0.32732937 0.62987626 -0.37101743 -0.2332402 -0.6603838 0.42738637 0.24274102 0.20739688 -0.073821716 0.7230185 -0.14245431 -0.19641234 0.38945997 0.69889915 0.2808469 -0.32221955 0.059837542 0.28421846 -0.30412453 -0.3628563 0.28820226 -0.14955132 0.3564713 -0.096205495 -0.10007751 0.38582078 -0.5019411 0.2757048 0.77360594 -0.112333834 -0.017172946 0.40924427 0.43955737 -0.55007815 -0.06224156 -0.6646076 -0.82556796 0.31394553 -0.44312316 0.11391422 -0.35634807 -0.2579748 0.3784663 0.12928084 0.5240769 -0.43009177 0.020784598 0.22111422 0.007837615 -0.5274238 0.428818 -0.11597762 0.3216156 0.21210364 0.056863938 0.24901918 0.10640959 -0.47103596 0.35020852 -0.22738454 0.096398145 -0.16989346 -0.1881963 0.17792515 0.38197142 0.016646814 -0.09137148 0.035560664 -0.36263433 -0.18899302 0.09415226 0.24308664 0.315131 -0.029135415 -0.18706413 0.3301083 0.585359 -0.17113848 -0.21220544 0.27646607 0.3622315 -0.21170005 0.0059812316 -0.28157902 -0.120156154 -0.0391569 -0.012467321 0.43991408 -0.20941247 0.110595584 -0.035271402 0.11258531 0.15932813 0.7275209 0.1771899 -0.08050499 0.4870228 0.07702106 0.14935802 0.57827675 -0.10163615 0.27481404 -0.3396621 0.16202861 -0.4922862 -0.47039557 0.18178514 0.42352703 -0.7486086 0.29853886 0.27164587 -0.5010941 0.21257612 0.13709155 -0.21069358 0.023919161 -0.12399648 0.15036732 0.06199438 0.3171266
4372 -0.6045222 -0.2650732 0.1199241 0.15637346 0.3201109 0.24907103 0.42085245 -0.759469 -0.5624809 -0.3130798 -0.28367686 -0.19682713 -0.6503598 -0.06275608 0.2700297 -0.24512152 -0.24598348 0.28225777 -0.24445695 -0.056826644 -0.03148582 0.19250445 -0.45764217 0.536344 -0.50553894 0.46857113 -0.41812605 -0.6139534 0.091578774 0.5694633 0.11748405 -0.4918584 0.10787177 -0.5790517 -0.18899304 -0.23873724 0.14704701 -0.17781492 -0.24598397 0.018682571 1.1056836 -0.61727536 -0.027165288 0.018596265 -0.13140018 -0.29039347 -0.24596438 0.4609254 0.87612087 -0.35688132 0.14269064 0.10213346 0.8281864 -0.28107554 -0.24207826 -0.71153325 0.58755964 -0.5131694 0.2040073 0.10549295 -0.69769824 -0.09222418 0.54449147 0.6436631 -0.07346634 -0.42404035 0.0054586576 -0.46154904 0.53054917 -0.22869274 -0.06256479 0.15490095 0.1490204 -0.25059676 -0.15500706 -0.14592429 0.44963476 0.06504005 -0.24282111 -0.6057786 -0.17960773 -0.11078423 -0.40921617 0.16641638 -0.11898661 0.35686484 -0.34495476 -0.13600177 0.39232922 0.09636117 0.06776528 0.80690175 0.24529982 -0.5701404 -0.44706273 0.17282116 -0.1981784 0.65052545 0.4606933 -0.926829 0.043136932 -0.07723605 -0.40590194 0.5024549 -0.19736719 0.7362347 -0.2244015 -0.035488237 -0.12269707 0.4060652 0.08967305 0.4831738 -0.043835614 -0.026815204 0.14770432 -0.56631297 0.036638327 -0.27848676 0.2218857 -0.43988207 -0.35183182 0.40609336 -0.3472139 -0.3411194 -0.054869946 -0.82749087 0.37056383 0.50582653
8327 -0.22972135 -0.4890162 0.11435784 0.4685641 0.27826214 0.48743895 0.08834727 -0.19088154 -0.24965861 -0.24533096 -0.505048 -0.17557059 -0.16143169 0.070581 0.23209527 -0.7139302 -0.18086773 0.41098678 -0.08363928 -0.11464718 -0.37247652 -0.04653215 -0.23842876 0.34185472 -1.0190284 -0.56184083 -0.37892514 -0.9556505 -0.17540304 0.3759325 0.33402795 -0.13866867 -0.2873847 0.14985022 -0.00962665 -0.20742656 0.36626866 -0.21088327 0.50748193 -0.0042598606 0.071643755 -0.46453077 -0.07160222 -0.3172986 -0.104944445 -0.5109842 0.100817874 0.58904845 0.24026227 -0.06965105 -0.0905895 -0.15980777 0.19017693 -0.28812155 -0.14874573 -0.53145623 0.09994822 0.047543135 -0.3889626 -0.31089413 -0.116550915 0.15729167 0.5755492 -0.035954643 -0.102921985 -0.25771284 -0.29611486 -0.6906858 0.55603683 0.8197613 -0.28160742 0.18129991 0.07345551 0.4152861 0.016798789 -0.5996453 0.17015103 0.089000925 0.69221735 0.013449365 0.22143109 -0.24523212 0.12196471 -0.252394 0.35706106 0.16837175 -0.4526406 0.19349302 -0.33100253 -0.43139946 0.13670558 0.08985747 -0.17797756 -0.22436197 -0.062644154 -0.0045850063 -0.22521476 0.88949573 0.33231735 -0.32554474 -0.4354899 0.4183573 -0.14728183 -0.22598 -0.1228482 1.064239 -0.37441742 0.61621296 -0.39671934 -0.13121453 -0.4586066 0.35455468 0.44967866 -0.5816884 0.5218909 -0.5006891 0.24837957 0.06410159 0.08574936 -1.2994874 0.12120323 0.27073345 -0.57119215 -0.19372553 -0.085882045 -0.47484913 0.5109261 0.8363673
20617 -0.07823115 -0.42517722 0.34014395 0.21791992 0.37351722 0.4410112 0.0023909968 0.24018252 -0.21089043 0.13256371 -0.44930968 -0.05164528 -0.1285297 0.27656755 0.34026468 -0.29671553 -0.12081988 0.41645503 -0.25672626 -0.076023094 0.18573515 0.47828713 -0.0938238 0.36762878 -0.4381063 0.30951688 -0.13091442 -0.5343097 0.28045544 -0.0025454708 -0.018492742 0.12886837 -0.076597296 -0.14890376 -0.29242963 -0.06920785 0.44929972 -0.12892596 0.14086372 0.32895982 0.72043085 -0.19201711 -0.29738992 -0.43050537 -0.5214801 -0.023029618 -0.08673304 0.26104623 0.27447307 -0.3996702 0.2556414 0.034773704 0.46191183 -0.2917739 0.13335507 -0.25547794 0.09807906 -0.5919022 0.33325973 0.053822853 -0.0007673361 0.31007987 0.32846528 0.49621546 -0.15641521 -0.63418466 0.13878927 -0.39673337 0.18634844 0.3460606 -0.16801032 0.058230434 0.3428135 -0.09948357 0.08115719 -0.1972904 0.15709645 0.081541546 0.010372126 -0.112036645 0.18520412 -0.5033351 -0.3312671 -0.18704079 0.37976372 0.049926497 -0.63642067 0.47626626 0.1914775 -0.21522677 -0.10595547 0.33903942 0.18524162 -0.33269387 -0.099309534 0.038501956 -0.1908962 0.6125494 0.022295104 -0.064953856 -0.18437606 0.41302088 0.19665524 0.13671365 0.25401327 0.5229604 -0.11243218 0.4616714 -0.28592974 0.4528243 -0.33935452 0.34556106 -0.058560573 -0.5885345 0.0830774 0.061194055 -0.32096556 0.061531253 0.20852368 -0.70664954 0.011283809 0.15834041 -0.4162839 -0.21316148 -0.21211141 -0.37346 0.3773966 0.43556124
2644 0.009689105 -0.30407846 0.47530365 0.7083931 0.58231586 -0.046202976 -0.21745771 -0.10269816 -0.35574088 0.13398238 0.1764784 0.24719422 -0.43386197 0.070206404 -0.29950464 -0.0875186 -0.25071186 0.5915527 0.22818603 -0.5661678 0.40068927 0.57024485 0.18223347 0.45009866 -0.69212705 -0.10775362 -0.8227553 -0.8829862 0.2698338 -0.15625128 -0.08135749 0.34565672 -0.06254345 0.4466939 -0.038320452 -0.08798455 0.4748913 -0.23309462 0.32033598 0.7565272 0.7402604 -0.1588152 0.006651028 -0.49656534 -0.60086346 -0.2197068 -0.04179318 0.52188224 -0.17426357 -0.66656876 0.45021445 -0.11806821 -0.32184178 -0.778156 0.3041134 -0.22353326 -0.06863761 -0.13706574 -0.111391984 0.11531655 0.012121148 0.16318716 0.26963162 -0.041414823 0.5354856 -0.35182655 0.57102305 -0.42199737 0.44781145 0.624104 0.15099844 0.0790345 -0.113650784 -0.8582375 -0.68424565 -0.09818629 -0.0717437 -0.48437816 0.14844301 0.030621175 0.38675237 -0.56264675 0.13328113 0.310409 0.39520237 0.08916919 -0.7432809 0.17609076 -0.29605037 -0.19541237 0.31285828 0.34054983 0.17804518 -0.43166652 0.1054804 -0.36026102 -0.04579697 0.30429956 -0.028270364 -0.09072065 0.06291665 0.5369843 0.5855854 -0.239434 0.27495596 0.54691225 -0.19150808 0.8454561 -0.015675252 0.21810251 -0.46532226 0.68346435 0.1543214 -0.42416796 0.5000253 0.06986398 -0.5171074 -0.021426223 -0.118443124 -0.8004963 -0.041800853 0.17286406 -0.26465496 0.10223131 0.3274461 -0.27510923 0.40310898 0.49596956
13272 -0.13983662 -0.13883828 0.09359915 -0.47426945 0.541077 0.28477922 0.039575893 0.45574957 -0.534299 0.8475407 0.009914517 -0.09357323 -0.31664613 0.021310428 0.1234801 -0.65064466 -0.07796476 0.44976386 -0.47637835 -0.41506836 0.13362458 0.593842 0.09433948 0.28314957 0.093268976 0.2861452 -0.44179702 -0.036511067 0.18879358 -0.05411967 -0.0997503 -0.1056757 -0.6719994 -1.1779369 -0.0056270957 -0.16222678 0.41358793 -0.22727345 0.430221 0.12977852 0.34219432 -0.0064741606 -0.37870345 -0.73110086 -0.39475757 -0.009244744 -0.33277416 0.019452374 -0.20306441 -0.09444314 0.3285029 0.29818097 0.39527416 -0.083509244 0.69996643 -0.014527292 0.00795485 -0.42053512 0.5180781 0.4665127 -0.09582875 0.17097954 0.12257142 0.92963034 0.043922048 -0.72875595 -0.007632444 -0.60821605 0.105586566 0.05928567 0.20393257 0.19020163 0.71494013 -0.0426994 0.18685934 -0.8155414 0.14059362 0.40950748 -0.062324297 0.159902 0.28541186 -0.004244858 -0.15268956 -0.39499953 0.1856243 0.13296162 -0.11525153 0.2903387 0.03774383 0.027811028 -0.25475785 0.3337067 0.11260881 0.08585163 0.13534991 -0.24275689 -0.18409634 0.6192981 -0.6291738 0.054001674 -0.22971322 0.25013912 0.17095883 0.20707728 -0.029090816 0.13904901 -0.39795354 0.11168333 -0.9479035 0.6707575 -0.046960723 0.18948115 -0.46250847 -0.4018601 0.07381301 0.19181281 0.198805 0.6241237 0.34817603 -0.25049317 -0.17418411 -0.28797984 -0.59351844 -0.4797313 -0.18456703 -0.7881576 0.08213036 0.13807674
22015 -0.69743973 -0.15810691 0.11561438 0.25550488 0.69693244 0.52542454 0.114576586 -0.018156305 0.0008745369 -0.3073294 -0.08141844 0.012120076 -0.14440383 0.016640536 0.5013549 0.014207825 -0.29395857 0.36497292 0.01125247 -0.23545313 0.067678705 0.24022049 -0.06619218 0.40949914 -0.6544986 0.25058928 0.132015 -0.66806895 0.2749475 -0.028117195 -0.25628078 -0.056790885 0.3182169 -0.1315171 -0.033353534 0.21778373 0.2594009 0.28031275 0.36577752 0.09750419 0.45583183 -0.19512449 0.008512224 -0.09535978 -0.32582325 -0.14586806 -0.075813435 0.058811657 0.028358536 -0.5997979 -0.032304347 -0.004560421 0.13595624 -0.375451 0.50638527 -0.35961723 0.23269674 0.032172006 0.20572668 -0.087724626 0.13298939 0.076141976 0.30525962 0.3173764 0.497735 -0.026044672 0.093133055 0.06742085 -0.08436146 0.3335124 0.3916498 -0.14256795 -0.01376972 -0.35763872 0.026934119 -0.5968564 -0.08700503 -0.19076355 0.19257055 -0.51257956 -0.034647718 -0.22385058 -0.38042766 0.06005581 0.11771186 0.5884182 -0.2899077 0.4488894 0.15258755 0.17112239 0.27526382 0.2885492 0.4757508 -0.49508357 -0.044028573 -0.7376321 -0.4996492 0.5569025 -0.09001129 -0.21855406 -0.22129044 0.6789262 0.27041143 -0.44181532 0.22644056 1.3044666 -0.5266448 0.2371576 -0.3989287 -0.23644863 0.019133046 0.5961173 -0.019605527 -0.24704245 0.7137907 -0.13172098 -0.25996572 0.10447061 -0.22438163 -0.46258035 0.16368909 0.08670886 -0.19498755 -0.020733874 -0.11900831 -0.13390867 0.793593 0.6661064
