1000 128
35008 0.047324855 -0.12566307 -0.110269815 -0.1749196 0.51190865 0.69807285 0.6014267 -0.23240282 -0.15501912 0.21867715 -0.17522036 -0.55349463 -0.41222447 0.08796345 0.7151544 -0.10483915 -0.87612575 -0.047670264 -0.31544062 -0.2909869 0.760003 -0.3650736 -0.38945276 0.07326659 -0.5660943 0.5826382 -0.44528073 0.14323501 0.24223462 -0.11481903 -0.033817593 0.09139793 0.41099605 -0.008511177 -0.34954494 0.1106507 -0.16667075 0.41135195 -0.050507862 -0.5889811 -0.14771977 0.102397405 -0.3518857 -0.571141 -0.06547139 -0.47509906 -0.29012394 0.205853 0.46583137 -0.08223849 -0.1758016 -0.24727306 0.21509379 0.28420714 -0.06534394 0.38155907 0.1712752 -0.19680877 -0.37331188 -0.46556216 0.046091672 -0.42631376 -0.18747441 -0.038445976 0.4669904 0.54168147 0.16154484 -0.112794645 -0.05961147 -0.04864271 -0.09052928 0.12360185 0.14357483 0.6076722 0.12608641 0.5285449 0.26226318 0.28807214 0.48808324 -0.38700107 -0.48707488 -0.13391453 -0.21735 -0.15565358 0.20387968 -0.24788722 -0.09095714 -0.14451014 0.01619343 -0.24590327 -0.12873158 0.27614865 -0.11158156 -0.28891292 0.24169108 -0.09700057 -0.56865126 -0.016784048 0.2883431 0.2191913 0.1384369 0.23232143 -0.19661513 0.24659562 -0.018218555 0.37967214 -0.2705514 0.5421255 0.43892846 -0.28232253 0.12257469 0.20951883 -0.37123904 -0.13896415 0.5686811 0.48442185 -0.32058978 0.6956943 -0.038866375 -0.1457446 0.24276485 -0.23320375 0.15520431 0.17985786 -0.5754289 -0.3741976 -0.13568571 0.28296754
6301 0.034773834 0.14269876 0.36046597 -0.29115337 0.70224583 0.754025 0.29991236 -0.5014663 0.48382875 0.36461893 -0.3189528 0.028207965 -0.043859273 -0.16842349 0.64286697 -0.17085226 -0.7060043 0.15542078 -0.28101093 -0.23871371 0.3306407 -0.1422687 -0.33575478 -0.46331173 -0.7810056 0.4163748 -0.5575147 0.12888594 0.55233794 0.22908682 0.07375894 0.33520624 -0.12940863 0.032738198 -0.124692604 0.46936393 0.017616551 0.38803998 0.07135369 -0.53398573 0.09774128 0.21687435 0.046569563 -0.4748491 0.021040747 -0.28818643 -0.18022163 -0.03492938 0.3297665 -0.25623327 0.5230667 0.10110239 -0.028460199 0.08764318 -0.20256248 0.3475458 0.3479409 0.23134315 -0.17656769 -0.5440821 -0.48993698 -0.39561749 0.00087015226 -0.23142383 0.56999075 0.084196195 0.15267506 0.08029496 0.17520462 -0.27618018 -0.2603395 0.044532716 -0.1245556 0.5358958 0.24356069 0.004492872 0.2272745 0.34544253 0.30636236 -0.09625146 -0.57870793 0.14125681 -0.3022805 -0.3489153 0.5972932 -0.09810359 0.011563765 -0.18519859 -0.11746188 -0.067000896 -0.022465702 0.41367832 -0.28623372 -0.63570154 0.24116947 -0.008426087 -0.3012345 -0.22263019 0.41984618 0.047151674 0.33293957 0.2936259 0.03875805 0.14554755 -0.13088137 0.50199866 -0.34814763 0.31472158 0.09654275 0.13957475 0.28601065 -0.096820675 -0.15056449 0.00989642 0.17511876 0.6378693 -0.56624836 0.61222965 0.18182209 0.17031412 0.1730894 -0.19158095 0.24390621 0.16995712 -0.2407091 -0.36178017 -0.3751931 0.28065148
37289 0.08991662 0.12682879 -0.24240775 -0.22094019 0.41233552 0.54286134 0.301581 -0.29283553 -0.39182422 0.69872236 -0.12622832 -0.38577273 -0.5603816 0.37242043 0.80600804 0.5023779 -0.11431439 0.10074488 -0.014469757 0.13095118 1.1091728 -0.19571832 -0.16820261 -0.0574917 -0.32738012 0.23456669 -0.56334734 0.121415414 0.086889066 0.06338124 0.14970206 0.004728615 0.44832724 0.049580652 -0.003731239 0.369964 0.23062927 0.56420195 -0.30796465 -0.17241159 -0.41409746 0.12689285 0.122697026 -0.35821593 -0.6540951 -0.34819975 0.046552863 0.63418347 0.21036406 0.42344084 0.19787718 -0.070462845 0.55755067 0.33551902 0.0228608 0.16620035 0.37623587 -0.34643558 -0.5397076 -0.5025742 -0.14703137 -0.49457586 0.11942385 -0.2745483 0.8035654 0.12489261 0.90069926 -0.42447993 -0.5081307 0.11750712 0.03351769 0.16097356 0.5396526 0.5388357 -0.083795905 0.72265685 -0.0060203685 0.37970394 -0.237926 -0.14354488 -0.008363287 -0.10944292 -0.81305283 0.08830244 0.22433229 -0.35057712 -0.21952966 -0.3349038 -0.20771773 -0.3071118 0.07172831 0.058781102 -0.44196397 -0.33896235 0.12152167 -0.20781934 0.0460278 -0.091975205 0.18332098 -0.35093823 0.29222214 0.13778487 -0.2061786 0.4611691 0.11835072 0.015729338 0.45547408 0.50548106 0.535016 0.0743708 0.06348407 0.05265535 -0.62025213 -0.52549976 0.063099794 0.5778542 -0.33322203 0.49181554 0.12085692 -0.395915 0.12446233 -0.049606558 -0.014906328 0.18280634 -0.6275521 -0.05564487 -0.6381314 0.2229035
34606 -0.19701307 0.08574588 0.5132386 -0.047836874 0.14349394 0.33891165 0.1567163 -0.34468204 -0.3126123 0.4111619 -0.057508584 -0.3253802 -0.13063256 -0.5237017 0.19672376 0.008514057 -0.55285347 -0.050596766 -0.5864137 -0.094838254 0.46913356 0.18344444 -0.3185397 -0.0067236857 -0.5796798 0.52931476 -0.21817824 0.17161407 -0.20411614 -0.036435768 -0.20408423 0.52671427 -0.04065922 0.28463453 0.2423994 0.22986652 -0.3477687 0.22574186 -0.2971434 -0.5798294 -0.38745382 0.5486545 -0.09153503 0.047130004 -0.4898472 -0.3583144 0.7706307 0.051433723 0.09031809 -0.19790946 0.6152577 -0.061468035 -0.120174415 0.12554283 -0.23973943 0.24403831 0.5109201 -0.5411467 -0.7525299 -0.06774815 -0.0025809756 -0.6572734 0.22781828 -1.0471573 0.72899646 -0.111248136 0.27756354 -0.1569962 0.045416627 -0.10082596 -0.35083658 0.41970903 -0.20967454 -0.025507243 -0.053567823 0.0908028 -0.31161 0.17619278 0.51818585 -0.46891436 -0.5803878 -0.3857109 0.15479118 0.109187424 0.4613482 0.3020062 -0.5500717 0.0769016 -0.50839955 0.45948786 0.04115895 0.46442947 0.29508114 0.080901064 0.48294455 0.12492984 -0.29230618 -0.5648325 0.6115375 -0.17010473 -0.2522386 -0.56939363 0.3060294 0.4350594 0.0007229916 0.27282885 -0.17951258 0.2914379 0.44843245 -0.28282508 0.057288677 -0.42637995 0.25935745 -0.09227394 0.24068666 0.37833154 -0.30452105 0.6911084 0.045030557 -0.5980949 0.023626588 -0.059399083 0.07532718 0.46867186 -0.51598907 -0.35861337 -0.205072 0.08602793
24350 -0.10280881 -0.09437077 -0.062539816 -0.45566902 0.24102327 0.4620202 0.2227844 -0.34403577 -0.37427652 0.41125378 0.08628306 -0.266209 -0.6211372 -0.06903995 0.6884674 0.015706629 -0.7184786 0.25910568 -0.20301081 -0.34024677 0.54834974 -0.49244478 -0.49470398 0.23155096 -0.5310809 0.90050316 -0.20979446 0.068216085 0.2001103 -0.31904507 -0.1718195 0.13039286 0.21641463 0.06002803 -0.19027244 0.64288265 -0.4312244 0.55941355 -0.31391206 -0.778836 -0.075583376 0.516114 -0.377447 -0.348216 -0.21399689 -0.69935155 -0.37227455 0.23586509 0.3714318 -0.1256607 0.15565494 -0.659004 0.19466619 0.516258 -0.18114026 0.3208353 -0.06823314 -0.40586624 -0.54367745 -0.09228446 0.02876329 -0.13067761 -0.25694296 -0.08770915 0.64969754 0.27118722 0.25383836 -0.093012154 0.057795584 -0.13090637 -0.09647774 -0.057555433 0.25008297 0.1664304 0.04156976 0.57202053 0.15235032 0.30211496 0.2939016 -0.4451908 -1.0261282 -0.29118413 0.011600389 0.016288577 0.06404761 -0.58328927 -0.0901436 -0.44617093 -0.19755183 -0.16160257 -0.11923217 0.36715373 -0.20239492 -0.17272669 0.55786186 -0.02504145 -0.5636719 -0.3022763 0.5712167 0.2670815 -0.008555328 0.31141075 -0.27183694 0.23928085 0.12449539 0.2340252 0.013765292 0.4496882 0.47731757 -0.29075158 0.2757587 0.102117576 -0.18277197 -0.39975536 0.4824052 0.33710158 -0.19618483 0.7371387 0.2826627 -0.16865006 0.38554227 -0.24861859 -0.15206301 0.21956064 -0.6945231 -0.39808643 -0.40929085 0.22920942
4333 0.2359074 -0.06126792 0.48699728 -0.25405028 0.5720968 0.8584841 0.060274832 -0.57116836 0.42701072 0.26994616 -0.003193862 -0.0042162957 -0.11031951 -0.045380376 0.28837207 -0.33748543 -0.64729494 0.014975584 -0.40753403 -0.38369596 0.46507704 -0.39855826 -0.28134346 -0.32982552 -0.7606493 0.5231434 -0.51421857 -0.044880223 0.23323362 0.054305438 0.023067305 0.5229259 -0.2804879 0.20305347 0.016551923 0.20452121 0.1767959 0.44762874 -0.13124755 -0.36559907 0.1095665 0.20103745 -0.022198746 -0.1936186 -0.3095977 -0.6135284 0.16240926 -0.044573285 0.057224613 -0.20353836 0.5193321 -0.016620262 -0.27725288 0.08661464 -0.12457998 0.31502113 0.58462244 -0.22006363 -0.16765201 -0.3857389 -0.29732734 -0.61712426 0.07167156 -0.20393358 0.27941602 0.1388459 0.32656786 0.22726387 -0.11565325 -0.35736397 -0.22046816 0.19610685 -0.05842742 0.64451647 0.33275053 0.066731155 0.17648694 0.3352724 0.14496912 -0.25745916 -0.6832477 0.0991913 0.03063838 -0.53494334 0.4382298 -0.013246937 -0.102361806 -0.25993457 -0.27481097 0.3116365 -0.14886223 0.35678244 -0.39430133 -0.642912 0.23014793 0.015711816 -0.3695222 -0.21209802 0.2490131 0.13770166 0.6147139 0.120844625 0.12919182 0.32052916 -0.112277314 0.3394697 -0.4411575 0.53259766 0.122877166 0.01871199 0.14443566 0.1494699 0.2548738 -0.3069656 0.06745317 0.5730274 -0.67634165 0.52660996 0.014992045 0.044563275 0.35826164 -0.26365963 0.19740976 0.20811126 -0.21285436 -0.26635596 -0.74372196 0.58523655
24711 -0.030199703 -0.28353485 -0.06400119 -0.022082299 0.39205658 0.6151358 0.45109224 -0.30942848 -0.04284627 0.042281453 -0.44237706 -0.66348636 -0.39050275 0.043843955 0.44454172 0.15625572 -0.6582714 0.08279449 -0.3687674 -0.056378666 0.61067367 -0.062145863 -0.1313358 0.11731427 -0.5234849 0.49808994 -0.2807993 -0.13056235 -0.0015557576 -0.2174937 -0.09503412 -0.09436573 0.2940982 0.3948416 -0.21405804 0.19437033 -0.12327359 0.4978253 -0.21004763 -0.43461147 -0.40039384 0.0062567373 -0.30153784 -0.5200504 -0.17397656 -0.5079886 0.016402448 0.22240622 0.24622726 -0.29437563 -0.43936074 -0.2540977 0.16158961 0.42073417 -0.19001994 0.54450184 0.1439401 -0.17935272 -0.49986735 -0.63080907 0.15785147 -0.51106715 0.029914644 -0.22949676 0.5110097 0.82411236 0.16093506 -0.32560402 -0.21161553 0.0120454645 0.045862302 0.05526113 -0.036529444 0.5829956 0.1561744 0.36275154 0.058122803 0.11254327 0.50079274 -0.46852255 -0.29767603 -0.27515912 -0.23821677 0.12141254 0.105865516 -0.078479856 -0.337121 -0.032370083 0.048117373 0.0865884 0.13272963 0.12414135 0.04906194 -0.19561113 0.53033346 -0.011226917 -0.7120607 0.012472493 0.008549449 0.33803385 -0.0054427367 0.051022455 -0.19233967 0.3810476 0.0415349 0.6563334 -0.31398112 0.42483503 0.31865785 -0.32297137 -0.20976503 0.17839459 -0.39091805 0.03631756 0.79938227 0.35073867 -0.28067762 0.40749484 0.027144274 -0.49072093 0.010877401 -0.20252936 0.0878387 0.38347676 -0.34156996 -0.19933283 -0.010244024 0.3835348
5315 0.0403603 0.24173796 0.17569606 -0.33125505 0.4603438 0.6497657 0.5561202 -0.26018065 0.09880861 0.1441706 -0.7887726 -0.3558206 -0.31957072 -0.47031036 0.939695 0.004856283 -0.84446687 -0.43660703 -0.2039035 0.09283464 0.22124858 -0.31644607 -0.6865139 -0.39574218 -0.63806343 0.7625853 -0.4149328 0.44701558 0.66594845 -0.02083664 -0.47099686 0.4069298 0.36680987 0.03801549 0.056481607 0.37438986 -0.0656736 0.5393598 -0.31571975 -0.4937835 -0.14590876 0.35473785 -0.38141197 -0.4408428 -0.07839763 -0.26524743 0.23991759 0.026941556 0.65582216 -0.12468354 0.06220388 0.02280526 0.52121514 0.64535385 -0.26980507 0.42784473 0.30702603 0.15593606 -0.4708574 -0.3458625 -0.3548074 -0.25430003 0.41133216 -0.3936229 0.19225523 0.38512316 0.14867632 0.021967957 0.09253135 -0.1874285 -0.24740009 0.036600202 -0.2931359 0.5124808 -0.12204469 0.2555764 -0.19722867 -0.17407274 0.43950316 -0.71677613 -0.27246612 -0.21843472 -0.3067273 -0.12754153 0.29964703 0.18214087 -0.37947068 0.02780042 -0.052533425 -0.33223537 -0.11138937 0.46700576 0.032482676 -0.17781039 -0.14194463 0.27149102 -0.48847026 0.14730299 0.5556196 -0.11317944 0.26614055 0.28868952 0.5803479 0.23865952 0.27351892 0.5034586 0.18593802 0.06917533 0.6407772 -0.14868437 -0.06961452 0.08626634 -0.33389524 -0.020199751 0.6600667 0.3715693 -0.24024555 0.51747954 0.078682445 0.24866739 -0.073138475 -0.56595606 0.40204445 0.019229585 -0.17583938 -0.34196877 -0.07934284 0.0052731233
1762 0.11594904 0.031688724 0.08273891 -0.18468568 0.7077719 0.70199794 0.57712793 -0.18963838 0.10494868 0.22705145 -0.4684564 -0.291447 -0.07952863 -0.24352029 0.65847504 -0.27118835 -0.7245652 -0.03604367 -0.2744359 -0.12959355 0.17958531 -0.28614622 -0.59065276 -0.37534967 -0.8084159 0.4121485 -0.37854022 0.35473707 0.51715004 0.09968328 -0.1144586 0.36394966 0.21035676 0.0055098096 -0.21625723 0.29229355 -0.13792096 0.38999578 0.05710382 -0.63501173 0.120441005 0.0741951 -0.15063064 -0.6846636 0.032363296 -0.28281078 -0.064178966 -0.012705219 0.6904586 -0.2227791 0.14026932 -0.08521328 0.31388205 0.059499167 -0.2946119 0.26091257 0.30280524 0.06569183 -0.08161713 -0.4565924 -0.21796055 -0.4571064 -0.0008192808 -0.043827705 0.46416825 0.31917003 -0.097325064 0.11805982 0.26533294 -0.01115746 -0.28413177 0.12560855 -0.07924503 0.47024322 0.17581144 0.13116498 0.24519975 0.039448746 0.5259518 -0.22290476 -0.44141594 -0.08080574 -0.3437376 -0.26931906 0.43442598 0.045471363 -0.25249013 -0.083269864 0.10268863 -0.41387734 -0.09624497 0.44360182 0.023258857 -0.42792645 -0.0343386 0.15364258 -0.37255234 -0.122006126 0.4980558 -0.060263295 0.14559647 0.26472855 0.07533574 -0.06292973 0.044914305 0.510079 -0.27324012 0.2746841 0.41154584 -0.02017358 0.17075132 0.11623293 -0.10360744 -0.0045168763 0.50944155 0.38915935 -0.42083734 0.6942488 0.10661538 0.18226188 -0.0028015925 -0.21954145 0.30344066 0.122154884 -0.28677237 -0.2694747 0.09648563 0.20049681
33138 -0.1969515 0.2517417 -0.099682935 -0.23567356 0.4026153 1.0847824 -0.31284732 -0.4830813 -0.25734147 0.4652554 -0.7953293 -0.42504582 -0.1573237 -0.40231892 0.73099464 0.17401113 -0.6726372 0.079069555 0.081306614 -0.11777318 0.20838885 -0.05474828 -0.42487723 0.21449284 -0.17580864 0.5544467 0.17794609 -0.01383297 -0.026243558 0.21115504 -0.23475902 0.022150248 -0.0027819413 0.1591072 0.15140386 -0.00721263 -0.6628137 0.6060145 -0.29968074 -0.3160958 0.056597147 -0.039922424 0.15624388 -0.11919659 -0.14940746 -0.3155539 0.61945873 0.17885147 0.14359254 0.22730273 0.27297112 -0.2048734 0.5362126 0.6043972 -0.26473102 0.48982713 0.1663803 0.20864156 -0.5029081 -0.3599628 -0.0465059 -0.28717175 0.45949134 -0.43103328 0.70920026 0.07814302 0.41086006 -0.37951207 0.069032334 -0.06038683 -0.1939154 0.2438435 0.17645197 0.4480867 -0.28005993 0.49423477 -0.17802037 0.7062036 0.1615802 -0.3200353 -0.27039275 -0.028440109 -0.33727917 0.28446332 0.20495878 0.13205363 -0.40795448 0.32887334 -0.23064998 0.12457798 0.09618982 0.10892904 -0.28498715 -0.15950432 0.04220854 -0.12604913 0.034398444 -0.05472577 0.5675975 -0.31579137 0.5394567 -0.09209674 0.057907403 0.30936164 -0.18305537 0.35445306 0.19323859 0.07915279 0.31333825 0.09169882 0.03150416 -0.28170767 -0.02393047 -0.49699855 0.2837825 -0.056580108 -0.43391883 0.43011478 -0.06051117 -0.12622604 0.13151582 -0.013069918 0.09718435 0.20487334 -0.44668087 0.11525927 -0.30378184 -0.21280204
28767 -0.11155361 0.15250514 0.40493453 -0.08114927 0.57076764 0.8272415 0.05356957 -0.6462276 0.42692295 0.5883506 -0.39039305 0.10790591 0.086399816 -0.29674616 0.7570436 -0.09233939 -0.37635458 0.37216222 -0.1952017 -0.06904785 0.24379244 0.10001409 -0.35199812 -0.4231049 -0.9246422 0.38383904 -0.42960116 -0.14539704 0.5296255 0.21935777 0.17684 0.334914 -0.36068028 0.17591394 0.078803286 0.5269181 -0.14735508 0.5208511 -0.03709036 -0.66825193 0.04244183 0.09051723 0.26335818 -0.45593268 -0.0059282887 -0.23598316 -0.22791198 0.119694464 0.24435715 -0.031726733 0.7098613 -0.08130127 0.08826721 -0.023711395 -0.17759486 0.34513208 0.24938056 0.3456332 -0.19487143 -0.6358303 -0.5697237 -0.4121022 0.16990238 -0.35259226 0.73842335 -0.19744521 0.23258539 0.13510226 0.22448334 -0.19986877 -0.3695753 0.056172617 -0.17139113 0.34895745 0.19293468 0.13207383 0.3213552 0.49728185 0.1366523 -0.07638303 -0.55110896 0.26459146 -0.41782305 0.05248968 0.6967951 -0.111356266 -0.08116489 -0.11401042 -0.34349865 0.09938926 0.05851338 0.2698998 -0.3776011 -0.7209483 0.59605134 0.10090073 -0.19372495 -0.32727945 0.62771034 -0.053651597 0.4249513 0.013580436 0.15899885 0.2124259 -0.072659574 0.49610546 -0.0799813 0.55186796 0.09535677 0.23884322 0.34174547 -0.23620968 -0.040593665 -0.18517074 -0.15251154 0.58181596 -0.51025563 0.56984913 0.12790361 -0.025105322 0.19756214 -0.011586519 0.33769083 0.0020170435 -0.31409365 -0.11413547 -0.46133816 0.23439471
25576 0.17268582 0.103902884 0.25753146 -0.19309424 0.7460582 0.5359197 0.41089976 -0.3116994 0.30761474 0.22284251 -0.50649214 -0.14924042 -0.064413756 -0.20611386 0.6585879 -0.30815303 -0.66363984 0.09234513 -0.24304132 -0.24632928 0.29075086 -0.21910739 -0.5803403 -0.58115613 -0.73297846 0.4166818 -0.38008258 0.26706868 0.6133274 0.23623434 -0.086137824 0.37113807 -0.010838445 0.108980365 -0.12228164 0.39568332 -0.20017196 0.50649965 0.109708995 -0.6393465 0.17196226 0.037155878 0.13931432 -0.6761656 0.027072962 -0.35464185 -0.07356433 -0.112449706 0.70753556 -0.25629783 0.33404404 0.04780902 0.1664605 0.0067671095 -0.28843156 0.2545743 0.39556843 0.25815195 -0.1872124 -0.49661788 -0.27958652 -0.37976813 0.032099154 -0.32075405 0.60897464 0.059729066 -0.09714336 0.124164954 0.352916 -0.09465659 -0.28448614 0.10283811 -0.10457061 0.3000437 0.22590928 -0.017065594 0.30135086 0.16369827 0.481632 -0.12532696 -0.55279815 -0.048005175 -0.36520264 -0.27535996 0.67391497 0.047672175 -0.1405095 -0.11446492 -0.058906365 -0.23751958 -0.0751696 0.5663512 -0.0818 -0.48751968 -0.09759956 0.08992972 -0.3210769 -0.35879964 0.57758635 -0.21209547 0.143425 0.26057774 0.10087833 -0.0104177315 -0.010421309 0.50337625 -0.3618122 0.21061525 0.28472602 0.14782384 0.19968934 -0.107609496 -0.056276545 0.021277191 0.1773805 0.4818914 -0.56704855 0.7027457 0.20122126 0.18702708 -0.03424276 -0.14156677 0.3424349 0.075107805 -0.1834537 -0.19701089 -0.07994701 0.23317376
23430 0.13537931 0.07408577 0.18195225 0.24020927 0.36783555 0.3071925 0.115296066 -0.44717112 -0.4965733 0.47195414 -0.2755768 -0.53526086 -0.00842059 -0.43946853 0.3974513 0.023472866 -0.63266385 0.2891994 -0.61361617 0.0024873232 0.7032359 0.03976682 -0.2353421 0.34195185 -0.60820454 0.5564174 -0.35631573 0.109792866 -0.076616615 0.034302186 -0.33657104 0.75921404 0.15541303 0.33280173 0.15843421 0.31592128 -0.17903168 0.3580662 0.08551203 -0.36293325 -0.10783612 0.53393906 0.08442834 -0.32916057 -0.65697145 -0.64944106 0.49788195 0.35347542 0.2627751 -0.15124714 0.4604104 -0.5188632 0.24626277 0.48460227 -0.23397619 0.20926772 0.42830837 -0.6080674 -1.0129349 -0.07885416 -0.017005406 -0.45508212 0.31788835 -0.65134937 0.6448531 -0.1723354 0.36764836 -0.08596781 0.23832978 -0.15174656 -0.3601997 0.474509 -0.14259599 -0.007899833 -0.034709495 0.048078362 -0.30805206 0.51873153 0.40108824 -0.35574722 -0.79395556 -0.5675247 0.042175453 -0.079418495 0.61420804 0.2948102 -0.5593328 0.08326797 -0.46992925 0.50142837 0.34105524 0.3011543 -0.048560183 -0.10699339 0.6908881 -0.10256438 -0.39973575 -0.59239733 0.61524975 0.038219754 -0.27578238 -0.52972585 -0.10398859 0.29122663 0.0069828704 0.1737519 -0.16264154 0.5104936 0.59510046 -0.36104122 -0.08185972 -0.3454622 0.1514192 -0.2710756 0.21427856 0.11753762 -0.40307713 0.83955866 0.12458818 -0.5738135 -0.03615218 -0.13832371 -0.21285126 0.5481926 -0.2909788 -0.2858585 -0.23331052 0.34091246
32149 -0.0550237 0.13654323 0.058246337 -0.11556728 0.57065123 0.708027 0.6493813 -0.27241677 -0.0287711 0.20628643 -0.64460766 -0.5473293 -0.11464755 -0.42274866 0.7106936 -0.18719578 -0.95144755 -0.2762814 -0.26426834 -0.105484515 0.2647888 -0.20056118 -0.71370804 -0.33366248 -0.77147466 0.49495685 -0.31535923 0.4452072 0.6036218 0.06289372 -0.27796668 0.47611034 0.32955495 -0.0018210282 -0.14761816 0.14176077 -0.2694995 0.3665649 -0.02895876 -0.58038485 0.053618647 0.20530179 -0.31590495 -0.48251358 -0.06638872 -0.11669398 0.19040291 -0.116284296 0.7964978 -0.22510368 0.054283526 -0.05100319 0.48039427 0.32199508 -0.3143333 0.16519609 0.29857692 0.033343736 -0.31116825 -0.40099832 -0.11471077 -0.48470664 0.14402722 -0.20248249 0.38375908 0.2630711 -0.11297162 0.011843054 0.17383684 -0.0223898 -0.30002576 0.29766342 -0.17332691 0.5679979 -0.017737541 0.22923547 -0.098307006 -0.07868298 0.50651896 -0.4145504 -0.3120436 -0.13557266 -0.21038204 -0.14900424 0.4387666 0.28748488 -0.43163267 0.0049524363 0.02335578 -0.5043147 -0.0734492 0.37279713 0.22601351 -0.25689635 -0.07518576 0.29492396 -0.4224006 -0.006122496 0.49718708 -0.10458417 0.17923884 0.2594074 0.23724309 -0.031598795 0.15053584 0.5245075 -0.052456748 0.17894416 0.6769925 -0.11936691 0.15315545 0.19480343 -0.04056683 0.081799574 0.6841916 0.32236576 -0.38178396 0.6774745 0.023311922 0.17043911 -0.0684667 -0.25974536 0.48537233 0.13304536 -0.2708709 -0.35711646 0.15631962 0.002335782
24953 -0.06987713 0.32236105 0.46406108 -0.47423166 0.43840143 0.7688078 0.33529082 -0.54786646 0.6556273 0.18957148 -0.69682944 0.105765246 -0.24586327 -0.54763585 0.9527748 0.25451124 -0.60745263 -0.25665957 -0.10618706 0.0060016974 0.120084085 -0.20409034 -0.49995935 -0.7060546 -0.6369057 0.58751553 -0.46083155 0.19144863 0.64541006 0.030909147 -0.28861827 0.30428088 0.030162398 0.08512504 0.016462019 0.68771076 0.1330441 0.39195827 -0.43321544 -0.36870277 -0.082111515 0.48671383 -0.23591161 -0.2394642 -0.13970996 -0.1829772 0.23045897 -0.12116464 0.28740197 -0.1995611 0.48455304 0.2971633 0.13508803 0.6941327 -0.28692925 0.41817063 0.4102891 0.4248013 -0.4053997 -0.28550345 -0.7776565 -0.075542204 0.42245993 -0.33992442 0.34840888 0.25252038 0.4170885 -0.06533742 -0.034031056 -0.21294446 -0.032306124 0.05808226 -0.21726044 0.6025288 0.07436809 0.277351 -0.17013869 -0.06090789 0.06417446 -0.61654216 -0.2836473 0.10417665 -0.36268657 -0.123638675 0.2750646 0.091313116 -0.30004478 -0.07399383 -0.38324958 -0.0749462 -0.13103479 0.37207735 -0.27463517 -0.4791991 -0.062919475 0.16681166 -0.2932709 0.057626437 0.40812224 -0.12377035 0.6440767 0.599067 0.51293683 0.3914666 0.30200428 0.52016205 0.23901941 0.028784357 0.2772794 0.1746655 0.060430665 -0.08537872 -0.4000671 0.038232423 0.49200165 0.55195314 -0.30801964 0.15732075 0.18379343 0.3040085 0.043443043 -0.6340095 0.48358396 0.03122978 -0.005528078 -0.17522849 -0.58637124 0.08050881
9572 -0.3778204 0.35229176 -0.1637819 -0.22632498 0.18317749 0.6631449 -0.41067424 -0.7674882 -0.14374197 0.5728198 -0.4510579 -0.51045483 -0.3240834 0.24450603 0.091675505 0.16495807 -0.79707193 0.44459578 -0.32676336 -0.5603066 0.5926461 0.21461064 0.06588279 -0.1293466 -0.5159258 0.10857683 -0.40676588 -0.118247405 -0.09789217 0.31660736 -0.18390639 0.107003435 -0.31435412 0.024691828 -0.13240321 0.61017305 -0.21072702 0.6210379 -0.10154249 -0.4296725 -0.2510446 -0.038511273 0.291553 -0.14570056 -0.56014436 -0.09172427 -0.055838116 0.0014256414 -0.23415111 -0.28020838 0.44157153 -0.019602738 0.23569244 -0.047603693 -0.33882016 0.4232031 -0.004686907 0.2765771 -0.32490823 -0.48141026 -0.33596748 -0.375354 0.21932232 -0.5130054 1.1757569 -0.07967947 0.4262523 -0.7613637 -0.12198322 -0.72818625 -0.36509332 0.039936773 -0.28657767 0.21097967 -0.0506391 -0.09793595 -0.0010813264 0.8122402 0.14171919 0.16904663 -0.46052688 -0.05096267 -0.25274092 0.1496588 0.66209906 -0.2860691 -0.20598526 -0.251177 -0.22894058 -0.18166079 0.21623787 0.45052406 -0.40755022 -0.26868793 0.78169906 -0.09204392 -0.05708453 -0.27735105 0.18750735 -0.32056683 0.10384838 -0.17352125 -0.553571 0.47389618 -0.26581255 0.26388785 0.07253061 0.26171342 0.12615223 0.19126488 -0.03514555 -0.3648174 0.055285808 -0.20931073 -0.2486998 0.69059414 -0.5332727 0.8812158 0.42448428 -0.13607144 0.3108538 0.21889834 -0.28770372 0.3393226 -0.3667173 -0.24904135 -0.60088885 0.06716162
3915 -0.2738 0.41944084 0.04572005 -0.3166179 0.37292895 0.6839697 -0.31631115 -0.72878665 0.11045981 0.46015844 -0.46415877 -0.28944218 -0.18075998 0.12463934 0.19287865 -0.009108299 -0.84498304 0.35002288 -0.3523371 -0.4874749 0.4824584 0.117987595 -0.022729592 -0.354934 -0.5985647 0.13478984 -0.4674307 0.014564136 0.13609663 0.3416718 -0.17192563 0.23922268 -0.33933753 -0.036798794 -0.09250794 0.63157505 -0.18267946 0.5829429 -0.010541674 -0.424346 -0.13960008 0.15274197 0.25957227 -0.15185523 -0.3777471 -0.0333424 -0.001316204 -0.073865905 -0.12007671 -0.35205138 0.5094355 0.114398845 0.11909156 -0.05602713 -0.27165943 0.4448219 0.05613882 0.3892709 -0.25501177 -0.5018409 -0.4818693 -0.32765025 0.13827509 -0.4720605 1.0675598 -0.08828579 0.30740222 -0.5320883 0.0023125245 -0.7485939 -0.3446028 0.04406119 -0.30282015 0.21257527 0.057790753 -0.19050786 0.04918818 0.68814623 0.14747092 0.15743777 -0.4798608 0.043426268 -0.23799944 -0.10905708 0.74004704 -0.2727102 -0.110137574 -0.22533984 -0.22237666 -0.21374594 0.14993991 0.47011778 -0.38094097 -0.37932444 0.6082318 -0.032710437 -0.079555154 -0.28318906 0.27063254 -0.29432195 0.13493766 -0.057640992 -0.34237346 0.41271895 -0.2992014 0.34616694 -0.12031831 0.12027162 0.080360375 0.25133073 0.06878364 -0.35767013 0.065912 -0.100462064 -0.2314061 0.7895503 -0.5336189 0.84459585 0.44626883 0.10451835 0.23624258 0.11617179 -0.07932325 0.35328573 -0.2278566 -0.34222326 -0.5470663 0.05766047
17823 -0.009291109 0.28184396 0.06572033 0.039418064 0.20506531 0.6114887 -0.15549946 -0.549141 -0.30048627 0.4834374 -0.5827872 -0.24850667 -0.4626049 -0.2564525 0.79807246 0.3220652 -0.41171166 0.056194797 -0.10773123 0.058609664 0.4282644 -0.013525817 -0.41403514 -0.23805892 -0.41295105 0.7927612 0.046989642 0.07724625 0.025197793 -0.0054765968 -0.43747285 0.4109126 -0.048168425 0.336878 0.17146993 0.24400981 -0.36605686 0.63656527 -0.7286521 -0.3686161 -0.39349872 0.16760436 0.055587985 -0.025378969 -0.5336834 -0.3745364 0.240241 0.35594514 0.3459979 0.28793693 0.24684273 -0.29003808 0.44106406 0.6575887 -0.31588694 0.27199134 0.40388134 -0.040124536 -0.7849751 -0.26132894 -0.08149093 -0.2960956 0.5729654 -0.72061926 0.8595141 -0.26461542 0.6600924 -0.23665386 -0.11474492 -0.13547403 -0.22778372 0.23568916 -0.03136596 -0.0070428173 -0.27582145 0.43829286 -0.26558447 0.42536843 -0.11116317 -0.4725586 -0.43741405 -0.37238398 -0.48084024 0.56956923 0.3331711 0.09356662 -0.51557547 -0.032460246 -0.4841953 0.024377419 0.015465781 0.22317708 -0.3710895 -0.18630604 0.123553626 0.04274688 0.006074662 -0.31025106 0.6027721 -0.4092447 0.5183436 -0.136229 0.19534005 0.57843876 0.27234164 0.117961496 0.5787944 0.3052213 0.7600139 0.12211669 -0.1394738 -0.37367576 -0.043114 -0.5975564 0.10867597 0.31712466 -0.42226946 0.38986537 0.19330834 -0.34520957 0.16921435 -0.075322025 0.24506922 -0.056977194 -0.4414899 0.17191674 -0.56062055 -0.08501043
3947 -0.18972309 0.18950716 -0.05447068 -0.21365836 0.23449993 0.80179775 -0.38023403 -0.70887154 0.05850507 0.5543552 -0.49959493 -0.13879512 -0.47272027 -0.16376095 0.7735159 0.27860996 -0.31459075 0.1165051 0.089760825 -0.06124814 0.31677994 -0.023804741 -0.31726453 -0.4194099 -0.4023273 0.5054548 0.08384432 -0.075046934 -0.05161271 0.018236969 -0.17502856 0.07332656 -0.14008096 0.25702882 -0.0570285 0.31188813 -0.21835156 0.65367854 -0.6875215 -0.4330009 -0.3260579 -0.075497985 0.097728394 -0.03337164 -0.4845309 -0.22694169 0.123044066 0.33368006 0.3270649 0.3544204 0.26873744 -0.09447825 0.4660997 0.41958845 -0.360787 0.3351422 0.2966804 0.20117559 -0.4559413 -0.44719657 -0.15898375 -0.31148762 0.58224523 -0.6193446 1.0492517 -0.14354467 0.6267761 -0.21007234 -0.15047437 -0.26271984 -0.07732019 0.06430979 0.1696207 0.22599776 -0.25822455 0.38854682 -0.04247613 0.4508383 -0.22271465 -0.27661213 -0.37561354 -0.10939732 -0.73771906 0.56047845 0.296125 0.029585227 -0.2821687 -0.27454355 -0.4121775 -0.20799667 0.013204214 0.2741083 -0.36539012 -0.35458523 0.21893695 0.11255513 0.1619547 -0.21331398 0.5830125 -0.5822141 0.6266219 -0.013841006 0.13158607 0.5270724 0.18229805 0.14121892 0.50536823 0.30315503 0.61525697 0.29668492 -0.051489618 -0.29252136 -0.16827562 -0.4638725 -0.107675135 0.39804843 -0.5034036 0.4512981 0.20819817 -0.18029577 0.25917047 0.032854386 0.32054785 -0.28995103 -0.53598315 0.2372765 -0.6232659 0.0072528673
34628 -0.05767035 0.1883989 0.099323586 -0.29599258 0.5080019 0.9232072 0.28117818 -0.5954811 -0.058704093 0.5520874 -0.57010436 -0.47316453 -0.46472523 -0.22145988 1.0122772 0.21070789 -0.76289815 -0.049433235 -0.26704478 -0.086585455 0.73021245 -0.21998675 -0.51243246 -0.20119913 -0.7969171 0.8091472 -0.36068922 0.18146726 0.21540159 -0.0151401255 -0.22468494 0.2986333 0.15816662 0.17873546 -0.101282015 0.44043046 -0.24181435 0.74936515 -0.49369407 -0.6702262 -0.33134297 0.33191058 -0.14623952 -0.45530057 -0.50813675 -0.48607776 0.16566718 0.315919 0.4822828 0.01592786 0.263903 -0.17221995 0.40280673 0.59007764 -0.35778394 0.46380472 0.41932696 -0.061022334 -0.7226898 -0.5734504 -0.23944202 -0.5570667 0.35972795 -0.57232004 0.97244406 0.22511326 0.52307206 -0.33571842 -0.07717396 -0.11452988 -0.24263743 0.1909542 0.09858652 0.56467074 -0.010110726 0.5934147 0.019468045 0.40173593 0.24192505 -0.53756565 -0.65078324 -0.2607815 -0.5351022 0.1263218 0.4199921 -0.08931325 -0.5087499 -0.1687531 -0.40696415 -0.1093979 -0.04442051 0.39745232 -0.2225835 -0.35662755 0.30342913 0.07648314 -0.33141172 -0.24647358 0.6933061 -0.22706233 0.2908026 0.12452748 0.11076329 0.5412505 0.15736708 0.45048907 0.15210651 0.46135724 0.68609947 -0.064861014 0.0046701934 -0.1991348 -0.35513505 -0.4025955 0.45076844 0.61040735 -0.529793 0.6774132 0.21059589 -0.27738965 0.19395065 -0.23758602 0.270243 0.16991697 -0.6286281 -0.19279142 -0.61233443 0.2259415
3166 -0.08234311 0.15981781 0.18740344 -0.25623628 0.5012804 0.91487896 0.23901206 -0.6601746 -0.06636748 0.5092646 -0.57590914 -0.46553618 -0.46868914 -0.28799948 0.8484851 0.15449812 -0.8449685 0.03351703 -0.35529998 -0.14127769 0.67755586 -0.110970385 -0.48638132 -0.26902983 -0.82581913 0.7506934 -0.41339555 0.16544522 0.20681624 0.031024197 -0.27149394 0.38783073 0.13043463 0.2043683 -0.047231402 0.45443633 -0.26752433 0.69684577 -0.45944908 -0.68024623 -0.31617495 0.3233535 -0.11889832 -0.382171 -0.47578925 -0.47937828 0.25723413 0.20119923 0.3808925 -0.073137306 0.39027804 -0.17052184 0.31480116 0.48413098 -0.3939163 0.48085797 0.4317506 -0.09999189 -0.70051223 -0.5043454 -0.26274973 -0.6063318 0.34630108 -0.66557646 0.9435366 0.16521382 0.48691425 -0.28491288 -0.07660013 -0.22526097 -0.2820261 0.23600583 -0.07051599 0.47410557 -0.023832666 0.42354417 -0.08956134 0.4019505 0.31227136 -0.53290564 -0.63831925 -0.24729949 -0.400355 0.0960903 0.52599406 -0.04146103 -0.48674732 -0.15867406 -0.3411375 -0.055766895 0.015341836 0.48357227 -0.17699252 -0.35663462 0.4123883 0.074324094 -0.33067858 -0.27719012 0.6282044 -0.234088 0.32561556 0.033762023 0.07370527 0.48230284 0.08624561 0.47664154 0.10691321 0.4717372 0.6187895 -0.06924167 0.04297299 -0.21168204 -0.19684313 -0.3401077 0.38555232 0.61630493 -0.5108159 0.782123 0.21361905 -0.23509072 0.19110078 -0.21513523 0.22866088 0.26909536 -0.573907 -0.23054141 -0.52774113 0.21634796
30270 -0.08821274 0.12711287 0.21170858 -0.32162932 0.58471394 1.0455133 0.3753101 -0.70639443 -0.005372373 0.56329584 -0.5608239 -0.4850484 -0.49405503 -0.27999142 0.98757935 0.13752142 -0.95969003 -0.009482589 -0.45792153 -0.20616415 0.78243697 -0.1693988 -0.5477115 -0.3012911 -0.9882614 0.8366715 -0.556963 0.18852624 0.2844908 -0.018692628 -0.24859048 0.4403077 0.16385153 0.20828068 -0.098260075 0.57902795 -0.2287963 0.71165305 -0.47119713 -0.79471314 -0.3352888 0.41142735 -0.15698214 -0.49124435 -0.5381155 -0.58323973 0.22438587 0.23932292 0.45305902 -0.12633757 0.41781917 -0.17134906 0.29871017 0.49598205 -0.420537 0.57898974 0.45173454 -0.1459542 -0.77880424 -0.5816138 -0.32549006 -0.7109357 0.27065325 -0.700121 1.0418779 0.28979614 0.5288436 -0.3305738 -0.090930246 -0.22801685 -0.32111913 0.2365296 -0.05447718 0.6019608 0.07479944 0.4973583 -0.0001773965 0.39704406 0.4187387 -0.6150765 -0.7684608 -0.25216213 -0.4087172 -0.024102828 0.56933653 -0.12607333 -0.5410378 -0.21149884 -0.36934188 -0.078489974 0.0062652007 0.52265 -0.1508989 -0.46414903 0.49189228 0.072078556 -0.4307172 -0.31357437 0.7147698 -0.14737184 0.31557187 0.064151034 0.06246017 0.5247059 0.079558745 0.5782714 -0.010280168 0.5830782 0.663696 -0.10429735 0.06408445 -0.1738073 -0.25486082 -0.33579165 0.49430272 0.7693956 -0.6094429 0.89494044 0.23266947 -0.3025844 0.24804083 -0.296327 0.23717834 0.3642233 -0.65049005 -0.34135497 -0.57569426 0.29759333
9747 0.2184978 0.41296217 0.22119308 -0.16827178 0.6721524 0.78491986 0.11430337 -0.43334234 0.02924896 0.53769195 -0.7262248 -0.2241629 -0.47712108 -0.22653069 0.9784469 0.10523964 -0.44403496 -0.032121427 -0.25935054 0.08780321 0.660955 -0.19476295 -0.43430132 -0.48652354 -0.83904123 0.8190113 -0.30530536 0.032738537 0.38380048 0.14868955 -0.38748685 0.37027034 0.12795347 0.41886017 -0.06987096 0.31119993 -0.319582 0.59640604 -0.6193657 -0.47727963 -0.27102196 0.05503025 -0.068138756 -0.3423304 -0.35188806 -0.46086287 0.21324384 0.2569757 0.21046758 0.071652986 0.3169177 -0.059906337 0.39687222 0.6253231 -0.34317547 0.35734078 0.5101511 0.1895205 -0.6254671 -0.5257444 -0.5034463 -0.34747192 0.59605604 -0.5894062 0.83345467 0.042335816 0.611928 -0.22277692 -0.08723781 -0.2600409 -0.20483744 0.2656495 -0.28489557 0.24743408 -0.11187477 0.4976819 -0.08221357 0.3090622 -0.039062183 -0.595957 -0.41613454 -0.26859295 -0.4836028 0.31108695 0.5193304 -0.08580867 -0.403198 -0.026973752 -0.34471333 -0.11014884 -0.1835963 0.29623133 -0.5190727 -0.504833 0.08096787 -0.05343104 0.037070155 -0.21631047 0.67394745 -0.41878343 0.73971385 -0.019328551 0.37750214 0.40810728 0.22046353 0.2922259 0.28546605 0.35843292 0.6006884 0.21443543 -0.0950884 -0.23216614 -0.16314267 -0.5373501 0.20501548 0.7699046 -0.46304005 0.48425066 0.19996412 -0.1517913 0.11003473 -0.26177368 0.45050737 0.08381112 -0.37615886 0.0001408929 -0.5660011 0.07818866
22749 -0.20578845 -0.2821917 -0.38793325 -0.20284191 0.0114755435 1.0558641 0.18225355 -0.5166068 -0.03446206 0.290583 -0.10970728 -0.21521734 -0.19526371 0.108978346 0.7360002 0.25880316 -0.50210357 -0.49880305 -0.52107126 -0.28006998 0.1666331 0.03401333 -0.27826083 -0.089223325 -0.8136051 0.49986207 -0.116815366 0.40617773 -0.16892377 -0.5513198 -0.17909527 -0.02839734 0.08606386 -0.31879595 -0.22886986 0.796781 0.06676142 0.36321267 -0.42146516 -0.6196676 -0.26837695 0.53187484 -0.00015776134 -0.13330732 -0.77784103 -0.121922106 0.13189515 0.5932002 0.120662406 0.22415382 -0.038437296 0.014100352 0.2621323 -0.12484798 -0.46159703 0.5693475 -0.0015731206 -0.17581086 -0.4874614 -0.32375446 -0.22778954 -0.7648897 -0.040056054 -0.53475 0.74340886 0.3974995 0.3111655 -0.4962672 -0.27785453 0.09719645 -0.2572281 -0.21529424 0.31934804 0.5316949 0.2858878 0.62737143 0.57168937 0.07862369 0.2627779 -0.36433783 -0.8799074 -0.122449145 -0.19038865 -0.3031647 0.071084686 -0.5518501 -0.4750858 -0.43608487 -0.031397212 0.02004234 0.32138205 0.23991781 0.58493364 -0.24734122 0.42249098 0.30869237 -0.18674253 -0.48950472 0.5664697 0.052432794 -0.2893529 -0.13080718 -0.2781653 0.34722564 -0.09511347 0.36667207 -0.26452288 0.6982838 0.38402718 -0.0227527 -0.09292437 -0.2595583 -0.15889797 -0.45349678 0.23557113 0.6792391 -0.49752957 0.39287287 0.38621232 -0.45133632 0.3801037 -0.10875185 0.015755784 0.3932444 -0.6246077 -0.47711 -0.61265814 0.3353894
36030 0.014716744 0.3106561 -0.2930523 -0.048322756 0.099624515 0.7039071 -0.20304158 -0.3636809 -0.3873234 0.44617566 -0.71158147 -0.66769326 -0.5321819 0.08240367 0.8040295 0.31352255 -0.08473288 -0.35336015 0.019828867 0.08815111 0.51501155 -0.18811625 -0.03324502 0.030232187 -0.5396526 0.5349554 0.014212044 0.037306726 -0.31180522 -0.03954796 -0.30460042 -0.05061733 0.030317416 0.022136947 -0.1999194 -0.12832643 -0.1339571 0.85064155 -0.46490052 -0.26768366 -0.40223032 0.027069284 0.22474344 -0.3969529 -0.7637928 -0.23308064 0.3376665 0.61994153 0.27082905 0.42618927 -0.06678073 -0.3473065 0.79284394 0.54924786 -0.46726885 0.38564196 0.22981502 0.17580493 -0.5758484 -0.37857753 0.042416528 -0.42061865 0.75128216 -0.44564995 0.9060476 -0.049844958 0.37381056 -0.6916874 -0.06161631 -0.19476397 -0.01270088 0.19362678 0.22401103 0.2344891 -0.23771164 0.46471006 -0.08297502 0.37570813 -0.05505407 -0.19159716 -0.19017844 -0.48627982 -0.81602657 0.5750351 0.1286671 0.18683504 -0.6376217 0.16259485 -0.36401626 -0.19693415 -0.015480244 0.21698534 -0.19654708 0.0013862207 0.09622986 0.09012238 0.32774886 -0.10686323 0.5140246 -0.6595443 0.043462586 -0.17011204 0.19267862 0.47476572 0.235878 -0.09041072 0.66916585 0.44639263 0.9183727 0.018025963 -0.40518737 -0.3922036 -0.39936188 -0.6429047 0.0715589 0.3055732 -0.14299098 0.49299595 0.42188492 -0.25930515 -0.11821891 -0.06337133 0.04771787 -0.24660021 -0.46666846 0.37373477 -0.69646233 -0.09877748
14905 -0.25115815 0.26861456 0.5066503 -0.35889453 0.037765384 0.17379269 -0.01117586 -0.38250813 -0.1448005 0.53646547 -0.16803628 -0.21180846 -0.38587207 -0.4280323 0.4670372 0.24341857 -0.29309976 -0.114822365 -0.40400177 0.021740122 0.39457557 0.23647556 -0.3675233 -0.11807188 -0.46927133 0.65271425 -0.024818476 0.28267828 -0.04923929 0.013303758 -0.29913604 0.42047885 -0.16310811 0.34453458 0.34106693 0.17548285 -0.38759086 0.25781485 -0.64862394 -0.627962 -0.40738913 0.44461617 -0.13793907 0.18248264 -0.43883035 -0.30771017 0.9311722 0.088348046 -0.010241946 -0.114070825 0.55274 -0.13206707 0.018565848 0.34150127 -0.15035047 0.30027118 0.49079153 -0.22471125 -0.8858301 0.050734513 -0.24186088 -0.55227166 0.53771096 -1.0966655 0.920169 -0.21005918 0.5113461 -0.39465007 0.07498262 -0.10345045 -0.3102057 0.42127556 -0.21102832 -0.14623128 -0.1034813 0.21837622 -0.26728404 0.06288091 0.25929913 -0.73067266 -0.5612696 -0.52259934 -0.15262441 0.2697409 0.37115964 0.20955172 -0.7861088 -0.0063023344 -0.566566 0.44231087 0.030340957 0.44956806 0.38695824 0.111296415 0.5506476 0.30197284 -0.17489672 -0.52034193 0.9058743 -0.4470289 -0.031080252 -0.4395544 0.50737154 0.46497414 -0.031879146 0.19366804 0.09129742 0.119820274 0.4126758 -0.08415523 0.043184403 -0.6832463 0.1227633 -0.19401653 0.0048743645 0.48596877 -0.28314707 0.5985651 0.122170754 -0.4446775 0.053746756 -0.13304596 0.01030007 0.42561814 -0.51479214 -0.1349095 -0.3724032 0.017777348
23881 -0.32587335 0.3199993 0.42208928 -0.1711192 0.19910774 0.44685102 0.032673895 -0.13646956 -0.30885544 0.50552064 -0.0032348162 -0.64214253 -0.16669185 -0.47927374 0.15967186 0.001727064 -0.43058816 -0.1919991 -0.28526247 -0.23251893 0.54179484 -0.093482785 -0.21433343 0.007620782 -0.5753599 0.46476674 -0.18878499 0.17689534 -0.32293546 -0.04105089 -0.118972346 0.35801226 -0.0560846 -0.01735051 0.18968908 0.23343956 -0.3713192 0.252326 -0.27603024 -0.50579184 -0.30070114 0.564639 -0.004025559 -0.0054078237 -0.5132104 -0.24019308 0.6587574 -0.0040873345 0.036247436 -0.17741328 0.58514446 0.23302342 -0.12662515 0.03685341 -0.26879957 -0.012185591 0.37537825 -0.23552382 -0.5393669 -0.11437919 0.0071540377 -0.6326774 0.13050319 -0.8949958 0.773095 -0.07742997 -0.034131035 -0.18563658 -0.1174636 -0.11955811 -0.15309946 0.3840653 0.09936355 0.08561782 0.16385372 0.12160869 -0.37767494 0.1647321 0.43794867 -0.41247934 -0.5677435 -0.35457525 0.12042002 0.055961758 0.5337373 0.25019854 -0.5203713 0.13479531 -0.5838318 0.21955413 -0.29090786 0.61368954 0.29163495 0.17873411 0.28025493 0.3832144 -0.30282736 -0.5293708 0.66166425 -0.4295954 -0.35908875 -0.4373985 0.3279394 0.30160487 0.12897626 0.14575182 -0.20554563 0.26809788 0.43346336 -0.21354303 0.017644241 -0.37613708 0.05569423 -0.164349 0.17464553 0.41525045 -0.15867856 0.7241646 0.112049654 -0.52781856 0.15005626 -0.074609034 0.06171723 0.30223557 -0.37881914 -0.30136934 -0.31053114 0.025374036
25238 -0.20459001 0.26268724 0.53593194 -0.27296492 0.096785456 0.16702919 0.09629046 -0.30318457 -0.22107181 0.49870017 -0.070072405 -0.25888664 -0.21300954 -0.4016635 0.3362085 0.11016046 -0.37613633 -0.07582759 -0.43841147 -0.048422597 0.44079673 0.15635364 -0.36215687 0.033747617 -0.4806082 0.5541613 -0.13475643 0.24660374 -0.07576199 -0.008224158 -0.18601653 0.4433618 -0.1113011 0.2948734 0.3097961 0.2101005 -0.30848432 0.23038124 -0.44402063 -0.5313949 -0.35146406 0.51396453 -0.12670869 0.11708414 -0.40689254 -0.33114687 0.8494739 0.032568075 -0.024644163 -0.19044586 0.5644849 -0.013763983 -0.083786935 0.22745802 -0.12255933 0.24123573 0.4368393 -0.32706258 -0.8057718 0.02392093 -0.18793137 -0.5168864 0.33465877 -0.9549265 0.75531375 -0.14655088 0.37989163 -0.33856964 0.09895364 -0.0811994 -0.29634878 0.4179941 -0.17220609 -0.058849934 0.0017009944 0.19318114 -0.25655627 0.06348988 0.4167728 -0.5928984 -0.5842487 -0.44592407 -0.0061176047 0.11295324 0.30801123 0.19315097 -0.6386623 0.01403885 -0.53152466 0.44546032 6.0399158e-05 0.43400288 0.3584499 0.12348973 0.48557463 0.25177574 -0.2989702 -0.5263325 0.7266816 -0.27696964 -0.19810508 -0.44464073 0.43564135 0.3939302 -0.05662559 0.21524699 -0.09333987 0.13761102 0.31911948 -0.13319184 0.067418024 -0.575967 0.13155732 -0.13398795 0.09687384 0.41274664 -0.25602958 0.6215266 0.04862028 -0.4460869 0.076941594 -0.13785678 -0.03958193 0.43790185 -0.47732133 -0.26886898 -0.3029112 0.08392705
28322 -0.012749673 -0.316421 0.17134719 -0.019161044 0.30624434 0.68772304 0.3436809 -0.47744402 0.08541688 0.20293178 -0.44686943 -0.46762675 -0.31626025 0.019152548 0.27623954 0.24563387 -0.49496067 0.35939825 -0.53241533 -0.034646343 0.56686014 0.16184722 0.075767055 0.01872884 -0.39525118 0.43582928 -0.24783595 -0.36404717 -0.100674294 0.06751391 0.063643254 -0.051968087 0.16949783 0.67018795 -0.20563468 0.15440227 -0.03541813 0.5614567 -0.43565634 -0.21135736 -0.5703697 -0.13316353 -0.102908954 -0.52317214 -0.35212523 -0.67483324 0.039201368 0.10510961 0.122628234 -0.36257473 -0.28783518 -0.12828475 0.019444693 0.53948563 -0.3311148 0.69969565 0.17031322 -0.16283745 -0.65032226 -0.6974756 0.081227094 -0.46325925 0.0458238 -0.40326127 0.58111876 0.7153572 0.2452148 -0.53707445 -0.39747146 -0.18717642 0.12966652 -0.06979029 -0.033350762 0.5288499 0.23058085 0.26415294 0.14335804 0.21872686 0.3885562 -0.32959822 -0.22563726 -0.16491564 -0.22116987 0.26200932 0.096819066 -0.20639902 -0.28392172 -0.1268447 -0.057097428 0.2629954 0.24585274 0.023654591 0.0026183424 -0.21763441 0.7685723 -0.13217318 -0.6218027 -0.121690415 0.030420152 0.17973348 0.065573215 -0.11832708 -0.20004027 0.5662673 -0.0648027 0.7573942 -0.2306485 0.46156725 0.22349276 -0.23569074 -0.1853623 0.07043335 -0.29127482 0.18451336 0.6586376 0.37900978 -0.43856382 0.21970339 0.12018206 -0.60713726 0.057705887 -0.17782766 -0.018215192 0.51156294 -0.38910726 -0.11851439 -0.26035964 0.32269275
25985 -0.10893014 -0.04833 -0.009766635 -0.06563128 0.41593984 0.6597363 0.65256596 -0.29656637 -0.14818095 0.18736526 -0.46022114 -0.6601332 -0.16808224 -0.23912247 0.5879789 -0.1123222 -0.96178967 -0.2735374 -0.32978547 -0.14341035 0.5205612 -0.14392038 -0.5764069 -0.09108498 -0.6955676 0.4527346 -0.377977 0.35051784 0.3868246 -0.05658252 -0.15534817 0.35272548 0.45114148 -0.022614026 -0.19869044 0.02448195 -0.25461295 0.31936175 -0.02203036 -0.50677323 -0.090806805 0.23960948 -0.38804528 -0.43823373 -0.15184613 -0.15393001 0.19336498 -0.008223307 0.6253955 -0.17402893 -0.11782699 -0.049644817 0.38723844 0.29125473 -0.2706633 0.2258201 0.17168932 -0.13055901 -0.40563306 -0.40650836 0.048417952 -0.56373984 0.016391762 -0.17827748 0.35160735 0.38555238 -0.056177974 -0.15069503 0.005772874 0.028404629 -0.24522226 0.276283 -0.008434566 0.63097745 0.024192922 0.40326503 -0.076066695 0.013460359 0.5081178 -0.42790216 -0.321763 -0.13557635 -0.081955805 -0.16104463 0.3395016 0.16820823 -0.44983828 -0.053101946 0.0039754277 -0.388275 -0.051702373 0.2867325 0.2831976 -0.1515867 0.08678279 0.19380665 -0.46824962 0.015930094 0.40185535 0.006597517 0.020580804 0.13860556 0.031126391 0.049624186 0.048501108 0.53999823 -0.1261784 0.32347167 0.6328296 -0.27437016 0.083145835 0.2336005 -0.12761739 0.040377513 0.69340706 0.28672692 -0.3396717 0.59064347 -0.057570465 -0.039298166 0.016899172 -0.19947527 0.38292247 0.23638639 -0.40690345 -0.413178 0.098320924 0.06606597
16912 0.009778292 -0.2703427 0.15270272 -0.09177572 0.31256512 0.6424062 0.5060002 -0.42205238 0.047927707 0.22131106 -0.30053273 -0.4647303 -0.25471258 -0.015991094 0.3303505 0.12473904 -0.64476264 0.21886039 -0.53989077 -0.08681114 0.6304266 0.05118819 -0.065728605 0.015013356 -0.48127577 0.3950792 -0.39066964 -0.13651803 0.02326084 0.110841386 0.13069728 0.051616896 0.27010626 0.41790807 -0.2707101 0.10353209 0.020729614 0.46647468 -0.26022607 -0.24175355 -0.41497868 -0.045526806 -0.1642333 -0.5532159 -0.32295325 -0.5925974 0.010280362 0.009122886 0.24645306 -0.32602537 -0.18226382 -0.102028444 0.019995352 0.41288444 -0.29589328 0.5904292 0.14875862 -0.24914192 -0.59837925 -0.57897127 0.024440227 -0.46075243 -0.11761365 -0.29471758 0.46220973 0.6167223 0.15517578 -0.48932052 -0.32798648 -0.16687411 0.05605671 -0.010929005 0.038081165 0.5981848 0.23077928 0.32238975 0.18293324 0.18870966 0.47305664 -0.26811725 -0.26338503 -0.08984126 -0.115544036 0.011745167 0.14334254 -0.2077462 -0.27251637 -0.15521714 -0.04625263 0.020581413 0.12516902 0.09107824 0.041572083 -0.18487993 0.6096985 -0.10428494 -0.5844831 -0.07983221 0.13150689 0.1598224 -0.0062601557 -0.02550476 -0.21205546 0.43566075 -0.08404748 0.67850477 -0.19964923 0.46113828 0.262981 -0.27551177 -0.08345458 0.17085786 -0.2635978 0.18474336 0.66845846 0.38210264 -0.4393719 0.33892953 0.04964589 -0.4555759 0.13627236 -0.18571007 -0.01559151 0.5052836 -0.44466656 -0.25710478 -0.19133952 0.2660674
15115 -0.1717071 0.42790464 0.54068047 -0.50517726 0.471343 0.82544804 0.30360794 -0.6255304 0.72201383 0.27485636 -0.59918296 0.14376822 -0.32847834 -0.5139672 0.95393276 0.35189924 -0.47581333 -0.1353528 -0.1590251 0.011652385 0.21063751 -0.12356398 -0.4078153 -0.7449148 -0.73062366 0.54782724 -0.5139242 0.09958164 0.52269906 0.06988896 -0.19658516 0.22886544 0.002175625 0.056948617 -0.038769234 0.74706435 0.16419612 0.33827662 -0.5309574 -0.41724908 -0.029871259 0.54072905 -0.19362342 -0.16142178 -0.29595983 -0.23163006 0.17406286 -0.16612267 0.16963838 -0.27284947 0.6088654 0.40067065 0.040439773 0.7172815 -0.25595382 0.43950257 0.5079284 0.44391084 -0.47951004 -0.3713991 -0.8424938 -0.077276595 0.46779996 -0.40567905 0.48970297 0.23563631 0.5081987 -0.1765703 -0.09193665 -0.1547197 0.035279807 0.13338701 -0.17906906 0.66190183 0.071505055 0.31955525 -0.13220997 0.029997163 -0.029093612 -0.52908397 -0.38012218 0.16564567 -0.32978076 -0.15435494 0.35593185 -0.017974684 -0.28577667 -0.09383377 -0.49789166 0.033712704 -0.08354528 0.32077858 -0.4313718 -0.5449585 0.07108979 0.07224911 -0.28463498 -0.02406152 0.31072438 -0.09990438 0.6863434 0.61777127 0.34031016 0.5529276 0.23843613 0.59696394 0.15370995 0.06547516 0.1361574 0.23294389 0.105115965 -0.16037203 -0.5147452 0.021726744 0.40859145 0.6870149 -0.4138594 0.12390148 0.23049209 0.23868191 0.08945176 -0.6081269 0.49465775 0.12018505 -0.04958922 -0.21903555 -0.7122803 0.21111439
17429 0.06779669 -0.03341711 0.16940704 -0.24468552 0.52953357 0.6529733 0.4415009 -0.37047517 0.28490207 0.30907646 -0.12894064 -0.10252181 -0.19598177 0.034897458 0.63899004 -0.05302148 -0.63827336 0.100982055 -0.34676364 -0.13313164 0.51127833 -0.09496472 -0.15696663 -0.09971319 -0.57159704 0.40303287 -0.6019961 0.07270714 0.32322773 0.063522875 0.19366422 0.12672473 0.12148824 -0.05897877 -0.15231448 0.34751892 0.09117976 0.17851064 -0.04179495 -0.35336986 -0.15542307 0.23944521 -0.108212784 -0.36376432 -0.031790014 -0.34378746 -0.27456376 0.14915481 0.22924405 -0.12925999 0.25940678 0.05777226 -0.035159584 0.11778114 -0.1284886 0.43034673 0.16825698 -0.0372797 -0.30481812 -0.43299893 -0.26937196 -0.3613332 -0.16994742 -0.1483838 0.4456491 0.2644668 0.28304425 -0.07979935 0.0009124621 -0.18507558 -0.13072194 -0.03843486 -0.0002520227 0.56170654 0.25011846 0.14843804 0.13351226 0.29707658 0.3564048 -0.15715142 -0.42536268 0.03851843 -0.21926758 -0.30381906 0.31567934 -0.24718824 0.05266645 -0.14148991 -0.016762206 -0.07388014 0.07040536 0.30425704 -0.14625554 -0.43122935 0.41067132 -0.10613864 -0.3301415 -0.12956005 0.19432083 0.26652178 0.15733415 0.19182992 -0.13306986 0.19046983 -0.120211184 0.36905205 -0.3258256 0.41490698 0.11178238 -0.06512977 0.2542469 -0.026973542 -0.31101173 0.05258585 0.36620104 0.59898585 -0.42513657 0.4959414 0.09765628 -0.082453735 0.2588511 -0.1619216 0.028608011 0.30977336 -0.39360067 -0.4219564 -0.2141008 0.30281964
1297 0.091847286 -0.021511469 0.07524931 -0.32916865 0.31563818 0.51285446 0.69986695 -0.18147752 0.07294733 0.09906759 -0.42360398 -0.356589 -0.3922821 -0.2283389 0.80414736 0.079930484 -0.7388734 -0.3742347 -0.2225526 0.023749536 0.41630986 -0.30673853 -0.5003424 -0.0958467 -0.48409575 0.6426071 -0.49625507 0.32028946 0.3974402 -0.08819246 -0.24770376 0.18405841 0.4803628 -0.002989236 -0.07285749 0.38820085 0.12275463 0.407268 -0.22208835 -0.37935713 -0.2504528 0.38849247 -0.47920766 -0.4456261 -0.10416749 -0.42637056 0.039212566 0.19176918 0.3615766 -0.16632241 -0.07870022 -0.05973842 0.27393055 0.50504875 -0.12955596 0.47877765 0.13293333 -0.09013355 -0.49051347 -0.29565468 -0.21196993 -0.24952352 0.1313293 -0.2504423 0.03168471 0.5716416 0.14985463 -0.09457849 -0.15143931 -0.1473071 -0.10538236 -0.13012987 -0.12955533 0.5765057 -0.002738821 0.32241473 -0.04838231 -0.12850995 0.46853012 -0.650361 -0.20019701 -0.22439994 -0.26304778 -0.23119082 0.06992105 -0.13097933 -0.19070593 -0.08710334 0.06826707 -0.16768436 -0.071523935 0.37725782 0.00927996 -0.11531877 0.062441405 0.01454533 -0.6352576 0.1301014 0.2727543 0.16889247 0.069052964 0.17537832 0.294059 0.29058474 0.12564828 0.45672655 -0.0053602615 0.2018553 0.44055426 -0.3207299 -0.07081023 0.16350618 -0.5080724 0.00046096081 0.6606625 0.38804275 -0.1270624 0.38174352 -0.028391235 0.06022941 0.037323255 -0.5740141 0.117639676 0.22835992 -0.28979182 -0.4627832 -0.07106632 0.15784742
37503 -0.04368562 0.08605569 -0.002171572 -0.014405366 0.32282114 0.4199997 0.43073067 -0.22593896 -0.4471454 0.5873026 0.10084025 -0.44780207 -0.5252943 0.121861294 0.53362185 0.3961581 -0.48805156 0.10025852 -0.037390623 -0.42247537 1.0626736 0.013408748 -0.3782953 0.15631224 -0.22388342 0.22125036 -0.5839933 0.23473075 -0.18295819 0.019091887 0.20562412 0.2427415 0.5944971 0.3124364 -0.15702042 0.20948678 -0.02759305 0.55037314 -0.11841479 -0.3165751 -0.516473 0.3398007 -0.13358504 -0.224425 -0.50783986 -0.5976648 0.19668463 0.52169514 0.10527854 0.10303065 0.22367412 -0.061395563 0.18388198 0.41929027 0.0052149384 0.27062064 0.3932986 -0.5951188 -0.5061285 -0.28320518 0.15687273 -0.71940225 -0.078005284 -0.21501008 0.8044985 0.20979458 0.5984457 -0.42525822 -0.5353126 0.23388217 -0.24224542 0.08587249 0.44934827 0.48989603 -0.10442131 0.65861946 0.070872694 0.37839612 0.15855317 -0.17769814 -0.40312368 -0.2330695 -0.33274996 -0.13268384 0.10981697 -0.39271885 -0.16655621 -0.36039355 -0.1679462 -0.16726726 -0.17896031 -0.037529532 -0.112174325 -0.39910382 0.33886573 -0.39710653 -0.057072155 0.0002722575 0.32245678 -0.2156938 -0.12893295 -0.18859243 -0.3322873 0.35365683 -0.3200832 0.14481685 0.057180207 0.47899944 0.2870678 -0.2351814 0.37815577 0.051178113 -0.42140782 -0.36415336 0.1739024 0.5038585 -0.2139545 0.61456937 0.0356305 -0.33726004 0.2838717 -0.06794525 -0.030232314 0.3924881 -0.64311045 -0.47560564 -0.31460413 0.114229046
36365 -0.010897409 0.08957437 0.31899625 0.11491992 0.23734894 0.27354336 0.11492234 -0.3779992 -0.4029825 0.4086328 -0.15398781 -0.40085888 -0.034001436 -0.4335478 0.27914947 0.023727981 -0.54293305 0.14327456 -0.5606283 -0.045355648 0.5615825 0.111246586 -0.25284535 0.17963126 -0.5327231 0.49921528 -0.2566788 0.13058744 -0.13215095 0.011398105 -0.25231007 0.61956334 0.061569326 0.2901753 0.21639208 0.25141695 -0.24668466 0.27208665 -0.07356148 -0.41638753 -0.19682656 0.5139859 0.023520162 -0.13413016 -0.5329641 -0.48997506 0.59144974 0.20016457 0.16150427 -0.1616509 0.50987047 -0.28130803 0.06682737 0.30208576 -0.20712201 0.18800865 0.43547758 -0.5329079 -0.85411686 -0.052548 -0.025400307 -0.49227935 0.26601592 -0.78157943 0.6228299 -0.14079125 0.29316366 -0.10150744 0.14439636 -0.11775724 -0.3280788 0.4285461 -0.1548157 -0.043076478 -0.024677064 0.06460238 -0.29630005 0.3528493 0.4222202 -0.39128903 -0.6579395 -0.46331897 0.10251956 0.014393152 0.5143071 0.28536987 -0.5256523 0.07856428 -0.47535387 0.4801129 0.19137645 0.35240453 0.11069424 -0.016343448 0.56640077 0.016277757 -0.31759033 -0.55793995 0.58236074 -0.052192513 -0.27731302 -0.5220319 0.071906075 0.33452392 0.0121172685 0.19692127 -0.16334887 0.37181813 0.47608775 -0.30396777 -0.010984597 -0.37081268 0.17996672 -0.19026436 0.18314347 0.19986382 -0.32621047 0.709764 0.07862186 -0.5596799 -0.008410171 -0.06926764 -0.096739054 0.4817698 -0.34049115 -0.2875753 -0.21809992 0.21718429
17885 -0.010827656 0.3032159 -0.29336268 -0.06284507 0.09346944 0.6557756 -0.18446054 -0.33803016 -0.34756655 0.42380318 -0.6152929 -0.65841943 -0.5284707 0.12221496 0.766068 0.28570512 -0.04615237 -0.38267362 0.0009184682 0.05944112 0.47164983 -0.18701725 -0.0075130435 0.058984358 -0.53038 0.5126687 0.042366177 0.03286103 -0.31479838 -0.02374277 -0.25864887 -0.10337274 0.005837761 0.051581543 -0.22721475 -0.15749426 -0.10006294 0.86385417 -0.4263253 -0.25356102 -0.3948324 0.024201557 0.23318854 -0.38427892 -0.71830946 -0.22571257 0.32590118 0.60601807 0.21744746 0.40421233 -0.07967752 -0.33186567 0.7261925 0.52213943 -0.450668 0.38560224 0.23631005 0.15063253 -0.5526317 -0.39372572 0.053114295 -0.4120481 0.7401254 -0.47198308 0.87190276 -0.031747676 0.32206967 -0.6880487 -0.0668185 -0.18928087 0.04347666 0.18885131 0.22737795 0.24881011 -0.23345077 0.44297105 -0.057798974 0.37376952 -0.06799049 -0.2010051 -0.18806738 -0.4793777 -0.7768451 0.5491992 0.09970671 0.18446964 -0.60984826 0.16304441 -0.37554634 -0.16553111 -0.01579026 0.17696802 -0.20779553 0.013052537 0.09671837 0.067082465 0.33883002 -0.120917425 0.48062956 -0.6354227 -0.011901755 -0.17777786 0.1875248 0.46797478 0.24179165 -0.11629651 0.5960429 0.42254454 0.8487579 -0.0026911183 -0.3918365 -0.34960696 -0.3948934 -0.60787416 0.09032217 0.30712888 -0.122101806 0.45802245 0.38900253 -0.27673852 -0.1182617 -0.04850332 0.016481487 -0.20997912 -0.4486904 0.36726722 -0.68301284 -0.08384346
20734 -0.4017794 0.27487662 -0.23282842 -0.21964113 0.096569 0.6084851 -0.41904727 -0.73337436 -0.28408685 0.5440686 -0.41085976 -0.5797954 -0.42412055 0.29627523 0.11352072 0.20692009 -0.7553827 0.48456782 -0.29284218 -0.5609152 0.65475076 0.25133434 0.036365654 -0.009700033 -0.46954829 0.1110392 -0.35265794 -0.12722528 -0.1491983 0.28798634 -0.17046142 0.03608015 -0.25915578 0.04392077 -0.16655023 0.59529567 -0.22552972 0.6160101 -0.11343099 -0.44389662 -0.28806219 -0.09010774 0.25113118 -0.10108801 -0.64397156 -0.16036664 -0.04977489 0.04786882 -0.25613877 -0.2389972 0.42328447 -0.052557915 0.25497013 -0.057088718 -0.35437444 0.44078195 -0.046512697 0.17164084 -0.3449651 -0.4066697 -0.23583654 -0.3819849 0.22142337 -0.5430478 1.1608138 -0.040031347 0.4855144 -0.8092763 -0.18092199 -0.6948597 -0.40086082 0.01937552 -0.23106362 0.1858887 -0.09636951 0.0070409914 0.012863189 0.8388811 0.16193517 0.13572232 -0.46498036 -0.07292776 -0.2409967 0.17986326 0.6148864 -0.33282542 -0.25260255 -0.28052384 -0.2532397 -0.18336987 0.21902648 0.44171846 -0.41511485 -0.21928684 0.8295482 -0.0739897 -0.044198524 -0.2567781 0.17484093 -0.31712225 0.07400034 -0.18029997 -0.58998364 0.48566538 -0.25005993 0.23400885 0.10987561 0.28315622 0.14665225 0.16072428 -0.06403804 -0.31019086 0.0054222187 -0.24772707 -0.2579018 0.6506842 -0.56145716 0.84973425 0.4284833 -0.22219923 0.31626213 0.2659 -0.33636987 0.31727326 -0.3891644 -0.20698272 -0.58612347 0.10897929
3131 -0.1388255 -0.28651747 0.5194259 0.048004664 0.15387045 0.5786989 0.2913575 -0.6365427 -0.04165709 0.24059361 -0.32252786 -0.06276449 -0.35670105 -0.6046261 0.25092372 0.049624898 -0.6165166 -0.026858103 -0.7023051 0.14584173 0.3592683 0.3876644 -0.3560264 -0.446228 -0.6316866 0.4274853 -0.40436545 0.026934838 0.042759396 -0.044172466 -0.3359473 0.6726913 0.0028666053 0.5452244 0.09348998 0.081053 -0.27996776 0.15492058 -0.45883143 -0.62875265 -0.5170118 0.29805368 -0.16317289 0.011777569 -0.39267156 -0.39063758 0.67095447 0.0911701 0.22853406 -0.06818046 0.5327402 -0.25532413 -0.18029687 -0.040821098 -0.3678146 0.6691909 0.62911314 -0.64275736 -0.5709523 -0.3271109 -0.0014748797 -0.9030603 0.15420525 -1.1600966 0.70142037 0.08885347 0.49104565 0.024212461 -0.18842033 -0.16954993 -0.4070325 0.35795456 -0.5729714 0.13702947 -0.22855388 0.12679861 -0.24247725 0.14569655 0.45316094 -0.6122046 -0.35461292 -0.20417123 0.06303967 0.08888842 0.5473564 0.31132022 -0.514588 -0.034283333 -0.2235733 0.37055394 0.24911582 0.20005567 0.18897271 -0.33135858 0.54100007 -0.07641397 -0.11021911 -0.31847334 0.4772935 0.0071514454 0.33635166 -0.39914677 0.16100207 0.4488621 0.031593446 0.58023816 -0.07794124 0.39592862 0.46551797 -0.3021226 0.03420463 -0.16986158 0.29281542 -0.09605533 0.31465173 0.43487453 -0.46833393 0.61106974 -0.09837854 -0.6021437 0.046305083 -0.104862265 0.38778153 0.56970525 -0.61949134 -0.13318619 -0.08751966 0.09605845
14809 -0.16496314 -0.27592146 0.5719431 0.07154107 0.19789073 0.66370213 0.28448397 -0.6953737 0.063135736 0.22670488 -0.4399556 -0.107276335 -0.40494186 -0.6607368 0.2787623 0.0796782 -0.6498894 -0.050432004 -0.69548374 0.1996979 0.38652653 0.448533 -0.35792708 -0.569494 -0.68509394 0.390112 -0.5209408 0.047259513 0.1068462 -0.02749142 -0.38717768 0.72756034 -0.00096445973 0.5538312 0.1311223 0.036511943 -0.20661923 0.15090877 -0.47363505 -0.57968616 -0.49519864 0.2427408 -0.12976938 -0.015704546 -0.42578274 -0.35284942 0.7891903 0.053202044 0.25268266 -0.07264762 0.5877388 -0.163705 -0.21992198 -0.08103365 -0.40165013 0.7328139 0.69483876 -0.60299957 -0.59659696 -0.40300328 -0.058201164 -1.0401784 0.23372549 -1.2306247 0.7089972 0.13554022 0.5341167 0.04791294 -0.23488505 -0.24500096 -0.4065905 0.3624175 -0.66699356 0.180642 -0.19783646 0.124287896 -0.28213698 0.12504974 0.4598777 -0.70630366 -0.3048552 -0.18168236 0.019550303 0.03168046 0.63700545 0.36606556 -0.61223775 0.018981742 -0.18712065 0.39981464 0.24238138 0.20576021 0.18485591 -0.41833824 0.5565184 -0.05168803 -0.07509522 -0.27021703 0.5133224 -0.05198739 0.46425283 -0.40154898 0.21538204 0.43067276 0.045555413 0.6450083 -0.05905912 0.41145545 0.47593126 -0.27638957 0.0182013 -0.19788449 0.2608158 -0.10302025 0.26226252 0.5072037 -0.5575401 0.5957904 -0.12100678 -0.5721825 0.036563274 -0.11493943 0.46624658 0.61710846 -0.58572364 -0.075288706 -0.14300014 0.105107844
14609 -0.06578624 0.21062317 0.41121605 -0.4875848 0.42684677 0.78137046 0.48518628 -0.52708346 0.6147019 0.16989926 -0.7747198 -0.066098236 -0.27209142 -0.5743283 0.9960265 0.2735134 -0.7988185 -0.24887857 -0.0726929 -0.07232644 0.2546961 -0.25878212 -0.5394228 -0.66360134 -0.6236324 0.4992318 -0.566257 0.20388608 0.62057745 0.025978971 -0.25010893 0.32053134 0.103490725 0.09325541 -0.025561426 0.70554733 0.14812557 0.40050107 -0.39121 -0.37240848 -0.14080316 0.5331754 -0.32687613 -0.3217444 -0.16920024 -0.18260044 0.29298055 -0.09147515 0.30435804 -0.24394365 0.38660055 0.2644163 0.14270647 0.6898863 -0.33675343 0.4426473 0.29755038 0.39074835 -0.39893907 -0.2107196 -0.7252428 -0.13529637 0.29001725 -0.29200748 0.36481774 0.39612606 0.36522755 -0.19344406 -0.12124306 -0.21258296 -0.06312203 0.02753362 -0.13874894 0.6726799 0.16071612 0.3306854 -0.22316532 -0.117038034 0.16176051 -0.7131363 -0.19299607 0.07577422 -0.41161022 -0.117896415 0.22609115 0.10178186 -0.35582393 -0.010031383 -0.3664453 -0.17316322 -0.18558754 0.39854693 -0.1414396 -0.46033204 -0.09293948 0.15152553 -0.3670873 0.10685228 0.36848214 -0.08039049 0.56856924 0.6406758 0.48155713 0.3279345 0.3574928 0.53800017 0.24208438 0.06527683 0.31443238 0.07566231 0.05464112 -0.01857356 -0.42017788 0.097672105 0.6621288 0.57091737 -0.23842803 0.18921345 0.14423324 0.22344722 -0.004945643 -0.69532984 0.4676389 0.14674093 -0.070082486 -0.17962809 -0.50543845 0.055238783
22101 -0.19497362 -0.1154633 0.5372416 -0.055741932 0.08218102 0.39262775 0.22295924 -0.48286587 -0.14350905 0.29323602 -0.16705917 -0.13616812 -0.2711674 -0.5437373 0.20482363 0.048438303 -0.5435425 -0.04728658 -0.6177261 0.039071493 0.3757034 0.29763833 -0.34339377 -0.25615233 -0.55596954 0.46624002 -0.28562078 0.08233003 -0.05204426 -0.066388704 -0.26216373 0.57536626 -0.0439375 0.4293229 0.17187056 0.13242802 -0.32702747 0.16026886 -0.43409026 -0.61454093 -0.46865457 0.40769276 -0.1474664 0.06755298 -0.40495214 -0.35500866 0.72439796 0.04199138 0.1382143 -0.11386771 0.54217315 -0.16766137 -0.17808922 0.026827829 -0.26737148 0.47788423 0.5575563 -0.5752948 -0.6216559 -0.15945178 -0.0028627114 -0.75880945 0.18819246 -1.1058465 0.68190545 -0.004040839 0.41191426 -0.07870815 -0.09025518 -0.12531166 -0.366725 0.3918507 -0.40117225 0.047720626 -0.15050843 0.104726866 -0.2593329 0.12583117 0.4387543 -0.55486774 -0.44784585 -0.29403454 0.121408574 0.1168703 0.47091064 0.2850375 -0.53100425 0.004506152 -0.3520342 0.42032808 0.13326868 0.30873567 0.25952685 -0.10783418 0.50275946 0.031335074 -0.17798525 -0.4059136 0.52020186 -0.064288154 0.06688273 -0.45248416 0.2461741 0.4432283 0.025496531 0.42630997 -0.115105085 0.31893846 0.42068252 -0.2782389 0.06284625 -0.28731993 0.2833313 -0.0780577 0.23352268 0.40288886 -0.35426542 0.6009576 -0.030907504 -0.57635266 0.036138184 -0.08285278 0.22601971 0.49581933 -0.5566112 -0.21561553 -0.14152953 0.07660469
9870 0.14749777 0.16510366 0.050578345 -0.25004318 0.82647794 0.91186523 0.340464 -0.15248144 -0.06537774 0.40311363 -0.7056482 -0.28247863 -0.16580172 -0.3742806 0.7272964 -0.12118133 -0.47742218 0.08575376 -0.1035597 0.037722494 -0.06551808 -0.34278595 -0.5815401 -0.5349414 -0.8743762 0.32405195 -0.17951684 0.40710855 0.22224823 0.22421548 -0.2646714 0.41469523 0.2544175 0.008755886 -0.32602566 0.32597405 -0.16619639 0.43989977 -0.31421956 -0.5979408 0.14548445 0.022947699 -0.070771575 -0.65523034 -0.12098297 -0.24375263 0.1583788 0.08247957 0.6943287 -0.080687135 0.26305154 -0.13273019 0.55552363 0.13963944 -0.53951913 0.17704122 0.44811723 0.13716255 0.07689693 -0.48040357 -0.29618338 -0.45953637 0.33691567 0.061400104 0.8297271 0.25587112 0.06938432 -0.03904542 0.3245763 0.03075879 -0.25442833 0.19884568 0.03798235 0.35508323 0.10522271 0.18917896 0.12965758 0.16476585 0.22188568 -0.1192254 -0.42638907 -0.16660143 -0.6657921 0.0060395077 0.37907508 0.1789553 -0.53638786 -0.08913409 0.12519549 -0.6144052 -0.22041434 0.49794152 -0.17419922 -0.44285044 -0.22921534 0.2324797 0.0078127775 -0.14682817 0.6601718 -0.47128475 0.39508107 0.3115006 0.07691214 -0.102886334 0.17811827 0.44661915 0.0012981731 0.15733601 0.5675471 0.16568343 0.059967108 -0.12401329 -0.09983947 -0.28875992 0.5886623 0.2687893 -0.42940447 0.6098732 0.3067867 0.26931852 -0.04260517 -0.15963008 0.21618833 -0.013249768 -0.35467535 0.09665213 -0.02651486 0.16108316
33542 -0.047035087 0.27417508 -0.3155242 0.0034137738 0.04268662 0.5889795 -0.26834995 -0.36476114 -0.4527321 0.47486258 -0.52251434 -0.7210298 -0.5556833 0.1605976 0.6963381 0.2829176 -0.026194593 -0.30630937 -0.015261747 0.031600837 0.47910196 -0.12400557 0.00053726253 0.12390661 -0.5014366 0.5205795 0.11636273 0.01745898 -0.39645463 0.014637463 -0.2552076 -0.090186976 -0.029840458 0.13518639 -0.20125753 -0.19658805 -0.13853534 0.89987993 -0.45659995 -0.27916345 -0.44128788 -0.0063989167 0.2667785 -0.32753894 -0.73379064 -0.26261464 0.31074184 0.6066439 0.15708525 0.3734369 -0.027803563 -0.4166294 0.71077293 0.47802797 -0.4353676 0.35645685 0.2386445 0.055905845 -0.58024395 -0.37740806 0.12038689 -0.39969733 0.76394725 -0.5976606 0.924988 -0.1048235 0.32438254 -0.6926552 -0.05592005 -0.2114373 0.032324813 0.23902781 0.20983699 0.1588056 -0.26712403 0.41351786 -0.0728248 0.4576939 -0.09801532 -0.22882698 -0.25476328 -0.56872207 -0.72093666 0.6426294 0.14615571 0.16191426 -0.62442595 0.13046743 -0.42803562 -0.14222406 0.022132957 0.1404824 -0.2135376 0.059481394 0.17672433 0.053561255 0.35651165 -0.20825437 0.48317975 -0.6478048 -0.076938145 -0.31735313 0.14713328 0.5038016 0.24124427 -0.16975665 0.5518463 0.44975287 0.8508049 -0.047897838 -0.38565245 -0.3682236 -0.30942136 -0.6289936 0.037101258 0.30714676 -0.1022245 0.5167422 0.37382966 -0.377966 -0.08758482 0.072485425 -0.06945317 -0.1757564 -0.4904932 0.39512748 -0.65285844 -0.09393959
12648 -0.34961239 0.36136314 0.29568437 -0.187999 0.26185897 0.60211587 -0.047742043 -0.11062238 -0.2700323 0.5177735 -0.0615737 -0.7765981 -0.22503783 -0.44158354 0.21112847 -0.009347656 -0.4279112 -0.23965192 -0.10986298 -0.28439355 0.58989596 -0.23294681 -0.14948156 -0.09921074 -0.59314096 0.4776913 -0.201857 0.14238043 -0.3380878 -0.04705566 -0.12013388 0.25322148 -0.03140011 -0.16277628 0.121825695 0.21886034 -0.40487698 0.27051386 -0.30850106 -0.47481766 -0.27569494 0.48441744 0.04161169 -0.06561556 -0.49790668 -0.173425 0.44417375 0.033273447 0.08686866 -0.10414501 0.5364059 0.314773 -0.10261481 0.039923288 -0.34914106 -0.071320936 0.29321417 -0.09369047 -0.40447912 -0.19454756 -0.0023303684 -0.6582111 0.12665214 -0.7626334 0.8036897 -0.037736423 -0.107939534 -0.15013902 -0.21344426 -0.1249138 -0.07622094 0.3239578 0.23859267 0.17289998 0.2379514 0.1687102 -0.36373314 0.19764826 0.37604627 -0.40917817 -0.5694973 -0.29028776 0.03963429 0.07259317 0.58088815 0.18672752 -0.46454713 0.15313691 -0.57060695 0.009452976 -0.42326662 0.6602687 0.19792081 0.11312298 0.20219778 0.44510502 -0.24651954 -0.4641041 0.64995056 -0.5313109 -0.2689576 -0.29119456 0.27367258 0.2510311 0.20413299 0.10079 -0.13692813 0.28107208 0.4865315 -0.16298395 0.0128512075 -0.29351938 -0.07597772 -0.26326564 0.11953276 0.46437535 -0.13686027 0.7223484 0.14396153 -0.4968501 0.24873745 -0.079527654 0.131193 0.21513996 -0.35418263 -0.2155093 -0.39814082 -0.0051311716
30761 -0.19006865 0.18907845 -0.03506508 -0.16403143 0.23009007 0.7019884 -0.111065805 -0.5811245 -0.16167007 0.4251988 -0.5181709 -0.34460425 -0.46378863 -0.15750499 0.6464863 0.31840938 -0.46631923 -0.00080172485 -0.1285401 -0.066595845 0.50386524 0.011454422 -0.29168344 -0.15205419 -0.40781936 0.5423058 -0.14335126 0.011424978 -0.03214671 0.067482874 -0.32267576 0.18866944 -0.0025983222 0.21569948 0.03965902 0.3311112 -0.2689049 0.53731 -0.52548945 -0.37693176 -0.32972348 0.18574567 -0.019376231 -0.09368081 -0.45378712 -0.26260307 0.21768084 0.26206186 0.1925304 0.08561905 0.2472331 -0.2055033 0.34461954 0.400524 -0.3016379 0.29887176 0.29257396 0.020243756 -0.6877825 -0.38071087 -0.18343852 -0.42056948 0.48599717 -0.6600744 0.9456959 -0.06639022 0.51673216 -0.4123974 -0.11729834 -0.22257115 -0.22499697 0.11156307 -0.07515907 0.17861605 -0.278033 0.3408669 -0.15617439 0.45889822 -0.025805283 -0.31676206 -0.43388194 -0.17925099 -0.39456803 0.33233878 0.38182396 -0.041275438 -0.50275654 -0.12673864 -0.32990596 -0.08299355 0.16252042 0.20702702 -0.23219147 -0.24541104 0.28951222 0.030985584 0.017515209 -0.20262738 0.46226302 -0.37565562 0.44149232 -0.025405895 -0.05827193 0.49132517 0.15298542 0.1518127 0.29563823 0.31807855 0.6250007 -0.026039226 -0.089271605 -0.2585235 -0.065648004 -0.42400584 0.115625516 0.38673595 -0.48861998 0.47313136 0.23966025 -0.27254874 0.14651105 -0.07548504 0.088638656 0.13428617 -0.46287388 0.121414796 -0.50410885 0.023877067
23372 -0.11367475 0.34864706 0.07061478 -0.00076664344 0.30128953 0.5776363 -0.24002871 -0.54423225 -0.24585684 0.533914 -0.50984585 -0.35940322 -0.51802355 -0.2623487 0.71843386 0.33554664 -0.4122001 0.25190213 -0.043671645 0.04759356 0.46159422 0.026036963 -0.350342 -0.32910427 -0.36901423 0.5723947 -0.111636534 -0.13312039 -0.08857463 0.14414917 -0.49505284 0.26868254 -0.092971705 0.26407647 0.05369831 0.4179383 -0.49493912 0.38370377 -0.820426 -0.47608632 -0.49014887 0.056593645 -0.011231354 0.050701637 -0.42620048 -0.30899036 0.1514796 0.15574221 0.05659946 0.20274518 0.4331724 -0.22853665 0.39911824 0.3146996 -0.33176845 0.21157192 0.31370068 0.121062644 -0.6396965 -0.34811887 -0.2654373 -0.23812738 0.47093216 -0.8135456 0.9618227 -0.17182375 0.64045835 -0.2890258 -0.20632112 -0.3189479 -0.4168027 0.14416061 -0.30094472 -0.0370716 -0.31874862 0.21574989 -0.3570153 0.48517984 -0.1394495 -0.4515814 -0.42605385 -0.15066916 -0.31235445 0.538229 0.48574534 -0.113118656 -0.2974126 -0.24065848 -0.3917601 -0.11344257 0.0841528 0.1135974 -0.46649355 -0.16525675 0.27240628 0.13284595 0.083893135 -0.24083444 0.5066992 -0.42480308 0.6871502 -0.15622434 0.09931971 0.4845258 0.18554634 0.17937243 0.36085677 0.2668877 0.61978024 -0.021221539 0.021859596 -0.5374612 -0.01725856 -0.5553661 0.0041869245 0.55370396 -0.44989586 0.34566978 0.13557394 -0.1729167 0.19602905 0.03768477 0.21022162 0.023267109 -0.39746448 0.26468962 -0.58363146 0.06690414
33351 -0.11262483 0.1645541 0.087925225 -0.017666541 0.20925832 0.48704287 -0.17483383 -0.4307083 -0.178653 0.4025641 -0.3788392 -0.16493559 -0.33519548 -0.103929035 0.5731054 0.17620325 -0.26828334 0.20491894 -0.037350602 0.07468142 0.37063333 0.05637584 -0.292585 -0.23246509 -0.24842562 0.36281034 -0.0028055618 0.05770442 0.030936489 0.09630291 -0.27181602 0.2722677 -0.044168405 0.23384139 0.15898815 0.13974136 -0.28643686 0.32663456 -0.4340057 -0.33797947 -0.18291324 -0.0051448573 0.037886154 -0.03541116 -0.29111472 -0.19700684 0.086130224 0.24142015 0.24925935 0.29796168 0.3038983 -0.22216013 0.33510187 0.43303242 -0.23091342 0.12845232 0.33495468 -0.04773063 -0.49724686 -0.20922375 -0.12077832 -0.16696633 0.4650924 -0.55936766 0.6984489 -0.26421013 0.49291682 -0.059731476 -0.0028876823 -0.069978006 -0.2563237 0.25017256 -0.057561606 -0.05140543 -0.2574516 0.22082864 -0.18968984 0.4288529 -0.17128226 -0.22430767 -0.35048008 -0.120609306 -0.42720854 0.41598767 0.42571983 0.089199826 -0.23636232 -0.11487622 -0.34172 0.019229664 0.119728155 0.091963634 -0.30868128 -0.14841236 0.095821336 -0.07219375 0.06644343 -0.2169873 0.42093346 -0.32844922 0.4534101 -0.13844654 0.019110957 0.33763784 0.15904379 0.0927408 0.41142172 0.19760978 0.51345485 0.08146756 -0.028165026 -0.36665633 -0.028844757 -0.38673815 -0.06514881 0.27835646 -0.30855647 0.408863 0.15787931 -0.22167094 0.13518071 0.10873989 0.16110584 -0.08125733 -0.4132918 0.11835754 -0.42435235 0.0017168194
19295 -0.20467317 0.16460858 0.0011297636 0.011450368 0.11201012 0.68256307 -0.28327078 -0.7063327 -0.41228795 0.45692366 -0.655165 -0.41756472 -0.5673205 -0.37916377 0.53882396 0.4694375 -0.41458827 0.071670644 -0.10979489 0.06269978 0.53896165 -0.022567794 -0.30424562 -0.1455295 -0.4378601 0.7219536 0.01670903 0.0784411 -0.23018482 -0.03338903 -0.52512795 0.3548137 0.073608354 0.22802484 0.15853253 0.25606412 -0.5116519 0.51309216 -0.7105736 -0.5728224 -0.3778398 0.18445583 0.10442216 -0.07703708 -0.68480694 -0.2362899 0.45455042 0.31880096 0.37505627 0.1519203 0.250234 -0.43022183 0.54513377 0.46965817 -0.41659036 0.2333022 0.4710895 -0.24852341 -0.8145356 -0.31686312 0.08500666 -0.51004887 0.5565248 -0.77225804 0.9852628 -0.19231646 0.50289035 -0.36192536 -0.107430995 -0.13193698 -0.31889513 0.27317706 -0.082652315 -0.03646621 -0.3979744 0.30676797 -0.29982713 0.53967184 0.038254816 -0.48112482 -0.53144103 -0.4313693 -0.35041085 0.5795693 0.48627806 0.118449755 -0.63320255 -0.031442538 -0.36707267 0.05498437 0.11749378 0.2325831 -0.05851069 0.04348076 0.4027922 0.03759967 0.088926256 -0.33886704 0.685687 -0.5088782 0.3411009 -0.12871338 -0.023986733 0.52215725 0.18790497 0.15381955 0.433406 0.35799697 0.85633177 -0.1274515 -0.16046765 -0.44402525 -0.03186198 -0.637278 0.120581664 0.1340834 -0.36491492 0.62321645 0.21721375 -0.5827506 0.13847792 -0.047188573 0.20308095 0.08347488 -0.6832843 0.14428368 -0.62530816 0.0048813866
1000 -0.10151887 0.18123007 0.14468339 -0.085251294 0.30635825 0.8062464 -0.199272 -0.63183004 -0.04709799 0.4643148 -0.61645055 -0.26452404 -0.4052451 -0.33587706 0.8502002 0.15970081 -0.47610775 0.035083655 -0.21585968 0.059627824 0.3684711 0.048707314 -0.33995226 -0.2839448 -0.58542615 0.7208769 0.017478047 -0.02445372 0.08084568 0.034149952 -0.36372128 0.27197576 -0.10546589 0.36952683 0.058014654 0.20199484 -0.45236775 0.6154225 -0.6592394 -0.52352375 -0.3353566 0.13892607 0.06937009 -0.16764489 -0.45414793 -0.3774354 0.33849427 0.24490505 0.32744133 0.17004603 0.39100456 -0.3212681 0.31983918 0.5341139 -0.36631545 0.3438591 0.38833272 0.025959654 -0.6468906 -0.42423388 -0.12935287 -0.39656433 0.6366365 -0.81388414 0.99244547 -0.14172879 0.55084395 -0.1816159 0.07719028 -0.18686558 -0.25998512 0.25089756 -0.10213534 0.12998195 -0.19653098 0.36262405 -0.104943514 0.4396405 -0.056370366 -0.42921165 -0.58212745 -0.275174 -0.44796532 0.5467979 0.43260288 0.054101545 -0.47773862 -0.06870593 -0.42852244 0.05113803 0.058519404 0.24942684 -0.24389414 -0.28468516 0.3291118 0.046780363 -0.03703283 -0.31740087 0.65897876 -0.41437706 0.5072353 -0.09016224 0.1882859 0.46269456 0.13876688 0.27466422 0.35233378 0.44859824 0.6860202 0.074510306 -0.05061321 -0.46858323 -0.0053965044 -0.4770929 0.08823432 0.3924626 -0.4225364 0.517704 0.23039167 -0.33066148 0.087379195 0.0024336516 0.25190115 -0.034079045 -0.5080851 0.23424913 -0.5724739 0.023467379
23707 -0.09443008 0.34683448 0.08728683 0.0021736235 0.34393114 0.5552432 -0.22867048 -0.52910036 -0.22648087 0.52487373 -0.52034515 -0.32994533 -0.5289393 -0.2724466 0.74622804 0.32628384 -0.40822867 0.2808732 -0.04860748 0.07995602 0.4772512 0.025330024 -0.38779098 -0.35226703 -0.36435935 0.5918884 -0.15149148 -0.1475945 -0.04519271 0.18734252 -0.5136678 0.30172312 -0.09250655 0.28060222 0.04791282 0.43485597 -0.51958317 0.36534253 -0.8410423 -0.49015266 -0.49186575 0.054662533 -0.020828484 0.04557642 -0.39276838 -0.32114556 0.13371916 0.13650644 0.041155033 0.19825916 0.46802658 -0.24137577 0.38669267 0.3094252 -0.33395275 0.18989924 0.3345072 0.13432473 -0.6320287 -0.3532642 -0.30024338 -0.23325959 0.47612172 -0.8245783 0.9624938 -0.16013423 0.64163226 -0.25113827 -0.19721813 -0.33651605 -0.43726116 0.12466332 -0.35878 -0.06498245 -0.33391494 0.20422189 -0.3628782 0.49709538 -0.16447395 -0.47967055 -0.43273294 -0.13446686 -0.30888805 0.5360718 0.50671124 -0.12407417 -0.27469185 -0.25297102 -0.37779915 -0.12977062 0.08098306 0.08915071 -0.52651894 -0.20167646 0.26204464 0.11916904 0.10584361 -0.2533785 0.51321894 -0.42903048 0.74639803 -0.13551684 0.12158557 0.4920915 0.18448348 0.18190011 0.3532036 0.25442418 0.6165292 -0.018627655 0.046427254 -0.53387326 -0.008438032 -0.5468063 -0.0024681143 0.5832317 -0.47156826 0.3223579 0.12912557 -0.13594553 0.18280587 0.01107429 0.23415764 0.03557308 -0.38233137 0.27987117 -0.59423643 0.076219626
35217 -0.13384947 0.1666518 0.1261084 -0.09221107 0.28593537 0.8289709 -0.217119 -0.661707 -0.05369955 0.47043422 -0.64598763 -0.28964612 -0.4253615 -0.32725996 0.8386398 0.18880635 -0.48478335 0.072288945 -0.20190983 0.054863524 0.36860433 0.07316351 -0.33490542 -0.27394488 -0.55877876 0.7010474 0.032318853 -0.06384363 0.06719764 0.04178235 -0.35841548 0.2580638 -0.11452065 0.3940879 0.07791873 0.21695052 -0.4568197 0.64492446 -0.6773113 -0.49262628 -0.34713173 0.13396913 0.08646845 -0.15973388 -0.45985204 -0.3705465 0.3392164 0.25212538 0.32648465 0.16224536 0.39066696 -0.32949036 0.34257537 0.57912654 -0.3747827 0.3509375 0.3748962 0.036179796 -0.6610595 -0.4233278 -0.12841399 -0.3814427 0.66257936 -0.810654 1.0423552 -0.14873528 0.5660659 -0.21286514 0.06680886 -0.20059614 -0.25498047 0.24546693 -0.09651001 0.13595824 -0.21224599 0.35813078 -0.13223937 0.45663798 -0.07906238 -0.40908012 -0.56312394 -0.28503314 -0.47742033 0.59596044 0.43285614 0.06794369 -0.49503842 -0.07375374 -0.43850845 0.03267297 0.09996205 0.23589607 -0.26161176 -0.27507275 0.34398013 0.046006177 -0.050197147 -0.30986404 0.6309258 -0.4211792 0.52125573 -0.08535606 0.16747232 0.48959517 0.14527023 0.2718519 0.39949778 0.4428261 0.693892 0.0671479 -0.05427547 -0.49155846 -0.0019528773 -0.44225356 0.09601267 0.36563334 -0.42967516 0.5117448 0.24625951 -0.33382875 0.081586115 0.0067731007 0.22586673 -0.03823809 -0.5118937 0.27555448 -0.5675548 -0.0007389155
27674 -0.12492623 0.20240767 -0.057419207 -0.16929118 0.38582993 0.8179245 -0.082687974 -0.5925425 -0.07049375 0.50066453 -0.5459791 -0.22941168 -0.5167877 -0.07750406 0.8202867 0.30597082 -0.52468705 0.12260427 -0.05267748 -0.046065383 0.4791826 -0.11765218 -0.31080908 -0.349698 -0.56153244 0.64308697 -0.18159059 0.00223228 0.16254234 0.036209438 -0.19001676 0.16974516 0.011244425 0.23433848 -0.091432504 0.34073827 -0.2391616 0.716726 -0.63205886 -0.49776655 -0.32944456 0.033441246 0.07841725 -0.22447239 -0.39812845 -0.348108 0.0020043226 0.24568243 0.3303884 0.1517509 0.22962321 -0.24952677 0.41399702 0.47771284 -0.2902958 0.36508355 0.24814507 0.089902274 -0.4756175 -0.44753814 -0.19217572 -0.3338263 0.4031088 -0.4617811 0.885842 0.05049753 0.57490623 -0.3479248 -0.11686985 -0.19348435 -0.17855293 0.07593927 0.04161952 0.2564011 -0.13793725 0.41395628 0.01611191 0.47035018 -0.041991245 -0.3152002 -0.3730472 -0.12572259 -0.55890316 0.3725879 0.3422236 -0.25235456 -0.3282939 -0.19560948 -0.267242 -0.22652146 -0.0029718166 0.29558665 -0.41426373 -0.3910754 0.27303904 -0.054491885 0.03696307 -0.15535548 0.46534345 -0.31262502 0.5700507 0.20115013 -0.062402856 0.3809708 0.10001124 0.31814668 0.3655309 0.41015187 0.60992175 0.16384658 0.06771734 -0.253348 -0.2096159 -0.5010529 0.1266994 0.4670861 -0.45105964 0.50540555 0.27805194 -0.19764134 0.21272433 -0.029331654 0.25017795 -0.028038371 -0.55167574 0.092447504 -0.6193368 0.052942313
29102 -0.12389236 0.21056364 -0.07510066 -0.16856728 0.359133 0.80842274 -0.11559318 -0.5802447 -0.082387716 0.4949505 -0.57834756 -0.23281363 -0.52792585 -0.076369956 0.84526646 0.32072946 -0.48258874 0.10883319 -0.008478394 -0.033457845 0.46511093 -0.11487022 -0.31712738 -0.33988348 -0.5356717 0.6376548 -0.14253032 -0.008362185 0.15202682 0.031015603 -0.20569195 0.13749658 0.009829327 0.2252833 -0.0820126 0.32114902 -0.2428699 0.7201741 -0.6509709 -0.47169408 -0.33999774 0.014025625 0.079331405 -0.21393973 -0.41065255 -0.32195336 0.01824042 0.26281682 0.33406186 0.18996878 0.19520323 -0.25087896 0.46590155 0.5028186 -0.2995594 0.36110651 0.24232134 0.10492893 -0.47943595 -0.43422887 -0.18383881 -0.30201036 0.44501394 -0.44920552 0.88067114 0.030725189 0.5985419 -0.36016098 -0.10466047 -0.20131078 -0.17561744 0.07304341 0.043143205 0.23469669 -0.18175337 0.42203128 -0.0043433364 0.4741346 -0.084526256 -0.3275826 -0.34443703 -0.12462116 -0.5848423 0.42460158 0.29972467 -0.2295008 -0.32668614 -0.19176275 -0.26313666 -0.25103956 0.0137737915 0.27251992 -0.43149757 -0.3614428 0.23646043 -0.050473895 0.063119255 -0.1493478 0.46790785 -0.3390997 0.5733445 0.2064025 -0.0451434 0.38394406 0.13128875 0.29027545 0.43148342 0.3854513 0.6293256 0.16297345 0.050334334 -0.26869416 -0.22845551 -0.5266696 0.12196652 0.4413655 -0.42649773 0.46940002 0.28004187 -0.18070479 0.19125612 -0.031545177 0.24825472 -0.06755418 -0.54163563 0.13455227 -0.6278604 0.039366785
31462 -0.17104992 0.23077877 -0.061311964 -0.095845796 0.20576113 0.7746541 -0.30198923 -0.742937 -0.3638552 0.6281111 -0.68589085 -0.40118203 -0.49750742 -0.19279933 0.6998887 0.3686839 -0.4892532 0.17241105 -0.19072792 0.0011471815 0.40260988 -0.062179912 -0.28688774 -0.32289198 -0.5447957 0.6858141 0.047711086 0.0061855433 -0.09046939 -0.046133604 -0.37483373 0.2817127 -0.03335837 0.29350033 -0.0066315434 0.36768565 -0.47477657 0.697878 -0.64588565 -0.5272646 -0.33341005 0.09502602 0.12905335 -0.11274837 -0.6511459 -0.2552453 0.18396674 0.33744287 0.40108418 0.13116571 0.33480158 -0.36695072 0.55534655 0.49348062 -0.38971892 0.39123863 0.3770677 -0.07914661 -0.63469374 -0.36799088 -0.0471115 -0.37429604 0.5109281 -0.7210425 1.0653973 -0.17317708 0.67425025 -0.3275962 0.03394947 -0.22877286 -0.2650514 0.24953571 0.031650826 0.04287558 -0.15838426 0.41665232 -0.11639526 0.53102577 0.0417327 -0.33518147 -0.5730466 -0.29229447 -0.531721 0.5459457 0.42306954 -0.028207447 -0.52786887 -0.10997209 -0.37639332 -0.08712089 0.121525206 0.37441328 -0.1814563 -0.134871 0.35815102 0.03470835 -0.017527014 -0.2481209 0.6997583 -0.4579518 0.29274827 -0.0842019 -0.0015866542 0.5179912 0.1357647 0.2381521 0.548487 0.37380823 0.7213147 0.09873392 -0.17093724 -0.46618554 -0.08145791 -0.61425227 -0.014262164 0.34472063 -0.39093038 0.6889255 0.3196708 -0.43363556 0.23636527 0.085717775 0.21545292 0.05326197 -0.65738034 0.1324324 -0.5797975 0.03715315
24765 -0.07050513 0.11036857 0.025017602 -0.025145132 0.36286047 0.7945816 -0.23894686 -0.5703467 0.02601586 0.3033345 -0.71815336 -0.24071307 -0.40678614 -0.19177312 0.83531153 0.065479465 -0.27794105 -0.025417866 0.054203007 0.03016299 0.20488891 -0.046497434 -0.30416793 -0.44803423 -0.5273652 0.5762514 0.15834339 -0.0009682852 0.040905144 -0.07372234 -0.18456477 0.14620228 -0.14386995 0.0923305 -0.02678429 -0.053032063 -0.42401394 0.5740524 -0.63421017 -0.52072436 -0.26432598 -0.05995106 0.18158077 -0.24324612 -0.37385824 -0.16594177 0.014362793 0.25878316 0.5460618 0.19624546 0.20340213 -0.19301589 0.37223262 0.3269666 -0.40605104 0.28224587 0.32388866 0.25790477 -0.37177047 -0.56537706 -0.056783453 -0.30546972 0.6743571 -0.4872685 0.95294815 -0.08689489 0.29584214 -0.15295972 0.26398262 -0.06804994 -0.25972486 0.21345338 -0.08520483 0.12584393 -0.13926741 0.33200607 -0.015048516 0.37344068 -0.015252829 -0.27983224 -0.4693592 -0.0931461 -0.47856462 0.57353747 0.3565592 0.06739376 -0.32103798 0.03640913 -0.2953612 -0.101355866 0.13020825 0.19802278 -0.098571375 -0.18887292 0.05106238 0.18159398 0.20582254 -0.21905628 0.6724624 -0.577913 0.4410174 0.09477139 0.0791339 0.33007178 0.18566553 0.3327563 0.29121196 0.22969134 0.6887236 0.14005889 -0.07156557 -0.3474308 -0.10917581 -0.39437002 0.024230411 0.25387517 -0.27477682 0.4112823 0.4499382 -0.12135639 0.12696773 0.15269276 0.40924448 -0.29388845 -0.47761142 0.34772554 -0.5304547 0.001669093
26242 -0.17293116 0.23429544 -0.049428456 -0.118223794 0.18133512 0.7593837 -0.30525762 -0.7279245 -0.3462279 0.6113716 -0.6470115 -0.37841886 -0.47969982 -0.19898885 0.7055653 0.35784927 -0.46651968 0.18502828 -0.18220004 -0.01120721 0.39909187 -0.05444315 -0.27638468 -0.3126404 -0.5312306 0.67539084 0.059178203 -0.0018120615 -0.088039584 -0.056545954 -0.36153644 0.2614056 -0.06313369 0.2906035 0.002304384 0.38072768 -0.45882532 0.6758492 -0.6377707 -0.52163893 -0.32802266 0.104691625 0.12946706 -0.0792527 -0.6500354 -0.26385158 0.187561 0.3151685 0.38486505 0.13016711 0.35402203 -0.35168862 0.5214981 0.48216325 -0.39011306 0.37590668 0.3745618 -0.08054535 -0.64275 -0.3531753 -0.07339267 -0.36122602 0.48733863 -0.71878093 1.0556908 -0.18329495 0.6656906 -0.30970863 0.040578227 -0.24128 -0.25482497 0.2427796 0.026543047 0.037597954 -0.1436567 0.40728799 -0.11017993 0.5183497 0.030242892 -0.34656924 -0.57298607 -0.28474793 -0.4993774 0.54326266 0.40613714 -0.022889111 -0.5111116 -0.1318473 -0.39355427 -0.06464836 0.115485854 0.36334747 -0.18409346 -0.12310813 0.38183546 0.03602642 -0.033196997 -0.26747602 0.7015865 -0.44504043 0.28241485 -0.08933102 -0.005925571 0.5253289 0.13541184 0.22938615 0.5238555 0.3688703 0.6871299 0.09846157 -0.15855385 -0.4735549 -0.0823374 -0.5779029 -0.017895421 0.3601935 -0.3749186 0.67616916 0.32248625 -0.44084418 0.24494646 0.09320542 0.21034591 0.052730016 -0.6424258 0.120832436 -0.58529913 0.059435867
31059 -0.18093777 0.1837515 -0.010150689 -0.15540856 0.23468807 0.70187265 -0.11774879 -0.6002234 -0.1651841 0.41595542 -0.55280405 -0.3510426 -0.4850448 -0.16937424 0.65643317 0.3270501 -0.46446413 0.0042729685 -0.11881269 -0.042663664 0.5102815 0.044698905 -0.29966787 -0.17309545 -0.40536103 0.5441786 -0.13044591 0.018670468 -0.02092094 0.08490932 -0.32969722 0.20237154 0.008940159 0.2548024 0.06271686 0.31263798 -0.28889447 0.5571937 -0.5692026 -0.37035558 -0.34225926 0.1629966 -0.020462254 -0.108726546 -0.456704 -0.2702974 0.25298488 0.24408369 0.18799002 0.10522239 0.25008053 -0.21276008 0.36182764 0.4089525 -0.31167293 0.30439395 0.31253287 0.019486768 -0.71557754 -0.39700457 -0.19720921 -0.43798658 0.5283314 -0.69309354 0.97608685 -0.06392272 0.5401418 -0.43257168 -0.11653286 -0.21308665 -0.2236491 0.13594408 -0.10589228 0.16305059 -0.30855238 0.35504225 -0.18507077 0.46939448 -0.04896174 -0.32824045 -0.41277784 -0.1908764 -0.4278467 0.36407438 0.41439122 -0.03128078 -0.52936035 -0.10827348 -0.35513225 -0.06371055 0.16626845 0.1901013 -0.24544275 -0.24585983 0.29602358 0.019848214 0.02559449 -0.2144948 0.47768632 -0.40960574 0.4883683 -0.0562097 -0.036659807 0.4948337 0.16285467 0.15613255 0.33000132 0.31001183 0.65423167 -0.013238708 -0.10401453 -0.27334982 -0.044477794 -0.42608607 0.113004334 0.40519896 -0.5020938 0.47036907 0.23005088 -0.27069443 0.1236613 -0.080222555 0.10250577 0.13501036 -0.45927438 0.15248652 -0.5045718 0.014464815
2973 -0.16836922 0.21251412 0.011644889 0.023831816 0.14832334 0.6618616 -0.2745879 -0.67936504 -0.43863177 0.4711017 -0.6659777 -0.4352164 -0.5836397 -0.3747524 0.520029 0.4582757 -0.4267179 0.09112777 -0.13991347 0.065240376 0.6079291 -0.03839282 -0.2956123 -0.15327425 -0.44973388 0.7562058 -0.01064584 0.06374552 -0.21974835 -0.0065547465 -0.52550274 0.38061494 0.10972849 0.26599032 0.1704812 0.22836046 -0.566345 0.50315857 -0.7137905 -0.5801765 -0.38896412 0.17507108 0.08955938 -0.1008515 -0.6626697 -0.26132545 0.43558928 0.30582324 0.3455274 0.1473713 0.25874215 -0.4122822 0.5267124 0.47886762 -0.42222878 0.21421388 0.4981096 -0.26661757 -0.84285885 -0.32541302 0.06680067 -0.5005388 0.5500106 -0.77479213 0.9925919 -0.18824689 0.51737285 -0.36200926 -0.10794361 -0.14132527 -0.32589182 0.30406857 -0.115533985 -0.055355996 -0.4065304 0.32257113 -0.32083082 0.55290914 0.039987393 -0.51766616 -0.5276103 -0.4640498 -0.31753534 0.60211563 0.5256753 0.10024099 -0.64259595 -0.0060800696 -0.36710536 0.056307446 0.08841194 0.23997901 -0.09405294 0.02364482 0.4099182 0.007059601 0.08714512 -0.3648299 0.70357126 -0.5327807 0.36946988 -0.15031126 -0.021713728 0.5322985 0.19441347 0.13018937 0.41331035 0.358022 0.84103346 -0.10953926 -0.15368691 -0.43568748 -0.019042885 -0.6714145 0.12931603 0.161043 -0.36853498 0.6265505 0.20857647 -0.627262 0.14632283 -0.046889413 0.21630625 0.10330325 -0.69076884 0.13282365 -0.6177336 0.005779615
32690 -0.10946411 0.17387618 0.09703147 -0.006478749 0.20373204 0.496093 -0.20489247 -0.43723708 -0.16267647 0.38310322 -0.40086493 -0.17046586 -0.3227698 -0.11622506 0.55522686 0.15135837 -0.2613341 0.21060891 -0.028769596 0.07375399 0.35247856 0.06102268 -0.28794047 -0.23166865 -0.25975543 0.361292 0.008666997 0.049873658 0.0176792 0.08058631 -0.2823245 0.27123415 -0.06525158 0.24066095 0.15949906 0.11820813 -0.28492245 0.32483798 -0.4443792 -0.35580096 -0.17107032 -0.010441771 0.04138456 -0.03799318 -0.2865331 -0.1920114 0.09411174 0.24079472 0.24510907 0.30295646 0.3274379 -0.24791032 0.3313486 0.41786873 -0.24772891 0.13835037 0.3415796 -0.029984836 -0.4994624 -0.21193148 -0.12653719 -0.1678025 0.501359 -0.555601 0.6918843 -0.27361488 0.48599195 -0.047757473 0.015216516 -0.094828635 -0.26981258 0.26305285 -0.09097467 -0.068612956 -0.27287933 0.19681484 -0.18685044 0.42725432 -0.16772799 -0.22915038 -0.362959 -0.13094044 -0.42409742 0.41762793 0.4362839 0.11759594 -0.23548734 -0.096991524 -0.341192 0.032198958 0.11012946 0.09598647 -0.32520232 -0.14614545 0.098999016 -0.05899796 0.096251525 -0.21520121 0.42057654 -0.3237509 0.46712634 -0.15465225 0.046919513 0.34631184 0.16462094 0.07479434 0.423023 0.19767624 0.51347554 0.09097152 -0.039993558 -0.37392062 -0.008490534 -0.40648866 -0.08352191 0.26227656 -0.3065418 0.4315035 0.17224851 -0.2282488 0.11523748 0.109688886 0.16970465 -0.10899186 -0.3940144 0.14748652 -0.4287533 0.0055552386
21620 -0.07503904 0.2663191 0.18492033 -0.11383974 0.3561349 0.72104317 -0.26050726 -0.6547123 -0.19802919 0.5902735 -0.5731807 -0.27610403 -0.41278592 -0.29977393 0.70832163 0.2272362 -0.49863726 0.36390874 -0.08932547 0.024856905 0.5635446 0.05845247 -0.39147514 -0.25806946 -0.49396366 0.5641281 -0.09638879 0.009769035 0.073735684 0.23032261 -0.17528822 0.44168773 -0.15446672 0.35530853 0.23707671 0.29868105 -0.4334197 0.76328367 -0.71422416 -0.53004366 -0.3533797 0.11075563 0.103355415 -0.13206154 -0.52079755 -0.4546128 0.36408687 0.14668043 0.28319794 0.21013515 0.62180555 -0.28533515 0.3761196 0.5712746 -0.35816115 0.24539527 0.4684255 -0.023855446 -0.65439516 -0.40884224 -0.19227453 -0.41438606 0.6275731 -0.7898306 1.1226007 -0.28492767 0.6494053 -0.28877637 -0.05922331 -0.19445552 -0.3365774 0.33801898 -0.018999811 0.13157916 -0.21285585 0.3319606 -0.30840245 0.6182063 -0.12958068 -0.35176325 -0.46798837 -0.37670612 -0.51935583 0.6021422 0.65215933 0.06912426 -0.41667873 -0.12209046 -0.55304646 0.062196814 0.021874294 0.27148318 -0.46843687 -0.29068598 0.33694357 -0.016384145 -0.02862004 -0.38977954 0.60730195 -0.47375378 0.5470529 -0.16505094 0.1169205 0.4382086 0.12954356 0.23388493 0.39325437 0.37728915 0.6672117 0.15643324 0.12749974 -0.50513023 0.062378746 -0.4993172 0.05602914 0.48457938 -0.4790965 0.67242473 0.26590556 -0.24244642 0.20088598 0.06115801 0.17754856 -0.045811903 -0.4853039 0.10164037 -0.6427728 -0.0069523044
17998 -0.11829022 0.083358265 0.18393621 -0.33101767 0.54501146 1.0479953 0.34252048 -0.68952125 -0.031061538 0.55074275 -0.55737746 -0.49049222 -0.48194966 -0.26348925 0.9297029 0.15729144 -0.98658335 0.028341236 -0.41612118 -0.22676566 0.7096659 -0.15412457 -0.5327475 -0.29847574 -0.91307867 0.76308024 -0.54609793 0.22263747 0.26224127 -0.014005204 -0.20825486 0.38794708 0.15570858 0.17127694 -0.09851036 0.5676864 -0.18150748 0.7148003 -0.405094 -0.7694402 -0.31119496 0.4082036 -0.14330135 -0.47931057 -0.51290315 -0.53233117 0.19985288 0.24148817 0.44094217 -0.14947473 0.40688977 -0.18566373 0.31317323 0.43563107 -0.39916524 0.5895024 0.42666143 -0.13667178 -0.70187664 -0.5847357 -0.27579355 -0.68903565 0.21984547 -0.63942826 1.0157193 0.29260707 0.48102242 -0.3116179 -0.10196977 -0.24107452 -0.30287406 0.17609487 -0.014024117 0.62220484 0.056921948 0.45144087 0.014152756 0.3865589 0.4270205 -0.5456603 -0.760988 -0.21133398 -0.40855882 -0.033251498 0.5446786 -0.09576782 -0.5010037 -0.22176771 -0.33554676 -0.105818264 0.041918226 0.50605667 -0.13181753 -0.41934425 0.48822072 0.081875645 -0.4490649 -0.28029028 0.6639615 -0.12718487 0.279706 0.12440904 -0.010155997 0.4931389 0.06345227 0.58868176 -0.0092968 0.56425214 0.6306164 -0.12503517 0.103731126 -0.14932056 -0.2755369 -0.28333184 0.5192535 0.7033334 -0.60306156 0.88621366 0.23618598 -0.27103925 0.24136858 -0.27764848 0.20973697 0.3385796 -0.64307314 -0.32969525 -0.57290125 0.2848476
6863 -0.07770958 0.09279387 0.0050677 -0.009400634 0.3561741 0.77271014 -0.22387137 -0.56481534 0.0059440406 0.3053724 -0.73111755 -0.2564881 -0.41080427 -0.16253841 0.85119 0.054868612 -0.2594669 -0.040463936 0.04557776 0.048725102 0.2246843 -0.042134427 -0.2925079 -0.42282692 -0.5143673 0.57833266 0.14893559 -0.008700014 0.060805224 -0.07986684 -0.17341451 0.13183837 -0.1627545 0.08191333 -0.038551923 -0.07870327 -0.42057943 0.5964506 -0.6051052 -0.49321523 -0.29326558 -0.09122378 0.20653678 -0.24549009 -0.3825966 -0.16773751 -0.0046811034 0.28149638 0.53166515 0.21796742 0.19564332 -0.20717 0.38224417 0.3036482 -0.4050708 0.28640214 0.29874158 0.26697466 -0.36634398 -0.5662964 -0.058428008 -0.31032225 0.68107015 -0.4887558 0.94955766 -0.085739434 0.29816803 -0.17700638 0.26378557 -0.06926037 -0.26004007 0.22647719 -0.08349874 0.12452246 -0.15596282 0.32530454 -0.015427009 0.38739797 -0.01985123 -0.25658286 -0.4436175 -0.09661785 -0.49817023 0.59779006 0.35337093 0.046333738 -0.31178555 0.04241844 -0.2899037 -0.110094205 0.13890328 0.19297801 -0.1321864 -0.19140749 0.05389519 0.16873348 0.21787238 -0.20058775 0.6463841 -0.57115126 0.44310963 0.06719328 0.07879935 0.33069557 0.18061516 0.3178704 0.3072605 0.25103408 0.6849178 0.15980071 -0.08172594 -0.34386867 -0.10677864 -0.39453372 0.014209404 0.26402262 -0.26173604 0.40140724 0.46165434 -0.1273353 0.11335756 0.168781 0.41591585 -0.31820545 -0.4735298 0.3613225 -0.52617544 -0.01380006
18405 -0.10597912 0.26463714 0.07891058 -0.26471278 0.47667575 0.98321265 0.015310948 -0.6390914 -0.04717963 0.5784863 -0.6331564 -0.37137145 -0.4671889 -0.17866215 0.96567005 0.25276756 -0.5887365 -0.018525023 -0.18669471 -0.07858547 0.53860825 -0.18121512 -0.41233858 -0.340411 -0.7033007 0.7665157 -0.22341152 0.08943724 0.18457574 0.087008536 -0.26012054 0.26982498 0.046301667 0.18708414 -0.00792789 0.3963218 -0.27909747 0.74829495 -0.61545527 -0.6059934 -0.3306975 0.19572012 0.05676887 -0.29123977 -0.49341384 -0.38711414 0.1809437 0.3004726 0.37671882 0.10089142 0.35987684 -0.17617828 0.45855823 0.53648674 -0.31885096 0.41452798 0.43909454 0.12252881 -0.6667269 -0.5524148 -0.2980464 -0.4543389 0.51431924 -0.67841405 1.0411398 0.02159074 0.548587 -0.3091944 -0.059221163 -0.18447092 -0.18891828 0.18443075 0.0555883 0.3773508 -0.092812225 0.45875546 -0.041255966 0.4448816 0.056610715 -0.41884068 -0.56863534 -0.21879625 -0.6253818 0.30203202 0.48698765 -0.07252257 -0.44894207 -0.15438133 -0.36659423 -0.13328473 -0.017736303 0.40293825 -0.2968754 -0.31434506 0.26198292 0.051482964 -0.13489142 -0.24016897 0.644179 -0.4407549 0.43788972 0.060487475 0.10987818 0.53680634 0.104724355 0.3793238 0.25479296 0.45756832 0.7185548 0.105294555 -0.015950806 -0.32502696 -0.27575302 -0.4570062 0.2036142 0.61442614 -0.5017866 0.69472027 0.3224498 -0.19357055 0.19975713 -0.15242904 0.22817491 0.018012026 -0.56226623 -0.029332194 -0.6699785 0.08428641
23024 -0.082155526 0.26509994 0.05887088 -0.045195796 0.23362844 0.4843756 -0.15954077 -0.45016778 -0.10432734 0.3866965 -0.40557268 -0.18568239 -0.3309026 -0.11800743 0.51975596 0.23620221 -0.24639757 0.109445 -0.1394243 0.013775179 0.32238725 -0.0016509432 -0.21016376 -0.19560297 -0.37940574 0.54767174 0.008998596 -0.052353043 0.02864548 0.053095788 -0.30822015 0.21506065 -0.016215164 0.24668466 0.08996235 0.13578686 -0.2768529 0.46993193 -0.5677675 -0.308512 -0.33942565 -0.034263905 0.08222118 0.010287837 -0.26692235 -0.21837606 0.13375774 0.11269007 0.187876 0.16413012 0.24030524 -0.13623221 0.33946812 0.40472862 -0.2742835 0.19974114 0.35631394 0.057246212 -0.4552899 -0.28067222 -0.08923794 -0.2181074 0.4685669 -0.581977 0.69250727 -0.19586064 0.39379475 -0.19347574 -0.07146063 -0.18392792 -0.16288379 0.1369248 -0.09535177 -0.035764713 -0.19441634 0.32012293 -0.09421189 0.41168097 -0.10228982 -0.20047924 -0.26417786 -0.25260907 -0.37280962 0.46266976 0.34996098 -0.0009903769 -0.31390378 -0.083021544 -0.28157148 -0.023243397 -0.034314834 0.16745879 -0.2915192 -0.23395403 0.19990124 0.0155901555 0.08619246 -0.15030956 0.4144883 -0.35599822 0.42448494 -0.037264846 0.119736694 0.39118126 0.07915942 0.09118046 0.375495 0.27896777 0.48255816 0.10882363 -0.066866554 -0.41701996 -0.04288269 -0.45803624 -0.023708902 0.31212693 -0.28867012 0.37605262 0.12019378 -0.26745787 0.09885245 0.06744763 0.17323437 -0.13220663 -0.32840857 0.21180172 -0.4647454 -0.063622415
21466 0.011589062 0.31447762 -0.038190436 0.010135952 0.057743378 0.47402924 -0.339282 -0.4926108 -0.2730766 0.12383901 -0.6530008 -0.25390986 -0.5379689 -0.17467226 0.41436306 0.30427828 -0.44917837 0.124781825 -0.13349588 -0.031109184 0.27208617 0.05998889 -0.04797358 -0.1851432 -0.3780269 0.7004048 0.09215368 -0.10791117 0.086906366 0.0030037402 -0.53592455 0.102426074 -0.083809 0.32404512 -0.007492245 0.2134383 -0.6269358 0.5576443 -0.7673552 -0.39619717 -0.33047983 0.047066815 -0.007672109 -0.14554933 -0.41142857 -0.22745733 -0.032303594 0.0673911 0.18582541 -0.01790993 0.124498725 -0.44045395 0.20653477 0.44086266 -0.33647043 0.31657624 0.21952331 0.2547112 -0.61479056 -0.38644588 -0.12186423 -0.0381148 0.5512658 -0.5740912 0.68330175 -0.11107001 0.40692562 -0.34848097 0.103444874 -0.30860838 -0.2021339 0.19204278 -0.3656339 -0.23141107 -0.21902336 0.31245688 -0.07004187 0.43639433 -0.011940621 -0.3601652 -0.44036466 -0.35705844 -0.10135479 0.5620393 0.3133667 -0.123937815 -0.5457021 -0.013051569 -0.3632801 -0.0085558025 -0.01101231 0.10966496 -0.17032996 0.00801781 0.36614016 0.0061731255 0.03478243 -0.09357329 0.38100967 -0.3193752 0.3546361 -0.07962884 -0.013727113 0.46666214 0.19505028 0.13381389 0.38136965 0.40857455 0.6139715 0.037772413 -0.23497845 -0.44952315 0.04576514 -0.5587171 0.0829416 0.30337244 -0.16120274 0.23661013 0.4456846 -0.17722432 0.09014212 -0.015076157 0.12601714 -0.037420727 -0.24149418 0.24001789 -0.51475805 -0.040995408
36959 -0.06992312 0.309328 0.16351493 -0.13137919 0.37185684 0.7307417 -0.27557984 -0.66509604 -0.22358675 0.5973237 -0.59488505 -0.29527372 -0.42055488 -0.2998397 0.7002356 0.22254121 -0.52938205 0.3820069 -0.06894465 0.0073466897 0.54851896 0.0474141 -0.38899928 -0.26151672 -0.4897324 0.5646508 -0.11805836 0.011916855 0.09254227 0.26975584 -0.19738817 0.43495068 -0.16049097 0.33487478 0.23849215 0.28480837 -0.43649954 0.797276 -0.70264757 -0.518196 -0.3233933 0.08835654 0.11116625 -0.15142152 -0.5072952 -0.45391116 0.33587515 0.12231384 0.27935556 0.1871362 0.6116596 -0.295163 0.42430598 0.60409516 -0.34303376 0.25503194 0.45772094 0.017869895 -0.64731634 -0.4032521 -0.21390438 -0.37593946 0.6462325 -0.7619131 1.1309719 -0.30051303 0.6381982 -0.30310315 -0.044233724 -0.23937637 -0.33183676 0.32448274 -0.039238222 0.12005839 -0.24926816 0.29754826 -0.32683083 0.6405512 -0.12109909 -0.31948686 -0.45512283 -0.37907752 -0.53687686 0.61994225 0.6666828 0.08665068 -0.4099518 -0.10128506 -0.5468039 0.015824536 0.013594346 0.29252824 -0.49773154 -0.26589355 0.33124763 -0.03505704 -0.03419908 -0.37751302 0.59193504 -0.49558136 0.5502082 -0.1584355 0.10834847 0.44314447 0.13158667 0.23562364 0.44120067 0.3426995 0.6671556 0.17103079 0.119825155 -0.5046487 0.06486628 -0.4863614 0.04050582 0.47533864 -0.46740726 0.71078223 0.3040363 -0.20431753 0.18224342 0.046409965 0.143843 -0.061592057 -0.4744551 0.10228224 -0.6358976 -0.03457043
14658 -0.10609535 0.28192675 0.07424015 -0.26341844 0.49154827 1.0064888 -0.018514153 -0.6411462 -0.030143961 0.5916858 -0.6473484 -0.37771407 -0.46437135 -0.1980317 0.99583316 0.28928304 -0.5881141 -0.018303579 -0.14232254 -0.08202669 0.5221158 -0.1952729 -0.40689212 -0.3519047 -0.67603064 0.7684487 -0.19355868 0.070004344 0.18189493 0.08304052 -0.26807064 0.2637487 0.04728485 0.20154977 0.003777042 0.39503095 -0.26717842 0.7629929 -0.6447798 -0.5958202 -0.34138885 0.18788281 0.081296325 -0.2777179 -0.51459277 -0.3759995 0.18074645 0.30422235 0.3713073 0.12319977 0.34610137 -0.17409377 0.48418087 0.5572899 -0.32684073 0.41485018 0.4385949 0.15911604 -0.6645904 -0.5633011 -0.29890516 -0.4482943 0.56041616 -0.69260806 1.0628624 0.0002760383 0.5693277 -0.3124641 -0.050553273 -0.17517261 -0.17373373 0.1937449 0.07990643 0.3783832 -0.103365965 0.45739862 -0.04684473 0.44307753 0.026752569 -0.42516646 -0.5423311 -0.23048826 -0.67611253 0.33800766 0.4800298 -0.0745044 -0.45502615 -0.14878419 -0.37841332 -0.14273027 -0.018296394 0.39263308 -0.30833143 -0.30742353 0.22873014 0.04220903 -0.11838514 -0.22661969 0.6427906 -0.48128733 0.47405103 0.06837799 0.11846529 0.5333081 0.12201167 0.37527117 0.29337707 0.45963752 0.74685866 0.11880393 -0.019477492 -0.33807138 -0.27842802 -0.47689876 0.20684041 0.60130024 -0.49224728 0.68022984 0.34572268 -0.19344155 0.18656674 -0.1659858 0.2428028 -0.013824921 -0.5627166 0.011728166 -0.701435 0.058167312
