1000 128
3499 -0.24733903 -0.03667667 0.12804078 -0.29811805 -0.07220005 -0.17100045 0.2766235 0.45837727 -0.19057567 0.01797105 -0.005340616 0.2423909 0.15374808 0.5170884 0.12418336 -0.5217489 0.58103496 -0.23901099 -0.0023204908 -0.270471 -0.09650884 -0.53031677 -0.49592498 -0.40879658 -0.27872607 -0.076235436 0.0047780997 0.40219146 -0.1986366 -0.05768527 0.25692937 0.5396453 0.192788 0.09512639 0.37241963 0.08227162 -0.027588438 -0.08309159 -0.2869123 -0.21083407 0.2424618 -0.12215385 0.14350624 0.22894831 0.36034238 -0.13626616 -0.17240739 0.26484278 0.34417194 0.41215304 0.14392044 -0.06305454 -0.392712 -0.30166122 0.19418544 -0.9743651 0.48173952 -0.12309456 0.36542767 0.7146127 -0.57366747 0.2542423 -0.2905925 -0.25347394 0.0041816044 0.28237176 0.37028247 -0.0537619 -0.1747161 0.24227522 0.61088085 -0.09502989 -0.25119117 -0.8053208 0.4764493 0.24069335 0.35536432 -0.026967792 -0.50355065 -0.48656273 0.00035846583 0.45587456 -0.04688109 -0.22980988 0.52168876 0.22845717 0.2868125 0.054462746 -0.8660598 0.7173562 0.21690732 -0.35158393 0.40992492 0.6817671 -0.095686 -0.42440182 0.04781505 -0.275205 -0.927378 0.17423365 -0.7232656 0.12078122 0.002846178 -0.15453997 -0.31048313 -0.5540609 0.20166202 0.13301946 0.37899366 -0.001796987 -0.4951355 0.26256263 0.20586328 0.3679909 0.27003765 0.46185547 -0.0637084 1.0076247 -0.10703089 0.29437718 0.38835335 0.38504824 -0.5964875 -0.35162568 0.20520648 0.44550452 0.16436505 -0.09546204
8351 -0.20793611 0.37132442 0.33396032 -0.3004138 0.518733 -0.3638266 -0.002426882 0.47280124 -0.04224627 0.70391977 0.607758 0.44332418 0.5614894 -0.5824279 0.07280607 -0.15387629 0.17110913 -0.17210972 0.45316386 -0.07095881 -0.50532097 -0.2803979 -0.14612949 -0.8649325 -0.59406585 0.16552381 -0.34726357 0.015182324 -0.60501903 -0.15425116 0.02192291 -0.072828725 -0.14064029 0.63304955 0.12950088 0.0936196 0.16974229 -0.415868 -0.2647384 -0.03805433 -0.24926883 0.058072507 0.20255294 -0.49870148 -0.099144615 -0.07753887 -0.18876337 -0.21345219 -0.1439397 0.1157631 0.10871108 0.2672436 -0.2439307 -0.61027944 0.5030115 -0.71259433 0.5735135 -0.48016414 0.5479874 0.15809982 -0.01597933 0.29708773 0.27460647 0.01855191 0.037248105 0.034774087 0.7525086 -0.093601696 0.17469905 -0.20698488 -0.28546175 0.068811275 -0.53219455 -0.5606774 -0.053863466 -0.16607146 0.39880532 -0.4257443 0.10086918 -0.045571275 0.35811993 0.7030758 0.043552343 0.055926476 -0.055148184 0.5269044 0.9893276 0.2635271 -0.15438883 0.79321486 0.24810606 -0.42257077 0.24383119 0.57164574 -0.54647255 -0.1294225 -0.19291873 -0.6663667 -0.12307477 0.14794481 -0.97362804 0.38603866 0.39172643 -0.14933573 -0.3786145 0.09587868 0.017989404 -0.15660346 0.24927206 -0.24565437 -0.03204826 0.16139208 -0.04368264 -0.100545734 -0.1303144 -0.023989156 0.3197031 0.44732082 -0.1915329 -0.15374261 -0.17951107 0.00046927505 -0.9989134 0.10599201 0.033592947 0.43228304 0.053705662 -0.03443039
21907 -0.20798486 0.36186334 0.28420103 -0.27841476 0.5045097 -0.32377148 -0.0049606054 0.41767943 -0.065007254 0.6674983 0.5833618 0.40927103 0.49756473 -0.517713 0.08206271 -0.09213725 0.22085914 -0.20649199 0.40390432 -0.06029268 -0.5163639 -0.33991015 -0.23010957 -0.82293797 -0.54204804 0.14466654 -0.34498456 0.031382434 -0.6140263 -0.17025918 0.028976057 -0.12223559 -0.09265728 0.6388461 0.1510716 0.19322906 0.19147305 -0.45545012 -0.27564505 0.03446131 -0.21186318 0.043261923 0.3172873 -0.47653553 -0.15223853 -0.068311356 -0.18565471 -0.18533012 -0.0931846 0.03230645 0.14246535 0.2084886 -0.23194112 -0.7006708 0.464705 -0.6655531 0.63068384 -0.45384976 0.5524444 0.13685289 -0.025632704 0.25727338 0.22449549 0.016370796 0.057482757 0.020449024 0.7716213 -0.053622376 0.104475945 -0.21367805 -0.19773832 0.014113591 -0.5187908 -0.5751196 -0.0089468025 -0.21364704 0.36332682 -0.3847893 0.122378565 -0.025675146 0.33764237 0.66029364 0.06848912 0.04145806 -0.049230516 0.5073805 0.8796187 0.24553247 -0.18182532 0.823224 0.2406455 -0.42192957 0.21944602 0.5749024 -0.5005248 -0.083673775 -0.20753817 -0.6503229 -0.19446123 0.19627367 -0.94205284 0.409539 0.31158778 -0.18671422 -0.32682997 0.09839855 0.073746294 -0.17188182 0.2435395 -0.24240892 0.0032453332 0.19274826 0.086552836 -0.15803023 -0.08831843 -0.041379917 0.29412246 0.3863803 -0.15094587 -0.20137584 -0.15127352 0.0052119037 -1.0046228 0.16897835 0.03391951 0.46645588 0.06648348 0.0023818614
7822 -0.2376492 0.28600565 0.40230584 -0.13206029 0.42519373 -0.30449277 0.079995275 0.33316696 0.10104289 0.5875553 0.5991009 0.32351822 0.47599646 -0.640851 0.19687517 -0.27083635 0.16721308 -0.12785545 0.29825908 -0.1932357 -0.3181932 -0.2765684 -0.10695866 -0.7748526 -0.4733914 0.22936633 -0.30523124 0.08623462 -0.6034651 -0.20492867 0.20539631 -0.1889216 -0.15596981 0.6984301 0.2214143 0.13576372 0.15333275 -0.5396426 -0.19225626 0.08866015 -0.2968798 0.103587374 0.21579853 -0.48488265 -0.12779032 -0.05469921 0.048908155 -0.095369205 -0.0033207487 -0.052694794 0.12260039 0.2780584 -0.16280827 -0.6226505 0.44507965 -0.48521957 0.50688297 -0.42774835 0.47493005 0.20374912 0.03170749 0.22907716 0.2733478 0.02011761 0.1682255 -0.19551697 0.9713504 -0.088526525 0.10894029 -0.28099144 -0.23463102 -0.011896311 -0.5310704 -0.6477785 0.039742634 -0.25567257 0.41617417 -0.49656743 0.24932127 0.09325697 0.37525392 0.72858334 0.12592189 0.1848544 0.05261134 0.49922398 0.9450816 0.29414004 -0.22662301 0.7419232 0.34802037 -0.39280975 0.3004626 0.44130424 -0.3846343 -0.12166626 -0.19040382 -0.63834846 -0.29973418 0.1000692 -1.0010457 0.31513602 0.42738605 -0.2738787 -0.47736517 0.09209712 -0.038538754 -0.20612054 0.24673358 -0.1825136 0.08403537 0.23089412 0.13673478 -0.085706875 -0.33286262 -0.014407027 0.057369117 0.3146858 -0.10124176 -0.18167257 -0.18673189 0.013695785 -0.9486984 0.19510013 -0.0042336537 0.38865745 0.03932122 -0.09053359
1689 -0.62090594 -0.10930666 -0.13389064 0.2186562 -0.039980516 0.2077435 0.04102481 0.7037317 0.45947203 0.38576397 -0.118994266 -0.0045695645 0.27466586 -0.14365065 0.8725681 -0.74817544 0.69761574 -0.10160499 -0.11151443 0.27553698 -0.40844798 -0.25808692 -0.19458905 -0.5704069 -0.43370047 0.4654594 0.018342214 -0.109142624 -0.70945084 -0.02463939 0.34408435 -0.22610185 0.017851984 -0.053794686 -0.051350974 -0.2265239 0.08776217 -0.082371555 -0.16265243 -0.22533344 4.1640975e-05 -0.4290399 -0.13124181 0.44548973 0.66343117 -0.027204443 0.08667363 -0.00459004 0.20482102 0.26387784 0.23137826 -0.13535622 0.88949335 -0.20366578 0.1381439 -0.7884453 0.58466 -0.8000622 0.43335962 0.8882794 -0.27849516 0.4998302 0.32496536 0.40237135 -0.1752917 0.34821102 0.17557451 -0.62199026 -0.74957657 -0.20683184 0.15971386 -0.392902 -0.12585348 -0.08000392 0.58421946 0.20392443 -0.077997155 0.100949354 -0.007921968 -0.27738035 0.6210335 0.91799 -0.5207047 0.018126352 0.3085388 0.49607646 0.7675166 1.0241967 0.2959223 0.23865409 0.35586715 0.35320908 0.51530373 0.11290148 -0.31779703 -0.020072091 -0.21193771 -0.11977157 -0.121369354 -0.31029078 -0.90892535 0.5325745 0.026941758 -0.15448084 -0.33737603 0.17454743 -0.23040597 0.12006937 -0.053460043 -0.20684634 0.35655865 -0.12018829 -0.26440537 0.6089578 -0.08428442 0.24282372 -0.6769889 0.4095666 -0.26878378 0.25501487 0.2593403 0.34427345 -0.7025142 0.07183287 -0.1338449 -0.27707106 0.5781266 -0.58585167
18856 0.08705624 0.11393932 -0.032735415 -0.26157728 -0.24817702 0.28783542 -0.220621 0.055554386 0.034250904 0.23923932 -0.17679544 0.14533189 -0.05394266 0.24676816 0.830608 -0.5066955 0.76008016 -0.8497876 -0.108489215 0.06368455 -0.5937713 -0.07321521 -0.64897585 -0.80634683 -0.82782817 0.21744636 -0.39216807 -0.4398541 -0.85820353 -0.06964927 0.43444768 -0.010214512 -0.22250079 0.6090889 -0.46747926 0.18583359 0.3389113 0.10389792 -0.4638267 0.044050656 0.10334849 -0.40624288 0.28104803 0.21817312 0.028363217 -0.19223544 -0.063267425 0.038626157 0.22394478 0.0767808 -0.026195776 -0.203296 0.5713396 -0.44967645 -0.05624862 -0.5422285 0.47116354 -0.06506659 0.15068495 0.36156636 -0.24566261 0.08177472 -0.0701636 0.65019333 0.5087356 0.22239923 -0.04344326 -0.71990025 -0.622357 -0.9893299 0.29283547 -0.39094773 -0.14641954 -0.77751875 0.48612964 0.22230673 -0.35239154 0.30825856 -0.22640121 -0.0060961028 0.34946603 0.45353103 -0.32383454 -0.1448774 -0.22462872 0.025957258 0.023804756 0.5189695 0.032192294 0.58582455 -0.24775086 -0.1591789 0.24313667 0.16484399 -0.6902914 -0.2653131 -0.07518909 -0.26661053 -0.1552969 0.4070205 -0.49131334 0.20961553 -0.44336244 0.0709594 -0.5826842 -0.14277907 0.40415335 0.07488408 -0.14523585 -0.03407659 -0.15250799 0.2054925 0.39786658 0.07845508 -0.5827992 0.26871789 -1.0527664 0.31310368 0.42519373 -0.18899569 0.4623374 -0.1338156 -0.29157388 0.4828897 0.29431638 -0.12516183 0.21515776 -0.3700659
15976 -0.88062626 0.26294017 0.020067075 0.15107922 0.4774258 -0.109819956 0.10645657 -0.2971767 0.16903347 -0.07739931 -0.57643336 0.27282262 -0.114870846 -0.22733778 0.8240152 -0.27657235 0.4215967 -0.4137704 0.27007127 0.11764947 0.65954095 0.09392473 0.2607201 -0.07023276 -1.2772282 0.1508147 0.05506282 -0.07316804 -1.0785407 -0.6359898 0.47498053 -0.44064927 -0.16921115 0.45061305 -0.33578026 -0.11793457 -0.092059486 -0.15684968 -0.14600825 -0.2729302 -0.58790904 -0.2807954 0.06074359 0.2113021 0.058814652 0.18132056 0.2809591 0.06187297 0.41714776 -0.05157163 -0.42114177 0.20405315 0.022602107 0.17513143 0.32379064 -0.4627406 0.30644482 -0.37646967 0.122490264 0.80148566 0.25825834 0.25902125 0.49553555 0.13473919 0.19007733 0.17751 0.032004368 -0.92255825 -0.26345414 -0.047313247 0.38691422 0.07777437 -0.17213233 -0.38534936 0.1795988 -0.07582301 0.054027744 -0.15173587 0.10295093 0.028702622 0.65488553 0.5467 -0.47665066 0.22657456 0.15448129 0.46400684 1.2076488 0.51503664 -0.5485416 0.23586737 0.09798519 -0.2155537 0.69189185 0.17376705 -0.105156064 -0.5239109 -0.2950654 0.12238055 -0.51178694 0.4341022 -0.70134103 -0.13705917 0.6569179 0.32642442 -1.0091151 -0.22435577 -0.18126427 0.22968376 0.18359023 -0.14282149 -0.77313703 0.023524858 -0.17730077 0.22839457 -0.5887663 0.3592412 -0.26427042 1.1224364 0.11477082 -0.07656689 0.3780606 0.2551321 -0.14689212 -0.021873873 -0.25913823 -0.3720261 0.6060621 0.00045198292
12496 -0.1709426 0.007609939 0.33921567 -0.23658016 -0.0573101 -0.35840726 0.13198285 0.675158 -0.23594435 -0.17948984 -0.12068941 0.24719952 0.19404793 0.5116082 0.40099192 -0.76405984 0.51137364 -0.21399495 -0.26829487 -0.040166054 0.009901681 -0.7195165 -0.25301212 -0.45587033 -0.45908213 -0.23386787 -0.05740524 0.15229508 -0.046501685 -0.13555859 0.140667 0.5447791 0.027096063 -0.08295273 0.40418786 0.18529417 0.022726286 0.18043475 -0.37410092 0.08132763 0.3440581 -0.1339584 0.18971357 0.21504645 0.36529726 0.15012844 -0.066777796 0.2720928 0.3900221 0.5910577 0.07226066 -0.038745943 -0.420342 -0.16961494 0.17243764 -0.8296367 0.3764828 0.03230722 0.35690504 0.6723567 -0.5313488 0.16655895 -0.089701496 -0.19256008 -0.052056026 0.446672 0.6381726 -0.0700305 -0.23191437 0.1684081 0.51345617 -0.24268417 -0.29671153 -1.0580691 0.5285698 0.3720946 -0.048599143 -0.18331438 -0.38177082 -0.3906841 -0.032255832 0.37922165 0.02012059 0.06879674 0.704018 0.16450723 0.3915688 0.2766261 -0.7705212 0.14816523 0.163928 -0.44495243 0.5287015 0.95148927 -0.3587863 -0.23732793 -0.01971964 -0.003263428 -0.8970548 -0.035672624 -0.76827365 0.16618738 0.30036724 -0.14735787 -0.4062775 -0.5863723 0.28471878 0.23206614 0.21050902 -0.08961429 -0.45731544 0.3280646 0.12027777 0.258782 0.18940993 0.32928652 0.22295056 0.9182253 -0.10460961 0.5020371 0.23061454 0.23675871 -0.52343744 -0.66154146 0.18330826 0.4724681 0.4486055 -0.23081592
12783 -0.23075823 0.286692 0.29850104 -0.26842546 0.49206442 -0.2689988 -0.07640985 0.43813965 0.0052107098 0.6394213 0.6307162 0.3943082 0.47353825 -0.6391489 0.0955778 -0.17649499 0.2399786 -0.18157232 0.39043683 -0.09898321 -0.5300465 -0.24597363 -0.1810959 -0.7682894 -0.5535951 0.15104187 -0.32959253 -0.037863422 -0.5444462 -0.13968681 0.15272835 -0.10494431 -0.16814801 0.5997928 0.15218456 0.23707871 0.16272739 -0.45246816 -0.22952473 -0.0011496288 -0.2561769 0.03818463 0.27013373 -0.47056845 -0.15123628 -0.1378556 -0.09370006 -0.14229685 -0.15485221 -0.01862099 0.12505186 0.28860545 -0.27686805 -0.61556154 0.43157208 -0.6172259 0.5608725 -0.4056949 0.5802394 0.21674035 -0.058102243 0.239038 0.2281945 -0.017028479 0.017317897 0.004383052 0.88919824 -0.12251295 0.1437547 -0.27689508 -0.26442254 -0.030943451 -0.5433283 -0.59552735 -0.025093747 -0.23367085 0.3784676 -0.43203497 0.18600756 -0.036629137 0.3708353 0.67712426 0.15643911 0.035220504 -0.0671281 0.4687404 0.92518955 0.26090273 -0.15536362 0.8690452 0.2831172 -0.35639775 0.17955954 0.53305495 -0.51011777 -0.17039996 -0.20596278 -0.6552626 -0.1919676 0.12064068 -0.9717823 0.3940442 0.2552534 -0.16872849 -0.2872016 0.12461643 0.08709946 -0.21200751 0.17942959 -0.19152153 0.03855103 0.15598586 0.06863149 -0.11459316 -0.15465397 -0.04787965 0.20320366 0.31593105 -0.15365504 -0.15850477 -0.1572101 0.0616498 -0.948061 0.1618077 0.039566077 0.52002203 0.00022229708 -0.032918412
19753 -0.3313756 0.52680635 0.17393228 -0.39433256 0.3071086 -0.100477606 0.04930411 0.32473513 -0.08859949 0.65072775 0.22637056 0.3820887 0.41265717 -0.11345204 0.62872005 -0.44918275 0.7805989 -0.62417114 0.23786062 -0.15097202 -0.7229535 -0.57500273 -0.40530333 -1.117795 -0.94062364 0.18240203 -0.13010454 -0.25603783 -0.85261244 -0.0016774009 0.43690717 0.059347864 0.19639872 0.6926284 -0.14347748 0.28305808 0.108832784 -0.022530382 -0.74346364 -0.1745715 -0.39440402 -0.22283284 0.28473523 -0.09528588 0.18159625 -0.3951072 -0.09150231 -0.11040379 0.09185549 0.48893172 0.39867458 -0.23720415 0.29472405 -0.9553923 0.29932126 -1.0396931 0.9636591 -0.38795626 0.338367 0.5476913 -0.6667548 0.84105885 0.22505401 -0.329209 -0.0011612965 0.27505895 0.5307092 -0.7231483 -0.5425264 0.13520716 0.4951649 0.0044474313 -0.46325994 -0.6057191 0.399677 0.46866804 0.17571323 -0.008386254 -0.40747643 -0.23893742 0.60960996 1.077386 -0.3697824 -0.18745987 0.14600281 0.37236547 0.69806933 0.5361757 -0.6879113 0.9114378 0.1603292 -0.3555365 0.8316827 0.6517445 -0.3644308 -0.45884702 -0.09819406 -0.40242082 -0.69376177 -0.31711593 -0.973063 0.1995242 0.023155091 -0.20705363 -0.94696164 -0.29717335 0.30056855 0.52149534 -0.23269714 -0.025704619 0.07417723 0.022043085 0.062455073 0.28818807 -0.30007967 0.0076706707 -0.5258888 0.9057153 -0.21342418 0.15336527 0.3259138 0.1107573 -1.2480859 0.042588975 0.42770144 0.3500366 0.43526393 -0.29747388
6653 -0.20791435 0.64765805 0.11182833 -0.4261092 -0.3587397 0.06829481 0.49812308 0.5012448 -0.20318459 0.69331187 0.36243212 0.03251721 0.2587355 -0.25389984 0.6380577 -0.85124373 0.4836228 -0.36878622 0.08551442 -0.26326245 -0.4595524 -0.44911528 -0.23794414 -0.4443114 -0.4061991 0.3688299 0.31411397 -0.330998 -0.73741436 0.3302005 0.16641125 -0.09440157 -0.05785824 0.6238268 -0.33273888 -0.18058231 -0.15027322 0.19961686 -0.1963243 -0.30019778 -0.51994693 -0.08125688 -0.22599497 0.26458105 0.16675457 -0.13876298 -0.08465969 -0.288342 0.082624756 0.7799881 -0.14101815 -0.020721601 0.6787137 -0.04775227 0.24654832 -0.36307046 0.06664311 -0.13990375 -0.10310953 0.6893606 -0.71484137 0.8319198 0.001370984 0.21772192 0.1473936 -0.15493837 -0.08041643 -0.72662634 -0.1851386 0.6083334 0.19241612 0.2258705 0.35009483 0.3383953 -0.092471465 0.81467813 0.54207814 -0.2204098 -0.2968663 0.0514158 0.7398944 0.5670032 -0.30674163 -0.10694219 -0.3405042 0.2699427 0.41435587 -0.14358643 -0.32432076 -0.055641484 0.286409 -0.1261796 0.76020586 0.3974148 -0.8768453 0.010134073 -0.19689928 -0.20408441 -0.25874028 -0.6929625 -0.7013634 -0.18469618 0.8877278 0.22945441 -0.8411635 -0.5612156 -0.11819876 0.6030997 -0.08158003 -0.30424026 0.34585515 -0.22111854 0.12696248 0.344217 -0.0675318 -0.17678861 -0.37914717 0.08580317 -0.30486587 0.5209771 0.33214918 -0.13297108 -0.37818027 -0.3845894 0.39133096 0.061491933 0.73658407 -0.09583262
16368 0.012464607 0.41173902 0.28014806 -0.33801207 0.13411835 -0.04312808 0.12148437 0.31536147 -0.069089904 0.5565661 0.27958018 0.1697988 0.39844313 -0.042182367 0.4829413 -0.65107524 0.49121678 -0.4385828 0.008841507 -0.206527 -0.5151049 -0.51518846 -0.27250263 -0.90090585 -0.6131445 0.087165855 -0.15273987 -0.30789363 -0.5291502 -0.034329627 0.36378068 0.092325814 0.16178827 0.4879207 -0.11232906 0.19389594 -0.0070146956 -0.012172468 -0.5230409 -0.008099998 -0.32566312 -0.19497368 0.00040758736 -0.19308618 0.15773211 -0.2808225 -0.06215862 -0.12923585 0.16035286 0.5009774 0.27017584 -0.0036211892 0.18216501 -0.64203995 0.24779081 -0.65474147 0.487939 -0.25615016 0.16794485 0.43157277 -0.51229787 0.53186154 0.112936474 -0.14028953 0.09904504 0.14460456 0.39959985 -0.53332776 -0.24656154 -0.0066769407 0.32544145 0.083849356 -0.24383771 -0.4837991 0.41619518 0.3958537 0.16079232 -0.010803477 -0.30339625 -0.15942061 0.57574093 0.73099077 -0.2591957 -0.12027845 0.30677962 0.24926968 0.3589904 0.33887878 -0.4626984 0.563481 0.13502051 -0.16269937 0.62352115 0.5162348 -0.38104177 -0.22041056 -0.06958451 -0.38260964 -0.53811586 -0.25597462 -0.8864432 0.21985784 0.06392813 -0.22441114 -0.76479 -0.35493797 0.119728096 0.3902703 -0.0992786 -0.055938367 0.19871143 0.083478846 0.1433513 0.29556245 -0.28691572 0.041059732 -0.34377283 0.5478144 -0.20022811 0.15613782 0.20429792 0.03675262 -0.930414 -0.12387549 0.43258157 0.26954567 0.33004642 -0.29705602
7645 -0.35378656 0.1471114 0.18209113 -0.02653196 0.5533733 0.09633475 -0.4942463 0.16867155 0.37503326 0.49676442 -0.17380111 0.38689113 -0.08450638 -0.11385659 0.09073437 -0.12054039 0.23201749 -0.013474155 0.688128 -0.19794078 -0.10037822 -0.6749821 0.41411522 -0.16497584 -0.7632144 -0.03351525 0.43811172 -0.084737755 -0.819888 -0.44747537 0.67352355 -0.089991085 0.40229338 0.1987442 -0.70057154 0.37197393 0.04207168 -0.10450738 0.025311425 -0.27543992 -0.4892719 -0.35435772 0.31422165 -0.31276986 0.03479885 0.27687138 -0.016867278 -0.39188108 0.085677356 0.3766921 -0.00535289 -0.38726243 0.4389597 -0.061737917 0.114336856 -0.18035628 0.2901549 -0.23400378 -0.14724176 0.630326 -0.24826317 0.7357369 0.07240839 0.02199496 -0.16896826 0.23778108 0.22260329 -0.6083386 -0.21836208 0.5274954 0.75368047 -0.05105846 -0.28143206 0.044406228 -0.34870505 0.34401128 0.0041555976 0.40147924 -0.42379743 0.23669405 0.7324006 0.5190074 -0.20076342 -0.20975672 0.053780727 0.2731173 0.22961536 -0.16039678 -0.56349045 0.65025544 0.09467585 -0.16643398 0.4093053 0.13226137 -0.064902656 -0.51234525 -0.1070667 -0.29486752 -0.23202607 -0.031281095 -0.6896794 0.40672177 0.23608755 -0.067147166 -0.91657376 -0.5967414 -0.03608307 0.57587576 -0.34368643 0.036203165 -0.020419579 -0.19552302 0.40113658 0.07381008 -0.12915955 -0.2866685 -0.44572353 0.8804128 0.13749784 0.1457115 0.04368925 -0.21077038 -0.66408765 -0.579886 0.074841395 0.08050819 0.42137197 0.06687252
685 -0.30976275 0.4877598 0.057184126 -0.28156975 0.33266723 -0.01711135 0.14838932 0.23970684 -0.004950939 0.5837854 0.17272161 0.3396054 0.4968039 -0.28610256 0.6889259 -0.46802112 0.35835877 -0.6228428 0.17568706 -0.21842602 -0.3512656 -0.2394759 -0.09553997 -0.97390103 -1.010793 0.21784897 -0.0077089467 -0.2781203 -0.8994758 -0.24507773 0.41514468 -0.18684186 -0.008588201 0.5877298 -0.25670248 0.08999525 0.040613167 -0.022653742 -0.44208834 -0.18169126 -0.44995543 -0.073128365 0.048508156 -0.11295096 0.2433227 -0.08041129 0.028868975 -0.16421764 0.3316955 0.4143642 0.015278405 0.10395327 0.4267989 -0.35131234 0.35833764 -0.69356066 0.3063332 -0.38217205 0.1712291 0.6002445 -0.2560459 0.60462993 0.385495 0.08523224 0.14304045 0.07818721 0.4960903 -0.6463496 -0.3064874 -0.21904108 0.40029097 0.15822169 -0.31882337 -0.43085396 0.22087857 0.10508506 0.055183616 -0.30069697 -0.11444151 0.003790243 0.86175543 0.7814439 -0.4682543 0.13011143 0.22887042 0.42159137 0.7423572 0.4707834 -0.18340372 0.47171617 0.19636305 -0.24880603 0.6973073 0.22636487 -0.5188266 -0.2278559 -0.21005504 -0.397095 -0.3164211 -0.3041228 -0.8880332 0.20414527 0.38821468 0.0017904715 -0.9180718 -0.40856895 0.09110665 0.2992915 0.0068178363 -0.07232754 -0.04916152 -0.01488337 0.047733996 0.23028368 -0.54684967 0.10580449 -0.43372402 0.6259968 -0.18542433 0.050952654 0.11787449 0.09696666 -0.7559471 -0.21117103 0.2589955 0.054765906 0.5273739 -0.290996
1668 -0.3608856 0.16394646 0.18359557 -0.016599018 0.49802974 0.09761638 -0.45809913 0.18350017 0.36650077 0.4666236 -0.13456832 0.379778 -0.067248285 -0.11058203 0.13123937 -0.14243641 0.22858939 -0.050146546 0.6491373 -0.21655877 -0.12430236 -0.63598126 0.372408 -0.1907543 -0.72329307 -0.023979804 0.44082692 -0.04702335 -0.81714183 -0.43164772 0.67958087 -0.09626896 0.36851293 0.20295759 -0.69323266 0.388841 0.07245778 -0.10051765 0.014528912 -0.28785568 -0.45661017 -0.36811882 0.32368004 -0.27300993 0.038388185 0.2443815 0.003892866 -0.37034163 0.07801323 0.3782671 0.0066817356 -0.34436166 0.39514875 -0.10489966 0.12782557 -0.20461215 0.33046785 -0.23384356 -0.1395671 0.6015452 -0.28417778 0.6925264 0.08153626 0.01339725 -0.1716373 0.2565354 0.23715785 -0.5946768 -0.21108688 0.48595932 0.7322529 -0.036220815 -0.27383786 0.01032976 -0.29631191 0.32941863 0.043179154 0.3952575 -0.35901415 0.22345364 0.72856265 0.534837 -0.1939801 -0.21478768 0.061677087 0.28456295 0.22115502 -0.16139461 -0.5581358 0.63364536 0.08846141 -0.15698673 0.4357668 0.12234085 -0.061956905 -0.4880116 -0.114994235 -0.30366462 -0.2560669 -0.041416623 -0.724916 0.40115282 0.2390107 -0.05764487 -0.8830771 -0.60204524 -0.041816007 0.5637894 -0.33289883 0.039996494 -0.024729436 -0.18880153 0.36874345 0.09910132 -0.107542045 -0.26991376 -0.40738624 0.84169203 0.13600814 0.1072864 0.071930304 -0.18096755 -0.68937457 -0.5537656 0.08045918 0.07888183 0.39491835 0.047258105
3252 -0.106449656 0.33041596 -0.3609131 -0.41243947 -0.04992142 -0.73420036 -0.1885016 0.14419757 -0.11043014 0.58264965 0.4319121 0.35344064 0.8640053 -0.06831703 0.25494513 -0.058172364 0.11574075 -0.60686076 0.070720755 -0.024013113 -0.1155833 0.1340285 -0.15168777 -0.4956201 -0.5716777 0.0057929405 -0.08827176 -0.6274221 -0.9907021 0.370604 0.13440461 0.1674519 0.33044317 -0.24341682 -0.1013362 0.38674998 -0.021275906 0.046853732 -0.13679084 -0.28323928 -0.31078756 -0.20809054 -0.5359492 -0.37960413 0.52592367 0.30094334 -0.011576924 -0.62666976 0.45666447 0.66436833 0.080088444 0.33930263 -0.3304058 -0.552166 0.22136158 -1.1612918 0.88336056 -0.31602436 -0.06973862 0.5169412 0.2362254 0.28832766 0.3113883 -0.5971009 -0.39157128 0.117494546 0.33650145 -0.5108348 0.060102895 -0.16957277 0.59804493 0.09067455 -0.3078093 -0.06447181 -0.1347918 -0.015848478 -0.15706676 -0.0313036 -0.3118177 -0.10270672 0.9621755 0.42235574 -0.07930774 -0.097371064 0.14529972 0.60171986 0.31488222 0.21237154 -0.019519208 0.3897002 -0.08471483 -0.13278776 0.87412643 0.3957429 -0.47959107 -0.5791663 -0.51959807 0.013299616 0.16859211 -0.00090989907 -0.3069457 0.33794367 -0.26978686 0.671769 -0.6232721 2.9460643e-05 -0.071719475 0.23051822 -0.35823956 -0.09637994 0.2498199 0.021942014 -0.1818968 0.19435105 -0.5806009 0.10560896 -0.5724858 0.8388656 -0.10600551 0.47520858 0.36285126 0.4352526 -0.7518874 0.018479146 0.58949393 -0.032635115 0.18370467 -0.43603617
18573 -0.03712963 0.16395949 0.44443125 -0.21169218 0.29882595 0.25516364 0.18786427 0.414585 0.12586875 0.39060324 0.0894309 0.057098154 0.11149571 0.0015739175 0.8545901 -1.0046513 0.15796205 -0.17564416 -0.05610546 -0.49088213 -0.06420772 -0.25617465 -0.027738709 -0.36772865 -0.41465423 0.091343306 0.21674941 0.5701141 -0.507458 -0.36517152 0.8575682 0.15383074 -0.34479725 0.3656732 -0.40502435 -0.064963266 0.06032851 0.03243368 -0.081006214 -0.4012394 -0.21419379 -0.09050792 -0.35555443 0.14922483 0.1713718 -0.026506174 0.43213746 0.2244856 0.49922672 0.48668388 -0.44967923 0.5212073 0.5212132 0.06450672 0.24721697 -0.14238238 -0.32597506 0.25440234 0.15881634 0.82248706 -0.52687746 0.19425473 0.08179385 0.3109692 0.58618873 0.19403861 0.55758184 -0.38904345 0.19263525 -0.5361522 0.2817139 0.028882211 0.034386463 -0.78491074 0.3485719 0.06796122 0.5462947 -0.2540273 0.031674206 0.23112959 0.72267795 0.5261351 -0.6863894 0.32398438 0.6516448 0.22551297 0.47798535 -0.040910177 -0.29932123 -0.06504113 0.3636385 -0.028821956 0.62525046 -0.08800451 -0.2520559 0.0689114 -0.21801664 -0.6814451 -0.46841896 -0.020824313 -1.2780273 0.113136396 0.6102792 -0.01823069 -0.68206096 -0.8751861 -0.34491417 0.3332739 0.5385942 0.0405838 -0.4948068 0.032538347 0.3352883 0.5545377 -0.40445173 0.6890341 -0.44276112 0.6369296 0.11404139 0.1573869 0.047731437 0.035777725 -0.5695903 -0.4683936 -0.051635228 -0.24940513 0.40487528 -0.314094
407 -0.21897815 0.21101992 -0.19296771 -0.024376094 -0.32310033 0.20311546 -0.19770963 0.05022986 -0.03165021 0.32221308 -0.0481347 0.3425011 0.13633645 0.24296215 0.80793303 -0.32158938 0.5027772 -0.80954754 -0.024009937 0.13097748 -0.64136004 0.086100824 -0.5368552 -0.81864405 -0.7495299 0.03466369 -0.22900179 -0.14163268 -0.67012507 -0.14102338 0.5122509 -0.11926933 -0.2574984 0.5209064 -0.49032733 0.24352029 0.50158185 0.056155328 -0.29069668 0.09216651 0.065795004 -0.35972556 0.5361657 0.15482782 0.05880977 -0.08117632 -0.278926 0.09661969 0.39537 0.04444189 0.039218985 -0.2313145 0.22743233 -0.4696737 -0.03502136 -0.5173228 0.3836709 -0.12379927 0.23085012 0.43809235 -0.35539424 0.1964849 -0.252957 0.55681294 0.32553566 0.4249678 -0.013854563 -0.7108296 -0.42275992 -0.85971975 0.36549982 -0.3238078 -0.25116214 -0.788364 0.68390185 -0.13463157 -0.284455 0.3340831 0.08905766 0.38783017 0.29589435 0.40683463 -0.33598432 -0.15374888 0.031639066 0.06891377 0.15088183 0.6290262 0.042247158 0.6298513 -0.19274256 -0.10303674 0.20718454 0.16022241 -0.5316925 -0.4458771 0.028354425 -0.33855987 -0.108764336 0.3643166 -0.65781635 0.3607997 -0.5703863 0.09863683 -0.6926011 -0.017067403 0.5659707 -0.055358138 -0.24636276 0.01648888 0.03598598 0.009631749 0.45148495 0.13884576 -0.43511948 0.0442399 -0.7058509 0.2942402 0.3901645 -0.42494157 0.44239432 0.10801146 -0.3909339 0.32525116 0.25956315 -0.14660609 0.2638838 -0.39530274
12288 -0.01845866 0.252089 0.5387314 -0.23279385 0.34162053 0.30406174 0.20494266 0.37022778 0.105455026 0.5248802 0.124932654 0.09582874 0.15753382 -0.14915495 1.0220942 -1.1066728 0.041004024 -0.2803349 -0.052331686 -0.4890119 -0.08081286 -0.18401718 0.058447547 -0.4765154 -0.60378224 0.13931616 0.18080276 0.31792617 -0.7615941 -0.4155077 0.86610276 0.0055947313 -0.284697 0.3780996 -0.6067688 -0.1490719 0.13452959 -0.04429978 -0.06680592 -0.33291644 -0.36636183 -0.089093424 -0.46048906 0.022645602 0.118805535 0.048336342 0.43197426 0.15870336 0.60628647 0.6213054 -0.5324943 0.55229545 0.5919541 0.11124512 0.33523116 -0.0078919185 -0.35673556 0.17431493 0.099120766 0.9251771 -0.40539426 0.17658797 0.24630983 0.40956044 0.6170883 0.19287841 0.5640354 -0.42179123 0.17108111 -0.5889399 0.18847644 0.06591205 0.06725595 -0.7494436 0.27334806 0.05310881 0.389025 -0.3321814 0.08566218 0.41006556 0.8189053 0.57004344 -0.73196125 0.47982255 0.48644835 0.26285782 0.56307787 -0.035201997 -0.20369509 -0.21510668 0.40190512 -0.09907466 0.7489982 -0.10378885 -0.28708634 0.12299802 -0.25772724 -0.6499622 -0.3911219 0.0009816448 -1.4534109 0.15946843 0.7440457 0.012108238 -0.7866119 -0.8785124 -0.3683539 0.38823512 0.49296457 -0.036595404 -0.37763453 -0.050760068 0.22786169 0.5826049 -0.5023919 0.5711205 -0.4648062 0.6139765 0.15404987 0.13444875 -0.020093884 -0.05794136 -0.5675638 -0.48649314 -0.06893598 -0.32522422 0.45321548 -0.3537334
6279 -0.4012765 0.2729502 0.41836795 -0.024838133 0.07322654 -0.25413138 0.12084066 0.3993987 -0.2097993 0.09626067 -0.011183936 0.19352303 0.08707093 -0.033352 0.65103453 -0.49274102 0.8228573 -0.3620637 0.08126869 0.21612583 -0.44802907 0.01349866 0.2717128 -0.25905368 -0.033257537 0.47855628 0.00987739 0.19138528 -0.42648166 -0.0070536 0.21275927 -0.029406551 -0.03985968 0.32741913 -0.4949304 -0.26945522 -0.23205175 0.34477788 -0.42217216 -0.15095006 0.16974689 -0.12956145 0.38216007 -0.19108675 0.19407332 -0.076215275 -0.22905588 0.21361314 0.22427587 0.6873928 0.10904637 0.035077274 0.39531323 -0.086834796 0.18877026 -0.41448298 0.48884803 0.07738812 0.0052633155 0.155498 -0.30293375 0.66235244 0.08928562 -0.3750692 0.15423219 0.08707883 0.32016212 -0.5198359 0.076585464 0.43080667 -0.033705823 0.051448468 -0.15008329 -0.60933894 0.08168964 0.43131983 0.36727738 0.2700629 -0.2982955 0.088070534 0.49042314 0.6444735 -0.43381158 0.29877076 0.32821965 0.59530807 0.6389803 -0.035069175 -0.5017979 0.3485992 -0.075790934 -0.4366785 0.5138203 -0.068280324 -0.531378 -0.5433668 0.098658554 -0.37269485 -0.33297825 -0.16576774 -0.6689999 -0.11647886 0.2920335 -0.16790296 -0.51399595 -0.28823718 -0.1928449 0.17827277 -0.08595398 -0.47507504 -0.07703702 -0.12771511 -0.22766623 -0.104081705 -0.5314909 -0.2861047 -0.35687605 0.17699867 -0.0009021687 -0.19743079 0.22961041 0.051512815 -0.56285805 -0.07835784 0.1132695 0.18702552 -0.26254296 -0.07805415
1182 -0.14171565 0.43812817 0.33925048 -0.2615517 0.3942689 0.032106508 0.18516627 0.28454053 0.03704484 0.50684327 0.08529891 0.1575401 0.24142861 -0.16654955 0.7191071 -0.70442283 0.44440943 -0.44072872 0.15281756 -0.3050154 -0.3508067 -0.4750334 -0.115225546 -0.7922283 -0.8503348 0.17855082 -0.013755763 -0.11657767 -0.7719384 -0.2177211 0.47118908 -0.09655984 0.09216886 0.47114807 -0.25179207 0.11151506 -0.027501056 -0.05306849 -0.49052942 -0.13132118 -0.5739466 -0.13184282 -0.098500386 -0.12752809 0.17399354 -0.18070042 0.15977813 -0.09412228 0.21661982 0.5841554 0.074719965 0.09296891 0.43260163 -0.547521 0.3290316 -0.5774117 0.47315583 -0.3220722 0.16599509 0.5991825 -0.41439024 0.6536862 0.34429118 -0.09532232 0.16712955 0.12708478 0.44310492 -0.6076508 -0.30534738 0.022164699 0.37382108 0.15394785 -0.18942505 -0.39936352 0.24488221 0.42782593 0.16293149 -0.14298368 -0.2948194 -0.096129335 0.76588494 0.8245544 -0.43557382 0.080674544 0.18394572 0.3518998 0.6773374 0.34514132 -0.4864887 0.41881433 0.23703422 -0.24703549 0.7901115 0.49318814 -0.3382148 -0.14401874 -0.18835194 -0.4055867 -0.5891938 -0.33313826 -1.0744705 0.1303622 0.3852817 -0.118866906 -0.8929743 -0.51076627 0.016526654 0.49302807 0.030341726 -0.10704373 0.0104251355 -0.056427576 -0.003950257 0.34018096 -0.33459765 0.10280943 -0.36334756 0.7101429 -0.19837502 0.18363601 0.11976343 0.0040940307 -0.9357942 -0.13194992 0.24932788 0.07502955 0.47133464 -0.23686425
2414 0.072383516 0.6968769 0.4123339 -0.45082027 0.26361537 -0.32706767 0.24076897 -0.58300304 -0.15336823 0.44668382 0.18483962 0.2732959 0.30446842 -0.22125912 0.44791806 -0.33230072 0.26096973 -0.6463743 0.3861643 -0.4339103 0.16644011 -0.019650197 0.43663087 -0.84823704 -0.92089474 -0.085962236 -0.22546515 -0.5214094 -0.6306628 -0.41823485 0.21941145 -0.062119313 0.19183803 0.98176765 -0.41436437 -0.059158176 -0.11317412 0.10009987 -0.627981 -0.08584308 -0.7576043 0.09893465 -0.22581552 -0.5202256 -0.095545754 -0.44411948 -0.18401235 -0.29349765 0.14362837 0.7244084 0.13962919 0.09356498 0.13906507 -0.38417786 0.07011101 -0.14905132 -0.07844636 -0.06899262 -0.44236156 0.18366043 -0.08263737 0.80937344 0.10882886 -0.4102789 0.21595557 -0.26809344 0.28950834 -0.6350389 0.20265236 0.24806286 0.39076325 0.76564056 0.010611146 -0.5320229 -0.17427577 0.3847412 0.14438616 -0.17475984 -0.22037633 0.3895557 0.66894406 0.5263356 -0.39616737 0.33732617 0.10746443 -0.178011 0.27601552 -0.11546377 -0.64160585 -0.05185581 -0.18084659 -0.52614087 0.6796032 0.22385544 -0.1581006 -0.46062776 0.044995315 -0.23655155 -0.35978243 -0.36907566 -0.13539523 -0.3425769 0.6043723 0.09503014 -1.2989604 -0.41463217 0.14290632 0.4969993 -0.21969257 0.029090688 -0.18604898 0.187253 -0.15890674 -0.19794038 -1.1005411 -0.35799813 -0.32886732 0.72683614 0.06859918 0.18113722 -0.2687054 -0.36734012 -0.5030335 -0.3334384 0.7044269 0.1003326 0.045779053 0.16438264
1078 0.30085975 0.14855516 -0.036900494 -0.29661697 -0.071482845 0.2876666 -0.22054249 0.09257261 0.049097557 0.15020324 -0.07153561 0.22852828 0.1389597 0.2945442 0.71091217 -0.40881333 0.8155968 -0.8561262 0.023284437 0.012878068 -0.6329509 -0.23398063 -0.70056474 -0.8827903 -0.9096056 0.45473677 -0.54849166 -0.6163842 -0.7990274 -0.009993449 0.4317239 0.13616824 -0.026143072 0.63981867 -0.36529016 0.21367837 0.2945818 0.052112736 -0.4645368 0.13587344 0.083362505 -0.35127118 0.29559115 0.19960801 0.22384496 -0.40834495 -0.032825407 0.09894419 0.18219426 0.013694067 0.13504094 -0.23959936 0.57043576 -0.54518557 0.064054504 -0.7879367 0.608114 -0.12707919 0.21223694 0.24159257 -0.2489814 0.110959955 -0.006062275 0.68728966 0.57169044 0.05951323 -0.005378914 -0.5082811 -0.7729787 -0.8989353 0.28311354 -0.2999329 -0.39551058 -0.7255379 0.21666037 0.3073642 -0.29594463 0.11426595 -0.22283792 -0.19003281 0.26919994 0.38497853 -0.1821342 0.03811532 -0.47217682 -0.028171027 0.10520407 0.49796963 0.1305945 0.7515829 -0.2684275 -0.19308469 0.11667968 0.29654917 -0.73560154 -0.1597462 -0.113123536 -0.23671308 -0.18847562 0.34561947 -0.3692189 0.23147283 -0.4388856 -0.013006004 -0.61198443 -0.11912463 0.41390398 0.14650384 0.090911254 0.08897841 -0.13946721 0.34244853 0.26244426 0.13191094 -0.49606532 0.2644697 -0.9492736 0.4529124 0.48590294 -0.10032737 0.2856995 -0.29445207 -0.4640235 0.5418819 0.21806625 -0.117173955 0.27747262 -0.3749999
16001 -0.072548665 0.41168123 0.17762436 -0.2833637 0.361662 -0.36453727 0.106346495 0.36869425 -0.24277276 0.66233987 0.66526943 0.3237154 0.74678403 -0.38378036 0.033844937 -0.075764835 0.08680246 -0.27806202 0.34840626 -0.068262205 -0.477691 -0.3786311 -0.15918294 -0.9242779 -0.52774704 0.100255 -0.35991582 0.07345529 -0.6834939 -0.1778054 -0.10134955 -0.05918969 0.005881345 0.6380484 0.23615289 0.09703308 0.17019609 -0.44118908 -0.25226158 -0.015408714 -0.13491826 0.22586134 0.23754461 -0.550295 -0.09822835 -0.051244967 -0.3139117 -0.14032333 0.13683887 0.31500688 0.13522762 0.17514987 -0.21474189 -0.63986677 0.406292 -0.67417514 0.46652344 -0.50385725 0.32369947 0.11268845 -0.08283364 0.2564782 0.16928785 0.022745242 0.06980005 0.13737887 0.6039508 -0.05037218 0.18923348 -0.14390095 -0.1696348 0.12899175 -0.3790064 -0.6660533 0.052052863 -0.1427397 0.5361341 -0.33885226 0.029610338 0.09591872 0.25687537 0.6305645 0.018253094 0.04685388 -0.03345423 0.43500566 0.85094976 0.2838569 -0.18633278 0.5399623 0.184434 -0.4033532 0.31868482 0.45148352 -0.5085252 0.089454055 -0.13631321 -0.69978 -0.09585686 0.075089544 -0.96575576 0.3415844 0.32905257 -0.18277037 -0.51738715 0.07499868 -0.08886739 -0.12053055 0.40084904 -0.28433985 0.0569051 0.31696513 0.05412255 -0.037590798 -0.20527795 -0.13318953 0.5409186 0.28538665 -0.12565418 -0.20533258 -0.23963742 -0.14702503 -0.91907763 0.09535484 0.11491596 0.43226853 0.15414327 -0.07157476
7833 0.14867586 0.25508466 0.5565851 -0.22070044 0.24013114 0.31638747 0.15371943 0.41071182 0.07604376 0.5928469 0.24509533 0.12228807 0.11335855 -0.16143852 1.0550853 -1.0830901 -0.03011989 -0.34956568 -0.071516454 -0.5387915 -0.13965252 -0.19662017 0.081925996 -0.44815046 -0.589442 0.23982264 0.15658826 0.102575205 -0.8803156 -0.30750343 0.8327745 -0.10815009 -0.18298772 0.2941663 -0.6970812 -0.34191093 0.24141312 -0.16676612 0.06464703 -0.25876325 -0.2920238 -0.08969551 -0.41632336 -0.035217255 0.05547396 0.084207825 0.32644796 0.15419753 0.6298128 0.7018968 -0.5031169 0.48064134 0.46068817 0.11745868 0.36952993 0.027177779 -0.37208056 0.15994887 0.15988085 1.0469285 -0.39102665 0.06984245 0.2368395 0.44789976 0.5611953 0.13980131 0.6221264 -0.29711762 0.1900346 -0.5891214 0.13347657 0.06998081 0.04894381 -0.6701468 0.2421579 -0.12474921 0.25584763 -0.37529638 0.08307819 0.5026759 0.77045256 0.6059701 -0.6496697 0.4622719 0.27032784 0.21883729 0.6477394 0.009708729 -0.084892355 -0.14540902 0.44659403 -0.22533646 0.8222772 -0.1562571 -0.19235766 0.052710347 -0.22337693 -0.6105144 -0.5199662 0.12150611 -1.4524847 0.16895032 0.7264733 0.017112179 -0.6993641 -0.96592224 -0.40820646 0.39669418 0.47783962 -0.118501216 -0.21626472 -0.07093463 0.15737042 0.5843472 -0.48601893 0.51428145 -0.38112476 0.6093739 0.2529537 0.15492564 0.032953314 -0.076247744 -0.59180474 -0.52667403 -0.07596728 -0.3805398 0.4742361 -0.47439587
7919 -0.15628791 0.13474251 0.07911488 -0.32185984 0.46827692 0.27676323 -0.6022777 0.111438885 0.4925762 0.45413223 0.4028883 0.27717862 0.29973462 -0.26458463 0.627662 0.20566061 0.16044387 -0.66406435 0.7266212 -0.3053124 -1.124945 -0.116439804 -0.21563926 -1.0558116 -0.6451288 0.13266778 0.25845775 0.11615594 -0.5365054 0.05833936 0.560266 -0.39905748 0.18569449 0.5105052 -0.42208445 0.39341944 0.28629065 -0.13983977 -0.8335566 -0.34839684 -0.35489246 0.14791201 -0.0030191147 -0.307557 0.25853303 -0.11540915 0.08241902 -0.28535783 0.18945341 0.6038411 0.08869968 -0.31370607 0.94915193 -0.8010172 0.076093845 -0.54637 0.9303683 -0.13135006 -0.09640857 0.12748069 -0.79356134 0.6551935 0.3169255 -0.32645956 0.281571 0.53687876 0.5950229 -0.45722827 -0.37997118 -0.17029388 0.20064205 -0.10578527 -0.2526665 -0.1325364 -0.34433335 0.2507396 -0.08863668 0.17916028 -0.26846772 0.45892203 0.3207285 0.9530991 -0.42885035 0.50435024 -0.4597844 0.2734535 0.46265635 0.3008213 -0.16569379 0.32858068 0.16788392 -0.56167483 0.8408852 0.28094432 0.2630965 0.46021014 -0.22246064 -0.46269602 0.1462693 -0.82045203 -0.61644685 0.19007753 -0.5145648 -0.015780287 -0.59780777 -0.02187134 0.15253781 0.607493 -0.30591092 -0.07194733 0.3062207 -0.35902476 -0.23546503 0.45266923 -0.31596926 -0.46825594 -0.6789864 0.26258126 0.020630173 0.12992278 -0.16449602 -0.31318787 -1.033131 0.47935605 0.578628 -0.27545217 0.27586576 -0.05324449
9138 -0.61068064 0.9609717 -0.098244496 -0.3591227 0.56494814 -0.04801842 0.046663746 0.14920194 -0.015935495 0.42299464 -0.34930554 0.22733843 0.08816876 -0.30861196 0.37214664 -0.20384502 0.48638776 -0.4842043 0.3448271 0.25703493 -0.5137442 -0.4218842 0.13649087 -0.044335645 -1.0827892 -0.15244198 -0.11598183 0.09303502 -1.3832146 -0.17310396 0.3624566 -0.3147282 0.06673953 0.19579156 -0.11087023 -0.09301068 0.32144845 0.08812861 -0.016234204 -0.19138697 -0.7230438 0.048058044 0.30518973 0.27432013 -0.26114678 -0.012641028 0.5851729 0.0276659 0.07900917 0.0721832 0.08355662 0.108539395 0.5454169 -0.71214694 0.6758808 -0.5617023 0.4741295 -0.31355837 0.5191038 0.3097673 0.4921208 0.6313017 0.39823604 -0.23356767 0.25124797 -0.13683137 -0.19249585 -0.39497343 -0.46787435 -0.11628719 0.6329994 -0.08940787 -0.1897942 -0.24429627 -0.5053395 0.19002673 0.13885918 -0.8881392 -0.42124134 0.15652971 1.0443519 0.59896773 -0.8005169 -0.31140262 0.10049594 0.61086667 0.42426625 0.05376484 -0.40285867 0.14579608 0.14043227 -0.3406001 0.24171035 0.13122028 -0.69680566 -0.33884114 -0.09195429 -0.14990617 -0.05205434 -0.20692696 -0.61813545 0.55431855 0.56168 0.19731854 -0.39856562 -0.23394065 0.0885154 0.24805364 0.15906443 0.09256308 -0.4647983 -0.38939828 -0.50824106 -0.20734116 -0.0013386593 0.11221504 -0.49917367 1.183758 -0.2525133 0.028673623 -0.30297673 0.34747887 -0.72071105 -0.4020753 -0.4559924 0.023453996 0.31540236 0.0041141575
17047 -0.68103737 0.4275507 0.117333 -0.11653371 0.48763385 -0.10227764 0.122034155 -0.2123512 0.1410558 0.014865426 -0.5679283 0.26896504 -0.15516622 -0.10615873 0.9276861 -0.52830744 0.47626433 -0.36649126 0.32913768 0.118465185 0.8250978 0.0141367605 0.19495684 0.1197505 -1.4098593 0.13867787 0.018416664 0.027099922 -1.0712591 -0.76365036 0.46531042 -0.30067667 -0.17441086 0.4631056 -0.29073295 -0.1424525 -0.0872526 -0.22778584 -0.1309936 -0.22150058 -0.76511884 -0.23356728 -0.19969723 0.17456877 0.18764605 0.1268167 0.4470851 0.03823068 0.37408152 0.034792166 -0.46072787 0.12671335 -0.06347601 0.20355175 0.42251164 -0.22730052 0.23578368 -0.20492655 0.07571515 0.7980888 0.25320804 0.27164507 0.6346399 0.17326346 0.29608336 0.3315443 0.10253368 -0.82302356 -0.1529158 -0.13023236 0.5080325 0.13236381 -0.15751967 -0.33657956 0.13921545 0.0740121 0.1716087 -0.2562889 0.13135587 -0.102622785 0.72011095 0.36528778 -0.5162446 -0.014428482 0.3391239 0.3992182 0.9975478 0.35215607 -0.6869984 0.26291788 0.11132562 -0.30795923 0.7031943 0.28083798 -0.12379445 -0.40281758 -0.46030906 0.004896827 -0.44867218 0.39736724 -0.84555864 -0.048107065 0.74136764 0.2683019 -1.0966438 -0.31971702 -0.1989266 0.14430203 0.19177394 -0.10571178 -0.79320264 -0.009816531 -0.226445 0.17256187 -0.49982467 0.47830325 -0.17091022 1.2174667 0.12606958 0.007111981 0.29294607 0.18047878 -0.29701522 -0.08657587 -0.36772895 -0.24739847 0.47892427 0.106018156
13272 0.05907817 -0.0031961193 0.30030704 -0.2110658 0.36016428 0.37376225 0.18503529 0.27677813 0.07872219 0.5382134 0.24372719 0.14760971 0.06472649 0.17738767 0.499445 -0.8869769 0.5566974 0.15632524 -0.09643492 -0.3428443 -0.1095373 -0.2694467 -0.008768641 -0.45051965 -0.2521961 0.39321762 0.08531124 0.44374746 -0.25335896 -0.43193573 0.90653545 0.334002 -0.43464056 0.7275287 -0.30387816 -0.028614758 -0.12988514 -0.35532725 -0.3506792 -0.26274407 -0.64234585 -0.17320734 -0.09960872 -0.28825513 0.12278928 -0.26228967 0.34110707 -0.029773949 0.20990571 0.07116837 -0.093053415 0.5202223 0.45960072 -0.031212654 0.08920445 -0.13769595 -0.30812278 0.429005 0.28101218 0.25876534 -0.636752 0.061322585 0.01018655 0.42492 0.48734498 0.25955868 0.6376662 -0.31099018 -0.07165696 -0.52696246 0.14274813 -0.0019945798 -0.19870874 -0.58116627 0.65705353 -0.121627174 0.6271823 -0.14480785 -0.18568754 -0.11874074 0.8180105 0.5130494 -0.61430144 -0.014112081 0.9588215 0.0058100307 0.53099555 0.26633048 -0.49425986 0.8119987 0.44796485 0.2062281 0.42241436 -0.179967 -0.13248965 -0.05555005 -0.13042745 -0.7327476 -0.5425926 -0.021328295 -1.2020199 -0.02381382 0.3845286 -0.40892833 -0.28749603 -0.9035067 -0.5392076 0.17280068 0.31115216 -0.026722394 -0.16903913 0.3564568 0.84457797 0.4986339 -0.25379702 0.7754044 -0.22343855 0.21426041 -0.09948645 -0.05406475 0.422236 0.12322027 -0.67245394 -0.2791367 -0.14767833 -0.3721147 0.40719327 -0.5115967
19562 -0.115324646 0.12763971 0.058429085 -0.483903 0.24171096 -0.0014006894 0.27155417 0.23877195 -0.38731703 0.29367366 0.17341907 0.24552467 0.004490493 0.72708184 0.37022007 -0.57539546 0.40607494 -0.19510657 0.03636455 -0.32164076 -0.080453485 -0.6128857 -0.67932653 -0.4173711 -0.57625264 -0.15163146 -0.010533958 0.2728027 -0.2570275 -0.18402918 0.13648492 0.7838395 0.35444298 0.15654051 0.23288836 -0.037082147 0.0039690407 -0.18105073 -0.36017203 -0.09471293 0.16968124 -0.28172934 -0.01751907 -0.032481536 0.20407711 -0.009906506 -0.168783 0.09932592 0.25317168 0.25343043 0.14434236 -0.05974248 -0.33497712 -0.35397196 0.27726164 -0.91673374 0.4339789 -0.03014928 0.41559678 0.74733335 -0.52665985 0.20232378 0.08678449 -0.05855407 0.010084083 0.45503026 0.40640202 0.10516547 -0.13924816 0.43033576 0.41843176 0.012894688 -0.4031663 -0.5453986 0.48894027 0.38619745 0.019140618 0.07070218 -0.5317169 -0.6072679 -0.086852744 0.35573956 0.017318679 -0.35611466 0.61471534 0.22195637 0.18922405 0.17653094 -1.1920764 0.51651424 0.15794465 -0.40507028 0.3572103 0.96634346 -0.016234087 -0.50873005 0.08426791 -0.20745927 -1.2162691 0.28930095 -0.8672643 0.14123358 -0.23660545 -0.30683735 -0.49590737 -0.6028947 0.5354128 0.29689714 0.4592781 -0.07594226 -0.36811855 0.20744 0.2936593 0.18726853 0.4636256 0.3235951 0.0030749813 1.0887675 -0.054992914 0.43241036 0.43194634 0.30062115 -0.6661523 -0.34425905 0.21356261 0.46913674 0.4086336 -0.15024728
18054 -0.29408297 -0.22767653 0.34181607 -0.2861169 -0.28712276 -0.07944634 0.42560095 0.41172877 0.0024776238 0.11112263 -0.012057969 0.18051082 0.082915515 0.25616527 -0.047080647 -0.5283531 0.28388762 -0.33861643 0.028765788 -0.16414621 -0.12119851 -0.70610964 -0.42551538 -0.3648969 -0.31544423 -0.011324485 -0.23734468 0.32680008 -0.36555877 0.047181938 0.36619794 0.41924652 0.33929262 0.054664496 0.19038609 -0.023627669 -0.16256192 -0.003122089 -0.031483714 -0.13687879 0.18627372 -0.11682724 0.25761828 0.15013231 0.14569768 -0.27389416 -0.03168426 0.21628943 0.5377741 0.5498584 0.34086 -0.3448307 -0.51180005 -0.3598675 0.27347758 -0.92826086 0.43029684 -0.46921906 0.052958272 0.9643178 -0.6376091 0.36854613 -0.533664 -0.11508793 0.11698922 0.23187177 -0.07404166 -0.2710075 -0.50002944 0.18749887 0.586673 -0.38468128 -0.4743141 -0.6228359 0.5605154 0.36802757 0.42950976 -0.023580734 -0.5091686 -0.28983358 0.20243791 0.46766138 0.16035677 -0.3618949 0.21151105 0.39060012 0.15250018 -0.16029802 -0.7082954 0.70692027 0.1843464 -0.15147093 0.438169 0.81260204 -0.0027866606 -0.46118653 0.030189132 -0.20849685 -0.8638122 0.1708555 -0.9502923 0.2336194 -0.02409006 -0.14563155 -0.63243216 -0.42319775 0.17343816 0.34248546 0.40392685 0.08335284 -0.17545475 0.2891847 0.3701325 0.69854856 0.54254 0.3560503 -0.09769687 0.979683 -0.10096978 0.16695592 0.36630458 0.21742108 -0.57424 -0.12222462 0.032486692 0.6916879 0.23741066 -0.28088477
1404 -0.22077957 0.58678675 0.03441172 -0.13788114 0.26671267 0.08694757 0.11842778 0.15929298 0.044317324 0.7046077 -0.023734016 0.3155904 0.58093524 -0.8403722 0.5237097 -0.14283608 -0.010101821 -0.50163335 0.18224552 0.07295262 -0.8318664 0.03214659 0.24842292 -1.1396157 -0.6971507 0.41498938 -0.10682077 -0.7149142 -0.78339106 -0.06638841 0.39672396 -0.6438827 0.24405937 0.5481656 -0.6006868 -0.1162362 0.020850189 0.030250784 -0.4692 -0.09478436 -0.65833324 0.005067883 -0.084432825 -0.24394639 -0.09917024 -0.20511793 -0.20026945 -0.30465636 -0.09989319 0.22844476 0.19943957 0.025685577 0.6412228 -0.6717508 0.24978948 -0.05593907 0.48563015 -0.6642166 -0.08854844 0.15357645 -0.23483635 0.62497246 0.43823537 0.028019391 -0.14848769 -0.09283418 0.07355807 -0.74400526 -0.40743187 -0.070767805 -0.16799815 0.31200716 -0.009142779 -0.057554863 -0.111117445 0.21108864 -0.06326423 -0.04684444 -0.20197907 0.10782313 0.84229887 0.96878767 -0.3692389 0.2900018 -0.61255074 0.46035087 0.44540656 0.46739388 0.30147943 0.20238467 0.119910836 -0.086900614 0.48890674 -0.062285878 -0.28141215 -0.24626304 -0.021062372 -0.25291002 0.35204238 -0.67974246 -0.6035281 0.26490322 0.3425651 0.061439186 -0.87757003 0.24696636 0.10287709 0.49905917 -0.6740751 -0.06822092 0.42136914 -0.4049746 -0.55095464 0.0037646159 -0.6237477 -0.47345316 -0.56182444 -0.05519435 -0.24494238 -0.30371153 -0.16103706 -0.15426481 -0.711226 0.35408574 0.26893026 0.00083663873 0.17203413 -0.3879602
19041 0.0123664215 0.022540448 -0.03180962 -0.23857291 0.2062106 0.33522165 0.13799563 0.22960919 0.18711063 0.4408682 0.19792363 0.08394998 0.033216804 -0.045450043 0.46434692 -0.80287534 0.7244566 0.22738999 -0.04519925 -0.44067472 -0.024504922 -0.232238 -0.17964976 -0.70811653 -0.49278855 0.53075457 -0.13870694 0.13379206 -0.14681216 -0.39337605 0.7378387 0.15744509 -0.4043665 0.6096646 -0.25050348 0.23909959 -0.17034034 -0.33411962 -0.6282477 -0.042856522 -0.5973159 -0.15749435 -0.10401872 -0.44203034 0.18686603 -0.15701395 0.2812922 -0.30719393 0.16655393 0.038372744 0.17814334 0.3663045 0.3357353 -0.15457183 0.22127938 -0.3709171 -0.1380892 0.2099153 0.16617468 0.19960496 -0.36978644 0.09960758 -0.0738115 0.3391186 0.51457864 0.30632132 0.623436 -0.47616723 -0.27682105 -0.5450067 0.08330378 -0.064333685 -0.33037436 -0.4522294 0.8967322 -0.18804257 0.3777674 0.07570028 -0.20268211 -0.2449675 0.71457684 0.55856454 -0.55233306 0.020743513 0.794554 0.21706377 0.53920925 0.31055444 -0.52412325 0.8540865 0.21369402 0.32403755 0.40731734 0.08253101 0.023247505 -0.060078666 -0.052801643 -0.66694933 -0.69247735 -0.05361855 -1.2113048 -0.1614922 0.35450852 -0.47688913 -0.29707772 -0.7792013 -0.51419055 0.13762474 0.30215806 -0.042466234 0.15479772 0.3126601 0.88648564 0.6537906 -0.08182177 0.7133302 -0.37472767 0.08638226 -0.29524055 -0.10766361 0.4931493 0.25998816 -0.64710563 -0.013925905 -0.055264067 -0.33313832 0.49634856 -0.77530485
15645 0.18185282 0.32048354 0.21993893 -0.28405356 0.24720855 -0.32148382 0.7014728 -0.10207247 -0.2967812 0.289765 0.01866272 -0.07910106 0.4954835 -0.2748565 0.7482861 -0.78003454 0.7124248 -0.63198227 -0.31352773 -0.19587727 -0.10678144 -0.092378914 -0.20703718 -0.89392805 -0.6648496 0.3579875 -0.43918046 -0.5851918 -0.41453162 0.14173496 -0.13160415 0.15273896 0.10554385 0.5296754 0.33701184 -0.23732015 -0.17200689 -0.1602456 -0.7519053 0.2786937 -0.3849976 0.16199581 -0.42455974 -0.29293206 0.20034668 -0.5089659 0.043464016 0.0909129 0.31016666 0.49102893 0.38731146 0.2823349 0.23766358 -0.64572966 0.1410046 -0.680746 0.1952012 -0.34442988 0.16002555 0.116014004 0.051793147 0.42175555 0.41790873 -0.16854504 0.30245215 -0.3529076 0.12865001 -0.4334051 -0.3438462 -0.22505732 0.12913096 0.30180103 -0.14288136 -0.54662216 0.61627215 0.4107542 -0.19932386 -0.4417583 -0.46095246 -0.56256413 0.45966372 0.59929 -0.3008518 0.37089896 0.44774756 0.15166973 0.7283257 0.6444149 -0.24096085 0.27974066 0.19655044 -0.095611565 0.55364794 0.54525805 -0.31403393 -0.029841049 -0.13488029 -0.14729379 -0.35145563 -0.5234269 -0.47810537 -0.3386691 0.10227196 -0.16020213 -0.45563596 -0.094182014 0.049264 0.42172873 0.21079522 -0.109505504 -0.12956406 0.19834296 -0.35916218 0.33358344 -0.5415603 0.28285894 -0.58636206 0.43191183 -0.50808555 0.2356503 0.1652881 0.17177838 -0.3477759 0.24828678 0.45026183 0.22799999 0.26741722 -0.4943628
15303 0.3218095 0.36357954 0.48207605 -0.10624608 -0.06879634 0.13074137 0.9600368 -0.3465143 -0.2710999 0.06614071 -0.4749283 -0.07625377 0.24709094 0.020992514 0.61639893 -0.9042371 0.51976967 -0.40676224 -0.57565933 -0.24385755 0.48906103 -0.15875883 -0.01161598 -0.75061315 -0.5676323 -0.3398532 -0.34763768 -0.5298142 -0.5698614 -0.27483767 0.5014774 0.122524925 0.365794 0.30016088 -0.38822687 -0.2406794 0.054566078 0.02469107 -0.52351266 0.2338749 -0.492731 -0.52736413 -0.43060085 0.104094915 -0.05026595 -0.36209625 0.26532426 0.27185795 0.4011215 0.80916756 0.25679705 0.48803037 0.28492326 -0.31398386 0.05501145 0.015048372 -0.015974212 -0.42644075 -0.26268193 0.20750147 -0.19141015 0.19599271 0.50914496 0.27644256 0.20811407 0.21272834 -0.035544205 -0.56484014 -0.24578673 -0.11729625 0.42529407 0.75195175 0.13688886 -0.47358066 0.72932607 0.4689975 -0.37667462 -0.036146276 0.07956751 -0.24307036 0.6376263 0.5274713 -0.69316095 -0.046164844 0.87389034 0.07867888 0.13403435 0.5603657 -0.3928532 -0.09331917 -0.17075534 -0.1377938 0.6044801 0.046145316 -0.17087671 -0.29571283 0.44681314 0.027853252 -0.7373876 -0.1924807 -0.57676804 -0.31346768 0.22086531 -0.32368603 -0.67552346 -0.500249 -0.00076089834 0.35603976 -0.07702903 0.28460267 -0.038511958 -0.1975139 -0.4307606 0.48541293 -0.3419453 0.19107924 -0.33651814 0.35848743 -0.40718383 0.04556549 0.4873525 0.15597363 -0.13046463 -0.64314485 0.14831144 -0.060548604 0.1115367 -0.6046005
5121 0.075965255 0.6390441 0.11354195 -0.048353672 0.2687305 0.15484138 -0.059827097 -0.20456745 -0.22928971 0.44034624 -0.0076507563 0.11299709 0.21858746 -0.45927802 0.36690232 -0.21582635 -0.11848539 0.0033913662 -0.21351434 -0.31510222 -0.124108575 -0.34733236 -0.3120237 -0.7694142 -0.40019932 -0.33256686 -0.002598855 -0.44701052 -0.19356011 -0.120012246 0.48245326 -0.0077667986 0.41806337 0.06856138 -0.0213863 0.46202004 -0.08745341 -0.28895354 -0.093518995 0.23441023 -0.6618724 -0.12176982 -0.19374637 0.04974853 0.14818858 0.065721646 0.17472616 -0.19557042 0.08936466 0.22590081 0.2232285 -0.03630308 0.39415342 -0.4401629 0.3751183 -0.0061464915 0.0048830854 -0.26333642 0.15322 0.6340417 -0.19912511 0.37055558 0.22044267 -0.26906997 -0.5057432 0.3083066 0.36607313 -0.505967 -0.49709344 0.29294458 0.30671912 -0.026314577 -0.18753204 -0.029984599 0.3722161 -0.016624948 -0.25027257 -0.14491828 -0.14554948 -0.25225732 0.5783626 0.29131144 -0.38553515 -0.04265468 0.23526748 0.24249409 0.6412846 0.5693069 -0.31271693 0.444614 0.12678725 0.11135537 0.79817647 0.20073074 -0.24852511 0.20166788 -0.28597194 -0.23155968 -0.48404256 -0.22149119 -0.78156704 0.23548223 0.21784869 -0.09746431 -0.4307907 -0.34361124 -0.012024059 0.3299682 0.0060367407 -0.03400497 0.63427186 -0.12779665 0.20341964 0.2673032 -0.13428378 0.08502824 -0.029585335 0.66090983 -0.34812725 0.2550175 -0.20723733 0.27264503 -0.76415664 -0.2786553 0.38076547 -0.17403384 0.5118266 -0.27927357
6137 0.030678442 1.1538324 0.24738201 -0.3508224 0.6965744 0.15878268 0.09078419 -0.687015 -0.15457481 0.38776428 -0.091983676 -0.0031586713 0.3853139 -0.19065982 0.56389636 -0.24864627 0.22567402 -0.91032887 -0.18225531 -0.2868863 -0.9124853 -0.115617655 -0.15811422 -0.66659325 -0.9936109 -0.3215571 -0.14356582 -0.3074999 -0.96289754 -0.26538533 0.21748684 -0.33330506 0.09511686 0.8214941 -0.6361672 0.33425915 0.44970155 -0.085914575 -0.20592059 0.13449843 -1.039314 -0.04705801 0.02938702 -0.35783842 -0.09918642 -0.31807408 0.48060808 -0.04639654 0.06026352 0.55945206 0.01805234 0.031967822 0.20527534 -0.6367642 0.4415473 -0.14654562 0.80961293 -0.3155436 -0.4309331 0.01516788 -0.47000602 0.20664027 0.8102628 -0.36809462 0.60246676 -0.011353003 0.249394 -0.9534744 -0.3350982 -0.21536547 0.31364372 0.47350764 0.1716671 -0.1907491 -0.28253454 0.48562065 0.18106341 -0.2752809 -0.11264731 0.3869011 0.88154745 0.69435346 -0.46734235 -0.15356176 -0.49611655 0.48265857 0.33133468 0.028201379 -0.13031016 0.26140276 0.16084377 -0.47270423 0.5477537 0.28278145 -0.40326095 -0.48879296 0.23666482 -0.3561078 -0.4939787 -0.31435394 -0.62072015 0.30541992 0.13360173 -0.42203498 -0.8106638 -0.4022756 0.11584967 0.57442784 -0.06011038 -0.15089023 -0.16633148 -0.29222366 -0.457598 0.12903099 -0.56983495 -0.5874933 -0.13145088 0.19044209 -0.10782094 -0.07095899 -0.09120704 -0.23633674 -0.93637896 0.27982652 0.48384836 0.15576147 -0.036360376 0.20675816
9582 -0.21920227 0.27840072 0.13715878 -0.08190262 0.3590935 0.09932723 0.14935082 0.11153812 0.13785928 0.33692318 0.2208422 0.11990788 0.3413773 -0.2708373 0.87442183 -0.7177371 0.24176566 -0.6526094 0.04180505 -0.41093796 -0.28602538 -0.022791978 -0.22303541 -1.1833878 -0.75010854 0.085063584 -0.0469557 -0.43781495 -0.60161304 -0.09870023 0.42137194 -0.25230113 0.025415532 0.5567717 -0.33115068 0.07549847 0.042776525 -0.08138946 -0.55069774 -0.09111716 -0.24607985 -0.30274376 -0.15498488 -0.0264492 0.36673173 -0.21461 -0.10024289 -0.15858182 0.29899076 0.5775384 0.17821765 -0.011207139 0.5545326 -0.38436857 -0.0219351 -0.42088324 0.43800372 -0.41387805 0.022013048 0.73212504 -0.5542255 0.6681922 0.38621992 -0.039739348 0.20333827 0.2127071 0.483923 -0.8604308 -0.24461196 -0.08484267 0.1881942 0.10351982 -0.20574099 -0.39377907 0.44942123 0.33649704 -0.037825577 0.20981166 -0.0009702459 0.34712723 0.5412839 0.95327836 -0.4396156 0.41767874 0.104043566 0.2771314 0.87679696 0.53556436 -0.15934715 0.20143703 0.24167427 -0.11490427 0.81505656 0.22556344 -0.24806105 0.0040571964 -0.01261284 -0.40265527 -0.44860724 -0.4853792 -0.8994569 0.12977359 -0.046093814 -0.1519426 -1.1638222 -0.1299656 0.043692745 0.5157296 -0.1605105 -0.11842757 0.33832875 -0.17121817 -0.18477757 0.4793277 -0.61216885 -0.2692058 -0.48486656 0.30231166 -0.09520801 0.3426139 0.12686837 -0.034713056 -0.8198384 -0.058540355 0.6566859 -0.15529253 0.4416291 -0.3828313
905 0.06275329 0.38510293 0.22486171 -0.044930264 0.2125685 -0.029764205 0.07109602 0.48857015 0.053105686 0.46010667 0.09068726 0.32490215 0.30804643 -0.3195732 0.209906 -0.45193848 0.48404613 -0.2529863 -0.026548414 0.114595786 -0.32662424 -0.57240325 0.22069222 -0.86474025 -0.4678675 0.11188733 0.19459158 -0.1973101 -0.580435 -0.10133696 0.27965888 -0.08930788 -0.010134441 0.4103068 -0.073272355 0.19922775 -0.17714857 0.09589087 -0.50733787 0.18975891 -0.4788075 -0.08817471 -0.10896971 -0.057398725 0.30353418 -0.016627358 -0.11952206 -0.32744884 0.09007924 0.3527914 0.17845562 0.14817238 -0.012128444 -0.5527051 0.17571892 -0.31958777 0.31838182 -0.5333762 0.14999849 0.28822255 -0.06184669 0.5722845 0.057246044 -0.02040157 0.071655095 -0.1133818 0.030220926 -0.3670399 -0.28980833 0.06663664 0.32519525 -0.019708093 -0.24245483 -0.30683038 0.21794303 0.10537624 -0.044269823 -0.207816 -0.5020543 -0.12497904 0.8801318 0.72809446 -0.13500494 0.13959247 0.33911607 0.36911383 0.5771433 0.22975458 -0.57380545 0.40459645 0.42847145 -0.09372978 0.33756614 0.28932595 -0.26294422 -0.049257882 -0.030692672 -0.16106175 -0.3039894 -0.704868 -0.74125 0.045963917 0.48233774 -0.0072046486 -0.9156421 -0.4296824 0.011790121 0.35656616 -0.24940307 -0.15528409 0.22878033 0.09308404 0.523181 0.26274854 0.05577137 0.2035778 -0.32071942 0.6664204 -0.33295262 -0.021961203 0.22476114 0.041923504 -0.40853032 0.040789694 0.21824278 0.36695498 0.56286055 -0.2793473
21756 -0.8179052 0.3447862 0.58187294 0.15930142 0.89584744 0.51202863 -0.19152626 -0.41111314 0.29770732 -0.026178699 -0.16244505 0.116802335 -0.24671814 -0.5206737 0.57169753 -0.02415383 0.27404016 -0.1064401 0.89383674 -0.47096828 -0.30072945 -0.16304705 -0.084225 -0.3798835 -0.7405236 -0.4985675 0.34436575 0.28363225 -0.03306111 -0.91807616 0.6962523 -0.15089403 -0.030499006 0.5814853 -0.07968227 0.30856538 -0.1504464 0.007530978 -0.41960743 0.10754142 -0.46980816 -0.087906696 0.47737715 -0.11428121 -0.1948181 -0.29734415 0.09797295 -0.048078965 -0.00672736 0.011161423 0.32032564 -0.08128916 0.3557294 -0.5127504 0.10227216 0.30166462 -0.013577739 -0.05265372 0.09685228 0.26023838 -0.30962065 0.62833834 0.5152962 -0.44143394 0.26012817 0.30603188 0.6468009 -0.48392153 0.038062256 0.47700152 0.42410362 0.056831792 -0.48904434 -0.420628 0.34892166 0.24187607 0.21725006 -0.15455216 0.0761763 0.25845426 0.23496205 0.9339239 -0.40101275 0.16649094 0.045983177 0.0021445686 0.6284617 0.29394373 -0.65379566 0.62433827 0.061642967 -0.24737842 0.43326423 -0.052924506 0.315049 -0.37211394 0.5307975 -0.4683913 -0.97944653 -0.20688678 -0.50429755 0.12115233 0.060360026 -0.6733085 -1.0571465 -0.3679095 0.3791471 0.45583925 -0.07255179 0.14669995 -0.3626243 -0.47135717 0.12909791 0.110934444 -0.4747747 -0.0022907946 -0.116374224 0.68204683 -0.2091378 -0.029198123 0.10455957 -0.13291578 -0.89957535 -0.05681002 0.1803857 0.2248766 0.19809425 0.05948635
4475 -0.40557337 0.54274356 0.29637077 -0.27747548 0.4262231 0.07724285 0.47196513 -0.06907081 -0.07838985 0.39288685 -0.43336812 0.10637905 -0.027977178 0.28159156 0.73947084 -0.40741387 0.243016 -0.2122527 -0.20952672 -0.1705655 0.11546928 -0.4026648 -0.017410483 -0.6210896 -0.64203936 -0.08374502 -0.05627118 -0.26362583 -0.61641794 -0.2839436 -0.04417557 0.024028337 -0.047274113 0.67413545 -0.11078345 -0.37247035 0.34697607 0.015937336 -0.30998057 0.17021455 -0.2091801 -0.20832852 0.28440374 0.40559682 -0.09793698 -0.331525 -0.020298317 0.631249 -0.13054307 0.52244896 0.1552858 -0.39542213 0.51662207 -0.09325025 0.18202677 -0.53359854 0.06684057 -0.23751074 0.5223333 0.4891344 -0.48917368 0.59811985 0.41118667 0.068454124 -0.0065170554 0.19438483 0.053685855 -0.6000184 -0.66362464 0.5106917 0.41917637 0.3535593 0.035440575 -0.3318178 0.7332368 0.52125436 -0.027703071 -0.062348157 -0.17050795 0.097224504 0.4633033 0.6341574 -0.9408549 -0.24083531 0.2398433 -0.120814554 0.592698 0.8896285 -0.38061672 0.30378938 0.039428055 -0.28660214 0.43764654 0.049616184 -0.15834028 -0.43154186 0.17370781 -0.082478225 -0.90482277 -0.028573101 -0.5356505 0.19186394 0.27858606 -0.24702054 -0.7321037 -0.4071331 0.37731978 0.18417439 -0.057237852 -0.13375747 -0.39188233 -0.1733299 -0.32213417 0.059462283 -0.39931867 -0.18127699 -0.33450752 0.49529 -0.1303808 -0.20931418 0.23737821 -0.082294285 -0.36247858 -0.35166633 0.19489732 -0.051930755 0.36531886 -0.3079457
10222 -0.6050121 0.44513318 -0.23860793 -0.26820686 0.20002037 -0.34219724 -0.008051251 0.3070376 0.08978373 0.10693849 0.20067641 0.42472544 0.13159212 -0.103740215 0.94213355 -0.15029645 0.74213463 -0.06527475 0.23538376 -0.036767058 0.025521513 -0.28542146 -0.27913967 -0.6887461 -0.51528513 0.2796886 0.2870833 -0.15379202 -0.42865384 0.14647934 0.51198274 -0.14486104 -0.19687995 0.5497293 -0.17714018 -0.06914754 -0.32947326 0.21158859 -0.7923444 -0.52598125 -0.10219194 -0.21663551 0.110151894 0.5819111 0.6639958 -0.23572941 0.26252487 -0.17817569 -0.2739823 0.20839922 -0.20486814 -0.26532534 0.6259097 -0.25786656 0.14179318 -0.70789707 0.49074784 -0.04216244 0.55977446 0.81576246 -0.012364633 0.82715845 0.3754972 -0.36397523 -0.3931224 -0.080907494 0.70629925 -0.49687457 -0.385861 0.123411424 0.25544816 0.08689775 -0.10974026 -0.09742706 0.04711917 0.062046107 0.1829922 -0.1344879 -0.09622213 -0.29038888 0.41798818 0.7057724 -0.43277726 0.27315763 0.22309844 0.06412446 0.70701563 0.49601686 -0.36893916 0.21661113 0.22620367 -0.26792094 0.60342085 -0.20646635 -0.6963573 -0.05498929 -0.14588928 -0.066356085 -0.49373057 -0.08008062 -0.19735424 -0.13807042 0.63708603 0.092781596 -0.70536315 0.03184586 -0.28649142 0.027492275 -0.20622389 -0.11634234 0.02702752 0.26416352 0.043066934 -0.056819707 -0.7380552 0.39693028 -0.6493019 0.7797783 0.08413637 0.46070713 0.13669483 0.26379874 -0.6087566 -0.19665444 0.38481456 -0.3928852 0.6569804 0.098007955
15888 -0.04498704 0.072810836 -0.008464698 -0.08199823 0.63520396 7.355925e-05 0.35057756 -0.53296083 0.0044613024 0.20426425 -0.05817474 0.09625807 0.18814673 -0.030693607 0.20575422 -0.22036788 0.059238344 0.023964006 -0.2925607 -0.53993315 -0.12805489 -0.015013438 0.08039088 -0.990626 -0.37649217 -0.12832701 -0.25560245 0.174916 -0.93135536 -0.16834866 0.079215445 0.35162997 0.30845675 0.14805461 -0.3229207 -0.001153453 -0.2358232 0.073359534 0.0067843692 0.16285832 -0.4258271 -0.16454606 -0.09204656 -0.055440843 0.3075587 -0.22324125 0.14139129 -0.38408774 0.21191816 0.21516614 0.30376923 0.1944117 -0.032328207 -0.62129796 0.23525679 -0.44471645 0.28371233 -0.30435985 -0.49041885 0.5047993 -0.66779417 0.02571784 0.1624809 0.22029507 0.40585777 -0.06959546 -0.15298852 -0.7611865 -0.30551904 0.13009903 0.39414328 0.5307337 0.26445416 -0.9605939 0.8207077 0.37063217 -0.14855754 0.27663368 -1.0006397 0.07674912 0.51255006 0.43214783 -0.46282256 0.2797504 -0.28309575 0.39105293 0.39448488 0.29340398 -0.27404058 0.1564221 -0.07664386 -0.037099373 0.43563998 -0.00949001 0.43512008 -0.44938126 -0.031237466 -0.72538126 -0.5087899 -0.35324043 -0.39214653 -0.3139641 -0.24838398 -0.11804476 -1.1424267 -0.29902372 -0.07668432 0.5157195 -0.29749033 -0.2599894 -0.02304926 0.1957784 0.36689103 0.041180454 -0.24725324 0.013087914 0.14857751 0.48836136 0.0062691527 0.5190698 0.38427106 0.27778324 -0.42050198 0.23231821 0.55635005 -0.05669389 0.22983903 -0.7516364
17891 -0.53607464 -0.3224553 0.40126038 0.09113305 0.02907708 -0.15692884 -0.12491272 0.083424635 0.45228893 0.16024491 0.012703712 0.08646484 0.03501536 0.30976564 0.28120008 -0.64329547 0.7361278 -0.37452927 0.38408205 -0.42475444 -0.2772674 0.09104606 -0.38621086 -1.0602404 -0.81201154 0.24388914 -0.27406296 -0.3286294 -0.53256154 -0.10265141 0.12359706 -0.0749095 0.24717453 0.25870353 -0.2801134 0.02668673 -0.3946766 0.33698985 -0.40548187 -0.21168476 -0.7655793 -0.17641234 -0.044004936 -0.37001935 0.41891873 -0.41883594 -0.13271883 -0.56399333 0.27138013 0.14998314 0.51853216 0.09553573 0.52709615 -0.2430516 0.066629894 -0.2364831 0.56166446 -0.4463966 -0.20985378 0.68567526 0.18759176 0.3732114 0.32373127 -0.43406627 -0.14873858 0.074883245 0.08141833 -0.25246295 -0.58313257 0.060454182 0.38589424 -0.0033001476 -0.3138919 -0.3218785 0.50216573 0.1275655 -0.15387312 0.47216263 -0.598082 -0.5200262 0.3049924 0.82769144 0.08342854 0.35090363 -0.1581783 0.29557595 0.35643035 0.20751089 -0.30260333 0.25403562 0.11847747 -0.117398135 0.56741065 0.5416949 0.0050372635 -0.66941476 0.05056573 -0.19535032 -0.48749453 -0.13729118 -0.7737202 -0.124517925 0.4151258 -0.18214917 -0.6916264 -0.2808671 -0.16893816 0.15957384 -0.36620492 -0.22413406 0.0513646 0.15518962 0.10527257 0.19322744 -0.3759821 0.033367254 -0.466664 0.20938717 -0.2700161 0.25415397 0.24546616 0.1469835 -0.76213217 0.22525245 0.29000774 0.014461752 0.3039258 -0.57593465
11922 -0.47575763 0.49261892 -0.024600372 -0.37237278 0.54886 -0.29511264 -0.21116373 0.17618044 0.15619309 0.15517 0.14837602 0.17593737 -0.20445605 0.1704581 0.6484924 -0.7917205 0.5407244 -0.6902886 0.14944091 -0.28120872 0.32917213 -0.6262005 -0.26606026 -0.6088941 -0.30772355 0.25794128 -0.054711975 -0.20881733 -0.50081277 -0.10136483 0.35765505 -0.26100224 0.17494453 -0.12282358 0.12589715 -0.11365279 -0.21853653 -0.35518476 -0.7379022 0.006364391 -0.555057 0.15235527 -0.016337741 -0.041870333 0.27768546 -0.17531712 -0.11931392 0.23428725 -0.16610806 0.31273648 0.19958766 -0.09090624 -0.38585812 -0.5657192 0.24125168 -0.53111655 0.55570036 -0.16341352 0.4564726 0.24453886 0.13798873 0.622493 0.40316325 -0.34388325 0.09071691 -0.1669192 0.10416032 0.024221329 -0.3938472 -0.015763724 0.5638455 0.16341163 -0.26390773 -0.14557593 0.26283282 0.14131153 0.42661014 -0.23470019 -0.4942145 -0.53940374 0.08751519 0.44060487 -0.5524181 -0.32220757 0.03502323 0.12814479 0.2585055 0.8002926 -0.91791594 0.30899382 -0.08600942 -0.29038188 0.6128595 -0.077448204 0.2392269 0.0260695 -0.269566 -0.10357031 -0.51431143 -0.22201435 -0.60547066 -0.24032234 -0.076984406 -0.044901706 -0.22363874 -0.406509 -0.41491058 -0.0052647614 0.31245765 -0.25414115 0.09027962 0.091287166 -0.32522938 0.022342762 -0.5975281 0.10461537 -0.3090061 0.9607381 -0.15278356 -0.16292158 0.3979644 -0.0114937145 -0.65530354 0.42346722 0.33586788 -0.16114159 0.60418516 0.0119403945
5923 0.036249742 0.5773772 0.2599307 -0.37685156 0.5022736 -0.06042588 0.13110593 0.16653633 -0.110312924 0.49378297 -0.07482265 0.10562405 0.27839965 -0.22748615 0.42722967 -0.7496285 0.61132425 -0.4626223 -0.017547283 -0.36816913 -0.07170664 -0.59606713 0.0808213 -0.6179555 -0.60058576 0.22975264 0.03781461 -0.4802866 -0.7110739 -0.02205245 0.18061422 -0.08343912 0.30010062 0.47549105 -0.15934484 0.21800998 -0.1056261 0.014070462 -0.61823684 -0.14519382 -0.8145513 0.015557255 -0.3823269 -0.17873569 0.25692645 -0.34646785 0.29289946 -0.008793932 -0.03430671 0.6620316 0.1767373 0.089562476 0.41815412 -0.4921218 0.287507 -0.44561696 0.37846702 -0.116318755 0.0086441375 0.33811137 -0.47232392 0.7421651 0.46773005 -0.54311043 0.031251684 -0.14032182 0.3204095 -0.7615093 -0.29355767 0.6652742 0.22507842 0.28131047 -0.08908363 -0.007918771 0.055166695 0.64719653 0.024288965 -0.07393954 -0.43748593 -0.23485374 0.51309633 0.6518184 -0.4236943 0.10263518 0.3314931 0.2063188 0.5435054 0.16313677 -0.60700464 0.14518805 0.29646844 -0.26780915 0.83694583 0.6402875 -0.20783132 -0.020094343 -0.20164742 -0.16903119 -0.8995359 -0.5471999 -0.63135254 -0.27187887 0.5766022 -0.009064102 -0.6066266 -0.6061981 -0.07969894 0.8142849 -0.024377916 -0.05287844 0.034068234 -0.07554597 -0.24680783 0.27165577 -0.28009617 -0.08571457 -0.45042312 0.71715236 -0.49950415 0.39104828 0.015177706 -0.18899201 -0.7590176 -0.237356 0.32529902 0.0642855 0.51466435 -0.111903325
16702 -0.20408872 0.5842399 0.28254074 -0.15542275 0.33831066 0.114249684 0.11596904 0.014609138 0.009153429 0.6922593 0.17418683 0.17309852 0.384169 -0.36061323 0.7275131 -0.52188075 0.4190245 -0.5567042 0.18862647 -0.16463946 -0.4929576 -0.26090762 0.03098171 -1.0379425 -0.89606166 0.16484194 -0.059282683 -0.5069847 -0.96658367 -0.16511652 0.38713455 -0.32095823 0.18076178 0.6307903 -0.4074457 0.10835783 0.10346251 -0.16383025 -0.58180976 -0.018222718 -0.72581714 -0.28846282 -0.119148105 -0.31590477 0.13103507 -0.2179592 -0.019093256 -0.22623427 0.11646658 0.59423214 0.1613043 0.03817087 0.592271 -0.6244406 0.26049548 -0.42929843 0.549849 -0.4133817 0.014859365 0.40502626 -0.27182302 0.6745253 0.42723474 -0.101896144 0.12955947 0.022095699 0.3522701 -0.81256104 -0.39266676 0.05043799 0.19261602 0.2114807 -0.15359548 -0.24360587 0.14814636 0.36101142 -0.06417804 -0.09649072 -0.18145022 0.09676696 0.76872605 0.929811 -0.43196905 0.26103717 -0.12097955 0.32784438 0.75612783 0.3852317 -0.25318915 0.31710023 0.18367623 -0.219333 0.738243 0.3629087 -0.46450672 -0.20893064 -0.12075474 -0.25619018 -0.33702108 -0.32911515 -0.85360247 0.17868268 0.2590401 -0.111314885 -0.941096 -0.14988834 0.0065661487 0.5503405 -0.20567404 -0.17840908 0.24082552 -0.22494678 -0.22563004 0.20214787 -0.51287216 -0.17313686 -0.5541153 0.42751375 -0.23696381 0.14845674 0.13865827 -0.04603148 -0.8454805 -0.021715673 0.37943488 0.02711984 0.37669283 -0.21976654
11046 -0.38625926 0.087935984 -0.30145112 -0.5363719 0.04112871 -0.62482935 0.0020043617 0.3075151 -0.14578578 0.18208821 -0.03889094 0.3770833 0.7952387 0.02006403 0.49664116 0.028519846 0.6365403 -0.53395814 -0.20479284 0.37650907 -0.22600983 -0.07877774 -0.1662207 -0.5922147 -0.8381256 -0.227696 -0.18180995 -0.5560038 -0.49253207 0.3008887 0.05994223 0.19563863 0.3115966 -0.21385087 0.1680626 0.27914333 -0.64076906 0.18099904 -0.18227527 -0.3407525 -0.23895015 0.099538736 -0.33298194 -0.30102766 0.46334973 0.21869019 0.06472129 -0.3395924 0.4351445 0.5166243 0.2127205 0.4068959 -0.35714653 -0.20963682 0.15557516 -1.1440454 0.8705431 -0.8603651 0.106258355 0.6520048 0.2689235 0.70164496 0.25477746 -0.7745481 -0.32806924 0.21391834 -0.12743862 -0.23733518 0.08149332 0.22250871 0.7871444 0.4882159 0.0015337092 -0.15723838 0.304816 0.145854 -0.11162308 0.010625604 -0.71050304 -0.20288268 0.98016083 0.63468266 -0.23369204 -0.17598432 0.58048654 0.49343988 0.16411696 0.3203844 -0.6327616 0.6482066 -0.106319934 -0.36238676 0.63932884 0.29579023 -0.34348404 -0.59277314 -0.53205943 -0.07526861 0.1539668 -0.40669832 -0.35007432 -0.03472155 -0.029993687 0.15155782 -0.63438356 0.20074317 0.063755475 0.09675991 -0.3426836 -0.03946128 -0.10547517 -0.07828486 0.031172495 0.41309798 -0.4578258 0.22760089 -0.038527112 0.80162543 0.07868787 0.42284095 0.36181295 0.60403097 -0.7790196 0.17215091 0.3208466 0.02453386 0.03827111 -0.37807518
7887 -1.0126041 0.1338634 0.010053865 0.22783677 0.3997103 -0.25761887 0.33403823 -0.27043393 0.08479558 -0.09684743 -0.5861782 0.31478235 -0.020014258 -0.34939057 0.5437992 -0.059052162 0.38632834 -0.44824365 0.17060244 0.14610736 0.5128316 0.048231196 0.31843302 -0.26884907 -1.1273787 0.085200354 -0.10482479 -0.22984485 -1.1300226 -0.5001322 0.45607653 -0.40281856 -0.014520221 0.35138065 -0.32888693 -0.07715074 -0.17792904 -0.11774529 -0.18256457 -0.24874057 -0.41876194 -0.35285598 0.3042009 0.18706192 0.05130957 0.2556513 0.08076482 0.049119752 0.37563187 -0.024226248 -0.35255298 0.3388587 0.018473754 0.1097072 0.3237644 -0.63245696 0.26587373 -0.564501 0.2267103 0.798892 0.25963184 0.31538555 0.39867476 0.09992948 -0.031176459 -0.035472702 -0.11097544 -1.0326966 -0.32836518 0.017146328 0.35923398 0.12810528 -0.30189952 -0.40026748 0.22045189 -0.21394357 -0.042657916 -0.27005363 0.046413194 -0.052095085 0.6374014 0.62086815 -0.3897867 0.29143873 -0.05956366 0.5235949 1.3063809 0.5949191 -0.4342675 0.28169522 0.048378192 -0.12325537 0.5899088 0.12616426 -0.2629205 -0.7835696 -0.085383594 0.22674897 -0.5137584 0.52591836 -0.5517859 -0.182736 0.72050303 0.2064433 -0.91479295 -0.0666052 -0.086689726 0.26458773 0.1010055 -0.10762453 -0.62329805 0.07161992 -0.049056944 0.21917953 -0.5853121 0.20821588 -0.3730419 1.0380805 -0.12795405 -0.03255747 0.5130604 0.35407725 -0.11967918 -0.018382486 -0.30459228 -0.34286827 0.70171356 -0.18576275
4072 0.5805701 0.523748 0.23142602 0.000860109 0.66203785 0.20142488 -0.029855475 -0.3232035 0.122338824 0.0012291489 -0.0124891205 -0.15132244 0.19481494 0.0622419 0.8122947 -0.46104687 0.36330664 -0.36868152 -0.2165854 -0.49990252 -0.26639673 -0.005610952 0.1414447 -0.78459007 -0.51632124 0.41850764 0.0927235 0.06363701 -0.20552991 0.15926442 0.30451277 -0.22682318 0.0050419797 0.21612318 -0.4873201 -0.05752722 -0.04726934 0.031693418 -0.8655888 -0.42227796 -0.56489265 -0.042475164 -0.27411196 -0.1405122 0.13515326 -0.30315688 0.4280583 -0.3906074 -0.14543203 0.39159042 0.13698195 -0.056224395 0.8122799 -0.7647922 0.15023115 -0.29785222 0.4708894 -0.07318656 -0.10802108 -0.050289918 -0.33544207 0.3090019 0.5407896 -0.50592035 0.051131096 0.1848291 0.52338964 -0.712314 -0.30274582 -0.44127136 0.21864153 0.5840029 0.13087615 -0.13866544 0.14076827 0.36687025 -0.00024452127 0.31495902 -0.37633416 -0.27159545 0.58435494 0.7945307 -0.47411212 0.24791819 0.11972205 0.0524148 0.3172604 0.35156703 -0.40794918 0.06336758 -0.0058204066 -0.1406119 0.94059116 -0.030257745 0.43993613 0.19336095 -0.38945416 -0.16720256 -0.531666 -0.8070146 -0.33068973 -0.46694458 -0.01304884 -0.21149558 -0.5616067 -0.56391305 -0.20721531 0.744416 -0.20977364 0.1813799 0.025665123 0.24928111 -0.14915419 0.2839823 -0.6675811 0.2774322 -0.30483356 0.4082684 -0.2033351 0.35221165 0.050625943 0.12357403 -0.73985386 -0.0234534 0.7076558 -0.56619835 -0.0669543 -0.3170807
16431 -0.29954085 -0.09260986 0.03509369 -0.03833343 0.51839894 -0.08202062 0.2805745 -0.26346684 0.2143943 -0.066652544 -0.13851088 0.056075927 0.25161633 0.29760197 0.69684064 -0.39260888 0.21524635 -0.045618705 0.052460235 -0.32492512 0.19710147 0.04401229 -0.31250554 -0.4108002 -0.61094666 -0.34676504 -0.3014748 -0.024345184 -0.4082093 -0.38781187 0.3359143 0.073757954 0.29524398 0.025623862 -0.37277922 -0.007274612 -0.17059202 0.52342325 -0.4349771 -0.5053541 -0.29749197 0.032126173 -0.4933518 0.31772736 0.43133196 -0.18861541 0.72636336 0.08109499 0.2254959 0.49124083 0.14847773 0.16339166 0.60453665 -0.5344669 0.20378865 0.052593272 0.6317982 -0.015508884 -0.1299231 0.41117984 -0.18531236 0.5156758 0.13088727 -0.6482216 0.24415128 0.17242344 0.6612408 -0.32980374 -0.29896945 0.19964899 0.5959031 0.0055229156 -0.15664366 -0.45941836 0.22893529 0.4829488 -0.10398414 -0.0043396847 -0.21020949 -0.19918454 0.44608292 0.8811289 -0.7042125 -0.04968489 0.38130742 0.41379243 0.31556875 0.25056586 -0.41367018 -0.03497146 0.17402661 -0.20477627 0.9316625 0.024514915 0.442464 -0.14501815 -0.28552297 -0.31574157 -0.9011721 -0.22410718 -0.43463928 -0.058503766 0.31131515 -0.15729398 -0.85957485 -0.23415506 -0.4085285 0.42734107 -0.0606272 0.08565333 0.07669525 0.118642434 -0.6062856 0.59042555 -0.45852602 0.13017647 -0.5216301 0.872136 -0.09764762 0.47396636 -0.08540078 0.03693296 -0.6191463 0.088005975 0.19302642 -0.26696953 0.08917917 -0.14447412
14996 -0.24466267 -0.14487205 0.32350537 -0.27087182 -0.020242 -0.07767926 0.23548244 0.5927456 -0.11623282 0.17870665 -0.0037119335 0.16850033 0.10588023 0.61175066 0.38912207 -0.92407686 0.3196932 -0.2757956 -0.22160965 -0.18709122 0.08540537 -0.5545284 -0.49533644 -0.479553 -0.69783986 -0.19643168 -0.16463682 0.03381665 -0.17382585 -0.42647094 -0.031593643 0.42310154 0.20860927 0.062480457 0.4173149 0.088739835 -0.12366668 -0.21887952 -0.30196962 0.16660298 0.0696993 -0.15992683 0.063684195 -0.12628134 0.2039467 0.09406543 -0.14943752 0.23941252 0.32348964 0.4318813 0.05134211 0.048671674 -0.26320097 0.039442964 0.36285254 -0.8873116 0.19492584 -0.22765586 0.4955749 0.865461 -0.443835 0.21847047 0.18578203 0.23667863 0.010176788 0.6071884 0.45121372 -0.019081296 -0.28295252 0.3055173 0.18361469 -0.124148846 -0.60226786 -0.598592 0.62908274 0.34052637 -0.20481144 -0.0842052 -0.38434348 -0.34339616 -0.1845254 0.3186839 0.119226255 -0.051701844 0.7805414 0.119587876 0.30910784 0.38222858 -0.9088172 0.19536702 0.44359756 -0.31897432 0.4240766 1.1217908 -0.15164457 -0.3524063 0.06493126 -0.029954271 -1.0693067 0.21902052 -0.9739735 0.33405536 0.07165633 -0.27440456 -0.5987216 -0.5938248 0.5309096 0.34551048 0.3069592 -0.20313412 -0.24426068 0.14193097 0.17824037 0.43271056 0.24383524 0.23431239 0.15127076 0.8402359 -0.2703102 0.3994545 0.26225805 0.21464203 -0.5534055 -0.5808835 0.17191389 0.58390343 0.54161483 -0.19522294
7781 -0.66525495 0.45471972 -0.3135764 0.10496829 -0.17233966 -0.01707195 0.042639736 0.009286543 -0.18403876 0.54255295 0.18439107 0.51744837 0.6100158 0.13410208 0.46995944 -0.08520673 0.35971442 -0.52204186 -0.15855625 0.30332404 -0.28605166 0.021923555 0.084428795 -0.8636913 -0.575122 -0.26028284 -0.051106904 -0.16530922 -0.519209 -0.05415456 0.7445775 -0.047466774 -0.10372453 0.68557465 -0.3954218 0.15090686 0.5176697 -0.0990462 -0.34583607 -0.021668745 0.017508171 -0.48089045 0.40272838 0.009938462 0.11007277 -0.19093245 -0.37534365 -0.06807356 0.47241658 0.0154398335 0.32654446 -0.2671589 -0.34922248 -0.16895631 0.13303618 -0.6732872 0.28044623 -0.015609004 0.1784014 0.6234039 -0.53726125 0.3759995 -0.26650438 0.18242675 -0.12974662 0.5796551 0.14104643 -0.8483988 -0.07829379 -0.2900914 0.60071665 -0.05512879 -0.14397916 -0.6954219 0.7564632 -0.30767938 0.33671096 0.18225549 0.31109965 0.51191914 0.5893617 0.5963642 -0.5562248 -0.1357832 0.8801264 0.14545023 0.21583986 0.61039674 -0.31490108 0.53484654 -0.06891664 0.17054084 0.55659634 -0.22226574 -0.09620491 -0.8296042 0.2164595 0.10201269 -0.07541264 0.121468745 -0.66453063 0.5345843 -0.34801632 -0.07146328 -0.7932114 0.04330754 0.1246931 0.10088796 -0.27121603 0.11875994 0.06298543 0.06723999 0.274675 0.36196432 -0.46267593 0.028159695 -0.4423972 0.5024083 0.14876066 -0.46832365 0.53493613 0.46539128 -0.60936904 -0.2776747 0.26164383 -0.05770937 0.27251437 -0.28985566
13300 -0.23168342 0.49059463 0.29272673 -0.34850773 0.58571917 -0.14970744 -0.31281278 0.47119763 -0.09449088 0.41604155 0.36692265 0.23058264 0.15675157 -0.47716355 0.044283092 0.10770659 0.42197946 -0.36031252 0.5135562 -0.16543892 -0.72679913 -0.68347627 -0.40565053 -0.44444475 -0.38277417 0.0859428 0.02707657 -0.17406805 -0.44393116 -0.06757401 0.40331024 -0.17050552 -0.18367204 0.4716263 0.15320922 0.6123874 0.11980816 -0.26805893 -0.52441055 -0.1492951 -0.22826883 -0.07330691 0.7088353 -0.06968446 -0.28767708 -0.26436982 0.010718849 -0.08767715 -0.40055978 -0.37702128 0.10237394 -0.0939056 -0.17446025 -0.8262533 0.3688885 -0.5809773 0.5807128 -0.13203332 0.75236696 0.011847759 -0.2218478 0.33023825 0.3313953 -0.38494748 -0.19020215 0.15151317 0.5859913 -0.3291681 0.05351588 -0.097236276 0.15578477 -0.15182158 -0.64782786 -0.34002656 0.007150959 -0.1400612 0.3416914 -0.20821501 0.1357889 -0.35410205 0.26885575 0.5700884 0.17750542 -0.38261724 0.0008943918 0.30632368 0.42480147 0.34361407 -0.4547086 0.99252623 0.08787079 -0.25753272 0.19711237 0.5079795 -0.491346 0.027225602 -0.05550043 -0.3883833 -0.5241325 0.31597978 -0.7029278 0.37879497 -0.023918806 -0.16436042 -0.08018887 -0.13768141 0.20254661 0.19701838 0.0495492 0.057966065 -0.008952256 0.057819825 0.41720596 -0.20243639 0.081707984 0.16283345 0.111694135 0.38592684 -0.28114668 -0.23843364 0.20160487 0.059768267 -1.148437 0.26868448 0.032960992 0.4739463 0.17728736 0.28029492
4061 0.39081922 0.20669211 0.3334527 -0.2515459 -0.24122417 0.06292358 0.07631542 0.2855678 -0.1998409 0.73334235 0.6608334 0.075295754 0.54632694 0.040429424 0.3221723 -0.46270037 0.5516153 -0.31733677 -0.1515617 -0.29601857 -0.80046934 -0.46806356 -0.50719965 -1.3091288 -0.025043068 0.19724455 -0.05831366 -0.3873607 -0.013103301 0.23044202 0.17077248 0.19589587 0.17721616 0.5948888 -0.041780774 0.29760525 -0.026242824 0.057566307 -0.6503414 0.12612198 -0.002096226 -0.25612378 -0.10659593 -0.4077114 0.234668 -0.48181325 -0.4706067 -0.17261823 -0.077270694 0.7347696 0.5198636 -0.30159444 0.28628424 -0.7820153 -0.03775788 -0.651596 0.66253626 -0.2351062 -0.08379992 0.09073166 -0.95703334 0.5673111 -0.060154814 -0.13177216 -0.03826792 0.15614557 0.59160554 -0.3519602 -0.14618385 0.15288411 0.102710046 0.26874873 -0.0044063595 -0.34500685 0.5519784 0.53749543 0.10557116 0.46348912 -0.16231692 -0.10357767 0.111375764 0.6939617 -0.034742344 0.030986752 0.06426164 -0.024421886 0.1648134 0.40536457 -0.25244892 0.54854566 0.02923518 -0.021221625 0.7510778 0.5703706 -0.18896636 -0.014002175 -0.01774043 -0.40202832 -0.46094605 -0.6173145 -0.5209639 -0.05877278 -0.3488802 -0.32219738 -0.6211594 -0.20154157 0.15340278 0.4221905 -0.29196993 -0.10775022 0.6701361 0.18792738 0.32046437 0.3115772 -0.3141925 -0.32738042 -0.25527242 -0.015956668 -0.059535705 0.20335805 0.23046438 -0.27838808 -0.92957246 0.061237756 0.9393318 0.37294307 0.24591115 -0.29500052
4011 -0.19404186 0.38776943 0.29116437 -0.331577 0.5313388 -0.2387632 -0.17236944 0.44203976 -0.06283239 0.48620212 0.5216903 0.2551601 0.29745862 -0.66062564 0.108625114 0.0037787803 0.3001811 -0.27836502 0.52464974 -0.22599581 -0.64381087 -0.47799557 -0.24759121 -0.5727387 -0.4811104 0.10784331 -0.14438893 -0.21641827 -0.48349416 -0.12623225 0.3062238 -0.19656415 -0.141412 0.6010886 0.12556346 0.47134942 0.08591533 -0.3730446 -0.42478678 -0.13365689 -0.32854423 0.07407055 0.5845173 -0.301403 -0.28737062 -0.22881831 -0.026781956 -0.15614136 -0.33854756 -0.25131088 0.13555565 0.06665102 -0.22987904 -0.7414469 0.45333952 -0.5733377 0.53691334 -0.34888566 0.63627356 0.04415714 -0.07048697 0.29958305 0.34894213 -0.26541832 -0.12301908 0.08888719 0.7864196 -0.35493705 0.079601094 -0.076014005 -0.09181791 -0.069395214 -0.6975351 -0.38981414 -0.07552046 -0.12299697 0.43747404 -0.43495914 0.13568327 -0.22246414 0.34912091 0.6929362 0.23991571 -0.1783082 -0.15313022 0.355596 0.74513584 0.34805968 -0.34518662 0.94927764 0.14207211 -0.36688545 0.20138586 0.5629306 -0.52653265 0.042125903 -0.0973819 -0.54211783 -0.3963387 0.19053197 -0.84013486 0.37469786 0.17994815 -0.21360415 -0.24857807 0.08427801 0.14733075 0.041999716 0.12715885 -0.046358973 0.12734708 0.1696531 0.22781806 -0.16009477 -0.063044235 -0.019065551 0.20398228 0.2752789 -0.23846917 -0.16019595 -0.016426118 0.03933331 -1.1403127 0.31905264 0.05839073 0.5376379 0.08798006 0.14708543
14348 -0.36720127 0.25221163 -0.3741103 0.008501857 -0.28605315 0.27447236 -0.22284415 0.021058604 -0.11160797 0.34462985 0.050726466 0.44401804 0.37593004 0.17907338 0.7098066 -0.18741676 0.44881183 -0.6399513 0.06650856 0.18332179 -0.5569529 0.037532862 -0.28284195 -0.9256277 -0.6989821 -0.15055157 -0.0852879 -0.21089907 -0.6108234 -0.05388365 0.7315186 -0.19367728 -0.12580979 0.62828356 -0.4628186 0.25685424 0.53630745 0.004164574 -0.30582917 0.031951338 0.1634461 -0.48393324 0.48964995 0.1416972 0.072325766 -0.13813795 -0.3450816 0.050099988 0.50055903 -0.04085141 0.1642554 -0.3423114 0.010211181 -0.36441633 0.066315114 -0.6530711 0.4066373 -0.02221347 0.18913382 0.43628505 -0.5495536 0.3067062 -0.2996326 0.42864197 0.14525332 0.5334536 0.09375352 -0.68511987 -0.248482 -0.74408054 0.50544 -0.22143644 -0.1859011 -0.77805334 0.65500987 -0.26401293 0.020977829 0.30003014 0.19955356 0.50964385 0.47276464 0.51920867 -0.43683177 -0.057613827 0.37156275 0.07170736 0.12558667 0.60006744 -0.06881772 0.56810117 -0.13737619 -0.020028308 0.31219342 -0.020921737 -0.21131508 -0.63661927 0.027155655 -0.14864223 0.05067109 0.1422575 -0.6818573 0.4478383 -0.62042725 0.047522448 -0.72815514 0.026195737 0.4509701 0.024408827 -0.29141933 0.014432953 0.05048988 -0.04766539 0.33906603 0.2701406 -0.49289325 0.019669816 -0.42688382 0.3770992 0.41392007 -0.497753 0.44364154 0.22972102 -0.45585498 0.03285737 0.23457697 -0.10247109 0.29655653 -0.20570625
9567 -0.17544715 0.14638239 0.10593495 -0.33155257 0.45190674 0.28832743 -0.5836616 0.1250118 0.4512156 0.45781818 0.39836746 0.27265438 0.28418303 -0.26737434 0.62529004 0.18640207 0.15468676 -0.64370155 0.72584605 -0.29873604 -1.1029111 -0.11243238 -0.22359742 -1.0084145 -0.6377353 0.14583726 0.25806707 0.12021095 -0.5339082 0.047192995 0.5733583 -0.39151716 0.16401787 0.503976 -0.42793354 0.3894348 0.3234521 -0.12796065 -0.82882047 -0.34863412 -0.3320291 0.17482883 0.012718435 -0.29244795 0.23433922 -0.09153021 0.07585682 -0.27581143 0.19157413 0.5925329 0.0608145 -0.3037549 0.937233 -0.76486826 0.07795509 -0.50988144 0.92208195 -0.13571955 -0.082376175 0.12723316 -0.75740314 0.6284846 0.31126896 -0.31340757 0.30254495 0.5306278 0.59481394 -0.4783253 -0.35284996 -0.19125856 0.1865157 -0.14309165 -0.26264673 -0.1195687 -0.37055427 0.25069034 -0.075427614 0.1854894 -0.23187783 0.47771478 0.3207184 0.9335911 -0.39890996 0.49377945 -0.45348874 0.272046 0.44915864 0.28040114 -0.15341242 0.312286 0.19799924 -0.55983394 0.8300609 0.2715757 0.2415216 0.45379847 -0.24115947 -0.44715148 0.15425879 -0.79369265 -0.6349441 0.21603888 -0.48667204 -0.00017672397 -0.5776391 -0.033470675 0.15799268 0.57343936 -0.27704245 -0.0553803 0.30405325 -0.37786296 -0.22092588 0.43663388 -0.31612474 -0.45397085 -0.68538517 0.2727966 0.014544416 0.09643944 -0.17868921 -0.31723887 -1.0273794 0.46257004 0.5350072 -0.25791994 0.264642 -0.040223565
267 -0.23253334 0.33543468 -0.061372742 -0.043000698 -0.09835203 -0.010376001 0.2534197 0.18965764 -0.1185464 0.18613967 -0.114472084 0.45135817 0.38348925 0.02982392 0.81121206 -0.2297011 0.614583 -0.26444143 0.34816277 -0.16086863 -0.14023568 -0.47185686 0.105779685 -0.82240504 -0.71957856 0.034692403 0.323585 -0.15806924 -0.9205083 -0.20071407 0.26476666 -0.2511147 0.36005196 0.47580367 -0.17180875 -0.097888194 -0.16198136 -0.20858897 -0.30706674 0.009520658 -0.3002376 -0.61354226 0.37542355 -0.087123655 0.44358557 0.019930257 -0.15029314 -0.14463674 -0.07731511 0.7366027 0.23384967 0.14709598 0.30599526 -0.25760886 0.11102577 -0.89868367 0.7431475 -0.5982454 -0.22890173 0.64951706 -0.32578537 0.46888953 0.45619598 0.21836743 -0.19204743 0.31607994 0.3620034 -0.86419374 -0.2708609 0.34271663 0.40965644 0.47650436 -0.26894632 -0.16815427 0.15496168 0.08575272 -0.27711263 0.1860215 -0.036185153 -0.50657666 0.8838311 0.6356863 -0.1913632 0.24093343 0.20430784 0.37392876 0.9142462 0.63329464 0.002560969 0.53206456 0.08004392 -0.15612474 0.53433126 0.45240635 -0.75202143 -0.77983737 0.30379257 -0.28300452 -0.7401028 -0.13561381 -0.5197218 0.37992206 0.1915451 -0.19861493 -0.9282421 -0.41591296 0.2412522 0.4246987 -0.39316115 -0.11617972 0.11833183 -0.34404343 -0.34728512 0.072555594 -0.36872697 -0.23324648 -0.3358035 0.18704548 -0.49055156 -0.08766356 0.719523 -0.0012666002 -0.73331213 -0.5068637 0.31899253 0.25942552 0.13130423 -0.18095239
10264 -0.78525007 0.45831296 0.04392038 -0.10352581 0.574604 -0.07719257 0.010324413 -0.13959844 0.2467814 0.0037295385 -0.5113715 0.23276624 -0.15139355 -0.14390473 1.023195 -0.45159072 0.48368284 -0.3536917 0.33602196 0.09540813 0.7560921 0.06467958 0.20845585 0.018592732 -1.3687905 0.13802753 0.0888211 0.03463738 -1.1250656 -0.75438195 0.47355276 -0.46868733 -0.20294933 0.5095083 -0.30334926 -0.14461689 -0.056172065 -0.195309 -0.15465643 -0.3550879 -0.73238987 -0.103543855 -0.20140594 0.19461818 0.23140834 0.14296922 0.46172816 0.029322857 0.36240843 0.08973107 -0.41589957 0.06804045 0.07815841 0.22921371 0.31673932 -0.2209441 0.30581447 -0.22276938 0.027708126 0.8524272 0.28866532 0.3543458 0.6872621 0.17523736 0.21167812 0.30662894 0.18138504 -0.76462656 -0.25422686 -0.1371266 0.49532905 0.18008538 -0.13120964 -0.34906435 0.07377913 0.05551782 0.23609129 -0.2630228 0.05230953 -0.06138886 0.7818439 0.4067962 -0.5605452 0.038396224 0.34541625 0.44182542 1.0432956 0.38136205 -0.6384925 0.2577758 0.03863707 -0.32027942 0.72069937 0.16647927 -0.1938186 -0.33136207 -0.4240988 -0.01882786 -0.42038915 0.36341852 -0.7930731 -0.11954854 0.8366251 0.45141062 -1.0484324 -0.329186 -0.1814277 0.12784304 0.14942573 -0.12885855 -0.7963912 -0.049668614 -0.25973657 0.10201567 -0.5767731 0.5088955 -0.21769191 1.1627542 0.24191868 -0.032625157 0.111448035 0.19515063 -0.32257724 -0.1257422 -0.30598018 -0.33830822 0.49900812 0.15167452
4678 -0.19871 0.086619996 -0.30110955 -0.5134481 -0.12713599 -0.7150383 -0.022118062 0.29447022 -0.16670765 0.23890288 0.19736212 0.3779284 0.77157027 0.19643202 0.24164347 -0.06318636 0.32669094 -0.5368857 -0.01920643 0.08692928 -0.07020117 -0.07786416 -0.30873638 -0.3819694 -0.60824484 -0.10894925 -0.03895583 -0.36037835 -0.6115806 0.37765515 0.10115519 0.4047543 0.4097852 -0.32583135 0.14486873 0.31372878 -0.32769585 0.14493184 -0.11647244 -0.35782063 -0.09720079 -0.01689016 -0.41656324 -0.1966429 0.5823864 0.24122821 0.0049557667 -0.3770366 0.5290492 0.6521171 0.14257899 0.26334804 -0.49601904 -0.3447613 0.19050765 -1.2506456 0.8295993 -0.5035593 0.02324464 0.6881531 0.10963238 0.40844062 0.14505485 -0.7159368 -0.4375045 0.24604362 0.12925845 -0.21816306 0.028734671 0.15763304 0.8024267 0.20659883 -0.18954578 -0.16412877 0.10123616 0.13310312 0.0008145595 -0.025308812 -0.6150047 -0.29432648 0.7767823 0.35658947 -0.03679534 -0.2787343 0.41885346 0.50460416 0.1210915 0.101880595 -0.48198834 0.5923984 -0.08865154 -0.3272995 0.70805275 0.47676647 -0.264868 -0.5996346 -0.46903154 0.0022897157 -0.056312256 -0.086457334 -0.31146884 0.15535499 -0.21066259 0.42382213 -0.5129987 -0.106474884 0.06854197 0.13995543 -0.22187473 -0.033701073 -0.07979932 0.06018695 -0.018185193 0.35435018 -0.27516347 0.25866938 -0.24821928 0.97200304 -0.037698526 0.4989159 0.43260553 0.5506518 -0.68514 -0.039572436 0.44882005 0.11136024 0.10345306 -0.37307313
19384 -0.17409965 0.42409062 0.3009715 -0.1686201 0.3740306 0.25870475 -0.06993902 0.18740432 0.013923412 0.6213153 0.20621225 0.14478339 0.4333982 -0.26221487 0.6266838 -0.58357453 0.4548862 -0.5025612 0.12519379 -0.25236362 -0.7614316 -0.24450652 -0.19277355 -1.2135842 -0.7285842 0.20807299 -0.05077846 -0.2046037 -0.8093126 -0.04107071 0.43431067 -0.05787188 0.11647029 0.6333594 -0.2520415 0.28584984 0.2965483 -0.1564589 -0.5375335 0.020333376 -0.42341414 -0.35027662 0.08158287 -0.22132939 0.11088366 -0.2361172 -0.033651937 -0.103534706 0.15775837 0.63883686 0.33432558 -0.09363791 0.57728976 -0.8347439 0.20997156 -0.7586326 0.788176 -0.38379785 0.17484337 0.3540887 -0.56152856 0.5374729 0.4279407 -0.048090264 0.29844368 0.1819425 0.47047707 -0.6154211 -0.4222541 -0.1494571 0.17118593 0.04203322 -0.28911737 -0.5535083 0.32296294 0.42708766 -0.13685654 0.073631816 -0.13344094 0.13839577 0.6036025 1.0987545 -0.42168096 0.31454244 0.006628255 0.4627847 0.8247629 0.35751286 -0.13955061 0.4706835 0.29641896 -0.27863893 0.7832763 0.5732965 -0.29964107 -0.017951874 -0.092792474 -0.44103238 -0.48802036 -0.5323256 -1.0727906 0.32751957 -0.055262726 -0.21909903 -0.8556869 -0.21702255 0.11854239 0.589207 -0.07383493 -0.048211817 0.2535407 -0.21822621 -0.1403437 0.37920463 -0.32070562 -0.17109476 -0.3854194 0.6016098 -0.17860289 0.093000986 0.108336985 0.033038314 -0.9966765 0.14495824 0.4305784 0.029690448 0.23722598 -0.32887658
6625 0.36028954 0.2124389 0.35328603 -0.2721668 -0.25572753 0.057888117 0.10233099 0.33065453 -0.22042957 0.73723716 0.6653562 0.10440579 0.52984655 0.040306903 0.33883712 -0.48596936 0.55835617 -0.33634534 -0.14233583 -0.30501673 -0.8025997 -0.51790786 -0.5209619 -1.3060824 -0.042450212 0.18636297 -0.068935834 -0.35392183 -0.044331256 0.2347256 0.16631208 0.21872482 0.18839353 0.57260096 -0.02985138 0.28704068 -0.010677874 0.060208593 -0.6309664 0.1312269 0.012646966 -0.2531915 -0.07650016 -0.38716105 0.20269728 -0.49287218 -0.48903757 -0.14558916 -0.058818154 0.7683313 0.5148422 -0.3073252 0.25036296 -0.80376005 -0.010317868 -0.7081708 0.6754368 -0.2546973 -0.08548617 0.13390931 -0.9786263 0.5829702 -0.06934408 -0.122001134 -0.030354628 0.16294599 0.5794021 -0.32626775 -0.16154766 0.16693187 0.09377352 0.2500941 -0.04158726 -0.36526093 0.5362761 0.5509368 0.09675841 0.43859914 -0.20343463 -0.11879538 0.11104536 0.70888597 -0.024047023 0.018468807 0.04871895 -0.015430927 0.18364955 0.37063652 -0.28218862 0.5302333 0.053506598 -0.054549687 0.7385285 0.59795576 -0.20039578 -0.052453045 -0.018893378 -0.3900732 -0.47790307 -0.6155861 -0.5425378 -0.043298945 -0.34094784 -0.29972866 -0.6429877 -0.21403041 0.18124402 0.4517817 -0.2676543 -0.112410516 0.6667845 0.17950246 0.31253627 0.33439842 -0.29052252 -0.32583225 -0.25302076 0.047328003 -0.027391583 0.21775378 0.22894278 -0.27296346 -0.9363271 0.02227646 0.9183997 0.41353387 0.268916 -0.30141282
4453 -0.17761844 0.13453957 0.058702257 -0.34492442 0.30039805 0.028466921 -0.071043625 0.34730566 -0.06416298 -0.009133572 0.047237147 0.16872641 0.07119754 0.37787497 0.33215642 -0.35831988 0.7078621 -0.31079334 0.07171978 -0.36257634 -0.34462032 -0.4793278 -0.5325412 -0.21173698 -0.1671984 -0.029039485 0.19400929 0.62142646 -0.05789764 -0.0800036 0.63790923 0.4556979 -0.23876005 0.29664487 0.29573098 0.17878824 -0.008770063 0.060044978 -0.23328571 -0.4708362 0.2202778 -0.12593283 0.3371618 0.4583759 0.19040301 -0.29494318 0.17695981 0.37524956 0.06371148 0.099721365 0.07414518 0.050017953 -0.021650603 -0.40815118 0.06679781 -0.7688702 0.31618938 0.26949075 0.6214855 0.47068784 -0.7715504 0.29863468 -0.13473581 -0.37013507 0.13617982 0.25524133 0.62081593 -0.13375024 0.076237485 -0.05957709 0.6634719 -0.0352108 -0.25523672 -0.7273362 0.31041843 -0.017333603 0.5608835 -0.12995504 -0.21533078 -0.3416687 0.118975095 0.58095974 -0.35722423 -0.3487207 0.6939714 0.20415527 0.28580353 0.16069551 -0.71104264 0.8036657 0.15475963 -0.2597372 0.4469756 0.28506535 -0.09557188 -0.19713102 -0.01640638 -0.4753483 -1.0254006 0.08253315 -0.5501828 -0.007781119 -0.08007903 -0.083021246 -0.2507915 -0.74637955 0.014438507 0.18435767 0.39049602 0.20386718 -0.6308111 0.21400733 0.3901504 0.2564113 -0.05473474 0.676413 -0.19792423 0.9337098 -0.026640063 0.2305783 0.27788025 0.30496985 -0.8957389 -0.22105797 0.12668596 0.25360265 0.20954384 0.010843445
4801 -0.11103327 0.20955488 0.14565319 0.381453 0.24029306 0.34489372 0.12114964 -0.26177442 0.26062816 -0.2817924 -0.31961796 0.17181045 0.5588499 0.17888957 0.8113103 -0.56245327 -0.07537196 -0.65942365 -0.06298401 -0.17543112 -0.2033028 0.10840113 -0.17558862 -1.064923 -1.2386081 -0.043703385 -0.109954685 -0.6045935 -0.36857986 -0.3792825 -0.087066345 0.025464252 0.37939245 -0.18193904 -0.042303767 0.03034257 -0.15577467 0.44036347 -0.27338973 0.285674 -0.33268833 -0.36694935 -0.11270229 -0.0895326 0.6599856 0.022538789 -0.13007517 -0.109792985 0.4919904 0.73556465 0.1109038 -0.03049179 0.76170564 -0.23739873 -0.18255772 -0.30662495 0.32145208 -0.49314657 -0.05256709 0.7986272 -0.33843258 0.7372886 0.5678585 0.100830734 -0.30431405 0.26515618 0.04174923 -0.5148828 -0.57294166 0.20494902 0.42199305 0.29445142 -0.049393587 -0.3847294 0.24115251 0.4943966 -0.6332238 0.2843123 -0.33693475 0.46986598 0.43295312 0.70645857 -0.30297673 0.51293784 0.15839262 0.023418313 0.40111217 0.64783204 -0.16551967 -0.403749 0.12077314 -0.1548645 0.8205603 0.40422848 -0.12412198 -0.14250785 0.12265555 -0.050198227 -0.51558 -0.61196905 -0.68147767 0.1278734 0.14627525 -0.15837798 -1.2933819 -0.11828841 0.5828245 0.4307036 -0.65299726 0.0012784438 0.19439071 -0.23468728 -0.12966013 0.38878414 -0.635969 -0.47562608 -0.05970219 0.46287647 -0.050724432 0.5512441 -0.08956565 -0.059325486 -0.5493727 -0.58492446 0.7562487 0.039924186 0.25233215 -0.40207604
6337 0.31640297 0.79809874 0.30970728 -0.5585534 0.2553243 -0.24999228 0.2197701 -0.51320773 -0.34736386 0.48778024 0.3327945 0.36865467 0.24433587 -0.19221959 0.20968929 -0.39693597 0.07281158 -0.59184253 0.34709394 -0.5056568 -0.07144965 -0.110277146 0.22400352 -0.7844029 -0.9140699 -0.15275502 -0.25027803 -0.37459323 -0.435137 -0.2713896 0.27701727 0.016014872 0.36637357 0.8542311 -0.41824576 0.14206453 -0.1482984 0.13979086 -0.56517446 -0.037661705 -0.8369919 0.16502823 -0.24372472 -0.6744667 -0.17131181 -0.326697 -0.13135843 -0.27687743 0.21488725 0.60604095 0.19967209 0.13602494 -0.03697197 -0.42904747 0.18880151 0.01973512 -0.040637486 0.21229742 -0.36549848 -0.006528332 -0.28873733 0.6823155 0.03895783 -0.3995933 0.14764288 -0.17926913 0.36737972 -0.5488324 0.21692967 0.31702107 0.44308528 0.71293706 -0.09607415 -0.5237617 -0.2186637 0.54462045 0.24022359 -0.13909453 -0.35577154 0.37643448 0.703787 0.40072668 -0.2643663 0.1419341 0.09693799 -0.1996436 0.062441748 -0.2831768 -0.7752899 0.14804289 -0.16378078 -0.662348 0.7509222 0.3860527 -0.13295048 -0.49745142 0.0066503757 -0.2516125 -0.3303264 -0.384283 -0.3279593 -0.3551334 0.4773207 0.12732942 -1.1801317 -0.46672732 0.24811237 0.4890625 -0.24689849 0.070678905 -0.16625616 0.18998279 0.0653257 -0.21627825 -0.8675351 -0.30767596 -0.122903936 0.60134447 0.075982764 0.14700183 -0.14199886 -0.4816875 -0.5683295 -0.43185854 0.6436855 0.1797206 0.06522421 -0.06086066
6398 -0.13641419 0.25950906 0.20224342 -0.357535 0.48368594 0.3665713 -0.6117967 0.030952137 0.38625038 0.5837048 0.50235385 0.35683924 0.30461994 -0.39696956 0.6408087 0.1436748 0.08773117 -0.53661567 0.7716068 -0.34078696 -1.085071 -0.08970176 -0.20899744 -1.062399 -0.71513104 0.12604818 0.22021167 0.09004658 -0.6212483 0.0511318 0.6736335 -0.36276266 0.09877884 0.53026855 -0.5347737 0.37906492 0.4129467 -0.099012166 -0.8253936 -0.33191139 -0.3691887 0.1487512 0.047627598 -0.36538506 0.17141241 -0.1273273 0.10891158 -0.3168069 0.2113207 0.6427151 0.08081688 -0.27967006 0.98628205 -0.6583269 0.11024882 -0.33961785 0.975737 -0.12035936 -0.06906984 0.109280355 -0.7262416 0.6179748 0.34993565 -0.27639404 0.35916284 0.45294076 0.65408075 -0.58659184 -0.3389572 -0.22727697 0.09475972 -0.18693326 -0.19146551 -0.08069309 -0.414636 0.19273728 -0.06960097 0.23006795 -0.14279772 0.60889375 0.48181826 0.8521709 -0.37056366 0.5676201 -0.43412676 0.32871556 0.44987777 0.21479613 -0.13038442 0.26281184 0.1901585 -0.5131563 0.88442844 0.19430138 0.14389682 0.40324786 -0.3013229 -0.46874848 0.15623307 -0.74060065 -0.7650729 0.2553686 -0.46849248 0.033793844 -0.66904855 -0.056781698 0.19308928 0.5637358 -0.38818625 -0.015036675 0.41215217 -0.4481807 -0.14229365 0.40591496 -0.39831802 -0.4922876 -0.63265014 0.29515615 0.053086583 0.04874702 -0.19402349 -0.347916 -1.071959 0.42777035 0.5200098 -0.33851072 0.26138508 -0.14082904
891 -0.17984061 0.44948873 0.27531356 -0.26557964 0.34916514 0.014300274 0.14399661 0.29240385 0.041450754 0.5170639 0.110420346 0.19864473 0.30191135 -0.13845682 0.73144454 -0.65908515 0.48498628 -0.47766826 0.13562842 -0.27291152 -0.41282544 -0.500968 -0.13131553 -0.8437517 -0.8232995 0.16790262 -0.03220096 -0.16216049 -0.76194835 -0.19909479 0.49526075 -0.08887973 0.09993791 0.54005873 -0.24761531 0.12424898 0.02208047 -0.056603864 -0.5113445 -0.11840112 -0.5268894 -0.1545739 -0.010088273 -0.09764195 0.1669785 -0.21478851 0.07866621 -0.09857366 0.23519062 0.5393078 0.119498484 0.034809183 0.39933702 -0.5927989 0.33059356 -0.637723 0.5297449 -0.3116266 0.16877338 0.61657923 -0.4539373 0.6584135 0.29542848 -0.09560403 0.16453828 0.16650705 0.42721024 -0.64678544 -0.33643243 0.002918952 0.407474 0.1286552 -0.21078798 -0.44528937 0.2908939 0.38563892 0.17426416 -0.13186684 -0.28496832 -0.091707245 0.7552306 0.84624773 -0.43979058 0.043900594 0.19770765 0.3554769 0.6657496 0.40333083 -0.4933265 0.49636 0.19541301 -0.2560597 0.81337106 0.5156097 -0.3528536 -0.22058086 -0.16989475 -0.3728798 -0.5962454 -0.3087285 -1.0412254 0.13731542 0.29757074 -0.122971445 -0.89468545 -0.45937636 0.030008255 0.49281666 0.025090901 -0.11524592 0.03615583 -0.030140083 0.018846283 0.3359024 -0.3385207 0.088743195 -0.38997713 0.70840824 -0.16358867 0.1275559 0.16210075 0.016638124 -0.97101516 -0.10684455 0.27449268 0.12020188 0.47611445 -0.26863953
