1000 128
3499 -0.21939899 -0.061848707 0.12127316 -0.3156416 0.05113399 -0.13361216 0.23079011 0.5192507 -0.1399822 -0.036150035 -0.042145766 0.24696817 0.11096357 0.45780972 0.1428545 -0.51936984 0.5836118 -0.25499952 0.015877184 -0.36632332 -0.10105238 -0.5366226 -0.4834122 -0.4083928 -0.25818706 -0.041584164 0.11097241 0.39765498 -0.124149196 -0.057634983 0.37050086 0.54883 0.18621136 0.076232135 0.29575172 0.1486868 -0.047685202 -0.015146648 -0.3536201 -0.2678415 0.25533354 -0.058138806 0.12711462 0.29762915 0.31678241 -0.12047632 -0.17631406 0.24880998 0.3933529 0.417606 0.1136168 -0.08117693 -0.30904636 -0.30713692 0.10585586 -0.8802239 0.42802593 -0.07567057 0.3796166 0.7073059 -0.62197286 0.30247626 -0.25808895 -0.3025777 0.02026262 0.31548485 0.3999111 -0.0659637 -0.18959293 0.25456256 0.65348226 -0.114655666 -0.28684393 -0.7624258 0.47596464 0.27412042 0.30953535 0.013363251 -0.54487264 -0.48345235 0.009392218 0.47757015 -0.06676988 -0.21183628 0.5472641 0.23315732 0.3151012 0.033680174 -0.919138 0.7509473 0.1993158 -0.34631434 0.48494658 0.6333142 0.011420891 -0.26635662 0.018536001 -0.28261405 -0.9397462 0.025494557 -0.71321476 0.017473457 0.034074515 -0.089433864 -0.33642545 -0.65013254 0.2218811 0.245618 0.3116927 0.06567549 -0.49758774 0.22413956 0.24885406 0.42646632 0.27262378 0.4772173 -0.16107582 1.0286216 -0.08802669 0.2600764 0.34621698 0.36229816 -0.5461492 -0.3085935 0.22580111 0.38923475 0.24246088 -0.13210754
8351 -0.20498632 0.31298304 0.3175362 -0.2714463 0.5342145 -0.38922775 0.020677932 0.47170687 0.009700363 0.6138861 0.5849853 0.5039466 0.58338916 -0.67331713 0.105124265 -0.18206766 0.14128771 -0.26811942 0.4874071 -0.13741675 -0.5331235 -0.20638663 -0.15943618 -0.95017755 -0.62649655 0.2278867 -0.3774195 -0.052878022 -0.55005544 -0.14139257 0.11067633 -0.09286891 -0.14198247 0.6331831 0.14039853 0.10675238 0.08118772 -0.37667546 -0.29162356 -0.03768165 -0.21538907 0.10851145 0.20634377 -0.4895946 -0.052863795 -0.11998452 -0.23776492 -0.2498765 -0.112919115 0.037215047 0.11112757 0.2835486 -0.24313606 -0.6259107 0.43781012 -0.6781196 0.53013766 -0.5249236 0.5480876 0.20234497 -0.07016912 0.34097978 0.26606515 0.028587028 -0.030741133 0.009999569 0.7767297 -0.109010875 0.16778453 -0.23249106 -0.27547693 0.10713267 -0.5355818 -0.61306643 -0.019734314 -0.20481119 0.40085948 -0.40931466 0.104509704 -0.035359267 0.36228108 0.76573807 0.09757219 0.07866398 -0.08280495 0.5238445 0.98146105 0.3031214 -0.13228808 0.85703576 0.2611047 -0.41131118 0.27790144 0.50701123 -0.51912385 -0.1268149 -0.15270236 -0.6847427 -0.08775096 0.08763888 -0.92693627 0.35830027 0.40912926 -0.15279765 -0.444427 0.103017166 0.0511225 -0.15267107 0.14579718 -0.20540372 -0.03470809 0.19211222 -0.0033408946 -0.104063205 -0.22800247 -0.0482179 0.28231087 0.39828354 -0.18150786 -0.20235336 -0.18610844 -0.036125693 -1.0165621 0.17277658 0.084823884 0.45504275 0.046433605 -0.06284778
21907 -0.22899015 0.3026259 0.263644 -0.25034693 0.5422287 -0.3694456 0.029887566 0.42595863 -0.033667613 0.5560988 0.55084145 0.45394456 0.5160974 -0.61547965 0.08855158 -0.12452443 0.17780818 -0.285177 0.43385693 -0.12582679 -0.4993843 -0.24855962 -0.24219243 -0.86924595 -0.5612362 0.19676797 -0.37778035 -0.008024961 -0.5496827 -0.16055657 0.11052532 -0.12001881 -0.102370545 0.63224083 0.18371746 0.17689258 0.09391648 -0.4106814 -0.3031376 0.014453379 -0.16485351 0.10344198 0.33532152 -0.43590897 -0.1192345 -0.121920936 -0.21893305 -0.19995603 -0.059218958 -0.0473859 0.12457534 0.24453543 -0.27053648 -0.68673474 0.41236666 -0.6444016 0.55141425 -0.5003089 0.5729288 0.19683443 -0.04553189 0.2997419 0.21443409 0.020300023 -0.0077297254 -0.0027933728 0.7740738 -0.071564846 0.106410645 -0.22794542 -0.18545349 0.047475915 -0.5451058 -0.63181883 0.04664187 -0.2434231 0.39998946 -0.393472 0.13082805 -0.047226682 0.33267066 0.707173 0.09267051 0.050979506 -0.052794058 0.5010252 0.8940691 0.28816912 -0.17224944 0.87425756 0.24998416 -0.41283652 0.25588453 0.50357187 -0.45435736 -0.08098364 -0.17413105 -0.6697874 -0.16874467 0.1529724 -0.8947587 0.35505283 0.34549448 -0.17605075 -0.38911453 0.102957755 0.087759234 -0.17449886 0.18464246 -0.1878716 -0.043760844 0.22474527 0.10629481 -0.13923857 -0.17348158 -0.026636811 0.27115807 0.37055647 -0.15432113 -0.24436286 -0.15822314 -0.009437282 -1.0024353 0.21208227 0.06790964 0.4787511 0.06998031 -0.038919665
7822 -0.22440004 0.29952672 0.37119934 -0.15380603 0.42942816 -0.30231655 0.07753589 0.3898796 0.15070947 0.5782077 0.53784186 0.33734405 0.49982995 -0.6659151 0.15405734 -0.29567224 0.19740768 -0.15832631 0.32571253 -0.19544381 -0.4112091 -0.32225564 -0.11558815 -0.7538281 -0.5260605 0.2556063 -0.3459546 0.15492055 -0.6326362 -0.20543109 0.24793302 -0.15424001 -0.12463037 0.64669544 0.29915017 0.08822549 0.082622916 -0.43748403 -0.15957859 0.0799346 -0.32860547 0.18948126 0.2464149 -0.42432356 -0.11780072 -0.1058896 0.07757252 -0.113894746 0.007660128 -0.082106285 0.13593341 0.2980658 -0.11356251 -0.6306952 0.4885887 -0.5493017 0.44448075 -0.4781018 0.49210837 0.22273286 0.055619586 0.26831883 0.2550764 0.06367006 0.13509838 -0.20422547 0.8830521 -0.0734262 0.046712954 -0.3116989 -0.1540202 0.011644797 -0.4996575 -0.66941875 0.0217519 -0.24244599 0.4578057 -0.59209204 0.16572839 0.036591858 0.5112713 0.74568504 0.06596203 0.11771539 0.07740982 0.49633855 0.8385947 0.35368678 -0.1890127 0.7550509 0.35683468 -0.38233137 0.3058954 0.40544957 -0.3995091 -0.14260724 -0.16742843 -0.6600634 -0.19546978 0.027338654 -0.93747586 0.35956836 0.479625 -0.2547264 -0.43466198 0.052735943 -0.022490542 -0.2517778 0.21495248 -0.14107369 0.04192089 0.2628112 0.1676445 -0.1120467 -0.33505803 0.04453479 0.04373933 0.3707506 -0.14080644 -0.23207183 -0.23757018 -0.014512774 -0.95976156 0.15328225 -0.062301703 0.40235823 0.05264426 -0.12096174
1689 -0.30517983 0.20899543 0.091083504 -0.305456 -0.3539081 -0.3987885 0.17150514 0.3082281 0.19596435 0.7235244 0.08333563 0.34171915 0.3470392 0.07810747 0.6313612 -0.56671804 0.9514026 0.012486752 0.10734709 0.21062489 -0.009501883 -0.47943947 0.18408917 -0.5299098 -0.72749716 0.48654792 -0.26487455 -0.29333198 -0.59236085 -0.59100294 0.15675677 0.061738938 0.3178539 0.26765248 0.24666293 -0.38119376 -0.6276972 0.06382177 -0.36332384 -0.26520523 -0.4371871 -0.20927405 -0.33064649 -0.122474924 0.7136478 -0.28388977 -0.23501539 -0.31397784 0.0060270648 0.22499804 0.43876484 -0.107837826 0.16883567 -0.093176134 0.29490912 -0.86824816 0.12360247 -0.67981195 0.095597 0.6078024 -0.17931716 0.6609053 0.09469602 0.25695416 -0.636957 0.11697343 0.22348846 -0.55025685 -0.38345587 0.15908155 0.5516986 0.38643223 -0.0465718 -0.46869114 0.5057192 0.39736593 0.08534194 -0.12300086 -0.30240202 -0.77613866 1.0421602 0.6785523 -0.21896943 -0.2529993 0.61032903 -0.14370237 0.21486719 1.0949695 -0.27241373 0.39431962 -0.055256944 -0.05051426 0.629575 0.40526867 -0.33251274 -0.6578557 -0.16598848 -0.059438102 -0.13767718 -0.05132131 -0.39365837 0.021416077 0.60380507 0.18985325 -0.53313917 -0.06910449 -0.15962614 -0.058390595 -0.20191957 -0.35240194 0.06180203 0.62662053 0.23869963 -0.08868482 -0.57986027 0.4493759 -0.18036173 0.9030588 -0.18351585 0.310079 0.3204562 0.0563146 -0.7003663 -0.32457897 -0.047896046 0.032824073 0.5746867 -0.33381093
18856 0.0634482 0.16427971 0.0039711054 -0.31276628 -0.34577414 0.17561676 -0.15866078 0.12280187 -0.03676827 0.331789 -0.086700186 0.12409235 0.008209911 0.28344938 0.8082867 -0.5740842 0.8851275 -0.7617384 -0.20987016 0.058879316 -0.4780101 -0.14581424 -0.5897971 -0.7876824 -0.67302066 0.2965151 -0.3920624 -0.55707383 -0.78561133 -0.097978145 0.379572 0.0013988109 -0.22140504 0.710172 -0.44319844 0.15040487 0.2387834 0.030393727 -0.5201643 0.054212473 0.0734897 -0.48207617 0.27834234 0.14329246 -0.0037186346 -0.2873917 -0.114751875 -0.0054541123 0.09546618 0.07151753 0.06120254 -0.1305378 0.3769101 -0.46378532 -0.048818402 -0.57775384 0.45457453 -0.05328749 0.18252924 0.3280808 -0.2156555 0.0734305 -0.12223619 0.5822677 0.42906496 0.12187616 -0.028164664 -0.7236611 -0.5921529 -0.8970636 0.25032368 -0.3542882 -0.19397157 -0.7462109 0.63171303 0.22078043 -0.25259566 0.31990027 -0.24447858 -0.27901068 0.352679 0.471701 -0.27466697 -0.24725619 -0.1471149 -0.014695079 0.051032778 0.56758356 -0.024989093 0.7491923 -0.28315273 -0.099159285 0.2688959 0.18403114 -0.71846193 -0.38385904 -0.08077975 -0.23101269 -0.28370357 0.54112136 -0.45202854 0.07971947 -0.39751542 0.031121708 -0.54537445 -0.16642341 0.2597912 0.08371831 -0.13891256 -0.102193885 -0.12400862 0.29803735 0.45053947 0.04969438 -0.6048986 0.380562 -1.045448 0.27537793 0.31479782 -0.19821215 0.62448126 -0.04045512 -0.38892362 0.5105966 0.3167726 -0.05989615 0.23272942 -0.4609134
15976 -0.82847434 0.29364023 -0.08710178 0.07117 0.44981068 -0.21185486 0.04560173 -0.15702747 0.18777347 -0.15060885 -0.5797288 0.38634884 0.03380644 -0.2943225 0.75308675 -0.27146947 0.36285627 -0.4616612 0.26699892 0.17391512 0.4903625 0.049709786 0.19998005 -0.08760758 -1.2641771 0.23720585 -0.012074062 -0.10614359 -0.9693684 -0.5101891 0.5695633 -0.3533818 -0.13866708 0.39716086 -0.21604548 -0.08508071 -0.22990508 0.011376198 -0.14731836 -0.30598074 -0.6154834 -0.14805186 0.06675721 0.27763876 0.1445074 0.1573544 0.35977948 -0.03997064 0.4214536 -0.18505473 -0.4162822 0.36298043 -0.10722687 0.1254714 0.3710373 -0.52864474 0.2831496 -0.40742344 0.20757726 0.7738155 0.35772344 0.22842537 0.39478552 -0.004758708 0.111985765 0.09674543 -0.033926465 -0.85425055 -0.25932625 -0.19801332 0.4439749 0.037285052 -0.2162718 -0.44806045 0.14416517 -0.2179153 0.19625813 -0.2891881 -0.08896097 -0.16188802 0.805805 0.5492321 -0.47660694 0.15244222 0.18643509 0.5439755 0.9680863 0.4953851 -0.49802142 0.35784805 0.15135634 -0.15205428 0.5879153 0.08956711 -0.16403216 -0.5892095 -0.27929828 0.09064477 -0.3689359 0.3793367 -0.6811581 -0.053690393 0.6624004 0.3758925 -0.99608135 -0.22828881 -0.17353342 0.16987425 0.051927026 -0.05081219 -0.78227645 0.10389677 -0.09697118 0.21441431 -0.64418423 0.5113542 -0.35554138 1.1696286 -0.009668166 -0.13311951 0.383172 0.33312887 -0.26918846 0.063025616 -0.28337106 -0.31781372 0.55422825 -0.12547715
12496 -0.19290966 0.005493546 0.31392705 -0.22876495 -0.003944209 -0.2766153 0.10682082 0.7248368 -0.1950282 -0.16916397 -0.099988334 0.21097033 0.17188673 0.48388967 0.5168078 -0.7847136 0.5279406 -0.18550314 -0.3062566 -0.08021892 -0.032769274 -0.71536505 -0.31248432 -0.45053652 -0.41392046 -0.18081495 0.010754754 0.14882933 -0.021618824 -0.13499077 0.18605845 0.52482104 0.008871103 -0.092489384 0.35221463 0.194601 0.05864763 0.19062717 -0.372367 0.03600085 0.3847569 -0.12990235 0.1622945 0.3244754 0.37613246 0.13083163 -0.023187982 0.3384335 0.38701048 0.6026301 0.05149439 -0.050185777 -0.31236517 -0.17553464 0.13222094 -0.7705725 0.44213846 0.011936957 0.40966874 0.6947404 -0.5679538 0.16545431 -0.03225045 -0.22782607 -0.0065360693 0.45601693 0.67862606 -0.04771421 -0.26997724 0.13157989 0.49393043 -0.3028292 -0.28006396 -1.0002701 0.5460203 0.3619271 -0.022557128 -0.15679853 -0.3929196 -0.39299613 -0.04818525 0.41516212 -0.008636918 0.049361307 0.68020815 0.19888565 0.45675573 0.28361946 -0.7585921 0.16041964 0.16195121 -0.4230403 0.523075 0.8803407 -0.31250328 -0.09962426 -0.060563568 -0.020602865 -0.9644663 -0.098482266 -0.8281857 0.15451203 0.2800607 -0.14499857 -0.37207887 -0.6037129 0.27464464 0.26466265 0.2510587 -0.095445536 -0.40737692 0.24619949 0.08276282 0.34144244 0.24016286 0.37147728 0.14492175 0.8919075 -0.057336733 0.4931073 0.19259779 0.2556741 -0.53651696 -0.5739828 0.15380993 0.4120752 0.48256153 -0.25572747
12783 -0.198891 0.2564641 0.31577796 -0.27894032 0.4515324 -0.28263855 -0.052943543 0.48714533 0.04513323 0.65780526 0.6340348 0.41734293 0.49311942 -0.667924 0.10555855 -0.22086313 0.2452298 -0.17918989 0.39132804 -0.12111033 -0.57171696 -0.2520766 -0.18767843 -0.78862613 -0.5424744 0.22136156 -0.34317952 -0.035249207 -0.511484 -0.15053463 0.1852958 -0.103892244 -0.1658541 0.60302716 0.20557837 0.193089 0.07393629 -0.4186024 -0.23769248 0.020823076 -0.2712573 0.07581753 0.23808755 -0.46508652 -0.10607772 -0.17045267 -0.104766734 -0.16425242 -0.17794867 -0.049123038 0.12456554 0.30782348 -0.23413438 -0.6089022 0.44117427 -0.6287053 0.5104139 -0.43740487 0.58170426 0.22066842 -0.09311909 0.26124033 0.23017333 0.03669817 -0.035289645 -0.029941756 0.88600284 -0.11228884 0.115189165 -0.28699186 -0.25832087 0.013639025 -0.5124219 -0.61630607 0.012446866 -0.22305335 0.38855 -0.4642495 0.16909257 -0.10176633 0.4300435 0.71087426 0.16750611 0.033109624 -0.058439568 0.4296917 0.87516284 0.33148545 -0.10831049 0.8864823 0.31391183 -0.3347647 0.2190695 0.5141657 -0.50953853 -0.16890906 -0.18029931 -0.6606622 -0.12424807 0.07790563 -0.9211407 0.38882467 0.30371815 -0.15736932 -0.28233254 0.0975403 0.07453356 -0.22148266 0.12331913 -0.1956841 0.037302844 0.19850025 0.11344579 -0.14174916 -0.20275418 -0.020120442 0.17984565 0.28869873 -0.18068075 -0.19360727 -0.14384569 0.01326629 -0.96542627 0.16452609 0.03959477 0.5358045 0.029026536 -0.06611738
19753 -0.28460035 0.5189082 0.17253825 -0.40979317 0.32851648 -0.09941908 0.023178501 0.30920377 -0.07538289 0.5967067 0.20208284 0.34424722 0.38925785 -0.05876473 0.5552255 -0.46378475 0.77120817 -0.62092954 0.19576237 -0.1508786 -0.69500846 -0.6327639 -0.39466843 -1.084984 -0.90506786 0.14864172 -0.1599826 -0.2971923 -0.7832015 -0.032676097 0.45080185 0.05446005 0.20876142 0.6230111 -0.09208367 0.3278835 0.07196434 -0.06901826 -0.7290852 -0.13268588 -0.4034301 -0.23055784 0.2684649 -0.14177342 0.17934711 -0.34013265 -0.07524412 -0.14424376 0.114661254 0.44989756 0.42624533 -0.2217486 0.22342895 -0.9381646 0.3027934 -1.021917 0.9302723 -0.39137286 0.341058 0.5017576 -0.6276104 0.7736912 0.19863816 -0.34846705 0.011599123 0.25421438 0.5048523 -0.7173734 -0.5196677 0.10308208 0.54332256 0.011104032 -0.46700442 -0.53932285 0.3998483 0.47697335 0.14685369 0.009271529 -0.43915793 -0.295872 0.62911993 1.013678 -0.3180235 -0.24212354 0.19493385 0.4101439 0.63037765 0.5514398 -0.6895084 0.9490418 0.14500648 -0.31525692 0.80289656 0.69910306 -0.35836613 -0.4035222 -0.106826015 -0.36242145 -0.72391665 -0.281923 -0.9645527 0.21408 -0.026824005 -0.21560952 -0.8774129 -0.33942667 0.26818952 0.51664114 -0.17804758 -0.039909467 0.11046298 0.07334398 0.119493596 0.2999049 -0.25594985 0.016132016 -0.474369 0.8985422 -0.25506452 0.14356273 0.3289332 0.13454498 -1.2294985 0.041263156 0.42340645 0.3235248 0.45230204 -0.28702977
6653 -0.28180683 0.53933984 0.20031497 -0.5125884 -0.36694798 0.18113264 0.31712678 0.53329617 -0.1563394 0.7192933 0.42787984 0.023880357 0.24672587 -0.104383625 0.6161548 -0.9444434 0.48600635 -0.4259911 0.10177419 -0.20434777 -0.7091576 -0.42241374 -0.4075483 -0.47532433 -0.39465648 0.36021632 0.2288171 -0.2161043 -0.62130934 0.29891407 0.042944282 0.08007476 0.0838642 0.45158714 -0.08523086 -0.18946275 -0.025348987 0.2390766 -0.22819977 -0.23805383 -0.31479684 -0.05744283 -0.23687713 0.40203583 0.26524526 -0.15383887 -0.24920924 -0.07427281 0.15566994 0.82444006 0.039198 -0.30680865 0.89784265 -0.13223182 0.17738633 -0.44351417 0.18437614 -0.15184478 -0.008562503 0.6847917 -0.998298 0.8061042 0.06938873 0.20714022 0.09271353 -0.0353068 -0.034603864 -0.5658544 -0.36323574 0.6943427 0.16980295 0.04482737 0.33131394 0.22876166 -0.07974933 1.0470195 0.29590294 -0.18629725 -0.35211068 0.09670602 0.38619056 0.6407143 -0.16847077 -0.042956524 -0.368891 0.12796536 0.29902196 -0.06538965 -0.3000504 -0.11342088 0.38426596 -0.3170282 0.77067244 0.7311831 -0.61053425 0.23508924 -0.08711333 -0.11592985 -0.32668984 -0.8540765 -0.6971944 -0.024682954 0.60374254 0.25898847 -0.6918517 -0.50247127 0.20612884 0.64608604 -0.1206012 -0.30343986 0.32951197 -0.29649 -0.02746879 0.33817306 0.105454594 -0.3078415 -0.3564466 0.34922364 -0.2823333 0.6003282 0.20269588 -0.21260326 -0.47208855 -0.31401977 0.3748262 0.18132818 0.7221156 -0.031275924
16368 -0.10608032 0.45270365 0.24113542 -0.29947817 0.21144149 -0.045632817 0.115805216 0.24081326 -0.030960966 0.5411209 0.19605148 0.21052623 0.3847978 -0.13271941 0.58156824 -0.5933488 0.48614845 -0.49872285 0.06709836 -0.18927687 -0.4489954 -0.43159175 -0.18965386 -0.89442796 -0.7538721 0.13207686 -0.13580321 -0.3525265 -0.6839648 -0.09569706 0.4078919 -0.01193555 0.15925013 0.51608574 -0.21148123 0.16425167 -0.0077627786 -0.011265856 -0.5036518 -0.06900387 -0.4356805 -0.1885211 -0.0132785775 -0.1749728 0.1602269 -0.23873484 -0.013892412 -0.15364413 0.20385706 0.4809551 0.19575655 0.03491864 0.2611397 -0.5968082 0.27275735 -0.61403656 0.50930166 -0.30390465 0.13186416 0.4661809 -0.40212592 0.582263 0.20749949 -0.12790589 0.118673734 0.12225319 0.35025904 -0.6247942 -0.2622493 -0.02558141 0.34910285 0.115789704 -0.23058558 -0.45340303 0.33295256 0.34601653 0.15444659 -0.049904652 -0.27214167 -0.0856831 0.6861562 0.7832734 -0.3405702 -0.04516548 0.22111656 0.3105983 0.48026532 0.36539966 -0.44016317 0.5161053 0.11976067 -0.18210422 0.68067366 0.40504256 -0.3768219 -0.2527513 -0.115555935 -0.35606644 -0.47969806 -0.23313078 -0.88720673 0.18854715 0.16834146 -0.15047303 -0.843303 -0.31752065 0.07530204 0.4072172 -0.12794402 -0.05775338 0.13062935 0.01909808 0.070029385 0.28739914 -0.39966205 0.029404126 -0.40874827 0.6056775 -0.16731387 0.11063178 0.19674096 0.03042122 -0.9119402 -0.0896154 0.36144212 0.15638119 0.37560275 -0.28737727
7645 -0.34690952 0.20423815 0.20997727 0.15323469 0.6523586 0.13191855 -0.5763194 0.10050814 0.36750257 0.5243645 -0.21944262 0.34171402 -0.10164524 -0.19676234 0.09503079 -0.23538272 0.22978362 -0.030168049 0.49914002 -0.124862395 -0.1943259 -0.7038698 0.2625846 -0.14477696 -0.9048153 -0.014184667 0.31225383 -0.28617072 -0.9117597 -0.4182803 0.61906254 -0.17179278 0.32705536 0.2565207 -0.79418975 0.5083187 0.15074015 -0.051386543 0.1854055 -0.16564275 -0.4528372 -0.5170117 0.36581957 -0.2548552 0.01499367 0.33724624 0.017586669 -0.36339667 0.104909144 0.2352622 -0.06000635 -0.48324034 0.49336973 -0.03772797 0.1613555 -0.12136603 0.35857147 -0.3070268 -0.087387666 0.6614463 -0.18798986 0.7093547 0.27833962 0.1406339 -0.050269164 0.21889028 0.08580716 -0.7180637 -0.24472918 0.3670463 0.57907337 -0.22599664 -0.2679626 0.14977376 -0.30448124 0.43507326 -0.0057448247 0.44789127 -0.23527698 0.44613227 0.6902862 0.4805412 -0.1412519 -0.2605896 -0.029127087 0.3694454 0.29154676 -0.075361066 -0.40486887 0.58107716 0.18596236 -0.016627701 0.36167297 0.10816103 -0.18908241 -0.41157177 -0.1953034 -0.33486345 -0.16008008 0.09983838 -0.8663308 0.5223055 0.1558001 -0.09292351 -0.9437031 -0.46417087 -0.050528646 0.568396 -0.29840997 0.032053962 0.14359514 -0.25763318 0.48839462 0.18495096 -0.15725672 -0.4422718 -0.3330125 0.91320485 0.23857239 0.09692282 -0.012900707 -0.2186791 -0.65383273 -0.4973984 0.027954489 -0.05551298 0.58833826 0.14016849
685 -0.4651941 0.61755306 -0.15701415 -0.10319784 0.3101181 -0.14723602 0.18093129 0.15315062 0.19656573 0.6643756 0.08539228 0.3030524 0.63213056 -0.890479 0.6171479 -0.08666906 0.15213647 -0.7414861 0.22903442 -0.04160894 -0.25682452 0.08323797 0.20126034 -1.026232 -1.119597 0.3400421 0.0713051 -0.69858 -0.9750846 -0.3092442 0.38800043 -0.6612853 -0.10535842 0.5626767 -0.5204548 -0.029838685 -0.18628326 0.08579342 -0.34638044 -0.21469559 -0.69683784 0.07356475 -0.09151453 -0.19905144 0.19584785 -0.03767946 -0.11875416 -0.57956564 0.28597894 0.10157456 -0.02140168 0.17990032 0.32342467 -0.18051037 0.38142547 -0.27660152 0.15342993 -0.7314819 -0.15416275 0.45053554 0.10165955 0.7223203 0.44183677 0.25214127 -0.020603254 -0.14016737 0.14096874 -0.91450787 -0.24678029 -0.27687746 0.122903 0.4091374 -0.02453744 -0.04911023 -0.0636797 -0.009956783 0.0032426063 -0.23248525 0.050167955 0.29438928 1.3427131 0.82741076 -0.49773225 0.19508938 -0.10538543 0.43567517 0.6985956 0.70957094 0.23587999 0.2724245 -0.0069654793 -0.062764995 0.8213499 -0.26821357 -0.5710863 -0.23995553 -0.30189818 -0.32946515 0.46789256 -0.412004 -0.5644529 0.013652469 0.6782459 0.352852 -0.960368 0.06761346 -0.21015552 -0.0014113788 -0.35140297 -0.2635613 0.29447657 -0.039133936 0.053718593 0.030803796 -0.8710411 -0.049197756 -0.489745 0.28989094 -0.021954264 -0.1849312 -0.062073223 0.016677633 -0.42602733 0.15415432 0.23794267 -0.34631252 0.6901959 -0.2872842
1668 -0.35552606 0.20565693 0.207111 0.14895687 0.593396 0.1283735 -0.5392082 0.11010096 0.3702397 0.48289916 -0.19728546 0.34590983 -0.09315853 -0.16939056 0.1374612 -0.244445 0.22550435 -0.05237502 0.47060385 -0.15146151 -0.20232494 -0.66572577 0.23465131 -0.14418852 -0.85872656 -0.010638679 0.32497677 -0.22358301 -0.89514256 -0.41938466 0.63143003 -0.17384581 0.30341113 0.24950194 -0.7807077 0.50626415 0.15587115 -0.04195311 0.17543831 -0.2030255 -0.41968578 -0.52808714 0.36298847 -0.19981636 0.03133398 0.30444878 0.044560984 -0.33615443 0.09106921 0.24279153 -0.052224435 -0.43744728 0.45146006 -0.071648814 0.17027046 -0.14866607 0.39053428 -0.2922605 -0.07836196 0.64413106 -0.2443129 0.6657593 0.27105144 0.11680001 -0.071719915 0.24697857 0.11211008 -0.70238674 -0.24498112 0.35207525 0.5808364 -0.1991179 -0.2584851 0.11526954 -0.2527605 0.4200963 0.031056656 0.43577257 -0.18712035 0.39180943 0.68981946 0.50802034 -0.13853462 -0.2779972 -0.012742007 0.37529236 0.27435386 -0.07619191 -0.4163102 0.57572085 0.18188958 -0.011311377 0.4035253 0.09332574 -0.16733278 -0.4064065 -0.19586653 -0.33762288 -0.20470552 0.096129715 -0.8751432 0.50277466 0.1772507 -0.0761206 -0.9135651 -0.48851177 -0.0632149 0.56305826 -0.29789513 0.034883562 0.11839724 -0.23749296 0.4474071 0.20287377 -0.13489705 -0.40620366 -0.30177283 0.89022297 0.22380172 0.068704955 0.025813444 -0.1797559 -0.6711694 -0.48488125 0.027138706 -0.054291416 0.5553755 0.12656556
3252 0.03671804 0.25504187 -0.11000253 -0.4853547 -0.007662746 -0.51006424 -0.36178982 -0.108349085 -0.19990642 0.69169515 0.5093157 0.44843522 0.69659144 0.25833556 0.42528558 -0.23334298 0.09894629 -0.38811907 0.15010397 -0.22050963 -0.17284755 0.0958266 0.07266175 -0.342008 -0.40373164 0.14507617 -0.0013927685 -0.42050615 -1.0571966 0.25591058 0.13101873 0.20760344 0.3613344 -0.085759975 -0.0715311 0.47049335 0.0811347 -0.31624544 -0.040615704 -0.2823995 -0.57059294 -0.5154513 -0.6476973 -0.6152101 0.48313957 0.2911511 0.069550805 -0.29527354 0.13499434 0.9666618 0.038082443 0.42342556 -0.069927394 -0.53285176 0.10513889 -1.1262442 0.80513567 0.12298893 0.117253676 0.42953023 0.0069682496 0.110267304 0.32588083 -0.7740959 -0.43675986 0.08306837 0.5977744 -0.29367393 0.07625295 0.03925578 0.6430669 0.18584691 -0.28970456 -0.16564725 -0.16476478 -0.085918605 -0.16749449 -0.15490453 -0.37033296 -0.2919384 0.69822836 0.4347845 -0.011892192 0.13230307 -0.16338296 0.4000839 0.48165134 -0.11376595 -0.17212158 0.4510833 0.09464949 -0.19716021 0.6500372 0.6481561 -0.45700324 -0.6970439 -0.41314992 0.08534913 -0.21848634 0.23054111 -0.38189837 0.34717053 -0.17423095 0.6051168 -0.50120133 -0.28621662 -0.083851926 0.6096457 -0.21028103 -0.107681304 -0.0069836094 -0.10671067 -0.39737767 0.020177422 -0.5364535 0.17191544 -0.49234384 0.67755544 -0.16186778 0.61910105 0.49682525 0.36498737 -0.92712986 -0.15997028 0.4487292 0.12590817 -0.16867869 -0.30441046
18573 -0.040966548 0.17673963 0.48684558 -0.2297925 0.29060498 0.25986022 0.18095216 0.4034803 0.1367669 0.42751312 0.13390735 0.039460473 0.103819005 0.031223182 0.947567 -1.0129985 0.2352979 -0.17294574 -0.06093776 -0.5760037 -0.07892677 -0.27503714 0.023881512 -0.39083382 -0.3859322 0.116679594 0.28773558 0.5845003 -0.4939663 -0.4011169 0.8368533 0.11393337 -0.3072403 0.42613322 -0.41613182 -0.07539855 0.0059677754 0.024523962 -0.1015664 -0.4393386 -0.26322204 -0.13059947 -0.38752615 0.1497319 0.21426657 -0.074238054 0.38885373 0.24631765 0.4156652 0.5523398 -0.44124773 0.4923212 0.6142564 0.07436108 0.20837086 -0.15575169 -0.30608988 0.24144737 0.12650919 0.8395095 -0.61756134 0.22336267 0.11079619 0.2708882 0.5354283 0.17310545 0.6124918 -0.44639492 0.18177412 -0.42194027 0.30786383 0.11519094 0.11892531 -0.7586983 0.36420965 0.12776786 0.51959693 -0.2113124 0.029260244 0.1562139 0.7374724 0.6098531 -0.6555287 0.35434562 0.618152 0.14011604 0.50949514 0.0024604076 -0.30108336 -0.07393219 0.32485396 -0.053042244 0.69440216 -0.05873198 -0.24142988 0.056823816 -0.20651788 -0.6480552 -0.53409183 -0.06366113 -1.2076011 0.064031005 0.6680582 -0.0016319624 -0.73179805 -0.92403954 -0.3393974 0.40141344 0.4873939 -0.019300872 -0.5175209 0.024417965 0.29157913 0.4877066 -0.48567456 0.6847315 -0.45559496 0.61684763 0.12625349 0.18755224 0.06841688 -0.010262273 -0.6156932 -0.46457693 0.03341728 -0.22596334 0.41602945 -0.2493672
407 -0.25125974 0.26225093 -0.17840628 -0.10953091 -0.51348543 -0.0013669381 -0.10928499 0.16239196 -0.15079762 0.47250006 0.066010535 0.31222945 0.2122698 0.3009054 0.76777214 -0.39940944 0.71537673 -0.68187183 -0.16892049 0.15117212 -0.49328688 0.037569344 -0.45694026 -0.770589 -0.5189068 0.13018379 -0.23741998 -0.27507296 -0.61998594 -0.102030784 0.4278058 -0.08816287 -0.2469527 0.638906 -0.4421127 0.19295825 0.3924911 -0.031760797 -0.34675682 0.08132705 0.055823233 -0.47826207 0.49000925 0.090369985 0.024723215 -0.18035506 -0.32612506 0.037301812 0.20338522 0.06333373 0.13963695 -0.11044285 0.033667345 -0.49130464 -0.026010433 -0.62923104 0.3802433 -0.131016 0.30256388 0.4109445 -0.27562964 0.1932188 -0.36644065 0.41933757 0.19765946 0.23482876 0.0015266337 -0.7458265 -0.37917188 -0.7515214 0.35270116 -0.2916813 -0.28972772 -0.7293576 0.84609455 -0.11855371 -0.17637971 0.35520208 0.0440554 -0.014310289 0.3241786 0.42510504 -0.29958957 -0.29845756 0.1256761 0.019746644 0.19034454 0.67262065 0.016163018 0.838276 -0.23608515 -0.019783767 0.22985353 0.18783732 -0.6150525 -0.640614 0.0007506254 -0.27447996 -0.21231851 0.55143285 -0.54443544 0.22076617 -0.53243744 0.10926649 -0.64692694 -0.01990242 0.35938135 -0.03548124 -0.25622404 -0.060698275 0.05154659 0.1321913 0.47729906 0.093848914 -0.46481353 0.23334956 -0.79494876 0.28109854 0.21743065 -0.39075434 0.6703932 0.24039645 -0.5162304 0.35470748 0.2870238 -0.052731518 0.2612334 -0.52421916
12288 -0.038758315 0.2309618 0.55207825 -0.22369532 0.3083961 0.28862888 0.19495465 0.3834457 0.13811389 0.5226524 0.1324794 0.07655554 0.13998716 -0.10403128 1.1247604 -1.1364621 0.11011521 -0.29630032 -0.07177425 -0.587613 -0.06892334 -0.19451982 0.10324857 -0.47071633 -0.5864956 0.16149366 0.2495201 0.31505015 -0.7559366 -0.44745907 0.8598252 -0.038176883 -0.26116225 0.41375202 -0.61594796 -0.15011375 0.07100835 -0.042123687 -0.06446583 -0.3770058 -0.37711373 -0.14250273 -0.48878878 0.0506081 0.16051236 0.023102649 0.39726987 0.20000432 0.5580606 0.69575244 -0.52972883 0.5446371 0.6319 0.14655091 0.29604903 -0.057523303 -0.35316262 0.15789348 0.09294174 1.0214366 -0.48321685 0.20463477 0.25725514 0.3490809 0.5740507 0.18291232 0.6092391 -0.47938973 0.1595302 -0.48230124 0.24941032 0.11401047 0.11856563 -0.7497599 0.32061478 0.09276663 0.36273584 -0.30572483 0.06311891 0.33242005 0.8259454 0.6578779 -0.692741 0.52578956 0.458672 0.21013658 0.63271123 -0.006274101 -0.23149315 -0.2169367 0.38588485 -0.12188316 0.82990456 -0.05199462 -0.27896494 0.08633045 -0.25109446 -0.5990256 -0.49709332 -0.015146955 -1.4130777 0.09747879 0.7989778 0.05283191 -0.85809755 -0.9543462 -0.3544245 0.48275205 0.47085166 -0.09086145 -0.43155557 -0.059962433 0.19128504 0.5569717 -0.5759937 0.5945929 -0.47296742 0.6218946 0.15972276 0.1920825 0.018842852 -0.05424726 -0.59241885 -0.5101282 0.002077722 -0.30549857 0.4850945 -0.31970707
6279 -0.30587327 0.2986183 0.24602854 0.058430385 0.34765807 -0.29612443 0.2267226 0.2691672 -0.05952597 -0.26104766 -0.11671944 0.19626889 0.07184028 -0.09406074 0.60186064 -0.47868636 0.6241244 -0.5681334 0.19997506 0.076248854 -0.42097047 -0.14089964 0.19274025 -0.3893968 -0.23944399 0.35013014 -0.023225728 0.015397479 -0.3714681 -0.0016902606 0.3245291 -0.12439169 -0.018807787 0.10787284 -0.47616306 -0.055461068 -0.28388062 0.44006282 -0.5789292 -0.103875734 0.27062783 -0.033695612 0.559993 -0.17977333 0.16010872 -0.11205514 -0.38445684 0.23351884 0.21008965 0.60528255 0.039001912 0.13042876 0.2506073 -0.19927195 0.0876659 -0.2766986 0.46804646 -0.028399747 0.025172278 0.22848807 -0.41683188 0.75066805 0.17953688 -0.29435524 0.13733391 0.0709736 0.28269517 -0.48098058 0.031851374 0.42998132 0.05327732 0.036654342 -0.15767191 -0.49164796 -0.067221925 0.458972 0.3680166 0.3066357 -0.37663525 0.06151855 0.35007232 0.5508926 -0.46133566 0.3275971 -0.08565926 0.78246087 0.61490756 -0.0472598 -0.5823902 0.2965954 -0.06399439 -0.458399 0.48412877 -0.020283578 -0.5475294 -0.5336158 0.103735 -0.35176978 -0.47456294 -0.34128228 -0.59096 -0.1893688 0.39310715 -0.34890723 -0.7382097 -0.31934506 -0.120062426 0.2425084 -0.16304311 -0.376308 0.084972516 -0.10351804 -0.28382105 -0.08127876 -0.59661937 -0.49352401 -0.23283602 0.087223105 -0.0091556255 -0.23812997 0.1981078 -0.08168466 -0.4364237 -0.04554802 0.17878108 0.11988464 -0.1269099 0.0016229226
1182 -0.20883828 0.40069473 0.36879292 -0.23744436 0.3882419 0.045740962 0.18541908 0.25864148 0.004828293 0.48684075 0.107310794 0.17903382 0.27111262 -0.21308798 0.6818609 -0.67387366 0.41538653 -0.41785753 0.193936 -0.3271433 -0.38707414 -0.4407936 -0.15148665 -0.7823518 -0.842077 0.17175588 -0.0043468215 -0.13636103 -0.7106477 -0.23515344 0.5358083 -0.02710413 0.095795624 0.45019695 -0.17581412 0.12548998 -0.06742065 -0.01605164 -0.4615525 -0.1412719 -0.4859244 -0.1702736 -0.034478422 -0.103058904 0.18844125 -0.18249224 0.13156888 -0.0776669 0.20894954 0.5079268 0.048674203 0.11145105 0.4182143 -0.48912668 0.29727057 -0.5956242 0.37660906 -0.2742734 0.19247794 0.6326782 -0.45529693 0.65894663 0.31264964 -0.09103168 0.12675649 0.092838235 0.44564876 -0.59392923 -0.2795965 0.05637833 0.3828174 0.14922944 -0.2367508 -0.45259815 0.2974723 0.43138915 0.14738573 -0.14650601 -0.24750645 -0.059962623 0.7031631 0.8325001 -0.4040285 0.120559484 0.18241924 0.32652658 0.6958906 0.32398355 -0.43747064 0.4257111 0.26920435 -0.20812581 0.81180114 0.48000878 -0.36015928 -0.18496701 -0.16260584 -0.4386115 -0.5587415 -0.27274305 -1.0377551 0.11358645 0.41028002 -0.094218634 -0.9524366 -0.4698469 0.0325186 0.52883464 0.047913685 -0.051712573 -0.029846132 -0.051502965 0.06792541 0.3326696 -0.36005446 0.13112769 -0.34106377 0.7289385 -0.17737873 0.2549745 0.13157378 0.04155965 -0.9231942 -0.21369597 0.235081 0.11503627 0.4879503 -0.2506338
2414 -0.15340538 0.5857941 0.35112807 -0.17676169 0.82272804 0.083798975 0.21285485 -0.5301011 -0.21965069 0.14688857 -0.01435556 0.23569207 0.14513834 -0.5109323 0.3051747 -0.3729931 -0.11790979 -0.80963385 0.36100355 -0.48304182 -0.0011487354 0.15209113 0.11036758 -0.9029082 -0.96572185 -0.32365894 -0.18161291 -0.36320052 -0.9028864 0.0056223446 0.50373214 -0.14183459 -0.14287157 0.8723823 -0.7756521 0.2628953 0.5101634 -0.08679509 -0.55636525 0.04153447 -0.7497833 0.020591695 0.18826959 -0.26746234 -0.5105624 -0.21364415 0.24574687 -0.08459976 0.39760768 0.54407364 -0.0517198 0.22315751 0.38662276 -0.6521766 0.1406359 0.1175933 0.20238797 0.16274029 -0.10171359 0.15163991 0.11146104 0.6512478 0.258526 -0.40014276 0.83639574 -0.118307844 0.16576478 -0.62766534 0.097483784 -0.102523126 0.12343818 0.15589736 -0.33741203 -0.49580002 -0.19406043 0.11701871 0.13435207 -0.18672882 -0.12773931 0.99443513 0.34893665 0.5210139 -0.6338116 0.47692 -0.06779035 0.41898882 0.68110746 -0.51386166 -0.60642487 0.041425828 0.07915205 -0.3784785 0.46943223 0.009965464 -0.2236089 -0.10154744 0.072769836 -0.43702567 -0.44581604 -0.32495242 -0.7484126 0.01380822 0.18804723 -0.17190772 -1.2418237 -0.3438537 0.17293076 0.61237925 -0.0815494 0.37173578 -0.1414272 -0.46765512 -0.2706647 0.20862423 -0.5750719 -0.4598274 -0.56025326 0.43486062 -0.046555575 -0.022692729 -0.2650386 -0.09921117 -0.5165673 -0.16092218 0.51459706 -0.030992793 -0.07049699 -0.062028304
1078 0.2698348 0.21672495 -0.013804079 -0.35911047 -0.17972164 0.13432963 -0.122631595 0.14364432 -0.045924596 0.2649323 -0.002673447 0.19364503 0.19392739 0.3022052 0.6908168 -0.49312177 0.9820602 -0.7315205 -0.13247596 0.035633825 -0.47448462 -0.27942565 -0.59440184 -0.85657376 -0.7175408 0.5390404 -0.5460037 -0.7382282 -0.7604978 -0.008783888 0.39305413 0.13321327 -0.026901959 0.7712103 -0.35913053 0.14375706 0.19750908 -0.023902966 -0.52710474 0.12928753 0.01842753 -0.43403956 0.26044777 0.1453362 0.15590955 -0.49284747 -0.070652544 0.03902506 0.026355183 -0.0021403853 0.20231418 -0.15199862 0.4034681 -0.54351795 0.07495388 -0.8022498 0.6025065 -0.13037872 0.22745892 0.1958829 -0.16857594 0.0824572 -0.07722971 0.581466 0.47527155 -0.0957376 -0.020278618 -0.5645503 -0.7359722 -0.79776824 0.2377913 -0.25162575 -0.3934581 -0.65597725 0.37290317 0.31865457 -0.18808156 0.1416556 -0.26330775 -0.4932029 0.31401402 0.39140192 -0.15378606 -0.08888706 -0.3797515 -0.06149237 0.15485917 0.53386414 0.085683234 0.91217947 -0.30728176 -0.117626354 0.16273537 0.3139335 -0.75142103 -0.30781797 -0.15660259 -0.15604858 -0.29697207 0.47547692 -0.28477147 0.06725611 -0.36671886 -0.01238593 -0.57710457 -0.1289114 0.21954483 0.17819078 0.086478055 0.015790373 -0.1183941 0.4461688 0.2995091 0.103156805 -0.5313773 0.40799907 -0.9947565 0.42736453 0.35956413 -0.12623642 0.4652469 -0.18602185 -0.5253608 0.5999964 0.23225224 -0.06773414 0.29337505 -0.46855617
16001 -0.13122506 0.34221417 0.12988158 -0.20319118 0.43619922 -0.37469327 0.12755677 0.3540257 -0.20514362 0.507985 0.5491406 0.39134607 0.7574205 -0.49976668 0.064901136 -0.047899242 -0.021394722 -0.385245 0.40804985 -0.107515864 -0.44461185 -0.23904206 -0.13881019 -0.9645768 -0.59768784 0.17232566 -0.34703815 0.02057545 -0.6809085 -0.16473123 0.021242667 -0.11875189 -0.01853266 0.61096543 0.19417194 0.10753095 0.08244676 -0.41846412 -0.23041324 -0.054733247 -0.11297027 0.23450348 0.27205047 -0.4969676 -0.06956971 -0.038307264 -0.3416998 -0.14811657 0.18308994 0.20934506 0.065507926 0.21698463 -0.23332964 -0.6180873 0.3407525 -0.62193227 0.43334144 -0.55587006 0.32826167 0.21534662 -0.09101006 0.25484923 0.2399267 0.043482397 0.0055549988 0.13857736 0.56961364 -0.094425134 0.17928474 -0.17555472 -0.17225042 0.15824792 -0.4385255 -0.71434414 0.076233014 -0.23499964 0.53355676 -0.31398183 0.06535334 0.092077285 0.24869892 0.6964222 0.06277739 0.13000701 -0.1252576 0.4992784 0.9364684 0.28953955 -0.14588195 0.58686125 0.21820515 -0.37764397 0.32882679 0.33964285 -0.45921746 0.06044521 -0.109202966 -0.71789265 -0.06757634 0.06156146 -0.969922 0.31805733 0.378711 -0.16093284 -0.66264796 0.085918084 -0.056947134 -0.070163704 0.30210698 -0.20287085 -0.024210196 0.28183407 0.035014372 -0.019038003 -0.29159546 -0.12783606 0.51834863 0.2563861 -0.10680545 -0.28784934 -0.20881242 -0.13647693 -0.88760203 0.1847003 0.10462898 0.42308244 0.1397514 -0.10699313
7833 0.10901915 0.24892607 0.5232457 -0.2102709 0.18276618 0.29051816 0.14620817 0.39338356 0.13259982 0.5900599 0.253777 0.119565286 0.09517953 -0.11063376 1.169403 -1.0986823 0.07029497 -0.37003073 -0.06705237 -0.6267242 -0.10961747 -0.19262333 0.16136855 -0.4243472 -0.5657052 0.2912063 0.23455872 0.0904943 -0.86434424 -0.34089482 0.8295826 -0.16027376 -0.15920764 0.30678672 -0.68448895 -0.37924153 0.12886177 -0.1584046 0.06696885 -0.32477328 -0.29884663 -0.14539711 -0.45186338 0.0033214132 0.14520794 0.01698267 0.27131036 0.16880567 0.55731964 0.75299245 -0.47340778 0.4425442 0.51647115 0.15977529 0.30710077 -0.03551912 -0.40069604 0.14780977 0.14959656 1.1432816 -0.48404017 0.15809976 0.20121506 0.40621552 0.46773514 0.08937649 0.63435155 -0.34477895 0.1562799 -0.45028308 0.22978514 0.14995481 0.12987676 -0.66020596 0.29725963 -0.07346598 0.24908216 -0.34003058 0.04453486 0.40999514 0.8092852 0.69997543 -0.64183354 0.48425162 0.24751101 0.121487 0.6994861 0.07312911 -0.089377135 -0.1578055 0.40990925 -0.22036195 0.8960539 -0.15899049 -0.19354905 -0.0060141305 -0.21785156 -0.5573054 -0.58527267 0.057871465 -1.3185904 0.07664436 0.8147146 0.067035265 -0.76736736 -1.0149416 -0.42160535 0.46095964 0.4468954 -0.17166156 -0.2609651 -0.050424032 0.11475403 0.51864904 -0.6109584 0.5302857 -0.39956054 0.6070809 0.28102943 0.22754525 0.059363432 -0.07993772 -0.5890974 -0.5718122 0.0045347745 -0.38036436 0.50527453 -0.427834
7919 -0.07515463 0.19999212 0.12061927 -0.33946374 0.5490412 0.27486926 -0.6561104 0.09740948 0.484322 0.48428804 0.41391814 0.2605936 0.28423214 -0.3364631 0.68077594 0.20671496 0.14710021 -0.64323634 0.6876225 -0.33606017 -1.1613926 -0.15167023 -0.25554302 -1.0425436 -0.75444853 0.25424206 0.18908648 -0.096329175 -0.5914309 -0.051442888 0.47743055 -0.47766766 0.221568 0.52730626 -0.486493 0.4795512 0.20476417 -0.14137354 -0.7026504 -0.32527718 -0.40177843 0.13007611 -0.017690105 -0.35363942 0.22101197 -0.078497 0.11805285 -0.27560264 0.07691462 0.57525086 0.073858656 -0.31718454 1.0050108 -0.7996751 0.12285346 -0.41584632 0.96281993 -0.14512494 -0.10009143 0.012788403 -0.7361697 0.5940619 0.48948324 -0.2646255 0.29033685 0.5084177 0.5909423 -0.36243096 -0.33994916 -0.23581074 0.12659544 -0.09877028 -0.26963103 -0.1241083 -0.43720087 0.28422976 -0.102129966 0.1656673 -0.22073309 0.4522833 0.38473576 0.9659286 -0.2973381 0.44143456 -0.55226016 0.26481488 0.45189998 0.32653543 -0.10837613 0.3526722 0.11650456 -0.5797842 0.72459793 0.25443107 0.20921524 0.5210554 -0.30427322 -0.554312 0.12989326 -0.76306343 -0.6575333 0.2065761 -0.443426 -0.042914428 -0.5361574 0.009890594 0.1978657 0.5818559 -0.31812254 -0.13666195 0.36065406 -0.38245872 -0.19803938 0.3861897 -0.35285258 -0.52491885 -0.47685844 0.2029804 0.14079376 0.08536638 -0.2675247 -0.35927528 -1.0613549 0.56100464 0.49657083 -0.3231784 0.28844047 0.01064056
9138 -0.5337175 0.8464946 0.14269163 -0.15723592 0.4846691 -0.051353853 0.082786724 -0.07318514 -0.1549434 0.44893786 -0.087326825 0.032073893 -0.12606001 -0.16923328 0.34033266 -0.3546189 0.83731323 -0.29596633 0.29915008 0.21442343 -0.17658867 -0.62845355 -0.20659655 -0.14311528 -1.056084 -0.5435279 -0.28353077 0.1768376 -1.4631217 -0.12232718 0.18992132 -0.15049829 -0.1350732 0.48061728 -0.039437372 0.09392928 0.5880716 0.035127155 -0.059501484 -0.0032353858 -0.4574912 -0.19364326 0.40987524 0.2444134 -0.31343237 -0.021591745 0.59311557 0.13577901 0.17702265 0.17963283 0.1159158 -0.07213692 0.5985204 -0.6617492 0.63789505 -0.6953721 0.5547315 -0.22813912 0.5169385 0.27312204 0.75013983 0.70449066 0.3541861 -0.07345509 0.59794945 -0.09720518 -0.056722596 -0.45165414 -0.118100606 -0.20999925 0.69171566 -0.18385802 -0.20068812 -0.33262366 -0.29515845 0.32848054 0.14727336 -0.6728939 0.07971134 0.5793968 0.68181443 0.3155798 -0.82819796 -0.19132641 0.37700382 0.48459807 0.66847235 0.12790762 -0.5123916 -0.08123944 -0.012777049 -0.30509537 0.32055503 0.37135887 -0.8694979 -0.12397683 -0.13584362 -0.17217948 -0.24461293 0.09691183 -0.7426746 0.4976229 0.2615739 0.06810714 -0.48499498 -0.047507722 0.008512851 0.028789379 0.5376015 0.14229438 -0.22857735 -0.19031453 -0.19037361 -0.041797493 -0.0032884004 -0.092046194 -0.37371218 1.2640172 -0.015730858 0.24507879 -0.28521535 0.08764569 -0.6717532 -0.66989064 -0.26980433 -0.049362432 0.39922622 0.162528
17047 -0.61715263 0.4497511 -0.02104671 -0.12867865 0.45823157 -0.16719684 0.1272251 -0.13250794 0.1277798 -0.06601174 -0.6390726 0.3713895 0.039676946 -0.2542088 0.8654512 -0.4958343 0.4615272 -0.4061432 0.31819266 0.15091074 0.6822916 0.08221412 0.12901877 0.05656677 -1.3017323 0.23844662 -0.07643955 0.040175863 -0.9476905 -0.6373065 0.60854495 -0.21708187 -0.17361757 0.4479847 -0.19549382 -0.17282125 -0.2127532 -0.015598568 -0.11372851 -0.25363293 -0.7500908 -0.1507059 -0.2190038 0.27403864 0.28149498 0.05754092 0.4746894 -0.026975762 0.33992904 -0.05193557 -0.41450754 0.24570918 -0.13023762 0.13008337 0.40806407 -0.27464053 0.19666368 -0.25318432 0.13158508 0.7787782 0.30540657 0.32176054 0.5713661 0.11987197 0.17376025 0.23891738 0.05205683 -0.80017585 -0.0936552 -0.3154136 0.61719626 0.21267621 -0.14181395 -0.40344805 0.122643255 -0.060191683 0.33781946 -0.32614052 0.054863043 -0.28338987 0.8781184 0.38850474 -0.6118559 -0.07361987 0.31587014 0.51295054 0.8071773 0.37212992 -0.5158133 0.3705855 0.12049848 -0.17403655 0.6983577 0.11161255 -0.2007537 -0.5036124 -0.39842144 -0.05510384 -0.23966402 0.25857797 -0.75252104 -0.05605913 0.7526836 0.34728464 -1.1642584 -0.2398151 -0.22641046 0.10350923 0.0073667867 0.07999743 -0.7625479 0.077028915 -0.18709259 0.15112816 -0.6520302 0.5474107 -0.28510705 1.2187899 0.01660941 -0.04777949 0.2869288 0.22615683 -0.44020003 -0.011388855 -0.33305854 -0.22420375 0.3680875 -0.04962265
13272 0.09810135 0.0077967285 0.341143 -0.16717088 0.3633154 0.3729482 0.21937439 0.2295142 0.087515965 0.51377475 0.24815366 0.110426284 0.08056466 0.16660386 0.518594 -0.88680756 0.6026264 0.16447802 -0.080495484 -0.41145965 -0.0677687 -0.2491407 0.07936665 -0.45235446 -0.24404418 0.38727388 0.112880446 0.41419685 -0.2363107 -0.42491376 0.88975245 0.28730607 -0.38475642 0.75904626 -0.27328622 -0.013120215 -0.14670493 -0.35467476 -0.40703902 -0.21693131 -0.6906181 -0.18676269 -0.142714 -0.3251615 0.12567241 -0.3044446 0.33348444 -0.03711748 0.19603546 0.16834067 -0.054805428 0.5279162 0.52044964 -0.051692102 0.04301853 -0.13740702 -0.3283396 0.38162002 0.2267934 0.24955116 -0.6528876 0.1350492 0.047684416 0.34937558 0.4795866 0.22163084 0.6747585 -0.34417292 -0.069473945 -0.42351702 0.1924161 0.08662131 -0.16535184 -0.5317942 0.6605173 -0.07811406 0.5734433 -0.15265357 -0.19286697 -0.12953204 0.8304949 0.5678714 -0.62304235 0.044836476 0.9719302 -0.02600849 0.6073673 0.25339127 -0.49795955 0.7919491 0.43084198 0.19144987 0.4923887 -0.14140615 -0.13418017 -0.031032687 -0.117708266 -0.6923358 -0.60051996 -0.13467328 -1.1463846 -0.09650038 0.43303195 -0.41532776 -0.3315245 -0.955422 -0.5399534 0.24520698 0.29788822 -0.03000112 -0.1691282 0.31881368 0.7710865 0.5247236 -0.30137667 0.73128694 -0.2237559 0.1928392 -0.14242621 -0.027150707 0.40089163 0.096417226 -0.65437996 -0.33480218 -0.06758592 -0.34482732 0.38694385 -0.47740006
19562 -0.16825955 0.13467924 -0.0638624 -0.45115185 0.3316591 -0.0013059803 0.27868387 0.30743545 -0.28696918 0.20890695 0.08444955 0.2266733 -0.00316439 0.64953667 0.36027187 -0.5022377 0.39362785 -0.26064044 0.038804315 -0.31995937 -0.042304896 -0.55040145 -0.7389654 -0.4074199 -0.59125334 -0.109186836 0.039335653 0.3053284 -0.21458475 -0.20176828 0.18389492 0.7554188 0.30113456 0.14716011 0.23810366 -0.09807118 -0.014097744 -0.0803238 -0.39006886 -0.1563438 0.24715039 -0.17816761 -0.004621786 0.10639946 0.20744656 -0.018106876 -0.15885404 0.06562736 0.31612873 0.12136794 0.11160573 -0.07289918 -0.32886842 -0.3537945 0.27335435 -0.9518076 0.41184518 -0.10920424 0.4310832 0.7824266 -0.52986586 0.24233161 0.14540577 0.011005686 0.02904707 0.47246942 0.38673508 0.07224704 -0.1716033 0.34135318 0.41372046 0.016730275 -0.42262843 -0.49727485 0.46735263 0.36266035 0.024480298 0.07577281 -0.52046794 -0.6336683 -0.031857654 0.36646703 -0.06303367 -0.40361795 0.6935446 0.2934249 0.2132519 0.32037157 -1.153003 0.52144474 0.1526647 -0.37500823 0.4342774 0.8678649 0.054284025 -0.4485665 0.0667971 -0.22636971 -1.1696415 0.15820411 -0.8308352 0.06480865 -0.23855582 -0.23497638 -0.49409837 -0.63121206 0.555777 0.23884547 0.44750074 -0.057684515 -0.40270913 0.2661576 0.32905072 0.2364448 0.44602615 0.34559873 -0.06321079 1.1693387 -0.06150519 0.38160822 0.38619763 0.3326308 -0.6053195 -0.2678264 0.20650278 0.36903533 0.5437567 -0.18334287
18054 -0.29321876 -0.20477194 0.3294626 -0.2859932 -0.23857635 -0.07946438 0.37230375 0.43177602 0.03717252 0.120836064 -0.005116941 0.18591304 0.07883966 0.2050342 -0.040415052 -0.525844 0.30319625 -0.3156581 0.067393355 -0.20026736 -0.11819692 -0.7177122 -0.38226375 -0.328507 -0.2727699 0.029763907 -0.16442232 0.36771777 -0.35910776 0.033709563 0.42359027 0.41044903 0.3210365 0.08010125 0.1970483 -0.007750771 -0.16658 0.0011214437 -0.018474689 -0.18069552 0.17922704 -0.090061516 0.2544051 0.16494934 0.14488435 -0.28209603 -0.032014973 0.22231837 0.53546435 0.5511768 0.29788306 -0.31367114 -0.4918335 -0.34999946 0.2365144 -0.909372 0.41227695 -0.45298398 0.089235246 0.94658387 -0.642723 0.3867661 -0.52147126 -0.15991364 0.12996408 0.19737166 -0.028360974 -0.26394546 -0.4335049 0.17864525 0.6102102 -0.3608861 -0.4650213 -0.59975594 0.5098157 0.32479098 0.49946287 -0.05255799 -0.5072019 -0.28614756 0.22816175 0.4796055 0.12595655 -0.36435828 0.22938967 0.39128688 0.19347581 -0.19555488 -0.70463276 0.724123 0.17835179 -0.16046076 0.44921625 0.74960446 0.00536092 -0.41682756 0.006484603 -0.24082135 -0.856585 0.13019751 -0.9351025 0.19274354 0.02878681 -0.10553788 -0.60704994 -0.47841075 0.14287814 0.34984133 0.4387113 0.099560566 -0.21849367 0.2787693 0.3881937 0.70059705 0.5160631 0.38225225 -0.13010347 1.0230563 -0.08539547 0.15248914 0.34075466 0.21716173 -0.5933052 -0.1255734 0.018531509 0.6615928 0.2573222 -0.25498202
1404 0.20623033 0.35120505 -0.014956589 -0.4144037 -0.04109939 0.13474384 -0.006556147 0.6454259 -0.028450096 0.6429264 0.44372028 0.23220463 0.65717846 -0.08505068 0.23952636 -0.3660754 0.22490276 -0.5966497 -0.06680075 -0.4251696 -1.277025 -0.39660776 -0.29622236 -1.1391538 -0.11983991 0.14213942 0.038583443 -0.35787675 -0.028616117 0.22543621 0.27165088 0.15063433 0.35325316 0.14984147 -0.055905405 0.23946352 0.059469484 0.11368045 -0.5122249 -0.05911394 0.014859458 0.11507233 0.00771781 -0.24553448 0.13441254 -0.47955933 -0.37731102 -0.2347675 0.017539352 0.6522004 0.65794975 -0.21668324 0.32771915 -1.0083238 -0.026842399 -0.53019726 0.5057918 -0.25459146 0.11510332 0.1784225 -1.0373168 0.7600068 -0.18834424 -0.2784149 -0.2113799 0.13474806 0.48586679 -0.06946175 -0.4163746 0.15203285 0.2248846 0.076435484 -0.06245323 -0.3294868 0.1940496 0.51935226 -0.0073757516 0.1592077 -0.66252375 -0.06712969 0.4514585 0.99699265 -0.14257751 -0.20582944 -0.029079957 0.120876625 -0.23080909 0.21204853 -0.11154802 0.57175237 0.13359733 -0.22010873 0.54381025 0.22388913 -0.20394507 -0.13150801 0.13187875 -0.4958168 -0.19077355 -1.0257813 -0.4582209 0.3627433 -0.3015131 -0.28415337 -0.37709904 -0.28566992 0.37046146 0.49279994 -0.47205332 -0.075269245 0.5763544 -0.16599704 -0.10967201 0.1735863 -0.144159 -0.33294186 -0.43928728 -0.06601976 -0.23698838 0.071590565 -0.0993218 -0.06475047 -1.0480766 0.08292824 0.7204847 0.5186287 0.051107123 -0.4099192
19041 0.080041714 0.036150556 0.0060082367 -0.21398698 0.22130552 0.32964942 0.15318574 0.19944073 0.18641518 0.43586564 0.2104022 0.05408074 0.06809388 -0.04310186 0.46242678 -0.8091455 0.747735 0.24721591 -0.036289245 -0.4959311 -0.02502112 -0.21608141 -0.09261898 -0.6879141 -0.46744955 0.51117325 -0.11937242 0.1298319 -0.13529786 -0.3680241 0.72421867 0.11190367 -0.3500459 0.605426 -0.20281316 0.28542638 -0.13345188 -0.3310073 -0.66154957 0.00026939643 -0.6402376 -0.14427671 -0.18998463 -0.49732068 0.17024997 -0.15712091 0.29648775 -0.31078482 0.1852052 0.14280044 0.19792174 0.38994107 0.4034665 -0.18297395 0.18842636 -0.37353 -0.15024915 0.18435602 0.10483759 0.17946851 -0.362338 0.14245443 -0.03644944 0.2556107 0.54022735 0.27114412 0.66833586 -0.4800419 -0.2408262 -0.4867824 0.14704068 -0.010302306 -0.2971162 -0.38621333 0.8722725 -0.12985642 0.33328843 0.03427393 -0.21572834 -0.23459226 0.7254254 0.5703141 -0.5586187 0.07490519 0.8345091 0.2300719 0.6088445 0.25943574 -0.5173591 0.8022667 0.2285531 0.33243996 0.47097445 0.1600941 0.015771706 0.0025345348 -0.07815122 -0.6210955 -0.72313404 -0.21160005 -1.2041909 -0.21088225 0.38775393 -0.46855685 -0.3276612 -0.8476737 -0.4874894 0.25040302 0.32943517 -0.011238411 0.15820068 0.2631319 0.80337185 0.6972455 -0.10943083 0.6668744 -0.3753946 0.10392522 -0.3496863 -0.07272038 0.4245636 0.25327402 -0.6281545 -0.08850453 0.010246464 -0.28970367 0.475056 -0.73524845
15645 0.1565677 0.38739276 0.16696964 -0.39022246 0.25046918 -0.26367944 0.81573606 -0.0607296 -0.4305359 0.23564872 0.043349363 -0.09116558 0.4522512 -0.2840134 0.6463716 -0.6054917 0.6220233 -0.71869254 -0.1713012 -0.16129988 -0.20051695 -0.13949977 -0.20496795 -0.9976894 -0.5746062 0.23587333 -0.34478265 -0.39603236 -0.44776332 0.34798273 -0.08401135 0.13425678 0.13370046 0.47116554 0.2973922 -0.27910876 -0.0014716485 -0.1700912 -0.9314099 0.25480026 -0.40468973 0.33064634 -0.24234666 -0.2406107 0.083937556 -0.49952853 0.068954304 0.09228189 0.339732 0.577921 0.39394832 0.22567363 0.2190629 -0.78906494 0.12911265 -0.7546919 0.3726264 -0.32256556 0.06755662 0.062094297 0.044690505 0.49414957 0.24643537 -0.25733033 0.3611715 -0.27375928 0.08167439 -0.4550634 -0.41264287 -0.18071662 0.18082972 0.3079447 -0.17510194 -0.48047438 0.43546116 0.3421415 -0.17886718 -0.41620097 -0.589511 -0.41991365 0.38188154 0.52523893 -0.36482823 0.41053903 0.3830307 0.26825652 0.7392017 0.44275865 -0.38534307 0.22787979 0.15410496 -0.2411446 0.5351978 0.62742114 -0.2863182 0.031163959 -0.028273175 -0.11992328 -0.35177168 -0.73170376 -0.48377973 -0.3041575 -0.0029491896 -0.19357966 -0.47929057 -0.07957441 0.16377854 0.47886246 0.21904378 -0.0050268495 -0.07863509 0.08572114 -0.49586087 0.32167068 -0.25515077 0.20778787 -0.66906273 0.33481437 -0.5946737 0.23686558 0.14547643 0.19308628 -0.35232165 0.18899177 0.49823207 0.36426345 0.14257237 -0.505265
15303 0.1046577 0.29820776 0.35892335 -0.12823337 -0.06312028 0.06761821 1.0457752 -0.2164801 -0.31842908 0.117329985 -0.5335885 -0.053358085 0.1783217 -0.055574976 0.554214 -0.85046005 0.48743084 -0.39562017 -0.51152474 -0.14216352 0.61977386 -0.11793987 0.07780494 -0.693172 -0.51843613 -0.3133432 -0.30303073 -0.47152457 -0.79054254 -0.11236264 0.53052074 0.07453382 0.3330418 0.26688305 -0.4788855 -0.31599486 0.19591813 -0.13775435 -0.5746479 0.12977988 -0.5300203 -0.49459156 -0.4100925 0.1442233 -0.130614 -0.1983997 0.28727093 0.20247808 0.5155829 0.81825256 0.15946302 0.5420285 0.18250199 -0.25229967 0.10494845 -0.10188498 0.127118 -0.45716336 -0.27156365 0.31316897 0.018241977 0.14418891 0.46621966 0.2563534 0.3102434 0.22860603 -0.13442303 -0.6710195 -0.30993706 -0.09024237 0.33854273 0.5967221 0.040777348 -0.29658413 0.63478976 0.34544912 -0.39374626 -0.08895349 0.010862786 -0.24934168 0.62957144 0.4663765 -0.7134037 0.058646444 0.7274875 0.33461192 0.36383125 0.3859988 -0.38532954 -0.079983294 -0.07498077 -0.14480908 0.6125508 0.077129245 -0.26893035 -0.31897357 0.33179346 0.13729787 -0.64641494 -0.11436838 -0.70870334 -0.27916735 0.23554732 -0.193515 -0.6930208 -0.4105402 -0.121682286 0.42724854 0.02103811 0.2782782 -0.046076357 -0.3291593 -0.5737521 0.5626166 -0.16064534 0.21663967 -0.5447229 0.35453686 -0.5370053 0.069274575 0.59222776 0.3164809 0.011751092 -0.56577116 0.025606653 -0.116169676 0.15776551 -0.6574231
5121 -0.04310855 0.65116554 0.18757649 0.046674225 0.11863817 0.11679596 -0.049559467 -0.15432839 -0.29406106 0.5919662 -0.023616036 0.116514675 0.15623587 -0.55856466 0.3967218 -0.27858254 0.020500323 -0.017603058 -0.22176015 -0.13349423 -0.18785287 -0.29159126 -0.1912269 -0.70307624 -0.28039122 -0.2115154 -0.076612666 -0.39446267 -0.24255668 -0.10089163 0.31383008 -0.12164079 0.4665281 0.11747034 -0.09442986 0.27558765 -0.07937657 -0.27674538 -0.16218852 0.26250333 -0.7808737 0.012070411 -0.31265146 -0.025327796 0.20900185 0.051125854 0.1269944 -0.25274545 0.12872982 0.311182 0.32898012 -0.1571149 0.30856422 -0.45014748 0.5419248 0.025458286 0.03216984 -0.44285378 0.028902756 0.5794541 -0.005427134 0.52477175 0.1393705 -0.34299675 -0.47061336 0.31577212 0.22537771 -0.54200494 -0.5728396 0.36321473 0.23626731 -0.07535008 -0.1821382 -0.10932432 0.35675278 0.026639739 -0.19757447 -0.22217001 -0.26762518 -0.20486456 0.72428775 0.312632 -0.37518674 -0.049934164 0.37166753 0.22430828 0.5855891 0.6470335 -0.34389514 0.3584539 0.030943252 0.066567115 0.7817133 0.16620761 -0.18717323 0.16144086 -0.36392415 -0.15562178 -0.22753538 -0.32488036 -0.8423135 0.27970263 0.17643629 0.025846936 -0.40544653 -0.22857292 -0.021654602 0.25159663 -0.005445802 -0.24457131 0.7182936 -0.09419452 0.12109565 0.235547 -0.09438322 -0.009977776 -0.12048508 0.6627552 -0.3585942 0.19660373 -0.29260904 0.2921779 -0.7180813 -0.11249451 0.4084368 -0.047055874 0.4581182 -0.26387054
6137 -0.30844104 0.7332599 -0.09279361 -0.16508262 0.030476276 -0.024757365 -0.01762295 0.23360042 0.2714337 0.6267248 -0.070741564 -0.12815729 0.5360824 0.108880974 0.8063828 -0.3267578 0.8466725 -0.5590596 -0.4044821 0.30145553 -1.1309998 -0.59142613 -0.52329654 -0.593289 -0.6957729 -0.037553966 -0.20984834 -0.26809025 -0.9333813 -0.1073239 -0.13391453 -0.28378013 0.31636032 0.15092528 0.014349736 -0.057501443 0.28162214 0.05535482 0.036801867 -0.029034887 -0.27718553 -0.31794757 -0.08692327 0.17946213 0.66984737 -0.23712832 0.29733986 -0.02654157 -0.10929329 0.45546275 0.37885535 -0.38502443 0.4511711 -0.6121772 0.44893456 -0.97734225 1.2279229 -1.0136119 -0.0022510996 0.53245956 -0.52863634 0.41765642 0.7285355 -0.03931312 -0.10200522 0.2167574 0.15877421 -0.769393 -0.79721975 -0.11586384 0.34136122 -0.04334018 0.19163312 0.071239784 0.107181795 0.6359574 -0.00510085 -0.1311696 -0.10523295 -0.31853917 0.88524413 0.93412566 -0.37730166 -0.54634684 -0.20478281 0.5178574 0.18531856 1.0642018 0.38823462 0.19401059 0.2559126 -0.112042904 0.48956174 0.4066919 -0.62693954 -0.489744 0.01734883 -0.17101896 -0.24307552 -0.31135088 -0.5028593 0.7489778 -0.19904488 -0.41534543 -0.20844597 0.18339409 0.025243662 0.13256949 -0.06929633 -0.50816345 0.39821312 -0.06596998 -0.5576503 0.25395268 -0.20407416 -0.34599808 -0.21457466 0.41718107 -0.28328586 0.34315434 0.06634075 0.07850288 -1.0998797 0.31896353 0.20619994 0.1599052 0.37383452 0.0050171223
9582 -0.28398556 0.52651626 0.033259388 -0.13028263 0.5044489 0.21287763 0.10603408 0.13147484 -0.04794505 0.33997905 0.0065346826 0.06844807 0.27675527 -0.26736706 0.6049395 -0.59582275 0.34006712 -0.647135 0.05491066 -0.1809284 -0.5081163 -0.33092076 -0.34510368 -0.8628047 -0.8212827 -0.1751203 -0.09927116 -0.111182444 -0.9040579 0.10372336 0.42801288 -0.06992182 0.042273134 0.4423524 -0.2945329 0.23344421 0.54521763 -0.028104367 -0.3840125 -0.084302 -0.1906555 -0.18320407 0.10436128 0.17691745 0.056594126 -0.08328523 0.2607812 0.08862578 0.413788 0.6020917 0.15355788 -0.058925215 0.62017936 -0.65093136 0.22028892 -0.6153649 0.6642769 -0.25865763 0.27887064 0.5983082 -0.34663457 0.6948776 0.29284367 -0.13064991 0.5305739 0.1993478 0.3561286 -0.7004158 -0.30784357 -0.14250132 0.3246709 -0.26720318 -0.30051675 -0.39058214 0.054847337 0.4465907 0.07006271 -0.115527175 -0.11121326 0.53786856 0.49176443 0.7888191 -0.6823447 0.15816851 0.19053702 0.57353634 0.7415667 0.16850515 -0.30365977 0.14482221 0.2591396 -0.23386943 0.6165282 0.3400334 -0.4074551 0.041706666 -0.075374894 -0.3823275 -0.48972848 -0.45575234 -0.97711843 0.4432294 -0.15784925 -0.23956555 -0.8945132 -0.13011219 0.21493255 0.5375254 0.1806939 0.15107806 0.145076 -0.3774865 -0.34429443 0.520282 -0.19588569 -0.19497971 -0.6081367 0.751931 -0.13212748 0.33992654 -0.13684684 0.054677173 -0.8378824 -0.20202209 0.32711986 -0.0014983633 0.2999208 -0.23997541
905 0.26714453 0.38877493 0.1444864 -0.623643 -0.08679478 -0.21285316 0.23802431 0.2953108 -0.15493613 0.84185654 0.026775695 0.29478016 0.19252804 0.07759828 0.37469313 -0.34902468 0.4519155 -0.1751381 -0.30561173 0.37671718 0.0797002 -0.25593105 0.22439736 -0.68149173 -0.48812044 -0.16175114 0.1888212 0.013478253 -1.0221558 0.22365804 -0.064421564 -0.15273505 -0.09261561 0.64247406 -0.7399254 -0.058847494 0.09813597 -0.18661065 -0.44028705 -0.23569745 -0.64983904 -0.09396232 -0.6931632 -0.19607122 0.04590137 0.080371186 0.25030723 -0.05711212 0.06830248 1.0767128 -0.039701 0.17647302 0.34334823 -0.4015348 0.30358878 -0.3836448 0.8920204 -0.34289238 -0.16280776 0.16422004 -0.020150552 0.115866944 0.38784054 -0.3972303 0.3659571 0.38892195 0.10098011 -0.4999396 -0.16561332 -0.004027526 -0.07140422 0.15825382 -0.11701282 -0.046786122 -0.09976388 0.15550198 0.050511092 -0.036748026 -0.2757572 -0.1726625 0.7917064 0.4333771 -0.30224702 -0.049129613 0.55698806 0.48852348 0.5572557 -0.09780921 -0.72240335 0.20703517 0.325886 -0.2840734 0.24239329 0.15035258 -0.26861903 -0.119970724 -0.2513826 -0.13352102 -0.2661622 -0.48045722 -0.7140211 0.12080207 0.1210131 -0.11250408 -0.6303723 -0.46952814 0.046416488 0.40351474 -0.3187144 -0.09768317 -0.099386565 -0.18630724 -0.24086428 0.44350782 0.03640262 -0.052984007 -0.5453279 0.6099013 -0.37663358 -0.16729541 0.3294264 -0.030568333 -0.3180204 0.054036777 0.10292124 0.11801953 0.071976066 -0.27933854
21756 -0.8193009 0.48507223 0.31236833 0.3207766 0.97913384 0.5512598 -0.11723186 -0.33285612 0.36117756 -0.15203269 -0.39451247 -0.033673774 -0.21563916 -0.60071385 0.47502396 -0.027207056 0.2586577 -0.20202419 0.76292145 -0.23970552 -0.41351306 -0.2576245 -0.36484933 -0.39040735 -0.90922135 -0.7993214 0.25884414 0.24819145 -0.27536875 -0.6089983 0.606266 -0.17672454 -0.03548036 0.28959805 -0.118410096 0.33739358 0.108422026 0.23678014 -0.24423388 0.18819751 -0.34826854 -0.045749165 0.5088555 0.071948744 -0.1644315 -0.0677085 0.36417398 -0.19749704 0.29717126 -0.022499671 0.3750724 -0.11149647 0.5754776 -0.63290673 0.24218492 0.22178414 0.2235072 -0.2659802 0.0070280815 0.32176676 0.021396736 0.73258007 0.6639396 -0.32768777 0.5261099 0.36289647 0.32856643 -0.5508657 -0.05298908 0.22309549 0.46840623 -0.21955824 -0.46345633 -0.15077505 0.22697689 0.40779078 0.09768929 -0.17462699 0.0484751 0.63668853 0.49848506 0.82063204 -0.6666959 -0.017521065 0.2707424 0.3701789 0.48713496 0.40862304 -0.40407535 0.35052556 0.09968543 -0.06961863 0.4062668 -0.24723782 0.021554995 -0.30996484 0.47031474 -0.4923883 -0.69876957 -0.49548802 -0.5537138 0.46912527 -0.20076518 -0.77130705 -1.0545043 -0.201817 0.45049524 0.3304549 -0.07259539 0.26916295 -0.08144069 -0.69276744 0.022366336 0.33163232 -0.3941577 -0.20816271 -0.3291763 0.7583698 -0.28105277 0.06516649 -0.049381077 -0.008061287 -0.7584103 -0.14563918 0.2215988 -0.0037913017 0.3092239 -0.06467018
4475 -0.42126814 0.611233 0.08428203 -0.4476587 0.5552064 -0.19835678 0.36926565 0.060819976 -0.10526422 0.3314824 -0.394788 0.19077402 0.18687737 0.004241956 0.3217609 -0.08026249 0.28652605 -0.4826046 -0.10300649 -0.27448976 0.27375826 -0.4582139 0.11137861 -0.7053148 -0.72292936 0.005178985 -0.07073836 -0.38267258 -0.66547364 -0.13221131 -0.2158579 0.10897645 -0.03660077 0.64548075 -0.032604333 -0.33741143 0.24816792 0.15657686 -0.45103088 0.06764775 -0.2222716 0.2898308 0.49231905 0.46768552 -0.23931512 -0.28739765 -0.087290995 0.43070358 -0.016618084 0.35762993 0.16263449 -0.29035202 0.3838709 0.13509923 0.16795015 -0.64554596 0.08851115 -0.3887506 0.5198446 0.3993559 -0.37972707 0.81446326 0.3077591 0.10751529 -0.093578555 0.169949 0.118208796 -0.6929006 -0.5043332 0.71610737 0.54569715 0.445124 0.044001326 -0.13879189 0.37989804 0.46361896 -0.059997078 0.0132846795 -0.40811014 -0.014114486 0.6649287 0.5167949 -0.9473261 -0.28546238 0.28659877 0.026881838 0.47379535 0.8663513 -0.490612 0.4941397 -0.13718882 -0.54554135 0.6049949 0.04289042 -0.054346073 -0.2772815 0.09465485 -0.06437107 -0.79197216 -0.28489456 -0.17714965 -0.03104971 0.45508635 -0.015257897 -0.8131923 -0.4351191 0.44165203 0.021545751 -0.19456232 -0.014168993 -0.43990567 -0.095434204 -0.15479723 -0.017711468 -0.5703589 -0.25219002 -0.36367536 0.49623123 -0.27077118 -0.29279602 0.10603376 -0.21984765 -0.4055819 -0.3173657 0.33172637 -0.07551462 0.49604413 -0.27251723
10222 -0.3639574 0.33141312 0.46427616 -0.31654438 0.34472212 -0.351903 0.46369728 -0.122489125 0.16640085 0.13991964 0.085571416 -0.02998689 0.33448383 -0.41640276 0.3882076 -0.5147131 0.3858466 -0.58489186 -0.41213402 0.032031715 -0.09075296 -0.36270913 -0.57060367 -0.5277453 -0.55720514 -0.092771456 -0.27417287 -0.3591034 -0.54327714 -0.0838977 0.26012704 -0.2579215 -0.22610165 0.4924425 -0.20868407 -0.10143285 -0.14410517 0.13452636 -0.7801226 -0.12506236 -0.72260535 0.33013517 0.12676287 0.30394942 0.06390461 -0.56146556 0.7206209 0.08177235 0.06689624 0.5582136 -0.032797232 -0.1998101 0.18337639 -0.5231731 0.6181511 -0.09899701 0.40680322 -0.56946945 0.2773646 0.53420633 0.091611564 0.69836086 0.36700055 -0.43502116 0.04329018 -0.06641329 0.37229383 -0.49680474 -0.72811455 -0.043662798 0.1904644 0.056896128 -0.20599402 -0.14855063 0.22271837 0.36571762 0.15720591 -0.5232458 -0.39035612 0.018225685 0.53843874 0.6395211 -0.2980499 -0.23741107 0.14143464 0.3814022 0.3501203 0.33812186 -0.25968668 0.3254852 0.4896616 -0.29727516 0.66173714 0.48032638 -0.4978561 0.19945069 -0.092104115 -0.25195342 -0.702966 -0.13799626 -0.5471165 -0.11304544 0.60839015 -0.112028025 -0.43495426 0.081475146 -0.4467873 0.010268711 0.045161787 -0.2887242 0.2705757 0.11433295 0.022847008 0.43459773 -0.41644156 0.082831025 -0.44892737 0.17316964 -0.15089786 0.39964318 -0.2863273 0.12066385 -0.5007146 0.11643052 0.41253206 0.17518859 0.53387034 0.18895972
15888 -0.25848967 0.14294425 -0.1803977 -0.068609804 0.55253106 0.05909275 0.38674447 -0.34590513 -0.073810436 0.28622293 -0.06871031 0.06867948 0.14871795 0.004619393 0.23037061 -0.12141314 0.0061746063 -0.013548239 -0.23273751 -0.3939415 -0.12842062 0.068908654 0.024424562 -1.020041 -0.3093683 -0.2617003 -0.04095373 0.2855605 -0.99629855 0.13963117 -0.025118172 0.19752775 0.28678283 0.14092767 -0.42668402 -0.22907306 0.039481148 0.01045171 -0.103148125 0.057500176 -0.3152874 -0.2346387 0.044699714 0.17432338 0.24950568 -0.15406393 0.14998665 -0.31718895 0.11308083 0.070073 0.27660042 0.06605678 0.10549302 -0.6215828 0.2277829 -0.5366903 0.48393834 -0.34389713 -0.40540016 0.6277054 -0.5880988 0.082594074 0.048491243 0.20784414 0.42310214 -0.024834337 -0.21097063 -0.9448305 -0.39421335 0.25551683 0.2104293 0.31545383 0.28173026 -0.7069799 0.74327755 0.3307455 -0.15601802 0.43337727 -0.9270467 0.12859195 0.36693713 0.43721512 -0.5269866 0.220133 -0.25421807 0.4551715 0.39986074 0.30877888 -0.28453022 -0.033305544 -0.08783018 0.055467885 0.32718548 -0.056267526 0.3371688 -0.57024133 0.04958403 -0.520601 -0.46305078 -0.45432758 -0.4576816 -0.115147494 -0.4410806 -0.20149198 -1.1640223 -0.16927068 0.102517866 0.4280748 -0.3477017 -0.2591287 0.07032436 0.07652999 0.08276408 -0.009625666 -0.022494603 -0.02615029 -0.15531528 0.3823007 -0.15151432 0.5853638 0.40571374 0.4865649 -0.35436255 0.16712543 0.5905823 -0.03474286 0.20496905 -0.77083576
17891 -0.52804625 -0.26351705 0.49777767 0.1466879 0.25735393 -0.11546642 -0.20755202 0.022177476 0.64753413 0.15670207 0.0002141181 0.1274311 -0.09320952 0.34094167 0.1292221 -0.49397054 0.597988 -0.30701673 0.5400366 -0.5870127 -0.45321143 0.032120373 -0.28804484 -1.166565 -0.76761776 0.1596587 -0.26863995 -0.26181632 -0.531636 -0.0750412 0.14541668 -0.17037518 0.27819002 0.3181809 -0.3058794 0.045615863 -0.18590029 0.41315818 -0.41952536 -0.117355965 -0.7418221 -0.03198746 0.082552046 -0.36035398 0.2724125 -0.47588804 -0.10148787 -0.55652994 0.2546259 0.12121865 0.6053303 0.004262352 0.6693507 -0.40200907 0.09440423 -0.10442521 0.5481125 -0.40005937 -0.23716444 0.5715706 0.16848394 0.4809348 0.30885527 -0.53270704 -0.026571736 -0.010914276 0.08028366 -0.10472796 -0.635293 0.07989275 0.32021457 -0.08120002 -0.30074856 -0.3054421 0.41125667 0.17654383 -0.21533348 0.43477276 -0.7361927 -0.2858117 0.23160656 0.8642666 0.050556604 0.3621712 -0.2521824 0.31020236 0.28666437 0.11894519 -0.28677732 0.18343513 0.20823011 -0.20202209 0.42279732 0.38823384 0.08039854 -0.58284676 0.10395868 -0.31004024 -0.54440194 -0.32535177 -0.76962095 -0.016398562 0.4414246 -0.26206598 -0.732156 -0.3412511 -0.14644144 0.20901926 -0.3682381 -0.22586213 0.10836741 0.12578247 0.004628963 0.1289956 -0.37032613 -0.17635556 -0.5055733 0.22201163 -0.23825544 0.18123668 0.04552259 0.07029493 -0.6983608 0.3306649 0.31704625 -0.01116358 0.30666843 -0.51223034
11922 -0.36414334 0.45408565 0.0027062246 -0.48473728 0.7340628 -0.23914891 -0.28211668 0.079440914 0.032875817 0.14655967 0.291074 0.018844374 -0.08502542 0.07844115 0.63143456 -0.5343885 0.50635064 -0.8193029 0.25132266 -0.20771997 0.10336119 -0.6411152 -0.27547345 -0.70875776 -0.403116 0.284034 -0.10800584 -0.01794087 -0.69587725 -0.035022505 0.22599378 -0.22367889 0.36956346 -0.13024072 -0.019090947 -0.19204532 -0.14565134 -0.44473413 -0.6678995 -0.29430598 -0.67626977 0.2291472 -0.17180243 -0.2487184 0.37091038 -0.044616863 0.08698829 0.13211606 0.08419027 0.30516207 0.22294608 -0.036154117 -0.40005994 -0.71396244 0.16885422 -0.60101926 0.65695983 -0.317936 0.28932407 0.08436901 0.11062099 0.45018443 0.48670822 -0.35893458 0.21953087 0.010977358 0.24516138 0.13718559 -0.2576514 -0.22747283 0.61244714 0.17835347 -0.35383576 -0.33691806 0.053514514 -0.014521726 0.2125284 -0.2480989 -0.59342057 -0.440632 0.22156146 0.4087941 -0.3690223 -0.030001422 -0.01707452 0.30816978 0.18046303 0.5757616 -0.81893057 0.051055796 -0.24453625 -0.3666698 0.4914532 0.09436885 0.40077624 0.15929581 -0.19218618 -0.15580265 -0.42459902 -0.27862334 -0.7028553 -0.26412764 -0.23253237 -0.095546424 -0.10719294 -0.25947893 -0.19113155 0.07452048 0.19202048 -0.20890109 0.03269102 0.16978498 -0.32275513 -0.07990667 -0.47212684 0.19049986 -0.03986781 0.9541782 -0.050723426 0.15249772 0.2950827 0.1335671 -0.76025957 0.46067396 0.277167 -0.25982255 0.3139562 -0.07578463
5923 -0.117575265 0.610224 0.12725063 -0.25465536 0.5837433 0.07279511 0.14356397 0.13046165 -0.13745461 0.4129211 -0.18164256 0.12144018 0.23342858 -0.27470225 0.37889177 -0.5947333 0.5090271 -0.5925166 0.015233697 -0.25181243 -0.16004455 -0.55981916 -0.005859547 -0.6915718 -0.7563546 0.09395502 0.06173183 -0.38959616 -0.7927284 0.043790977 0.27966312 -0.15944946 0.22103363 0.44745263 -0.27151793 0.24031727 0.14952506 0.07880531 -0.6465454 -0.14782973 -0.7208234 0.059306033 -0.13960512 0.03656893 0.16628376 -0.26256496 0.3065277 0.07398186 0.10163236 0.550011 0.14059453 -0.051815122 0.46526513 -0.4869794 0.30302554 -0.44511986 0.5046339 -0.16047122 0.054405723 0.3744871 -0.46024877 0.7782455 0.4899072 -0.43423134 0.13658701 0.042747393 0.2495703 -0.8568613 -0.35022467 0.5038258 0.27082026 0.15112267 -0.1341553 -0.017716004 -0.04707282 0.5444392 -0.005008097 -0.030778913 -0.3102029 0.0685881 0.46731937 0.6184287 -0.5429078 0.13695589 0.349568 0.34988427 0.5734752 0.19139811 -0.5786606 0.032497 0.27558926 -0.26480582 0.787271 0.5891817 -0.18136992 0.04211887 -0.13767143 -0.14157772 -0.7713366 -0.6281925 -0.78331256 -0.079282045 0.402081 0.0013779055 -0.6690142 -0.48428074 0.07257836 0.7456042 -0.009735619 0.06479272 0.086314455 -0.2270599 -0.3202851 0.36044636 -0.1358316 -0.22164752 -0.47091907 0.7328243 -0.4193186 0.30151153 -0.06603039 -0.14849631 -0.69826746 -0.28384483 0.25901657 3.1026548e-06 0.55571705 -0.07738951
16702 -0.18240996 0.5067277 0.37310553 -0.2446795 0.2526831 0.031018622 0.130325 0.18868884 -0.12642065 0.7493748 0.24446633 0.21450324 0.41639405 -0.11346755 0.5753488 -0.5234031 0.5639827 -0.5567005 0.07378515 -0.16621457 -0.6826473 -0.5402538 -0.15579209 -1.1993479 -0.8002649 0.060533673 -0.15558131 -0.53906536 -0.8331298 -0.02673698 0.18753126 -0.05889716 0.3316993 0.608541 -0.2718589 0.24432945 0.21030562 -0.2053929 -0.75473833 0.056824766 -0.4846327 -0.2594898 0.05424608 -0.43080986 0.12464469 -0.24276586 -0.22155154 -0.15114927 0.13314009 0.7816299 0.3183672 -0.12367123 0.40810838 -0.75492287 0.2548272 -0.68092537 0.7247597 -0.50572336 0.14704503 0.41782716 -0.47834775 0.7091109 0.23092802 -0.20491463 0.043996304 0.2039679 0.4546207 -0.67271614 -0.5334464 0.31506607 0.18843059 0.066662684 -0.25882214 -0.3238505 0.3124534 0.56963176 -0.15442729 -0.002128063 -0.39317632 -0.05681548 0.5023613 0.8926119 -0.24314432 0.09390193 -0.010039001 0.28222004 0.6210011 0.4121315 -0.45298296 0.49725118 0.15017194 -0.3822336 0.6738554 0.6727506 -0.4700785 -0.22999741 -0.08458439 -0.2641663 -0.54914725 -0.34273857 -0.9671497 0.29143134 0.048330538 -0.32839987 -0.8335101 -0.1658815 0.24406014 0.54325354 -0.19836678 -0.2632478 0.3145186 -0.1505536 -0.175802 0.27234447 -0.23212455 -0.29533854 -0.48944414 0.453301 -0.26521665 0.18106326 0.19673297 -0.032413483 -0.9174149 -0.01818826 0.5246446 0.28472954 0.33754995 -0.27454367
11046 -0.3449671 -0.002641562 -0.0016495448 -0.57352656 0.1228958 -0.4444038 -0.11026762 0.039714985 -0.32698134 0.39620686 0.22783409 0.4231925 0.6382752 0.31204748 0.7376353 -0.13634408 0.6596688 -0.22244896 -0.118727945 0.29450497 -0.24145462 -0.15680002 0.031384204 -0.45238346 -0.6473771 -0.27402675 -0.09084124 -0.39255586 -0.69878733 0.32360995 0.013528023 0.26222327 0.41638675 -0.07658198 0.14576885 0.36089253 -0.393762 -0.3161722 -0.16138601 -0.30594575 -0.5043678 -0.3060201 -0.49996775 -0.60701 0.4290508 0.3057132 0.1443402 -0.054210156 0.2036255 0.93214905 0.13712771 0.5055581 -0.10510589 -0.19878703 0.07297186 -1.0897512 0.9949944 -0.50139076 0.23820728 0.57146835 0.28166074 0.5194441 0.31395867 -1.0612679 -0.29005304 0.20339248 0.099384055 -0.05321201 0.13496047 0.52843505 0.72789997 0.43763036 -0.02136899 -0.09627926 0.3361571 0.062567815 -0.15261723 -0.115648694 -0.73791504 -0.23105596 0.6384453 0.59133434 -0.17261218 0.09138643 0.3070702 0.32081723 0.48174387 -0.058548704 -0.8611432 0.62013537 0.06306776 -0.4712734 0.35565987 0.51852745 -0.36421636 -0.5978088 -0.5444782 0.052086912 -0.19046783 -0.041654337 -0.4985495 0.0804418 -0.09284657 -0.013832257 -0.4894531 0.15608029 -0.05629704 0.47082797 -0.13539083 -0.052182753 -0.17815693 -0.41096076 -0.2691783 0.3570155 -0.29015264 0.28292558 -0.051299002 0.67796373 0.037454303 0.63003516 0.5709528 0.5926692 -0.91197926 0.0298409 0.22297418 0.13532275 -0.2755133 -0.19429581
7887 -0.93607134 0.12476048 -0.049459644 0.18701534 0.37865204 -0.317076 0.28014705 -0.18511175 0.12372674 -0.16906749 -0.5821143 0.37969327 0.094547145 -0.38296118 0.45308247 -0.09192864 0.32332715 -0.5088843 0.16435298 0.20493552 0.35651886 -0.007462122 0.26253644 -0.28574684 -1.1239644 0.12827648 -0.15607797 -0.26204938 -1.027736 -0.34439155 0.5266971 -0.33566982 0.014915574 0.29717994 -0.21724139 -0.03952072 -0.2772 0.014028242 -0.19768906 -0.23609976 -0.48689908 -0.24060586 0.30185542 0.21641317 0.08767329 0.22992131 0.1625128 -0.06358535 0.42709112 -0.11904922 -0.34536672 0.4817191 -0.08981075 0.044146504 0.36134344 -0.6963665 0.2619523 -0.6093137 0.27557692 0.77297276 0.3809917 0.26935473 0.27242288 -0.036509007 -0.04034845 -0.092901886 -0.20529576 -0.9684435 -0.36297396 -0.08073767 0.391886 0.060912494 -0.34008723 -0.43495825 0.22397399 -0.32290944 0.043934148 -0.3857814 -0.14581557 -0.17223854 0.74496925 0.6276147 -0.38128716 0.2664649 -0.01837185 0.60596293 1.0988092 0.5607708 -0.4133345 0.3699578 0.13327622 -0.053171474 0.51837397 0.113113806 -0.29724622 -0.8055694 -0.06510938 0.21751058 -0.3957463 0.47602406 -0.54158103 -0.079172865 0.6685344 0.20804307 -0.8873619 -0.0740039 -0.10362463 0.2228329 0.01213196 -0.051156506 -0.6128994 0.12593004 0.015731683 0.25025445 -0.6000091 0.31874734 -0.46333063 1.0360752 -0.24478172 -0.060729492 0.53409547 0.41911343 -0.17767069 0.058541168 -0.2901466 -0.2905943 0.6537638 -0.28505537
4072 0.2721202 0.5540663 0.14336842 0.04845211 0.87420046 0.18955486 0.0061179954 -0.30898073 0.26347452 -0.2276846 -0.28532124 -0.11377628 0.04752909 -0.24154007 0.85173875 -0.2107306 0.2956538 -0.51344645 -0.051428657 -0.34460843 -0.21882777 -0.022309834 0.27416348 -0.6379845 -0.71196663 0.41521287 0.17326158 0.011541565 -0.31617108 0.019557549 0.44674313 -0.53291136 0.053256325 0.1022022 -0.5525859 -0.16301484 -0.19395065 0.08263226 -0.97504395 -0.5207929 -0.7111757 0.12850535 -0.05912615 0.0072886962 0.100711 -0.22641417 0.45843253 -0.48949444 -0.1498313 0.12113587 -0.0124646695 -0.13463989 0.7378102 -0.67320734 0.13300815 -0.13894857 0.50490725 -0.28414083 -0.14863342 0.14007784 -0.19609039 0.4064067 0.6034487 -0.49677533 -0.1282257 0.2897946 0.3795553 -0.9956373 -0.500897 -0.33901322 0.3040962 0.49704075 0.13655193 0.018563755 0.024458338 0.19853379 0.029839365 0.25296193 -0.5133672 -0.3067958 0.75490594 0.8347964 -0.4979587 0.14186402 -0.0054393923 0.19627938 0.36671934 0.5004425 -0.5209195 0.09716191 -0.039136056 -0.15916349 0.96402776 -0.15512945 0.5284172 0.14816973 -0.31577453 -0.031096712 -0.47508457 -0.8139099 -0.37375113 -0.420265 0.1668838 -0.16609535 -0.63637704 -0.4571439 -0.16787732 0.72471404 -0.40398335 0.15420139 -0.026855232 0.1949791 -0.20318082 0.23941351 -0.62991685 0.29395857 -0.41127723 0.40947714 -0.29743385 0.2113677 0.04745274 0.20480205 -0.6911714 0.1081991 0.5783061 -0.5439682 0.0809501 -0.20702738
16431 -0.37046972 0.01836653 0.01608523 -0.010882301 0.5186804 -0.06415157 0.35883263 -0.45837188 0.040929794 -0.026196782 -0.23021543 0.06341999 0.11762111 0.31422862 0.71108127 -0.20258695 0.287927 0.07023262 0.07808515 -0.08051624 0.2221423 -0.005442626 -0.2592963 -0.4809891 -0.69452053 -0.3421411 -0.4154323 0.083824314 -0.5669632 -0.35696068 0.2885504 -0.041651312 0.2661189 0.22216527 -0.4897924 -0.12352808 -0.07809827 0.51942873 -0.57972914 -0.55211323 -0.4605404 0.05965516 -0.35719404 0.36256754 0.3530302 -0.1937771 0.80945283 0.16577756 0.09283717 0.3889108 0.13259004 0.03765515 0.59238464 -0.5732782 0.3608253 0.035532106 0.84626865 -0.061839025 -0.15991312 0.2621355 -0.066869795 0.4774779 0.13033338 -0.66852653 0.33467382 0.21298409 0.5879868 -0.47118133 -0.3440965 0.13661456 0.58280545 0.020431746 -0.11365524 -0.54608405 0.15949416 0.45281103 -0.004028872 -0.020449383 -0.19425106 -0.19179876 0.48164612 0.82593936 -0.801331 -0.027625326 0.2325959 0.4647146 0.42180443 0.2737368 -0.47836873 -0.14853114 0.04810439 -0.29532114 0.8206356 0.0625552 0.46526277 -0.2519252 -0.33422253 -0.22681539 -0.8759407 -0.118357584 -0.4634299 -0.047025803 0.37820488 -0.16511811 -0.90216744 -0.027104255 -0.40554836 0.38908744 0.012137921 0.07753477 0.059554834 0.1442806 -0.6899118 0.5220245 -0.38362083 0.15905721 -0.45622098 0.93307865 -0.03145682 0.4018794 -0.05330463 -0.01921046 -0.56957525 0.21275024 0.062949434 -0.375352 0.04984165 -0.09872989
14996 -0.20676816 -0.111167744 0.27653024 -0.3333702 0.036164723 -0.101288095 0.2324784 0.6597523 -0.07468203 0.15737729 -0.02825138 0.17077295 0.10465591 0.5586746 0.39422354 -0.90745676 0.32741874 -0.33046067 -0.26179692 -0.27201793 0.07180086 -0.58421 -0.5051229 -0.5070019 -0.696433 -0.15910138 -0.12599377 0.020391027 -0.124669544 -0.48212048 0.028459083 0.40902758 0.1934064 0.06328603 0.3906238 0.12862584 -0.1605741 -0.1355171 -0.32987863 0.1364673 0.1018362 -0.02262609 0.06462373 -0.05466864 0.17098224 0.06239756 -0.1632369 0.21575876 0.3810246 0.40181106 0.032843173 0.045102764 -0.33225256 0.027900951 0.34581885 -0.84057385 0.14325479 -0.2249575 0.46643838 0.86311483 -0.49046206 0.22010066 0.1772401 0.22236662 0.05401395 0.58674484 0.4453642 -0.041415762 -0.28472772 0.21956109 0.24506812 -0.11743449 -0.5860136 -0.6313924 0.62471557 0.35333446 -0.17373778 -0.09510644 -0.4526125 -0.34143406 -0.1054419 0.3005923 0.10214867 -0.09359743 0.80318415 0.12094367 0.27025583 0.40088543 -0.93647194 0.24559641 0.39563712 -0.3274956 0.4772171 1.0603329 -0.072566755 -0.26401266 0.035565477 -0.07241959 -1.05041 0.09408375 -0.9552971 0.2297266 0.106951036 -0.19065034 -0.62772894 -0.6870465 0.55170226 0.3617414 0.2986534 -0.19186477 -0.26286244 0.19087873 0.26022074 0.45438492 0.20969175 0.26822722 0.12356101 0.877233 -0.2254023 0.33842117 0.19817534 0.21900503 -0.49752533 -0.50727886 0.19923039 0.5528415 0.62655634 -0.23343001
7781 -0.64410114 0.3891328 -0.25664997 0.07545569 -0.17555937 -0.08366598 -0.05527842 0.109740436 -0.1528166 0.5897723 0.25335312 0.6112468 0.657071 0.20783876 0.48485583 -0.11318741 0.36872348 -0.51736164 -0.124319084 0.23043291 -0.37573606 -0.058077183 0.041247394 -0.8569582 -0.5876437 -0.17067054 -0.059194457 -0.17585036 -0.45046988 -0.13200493 0.7341052 0.023180341 -0.10570138 0.64985335 -0.26895466 0.2470298 0.3946388 -0.15791543 -0.27872235 -0.039511923 0.077468745 -0.55482745 0.39634177 -0.10418337 0.19234394 -0.18874279 -0.44557905 -0.08006816 0.41211218 0.058026444 0.3701285 -0.21398234 -0.46961555 -0.21576083 0.12536515 -0.79983765 0.2676956 0.042466916 0.30938193 0.6722537 -0.6588203 0.3679269 -0.23319936 0.13587177 -0.22713877 0.6264656 0.2781898 -0.7088022 -0.027161844 -0.24991825 0.6147118 -0.043446995 -0.2586996 -0.8105905 0.8279208 -0.35020307 0.34755316 0.14623734 0.29519022 0.36827207 0.5502329 0.72197753 -0.43129513 -0.13713108 0.8647787 0.1571431 0.2482976 0.6215294 -0.37283468 0.70931256 0.02634461 0.16726644 0.56676996 -0.15883219 -0.17021231 -0.91411185 0.21123303 -0.016649038 -0.193713 0.2511801 -0.7479892 0.5415635 -0.3289685 -0.09591496 -0.7635872 -0.04012659 0.12847617 0.12345525 -0.26238042 0.08195768 0.012504143 0.121403344 0.3784926 0.3190446 -0.48937142 0.060621332 -0.29500437 0.54255825 0.11936928 -0.40776107 0.6146217 0.5354956 -0.74853945 -0.30641448 0.25003937 0.057852264 0.25342968 -0.29303
13300 -0.20004156 0.47188377 0.3182898 -0.34750247 0.62825924 -0.15132886 -0.32640225 0.48630503 -0.065599285 0.37453577 0.3750323 0.22111903 0.13773093 -0.5582828 0.010960256 0.052008793 0.420699 -0.3532333 0.55602854 -0.21377125 -0.72092927 -0.65970045 -0.4128877 -0.45535108 -0.39297652 0.05767244 0.025446545 -0.121396974 -0.3988428 -0.062341567 0.46812075 -0.15831526 -0.21824068 0.4814226 0.16154364 0.6293287 0.08090038 -0.20032643 -0.5412208 -0.1676328 -0.25275972 -0.044848837 0.6895841 -0.053897463 -0.2962018 -0.29765442 0.038552545 -0.11935446 -0.40067562 -0.41471213 0.078685634 -0.02843641 -0.1425813 -0.8282932 0.37485498 -0.53920215 0.49190688 -0.10442066 0.7595431 0.014107938 -0.18967587 0.35363594 0.34542084 -0.4075378 -0.17553093 0.14743784 0.6171457 -0.35175446 0.114834554 -0.12354619 0.14922571 -0.12037443 -0.66001624 -0.37177894 -0.00089568 -0.148944 0.39750278 -0.23844197 0.17207539 -0.32234275 0.2983775 0.5850216 0.13186839 -0.35925975 0.060473286 0.2895348 0.41548526 0.32545403 -0.47014228 0.9605688 0.10210745 -0.21247463 0.21989144 0.4808947 -0.47542024 0.057360116 -0.038651947 -0.45496094 -0.4862537 0.25860342 -0.71011674 0.34059447 0.03989012 -0.15348797 -0.10062427 -0.17871802 0.16924536 0.17855372 0.051559515 0.12873068 -0.024443766 0.07946189 0.466391 -0.19316082 0.060328104 0.19766311 0.106518 0.40300077 -0.29606736 -0.2332009 0.13988534 0.040540267 -1.1523796 0.22652422 0.0387014 0.48235083 0.16849309 0.27653667
4061 -0.0013299126 -0.022386592 0.22272442 -0.18644872 -0.17222163 -0.110728726 0.1907517 0.19027445 -0.0059486898 0.40428984 0.18426208 0.3215175 0.5999991 -0.17233214 0.7560602 -0.34068128 0.13524087 -0.502827 -0.16638105 -0.2583801 -0.24566774 0.14759661 0.017133351 -1.1033009 -0.36907744 0.6396617 0.15417133 -0.67452663 -0.0581533 -0.1684842 0.38099214 -0.19664732 0.18765399 0.46055838 -0.3433896 0.030224964 -0.56116337 -0.069438085 -0.56496996 -0.1395496 -0.3323609 -0.23282367 -0.43127382 -0.37558743 0.46299648 -0.17328487 -0.5065026 -0.24214411 0.03880005 0.613547 0.0154346395 0.057100262 0.031832047 -0.13549761 -0.09295593 -0.3613689 0.43299165 -0.5040641 -0.31778 0.5140213 -0.90660006 0.28619942 0.2671351 -0.027202142 -0.4013031 0.18852176 0.44219115 -0.691992 -0.31037474 0.22625113 -0.025704954 0.5903614 0.05379889 -0.2460617 0.59867424 0.22552575 -0.050044242 0.41710925 -0.21352614 -0.52747744 0.38393578 0.8473315 0.16628483 0.35159042 -0.30566075 0.08886273 0.58156836 0.5959882 -0.15543917 0.6162351 0.1254436 0.007282623 0.95173025 0.3222252 0.09941751 -0.304713 -0.17449962 -0.09549142 -0.30154574 -0.38654035 -0.4798247 -0.4312513 0.2576199 0.07164377 -0.9865229 -0.27132857 0.020029815 0.5804919 -0.62219125 -0.33895254 0.15051048 0.118889146 0.07245526 0.3193908 -0.753909 -0.043151014 -0.28002205 -0.060217306 -0.040155645 -0.035766214 0.5394973 -0.03905748 -0.5532152 0.40844226 0.68233687 0.0971148 0.44338867 -0.3928309
4011 -0.1914579 0.37224978 0.28314573 -0.30410415 0.56597453 -0.23845118 -0.17643528 0.47749507 -0.004382297 0.44948095 0.45316017 0.27143505 0.31406954 -0.7481288 0.081026725 -0.0012384157 0.30923438 -0.27545318 0.5615739 -0.2231356 -0.67287034 -0.49013445 -0.26795065 -0.59245795 -0.52903306 0.13677385 -0.16404209 -0.14047301 -0.4951266 -0.13025068 0.3791944 -0.20658033 -0.16565631 0.5774897 0.16173992 0.44805825 0.032440618 -0.2749451 -0.3902938 -0.1485657 -0.3374818 0.12735784 0.5959617 -0.24659918 -0.27403602 -0.2308981 0.0033345493 -0.17139995 -0.32373613 -0.33223453 0.103188775 0.08823773 -0.15441284 -0.7400773 0.4833633 -0.5796077 0.49443614 -0.38413817 0.6364312 0.055747442 -0.046704825 0.31157115 0.38165438 -0.2152418 -0.13545372 0.090230346 0.7753232 -0.3815343 0.079964265 -0.12888426 -0.07671353 -0.030661488 -0.6721055 -0.40944168 -0.09473819 -0.14863062 0.4751278 -0.45999756 0.15386006 -0.21913815 0.41796023 0.70705384 0.19197957 -0.18089752 -0.11760445 0.39236206 0.7227094 0.40810606 -0.30701256 0.9313344 0.15739608 -0.31021887 0.23232757 0.5091614 -0.500432 0.052042194 -0.083378166 -0.58441347 -0.3199908 0.12167228 -0.8186751 0.3689836 0.25970298 -0.18990743 -0.2712012 0.06704532 0.13429405 -0.009054048 0.0901586 0.02945632 0.10299722 0.21193163 0.27913222 -0.16751891 -0.09648794 0.007696725 0.19465186 0.3166729 -0.2507071 -0.22124256 -0.07752545 0.011649361 -1.1246833 0.30478713 0.015087151 0.5198552 0.10566817 0.12798366
14348 -0.41905484 0.27042806 -0.3586057 -0.059848476 -0.45753756 0.089696184 -0.18578067 0.15793638 -0.2163103 0.4721528 0.16587386 0.4270427 0.49293554 0.23166943 0.6823477 -0.27263606 0.64912623 -0.5204182 -0.043933474 0.17315644 -0.41552895 0.0012822781 -0.23425382 -0.85079765 -0.5083487 -0.035235707 -0.083281636 -0.38609856 -0.5735924 -0.08183566 0.6509669 -0.13731377 -0.13164543 0.7325167 -0.37777436 0.25199342 0.38360846 -0.11740242 -0.3360659 0.034450572 0.18303257 -0.6506788 0.4547309 0.052406672 0.06816272 -0.23731841 -0.3973533 -0.0077114576 0.29272586 -0.03821568 0.2605069 -0.17115636 -0.24928604 -0.36315325 0.0891426 -0.8244561 0.38686955 -0.01889465 0.31036267 0.4451586 -0.48213008 0.2836662 -0.3795768 0.31208706 0.024494525 0.3506933 0.147481 -0.6823265 -0.20514826 -0.6503952 0.50988364 -0.20878339 -0.2940808 -0.7869366 0.84978914 -0.26822206 0.10993228 0.30334002 0.14552188 0.03866245 0.49917856 0.5888326 -0.3559552 -0.16292334 0.42668864 0.044964004 0.19661453 0.6314954 -0.090842985 0.8628799 -0.14953397 0.050329983 0.33865604 0.03109167 -0.3410106 -0.8859539 0.007880351 -0.11742656 -0.09075443 0.40426037 -0.60478413 0.31240544 -0.5750867 0.04978584 -0.720674 -0.004245214 0.25806743 0.05752 -0.27170157 -0.08079411 -0.009007203 0.074094154 0.4090241 0.21457197 -0.54235125 0.25852013 -0.46280307 0.3749682 0.22811046 -0.4472204 0.71146375 0.39169568 -0.61199784 0.057616487 0.25513858 0.03676794 0.288028 -0.33426344
9567 -0.07988162 0.1999743 0.15898022 -0.34529865 0.49659914 0.28544715 -0.62592053 0.10734262 0.43867046 0.49742657 0.4327315 0.24486658 0.2868909 -0.33754846 0.6536077 0.17284214 0.15530193 -0.6144607 0.6782757 -0.31995627 -1.1440036 -0.13522583 -0.24861395 -1.002179 -0.6997359 0.26576224 0.18637604 -0.085032895 -0.56304866 -0.0426037 0.48888072 -0.4521831 0.1929386 0.52674186 -0.46836084 0.4614391 0.23621178 -0.13688712 -0.7151477 -0.30462143 -0.3814228 0.14410353 -0.014270805 -0.35880187 0.20622922 -0.078554995 0.08815162 -0.27672172 0.069806434 0.5762321 0.071900465 -0.30646315 0.98158735 -0.7755029 0.11492489 -0.3972095 0.93114007 -0.15462092 -0.09016283 -0.0039189802 -0.7142001 0.5737254 0.45377022 -0.2470274 0.29139113 0.486621 0.5916859 -0.38526356 -0.3133494 -0.24198943 0.10610523 -0.11389942 -0.26675466 -0.11770496 -0.43195802 0.28846937 -0.095703356 0.17323804 -0.1725491 0.45670125 0.38258147 0.9543537 -0.27318972 0.43555313 -0.52448183 0.2381729 0.42852706 0.31562445 -0.07159595 0.346009 0.1526133 -0.56444865 0.73434985 0.25818476 0.18041492 0.50926274 -0.3002836 -0.53317463 0.15314981 -0.7447937 -0.6460301 0.22829618 -0.4212717 -0.034372922 -0.49928373 0.0066817193 0.1732943 0.53706336 -0.29908097 -0.124795415 0.37655815 -0.38248545 -0.1767275 0.36592132 -0.36171433 -0.5049845 -0.4931397 0.19202635 0.11328276 0.051397476 -0.2617557 -0.37166712 -1.0597342 0.543058 0.47896776 -0.2941429 0.26245776 0.016303051
267 -0.25087017 0.29773352 -0.004426114 -0.18777135 -4.2979795e-05 0.06473715 0.025862996 0.34193546 -0.03932932 0.17906737 -0.14126487 0.46025133 0.24201548 0.15975583 0.7064746 -0.34688032 0.6146305 -0.14418304 0.26868406 -0.09078884 -0.20629613 -0.6541808 0.053950567 -0.757253 -0.61261827 0.17634717 0.26198962 -0.18162496 -0.83962214 -0.27127576 0.17388591 -0.17566969 0.51044136 0.33895177 -0.09887413 -0.061241128 -0.1381461 -0.13813795 -0.44679356 0.0075152824 -0.20811081 -0.6227324 0.39137363 0.03601671 0.4557535 0.1330654 -0.23842968 -0.11513375 -0.06917205 0.672389 0.23156013 -0.15204951 0.5565294 -0.25058237 0.07048315 -0.9352128 0.8490145 -0.4824081 -0.11069822 0.69232464 -0.44148186 0.34687188 0.48420945 0.16895603 -0.21035963 0.3668709 0.4031191 -0.8327051 -0.5635491 0.43115607 0.33880323 0.15048496 -0.33149892 0.031620793 0.13035303 0.231033 -0.4525444 0.2902203 -0.27377695 -0.68811524 0.57440186 0.50902593 -0.10997584 0.21529569 0.16894886 0.39449492 0.8401664 0.6730031 0.011545635 0.5621139 0.19568369 -0.15841056 0.6666797 0.68088657 -0.49524355 -0.4761584 0.23082303 -0.07509821 -0.87457895 -0.20012327 -0.5814776 0.4400418 0.06937129 -0.09680722 -0.8164295 -0.51867306 0.2828734 0.5682553 -0.4400001 -0.11429161 0.2625704 -0.2307924 -0.3144824 0.109032564 -0.1550891 -0.24518354 -0.470738 0.48740733 -0.6432366 -0.09633917 0.6291599 0.003715241 -0.75936055 -0.43922988 0.24330778 0.1965299 0.30658403 -0.16124798
10264 -0.7464328 0.457492 -0.066913225 -0.14321646 0.540808 -0.17418832 -0.0056668883 -0.04107519 0.26025924 -0.10379195 -0.5867144 0.34135965 0.027660303 -0.2845805 0.8922907 -0.3916549 0.40064514 -0.4375394 0.2781415 0.120659135 0.5854445 0.091266036 0.11465557 -0.050461598 -1.3219 0.20018622 -0.035714343 0.02062498 -1.0218018 -0.6660368 0.58273494 -0.38776264 -0.17123128 0.4841677 -0.23071194 -0.09596154 -0.14679943 0.018357467 -0.1067783 -0.40483877 -0.6645844 0.057084393 -0.16565344 0.26815832 0.27433223 0.13126004 0.4878648 -0.03270769 0.40808097 -0.0033126983 -0.38079587 0.18719156 -0.06244438 0.18593435 0.34556368 -0.28077 0.29011166 -0.30551213 0.041743502 0.8148857 0.3150457 0.34802747 0.6278215 0.11617062 0.120274976 0.26148292 0.10426262 -0.73942614 -0.20327511 -0.37564906 0.5798512 0.20189275 -0.16570887 -0.44326708 0.019009836 -0.07107313 0.39165682 -0.34022853 -0.08288735 -0.20747839 0.9126567 0.39368942 -0.5714688 -0.07522261 0.32277605 0.58711064 0.80676436 0.39265415 -0.49827176 0.37815621 0.029857248 -0.24822801 0.6712167 0.06091184 -0.20644224 -0.4294748 -0.38258556 -0.05624052 -0.24117032 0.24928768 -0.75724053 -0.09957336 0.8237834 0.5632826 -1.0744817 -0.29752365 -0.12534122 0.09860316 -0.023631202 0.03473265 -0.7899679 0.049666148 -0.16529545 0.14240895 -0.6693926 0.54569554 -0.2976589 1.2206385 0.14829524 -0.16388795 0.05603239 0.23119152 -0.4589471 -0.03352421 -0.305657 -0.29875657 0.45781678 -0.022910267
4678 -0.14031637 -0.009899377 -0.04823287 -0.5353346 -0.0038639177 -0.48332062 -0.20644541 0.020037392 -0.27194995 0.35106272 0.33068523 0.44564113 0.6240665 0.4585683 0.44419596 -0.20004818 0.38749108 -0.27355686 0.035674274 -0.05013134 -0.16761987 -0.12854216 -0.109817676 -0.27883857 -0.41365373 -0.06120392 0.021248968 -0.21778671 -0.69029677 0.32227042 0.12720703 0.4449505 0.4698608 -0.15482025 0.14537886 0.44209635 -0.1596235 -0.26599652 -0.065806985 -0.34923765 -0.3469262 -0.38315922 -0.5104646 -0.43384206 0.545038 0.2753646 0.09935455 -0.06563645 0.2467329 0.96054083 0.12154332 0.34854373 -0.20364957 -0.3586993 0.042606395 -1.1610315 0.90428865 -0.13128357 0.20602903 0.5601814 -0.011975493 0.25169212 0.1653528 -0.98531777 -0.39797166 0.20591128 0.37131953 -0.07550413 0.06622673 0.38946113 0.8213226 0.20777614 -0.20019864 -0.18322808 0.13638327 0.077359036 -0.02156279 -0.11376546 -0.67643124 -0.3891461 0.50860786 0.42442414 0.023060681 -0.038079645 0.11124826 0.366494 0.3809121 -0.21753952 -0.6153561 0.694101 0.07780738 -0.38569617 0.45963585 0.6535848 -0.26599094 -0.62602127 -0.41311356 0.059057277 -0.41685218 0.18036865 -0.39541805 0.19424765 -0.22514991 0.2868204 -0.39614818 -0.21156028 -0.035140276 0.5388213 -0.07827967 -0.022876523 -0.20160145 -0.20245124 -0.23822424 0.26428455 -0.20438 0.30951545 -0.24541467 0.79773706 -0.07388323 0.6555013 0.57950777 0.5309008 -0.8572253 -0.1246243 0.3511631 0.21360031 -0.23168698 -0.22603244
19384 -0.19079085 0.40297997 0.3174483 -0.21049522 0.33027568 0.221977 -0.09297809 0.23663971 -0.0026167228 0.6945578 0.27783522 0.18468343 0.4304165 -0.26378 0.6112136 -0.5917368 0.4778495 -0.46752048 0.15770125 -0.2486339 -0.77826446 -0.2696559 -0.187014 -1.1784263 -0.67983085 0.23179741 -0.034139946 -0.23357777 -0.8102564 -0.035736438 0.45910847 -0.07099601 0.08510948 0.67093456 -0.25960723 0.31952906 0.27401865 -0.19997807 -0.5229985 7.4452983e-06 -0.4253551 -0.3699724 0.08063403 -0.25240755 0.10175781 -0.2380261 -0.050713014 -0.07877337 0.094090894 0.60830694 0.32407153 -0.071937524 0.5575906 -0.81610656 0.20737465 -0.7360437 0.74872166 -0.32292357 0.22660899 0.33299723 -0.5890402 0.53684175 0.38970998 -0.06390794 0.26191762 0.16081901 0.49380356 -0.5961756 -0.3745096 -0.118265115 0.14127202 0.021067642 -0.30127123 -0.53879946 0.33468997 0.39004302 -0.07338851 0.04378927 -0.09369371 0.10887917 0.58311224 1.0855702 -0.37039003 0.27639735 0.001556916 0.40684146 0.81387824 0.3455084 -0.13581344 0.5439804 0.30082187 -0.24758722 0.7523838 0.55726165 -0.34659168 -0.033149227 -0.11504938 -0.4647054 -0.4589965 -0.43703294 -1.0757792 0.3493759 -0.04678485 -0.21791728 -0.81409174 -0.22504415 0.08903031 0.58132225 -0.089861944 -0.07584978 0.25223494 -0.2192967 -0.09444553 0.34029198 -0.34307802 -0.1463051 -0.39553943 0.5565794 -0.16368568 0.056822073 0.1485717 0.012112792 -1.0509281 0.1614956 0.40414664 0.060401816 0.24647652 -0.31338453
6625 -0.01599626 -0.022401359 0.24167822 -0.2156881 -0.1869321 -0.11405517 0.2087137 0.24605323 -0.0194863 0.39628744 0.20528233 0.34033924 0.587686 -0.16505606 0.7912432 -0.38201317 0.16329262 -0.52876365 -0.16851689 -0.2931404 -0.2505412 0.10009134 -0.0047236457 -1.0998787 -0.38232762 0.6367227 0.14893937 -0.6485872 -0.061284997 -0.16679075 0.38963953 -0.17231436 0.17936938 0.44541606 -0.32661936 0.036242384 -0.5635501 -0.08093196 -0.55137277 -0.13812016 -0.31578425 -0.23462558 -0.40828586 -0.35996225 0.44248748 -0.1918172 -0.52032214 -0.22394978 0.06239135 0.63675225 0.010903427 0.06490342 -0.005372648 -0.15330176 -0.078926824 -0.41453928 0.44033974 -0.5142744 -0.31837142 0.54848915 -0.94142187 0.29047862 0.25258774 -0.016922314 -0.38125467 0.19233465 0.4443436 -0.67363983 -0.31198055 0.21386817 -0.026301324 0.57939976 0.020403566 -0.26724243 0.6042479 0.23928899 -0.05661871 0.41073167 -0.2520273 -0.5644123 0.39920643 0.87426805 0.18802698 0.33659273 -0.3034672 0.09658566 0.6027152 0.5674829 -0.17538494 0.6301553 0.14370582 -0.01811139 0.9535874 0.34561077 0.083052576 -0.3167162 -0.18446828 -0.095533974 -0.32325578 -0.38459766 -0.50377935 -0.42903954 0.25730702 0.09569811 -1.0010035 -0.30129552 0.027181834 0.6088439 -0.5926313 -0.35263586 0.15031022 0.1227346 0.08940464 0.3542942 -0.7426338 -0.023356853 -0.2796162 -0.022549855 -0.0019829473 -0.029000543 0.54976964 -0.029244028 -0.57235825 0.38165507 0.6778916 0.12577331 0.46745777 -0.40300444
4453 -0.18192722 0.13367297 0.06404102 -0.3222381 0.34612682 0.058711816 -0.054700293 0.32681507 -0.020381656 -0.06485347 0.01719818 0.16301915 0.03891795 0.3264053 0.3914453 -0.36661676 0.7119147 -0.298324 0.12100211 -0.4093465 -0.33701903 -0.45198458 -0.4964884 -0.23441462 -0.12455572 0.014959734 0.25122818 0.623045 0.0069991313 -0.064952694 0.6887518 0.41630813 -0.22451028 0.30775908 0.29202297 0.15189053 -0.093480915 0.09974163 -0.2849042 -0.4830514 0.19446382 -0.1426951 0.30419394 0.5082093 0.22801523 -0.34732243 0.16674414 0.3676761 0.011303733 0.11769765 0.08075653 0.030193126 0.09984067 -0.43335104 0.024832774 -0.7369779 0.29662895 0.25230932 0.6061346 0.4831865 -0.8284301 0.36942747 -0.10678374 -0.41907668 0.09056276 0.22288524 0.64921653 -0.17176707 0.020265535 0.0395964 0.67518795 0.037649654 -0.22842485 -0.6796983 0.32665935 0.023454085 0.5441847 -0.11527069 -0.2266983 -0.3929383 0.12868802 0.6692237 -0.3996449 -0.31104338 0.66429627 0.1697208 0.35993373 0.19580527 -0.699108 0.80245864 0.16313791 -0.2275792 0.5108639 0.24454266 -0.05923015 -0.17420796 -0.0017079695 -0.46686742 -1.0579494 -0.045856338 -0.4650084 -0.09847621 -0.010625863 -0.08008963 -0.29563242 -0.7730273 -0.0013253116 0.24418482 0.33712187 0.21582063 -0.6296234 0.19593506 0.35101604 0.25193906 -0.0986425 0.6620394 -0.23898983 0.91361076 -0.044193417 0.24337508 0.27609953 0.27630407 -0.8918813 -0.2022166 0.16115619 0.22528355 0.22627376 0.021168975
4801 -0.22371575 0.3013139 0.07444341 0.41855225 0.15417926 0.26916042 0.3097121 -0.29942062 0.15306604 -0.24092846 -0.5645484 0.10253093 0.49417505 0.16705705 0.7806547 -0.7165818 0.05878434 -0.59358746 -0.35409373 -0.030222338 0.09881594 0.15261543 -0.01850088 -0.9256373 -1.2292879 -0.10231479 -0.18259043 -0.75829846 -0.49070063 -0.38568208 -0.13099563 -0.063625515 0.33771732 -0.1357944 -0.162007 -0.1414367 -0.09520119 0.46030274 -0.16706644 0.2893006 -0.45852938 -0.4794413 -0.12995484 -0.036175422 0.5012702 0.04449157 -0.02305815 -0.112454556 0.4640946 0.6865457 0.13748904 0.022261528 0.64887995 -0.16245292 -0.104780756 -0.13945095 0.31851912 -0.521231 -0.090129115 0.8518964 -0.040504016 0.715935 0.59494305 0.11523544 -0.2696053 0.11013868 -0.2366981 -0.70183283 -0.634182 0.27135006 0.31564534 0.19725731 0.0134728495 -0.25753444 0.33427712 0.59147364 -0.5955905 0.2413679 -0.41430208 0.4043388 0.57427007 0.64289427 -0.41507226 0.32339412 0.2654312 0.08207959 0.369185 0.6644915 -0.18349189 -0.46678793 0.10324626 -0.020413646 0.81434697 0.31538752 -0.20895864 -0.34843683 0.028857835 0.1221491 -0.56458485 -0.48779973 -0.6375027 0.07020544 0.28997892 -0.092477635 -1.3092308 -0.09975502 0.4428899 0.53660965 -0.6345234 0.010509203 0.1440487 -0.34344456 -0.24249747 0.41894007 -0.66433525 -0.37952372 -0.2606183 0.5291289 -0.17239386 0.4916897 0.0012478979 0.096789345 -0.4038842 -0.5947266 0.6610727 -0.0009106616 0.358065 -0.4994792
6337 0.05641607 0.5591891 0.25908214 -0.20811698 0.80547684 0.25026953 0.2000579 -0.34957802 -0.34020907 0.089201085 0.12055158 0.25028256 0.05853206 -0.4459368 0.151863 -0.5020594 -0.29299027 -0.7435231 0.28535733 -0.5961397 -0.17580767 0.085957415 -0.11936157 -0.8145667 -0.82324666 -0.3461455 -0.08446229 -0.1484952 -0.61196375 0.17008148 0.6696389 -0.082568936 -0.08424982 0.72721547 -0.74094266 0.4845211 0.48283494 -0.0827062 -0.5282512 0.04720174 -0.6529304 0.0245917 0.17421858 -0.30834162 -0.5595262 -0.09454699 0.2808339 -0.0009996244 0.5072486 0.474928 -0.06255096 0.286885 0.27562276 -0.64702314 0.14998311 0.2341747 0.2166353 0.45627722 0.03404017 0.097252846 -0.1981848 0.482437 0.15228087 -0.38213405 0.8142375 0.01224696 0.31068254 -0.5433957 0.09257813 -0.10397304 0.15998426 0.022975067 -0.45361286 -0.47192597 -0.12785998 0.20712791 0.23412223 -0.094519824 -0.17125249 0.9717666 0.28880233 0.44382584 -0.5227099 0.3549949 0.0070758704 0.42273206 0.6332265 -0.67938495 -0.72353965 0.2923212 0.17176835 -0.4111324 0.57383907 0.15239787 -0.15395625 0.011049978 0.01036931 -0.45263878 -0.52873945 -0.3619055 -0.9930447 -0.023581056 0.027347123 -0.1535451 -1.1251606 -0.49150237 0.2346956 0.68450224 -0.008519313 0.4298259 -0.1500514 -0.487345 -0.049318448 0.34922442 -0.31546086 -0.3169084 -0.46476886 0.29773456 -0.03304965 -0.05819819 -0.10293345 -0.1405989 -0.5444371 -0.24372853 0.46886197 -0.002347708 -0.0035484235 -0.28530475
6398 -0.0696802 0.31034234 0.23984028 -0.37695974 0.50925434 0.36785975 -0.63861567 0.028291943 0.34755853 0.63627833 0.5361591 0.34398115 0.3142823 -0.4553498 0.66172004 0.12000512 0.07750652 -0.50745356 0.6992458 -0.35633796 -1.1305813 -0.09702604 -0.23223932 -1.0546672 -0.7534508 0.25124246 0.15682207 -0.11402341 -0.64695454 -0.012870606 0.56775236 -0.39290506 0.14069718 0.5294538 -0.5771118 0.41989172 0.32983798 -0.10441751 -0.714734 -0.29666203 -0.42696992 0.1274466 0.033673353 -0.40427923 0.14700408 -0.12676117 0.111643486 -0.30456036 0.0843914 0.6259159 0.107637584 -0.29094934 1.0132548 -0.6624458 0.1505318 -0.22856963 1.0001198 -0.15171218 -0.068845026 -0.011926452 -0.685994 0.5723334 0.47363958 -0.21780252 0.33472353 0.39446503 0.6269676 -0.49408963 -0.32562882 -0.24751477 0.007479891 -0.16310391 -0.18221095 -0.07888226 -0.4615425 0.23937678 -0.090725295 0.21637958 -0.11431543 0.56539917 0.546313 0.8803556 -0.24162485 0.4952454 -0.51892364 0.29834655 0.4087565 0.23921184 -0.037188817 0.29148415 0.1476861 -0.52295256 0.7880321 0.17009035 0.07763182 0.4250695 -0.34559804 -0.5365832 0.15434788 -0.7012157 -0.7727484 0.28647768 -0.3997408 -0.00057733036 -0.5852952 -0.00785035 0.21393964 0.52588505 -0.4356096 -0.09228197 0.48918787 -0.47461492 -0.12747923 0.3211463 -0.43252108 -0.54158473 -0.4628791 0.20240162 0.13655706 -0.0036177603 -0.25760823 -0.38734868 -1.1071215 0.5179274 0.46073842 -0.35548493 0.2467964 -0.10675484
891 -0.24029554 0.42693305 0.29196528 -0.2667847 0.3677757 0.017034192 0.12928788 0.2579096 0.013246247 0.4962626 0.12926322 0.22144814 0.32553822 -0.16970389 0.6963887 -0.6259452 0.47209215 -0.47247505 0.17084128 -0.2906315 -0.44135717 -0.47988546 -0.17102587 -0.846653 -0.8277763 0.15658514 -0.027022619 -0.18062346 -0.72287524 -0.21194294 0.5442284 -0.018058607 0.12152757 0.51036185 -0.18057188 0.1414625 -0.014525005 -0.033293847 -0.5081262 -0.14017321 -0.46709487 -0.17744514 0.031114755 -0.079831265 0.1852233 -0.21180047 0.063622534 -0.08252296 0.22803444 0.48285457 0.10644609 0.044638287 0.3765183 -0.56350446 0.3075292 -0.6653705 0.47617403 -0.272462 0.19760506 0.62621677 -0.47401094 0.6570024 0.28450596 -0.13290343 0.13427031 0.14323042 0.43743896 -0.6225097 -0.32159564 0.037687205 0.43094662 0.124636665 -0.26927432 -0.4905408 0.32502598 0.39281315 0.15349951 -0.14027016 -0.27057683 -0.08209166 0.69924843 0.8544782 -0.41603684 0.06762127 0.19956245 0.34108332 0.6745453 0.3857769 -0.48070598 0.50485504 0.21571107 -0.23835345 0.83451146 0.5098901 -0.3435823 -0.25116593 -0.15859948 -0.39237267 -0.5870845 -0.26667914 -1.0035961 0.1123251 0.29566756 -0.10150209 -0.9340069 -0.42840418 0.048971653 0.53070676 0.03662295 -0.06140954 -0.0040629725 -0.027064884 0.067287855 0.33121267 -0.3625531 0.11613225 -0.37387413 0.7597543 -0.1548881 0.20042448 0.17456536 0.058166526 -0.9703599 -0.1577099 0.264513 0.14568561 0.4863382 -0.28046092
